<?xml version="1.0"?>
<opencv_storage>
<cascade>
  <stageType>BOOST</stageType>
  <featureType>HAAR</featureType>
  <height>12</height>
  <width>12</width>
  <stageParams>
    <boostType>DAB</boostType>
    <minHitRate>9.9500000476837158e-01</minHitRate>
    <maxFalseAlarm>5.0000000000000000e-01</maxFalseAlarm>
    <weightTrimRate>9.4999999999999996e-01</weightTrimRate>
    <maxDepth>1</maxDepth>
    <maxWeakCount>100</maxWeakCount></stageParams>
  <featureParams>
    <maxCatCount>0</maxCatCount>
    <featSize>1</featSize>
    <mode>BASIC</mode></featureParams>
  <stageNum>8</stageNum>
  <stages>
    <!-- stage 0 -->
    <_>
      <maxWeakCount>15</maxWeakCount>
      <stageThreshold>-5.0699896812438965e+00</stageThreshold>
      <weakClassifiers>
        <_>
          <internalNodes>
            0 -1 152 -5.6013852357864380e-02</internalNodes>
          <leafValues>
            2.4337320327758789e+00 -2.4337320327758789e+00</leafValues></_>
        <_>
          <internalNodes>
            0 -1 75 -1.7880824208259583e-01</internalNodes>
          <leafValues>
            1.3631587028503418e+00 -1.3631587028503418e+00</leafValues></_>
        <_>
          <internalNodes>
            0 -1 14 1.0132265090942383e-01</internalNodes>
          <leafValues>
            -8.2023477554321289e-01 8.2023477554321289e-01</leafValues></_>
        <_>
          <internalNodes>
            0 -1 46 -1.7310252878814936e-03</internalNodes>
          <leafValues>
            8.8703793287277222e-01 -8.8703793287277222e-01</leafValues></_>
        <_>
          <internalNodes>
            0 -1 106 -2.4559969082474709e-02</internalNodes>
          <leafValues>
            7.6685285568237305e-01 -7.6685285568237305e-01</leafValues></_>
        <_>
          <internalNodes>
            0 -1 216 -3.8172926753759384e-02</internalNodes>
          <leafValues>
            -5.3859394788742065e-01 5.3859394788742065e-01</leafValues></_>
        <_>
          <internalNodes>
            0 -1 160 -1.1538654565811157e-02</internalNodes>
          <leafValues>
            6.9145584106445313e-01 -6.9145584106445313e-01</leafValues></_>
        <_>
          <internalNodes>
            0 -1 90 3.1427931971848011e-03</internalNodes>
          <leafValues>
            5.9345978498458862e-01 -5.9345978498458862e-01</leafValues></_>
        <_>
          <internalNodes>
            0 -1 166 1.3919418677687645e-02</internalNodes>
          <leafValues>
            -6.7577022314071655e-01 6.7577022314071655e-01</leafValues></_>
        <_>
          <internalNodes>
            0 -1 42 3.5620606504380703e-03</internalNodes>
          <leafValues>
            6.4670240879058838e-01 -6.4670240879058838e-01</leafValues></_>
        <_>
          <internalNodes>
            0 -1 131 1.4236552640795708e-02</internalNodes>
          <leafValues>
            -5.8248430490493774e-01 5.8248430490493774e-01</leafValues></_>
        <_>
          <internalNodes>
            0 -1 116 -1.7954839393496513e-02</internalNodes>
          <leafValues>
            5.3270298242568970e-01 -5.3270298242568970e-01</leafValues></_>
        <_>
          <internalNodes>
            0 -1 15 2.1532121300697327e-01</internalNodes>
          <leafValues>
            5.1194584369659424e-01 -5.1194584369659424e-01</leafValues></_>
        <_>
          <internalNodes>
            0 -1 98 1.4031148515641689e-02</internalNodes>
          <leafValues>
            -6.1776888370513916e-01 6.1776888370513916e-01</leafValues></_>
        <_>
          <internalNodes>
            0 -1 99 -9.7973048686981201e-03</internalNodes>
          <leafValues>
            6.4954626560211182e-01 -6.4954626560211182e-01</leafValues></_></weakClassifiers></_>
    <!-- stage 1 -->
    <_>
      <maxWeakCount>17</maxWeakCount>
      <stageThreshold>-4.7644429206848145e+00</stageThreshold>
      <weakClassifiers>
        <_>
          <internalNodes>
            0 -1 120 -4.5161977410316467e-02</internalNodes>
          <leafValues>
            2.3856601715087891e+00 -2.3856601715087891e+00</leafValues></_>
        <_>
          <internalNodes>
            0 -1 49 2.0961856842041016e-01</internalNodes>
          <leafValues>
            -9.3376517295837402e-01 9.3376517295837402e-01</leafValues></_>
        <_>
          <internalNodes>
            0 -1 8 1.7980484664440155e-01</internalNodes>
          <leafValues>
            -7.8941607475280762e-01 7.8941607475280762e-01</leafValues></_>
        <_>
          <internalNodes>
            0 -1 119 -2.4285839870572090e-02</internalNodes>
          <leafValues>
            7.3320096731185913e-01 -7.3320096731185913e-01</leafValues></_>
        <_>
          <internalNodes>
            0 -1 214 1.5228953270707279e-04</internalNodes>
          <leafValues>
            -7.3764497041702271e-01 7.3764497041702271e-01</leafValues></_>
        <_>
          <internalNodes>
            0 -1 114 1.9771335646510124e-02</internalNodes>
          <leafValues>
            -6.1372005939483643e-01 6.1372005939483643e-01</leafValues></_>
        <_>
          <internalNodes>
            0 -1 3 1.6396450810134411e-03</internalNodes>
          <leafValues>
            6.3111507892608643e-01 -6.3111507892608643e-01</leafValues></_>
        <_>
          <internalNodes>
            0 -1 47 -2.1958458237349987e-03</internalNodes>
          <leafValues>
            5.0831764936447144e-01 -5.0831764936447144e-01</leafValues></_>
        <_>
          <internalNodes>
            0 -1 31 -1.3199682533740997e-01</internalNodes>
          <leafValues>
            -4.8077604174613953e-01 4.8077604174613953e-01</leafValues></_>
        <_>
          <internalNodes>
            0 -1 140 2.3211747407913208e-02</internalNodes>
          <leafValues>
            -7.1120870113372803e-01 7.1120870113372803e-01</leafValues></_>
        <_>
          <internalNodes>
            0 -1 57 -1.4029389619827271e-01</internalNodes>
          <leafValues>
            5.0451517105102539e-01 -5.0451517105102539e-01</leafValues></_>
        <_>
          <internalNodes>
            0 -1 95 2.3182973265647888e-02</internalNodes>
          <leafValues>
            -5.9612154960632324e-01 5.9612154960632324e-01</leafValues></_>
        <_>
          <internalNodes>
            0 -1 214 4.1291997767984867e-03</internalNodes>
          <leafValues>
            5.1235407590866089e-01 -5.1235407590866089e-01</leafValues></_>
        <_>
          <internalNodes>
            0 -1 145 -1.4056364074349403e-02</internalNodes>
          <leafValues>
            5.5973130464553833e-01 -5.5973130464553833e-01</leafValues></_>
        <_>
          <internalNodes>
            0 -1 7 6.1235284805297852e-01</internalNodes>
          <leafValues>
            4.1574460268020630e-01 -4.1574460268020630e-01</leafValues></_>
        <_>
          <internalNodes>
            0 -1 169 1.1818422004580498e-02</internalNodes>
          <leafValues>
            -5.8423733711242676e-01 5.8423733711242676e-01</leafValues></_>
        <_>
          <internalNodes>
            0 -1 48 -3.8148553576320410e-03</internalNodes>
          <leafValues>
            -4.2165872454643250e-01 4.2165872454643250e-01</leafValues></_></weakClassifiers></_>
    <!-- stage 2 -->
    <_>
      <maxWeakCount>20</maxWeakCount>
      <stageThreshold>-4.5857348442077637e+00</stageThreshold>
      <weakClassifiers>
        <_>
          <internalNodes>
            0 -1 94 -1.9681293517351151e-02</internalNodes>
          <leafValues>
            2.3868389129638672e+00 -2.3868389129638672e+00</leafValues></_>
        <_>
          <internalNodes>
            0 -1 68 -3.6607503890991211e-01</internalNodes>
          <leafValues>
            8.4731328487396240e-01 -8.4731328487396240e-01</leafValues></_>
        <_>
          <internalNodes>
            0 -1 204 2.4078041315078735e-03</internalNodes>
          <leafValues>
            -6.5366643667221069e-01 6.5366643667221069e-01</leafValues></_>
        <_>
          <internalNodes>
            0 -1 118 1.9557613879442215e-02</internalNodes>
          <leafValues>
            -6.2843358516693115e-01 6.2843358516693115e-01</leafValues></_>
        <_>
          <internalNodes>
            0 -1 18 -2.6099760085344315e-02</internalNodes>
          <leafValues>
            -7.6319098472595215e-01 7.6319098472595215e-01</leafValues></_>
        <_>
          <internalNodes>
            0 -1 167 1.4006352983415127e-02</internalNodes>
          <leafValues>
            -5.7468074560165405e-01 5.7468074560165405e-01</leafValues></_>
        <_>
          <internalNodes>
            0 -1 112 -4.4543474912643433e-02</internalNodes>
          <leafValues>
            5.5967170000076294e-01 -5.5967170000076294e-01</leafValues></_>
        <_>
          <internalNodes>
            0 -1 62 -2.9416973702609539e-03</internalNodes>
          <leafValues>
            -5.8087319135665894e-01 5.8087319135665894e-01</leafValues></_>
        <_>
          <internalNodes>
            0 -1 102 -5.9174157679080963e-02</internalNodes>
          <leafValues>
            6.4981794357299805e-01 -6.4981794357299805e-01</leafValues></_>
        <_>
          <internalNodes>
            0 -1 10 -1.3885080814361572e-01</internalNodes>
          <leafValues>
            -5.3738236427307129e-01 5.3738236427307129e-01</leafValues></_>
        <_>
          <internalNodes>
            0 -1 146 1.9701883196830750e-02</internalNodes>
          <leafValues>
            -6.7053645849227905e-01 6.7053645849227905e-01</leafValues></_>
        <_>
          <internalNodes>
            0 -1 129 8.3631828427314758e-02</internalNodes>
          <leafValues>
            4.7398787736892700e-01 -4.7398787736892700e-01</leafValues></_>
        <_>
          <internalNodes>
            0 -1 100 2.0683608949184418e-02</internalNodes>
          <leafValues>
            -5.4025226831436157e-01 5.4025226831436157e-01</leafValues></_>
        <_>
          <internalNodes>
            0 -1 7 5.8939248323440552e-01</internalNodes>
          <leafValues>
            4.3466204404830933e-01 -4.3466204404830933e-01</leafValues></_>
        <_>
          <internalNodes>
            0 -1 185 1.6232844442129135e-02</internalNodes>
          <leafValues>
            -4.9666708707809448e-01 4.9666708707809448e-01</leafValues></_>
        <_>
          <internalNodes>
            0 -1 34 -3.1974125653505325e-02</internalNodes>
          <leafValues>
            4.1867893934249878e-01 -4.1867893934249878e-01</leafValues></_>
        <_>
          <internalNodes>
            0 -1 52 -1.8231803551316261e-02</internalNodes>
          <leafValues>
            5.0011014938354492e-01 -5.0011014938354492e-01</leafValues></_>
        <_>
          <internalNodes>
            0 -1 200 -8.0418889410793781e-04</internalNodes>
          <leafValues>
            4.3034699559211731e-01 -4.3034699559211731e-01</leafValues></_>
        <_>
          <internalNodes>
            0 -1 97 3.6773197352886200e-02</internalNodes>
          <leafValues>
            -4.5830398797988892e-01 4.5830398797988892e-01</leafValues></_>
        <_>
          <internalNodes>
            0 -1 16 -2.1880695130676031e-03</internalNodes>
          <leafValues>
            -4.8278605937957764e-01 4.8278605937957764e-01</leafValues></_></weakClassifiers></_>
    <!-- stage 3 -->
    <_>
      <maxWeakCount>32</maxWeakCount>
      <stageThreshold>-4.5306792259216309e+00</stageThreshold>
      <weakClassifiers>
        <_>
          <internalNodes>
            0 -1 162 5.0297554582357407e-02</internalNodes>
          <leafValues>
            -2.3704426288604736e+00 2.3704426288604736e+00</leafValues></_>
        <_>
          <internalNodes>
            0 -1 113 -5.9595230966806412e-02</internalNodes>
          <leafValues>
            7.7049523591995239e-01 -7.7049523591995239e-01</leafValues></_>
        <_>
          <internalNodes>
            0 -1 201 8.8653359562158585e-03</internalNodes>
          <leafValues>
            -5.9833973646163940e-01 5.9833973646163940e-01</leafValues></_>
        <_>
          <internalNodes>
            0 -1 46 -1.1306642554700375e-03</internalNodes>
          <leafValues>
            6.2855839729309082e-01 -6.2855839729309082e-01</leafValues></_>
        <_>
          <internalNodes>
            0 -1 154 -1.9537271000444889e-03</internalNodes>
          <leafValues>
            -5.3087145090103149e-01 5.3087145090103149e-01</leafValues></_>
        <_>
          <internalNodes>
            0 -1 186 1.4318840578198433e-02</internalNodes>
          <leafValues>
            -5.2898347377777100e-01 5.2898347377777100e-01</leafValues></_>
        <_>
          <internalNodes>
            0 -1 2 -2.2450988180935383e-03</internalNodes>
          <leafValues>
            5.5349606275558472e-01 -5.5349606275558472e-01</leafValues></_>
        <_>
          <internalNodes>
            0 -1 21 -6.2083890661597252e-03</internalNodes>
          <leafValues>
            -4.4618538022041321e-01 4.4618538022041321e-01</leafValues></_>
        <_>
          <internalNodes>
            0 -1 183 -3.0280113220214844e-02</internalNodes>
          <leafValues>
            5.4205858707427979e-01 -5.4205858707427979e-01</leafValues></_>
        <_>
          <internalNodes>
            0 -1 112 -3.0311965942382813e-01</internalNodes>
          <leafValues>
            -4.9001348018646240e-01 4.9001348018646240e-01</leafValues></_>
        <_>
          <internalNodes>
            0 -1 90 -1.9418738083913922e-03</internalNodes>
          <leafValues>
            -4.0312153100967407e-01 4.0312153100967407e-01</leafValues></_>
        <_>
          <internalNodes>
            0 -1 73 4.0142118930816650e-02</internalNodes>
          <leafValues>
            -5.5604803562164307e-01 5.5604803562164307e-01</leafValues></_>
        <_>
          <internalNodes>
            0 -1 80 4.5797534286975861e-02</internalNodes>
          <leafValues>
            3.9714702963829041e-01 -3.9714702963829041e-01</leafValues></_>
        <_>
          <internalNodes>
            0 -1 194 1.6188561916351318e-02</internalNodes>
          <leafValues>
            -5.2482390403747559e-01 5.2482390403747559e-01</leafValues></_>
        <_>
          <internalNodes>
            0 -1 203 4.5588897773995996e-04</internalNodes>
          <leafValues>
            -4.6960413455963135e-01 4.6960413455963135e-01</leafValues></_>
        <_>
          <internalNodes>
            0 -1 173 1.2712217867374420e-02</internalNodes>
          <leafValues>
            -4.2447611689567566e-01 4.2447611689567566e-01</leafValues></_>
        <_>
          <internalNodes>
            0 -1 43 -1.4949700795114040e-02</internalNodes>
          <leafValues>
            -3.9409965276718140e-01 3.9409965276718140e-01</leafValues></_>
        <_>
          <internalNodes>
            0 -1 159 -1.4763490296900272e-02</internalNodes>
          <leafValues>
            5.2774339914321899e-01 -5.2774339914321899e-01</leafValues></_>
        <_>
          <internalNodes>
            0 -1 83 -2.1746328473091125e-01</internalNodes>
          <leafValues>
            -3.7809252738952637e-01 3.7809252738952637e-01</leafValues></_>
        <_>
          <internalNodes>
            0 -1 152 -2.9015798121690750e-02</internalNodes>
          <leafValues>
            4.8391556739807129e-01 -4.8391556739807129e-01</leafValues></_>
        <_>
          <internalNodes>
            0 -1 153 1.9042843487113714e-03</internalNodes>
          <leafValues>
            3.9016890525817871e-01 -3.9016890525817871e-01</leafValues></_>
        <_>
          <internalNodes>
            0 -1 124 -2.2718086838722229e-02</internalNodes>
          <leafValues>
            4.0346446633338928e-01 -4.0346446633338928e-01</leafValues></_>
        <_>
          <internalNodes>
            0 -1 214 3.8485047407448292e-03</internalNodes>
          <leafValues>
            3.5779163241386414e-01 -3.5779163241386414e-01</leafValues></_>
        <_>
          <internalNodes>
            0 -1 149 1.6542766243219376e-02</internalNodes>
          <leafValues>
            -4.4478768110275269e-01 4.4478768110275269e-01</leafValues></_>
        <_>
          <internalNodes>
            0 -1 41 9.7883725538849831e-04</internalNodes>
          <leafValues>
            3.5582286119461060e-01 -3.5582286119461060e-01</leafValues></_>
        <_>
          <internalNodes>
            0 -1 147 1.5146743506193161e-02</internalNodes>
          <leafValues>
            -4.2926004528999329e-01 4.2926004528999329e-01</leafValues></_>
        <_>
          <internalNodes>
            0 -1 148 -9.6565118292346597e-04</internalNodes>
          <leafValues>
            4.1243517398834229e-01 -4.1243517398834229e-01</leafValues></_>
        <_>
          <internalNodes>
            0 -1 45 -1.4722080959472805e-04</internalNodes>
          <leafValues>
            3.6345383524894714e-01 -3.6345383524894714e-01</leafValues></_>
        <_>
          <internalNodes>
            0 -1 126 2.8280261904001236e-02</internalNodes>
          <leafValues>
            -4.0477457642555237e-01 4.0477457642555237e-01</leafValues></_>
        <_>
          <internalNodes>
            0 -1 219 -9.6495812758803368e-03</internalNodes>
          <leafValues>
            -3.7699231505393982e-01 3.7699231505393982e-01</leafValues></_>
        <_>
          <internalNodes>
            0 -1 19 -1.5770454704761505e-01</internalNodes>
          <leafValues>
            4.2754441499710083e-01 -4.2754441499710083e-01</leafValues></_>
        <_>
          <internalNodes>
            0 -1 9 -2.5853015482425690e-02</internalNodes>
          <leafValues>
            -3.7640717625617981e-01 3.7640717625617981e-01</leafValues></_></weakClassifiers></_>
    <!-- stage 4 -->
    <_>
      <maxWeakCount>38</maxWeakCount>
      <stageThreshold>-4.6557250022888184e+00</stageThreshold>
      <weakClassifiers>
        <_>
          <internalNodes>
            0 -1 94 -1.6683820635080338e-02</internalNodes>
          <leafValues>
            2.4022669792175293e+00 -2.4022669792175293e+00</leafValues></_>
        <_>
          <internalNodes>
            0 -1 77 -3.2142478227615356e-01</internalNodes>
          <leafValues>
            7.0250165462493896e-01 -7.0250165462493896e-01</leafValues></_>
        <_>
          <internalNodes>
            0 -1 60 5.4075587540864944e-03</internalNodes>
          <leafValues>
            -6.4562213420867920e-01 6.4562213420867920e-01</leafValues></_>
        <_>
          <internalNodes>
            0 -1 43 -1.6307274345308542e-03</internalNodes>
          <leafValues>
            5.2819865942001343e-01 -5.2819865942001343e-01</leafValues></_>
        <_>
          <internalNodes>
            0 -1 199 1.6693554818630219e-02</internalNodes>
          <leafValues>
            -5.2374714612960815e-01 5.2374714612960815e-01</leafValues></_>
        <_>
          <internalNodes>
            0 -1 29 -1.1018982157111168e-02</internalNodes>
          <leafValues>
            -4.9657610058784485e-01 4.9657610058784485e-01</leafValues></_>
        <_>
          <internalNodes>
            0 -1 184 1.0536774061620235e-02</internalNodes>
          <leafValues>
            -4.7441083192825317e-01 4.7441083192825317e-01</leafValues></_>
        <_>
          <internalNodes>
            0 -1 37 -5.5707423016428947e-03</internalNodes>
          <leafValues>
            -3.9665624499320984e-01 3.9665624499320984e-01</leafValues></_>
        <_>
          <internalNodes>
            0 -1 101 -4.4318467378616333e-02</internalNodes>
          <leafValues>
            5.2866023778915405e-01 -5.2866023778915405e-01</leafValues></_>
        <_>
          <internalNodes>
            0 -1 91 -1.0267947614192963e-01</internalNodes>
          <leafValues>
            -4.1717067360877991e-01 4.1717067360877991e-01</leafValues></_>
        <_>
          <internalNodes>
            0 -1 164 1.1774115264415741e-02</internalNodes>
          <leafValues>
            -4.5158439874649048e-01 4.5158439874649048e-01</leafValues></_>
        <_>
          <internalNodes>
            0 -1 161 -1.9258882850408554e-02</internalNodes>
          <leafValues>
            4.7127339243888855e-01 -4.7127339243888855e-01</leafValues></_>
        <_>
          <internalNodes>
            0 -1 23 5.0365221500396729e-01</internalNodes>
          <leafValues>
            4.4170027971267700e-01 -4.4170027971267700e-01</leafValues></_>
        <_>
          <internalNodes>
            0 -1 187 1.3059474527835846e-02</internalNodes>
          <leafValues>
            -4.6851879358291626e-01 4.6851879358291626e-01</leafValues></_>
        <_>
          <internalNodes>
            0 -1 1 3.5479206126183271e-03</internalNodes>
          <leafValues>
            3.7656173110008240e-01 -3.7656173110008240e-01</leafValues></_>
        <_>
          <internalNodes>
            0 -1 54 -1.1086465790867805e-02</internalNodes>
          <leafValues>
            4.2237797379493713e-01 -4.2237797379493713e-01</leafValues></_>
        <_>
          <internalNodes>
            0 -1 72 5.0561830401420593e-02</internalNodes>
          <leafValues>
            3.3896529674530029e-01 -3.3896529674530029e-01</leafValues></_>
        <_>
          <internalNodes>
            0 -1 107 7.7717661857604980e-02</internalNodes>
          <leafValues>
            -4.5667302608489990e-01 4.5667302608489990e-01</leafValues></_>
        <_>
          <internalNodes>
            0 -1 6 5.1039880514144897e-01</internalNodes>
          <leafValues>
            3.4436067938804626e-01 -3.4436067938804626e-01</leafValues></_>
        <_>
          <internalNodes>
            0 -1 66 2.9237046837806702e-02</internalNodes>
          <leafValues>
            -4.5544210076332092e-01 4.5544210076332092e-01</leafValues></_>
        <_>
          <internalNodes>
            0 -1 87 -1.0773825924843550e-03</internalNodes>
          <leafValues>
            -3.6168697476387024e-01 3.6168697476387024e-01</leafValues></_>
        <_>
          <internalNodes>
            0 -1 70 -1.4234457165002823e-02</internalNodes>
          <leafValues>
            4.3675822019577026e-01 -4.3675822019577026e-01</leafValues></_>
        <_>
          <internalNodes>
            0 -1 205 -1.9280087435618043e-03</internalNodes>
          <leafValues>
            -3.4391388297080994e-01 3.4391388297080994e-01</leafValues></_>
        <_>
          <internalNodes>
            0 -1 212 1.1558206751942635e-03</internalNodes>
          <leafValues>
            -3.5434633493423462e-01 3.5434633493423462e-01</leafValues></_>
        <_>
          <internalNodes>
            0 -1 144 1.6478344798088074e-02</internalNodes>
          <leafValues>
            -3.7570139765739441e-01 3.7570139765739441e-01</leafValues></_>
        <_>
          <internalNodes>
            0 -1 198 -3.6527708172798157e-02</internalNodes>
          <leafValues>
            3.3680954575538635e-01 -3.3680954575538635e-01</leafValues></_>
        <_>
          <internalNodes>
            0 -1 151 -4.1637200047262013e-04</internalNodes>
          <leafValues>
            3.1348350644111633e-01 -3.1348350644111633e-01</leafValues></_>
        <_>
          <internalNodes>
            0 -1 127 2.3368123918771744e-02</internalNodes>
          <leafValues>
            -4.5852762460708618e-01 4.5852762460708618e-01</leafValues></_>
        <_>
          <internalNodes>
            0 -1 128 -2.4945297837257385e-01</internalNodes>
          <leafValues>
            -3.2574152946472168e-01 3.2574152946472168e-01</leafValues></_>
        <_>
          <internalNodes>
            0 -1 108 1.5953363850712776e-02</internalNodes>
          <leafValues>
            -3.9279791712760925e-01 3.9279791712760925e-01</leafValues></_>
        <_>
          <internalNodes>
            0 -1 221 2.2230967879295349e-03</internalNodes>
          <leafValues>
            3.4202402830123901e-01 -3.4202402830123901e-01</leafValues></_>
        <_>
          <internalNodes>
            0 -1 182 1.1847477406263351e-02</internalNodes>
          <leafValues>
            -4.6069058775901794e-01 4.6069058775901794e-01</leafValues></_>
        <_>
          <internalNodes>
            0 -1 13 -2.1184796933084726e-03</internalNodes>
          <leafValues>
            -4.1767331957817078e-01 4.1767331957817078e-01</leafValues></_>
        <_>
          <internalNodes>
            0 -1 58 6.2804864719510078e-03</internalNodes>
          <leafValues>
            -3.7462729215621948e-01 3.7462729215621948e-01</leafValues></_>
        <_>
          <internalNodes>
            0 -1 89 3.1064931303262711e-02</internalNodes>
          <leafValues>
            -3.8583558797836304e-01 3.8583558797836304e-01</leafValues></_>
        <_>
          <internalNodes>
            0 -1 20 -4.1588973999023438e-01</internalNodes>
          <leafValues>
            3.4837910532951355e-01 -3.4837910532951355e-01</leafValues></_>
        <_>
          <internalNodes>
            0 -1 197 9.0342306066304445e-04</internalNodes>
          <leafValues>
            3.5957905650138855e-01 -3.5957905650138855e-01</leafValues></_>
        <_>
          <internalNodes>
            0 -1 202 -2.4088835343718529e-03</internalNodes>
          <leafValues>
            3.7880399823188782e-01 -3.7880399823188782e-01</leafValues></_></weakClassifiers></_>
    <!-- stage 5 -->
    <_>
      <maxWeakCount>49</maxWeakCount>
      <stageThreshold>-4.5674576759338379e+00</stageThreshold>
      <weakClassifiers>
        <_>
          <internalNodes>
            0 -1 64 1.5252737328410149e-02</internalNodes>
          <leafValues>
            -2.3939349651336670e+00 2.3939349651336670e+00</leafValues></_>
        <_>
          <internalNodes>
            0 -1 204 3.1500877812504768e-03</internalNodes>
          <leafValues>
            -6.0225450992584229e-01 6.0225450992584229e-01</leafValues></_>
        <_>
          <internalNodes>
            0 -1 26 1.8608178943395615e-02</internalNodes>
          <leafValues>
            -5.5268222093582153e-01 5.5268222093582153e-01</leafValues></_>
        <_>
          <internalNodes>
            0 -1 215 6.4607663080096245e-03</internalNodes>
          <leafValues>
            4.8123836517333984e-01 -4.8123836517333984e-01</leafValues></_>
        <_>
          <internalNodes>
            0 -1 171 -1.5242402441799641e-03</internalNodes>
          <leafValues>
            4.7314193844795227e-01 -4.7314193844795227e-01</leafValues></_>
        <_>
          <internalNodes>
            0 -1 61 1.1999709531664848e-03</internalNodes>
          <leafValues>
            4.2770302295684814e-01 -4.2770302295684814e-01</leafValues></_>
        <_>
          <internalNodes>
            0 -1 165 -1.8444750458002090e-02</internalNodes>
          <leafValues>
            4.9991413950920105e-01 -4.9991413950920105e-01</leafValues></_>
        <_>
          <internalNodes>
            0 -1 181 5.3934426978230476e-04</internalNodes>
          <leafValues>
            4.0873885154724121e-01 -4.0873885154724121e-01</leafValues></_>
        <_>
          <internalNodes>
            0 -1 157 1.1018775403499603e-02</internalNodes>
          <leafValues>
            -4.6819815039634705e-01 4.6819815039634705e-01</leafValues></_>
        <_>
          <internalNodes>
            0 -1 57 -1.1178801208734512e-01</internalNodes>
          <leafValues>
            3.9294877648353577e-01 -3.9294877648353577e-01</leafValues></_>
        <_>
          <internalNodes>
            0 -1 189 -1.7492353916168213e-02</internalNodes>
          <leafValues>
            4.3271282315254211e-01 -4.3271282315254211e-01</leafValues></_>
        <_>
          <internalNodes>
            0 -1 2 -2.9612418264150620e-02</internalNodes>
          <leafValues>
            -4.0196096897125244e-01 4.0196096897125244e-01</leafValues></_>
        <_>
          <internalNodes>
            0 -1 142 8.2863375544548035e-02</internalNodes>
          <leafValues>
            -4.3106409907341003e-01 4.3106409907341003e-01</leafValues></_>
        <_>
          <internalNodes>
            0 -1 122 -2.1359446644783020e-01</internalNodes>
          <leafValues>
            -3.6972248554229736e-01 3.6972248554229736e-01</leafValues></_>
        <_>
          <internalNodes>
            0 -1 71 9.5488324761390686e-02</internalNodes>
          <leafValues>
            -4.7418135404586792e-01 4.7418135404586792e-01</leafValues></_>
        <_>
          <internalNodes>
            0 -1 180 -1.6753405332565308e-02</internalNodes>
          <leafValues>
            -3.2390221953392029e-01 3.2390221953392029e-01</leafValues></_>
        <_>
          <internalNodes>
            0 -1 115 3.3701941370964050e-02</internalNodes>
          <leafValues>
            -4.5040822029113770e-01 4.5040822029113770e-01</leafValues></_>
        <_>
          <internalNodes>
            0 -1 35 -6.3376119360327721e-03</internalNodes>
          <leafValues>
            -3.3591130375862122e-01 3.3591130375862122e-01</leafValues></_>
        <_>
          <internalNodes>
            0 -1 111 -1.1017613112926483e-02</internalNodes>
          <leafValues>
            4.5042967796325684e-01 -4.5042967796325684e-01</leafValues></_>
        <_>
          <internalNodes>
            0 -1 195 8.3008018555119634e-04</internalNodes>
          <leafValues>
            -3.7592059373855591e-01 3.7592059373855591e-01</leafValues></_>
        <_>
          <internalNodes>
            0 -1 203 1.5254363417625427e-02</internalNodes>
          <leafValues>
            2.9592463374137878e-01 -2.9592463374137878e-01</leafValues></_>
        <_>
          <internalNodes>
            0 -1 178 2.7980506420135498e-03</internalNodes>
          <leafValues>
            -4.2878183722496033e-01 4.2878183722496033e-01</leafValues></_>
        <_>
          <internalNodes>
            0 -1 63 -6.4767024014145136e-04</internalNodes>
          <leafValues>
            -3.4221643209457397e-01 3.4221643209457397e-01</leafValues></_>
        <_>
          <internalNodes>
            0 -1 53 -1.3713472522795200e-02</internalNodes>
          <leafValues>
            4.1776025295257568e-01 -4.1776025295257568e-01</leafValues></_>
        <_>
          <internalNodes>
            0 -1 220 1.7316058278083801e-02</internalNodes>
          <leafValues>
            3.1494313478469849e-01 -3.1494313478469849e-01</leafValues></_>
        <_>
          <internalNodes>
            0 -1 134 1.3022902421653271e-03</internalNodes>
          <leafValues>
            -4.6212834119796753e-01 4.6212834119796753e-01</leafValues></_>
        <_>
          <internalNodes>
            0 -1 40 -6.3099460676312447e-03</internalNodes>
          <leafValues>
            3.5684889554977417e-01 -3.5684889554977417e-01</leafValues></_>
        <_>
          <internalNodes>
            0 -1 143 -1.7824659880716354e-04</internalNodes>
          <leafValues>
            -3.0841848254203796e-01 3.0841848254203796e-01</leafValues></_>
        <_>
          <internalNodes>
            0 -1 117 -2.2767741233110428e-02</internalNodes>
          <leafValues>
            4.3530914187431335e-01 -4.3530914187431335e-01</leafValues></_>
        <_>
          <internalNodes>
            0 -1 1 -9.7980014979839325e-03</internalNodes>
          <leafValues>
            -3.2484117150306702e-01 3.2484117150306702e-01</leafValues></_>
        <_>
          <internalNodes>
            0 -1 110 9.5253400504589081e-03</internalNodes>
          <leafValues>
            -3.7182348966598511e-01 3.7182348966598511e-01</leafValues></_>
        <_>
          <internalNodes>
            0 -1 59 1.6682393848896027e-02</internalNodes>
          <leafValues>
            3.4899419546127319e-01 -3.4899419546127319e-01</leafValues></_>
        <_>
          <internalNodes>
            0 -1 56 -1.6514159739017487e-02</internalNodes>
          <leafValues>
            4.1234162449836731e-01 -4.1234162449836731e-01</leafValues></_>
        <_>
          <internalNodes>
            0 -1 59 -5.8876678347587585e-02</internalNodes>
          <leafValues>
            -3.5279473662376404e-01 3.5279473662376404e-01</leafValues></_>
        <_>
          <internalNodes>
            0 -1 136 -1.2794641777873039e-02</internalNodes>
          <leafValues>
            3.9549863338470459e-01 -3.9549863338470459e-01</leafValues></_>
        <_>
          <internalNodes>
            0 -1 172 3.5681255394592881e-04</internalNodes>
          <leafValues>
            -3.7102106213569641e-01 3.7102106213569641e-01</leafValues></_>
        <_>
          <internalNodes>
            0 -1 208 1.0104255750775337e-02</internalNodes>
          <leafValues>
            2.8249022364616394e-01 -2.8249022364616394e-01</leafValues></_>
        <_>
          <internalNodes>
            0 -1 158 -2.5044269859790802e-02</internalNodes>
          <leafValues>
            4.1874682903289795e-01 -4.1874682903289795e-01</leafValues></_>
        <_>
          <internalNodes>
            0 -1 33 -5.4531516507267952e-03</internalNodes>
          <leafValues>
            -3.3274775743484497e-01 3.3274775743484497e-01</leafValues></_>
        <_>
          <internalNodes>
            0 -1 175 3.6593893310055137e-04</internalNodes>
          <leafValues>
            -3.5915017127990723e-01 3.5915017127990723e-01</leafValues></_>
        <_>
          <internalNodes>
            0 -1 211 1.3310774229466915e-03</internalNodes>
          <leafValues>
            -3.3680698275566101e-01 3.3680698275566101e-01</leafValues></_>
        <_>
          <internalNodes>
            0 -1 81 -3.0184620618820190e-01</internalNodes>
          <leafValues>
            -2.4706475436687469e-01 2.4706475436687469e-01</leafValues></_>
        <_>
          <internalNodes>
            0 -1 51 1.2757670879364014e-01</internalNodes>
          <leafValues>
            -3.9269337058067322e-01 3.9269337058067322e-01</leafValues></_>
        <_>
          <internalNodes>
            0 -1 210 7.2194514796137810e-03</internalNodes>
          <leafValues>
            3.0891126394271851e-01 -3.0891126394271851e-01</leafValues></_>
        <_>
          <internalNodes>
            0 -1 190 -1.2709150090813637e-02</internalNodes>
          <leafValues>
            4.0795090794563293e-01 -4.0795090794563293e-01</leafValues></_>
        <_>
          <internalNodes>
            0 -1 103 1.8275422975420952e-02</internalNodes>
          <leafValues>
            -3.1975081562995911e-01 3.1975081562995911e-01</leafValues></_>
        <_>
          <internalNodes>
            0 -1 138 -1.6622243821620941e-01</internalNodes>
          <leafValues>
            -2.9260066151618958e-01 2.9260066151618958e-01</leafValues></_>
        <_>
          <internalNodes>
            0 -1 155 -1.4034205116331577e-02</internalNodes>
          <leafValues>
            3.8886049389839172e-01 -3.8886049389839172e-01</leafValues></_>
        <_>
          <internalNodes>
            0 -1 22 -3.7675704807043076e-03</internalNodes>
          <leafValues>
            -3.3701759576797485e-01 3.3701759576797485e-01</leafValues></_></weakClassifiers></_>
    <!-- stage 6 -->
    <_>
      <maxWeakCount>36</maxWeakCount>
      <stageThreshold>-4.2733707427978516e+00</stageThreshold>
      <weakClassifiers>
        <_>
          <internalNodes>
            0 -1 96 -3.8209315389394760e-02</internalNodes>
          <leafValues>
            2.4034619331359863e+00 -2.4034619331359863e+00</leafValues></_>
        <_>
          <internalNodes>
            0 -1 67 -2.8731060028076172e-01</internalNodes>
          <leafValues>
            6.6041791439056396e-01 -6.6041791439056396e-01</leafValues></_>
        <_>
          <internalNodes>
            0 -1 38 1.0376552119851112e-02</internalNodes>
          <leafValues>
            -7.6121294498443604e-01 7.6121294498443604e-01</leafValues></_>
        <_>
          <internalNodes>
            0 -1 0 1.9286761526018381e-03</internalNodes>
          <leafValues>
            5.2240341901779175e-01 -5.2240341901779175e-01</leafValues></_>
        <_>
          <internalNodes>
            0 -1 192 -1.6212783753871918e-02</internalNodes>
          <leafValues>
            5.3933346271514893e-01 -5.3933346271514893e-01</leafValues></_>
        <_>
          <internalNodes>
            0 -1 5 -1.7811334691941738e-04</internalNodes>
          <leafValues>
            -5.1034963130950928e-01 5.1034963130950928e-01</leafValues></_>
        <_>
          <internalNodes>
            0 -1 220 -8.4906565025448799e-03</internalNodes>
          <leafValues>
            -4.4581577181816101e-01 4.4581577181816101e-01</leafValues></_>
        <_>
          <internalNodes>
            0 -1 188 -2.9141004779376090e-04</internalNodes>
          <leafValues>
            4.3858170509338379e-01 -4.3858170509338379e-01</leafValues></_>
        <_>
          <internalNodes>
            0 -1 218 -7.4998982017859817e-04</internalNodes>
          <leafValues>
            -3.7929290533065796e-01 3.7929290533065796e-01</leafValues></_>
        <_>
          <internalNodes>
            0 -1 176 2.2125817835330963e-02</internalNodes>
          <leafValues>
            -5.1673763990402222e-01 5.1673763990402222e-01</leafValues></_>
        <_>
          <internalNodes>
            0 -1 11 7.6589791569858789e-04</internalNodes>
          <leafValues>
            3.9407926797866821e-01 -3.9407926797866821e-01</leafValues></_>
        <_>
          <internalNodes>
            0 -1 193 -9.3824323266744614e-04</internalNodes>
          <leafValues>
            4.0139031410217285e-01 -4.0139031410217285e-01</leafValues></_>
        <_>
          <internalNodes>
            0 -1 170 -1.7598100006580353e-02</internalNodes>
          <leafValues>
            5.5817729234695435e-01 -5.5817729234695435e-01</leafValues></_>
        <_>
          <internalNodes>
            0 -1 179 -5.8529718080535531e-04</internalNodes>
          <leafValues>
            -4.0759107470512390e-01 4.0759107470512390e-01</leafValues></_>
        <_>
          <internalNodes>
            0 -1 177 -1.3278427533805370e-02</internalNodes>
          <leafValues>
            3.4843692183494568e-01 -3.4843692183494568e-01</leafValues></_>
        <_>
          <internalNodes>
            0 -1 130 2.6541698724031448e-02</internalNodes>
          <leafValues>
            -4.3730914592742920e-01 4.3730914592742920e-01</leafValues></_>
        <_>
          <internalNodes>
            0 -1 30 2.6584595441818237e-01</internalNodes>
          <leafValues>
            3.9545440673828125e-01 -3.9545440673828125e-01</leafValues></_>
        <_>
          <internalNodes>
            0 -1 133 2.3534093052148819e-03</internalNodes>
          <leafValues>
            -4.1208058595657349e-01 4.1208058595657349e-01</leafValues></_>
        <_>
          <internalNodes>
            0 -1 82 7.2971844929270446e-05</internalNodes>
          <leafValues>
            -3.9406368136405945e-01 3.9406368136405945e-01</leafValues></_>
        <_>
          <internalNodes>
            0 -1 137 -5.4922319948673248e-02</internalNodes>
          <leafValues>
            4.2709416151046753e-01 -4.2709416151046753e-01</leafValues></_>
        <_>
          <internalNodes>
            0 -1 104 -5.9774148464202881e-01</internalNodes>
          <leafValues>
            -4.1471445560455322e-01 4.1471445560455322e-01</leafValues></_>
        <_>
          <internalNodes>
            0 -1 85 4.6388950431719422e-04</internalNodes>
          <leafValues>
            -4.1844603419303894e-01 4.1844603419303894e-01</leafValues></_>
        <_>
          <internalNodes>
            0 -1 141 3.8008131086826324e-02</internalNodes>
          <leafValues>
            -3.7433362007141113e-01 3.7433362007141113e-01</leafValues></_>
        <_>
          <internalNodes>
            0 -1 69 -1.2130959331989288e-01</internalNodes>
          <leafValues>
            4.2743805050849915e-01 -4.2743805050849915e-01</leafValues></_>
        <_>
          <internalNodes>
            0 -1 207 -9.6371665131300688e-04</internalNodes>
          <leafValues>
            -4.0117114782333374e-01 4.0117114782333374e-01</leafValues></_>
        <_>
          <internalNodes>
            0 -1 196 -2.2246732842177153e-03</internalNodes>
          <leafValues>
            4.0656587481498718e-01 -4.0656587481498718e-01</leafValues></_>
        <_>
          <internalNodes>
            0 -1 4 -4.7763343900442123e-03</internalNodes>
          <leafValues>
            -3.4324613213539124e-01 3.4324613213539124e-01</leafValues></_>
        <_>
          <internalNodes>
            0 -1 55 3.1346354633569717e-02</internalNodes>
          <leafValues>
            4.4141477346420288e-01 -4.4141477346420288e-01</leafValues></_>
        <_>
          <internalNodes>
            0 -1 125 1.4957970008254051e-02</internalNodes>
          <leafValues>
            -4.3293112516403198e-01 4.3293112516403198e-01</leafValues></_>
        <_>
          <internalNodes>
            0 -1 204 1.1913307011127472e-02</internalNodes>
          <leafValues>
            3.7507346272468567e-01 -3.7507346272468567e-01</leafValues></_>
        <_>
          <internalNodes>
            0 -1 79 2.2556696087121964e-02</internalNodes>
          <leafValues>
            -4.1697090864181519e-01 4.1697090864181519e-01</leafValues></_>
        <_>
          <internalNodes>
            0 -1 174 -1.6290387429762632e-04</internalNodes>
          <leafValues>
            3.6186623573303223e-01 -3.6186623573303223e-01</leafValues></_>
        <_>
          <internalNodes>
            0 -1 39 3.2999925315380096e-03</internalNodes>
          <leafValues>
            -3.9089986681938171e-01 3.9089986681938171e-01</leafValues></_>
        <_>
          <internalNodes>
            0 -1 88 -1.9362187013030052e-03</internalNodes>
          <leafValues>
            -3.1030732393264771e-01 3.1030732393264771e-01</leafValues></_>
        <_>
          <internalNodes>
            0 -1 163 1.3289505615830421e-02</internalNodes>
          <leafValues>
            -3.7231338024139404e-01 3.7231338024139404e-01</leafValues></_>
        <_>
          <internalNodes>
            0 -1 206 -3.4901085309684277e-03</internalNodes>
          <leafValues>
            -3.4007337689399719e-01 3.4007337689399719e-01</leafValues></_></weakClassifiers></_>
    <!-- stage 7 -->
    <_>
      <maxWeakCount>34</maxWeakCount>
      <stageThreshold>-4.4268488883972168e+00</stageThreshold>
      <weakClassifiers>
        <_>
          <internalNodes>
            0 -1 78 2.6868920773267746e-02</internalNodes>
          <leafValues>
            -2.4448199272155762e+00 2.4448199272155762e+00</leafValues></_>
        <_>
          <internalNodes>
            0 -1 135 1.1218816973268986e-02</internalNodes>
          <leafValues>
            -6.3773596286773682e-01 6.3773596286773682e-01</leafValues></_>
        <_>
          <internalNodes>
            0 -1 132 3.6087263375520706e-02</internalNodes>
          <leafValues>
            6.2624144554138184e-01 -6.2624144554138184e-01</leafValues></_>
        <_>
          <internalNodes>
            0 -1 50 1.4946853742003441e-02</internalNodes>
          <leafValues>
            -5.9190744161605835e-01 5.9190744161605835e-01</leafValues></_>
        <_>
          <internalNodes>
            0 -1 12 -1.5137919690459967e-03</internalNodes>
          <leafValues>
            -5.7829374074935913e-01 5.7829374074935913e-01</leafValues></_>
        <_>
          <internalNodes>
            0 -1 168 -7.0850743213668466e-05</internalNodes>
          <leafValues>
            4.5983660221099854e-01 -4.5983660221099854e-01</leafValues></_>
        <_>
          <internalNodes>
            0 -1 74 2.7559444308280945e-02</internalNodes>
          <leafValues>
            -5.6923848390579224e-01 5.6923848390579224e-01</leafValues></_>
        <_>
          <internalNodes>
            0 -1 28 8.9195314794778824e-03</internalNodes>
          <leafValues>
            4.8853406310081482e-01 -4.8853406310081482e-01</leafValues></_>
        <_>
          <internalNodes>
            0 -1 121 -4.9510084092617035e-02</internalNodes>
          <leafValues>
            5.3182458877563477e-01 -5.3182458877563477e-01</leafValues></_>
        <_>
          <internalNodes>
            0 -1 17 5.4002385586500168e-03</internalNodes>
          <leafValues>
            5.0966376066207886e-01 -5.0966376066207886e-01</leafValues></_>
        <_>
          <internalNodes>
            0 -1 36 -4.7101485542953014e-03</internalNodes>
          <leafValues>
            5.3700590133666992e-01 -5.3700590133666992e-01</leafValues></_>
        <_>
          <internalNodes>
            0 -1 209 1.8703367095440626e-03</internalNodes>
          <leafValues>
            3.9740344882011414e-01 -3.9740344882011414e-01</leafValues></_>
        <_>
          <internalNodes>
            0 -1 93 2.4134788662195206e-02</internalNodes>
          <leafValues>
            -4.9363455176353455e-01 4.9363455176353455e-01</leafValues></_>
        <_>
          <internalNodes>
            0 -1 27 1.4225235581398010e-01</internalNodes>
          <leafValues>
            4.6054682135581970e-01 -4.6054682135581970e-01</leafValues></_>
        <_>
          <internalNodes>
            0 -1 139 1.4657896012067795e-02</internalNodes>
          <leafValues>
            -4.7681236267089844e-01 4.7681236267089844e-01</leafValues></_>
        <_>
          <internalNodes>
            0 -1 123 2.2927718237042427e-03</internalNodes>
          <leafValues>
            4.9609133601188660e-01 -4.9609133601188660e-01</leafValues></_>
        <_>
          <internalNodes>
            0 -1 105 6.5649085445329547e-04</internalNodes>
          <leafValues>
            -4.6357837319374084e-01 4.6357837319374084e-01</leafValues></_>
        <_>
          <internalNodes>
            0 -1 32 -3.3681315183639526e-01</internalNodes>
          <leafValues>
            -4.6386855840682983e-01 4.6386855840682983e-01</leafValues></_>
        <_>
          <internalNodes>
            0 -1 191 -1.2413167394697666e-02</internalNodes>
          <leafValues>
            5.2961194515228271e-01 -5.2961194515228271e-01</leafValues></_>
        <_>
          <internalNodes>
            0 -1 109 7.1211412432603538e-05</internalNodes>
          <leafValues>
            -4.5060792565345764e-01 4.5060792565345764e-01</leafValues></_>
        <_>
          <internalNodes>
            0 -1 150 -8.8083930313587189e-04</internalNodes>
          <leafValues>
            -4.2343848943710327e-01 4.2343848943710327e-01</leafValues></_>
        <_>
          <internalNodes>
            0 -1 25 -2.1410332992672920e-03</internalNodes>
          <leafValues>
            -3.6844575405120850e-01 3.6844575405120850e-01</leafValues></_>
        <_>
          <internalNodes>
            0 -1 24 -1.1849319189786911e-01</internalNodes>
          <leafValues>
            4.7029903531074524e-01 -4.7029903531074524e-01</leafValues></_>
        <_>
          <internalNodes>
            0 -1 131 2.4111004546284676e-02</internalNodes>
          <leafValues>
            -5.8205920457839966e-01 5.8205920457839966e-01</leafValues></_>
        <_>
          <internalNodes>
            0 -1 76 -3.0851387977600098e-01</internalNodes>
          <leafValues>
            -4.0849527716636658e-01 4.0849527716636658e-01</leafValues></_>
        <_>
          <internalNodes>
            0 -1 131 -1.1615454219281673e-02</internalNodes>
          <leafValues>
            4.4274103641510010e-01 -4.4274103641510010e-01</leafValues></_>
        <_>
          <internalNodes>
            0 -1 44 -6.8628776352852583e-04</internalNodes>
          <leafValues>
            4.0680253505706787e-01 -4.0680253505706787e-01</leafValues></_>
        <_>
          <internalNodes>
            0 -1 86 -1.0457884520292282e-02</internalNodes>
          <leafValues>
            -3.7610068917274475e-01 3.7610068917274475e-01</leafValues></_>
        <_>
          <internalNodes>
            0 -1 65 6.5713888034224510e-03</internalNodes>
          <leafValues>
            -4.9964287877082825e-01 4.9964287877082825e-01</leafValues></_>
        <_>
          <internalNodes>
            0 -1 217 2.9529281891882420e-03</internalNodes>
          <leafValues>
            4.3697240948677063e-01 -4.3697240948677063e-01</leafValues></_>
        <_>
          <internalNodes>
            0 -1 213 4.6596440370194614e-04</internalNodes>
          <leafValues>
            -4.0797179937362671e-01 4.0797179937362671e-01</leafValues></_>
        <_>
          <internalNodes>
            0 -1 92 -1.4538848772644997e-03</internalNodes>
          <leafValues>
            4.0490016341209412e-01 -4.0490016341209412e-01</leafValues></_>
        <_>
          <internalNodes>
            0 -1 156 -6.5843039192259312e-04</internalNodes>
          <leafValues>
            4.6695014834403992e-01 -4.6695014834403992e-01</leafValues></_>
        <_>
          <internalNodes>
            0 -1 84 -5.7744060177356005e-04</internalNodes>
          <leafValues>
            -4.3163996934890747e-01 4.3163996934890747e-01</leafValues></_></weakClassifiers></_></stages>
  <features>
    <_>
      <rects>
        <_>
          0 0 1 4 -1.</_>
        <_>
          0 2 1 2 2.</_></rects>
      <tilted>0</tilted></_>
    <_>
      <rects>
        <_>
          0 0 1 6 -1.</_>
        <_>
          0 2 1 2 3.</_></rects>
      <tilted>0</tilted></_>
    <_>
      <rects>
        <_>
          0 0 1 12 -1.</_>
        <_>
          0 6 1 6 2.</_></rects>
      <tilted>0</tilted></_>
    <_>
      <rects>
        <_>
          0 0 4 1 -1.</_>
        <_>
          2 0 2 1 2.</_></rects>
      <tilted>0</tilted></_>
    <_>
      <rects>
        <_>
          0 0 6 1 -1.</_>
        <_>
          2 0 2 1 3.</_></rects>
      <tilted>0</tilted></_>
    <_>
      <rects>
        <_>
          0 0 4 4 -1.</_>
        <_>
          0 2 4 2 2.</_></rects>
      <tilted>0</tilted></_>
    <_>
      <rects>
        <_>
          0 0 12 9 -1.</_>
        <_>
          4 0 4 9 3.</_></rects>
      <tilted>0</tilted></_>
    <_>
      <rects>
        <_>
          0 0 12 10 -1.</_>
        <_>
          4 0 4 10 3.</_></rects>
      <tilted>0</tilted></_>
    <_>
      <rects>
        <_>
          0 0 12 11 -1.</_>
        <_>
          4 0 4 11 3.</_></rects>
      <tilted>0</tilted></_>
    <_>
      <rects>
        <_>
          0 0 12 2 -1.</_>
        <_>
          6 0 6 2 2.</_></rects>
      <tilted>0</tilted></_>
    <_>
      <rects>
        <_>
          0 0 12 10 -1.</_>
        <_>
          0 0 6 5 2.</_>
        <_>
          6 5 6 5 2.</_></rects>
      <tilted>0</tilted></_>
    <_>
      <rects>
        <_>
          0 1 2 2 -1.</_>
        <_>
          0 1 1 1 2.</_>
        <_>
          1 2 1 1 2.</_></rects>
      <tilted>0</tilted></_>
    <_>
      <rects>
        <_>
          0 1 4 1 -1.</_>
        <_>
          2 1 2 1 2.</_></rects>
      <tilted>0</tilted></_>
    <_>
      <rects>
        <_>
          0 1 2 2 -1.</_>
        <_>
          0 2 2 1 2.</_></rects>
      <tilted>0</tilted></_>
    <_>
      <rects>
        <_>
          0 1 8 10 -1.</_>
        <_>
          4 1 4 10 2.</_></rects>
      <tilted>0</tilted></_>
    <_>
      <rects>
        <_>
          0 1 12 10 -1.</_>
        <_>
          0 1 6 5 2.</_>
        <_>
          6 6 6 5 2.</_></rects>
      <tilted>0</tilted></_>
    <_>
      <rects>
        <_>
          0 2 1 4 -1.</_>
        <_>
          0 4 1 2 2.</_></rects>
      <tilted>0</tilted></_>
    <_>
      <rects>
        <_>
          0 2 1 6 -1.</_>
        <_>
          0 4 1 2 3.</_></rects>
      <tilted>0</tilted></_>
    <_>
      <rects>
        <_>
          0 2 1 10 -1.</_>
        <_>
          0 7 1 5 2.</_></rects>
      <tilted>0</tilted></_>
    <_>
      <rects>
        <_>
          0 2 11 6 -1.</_>
        <_>
          0 5 11 3 2.</_></rects>
      <tilted>0</tilted></_>
    <_>
      <rects>
        <_>
          0 2 12 10 -1.</_>
        <_>
          0 7 12 5 2.</_></rects>
      <tilted>0</tilted></_>
    <_>
      <rects>
        <_>
          0 3 1 6 -1.</_>
        <_>
          0 6 1 3 2.</_></rects>
      <tilted>0</tilted></_>
    <_>
      <rects>
        <_>
          0 3 2 6 -1.</_>
        <_>
          0 3 1 3 2.</_>
        <_>
          1 6 1 3 2.</_></rects>
      <tilted>0</tilted></_>
    <_>
      <rects>
        <_>
          0 3 12 9 -1.</_>
        <_>
          4 3 4 9 3.</_></rects>
      <tilted>0</tilted></_>
    <_>
      <rects>
        <_>
          0 3 6 8 -1.</_>
        <_>
          0 7 6 4 2.</_></rects>
      <tilted>0</tilted></_>
    <_>
      <rects>
        <_>
          0 4 1 4 -1.</_>
        <_>
          0 6 1 2 2.</_></rects>
      <tilted>0</tilted></_>
    <_>
      <rects>
        <_>
          0 4 6 1 -1.</_>
        <_>
          2 4 2 1 3.</_></rects>
      <tilted>0</tilted></_>
    <_>
      <rects>
        <_>
          0 4 8 5 -1.</_>
        <_>
          4 4 4 5 2.</_></rects>
      <tilted>0</tilted></_>
    <_>
      <rects>
        <_>
          0 5 1 4 -1.</_>
        <_>
          0 7 1 2 2.</_></rects>
      <tilted>0</tilted></_>
    <_>
      <rects>
        <_>
          0 5 1 6 -1.</_>
        <_>
          0 8 1 3 2.</_></rects>
      <tilted>0</tilted></_>
    <_>
      <rects>
        <_>
          0 6 12 4 -1.</_>
        <_>
          4 6 4 4 3.</_></rects>
      <tilted>0</tilted></_>
    <_>
      <rects>
        <_>
          0 6 12 6 -1.</_>
        <_>
          6 6 6 6 2.</_></rects>
      <tilted>0</tilted></_>
    <_>
      <rects>
        <_>
          0 6 10 6 -1.</_>
        <_>
          0 9 10 3 2.</_></rects>
      <tilted>0</tilted></_>
    <_>
      <rects>
        <_>
          0 7 6 1 -1.</_>
        <_>
          2 7 2 1 3.</_></rects>
      <tilted>0</tilted></_>
    <_>
      <rects>
        <_>
          0 7 12 4 -1.</_>
        <_>
          0 9 12 2 2.</_></rects>
      <tilted>0</tilted></_>
    <_>
      <rects>
        <_>
          0 8 1 4 -1.</_>
        <_>
          0 10 1 2 2.</_></rects>
      <tilted>0</tilted></_>
    <_>
      <rects>
        <_>
          0 8 4 2 -1.</_>
        <_>
          0 8 2 1 2.</_>
        <_>
          2 9 2 1 2.</_></rects>
      <tilted>0</tilted></_>
    <_>
      <rects>
        <_>
          0 9 2 3 -1.</_>
        <_>
          1 9 1 3 2.</_></rects>
      <tilted>0</tilted></_>
    <_>
      <rects>
        <_>
          0 9 6 1 -1.</_>
        <_>
          3 9 3 1 2.</_></rects>
      <tilted>0</tilted></_>
    <_>
      <rects>
        <_>
          0 9 7 3 -1.</_>
        <_>
          0 10 7 1 3.</_></rects>
      <tilted>0</tilted></_>
    <_>
      <rects>
        <_>
          0 9 9 2 -1.</_>
        <_>
          0 10 9 1 2.</_></rects>
      <tilted>0</tilted></_>
    <_>
      <rects>
        <_>
          0 10 1 2 -1.</_>
        <_>
          0 11 1 1 2.</_></rects>
      <tilted>0</tilted></_>
    <_>
      <rects>
        <_>
          0 10 2 2 -1.</_>
        <_>
          0 11 2 1 2.</_></rects>
      <tilted>0</tilted></_>
    <_>
      <rects>
        <_>
          0 10 4 2 -1.</_>
        <_>
          2 10 2 2 2.</_></rects>
      <tilted>0</tilted></_>
    <_>
      <rects>
        <_>
          0 10 10 1 -1.</_>
        <_>
          5 10 5 1 2.</_></rects>
      <tilted>0</tilted></_>
    <_>
      <rects>
        <_>
          0 11 2 1 -1.</_>
        <_>
          1 11 1 1 2.</_></rects>
      <tilted>0</tilted></_>
    <_>
      <rects>
        <_>
          0 11 4 1 -1.</_>
        <_>
          2 11 2 1 2.</_></rects>
      <tilted>0</tilted></_>
    <_>
      <rects>
        <_>
          0 11 6 1 -1.</_>
        <_>
          3 11 3 1 2.</_></rects>
      <tilted>0</tilted></_>
    <_>
      <rects>
        <_>
          1 0 9 1 -1.</_>
        <_>
          4 0 3 1 3.</_></rects>
      <tilted>0</tilted></_>
    <_>
      <rects>
        <_>
          1 0 9 9 -1.</_>
        <_>
          1 3 9 3 3.</_></rects>
      <tilted>0</tilted></_>
    <_>
      <rects>
        <_>
          1 1 4 2 -1.</_>
        <_>
          1 1 2 1 2.</_>
        <_>
          3 2 2 1 2.</_></rects>
      <tilted>0</tilted></_>
    <_>
      <rects>
        <_>
          1 2 5 6 -1.</_>
        <_>
          1 4 5 2 3.</_></rects>
      <tilted>0</tilted></_>
    <_>
      <rects>
        <_>
          1 3 6 5 -1.</_>
        <_>
          3 3 2 5 3.</_></rects>
      <tilted>0</tilted></_>
    <_>
      <rects>
        <_>
          1 3 8 3 -1.</_>
        <_>
          1 4 8 1 3.</_></rects>
      <tilted>0</tilted></_>
    <_>
      <rects>
        <_>
          1 4 6 3 -1.</_>
        <_>
          1 5 6 1 3.</_></rects>
      <tilted>0</tilted></_>
    <_>
      <rects>
        <_>
          1 5 9 5 -1.</_>
        <_>
          4 5 3 5 3.</_></rects>
      <tilted>0</tilted></_>
    <_>
      <rects>
        <_>
          1 6 6 4 -1.</_>
        <_>
          3 6 2 4 3.</_></rects>
      <tilted>0</tilted></_>
    <_>
      <rects>
        <_>
          1 6 11 6 -1.</_>
        <_>
          1 9 11 3 2.</_></rects>
      <tilted>0</tilted></_>
    <_>
      <rects>
        <_>
          1 7 6 1 -1.</_>
        <_>
          3 7 2 1 3.</_></rects>
      <tilted>0</tilted></_>
    <_>
      <rects>
        <_>
          1 8 10 4 -1.</_>
        <_>
          6 8 5 4 2.</_></rects>
      <tilted>0</tilted></_>
    <_>
      <rects>
        <_>
          1 9 4 1 -1.</_>
        <_>
          3 9 2 1 2.</_></rects>
      <tilted>0</tilted></_>
    <_>
      <rects>
        <_>
          2 0 4 1 -1.</_>
        <_>
          4 0 2 1 2.</_></rects>
      <tilted>0</tilted></_>
    <_>
      <rects>
        <_>
          2 0 10 1 -1.</_>
        <_>
          7 0 5 1 2.</_></rects>
      <tilted>0</tilted></_>
    <_>
      <rects>
        <_>
          2 1 2 1 -1.</_>
        <_>
          3 1 1 1 2.</_></rects>
      <tilted>0</tilted></_>
    <_>
      <rects>
        <_>
          2 1 2 2 -1.</_>
        <_>
          2 1 1 1 2.</_>
        <_>
          3 2 1 1 2.</_></rects>
      <tilted>0</tilted></_>
    <_>
      <rects>
        <_>
          2 2 2 6 -1.</_>
        <_>
          2 2 1 3 2.</_>
        <_>
          3 5 1 3 2.</_></rects>
      <tilted>0</tilted></_>
    <_>
      <rects>
        <_>
          2 2 3 10 -1.</_>
        <_>
          3 2 1 10 3.</_></rects>
      <tilted>0</tilted></_>
    <_>
      <rects>
        <_>
          2 2 7 10 -1.</_>
        <_>
          2 7 7 5 2.</_></rects>
      <tilted>0</tilted></_>
    <_>
      <rects>
        <_>
          2 2 8 10 -1.</_>
        <_>
          2 7 8 5 2.</_></rects>
      <tilted>0</tilted></_>
    <_>
      <rects>
        <_>
          2 2 10 6 -1.</_>
        <_>
          2 5 10 3 2.</_></rects>
      <tilted>0</tilted></_>
    <_>
      <rects>
        <_>
          2 3 3 5 -1.</_>
        <_>
          3 3 1 5 3.</_></rects>
      <tilted>0</tilted></_>
    <_>
      <rects>
        <_>
          2 3 6 4 -1.</_>
        <_>
          4 3 2 4 3.</_></rects>
      <tilted>0</tilted></_>
    <_>
      <rects>
        <_>
          2 3 10 9 -1.</_>
        <_>
          7 3 5 9 2.</_></rects>
      <tilted>0</tilted></_>
    <_>
      <rects>
        <_>
          2 3 6 3 -1.</_>
        <_>
          2 4 6 1 3.</_></rects>
      <tilted>0</tilted></_>
    <_>
      <rects>
        <_>
          2 3 7 2 -1.</_>
        <_>
          2 4 7 1 2.</_></rects>
      <tilted>0</tilted></_>
    <_>
      <rects>
        <_>
          2 3 9 8 -1.</_>
        <_>
          2 7 9 4 2.</_></rects>
      <tilted>0</tilted></_>
    <_>
      <rects>
        <_>
          2 4 8 6 -1.</_>
        <_>
          2 7 8 3 2.</_></rects>
      <tilted>0</tilted></_>
    <_>
      <rects>
        <_>
          2 4 9 8 -1.</_>
        <_>
          2 8 9 4 2.</_></rects>
      <tilted>0</tilted></_>
    <_>
      <rects>
        <_>
          2 5 4 2 -1.</_>
        <_>
          2 5 2 1 2.</_>
        <_>
          4 6 2 1 2.</_></rects>
      <tilted>0</tilted></_>
    <_>
      <rects>
        <_>
          2 6 5 3 -1.</_>
        <_>
          2 7 5 1 3.</_></rects>
      <tilted>0</tilted></_>
    <_>
      <rects>
        <_>
          2 6 10 6 -1.</_>
        <_>
          7 6 5 6 2.</_></rects>
      <tilted>0</tilted></_>
    <_>
      <rects>
        <_>
          2 6 8 6 -1.</_>
        <_>
          2 9 8 3 2.</_></rects>
      <tilted>0</tilted></_>
    <_>
      <rects>
        <_>
          2 8 2 1 -1.</_>
        <_>
          3 8 1 1 2.</_></rects>
      <tilted>0</tilted></_>
    <_>
      <rects>
        <_>
          2 8 10 4 -1.</_>
        <_>
          2 10 10 2 2.</_></rects>
      <tilted>0</tilted></_>
    <_>
      <rects>
        <_>
          2 9 2 1 -1.</_>
        <_>
          3 9 1 1 2.</_></rects>
      <tilted>0</tilted></_>
    <_>
      <rects>
        <_>
          2 10 2 2 -1.</_>
        <_>
          2 10 1 1 2.</_>
        <_>
          3 11 1 1 2.</_></rects>
      <tilted>0</tilted></_>
    <_>
      <rects>
        <_>
          2 10 10 2 -1.</_>
        <_>
          7 10 5 2 2.</_></rects>
      <tilted>0</tilted></_>
    <_>
      <rects>
        <_>
          3 0 2 1 -1.</_>
        <_>
          4 0 1 1 2.</_></rects>
      <tilted>0</tilted></_>
    <_>
      <rects>
        <_>
          3 0 6 1 -1.</_>
        <_>
          5 0 2 1 3.</_></rects>
      <tilted>0</tilted></_>
    <_>
      <rects>
        <_>
          3 0 4 7 -1.</_>
        <_>
          5 0 2 7 2.</_></rects>
      <tilted>0</tilted></_>
    <_>
      <rects>
        <_>
          3 0 9 1 -1.</_>
        <_>
          6 0 3 1 3.</_></rects>
      <tilted>0</tilted></_>
    <_>
      <rects>
        <_>
          3 0 8 12 -1.</_>
        <_>
          3 0 4 6 2.</_>
        <_>
          7 6 4 6 2.</_></rects>
      <tilted>0</tilted></_>
    <_>
      <rects>
        <_>
          3 0 7 3 -1.</_>
        <_>
          3 1 7 1 3.</_></rects>
      <tilted>0</tilted></_>
    <_>
      <rects>
        <_>
          3 1 4 8 -1.</_>
        <_>
          3 1 2 4 2.</_>
        <_>
          5 5 2 4 2.</_></rects>
      <tilted>0</tilted></_>
    <_>
      <rects>
        <_>
          3 2 2 2 -1.</_>
        <_>
          3 2 1 1 2.</_>
        <_>
          4 3 1 1 2.</_></rects>
      <tilted>0</tilted></_>
    <_>
      <rects>
        <_>
          3 2 3 7 -1.</_>
        <_>
          4 2 1 7 3.</_></rects>
      <tilted>0</tilted></_>
    <_>
      <rects>
        <_>
          3 2 4 2 -1.</_>
        <_>
          3 2 2 1 2.</_>
        <_>
          5 3 2 1 2.</_></rects>
      <tilted>0</tilted></_>
    <_>
      <rects>
        <_>
          3 2 6 3 -1.</_>
        <_>
          3 3 6 1 3.</_></rects>
      <tilted>0</tilted></_>
    <_>
      <rects>
        <_>
          3 3 3 5 -1.</_>
        <_>
          4 3 1 5 3.</_></rects>
      <tilted>0</tilted></_>
    <_>
      <rects>
        <_>
          3 3 3 6 -1.</_>
        <_>
          4 3 1 6 3.</_></rects>
      <tilted>0</tilted></_>
    <_>
      <rects>
        <_>
          3 4 3 4 -1.</_>
        <_>
          4 4 1 4 3.</_></rects>
      <tilted>0</tilted></_>
    <_>
      <rects>
        <_>
          3 4 4 4 -1.</_>
        <_>
          3 4 2 2 2.</_>
        <_>
          5 6 2 2 2.</_></rects>
      <tilted>0</tilted></_>
    <_>
      <rects>
        <_>
          3 4 6 6 -1.</_>
        <_>
          5 4 2 6 3.</_></rects>
      <tilted>0</tilted></_>
    <_>
      <rects>
        <_>
          3 4 9 1 -1.</_>
        <_>
          6 4 3 1 3.</_></rects>
      <tilted>0</tilted></_>
    <_>
      <rects>
        <_>
          3 4 9 8 -1.</_>
        <_>
          3 8 9 4 2.</_></rects>
      <tilted>0</tilted></_>
    <_>
      <rects>
        <_>
          3 5 2 3 -1.</_>
        <_>
          3 6 2 1 3.</_></rects>
      <tilted>0</tilted></_>
    <_>
      <rects>
        <_>
          3 5 4 4 -1.</_>
        <_>
          3 5 2 2 2.</_>
        <_>
          5 7 2 2 2.</_></rects>
      <tilted>0</tilted></_>
    <_>
      <rects>
        <_>
          3 5 6 4 -1.</_>
        <_>
          5 5 2 4 3.</_></rects>
      <tilted>0</tilted></_>
    <_>
      <rects>
        <_>
          3 5 6 2 -1.</_>
        <_>
          3 5 3 1 2.</_>
        <_>
          6 6 3 1 2.</_></rects>
      <tilted>0</tilted></_>
    <_>
      <rects>
        <_>
          3 6 3 2 -1.</_>
        <_>
          4 6 1 2 3.</_></rects>
      <tilted>0</tilted></_>
    <_>
      <rects>
        <_>
          3 6 3 3 -1.</_>
        <_>
          4 6 1 3 3.</_></rects>
      <tilted>0</tilted></_>
    <_>
      <rects>
        <_>
          3 10 3 2 -1.</_>
        <_>
          3 11 3 1 2.</_></rects>
      <tilted>0</tilted></_>
    <_>
      <rects>
        <_>
          4 0 8 12 -1.</_>
        <_>
          8 0 4 12 2.</_></rects>
      <tilted>0</tilted></_>
    <_>
      <rects>
        <_>
          4 1 8 4 -1.</_>
        <_>
          8 1 4 4 2.</_></rects>
      <tilted>0</tilted></_>
    <_>
      <rects>
        <_>
          4 2 3 7 -1.</_>
        <_>
          5 2 1 7 3.</_></rects>
      <tilted>0</tilted></_>
    <_>
      <rects>
        <_>
          4 2 4 4 -1.</_>
        <_>
          4 2 2 2 2.</_>
        <_>
          6 4 2 2 2.</_></rects>
      <tilted>0</tilted></_>
    <_>
      <rects>
        <_>
          4 2 5 3 -1.</_>
        <_>
          4 3 5 1 3.</_></rects>
      <tilted>0</tilted></_>
    <_>
      <rects>
        <_>
          4 2 7 3 -1.</_>
        <_>
          4 3 7 1 3.</_></rects>
      <tilted>0</tilted></_>
    <_>
      <rects>
        <_>
          4 3 3 4 -1.</_>
        <_>
          5 3 1 4 3.</_></rects>
      <tilted>0</tilted></_>
    <_>
      <rects>
        <_>
          4 3 3 7 -1.</_>
        <_>
          5 3 1 7 3.</_></rects>
      <tilted>0</tilted></_>
    <_>
      <rects>
        <_>
          4 3 4 1 -1.</_>
        <_>
          6 3 2 1 2.</_></rects>
      <tilted>0</tilted></_>
    <_>
      <rects>
        <_>
          4 3 6 5 -1.</_>
        <_>
          6 3 2 5 3.</_></rects>
      <tilted>0</tilted></_>
    <_>
      <rects>
        <_>
          4 3 8 9 -1.</_>
        <_>
          8 3 4 9 2.</_></rects>
      <tilted>0</tilted></_>
    <_>
      <rects>
        <_>
          4 4 2 1 -1.</_>
        <_>
          5 4 1 1 2.</_></rects>
      <tilted>0</tilted></_>
    <_>
      <rects>
        <_>
          4 4 4 4 -1.</_>
        <_>
          4 4 2 2 2.</_>
        <_>
          6 6 2 2 2.</_></rects>
      <tilted>0</tilted></_>
    <_>
      <rects>
        <_>
          4 5 3 5 -1.</_>
        <_>
          5 5 1 5 3.</_></rects>
      <tilted>0</tilted></_>
    <_>
      <rects>
        <_>
          4 5 8 3 -1.</_>
        <_>
          4 6 8 1 3.</_></rects>
      <tilted>0</tilted></_>
    <_>
      <rects>
        <_>
          4 6 5 3 -1.</_>
        <_>
          4 7 5 1 3.</_></rects>
      <tilted>0</tilted></_>
    <_>
      <rects>
        <_>
          4 6 7 6 -1.</_>
        <_>
          4 9 7 3 2.</_></rects>
      <tilted>0</tilted></_>
    <_>
      <rects>
        <_>
          4 7 8 5 -1.</_>
        <_>
          8 7 4 5 2.</_></rects>
      <tilted>0</tilted></_>
    <_>
      <rects>
        <_>
          4 7 5 3 -1.</_>
        <_>
          4 8 5 1 3.</_></rects>
      <tilted>0</tilted></_>
    <_>
      <rects>
        <_>
          4 7 6 3 -1.</_>
        <_>
          4 8 6 1 3.</_></rects>
      <tilted>0</tilted></_>
    <_>
      <rects>
        <_>
          4 8 8 4 -1.</_>
        <_>
          8 8 4 4 2.</_></rects>
      <tilted>0</tilted></_>
    <_>
      <rects>
        <_>
          4 9 6 3 -1.</_>
        <_>
          4 10 6 1 3.</_></rects>
      <tilted>0</tilted></_>
    <_>
      <rects>
        <_>
          4 10 1 2 -1.</_>
        <_>
          4 11 1 1 2.</_></rects>
      <tilted>0</tilted></_>
    <_>
      <rects>
        <_>
          4 11 8 1 -1.</_>
        <_>
          8 11 4 1 2.</_></rects>
      <tilted>0</tilted></_>
    <_>
      <rects>
        <_>
          5 0 3 10 -1.</_>
        <_>
          6 0 1 10 3.</_></rects>
      <tilted>0</tilted></_>
    <_>
      <rects>
        <_>
          5 0 4 6 -1.</_>
        <_>
          7 0 2 6 2.</_></rects>
      <tilted>0</tilted></_>
    <_>
      <rects>
        <_>
          5 0 6 12 -1.</_>
        <_>
          8 0 3 12 2.</_></rects>
      <tilted>0</tilted></_>
    <_>
      <rects>
        <_>
          5 2 3 4 -1.</_>
        <_>
          6 2 1 4 3.</_></rects>
      <tilted>0</tilted></_>
    <_>
      <rects>
        <_>
          5 2 3 5 -1.</_>
        <_>
          6 2 1 5 3.</_></rects>
      <tilted>0</tilted></_>
    <_>
      <rects>
        <_>
          5 2 2 9 -1.</_>
        <_>
          5 5 2 3 3.</_></rects>
      <tilted>0</tilted></_>
    <_>
      <rects>
        <_>
          5 2 6 10 -1.</_>
        <_>
          7 2 2 10 3.</_></rects>
      <tilted>0</tilted></_>
    <_>
      <rects>
        <_>
          5 3 3 1 -1.</_>
        <_>
          6 3 1 1 3.</_></rects>
      <tilted>0</tilted></_>
    <_>
      <rects>
        <_>
          5 3 4 4 -1.</_>
        <_>
          5 3 2 2 2.</_>
        <_>
          7 5 2 2 2.</_></rects>
      <tilted>0</tilted></_>
    <_>
      <rects>
        <_>
          5 3 6 3 -1.</_>
        <_>
          5 4 6 1 3.</_></rects>
      <tilted>0</tilted></_>
    <_>
      <rects>
        <_>
          5 4 3 5 -1.</_>
        <_>
          6 4 1 5 3.</_></rects>
      <tilted>0</tilted></_>
    <_>
      <rects>
        <_>
          5 4 2 4 -1.</_>
        <_>
          5 6 2 2 2.</_></rects>
      <tilted>0</tilted></_>
    <_>
      <rects>
        <_>
          5 5 1 2 -1.</_>
        <_>
          5 6 1 1 2.</_></rects>
      <tilted>0</tilted></_>
    <_>
      <rects>
        <_>
          5 5 4 4 -1.</_>
        <_>
          5 5 2 2 2.</_>
        <_>
          7 7 2 2 2.</_></rects>
      <tilted>0</tilted></_>
    <_>
      <rects>
        <_>
          5 6 2 1 -1.</_>
        <_>
          6 6 1 1 2.</_></rects>
      <tilted>0</tilted></_>
    <_>
      <rects>
        <_>
          5 6 1 2 -1.</_>
        <_>
          5 7 1 1 2.</_></rects>
      <tilted>0</tilted></_>
    <_>
      <rects>
        <_>
          5 6 4 4 -1.</_>
        <_>
          5 6 2 2 2.</_>
        <_>
          7 8 2 2 2.</_></rects>
      <tilted>0</tilted></_>
    <_>
      <rects>
        <_>
          6 0 4 1 -1.</_>
        <_>
          8 0 2 1 2.</_></rects>
      <tilted>0</tilted></_>
    <_>
      <rects>
        <_>
          6 0 6 1 -1.</_>
        <_>
          9 0 3 1 2.</_></rects>
      <tilted>0</tilted></_>
    <_>
      <rects>
        <_>
          6 0 6 2 -1.</_>
        <_>
          6 0 3 1 2.</_>
        <_>
          9 1 3 1 2.</_></rects>
      <tilted>0</tilted></_>
    <_>
      <rects>
        <_>
          6 1 1 2 -1.</_>
        <_>
          6 2 1 1 2.</_></rects>
      <tilted>0</tilted></_>
    <_>
      <rects>
        <_>
          6 1 3 5 -1.</_>
        <_>
          7 1 1 5 3.</_></rects>
      <tilted>0</tilted></_>
    <_>
      <rects>
        <_>
          6 1 2 8 -1.</_>
        <_>
          7 1 1 8 2.</_></rects>
      <tilted>0</tilted></_>
    <_>
      <rects>
        <_>
          6 2 3 5 -1.</_>
        <_>
          7 2 1 5 3.</_></rects>
      <tilted>0</tilted></_>
    <_>
      <rects>
        <_>
          6 2 3 6 -1.</_>
        <_>
          7 2 1 6 3.</_></rects>
      <tilted>0</tilted></_>
    <_>
      <rects>
        <_>
          6 2 2 10 -1.</_>
        <_>
          7 2 1 10 2.</_></rects>
      <tilted>0</tilted></_>
    <_>
      <rects>
        <_>
          6 2 4 2 -1.</_>
        <_>
          6 2 2 1 2.</_>
        <_>
          8 3 2 1 2.</_></rects>
      <tilted>0</tilted></_>
    <_>
      <rects>
        <_>
          6 2 6 3 -1.</_>
        <_>
          6 3 6 1 3.</_></rects>
      <tilted>0</tilted></_>
    <_>
      <rects>
        <_>
          6 3 3 4 -1.</_>
        <_>
          7 3 1 4 3.</_></rects>
      <tilted>0</tilted></_>
    <_>
      <rects>
        <_>
          6 3 3 5 -1.</_>
        <_>
          7 3 1 5 3.</_></rects>
      <tilted>0</tilted></_>
    <_>
      <rects>
        <_>
          6 3 3 8 -1.</_>
        <_>
          7 3 1 8 3.</_></rects>
      <tilted>0</tilted></_>
    <_>
      <rects>
        <_>
          6 3 3 3 -1.</_>
        <_>
          6 4 3 1 3.</_></rects>
      <tilted>0</tilted></_>
    <_>
      <rects>
        <_>
          6 4 1 2 -1.</_>
        <_>
          6 5 1 1 2.</_></rects>
      <tilted>0</tilted></_>
    <_>
      <rects>
        <_>
          6 4 3 4 -1.</_>
        <_>
          7 4 1 4 3.</_></rects>
      <tilted>0</tilted></_>
    <_>
      <rects>
        <_>
          6 4 3 7 -1.</_>
        <_>
          7 4 1 7 3.</_></rects>
      <tilted>0</tilted></_>
    <_>
      <rects>
        <_>
          6 5 1 2 -1.</_>
        <_>
          6 6 1 1 2.</_></rects>
      <tilted>0</tilted></_>
    <_>
      <rects>
        <_>
          6 5 3 2 -1.</_>
        <_>
          7 5 1 2 3.</_></rects>
      <tilted>0</tilted></_>
    <_>
      <rects>
        <_>
          6 5 3 7 -1.</_>
        <_>
          7 5 1 7 3.</_></rects>
      <tilted>0</tilted></_>
    <_>
      <rects>
        <_>
          6 6 1 2 -1.</_>
        <_>
          6 7 1 1 2.</_></rects>
      <tilted>0</tilted></_>
    <_>
      <rects>
        <_>
          6 6 1 3 -1.</_>
        <_>
          6 7 1 1 3.</_></rects>
      <tilted>0</tilted></_>
    <_>
      <rects>
        <_>
          6 6 3 4 -1.</_>
        <_>
          7 6 1 4 3.</_></rects>
      <tilted>0</tilted></_>
    <_>
      <rects>
        <_>
          6 7 6 4 -1.</_>
        <_>
          6 9 6 2 2.</_></rects>
      <tilted>0</tilted></_>
    <_>
      <rects>
        <_>
          6 9 4 2 -1.</_>
        <_>
          6 10 4 1 2.</_></rects>
      <tilted>0</tilted></_>
    <_>
      <rects>
        <_>
          6 10 3 1 -1.</_>
        <_>
          7 10 1 1 3.</_></rects>
      <tilted>0</tilted></_>
    <_>
      <rects>
        <_>
          6 11 6 1 -1.</_>
        <_>
          8 11 2 1 3.</_></rects>
      <tilted>0</tilted></_>
    <_>
      <rects>
        <_>
          7 0 2 1 -1.</_>
        <_>
          8 0 1 1 2.</_></rects>
      <tilted>0</tilted></_>
    <_>
      <rects>
        <_>
          7 0 1 3 -1.</_>
        <_>
          7 1 1 1 3.</_></rects>
      <tilted>0</tilted></_>
    <_>
      <rects>
        <_>
          7 1 3 11 -1.</_>
        <_>
          8 1 1 11 3.</_></rects>
      <tilted>0</tilted></_>
    <_>
      <rects>
        <_>
          7 1 2 2 -1.</_>
        <_>
          7 2 2 1 2.</_></rects>
      <tilted>0</tilted></_>
    <_>
      <rects>
        <_>
          7 1 2 3 -1.</_>
        <_>
          7 2 2 1 3.</_></rects>
      <tilted>0</tilted></_>
    <_>
      <rects>
        <_>
          7 2 3 3 -1.</_>
        <_>
          8 2 1 3 3.</_></rects>
      <tilted>0</tilted></_>
    <_>
      <rects>
        <_>
          7 2 3 5 -1.</_>
        <_>
          8 2 1 5 3.</_></rects>
      <tilted>0</tilted></_>
    <_>
      <rects>
        <_>
          7 4 1 2 -1.</_>
        <_>
          7 5 1 1 2.</_></rects>
      <tilted>0</tilted></_>
    <_>
      <rects>
        <_>
          7 4 3 8 -1.</_>
        <_>
          8 4 1 8 3.</_></rects>
      <tilted>0</tilted></_>
    <_>
      <rects>
        <_>
          7 4 4 4 -1.</_>
        <_>
          7 4 2 2 2.</_>
        <_>
          9 6 2 2 2.</_></rects>
      <tilted>0</tilted></_>
    <_>
      <rects>
        <_>
          7 5 2 5 -1.</_>
        <_>
          8 5 1 5 2.</_></rects>
      <tilted>0</tilted></_>
    <_>
      <rects>
        <_>
          7 5 3 6 -1.</_>
        <_>
          8 5 1 6 3.</_></rects>
      <tilted>0</tilted></_>
    <_>
      <rects>
        <_>
          7 6 1 2 -1.</_>
        <_>
          7 7 1 1 2.</_></rects>
      <tilted>0</tilted></_>
    <_>
      <rects>
        <_>
          7 6 3 5 -1.</_>
        <_>
          8 6 1 5 3.</_></rects>
      <tilted>0</tilted></_>
    <_>
      <rects>
        <_>
          7 7 2 3 -1.</_>
        <_>
          7 8 2 1 3.</_></rects>
      <tilted>0</tilted></_>
    <_>
      <rects>
        <_>
          7 9 1 2 -1.</_>
        <_>
          7 10 1 1 2.</_></rects>
      <tilted>0</tilted></_>
    <_>
      <rects>
        <_>
          8 0 2 2 -1.</_>
        <_>
          8 1 2 1 2.</_></rects>
      <tilted>0</tilted></_>
    <_>
      <rects>
        <_>
          8 0 4 12 -1.</_>
        <_>
          10 0 2 12 2.</_></rects>
      <tilted>0</tilted></_>
    <_>
      <rects>
        <_>
          8 3 3 3 -1.</_>
        <_>
          9 3 1 3 3.</_></rects>
      <tilted>0</tilted></_>
    <_>
      <rects>
        <_>
          8 6 1 2 -1.</_>
        <_>
          8 7 1 1 2.</_></rects>
      <tilted>0</tilted></_>
    <_>
      <rects>
        <_>
          8 7 3 2 -1.</_>
        <_>
          9 7 1 2 3.</_></rects>
      <tilted>0</tilted></_>
    <_>
      <rects>
        <_>
          8 8 4 4 -1.</_>
        <_>
          8 8 2 2 2.</_>
        <_>
          10 10 2 2 2.</_></rects>
      <tilted>0</tilted></_>
    <_>
      <rects>
        <_>
          8 10 4 2 -1.</_>
        <_>
          10 10 2 2 2.</_></rects>
      <tilted>0</tilted></_>
    <_>
      <rects>
        <_>
          8 11 4 1 -1.</_>
        <_>
          10 11 2 1 2.</_></rects>
      <tilted>0</tilted></_>
    <_>
      <rects>
        <_>
          9 0 3 2 -1.</_>
        <_>
          10 0 1 2 3.</_></rects>
      <tilted>0</tilted></_>
    <_>
      <rects>
        <_>
          9 0 2 3 -1.</_>
        <_>
          9 1 2 1 3.</_></rects>
      <tilted>0</tilted></_>
    <_>
      <rects>
        <_>
          9 5 1 3 -1.</_>
        <_>
          9 6 1 1 3.</_></rects>
      <tilted>0</tilted></_>
    <_>
      <rects>
        <_>
          10 0 2 12 -1.</_>
        <_>
          11 0 1 12 2.</_></rects>
      <tilted>0</tilted></_>
    <_>
      <rects>
        <_>
          10 1 2 2 -1.</_>
        <_>
          11 1 1 2 2.</_></rects>
      <tilted>0</tilted></_>
    <_>
      <rects>
        <_>
          10 8 2 4 -1.</_>
        <_>
          11 8 1 4 2.</_></rects>
      <tilted>0</tilted></_>
    <_>
      <rects>
        <_>
          10 9 2 2 -1.</_>
        <_>
          11 9 1 2 2.</_></rects>
      <tilted>0</tilted></_>
    <_>
      <rects>
        <_>
          10 9 2 3 -1.</_>
        <_>
          11 9 1 3 2.</_></rects>
      <tilted>0</tilted></_>
    <_>
      <rects>
        <_>
          10 10 2 1 -1.</_>
        <_>
          11 10 1 1 2.</_></rects>
      <tilted>0</tilted></_>
    <_>
      <rects>
        <_>
          10 10 2 2 -1.</_>
        <_>
          11 10 1 2 2.</_></rects>
      <tilted>0</tilted></_>
    <_>
      <rects>
        <_>
          11 0 1 8 -1.</_>
        <_>
          11 4 1 4 2.</_></rects>
      <tilted>0</tilted></_>
    <_>
      <rects>
        <_>
          11 2 1 10 -1.</_>
        <_>
          11 7 1 5 2.</_></rects>
      <tilted>0</tilted></_>
    <_>
      <rects>
        <_>
          11 3 1 3 -1.</_>
        <_>
          11 4 1 1 3.</_></rects>
      <tilted>0</tilted></_>
    <_>
      <rects>
        <_>
          11 4 1 2 -1.</_>
        <_>
          11 5 1 1 2.</_></rects>
      <tilted>0</tilted></_>
    <_>
      <rects>
        <_>
          11 6 1 6 -1.</_>
        <_>
          11 8 1 2 3.</_></rects>
      <tilted>0</tilted></_>
    <_>
      <rects>
        <_>
          11 6 1 6 -1.</_>
        <_>
          11 9 1 3 2.</_></rects>
      <tilted>0</tilted></_>
    <_>
      <rects>
        <_>
          11 10 1 2 -1.</_>
        <_>
          11 11 1 1 2.</_></rects>
      <tilted>0</tilted></_></features></cascade>
</opencv_storage>
