<?xml version="1.0"?>
<opencv_storage>
<cascade>
  <stageType>BOOST</stageType>
  <featureType>HAAR</featureType>
  <height>12</height>
  <width>12</width>
  <stageParams>
    <boostType>DAB</boostType>
    <minHitRate>9.9500000476837158e-01</minHitRate>
    <maxFalseAlarm>5.0000000000000000e-01</maxFalseAlarm>
    <weightTrimRate>9.4999999999999996e-01</weightTrimRate>
    <maxDepth>1</maxDepth>
    <maxWeakCount>100</maxWeakCount></stageParams>
  <featureParams>
    <maxCatCount>0</maxCatCount>
    <featSize>1</featSize>
    <mode>CORE</mode></featureParams>
  <stageNum>10</stageNum>
  <stages>
    <!-- stage 0 -->
    <_>
      <maxWeakCount>11</maxWeakCount>
      <stageThreshold>-4.9294004440307617e+00</stageThreshold>
      <weakClassifiers>
        <_>
          <internalNodes>
            0 -1 188 -8.6649209260940552e-02</internalNodes>
          <leafValues>
            2.4497811794281006e+00 -2.4497811794281006e+00</leafValues></_>
        <_>
          <internalNodes>
            0 -1 93 -2.7488863468170166e-01</internalNodes>
          <leafValues>
            1.3618545532226563e+00 -1.3618545532226563e+00</leafValues></_>
        <_>
          <internalNodes>
            0 -1 196 1.5797875821590424e-02</internalNodes>
          <leafValues>
            -7.7167475223541260e-01 7.7167475223541260e-01</leafValues></_>
        <_>
          <internalNodes>
            0 -1 10 3.5990059375762939e-02</internalNodes>
          <leafValues>
            -8.6671948432922363e-01 8.6671948432922363e-01</leafValues></_>
        <_>
          <internalNodes>
            0 -1 228 7.1087637916207314e-03</internalNodes>
          <leafValues>
            -7.3463565111160278e-01 7.3463565111160278e-01</leafValues></_>
        <_>
          <internalNodes>
            0 -1 107 3.1434895936399698e-03</internalNodes>
          <leafValues>
            6.3496881723403931e-01 -6.3496881723403931e-01</leafValues></_>
        <_>
          <internalNodes>
            0 -1 240 6.5331626683473587e-04</internalNodes>
          <leafValues>
            -6.3613516092300415e-01 6.3613516092300415e-01</leafValues></_>
        <_>
          <internalNodes>
            0 -1 145 1.3775059953331947e-02</internalNodes>
          <leafValues>
            -6.5461492538452148e-01 6.5461492538452148e-01</leafValues></_>
        <_>
          <internalNodes>
            0 -1 119 -2.3782305419445038e-02</internalNodes>
          <leafValues>
            6.5516740083694458e-01 -6.5516740083694458e-01</leafValues></_>
        <_>
          <internalNodes>
            0 -1 11 6.2425339221954346e-01</internalNodes>
          <leafValues>
            6.6151744127273560e-01 -6.6151744127273560e-01</leafValues></_>
        <_>
          <internalNodes>
            0 -1 137 1.9937008619308472e-02</internalNodes>
          <leafValues>
            -6.7680364847183228e-01 6.7680364847183228e-01</leafValues></_></weakClassifiers></_>
    <!-- stage 1 -->
    <_>
      <maxWeakCount>15</maxWeakCount>
      <stageThreshold>-5.2532520294189453e+00</stageThreshold>
      <weakClassifiers>
        <_>
          <internalNodes>
            0 -1 94 -9.9990978837013245e-02</internalNodes>
          <leafValues>
            2.4010729789733887e+00 -2.4010729789733887e+00</leafValues></_>
        <_>
          <internalNodes>
            0 -1 9 1.6315305233001709e-01</internalNodes>
          <leafValues>
            -1.0418393611907959e+00 1.0418393611907959e+00</leafValues></_>
        <_>
          <internalNodes>
            0 -1 79 2.6000463962554932e-01</internalNodes>
          <leafValues>
            -8.9384472370147705e-01 8.9384472370147705e-01</leafValues></_>
        <_>
          <internalNodes>
            0 -1 51 -1.4229720691218972e-03</internalNodes>
          <leafValues>
            7.6281559467315674e-01 -7.6281559467315674e-01</leafValues></_>
        <_>
          <internalNodes>
            0 -1 215 5.5686220526695251e-02</internalNodes>
          <leafValues>
            -6.8073523044586182e-01 6.8073523044586182e-01</leafValues></_>
        <_>
          <internalNodes>
            0 -1 143 1.9012186676263809e-02</internalNodes>
          <leafValues>
            -6.6059112548828125e-01 6.6059112548828125e-01</leafValues></_>
        <_>
          <internalNodes>
            0 -1 78 2.1630901098251343e-01</internalNodes>
          <leafValues>
            5.2846693992614746e-01 -5.2846693992614746e-01</leafValues></_>
        <_>
          <internalNodes>
            0 -1 195 1.8814031034708023e-02</internalNodes>
          <leafValues>
            -7.0979803800582886e-01 7.0979803800582886e-01</leafValues></_>
        <_>
          <internalNodes>
            0 -1 102 -1.5080642700195313e-01</internalNodes>
          <leafValues>
            -5.6037771701812744e-01 5.6037771701812744e-01</leafValues></_>
        <_>
          <internalNodes>
            0 -1 191 -2.1319644525647163e-02</internalNodes>
          <leafValues>
            7.0242005586624146e-01 -7.0242005586624146e-01</leafValues></_>
        <_>
          <internalNodes>
            0 -1 46 2.2366312332451344e-03</internalNodes>
          <leafValues>
            5.8111488819122314e-01 -5.8111488819122314e-01</leafValues></_>
        <_>
          <internalNodes>
            0 -1 92 -1.2305757030844688e-02</internalNodes>
          <leafValues>
            6.5515351295471191e-01 -6.5515351295471191e-01</leafValues></_>
        <_>
          <internalNodes>
            0 -1 201 -8.6635956540703773e-04</internalNodes>
          <leafValues>
            4.8492020368576050e-01 -4.8492020368576050e-01</leafValues></_>
        <_>
          <internalNodes>
            0 -1 204 5.7386625558137894e-03</internalNodes>
          <leafValues>
            -5.0404822826385498e-01 5.0404822826385498e-01</leafValues></_>
        <_>
          <internalNodes>
            0 -1 174 1.7584130167961121e-02</internalNodes>
          <leafValues>
            -5.3015208244323730e-01 5.3015208244323730e-01</leafValues></_></weakClassifiers></_>
    <!-- stage 2 -->
    <_>
      <maxWeakCount>22</maxWeakCount>
      <stageThreshold>-5.1724557876586914e+00</stageThreshold>
      <weakClassifiers>
        <_>
          <internalNodes>
            0 -1 141 -2.5292992591857910e-01</internalNodes>
          <leafValues>
            2.3986890316009521e+00 -2.3986890316009521e+00</leafValues></_>
        <_>
          <internalNodes>
            0 -1 235 2.4081962183117867e-03</internalNodes>
          <leafValues>
            -8.6893749237060547e-01 8.6893749237060547e-01</leafValues></_>
        <_>
          <internalNodes>
            0 -1 135 -4.4559389352798462e-02</internalNodes>
          <leafValues>
            7.0479542016983032e-01 -7.0479542016983032e-01</leafValues></_>
        <_>
          <internalNodes>
            0 -1 186 3.7185512483119965e-02</internalNodes>
          <leafValues>
            -7.7428388595581055e-01 7.7428388595581055e-01</leafValues></_>
        <_>
          <internalNodes>
            0 -1 189 8.6145125329494476e-02</internalNodes>
          <leafValues>
            -5.9866583347320557e-01 5.9866583347320557e-01</leafValues></_>
        <_>
          <internalNodes>
            0 -1 16 -6.7543976008892059e-02</internalNodes>
          <leafValues>
            -6.0446506738662720e-01 6.0446506738662720e-01</leafValues></_>
        <_>
          <internalNodes>
            0 -1 122 1.6846500337123871e-02</internalNodes>
          <leafValues>
            -6.5319579839706421e-01 6.5319579839706421e-01</leafValues></_>
        <_>
          <internalNodes>
            0 -1 17 -2.1162420511245728e-01</internalNodes>
          <leafValues>
            -5.2893024682998657e-01 5.2893024682998657e-01</leafValues></_>
        <_>
          <internalNodes>
            0 -1 118 -1.0697256773710251e-02</internalNodes>
          <leafValues>
            6.5795433521270752e-01 -6.5795433521270752e-01</leafValues></_>
        <_>
          <internalNodes>
            0 -1 49 -1.2215388414915651e-04</internalNodes>
          <leafValues>
            5.7541149854660034e-01 -5.7541149854660034e-01</leafValues></_>
        <_>
          <internalNodes>
            0 -1 50 -5.2387564210221171e-04</internalNodes>
          <leafValues>
            -4.2633602023124695e-01 4.2633602023124695e-01</leafValues></_>
        <_>
          <internalNodes>
            0 -1 84 8.0721482634544373e-02</internalNodes>
          <leafValues>
            -5.1177787780761719e-01 5.1177787780761719e-01</leafValues></_>
        <_>
          <internalNodes>
            0 -1 19 -2.7933262288570404e-02</internalNodes>
          <leafValues>
            -4.2265352606773376e-01 4.2265352606773376e-01</leafValues></_>
        <_>
          <internalNodes>
            0 -1 139 -1.4576253481209278e-02</internalNodes>
          <leafValues>
            6.0380256175994873e-01 -6.0380256175994873e-01</leafValues></_>
        <_>
          <internalNodes>
            0 -1 67 -7.0192947983741760e-02</internalNodes>
          <leafValues>
            4.3967682123184204e-01 -4.3967682123184204e-01</leafValues></_>
        <_>
          <internalNodes>
            0 -1 130 3.4141015261411667e-02</internalNodes>
          <leafValues>
            -4.9206924438476563e-01 4.9206924438476563e-01</leafValues></_>
        <_>
          <internalNodes>
            0 -1 153 2.1699117496609688e-03</internalNodes>
          <leafValues>
            -4.4402235746383667e-01 4.4402235746383667e-01</leafValues></_>
        <_>
          <internalNodes>
            0 -1 152 -1.0030320286750793e-01</internalNodes>
          <leafValues>
            -3.8755583763122559e-01 3.8755583763122559e-01</leafValues></_>
        <_>
          <internalNodes>
            0 -1 126 2.4412436410784721e-02</internalNodes>
          <leafValues>
            -5.1798844337463379e-01 5.1798844337463379e-01</leafValues></_>
        <_>
          <internalNodes>
            0 -1 235 1.0265439748764038e-02</internalNodes>
          <leafValues>
            3.7986236810684204e-01 -3.7986236810684204e-01</leafValues></_>
        <_>
          <internalNodes>
            0 -1 81 1.7268586158752441e-01</internalNodes>
          <leafValues>
            -5.0939053297042847e-01 5.0939053297042847e-01</leafValues></_>
        <_>
          <internalNodes>
            0 -1 157 -7.7414952218532562e-02</internalNodes>
          <leafValues>
            4.9149298667907715e-01 -4.9149298667907715e-01</leafValues></_></weakClassifiers></_>
    <!-- stage 3 -->
    <_>
      <maxWeakCount>26</maxWeakCount>
      <stageThreshold>-4.9145097732543945e+00</stageThreshold>
      <weakClassifiers>
        <_>
          <internalNodes>
            0 -1 90 -2.5933754444122314e-01</internalNodes>
          <leafValues>
            2.3963096141815186e+00 -2.3963096141815186e+00</leafValues></_>
        <_>
          <internalNodes>
            0 -1 86 -3.4818565845489502e-01</internalNodes>
          <leafValues>
            7.6474535465240479e-01 -7.6474535465240479e-01</leafValues></_>
        <_>
          <internalNodes>
            0 -1 129 1.1405125260353088e-02</internalNodes>
          <leafValues>
            -6.9240593910217285e-01 6.9240593910217285e-01</leafValues></_>
        <_>
          <internalNodes>
            0 -1 3 1.6396450810134411e-03</internalNodes>
          <leafValues>
            6.1794543266296387e-01 -6.1794543266296387e-01</leafValues></_>
        <_>
          <internalNodes>
            0 -1 173 1.9695304334163666e-02</internalNodes>
          <leafValues>
            -6.8679076433181763e-01 6.8679076433181763e-01</leafValues></_>
        <_>
          <internalNodes>
            0 -1 6 2.5753660127520561e-02</internalNodes>
          <leafValues>
            -5.7091856002807617e-01 5.7091856002807617e-01</leafValues></_>
        <_>
          <internalNodes>
            0 -1 170 -1.5918906778097153e-02</internalNodes>
          <leafValues>
            6.0575932264328003e-01 -6.0575932264328003e-01</leafValues></_>
        <_>
          <internalNodes>
            0 -1 35 -1.3477118685841560e-02</internalNodes>
          <leafValues>
            -5.3946387767791748e-01 5.3946387767791748e-01</leafValues></_>
        <_>
          <internalNodes>
            0 -1 100 7.6649379916489124e-03</internalNodes>
          <leafValues>
            -5.0286704301834106e-01 5.0286704301834106e-01</leafValues></_>
        <_>
          <internalNodes>
            0 -1 169 1.3639323413372040e-02</internalNodes>
          <leafValues>
            -4.8396039009094238e-01 4.8396039009094238e-01</leafValues></_>
        <_>
          <internalNodes>
            0 -1 177 -1.2305448763072491e-03</internalNodes>
          <leafValues>
            4.5356541872024536e-01 -4.5356541872024536e-01</leafValues></_>
        <_>
          <internalNodes>
            0 -1 131 1.9083548337221146e-02</internalNodes>
          <leafValues>
            -5.0118041038513184e-01 5.0118041038513184e-01</leafValues></_>
        <_>
          <internalNodes>
            0 -1 65 -1.3064267113804817e-02</internalNodes>
          <leafValues>
            4.9783471226692200e-01 -4.9783471226692200e-01</leafValues></_>
        <_>
          <internalNodes>
            0 -1 14 5.3557968139648438e-01</internalNodes>
          <leafValues>
            4.6952283382415771e-01 -4.6952283382415771e-01</leafValues></_>
        <_>
          <internalNodes>
            0 -1 109 1.0094913095235825e-01</internalNodes>
          <leafValues>
            -5.2466422319412231e-01 5.2466422319412231e-01</leafValues></_>
        <_>
          <internalNodes>
            0 -1 55 -1.6883793286979198e-03</internalNodes>
          <leafValues>
            -4.2512848973274231e-01 4.2512848973274231e-01</leafValues></_>
        <_>
          <internalNodes>
            0 -1 211 1.2909386307001114e-02</internalNodes>
          <leafValues>
            -5.1350766420364380e-01 5.1350766420364380e-01</leafValues></_>
        <_>
          <internalNodes>
            0 -1 76 -1.8445185851305723e-03</internalNodes>
          <leafValues>
            -3.9446890354156494e-01 3.9446890354156494e-01</leafValues></_>
        <_>
          <internalNodes>
            0 -1 66 -1.1105282232165337e-02</internalNodes>
          <leafValues>
            4.7869887948036194e-01 -4.7869887948036194e-01</leafValues></_>
        <_>
          <internalNodes>
            0 -1 117 1.7714727669954300e-02</internalNodes>
          <leafValues>
            -4.5535624027252197e-01 4.5535624027252197e-01</leafValues></_>
        <_>
          <internalNodes>
            0 -1 241 1.1814963072538376e-03</internalNodes>
          <leafValues>
            -4.2962846159934998e-01 4.2962846159934998e-01</leafValues></_>
        <_>
          <internalNodes>
            0 -1 242 4.1360538452863693e-03</internalNodes>
          <leafValues>
            3.7149596214294434e-01 -3.7149596214294434e-01</leafValues></_>
        <_>
          <internalNodes>
            0 -1 207 5.1785940304398537e-03</internalNodes>
          <leafValues>
            -4.8927500844001770e-01 4.8927500844001770e-01</leafValues></_>
        <_>
          <internalNodes>
            0 -1 226 3.8342757616192102e-03</internalNodes>
          <leafValues>
            -4.5838817954063416e-01 4.5838817954063416e-01</leafValues></_>
        <_>
          <internalNodes>
            0 -1 43 5.2131913602352142e-02</internalNodes>
          <leafValues>
            4.6487116813659668e-01 -4.6487116813659668e-01</leafValues></_>
        <_>
          <internalNodes>
            0 -1 230 1.2356748804450035e-02</internalNodes>
          <leafValues>
            -4.7988930344581604e-01 4.7988930344581604e-01</leafValues></_></weakClassifiers></_>
    <!-- stage 4 -->
    <_>
      <maxWeakCount>32</maxWeakCount>
      <stageThreshold>-5.0639009475708008e+00</stageThreshold>
      <weakClassifiers>
        <_>
          <internalNodes>
            0 -1 162 -1.2118111550807953e-01</internalNodes>
          <leafValues>
            2.3915648460388184e+00 -2.3915648460388184e+00</leafValues></_>
        <_>
          <internalNodes>
            0 -1 85 -2.9831838607788086e-01</internalNodes>
          <leafValues>
            6.4256274700164795e-01 -6.4256274700164795e-01</leafValues></_>
        <_>
          <internalNodes>
            0 -1 136 2.9414547607302666e-02</internalNodes>
          <leafValues>
            -6.2894731760025024e-01 6.2894731760025024e-01</leafValues></_>
        <_>
          <internalNodes>
            0 -1 7 1.5946224331855774e-02</internalNodes>
          <leafValues>
            6.9852453470230103e-01 -6.9852453470230103e-01</leafValues></_>
        <_>
          <internalNodes>
            0 -1 190 2.9434932395815849e-02</internalNodes>
          <leafValues>
            -6.2817215919494629e-01 6.2817215919494629e-01</leafValues></_>
        <_>
          <internalNodes>
            0 -1 13 1.7977420985698700e-01</internalNodes>
          <leafValues>
            -5.7170230150222778e-01 5.7170230150222778e-01</leafValues></_>
        <_>
          <internalNodes>
            0 -1 227 1.6110045835375786e-02</internalNodes>
          <leafValues>
            -5.7065504789352417e-01 5.7065504789352417e-01</leafValues></_>
        <_>
          <internalNodes>
            0 -1 22 -2.9689217917621136e-03</internalNodes>
          <leafValues>
            -4.9656900763511658e-01 4.9656900763511658e-01</leafValues></_>
        <_>
          <internalNodes>
            0 -1 203 1.7389763146638870e-02</internalNodes>
          <leafValues>
            -5.1952964067459106e-01 5.1952964067459106e-01</leafValues></_>
        <_>
          <internalNodes>
            0 -1 149 -2.2905997931957245e-02</internalNodes>
          <leafValues>
            5.2121293544769287e-01 -5.2121293544769287e-01</leafValues></_>
        <_>
          <internalNodes>
            0 -1 12 5.9868252277374268e-01</internalNodes>
          <leafValues>
            4.8012870550155640e-01 -4.8012870550155640e-01</leafValues></_>
        <_>
          <internalNodes>
            0 -1 172 1.8302574753761292e-02</internalNodes>
          <leafValues>
            -5.0492817163467407e-01 5.0492817163467407e-01</leafValues></_>
        <_>
          <internalNodes>
            0 -1 189 4.7443974763154984e-02</internalNodes>
          <leafValues>
            -4.6554997563362122e-01 4.6554997563362122e-01</leafValues></_>
        <_>
          <internalNodes>
            0 -1 156 -7.5188698247075081e-04</internalNodes>
          <leafValues>
            -4.0307566523551941e-01 4.0307566523551941e-01</leafValues></_>
        <_>
          <internalNodes>
            0 -1 113 2.0981924608349800e-02</internalNodes>
          <leafValues>
            -5.2585148811340332e-01 5.2585148811340332e-01</leafValues></_>
        <_>
          <internalNodes>
            0 -1 0 8.4768509259447455e-04</internalNodes>
          <leafValues>
            3.9017161726951599e-01 -3.9017161726951599e-01</leafValues></_>
        <_>
          <internalNodes>
            0 -1 103 6.5477937459945679e-03</internalNodes>
          <leafValues>
            -4.1888877749443054e-01 4.1888877749443054e-01</leafValues></_>
        <_>
          <internalNodes>
            0 -1 205 -1.6591576859354973e-03</internalNodes>
          <leafValues>
            4.1075524687767029e-01 -4.1075524687767029e-01</leafValues></_>
        <_>
          <internalNodes>
            0 -1 88 -6.8997502326965332e-02</internalNodes>
          <leafValues>
            4.5447701215744019e-01 -4.5447701215744019e-01</leafValues></_>
        <_>
          <internalNodes>
            0 -1 247 -1.3024130836129189e-02</internalNodes>
          <leafValues>
            -4.0935334563255310e-01 4.0935334563255310e-01</leafValues></_>
        <_>
          <internalNodes>
            0 -1 202 1.3100269250571728e-02</internalNodes>
          <leafValues>
            -4.5151358842849731e-01 4.5151358842849731e-01</leafValues></_>
        <_>
          <internalNodes>
            0 -1 121 2.8020241297781467e-03</internalNodes>
          <leafValues>
            -3.6796274781227112e-01 3.6796274781227112e-01</leafValues></_>
        <_>
          <internalNodes>
            0 -1 113 -8.6313243955373764e-03</internalNodes>
          <leafValues>
            4.2926940321922302e-01 -4.2926940321922302e-01</leafValues></_>
        <_>
          <internalNodes>
            0 -1 71 -1.4029389619827271e-01</internalNodes>
          <leafValues>
            3.7476783990859985e-01 -3.7476783990859985e-01</leafValues></_>
        <_>
          <internalNodes>
            0 -1 183 1.6325922915711999e-03</internalNodes>
          <leafValues>
            -4.0882760286331177e-01 4.0882760286331177e-01</leafValues></_>
        <_>
          <internalNodes>
            0 -1 192 -6.5883263945579529e-02</internalNodes>
          <leafValues>
            4.0784531831741333e-01 -4.0784531831741333e-01</leafValues></_>
        <_>
          <internalNodes>
            0 -1 32 -1.8503040075302124e-02</internalNodes>
          <leafValues>
            -3.9294952154159546e-01 3.9294952154159546e-01</leafValues></_>
        <_>
          <internalNodes>
            0 -1 127 1.0512679815292358e-02</internalNodes>
          <leafValues>
            -4.2718636989593506e-01 4.2718636989593506e-01</leafValues></_>
        <_>
          <internalNodes>
            0 -1 44 -5.6769084185361862e-03</internalNodes>
          <leafValues>
            -4.1849806904792786e-01 4.1849806904792786e-01</leafValues></_>
        <_>
          <internalNodes>
            0 -1 31 6.0123886913061142e-02</internalNodes>
          <leafValues>
            -4.9408671259880066e-01 4.9408671259880066e-01</leafValues></_>
        <_>
          <internalNodes>
            0 -1 233 1.4883067924529314e-03</internalNodes>
          <leafValues>
            -3.5153579711914063e-01 3.5153579711914063e-01</leafValues></_>
        <_>
          <internalNodes>
            0 -1 30 -1.2980800122022629e-02</internalNodes>
          <leafValues>
            4.0280008316040039e-01 -4.0280008316040039e-01</leafValues></_></weakClassifiers></_>
    <!-- stage 5 -->
    <_>
      <maxWeakCount>42</maxWeakCount>
      <stageThreshold>-4.7800803184509277e+00</stageThreshold>
      <weakClassifiers>
        <_>
          <internalNodes>
            0 -1 111 -1.6683820635080338e-02</internalNodes>
          <leafValues>
            2.3939349651336670e+00 -2.3939349651336670e+00</leafValues></_>
        <_>
          <internalNodes>
            0 -1 53 -6.9531043991446495e-03</internalNodes>
          <leafValues>
            6.5086519718170166e-01 -6.5086519718170166e-01</leafValues></_>
        <_>
          <internalNodes>
            0 -1 62 -3.5901463031768799e-01</internalNodes>
          <leafValues>
            5.4402506351470947e-01 -5.4402506351470947e-01</leafValues></_>
        <_>
          <internalNodes>
            0 -1 45 1.0957738384604454e-02</internalNodes>
          <leafValues>
            -5.4765331745147705e-01 5.4765331745147705e-01</leafValues></_>
        <_>
          <internalNodes>
            0 -1 23 -8.2664638757705688e-03</internalNodes>
          <leafValues>
            -4.7030594944953918e-01 4.7030594944953918e-01</leafValues></_>
        <_>
          <internalNodes>
            0 -1 87 6.9964796304702759e-02</internalNodes>
          <leafValues>
            -4.8797944188117981e-01 4.8797944188117981e-01</leafValues></_>
        <_>
          <internalNodes>
            0 -1 214 1.3941572979092598e-02</internalNodes>
          <leafValues>
            -4.4406303763389587e-01 4.4406303763389587e-01</leafValues></_>
        <_>
          <internalNodes>
            0 -1 2 -2.7223550714552402e-03</internalNodes>
          <leafValues>
            4.2086958885192871e-01 -4.2086958885192871e-01</leafValues></_>
        <_>
          <internalNodes>
            0 -1 163 9.5397327095270157e-03</internalNodes>
          <leafValues>
            -4.7276040911674500e-01 4.7276040911674500e-01</leafValues></_>
        <_>
          <internalNodes>
            0 -1 104 -1.0773825924843550e-03</internalNodes>
          <leafValues>
            -3.9277994632720947e-01 3.9277994632720947e-01</leafValues></_>
        <_>
          <internalNodes>
            0 -1 128 4.5601002871990204e-02</internalNodes>
          <leafValues>
            -5.1890361309051514e-01 5.1890361309051514e-01</leafValues></_>
        <_>
          <internalNodes>
            0 -1 135 -2.8188648819923401e-01</internalNodes>
          <leafValues>
            -4.1376841068267822e-01 4.1376841068267822e-01</leafValues></_>
        <_>
          <internalNodes>
            0 -1 194 -1.5806941315531731e-02</internalNodes>
          <leafValues>
            5.5451011657714844e-01 -5.5451011657714844e-01</leafValues></_>
        <_>
          <internalNodes>
            0 -1 200 1.0819170624017715e-02</internalNodes>
          <leafValues>
            -4.4398334622383118e-01 4.4398334622383118e-01</leafValues></_>
        <_>
          <internalNodes>
            0 -1 224 -3.6550026386976242e-02</internalNodes>
          <leafValues>
            4.2021811008453369e-01 -4.2021811008453369e-01</leafValues></_>
        <_>
          <internalNodes>
            0 -1 8 4.4414005242288113e-04</internalNodes>
          <leafValues>
            3.5699310898780823e-01 -3.5699310898780823e-01</leafValues></_>
        <_>
          <internalNodes>
            0 -1 160 3.1814858317375183e-02</internalNodes>
          <leafValues>
            -4.5902779698371887e-01 4.5902779698371887e-01</leafValues></_>
        <_>
          <internalNodes>
            0 -1 69 -3.9489364624023438e-01</internalNodes>
          <leafValues>
            -4.0218159556388855e-01 4.0218159556388855e-01</leafValues></_>
        <_>
          <internalNodes>
            0 -1 180 -2.1748291328549385e-02</internalNodes>
          <leafValues>
            4.9353003501892090e-01 -4.9353003501892090e-01</leafValues></_>
        <_>
          <internalNodes>
            0 -1 147 1.9178786315023899e-03</internalNodes>
          <leafValues>
            -4.3208420276641846e-01 4.3208420276641846e-01</leafValues></_>
        <_>
          <internalNodes>
            0 -1 167 1.7794022336602211e-02</internalNodes>
          <leafValues>
            -4.1553109884262085e-01 4.1553109884262085e-01</leafValues></_>
        <_>
          <internalNodes>
            0 -1 236 -1.9867988303303719e-03</internalNodes>
          <leafValues>
            -3.8570111989974976e-01 3.8570111989974976e-01</leafValues></_>
        <_>
          <internalNodes>
            0 -1 178 1.4420339837670326e-02</internalNodes>
          <leafValues>
            -4.4129720330238342e-01 4.4129720330238342e-01</leafValues></_>
        <_>
          <internalNodes>
            0 -1 25 2.3106282949447632e-01</internalNodes>
          <leafValues>
            3.4694266319274902e-01 -3.4694266319274902e-01</leafValues></_>
        <_>
          <internalNodes>
            0 -1 166 -1.7049740999937057e-02</internalNodes>
          <leafValues>
            4.4131287932395935e-01 -4.4131287932395935e-01</leafValues></_>
        <_>
          <internalNodes>
            0 -1 242 6.9891009479761124e-03</internalNodes>
          <leafValues>
            3.2601636648178101e-01 -3.2601636648178101e-01</leafValues></_>
        <_>
          <internalNodes>
            0 -1 144 2.3977827280759811e-02</internalNodes>
          <leafValues>
            -5.0784265995025635e-01 5.0784265995025635e-01</leafValues></_>
        <_>
          <internalNodes>
            0 -1 48 -2.6626022532582283e-02</internalNodes>
          <leafValues>
            -3.0940499901771545e-01 3.0940499901771545e-01</leafValues></_>
        <_>
          <internalNodes>
            0 -1 218 1.4580091461539268e-02</internalNodes>
          <leafValues>
            -3.7891709804534912e-01 3.7891709804534912e-01</leafValues></_>
        <_>
          <internalNodes>
            0 -1 243 1.5953999536577612e-04</internalNodes>
          <leafValues>
            -3.2616773247718811e-01 3.2616773247718811e-01</leafValues></_>
        <_>
          <internalNodes>
            0 -1 231 -2.3954978678375483e-03</internalNodes>
          <leafValues>
            4.3926668167114258e-01 -4.3926668167114258e-01</leafValues></_>
        <_>
          <internalNodes>
            0 -1 203 1.9197936635464430e-03</internalNodes>
          <leafValues>
            -3.6458519101142883e-01 3.6458519101142883e-01</leafValues></_>
        <_>
          <internalNodes>
            0 -1 168 -1.4140695333480835e-02</internalNodes>
          <leafValues>
            4.1694766283035278e-01 -4.1694766283035278e-01</leafValues></_>
        <_>
          <internalNodes>
            0 -1 73 1.0322783142328262e-02</internalNodes>
          <leafValues>
            3.4007483720779419e-01 -3.4007483720779419e-01</leafValues></_>
        <_>
          <internalNodes>
            0 -1 40 -4.2152572423219681e-03</internalNodes>
          <leafValues>
            3.7177667021751404e-01 -3.7177667021751404e-01</leafValues></_>
        <_>
          <internalNodes>
            0 -1 175 -5.5216107284650207e-04</internalNodes>
          <leafValues>
            3.4339633584022522e-01 -3.4339633584022522e-01</leafValues></_>
        <_>
          <internalNodes>
            0 -1 182 -8.2929467316716909e-04</internalNodes>
          <leafValues>
            -3.6390823125839233e-01 3.6390823125839233e-01</leafValues></_>
        <_>
          <internalNodes>
            0 -1 125 1.0955936275422573e-02</internalNodes>
          <leafValues>
            -3.9642456173896790e-01 3.9642456173896790e-01</leafValues></_>
        <_>
          <internalNodes>
            0 -1 135 -2.8793498873710632e-01</internalNodes>
          <leafValues>
            -3.0356559157371521e-01 3.0356559157371521e-01</leafValues></_>
        <_>
          <internalNodes>
            0 -1 170 2.6059575378894806e-02</internalNodes>
          <leafValues>
            -4.5627111196517944e-01 4.5627111196517944e-01</leafValues></_>
        <_>
          <internalNodes>
            0 -1 220 1.1969809420406818e-03</internalNodes>
          <leafValues>
            3.3741259574890137e-01 -3.3741259574890137e-01</leafValues></_>
        <_>
          <internalNodes>
            0 -1 94 1.0748313739895821e-02</internalNodes>
          <leafValues>
            -3.7653365731239319e-01 3.7653365731239319e-01</leafValues></_></weakClassifiers></_>
    <!-- stage 6 -->
    <_>
      <maxWeakCount>39</maxWeakCount>
      <stageThreshold>-4.3017234802246094e+00</stageThreshold>
      <weakClassifiers>
        <_>
          <internalNodes>
            0 -1 34 -2.4158377945423126e-01</internalNodes>
          <leafValues>
            2.3927493095397949e+00 -2.3927493095397949e+00</leafValues></_>
        <_>
          <internalNodes>
            0 -1 116 -3.0611208081245422e-01</internalNodes>
          <leafValues>
            6.7224878072738647e-01 -6.7224878072738647e-01</leafValues></_>
        <_>
          <internalNodes>
            0 -1 238 -2.5509058032184839e-03</internalNodes>
          <leafValues>
            6.1484879255294800e-01 -6.1484879255294800e-01</leafValues></_>
        <_>
          <internalNodes>
            0 -1 184 -2.7469724882394075e-03</internalNodes>
          <leafValues>
            -5.7077926397323608e-01 5.7077926397323608e-01</leafValues></_>
        <_>
          <internalNodes>
            0 -1 63 3.2809987664222717e-02</internalNodes>
          <leafValues>
            -5.5330324172973633e-01 5.5330324172973633e-01</leafValues></_>
        <_>
          <internalNodes>
            0 -1 24 -2.0741736516356468e-02</internalNodes>
          <leafValues>
            -5.4208278656005859e-01 5.4208278656005859e-01</leafValues></_>
        <_>
          <internalNodes>
            0 -1 54 -2.3352908901870251e-03</internalNodes>
          <leafValues>
            4.9129787087440491e-01 -4.9129787087440491e-01</leafValues></_>
        <_>
          <internalNodes>
            0 -1 232 7.0351082831621170e-04</internalNodes>
          <leafValues>
            -4.1613727807998657e-01 4.1613727807998657e-01</leafValues></_>
        <_>
          <internalNodes>
            0 -1 207 5.0245560705661774e-03</internalNodes>
          <leafValues>
            -4.5179432630538940e-01 4.5179432630538940e-01</leafValues></_>
        <_>
          <internalNodes>
            0 -1 158 3.7940582260489464e-03</internalNodes>
          <leafValues>
            4.7636732459068298e-01 -4.7636732459068298e-01</leafValues></_>
        <_>
          <internalNodes>
            0 -1 199 -7.0850743213668466e-05</internalNodes>
          <leafValues>
            3.9373254776000977e-01 -3.9373254776000977e-01</leafValues></_>
        <_>
          <internalNodes>
            0 -1 110 2.9107904061675072e-02</internalNodes>
          <leafValues>
            -4.7760516405105591e-01 4.7760516405105591e-01</leafValues></_>
        <_>
          <internalNodes>
            0 -1 96 7.9848403111100197e-03</internalNodes>
          <leafValues>
            -3.8310170173645020e-01 3.8310170173645020e-01</leafValues></_>
        <_>
          <internalNodes>
            0 -1 47 -1.6150211915373802e-02</internalNodes>
          <leafValues>
            -3.2945686578750610e-01 3.2945686578750610e-01</leafValues></_>
        <_>
          <internalNodes>
            0 -1 133 1.6272945795208216e-03</internalNodes>
          <leafValues>
            -4.3545094132423401e-01 4.3545094132423401e-01</leafValues></_>
        <_>
          <internalNodes>
            0 -1 229 -7.9985975753515959e-04</internalNodes>
          <leafValues>
            3.7139007449150085e-01 -3.7139007449150085e-01</leafValues></_>
        <_>
          <internalNodes>
            0 -1 212 -2.3071028292179108e-02</internalNodes>
          <leafValues>
            4.8585543036460876e-01 -4.8585543036460876e-01</leafValues></_>
        <_>
          <internalNodes>
            0 -1 21 -1.7237278819084167e-01</internalNodes>
          <leafValues>
            -4.3295013904571533e-01 4.3295013904571533e-01</leafValues></_>
        <_>
          <internalNodes>
            0 -1 162 3.1227488070726395e-02</internalNodes>
          <leafValues>
            -4.5905646681785583e-01 4.5905646681785583e-01</leafValues></_>
        <_>
          <internalNodes>
            0 -1 15 -1.4707245863974094e-02</internalNodes>
          <leafValues>
            -3.8947623968124390e-01 3.8947623968124390e-01</leafValues></_>
        <_>
          <internalNodes>
            0 -1 124 1.4108303003013134e-02</internalNodes>
          <leafValues>
            -4.3275177478790283e-01 4.3275177478790283e-01</leafValues></_>
        <_>
          <internalNodes>
            0 -1 165 2.1456763148307800e-02</internalNodes>
          <leafValues>
            -4.2157143354415894e-01 4.2157143354415894e-01</leafValues></_>
        <_>
          <internalNodes>
            0 -1 14 5.0973767042160034e-01</internalNodes>
          <leafValues>
            4.3814110755920410e-01 -4.3814110755920410e-01</leafValues></_>
        <_>
          <internalNodes>
            0 -1 142 -1.7758771777153015e-02</internalNodes>
          <leafValues>
            4.2960715293884277e-01 -4.2960715293884277e-01</leafValues></_>
        <_>
          <internalNodes>
            0 -1 138 1.2267213314771652e-03</internalNodes>
          <leafValues>
            -4.1580051183700562e-01 4.1580051183700562e-01</leafValues></_>
        <_>
          <internalNodes>
            0 -1 36 5.2054580301046371e-03</internalNodes>
          <leafValues>
            -4.1160613298416138e-01 4.1160613298416138e-01</leafValues></_>
        <_>
          <internalNodes>
            0 -1 49 2.6882422389462590e-04</internalNodes>
          <leafValues>
            3.3153501152992249e-01 -3.3153501152992249e-01</leafValues></_>
        <_>
          <internalNodes>
            0 -1 217 9.1063760919496417e-04</internalNodes>
          <leafValues>
            -3.7002745270729065e-01 3.7002745270729065e-01</leafValues></_>
        <_>
          <internalNodes>
            0 -1 61 -3.5064160823822021e-01</internalNodes>
          <leafValues>
            4.0492126345634460e-01 -4.0492126345634460e-01</leafValues></_>
        <_>
          <internalNodes>
            0 -1 64 -4.3946634978055954e-03</internalNodes>
          <leafValues>
            -4.1600239276885986e-01 4.1600239276885986e-01</leafValues></_>
        <_>
          <internalNodes>
            0 -1 108 4.0564220398664474e-03</internalNodes>
          <leafValues>
            -4.1403910517692566e-01 4.1403910517692566e-01</leafValues></_>
        <_>
          <internalNodes>
            0 -1 33 -3.3563560247421265e-01</internalNodes>
          <leafValues>
            -3.3520498871803284e-01 3.3520498871803284e-01</leafValues></_>
        <_>
          <internalNodes>
            0 -1 176 4.3350774794816971e-03</internalNodes>
          <leafValues>
            -3.2989880442619324e-01 3.2989880442619324e-01</leafValues></_>
        <_>
          <internalNodes>
            0 -1 105 2.0695086568593979e-02</internalNodes>
          <leafValues>
            -4.0975278615951538e-01 4.0975278615951538e-01</leafValues></_>
        <_>
          <internalNodes>
            0 -1 218 -6.1532082036137581e-03</internalNodes>
          <leafValues>
            -3.3866688609123230e-01 3.3866688609123230e-01</leafValues></_>
        <_>
          <internalNodes>
            0 -1 171 -5.5018364218994975e-04</internalNodes>
          <leafValues>
            -3.1904450058937073e-01 3.1904450058937073e-01</leafValues></_>
        <_>
          <internalNodes>
            0 -1 181 -1.7998728901147842e-02</internalNodes>
          <leafValues>
            3.9914786815643311e-01 -3.9914786815643311e-01</leafValues></_>
        <_>
          <internalNodes>
            0 -1 130 1.8976703286170959e-02</internalNodes>
          <leafValues>
            -3.4696754813194275e-01 3.4696754813194275e-01</leafValues></_>
        <_>
          <internalNodes>
            0 -1 159 -1.4743706583976746e-01</internalNodes>
          <leafValues>
            -3.3733820915222168e-01 3.3733820915222168e-01</leafValues></_></weakClassifiers></_>
    <!-- stage 7 -->
    <_>
      <maxWeakCount>38</maxWeakCount>
      <stageThreshold>-4.5339303016662598e+00</stageThreshold>
      <weakClassifiers>
        <_>
          <internalNodes>
            0 -1 197 6.8666100502014160e-02</internalNodes>
          <leafValues>
            -2.4361870288848877e+00 2.4361870288848877e+00</leafValues></_>
        <_>
          <internalNodes>
            0 -1 59 1.1194350197911263e-02</internalNodes>
          <leafValues>
            -6.5082430839538574e-01 6.5082430839538574e-01</leafValues></_>
        <_>
          <internalNodes>
            0 -1 244 -1.5736460685729980e-02</internalNodes>
          <leafValues>
            -6.6729331016540527e-01 6.6729331016540527e-01</leafValues></_>
        <_>
          <internalNodes>
            0 -1 185 -1.1605136096477509e-01</internalNodes>
          <leafValues>
            6.2360244989395142e-01 -6.2360244989395142e-01</leafValues></_>
        <_>
          <internalNodes>
            0 -1 70 1.2365262955427170e-02</internalNodes>
          <leafValues>
            -5.5994069576263428e-01 5.5994069576263428e-01</leafValues></_>
        <_>
          <internalNodes>
            0 -1 223 9.0889481361955404e-04</internalNodes>
          <leafValues>
            4.5514035224914551e-01 -4.5514035224914551e-01</leafValues></_>
        <_>
          <internalNodes>
            0 -1 39 -6.3002696260809898e-03</internalNodes>
          <leafValues>
            -4.0916332602500916e-01 4.0916332602500916e-01</leafValues></_>
        <_>
          <internalNodes>
            0 -1 91 1.5834169462323189e-02</internalNodes>
          <leafValues>
            -5.7568842172622681e-01 5.7568842172622681e-01</leafValues></_>
        <_>
          <internalNodes>
            0 -1 28 1.2511517107486725e-01</internalNodes>
          <leafValues>
            3.9317432045936584e-01 -3.9317432045936584e-01</leafValues></_>
        <_>
          <internalNodes>
            0 -1 237 6.2478841282427311e-03</internalNodes>
          <leafValues>
            -4.6800458431243896e-01 4.6800458431243896e-01</leafValues></_>
        <_>
          <internalNodes>
            0 -1 57 9.6634142100811005e-03</internalNodes>
          <leafValues>
            4.1027221083641052e-01 -4.1027221083641052e-01</leafValues></_>
        <_>
          <internalNodes>
            0 -1 101 1.1776198633015156e-02</internalNodes>
          <leafValues>
            -4.7255450487136841e-01 4.7255450487136841e-01</leafValues></_>
        <_>
          <internalNodes>
            0 -1 4 -3.2475169282406569e-03</internalNodes>
          <leafValues>
            -4.3036171793937683e-01 4.3036171793937683e-01</leafValues></_>
        <_>
          <internalNodes>
            0 -1 191 -1.9136644899845123e-02</internalNodes>
          <leafValues>
            4.8576021194458008e-01 -4.8576021194458008e-01</leafValues></_>
        <_>
          <internalNodes>
            0 -1 41 -2.1050564944744110e-02</internalNodes>
          <leafValues>
            -4.2596086859703064e-01 4.2596086859703064e-01</leafValues></_>
        <_>
          <internalNodes>
            0 -1 234 2.2107840050011873e-03</internalNodes>
          <leafValues>
            -4.9565324187278748e-01 4.9565324187278748e-01</leafValues></_>
        <_>
          <internalNodes>
            0 -1 26 4.7067314386367798e-02</internalNodes>
          <leafValues>
            3.6299934983253479e-01 -3.6299934983253479e-01</leafValues></_>
        <_>
          <internalNodes>
            0 -1 179 3.6246724426746368e-02</internalNodes>
          <leafValues>
            -4.4777145981788635e-01 4.4777145981788635e-01</leafValues></_>
        <_>
          <internalNodes>
            0 -1 150 -1.0342156887054443e-01</internalNodes>
          <leafValues>
            -3.9628547430038452e-01 3.9628547430038452e-01</leafValues></_>
        <_>
          <internalNodes>
            0 -1 89 2.3411037400364876e-02</internalNodes>
          <leafValues>
            -4.8271772265434265e-01 4.8271772265434265e-01</leafValues></_>
        <_>
          <internalNodes>
            0 -1 123 -5.6019008159637451e-01</internalNodes>
          <leafValues>
            -3.4937071800231934e-01 3.4937071800231934e-01</leafValues></_>
        <_>
          <internalNodes>
            0 -1 216 -2.0654430612921715e-02</internalNodes>
          <leafValues>
            5.5720806121826172e-01 -5.5720806121826172e-01</leafValues></_>
        <_>
          <internalNodes>
            0 -1 210 -2.1242637187242508e-02</internalNodes>
          <leafValues>
            4.0329641103744507e-01 -4.0329641103744507e-01</leafValues></_>
        <_>
          <internalNodes>
            0 -1 154 2.1592993289232254e-03</internalNodes>
          <leafValues>
            -4.1202509403228760e-01 4.1202509403228760e-01</leafValues></_>
        <_>
          <internalNodes>
            0 -1 75 -1.9632637850008905e-04</internalNodes>
          <leafValues>
            4.3888869881629944e-01 -4.3888869881629944e-01</leafValues></_>
        <_>
          <internalNodes>
            0 -1 120 9.5483446493744850e-03</internalNodes>
          <leafValues>
            -4.0465202927589417e-01 4.0465202927589417e-01</leafValues></_>
        <_>
          <internalNodes>
            0 -1 58 4.0537854656577110e-03</internalNodes>
          <leafValues>
            3.4676963090896606e-01 -3.4676963090896606e-01</leafValues></_>
        <_>
          <internalNodes>
            0 -1 68 7.6813966035842896e-02</internalNodes>
          <leafValues>
            3.6913827061653137e-01 -3.6913827061653137e-01</leafValues></_>
        <_>
          <internalNodes>
            0 -1 206 5.8480119332671165e-04</internalNodes>
          <leafValues>
            -4.2767584323883057e-01 4.2767584323883057e-01</leafValues></_>
        <_>
          <internalNodes>
            0 -1 151 6.1478689312934875e-03</internalNodes>
          <leafValues>
            -4.3533205986022949e-01 4.3533205986022949e-01</leafValues></_>
        <_>
          <internalNodes>
            0 -1 42 1.3438558578491211e-01</internalNodes>
          <leafValues>
            3.0787569284439087e-01 -3.0787569284439087e-01</leafValues></_>
        <_>
          <internalNodes>
            0 -1 112 -7.9754572361707687e-03</internalNodes>
          <leafValues>
            4.6201777458190918e-01 -4.6201777458190918e-01</leafValues></_>
        <_>
          <internalNodes>
            0 -1 80 -6.2230024486780167e-02</internalNodes>
          <leafValues>
            -4.3274131417274475e-01 4.3274131417274475e-01</leafValues></_>
        <_>
          <internalNodes>
            0 -1 104 -1.0773825924843550e-03</internalNodes>
          <leafValues>
            -3.3884301781654358e-01 3.3884301781654358e-01</leafValues></_>
        <_>
          <internalNodes>
            0 -1 213 -1.4857130125164986e-02</internalNodes>
          <leafValues>
            5.0254780054092407e-01 -5.0254780054092407e-01</leafValues></_>
        <_>
          <internalNodes>
            0 -1 72 6.9378606975078583e-02</internalNodes>
          <leafValues>
            4.1235721111297607e-01 -4.1235721111297607e-01</leafValues></_>
        <_>
          <internalNodes>
            0 -1 146 -6.7680865526199341e-02</internalNodes>
          <leafValues>
            -3.7537947297096252e-01 3.7537947297096252e-01</leafValues></_>
        <_>
          <internalNodes>
            0 -1 164 -1.2722803279757500e-02</internalNodes>
          <leafValues>
            4.8122870922088623e-01 -4.8122870922088623e-01</leafValues></_></weakClassifiers></_>
    <!-- stage 8 -->
    <_>
      <maxWeakCount>26</maxWeakCount>
      <stageThreshold>-4.4884772300720215e+00</stageThreshold>
      <weakClassifiers>
        <_>
          <internalNodes>
            0 -1 83 -2.7802776545286179e-02</internalNodes>
          <leafValues>
            2.5254831314086914e+00 -2.5254831314086914e+00</leafValues></_>
        <_>
          <internalNodes>
            0 -1 74 -1.5895405784249306e-02</internalNodes>
          <leafValues>
            6.5539413690567017e-01 -6.5539413690567017e-01</leafValues></_>
        <_>
          <internalNodes>
            0 -1 18 -2.7506390213966370e-01</internalNodes>
          <leafValues>
            6.5612322092056274e-01 -6.5612322092056274e-01</leafValues></_>
        <_>
          <internalNodes>
            0 -1 245 -8.5763093084096909e-03</internalNodes>
          <leafValues>
            -6.6161459684371948e-01 6.6161459684371948e-01</leafValues></_>
        <_>
          <internalNodes>
            0 -1 155 -6.6472304752096534e-04</internalNodes>
          <leafValues>
            5.6817817687988281e-01 -5.6817817687988281e-01</leafValues></_>
        <_>
          <internalNodes>
            0 -1 5 -9.1230282559990883e-03</internalNodes>
          <leafValues>
            -5.2430528402328491e-01 5.2430528402328491e-01</leafValues></_>
        <_>
          <internalNodes>
            0 -1 208 5.8645673561841249e-04</internalNodes>
          <leafValues>
            -5.9424704313278198e-01 5.9424704313278198e-01</leafValues></_>
        <_>
          <internalNodes>
            0 -1 106 -3.8613104261457920e-03</internalNodes>
          <leafValues>
            -5.7720112800598145e-01 5.7720112800598145e-01</leafValues></_>
        <_>
          <internalNodes>
            0 -1 190 -2.0141478627920151e-02</internalNodes>
          <leafValues>
            5.8440375328063965e-01 -5.8440375328063965e-01</leafValues></_>
        <_>
          <internalNodes>
            0 -1 239 -2.0217347890138626e-02</internalNodes>
          <leafValues>
            -5.3564053773880005e-01 5.3564053773880005e-01</leafValues></_>
        <_>
          <internalNodes>
            0 -1 132 2.8804410248994827e-03</internalNodes>
          <leafValues>
            -5.8859205245971680e-01 5.8859205245971680e-01</leafValues></_>
        <_>
          <internalNodes>
            0 -1 1 -8.0794573295861483e-04</internalNodes>
          <leafValues>
            -5.4075384140014648e-01 5.4075384140014648e-01</leafValues></_>
        <_>
          <internalNodes>
            0 -1 187 2.6353500783443451e-02</internalNodes>
          <leafValues>
            -6.6901540756225586e-01 6.6901540756225586e-01</leafValues></_>
        <_>
          <internalNodes>
            0 -1 38 1.1577168107032776e-01</internalNodes>
          <leafValues>
            4.6155565977096558e-01 -4.6155565977096558e-01</leafValues></_>
        <_>
          <internalNodes>
            0 -1 82 5.1832222379744053e-03</internalNodes>
          <leafValues>
            -5.8229035139083862e-01 5.8229035139083862e-01</leafValues></_>
        <_>
          <internalNodes>
            0 -1 20 5.2498761564493179e-02</internalNodes>
          <leafValues>
            4.5126008987426758e-01 -4.5126008987426758e-01</leafValues></_>
        <_>
          <internalNodes>
            0 -1 134 2.6128910481929779e-02</internalNodes>
          <leafValues>
            -5.7739794254302979e-01 5.7739794254302979e-01</leafValues></_>
        <_>
          <internalNodes>
            0 -1 17 1.0042068362236023e-01</internalNodes>
          <leafValues>
            4.4813737273216248e-01 -4.4813737273216248e-01</leafValues></_>
        <_>
          <internalNodes>
            0 -1 70 1.7818285152316093e-02</internalNodes>
          <leafValues>
            -5.2695393562316895e-01 5.2695393562316895e-01</leafValues></_>
        <_>
          <internalNodes>
            0 -1 198 -1.8482536077499390e-01</internalNodes>
          <leafValues>
            -4.3286311626434326e-01 4.3286311626434326e-01</leafValues></_>
        <_>
          <internalNodes>
            0 -1 222 -1.5215341001749039e-02</internalNodes>
          <leafValues>
            5.6297856569290161e-01 -5.6297856569290161e-01</leafValues></_>
        <_>
          <internalNodes>
            0 -1 98 6.5706528723239899e-02</internalNodes>
          <leafValues>
            -4.6449473500251770e-01 4.6449473500251770e-01</leafValues></_>
        <_>
          <internalNodes>
            0 -1 99 -2.6819092035293579e-01</internalNodes>
          <leafValues>
            -4.4676533341407776e-01 4.4676533341407776e-01</leafValues></_>
        <_>
          <internalNodes>
            0 -1 95 7.2719962336122990e-03</internalNodes>
          <leafValues>
            -6.2259840965270996e-01 6.2259840965270996e-01</leafValues></_>
        <_>
          <internalNodes>
            0 -1 209 9.8212971352040768e-04</internalNodes>
          <leafValues>
            4.4981601834297180e-01 -4.4981601834297180e-01</leafValues></_>
        <_>
          <internalNodes>
            0 -1 221 -1.1305034859105945e-03</internalNodes>
          <leafValues>
            -4.5573934912681580e-01 4.5573934912681580e-01</leafValues></_></weakClassifiers></_>
    <!-- stage 9 -->
    <_>
      <maxWeakCount>18</maxWeakCount>
      <stageThreshold>-4.6466283798217773e+00</stageThreshold>
      <weakClassifiers>
        <_>
          <internalNodes>
            0 -1 60 2.6703757047653198e-01</internalNodes>
          <leafValues>
            -2.6736629009246826e+00 2.6736629009246826e+00</leafValues></_>
        <_>
          <internalNodes>
            0 -1 219 -2.6910305023193359e-03</internalNodes>
          <leafValues>
            7.8286236524581909e-01 -7.8286236524581909e-01</leafValues></_>
        <_>
          <internalNodes>
            0 -1 37 -1.1981109157204628e-02</internalNodes>
          <leafValues>
            -8.4440255165100098e-01 8.4440255165100098e-01</leafValues></_>
        <_>
          <internalNodes>
            0 -1 193 3.5813491558656096e-04</internalNodes>
          <leafValues>
            -6.9690459966659546e-01 6.9690459966659546e-01</leafValues></_>
        <_>
          <internalNodes>
            0 -1 148 -1.9657148513942957e-03</internalNodes>
          <leafValues>
            6.5803772211074829e-01 -6.5803772211074829e-01</leafValues></_>
        <_>
          <internalNodes>
            0 -1 161 -1.4145288616418839e-02</internalNodes>
          <leafValues>
            6.8688654899597168e-01 -6.8688654899597168e-01</leafValues></_>
        <_>
          <internalNodes>
            0 -1 29 -7.8943178057670593e-02</internalNodes>
          <leafValues>
            -7.1027231216430664e-01 7.1027231216430664e-01</leafValues></_>
        <_>
          <internalNodes>
            0 -1 97 3.1330879777669907e-02</internalNodes>
          <leafValues>
            -6.7134875059127808e-01 6.7134875059127808e-01</leafValues></_>
        <_>
          <internalNodes>
            0 -1 140 2.5189230218529701e-03</internalNodes>
          <leafValues>
            -7.2261524200439453e-01 7.2261524200439453e-01</leafValues></_>
        <_>
          <internalNodes>
            0 -1 115 -5.0630378723144531e-01</internalNodes>
          <leafValues>
            -5.9736365079879761e-01 5.9736365079879761e-01</leafValues></_>
        <_>
          <internalNodes>
            0 -1 27 -1.0608373582363129e-01</internalNodes>
          <leafValues>
            6.5234112739562988e-01 -6.5234112739562988e-01</leafValues></_>
        <_>
          <internalNodes>
            0 -1 114 -1.1341694742441177e-02</internalNodes>
          <leafValues>
            6.9472724199295044e-01 -6.9472724199295044e-01</leafValues></_>
        <_>
          <internalNodes>
            0 -1 77 1.1155487596988678e-01</internalNodes>
          <leafValues>
            6.3961195945739746e-01 -6.3961195945739746e-01</leafValues></_>
        <_>
          <internalNodes>
            0 -1 52 -1.0654004290699959e-03</internalNodes>
          <leafValues>
            5.8634620904922485e-01 -5.8634620904922485e-01</leafValues></_>
        <_>
          <internalNodes>
            0 -1 246 -2.1668153931386769e-04</internalNodes>
          <leafValues>
            -6.2536853551864624e-01 6.2536853551864624e-01</leafValues></_>
        <_>
          <internalNodes>
            0 -1 22 3.4362315200269222e-03</internalNodes>
          <leafValues>
            6.0902613401412964e-01 -6.0902613401412964e-01</leafValues></_>
        <_>
          <internalNodes>
            0 -1 225 9.5160854980349541e-03</internalNodes>
          <leafValues>
            -6.6497057676315308e-01 6.6497057676315308e-01</leafValues></_>
        <_>
          <internalNodes>
            0 -1 56 -2.5061180349439383e-03</internalNodes>
          <leafValues>
            -6.3268655538558960e-01 6.3268655538558960e-01</leafValues></_></weakClassifiers></_></stages>
  <features>
    <_>
      <rects>
        <_>
          0 0 4 1 -1.</_>
        <_>
          1 0 2 1 2.</_></rects>
      <tilted>0</tilted></_>
    <_>
      <rects>
        <_>
          0 0 2 2 -1.</_>
        <_>
          0 0 1 1 2.</_>
        <_>
          1 1 1 1 2.</_></rects>
      <tilted>0</tilted></_>
    <_>
      <rects>
        <_>
          0 0 1 12 -1.</_>
        <_>
          0 6 1 6 2.</_></rects>
      <tilted>0</tilted></_>
    <_>
      <rects>
        <_>
          0 0 4 1 -1.</_>
        <_>
          2 0 2 1 2.</_></rects>
      <tilted>0</tilted></_>
    <_>
      <rects>
        <_>
          0 0 2 4 -1.</_>
        <_>
          0 2 2 2 2.</_></rects>
      <tilted>0</tilted></_>
    <_>
      <rects>
        <_>
          0 0 4 8 -1.</_>
        <_>
          0 0 2 4 2.</_>
        <_>
          2 4 2 4 2.</_></rects>
      <tilted>0</tilted></_>
    <_>
      <rects>
        <_>
          0 0 4 7 -1.</_>
        <_>
          2 0 2 7 2.</_></rects>
      <tilted>0</tilted></_>
    <_>
      <rects>
        <_>
          0 0 12 1 -1.</_>
        <_>
          3 0 6 1 2.</_></rects>
      <tilted>0</tilted></_>
    <_>
      <rects>
        <_>
          0 0 3 4 -1.</_>
        <_>
          0 1 3 2 2.</_></rects>
      <tilted>0</tilted></_>
    <_>
      <rects>
        <_>
          0 0 12 8 -1.</_>
        <_>
          3 0 6 8 2.</_></rects>
      <tilted>0</tilted></_>
    <_>
      <rects>
        <_>
          0 0 8 7 -1.</_>
        <_>
          4 0 4 7 2.</_></rects>
      <tilted>0</tilted></_>
    <_>
      <rects>
        <_>
          0 0 12 9 -1.</_>
        <_>
          4 0 4 9 3.</_></rects>
      <tilted>0</tilted></_>
    <_>
      <rects>
        <_>
          0 0 12 10 -1.</_>
        <_>
          4 0 4 10 3.</_></rects>
      <tilted>0</tilted></_>
    <_>
      <rects>
        <_>
          0 0 12 11 -1.</_>
        <_>
          4 0 4 11 3.</_></rects>
      <tilted>0</tilted></_>
    <_>
      <rects>
        <_>
          0 0 12 12 -1.</_>
        <_>
          4 0 4 12 3.</_></rects>
      <tilted>0</tilted></_>
    <_>
      <rects>
        <_>
          0 0 10 2 -1.</_>
        <_>
          5 0 5 2 2.</_></rects>
      <tilted>0</tilted></_>
    <_>
      <rects>
        <_>
          0 0 12 2 -1.</_>
        <_>
          6 0 6 2 2.</_></rects>
      <tilted>0</tilted></_>
    <_>
      <rects>
        <_>
          0 0 12 12 -1.</_>
        <_>
          0 0 6 6 2.</_>
        <_>
          6 6 6 6 2.</_></rects>
      <tilted>0</tilted></_>
    <_>
      <rects>
        <_>
          0 0 12 12 -1.</_>
        <_>
          0 6 12 6 2.</_></rects>
      <tilted>0</tilted></_>
    <_>
      <rects>
        <_>
          0 1 1 10 -1.</_>
        <_>
          0 6 1 5 2.</_></rects>
      <tilted>0</tilted></_>
    <_>
      <rects>
        <_>
          0 1 2 6 -1.</_>
        <_>
          0 4 2 3 2.</_></rects>
      <tilted>0</tilted></_>
    <_>
      <rects>
        <_>
          0 1 12 10 -1.</_>
        <_>
          0 1 6 5 2.</_>
        <_>
          6 6 6 5 2.</_></rects>
      <tilted>0</tilted></_>
    <_>
      <rects>
        <_>
          0 2 1 4 -1.</_>
        <_>
          0 4 1 2 2.</_></rects>
      <tilted>0</tilted></_>
    <_>
      <rects>
        <_>
          0 2 1 8 -1.</_>
        <_>
          0 6 1 4 2.</_></rects>
      <tilted>0</tilted></_>
    <_>
      <rects>
        <_>
          0 2 1 10 -1.</_>
        <_>
          0 7 1 5 2.</_></rects>
      <tilted>0</tilted></_>
    <_>
      <rects>
        <_>
          0 2 8 8 -1.</_>
        <_>
          4 2 4 8 2.</_></rects>
      <tilted>0</tilted></_>
    <_>
      <rects>
        <_>
          0 2 12 10 -1.</_>
        <_>
          0 2 6 5 2.</_>
        <_>
          6 7 6 5 2.</_></rects>
      <tilted>0</tilted></_>
    <_>
      <rects>
        <_>
          0 2 9 8 -1.</_>
        <_>
          0 6 9 4 2.</_></rects>
      <tilted>0</tilted></_>
    <_>
      <rects>
        <_>
          0 3 8 6 -1.</_>
        <_>
          2 3 4 6 2.</_></rects>
      <tilted>0</tilted></_>
    <_>
      <rects>
        <_>
          0 3 6 8 -1.</_>
        <_>
          0 5 6 4 2.</_></rects>
      <tilted>0</tilted></_>
    <_>
      <rects>
        <_>
          0 3 9 3 -1.</_>
        <_>
          0 4 9 1 3.</_></rects>
      <tilted>0</tilted></_>
    <_>
      <rects>
        <_>
          0 3 10 4 -1.</_>
        <_>
          0 4 10 2 2.</_></rects>
      <tilted>0</tilted></_>
    <_>
      <rects>
        <_>
          0 4 1 8 -1.</_>
        <_>
          0 8 1 4 2.</_></rects>
      <tilted>0</tilted></_>
    <_>
      <rects>
        <_>
          0 4 7 8 -1.</_>
        <_>
          0 8 7 4 2.</_></rects>
      <tilted>0</tilted></_>
    <_>
      <rects>
        <_>
          0 5 6 3 -1.</_>
        <_>
          2 6 2 1 9.</_></rects>
      <tilted>0</tilted></_>
    <_>
      <rects>
        <_>
          0 6 1 6 -1.</_>
        <_>
          0 9 1 3 2.</_></rects>
      <tilted>0</tilted></_>
    <_>
      <rects>
        <_>
          0 7 6 1 -1.</_>
        <_>
          2 7 2 1 3.</_></rects>
      <tilted>0</tilted></_>
    <_>
      <rects>
        <_>
          0 7 2 4 -1.</_>
        <_>
          0 8 2 2 2.</_></rects>
      <tilted>0</tilted></_>
    <_>
      <rects>
        <_>
          0 7 6 4 -1.</_>
        <_>
          3 7 3 4 2.</_></rects>
      <tilted>0</tilted></_>
    <_>
      <rects>
        <_>
          0 8 1 4 -1.</_>
        <_>
          0 10 1 2 2.</_></rects>
      <tilted>0</tilted></_>
    <_>
      <rects>
        <_>
          0 8 4 2 -1.</_>
        <_>
          0 8 2 1 2.</_>
        <_>
          2 9 2 1 2.</_></rects>
      <tilted>0</tilted></_>
    <_>
      <rects>
        <_>
          0 8 2 4 -1.</_>
        <_>
          0 10 2 2 2.</_></rects>
      <tilted>0</tilted></_>
    <_>
      <rects>
        <_>
          0 8 12 2 -1.</_>
        <_>
          4 8 4 2 3.</_></rects>
      <tilted>0</tilted></_>
    <_>
      <rects>
        <_>
          0 8 12 3 -1.</_>
        <_>
          6 8 6 3 2.</_></rects>
      <tilted>0</tilted></_>
    <_>
      <rects>
        <_>
          0 9 2 3 -1.</_>
        <_>
          1 9 1 3 2.</_></rects>
      <tilted>0</tilted></_>
    <_>
      <rects>
        <_>
          0 9 6 1 -1.</_>
        <_>
          3 9 3 1 2.</_></rects>
      <tilted>0</tilted></_>
    <_>
      <rects>
        <_>
          0 10 2 2 -1.</_>
        <_>
          0 11 2 1 2.</_></rects>
      <tilted>0</tilted></_>
    <_>
      <rects>
        <_>
          0 10 4 2 -1.</_>
        <_>
          2 10 2 2 2.</_></rects>
      <tilted>0</tilted></_>
    <_>
      <rects>
        <_>
          0 10 6 2 -1.</_>
        <_>
          3 10 3 2 2.</_></rects>
      <tilted>0</tilted></_>
    <_>
      <rects>
        <_>
          0 11 2 1 -1.</_>
        <_>
          1 11 1 1 2.</_></rects>
      <tilted>0</tilted></_>
    <_>
      <rects>
        <_>
          0 11 4 1 -1.</_>
        <_>
          1 11 2 1 2.</_></rects>
      <tilted>0</tilted></_>
    <_>
      <rects>
        <_>
          0 11 4 1 -1.</_>
        <_>
          2 11 2 1 2.</_></rects>
      <tilted>0</tilted></_>
    <_>
      <rects>
        <_>
          0 11 8 1 -1.</_>
        <_>
          2 11 4 1 2.</_></rects>
      <tilted>0</tilted></_>
    <_>
      <rects>
        <_>
          0 11 6 1 -1.</_>
        <_>
          3 11 3 1 2.</_></rects>
      <tilted>0</tilted></_>
    <_>
      <rects>
        <_>
          0 11 9 1 -1.</_>
        <_>
          3 11 3 1 3.</_></rects>
      <tilted>0</tilted></_>
    <_>
      <rects>
        <_>
          1 0 4 1 -1.</_>
        <_>
          2 0 2 1 2.</_></rects>
      <tilted>0</tilted></_>
    <_>
      <rects>
        <_>
          1 0 6 1 -1.</_>
        <_>
          3 0 2 1 3.</_></rects>
      <tilted>0</tilted></_>
    <_>
      <rects>
        <_>
          1 0 10 1 -1.</_>
        <_>
          6 0 5 1 2.</_></rects>
      <tilted>0</tilted></_>
    <_>
      <rects>
        <_>
          1 1 3 6 -1.</_>
        <_>
          2 1 1 6 3.</_></rects>
      <tilted>0</tilted></_>
    <_>
      <rects>
        <_>
          1 1 4 2 -1.</_>
        <_>
          1 1 2 1 2.</_>
        <_>
          3 2 2 1 2.</_></rects>
      <tilted>0</tilted></_>
    <_>
      <rects>
        <_>
          1 1 9 3 -1.</_>
        <_>
          4 2 3 1 9.</_></rects>
      <tilted>0</tilted></_>
    <_>
      <rects>
        <_>
          1 1 10 10 -1.</_>
        <_>
          1 6 10 5 2.</_></rects>
      <tilted>0</tilted></_>
    <_>
      <rects>
        <_>
          1 2 8 10 -1.</_>
        <_>
          1 7 8 5 2.</_></rects>
      <tilted>0</tilted></_>
    <_>
      <rects>
        <_>
          1 3 3 3 -1.</_>
        <_>
          2 4 1 1 9.</_></rects>
      <tilted>0</tilted></_>
    <_>
      <rects>
        <_>
          1 3 2 4 -1.</_>
        <_>
          1 5 2 2 2.</_></rects>
      <tilted>0</tilted></_>
    <_>
      <rects>
        <_>
          1 3 8 3 -1.</_>
        <_>
          1 4 8 1 3.</_></rects>
      <tilted>0</tilted></_>
    <_>
      <rects>
        <_>
          1 4 6 5 -1.</_>
        <_>
          3 4 2 5 3.</_></rects>
      <tilted>0</tilted></_>
    <_>
      <rects>
        <_>
          1 4 11 6 -1.</_>
        <_>
          1 7 11 3 2.</_></rects>
      <tilted>0</tilted></_>
    <_>
      <rects>
        <_>
          1 5 8 7 -1.</_>
        <_>
          5 5 4 7 2.</_></rects>
      <tilted>0</tilted></_>
    <_>
      <rects>
        <_>
          1 5 11 6 -1.</_>
        <_>
          1 8 11 3 2.</_></rects>
      <tilted>0</tilted></_>
    <_>
      <rects>
        <_>
          1 6 3 3 -1.</_>
        <_>
          2 7 1 1 9.</_></rects>
      <tilted>0</tilted></_>
    <_>
      <rects>
        <_>
          1 6 11 6 -1.</_>
        <_>
          1 9 11 3 2.</_></rects>
      <tilted>0</tilted></_>
    <_>
      <rects>
        <_>
          1 8 8 3 -1.</_>
        <_>
          5 8 4 3 2.</_></rects>
      <tilted>0</tilted></_>
    <_>
      <rects>
        <_>
          1 9 10 1 -1.</_>
        <_>
          6 9 5 1 2.</_></rects>
      <tilted>0</tilted></_>
    <_>
      <rects>
        <_>
          1 9 5 2 -1.</_>
        <_>
          1 10 5 1 2.</_></rects>
      <tilted>0</tilted></_>
    <_>
      <rects>
        <_>
          1 10 2 2 -1.</_>
        <_>
          2 10 1 2 2.</_></rects>
      <tilted>0</tilted></_>
    <_>
      <rects>
        <_>
          2 0 8 1 -1.</_>
        <_>
          4 0 4 1 2.</_></rects>
      <tilted>0</tilted></_>
    <_>
      <rects>
        <_>
          2 0 8 10 -1.</_>
        <_>
          2 0 4 5 2.</_>
        <_>
          6 5 4 5 2.</_></rects>
      <tilted>0</tilted></_>
    <_>
      <rects>
        <_>
          2 0 10 12 -1.</_>
        <_>
          2 0 5 6 2.</_>
        <_>
          7 6 5 6 2.</_></rects>
      <tilted>0</tilted></_>
    <_>
      <rects>
        <_>
          2 0 8 9 -1.</_>
        <_>
          2 3 8 3 3.</_></rects>
      <tilted>0</tilted></_>
    <_>
      <rects>
        <_>
          2 1 8 10 -1.</_>
        <_>
          2 1 4 5 2.</_>
        <_>
          6 6 4 5 2.</_></rects>
      <tilted>0</tilted></_>
    <_>
      <rects>
        <_>
          2 1 7 10 -1.</_>
        <_>
          2 6 7 5 2.</_></rects>
      <tilted>0</tilted></_>
    <_>
      <rects>
        <_>
          2 2 1 2 -1.</_>
        <_>
          2 3 1 1 2.</_></rects>
      <tilted>0</tilted></_>
    <_>
      <rects>
        <_>
          2 2 4 2 -1.</_>
        <_>
          2 2 2 1 2.</_>
        <_>
          4 3 2 1 2.</_></rects>
      <tilted>0</tilted></_>
    <_>
      <rects>
        <_>
          2 2 6 3 -1.</_>
        <_>
          4 3 2 1 9.</_></rects>
      <tilted>0</tilted></_>
    <_>
      <rects>
        <_>
          2 2 7 10 -1.</_>
        <_>
          2 7 7 5 2.</_></rects>
      <tilted>0</tilted></_>
    <_>
      <rects>
        <_>
          2 2 8 10 -1.</_>
        <_>
          2 7 8 5 2.</_></rects>
      <tilted>0</tilted></_>
    <_>
      <rects>
        <_>
          2 3 6 3 -1.</_>
        <_>
          4 4 2 1 9.</_></rects>
      <tilted>0</tilted></_>
    <_>
      <rects>
        <_>
          2 3 5 4 -1.</_>
        <_>
          2 5 5 2 2.</_></rects>
      <tilted>0</tilted></_>
    <_>
      <rects>
        <_>
          2 4 3 3 -1.</_>
        <_>
          3 5 1 1 9.</_></rects>
      <tilted>0</tilted></_>
    <_>
      <rects>
        <_>
          2 4 3 6 -1.</_>
        <_>
          3 6 1 2 9.</_></rects>
      <tilted>0</tilted></_>
    <_>
      <rects>
        <_>
          2 4 4 4 -1.</_>
        <_>
          2 4 2 2 2.</_>
        <_>
          4 6 2 2 2.</_></rects>
      <tilted>0</tilted></_>
    <_>
      <rects>
        <_>
          2 4 5 3 -1.</_>
        <_>
          2 5 5 1 3.</_></rects>
      <tilted>0</tilted></_>
    <_>
      <rects>
        <_>
          2 4 9 8 -1.</_>
        <_>
          2 8 9 4 2.</_></rects>
      <tilted>0</tilted></_>
    <_>
      <rects>
        <_>
          2 5 3 3 -1.</_>
        <_>
          3 6 1 1 9.</_></rects>
      <tilted>0</tilted></_>
    <_>
      <rects>
        <_>
          2 6 4 1 -1.</_>
        <_>
          3 6 2 1 2.</_></rects>
      <tilted>0</tilted></_>
    <_>
      <rects>
        <_>
          2 6 3 3 -1.</_>
        <_>
          3 7 1 1 9.</_></rects>
      <tilted>0</tilted></_>
    <_>
      <rects>
        <_>
          2 6 3 6 -1.</_>
        <_>
          3 8 1 2 9.</_></rects>
      <tilted>0</tilted></_>
    <_>
      <rects>
        <_>
          2 6 9 3 -1.</_>
        <_>
          5 7 3 1 9.</_></rects>
      <tilted>0</tilted></_>
    <_>
      <rects>
        <_>
          2 6 7 6 -1.</_>
        <_>
          2 9 7 3 2.</_></rects>
      <tilted>0</tilted></_>
    <_>
      <rects>
        <_>
          2 7 3 3 -1.</_>
        <_>
          3 8 1 1 9.</_></rects>
      <tilted>0</tilted></_>
    <_>
      <rects>
        <_>
          2 7 3 4 -1.</_>
        <_>
          2 8 3 2 2.</_></rects>
      <tilted>0</tilted></_>
    <_>
      <rects>
        <_>
          2 7 10 5 -1.</_>
        <_>
          7 7 5 5 2.</_></rects>
      <tilted>0</tilted></_>
    <_>
      <rects>
        <_>
          2 8 3 3 -1.</_>
        <_>
          3 9 1 1 9.</_></rects>
      <tilted>0</tilted></_>
    <_>
      <rects>
        <_>
          3 0 2 1 -1.</_>
        <_>
          4 0 1 1 2.</_></rects>
      <tilted>0</tilted></_>
    <_>
      <rects>
        <_>
          3 0 4 5 -1.</_>
        <_>
          4 0 2 5 2.</_></rects>
      <tilted>0</tilted></_>
    <_>
      <rects>
        <_>
          3 0 8 1 -1.</_>
        <_>
          5 0 4 1 2.</_></rects>
      <tilted>0</tilted></_>
    <_>
      <rects>
        <_>
          3 0 9 1 -1.</_>
        <_>
          6 0 3 1 3.</_></rects>
      <tilted>0</tilted></_>
    <_>
      <rects>
        <_>
          3 1 2 10 -1.</_>
        <_>
          3 1 1 5 2.</_>
        <_>
          4 6 1 5 2.</_></rects>
      <tilted>0</tilted></_>
    <_>
      <rects>
        <_>
          3 1 6 3 -1.</_>
        <_>
          5 2 2 1 9.</_></rects>
      <tilted>0</tilted></_>
    <_>
      <rects>
        <_>
          3 1 4 8 -1.</_>
        <_>
          3 1 2 4 2.</_>
        <_>
          5 5 2 4 2.</_></rects>
      <tilted>0</tilted></_>
    <_>
      <rects>
        <_>
          3 2 2 2 -1.</_>
        <_>
          3 2 1 1 2.</_>
        <_>
          4 3 1 1 2.</_></rects>
      <tilted>0</tilted></_>
    <_>
      <rects>
        <_>
          3 2 3 4 -1.</_>
        <_>
          4 2 1 4 3.</_></rects>
      <tilted>0</tilted></_>
    <_>
      <rects>
        <_>
          3 2 3 7 -1.</_>
        <_>
          4 2 1 7 3.</_></rects>
      <tilted>0</tilted></_>
    <_>
      <rects>
        <_>
          3 2 4 3 -1.</_>
        <_>
          3 3 4 1 3.</_></rects>
      <tilted>0</tilted></_>
    <_>
      <rects>
        <_>
          3 2 6 10 -1.</_>
        <_>
          3 7 6 5 2.</_></rects>
      <tilted>0</tilted></_>
    <_>
      <rects>
        <_>
          3 2 7 10 -1.</_>
        <_>
          3 7 7 5 2.</_></rects>
      <tilted>0</tilted></_>
    <_>
      <rects>
        <_>
          3 3 3 3 -1.</_>
        <_>
          4 4 1 1 9.</_></rects>
      <tilted>0</tilted></_>
    <_>
      <rects>
        <_>
          3 3 3 5 -1.</_>
        <_>
          4 3 1 5 3.</_></rects>
      <tilted>0</tilted></_>
    <_>
      <rects>
        <_>
          3 3 6 5 -1.</_>
        <_>
          5 3 2 5 3.</_></rects>
      <tilted>0</tilted></_>
    <_>
      <rects>
        <_>
          3 3 4 2 -1.</_>
        <_>
          3 4 4 1 2.</_></rects>
      <tilted>0</tilted></_>
    <_>
      <rects>
        <_>
          3 4 3 3 -1.</_>
        <_>
          4 5 1 1 9.</_></rects>
      <tilted>0</tilted></_>
    <_>
      <rects>
        <_>
          3 4 3 4 -1.</_>
        <_>
          4 4 1 4 3.</_></rects>
      <tilted>0</tilted></_>
    <_>
      <rects>
        <_>
          3 4 9 8 -1.</_>
        <_>
          3 8 9 4 2.</_></rects>
      <tilted>0</tilted></_>
    <_>
      <rects>
        <_>
          3 5 4 3 -1.</_>
        <_>
          4 5 2 3 2.</_></rects>
      <tilted>0</tilted></_>
    <_>
      <rects>
        <_>
          3 5 3 4 -1.</_>
        <_>
          4 5 1 4 3.</_></rects>
      <tilted>0</tilted></_>
    <_>
      <rects>
        <_>
          3 5 4 4 -1.</_>
        <_>
          4 5 2 4 2.</_></rects>
      <tilted>0</tilted></_>
    <_>
      <rects>
        <_>
          3 5 5 2 -1.</_>
        <_>
          3 6 5 1 2.</_></rects>
      <tilted>0</tilted></_>
    <_>
      <rects>
        <_>
          3 5 6 4 -1.</_>
        <_>
          3 6 6 2 2.</_></rects>
      <tilted>0</tilted></_>
    <_>
      <rects>
        <_>
          3 6 3 3 -1.</_>
        <_>
          4 7 1 1 9.</_></rects>
      <tilted>0</tilted></_>
    <_>
      <rects>
        <_>
          3 7 6 3 -1.</_>
        <_>
          5 8 2 1 9.</_></rects>
      <tilted>0</tilted></_>
    <_>
      <rects>
        <_>
          3 8 6 3 -1.</_>
        <_>
          5 9 2 1 9.</_></rects>
      <tilted>0</tilted></_>
    <_>
      <rects>
        <_>
          3 9 3 3 -1.</_>
        <_>
          4 10 1 1 9.</_></rects>
      <tilted>0</tilted></_>
    <_>
      <rects>
        <_>
          3 10 4 2 -1.</_>
        <_>
          4 10 2 2 2.</_></rects>
      <tilted>0</tilted></_>
    <_>
      <rects>
        <_>
          4 0 4 6 -1.</_>
        <_>
          4 0 2 3 2.</_>
        <_>
          6 3 2 3 2.</_></rects>
      <tilted>0</tilted></_>
    <_>
      <rects>
        <_>
          4 0 8 12 -1.</_>
        <_>
          8 0 4 12 2.</_></rects>
      <tilted>0</tilted></_>
    <_>
      <rects>
        <_>
          4 1 4 5 -1.</_>
        <_>
          5 1 2 5 2.</_></rects>
      <tilted>0</tilted></_>
    <_>
      <rects>
        <_>
          4 1 4 6 -1.</_>
        <_>
          5 1 2 6 2.</_></rects>
      <tilted>0</tilted></_>
    <_>
      <rects>
        <_>
          4 2 3 3 -1.</_>
        <_>
          5 3 1 1 9.</_></rects>
      <tilted>0</tilted></_>
    <_>
      <rects>
        <_>
          4 2 3 8 -1.</_>
        <_>
          5 2 1 8 3.</_></rects>
      <tilted>0</tilted></_>
    <_>
      <rects>
        <_>
          4 2 2 3 -1.</_>
        <_>
          4 3 2 1 3.</_></rects>
      <tilted>0</tilted></_>
    <_>
      <rects>
        <_>
          4 2 6 3 -1.</_>
        <_>
          6 3 2 1 9.</_></rects>
      <tilted>0</tilted></_>
    <_>
      <rects>
        <_>
          4 2 5 3 -1.</_>
        <_>
          4 3 5 1 3.</_></rects>
      <tilted>0</tilted></_>
    <_>
      <rects>
        <_>
          4 4 3 3 -1.</_>
        <_>
          5 5 1 1 9.</_></rects>
      <tilted>0</tilted></_>
    <_>
      <rects>
        <_>
          4 4 4 4 -1.</_>
        <_>
          5 4 2 4 2.</_></rects>
      <tilted>0</tilted></_>
    <_>
      <rects>
        <_>
          4 4 4 7 -1.</_>
        <_>
          5 4 2 7 2.</_></rects>
      <tilted>0</tilted></_>
    <_>
      <rects>
        <_>
          4 4 2 6 -1.</_>
        <_>
          4 7 2 3 2.</_></rects>
      <tilted>0</tilted></_>
    <_>
      <rects>
        <_>
          4 5 3 3 -1.</_>
        <_>
          5 6 1 1 9.</_></rects>
      <tilted>0</tilted></_>
    <_>
      <rects>
        <_>
          4 5 2 2 -1.</_>
        <_>
          4 6 2 1 2.</_></rects>
      <tilted>0</tilted></_>
    <_>
      <rects>
        <_>
          4 5 6 5 -1.</_>
        <_>
          6 5 2 5 3.</_></rects>
      <tilted>0</tilted></_>
    <_>
      <rects>
        <_>
          4 6 8 5 -1.</_>
        <_>
          8 6 4 5 2.</_></rects>
      <tilted>0</tilted></_>
    <_>
      <rects>
        <_>
          4 7 4 3 -1.</_>
        <_>
          5 7 2 3 2.</_></rects>
      <tilted>0</tilted></_>
    <_>
      <rects>
        <_>
          4 7 8 5 -1.</_>
        <_>
          8 7 4 5 2.</_></rects>
      <tilted>0</tilted></_>
    <_>
      <rects>
        <_>
          4 9 3 3 -1.</_>
        <_>
          5 10 1 1 9.</_></rects>
      <tilted>0</tilted></_>
    <_>
      <rects>
        <_>
          4 9 2 3 -1.</_>
        <_>
          4 10 2 1 3.</_></rects>
      <tilted>0</tilted></_>
    <_>
      <rects>
        <_>
          4 11 2 1 -1.</_>
        <_>
          5 11 1 1 2.</_></rects>
      <tilted>0</tilted></_>
    <_>
      <rects>
        <_>
          5 0 3 1 -1.</_>
        <_>
          6 0 1 1 3.</_></rects>
      <tilted>0</tilted></_>
    <_>
      <rects>
        <_>
          5 0 2 12 -1.</_>
        <_>
          5 6 2 6 2.</_></rects>
      <tilted>0</tilted></_>
    <_>
      <rects>
        <_>
          5 0 6 1 -1.</_>
        <_>
          8 0 3 1 2.</_></rects>
      <tilted>0</tilted></_>
    <_>
      <rects>
        <_>
          5 0 6 12 -1.</_>
        <_>
          8 0 3 12 2.</_></rects>
      <tilted>0</tilted></_>
    <_>
      <rects>
        <_>
          5 0 4 4 -1.</_>
        <_>
          5 1 4 2 2.</_></rects>
      <tilted>0</tilted></_>
    <_>
      <rects>
        <_>
          5 1 3 4 -1.</_>
        <_>
          5 2 3 2 2.</_></rects>
      <tilted>0</tilted></_>
    <_>
      <rects>
        <_>
          5 2 3 3 -1.</_>
        <_>
          6 3 1 1 9.</_></rects>
      <tilted>0</tilted></_>
    <_>
      <rects>
        <_>
          5 2 4 3 -1.</_>
        <_>
          6 2 2 3 2.</_></rects>
      <tilted>0</tilted></_>
    <_>
      <rects>
        <_>
          5 2 3 7 -1.</_>
        <_>
          6 2 1 7 3.</_></rects>
      <tilted>0</tilted></_>
    <_>
      <rects>
        <_>
          5 2 4 7 -1.</_>
        <_>
          6 2 2 7 2.</_></rects>
      <tilted>0</tilted></_>
    <_>
      <rects>
        <_>
          5 2 3 8 -1.</_>
        <_>
          6 2 1 8 3.</_></rects>
      <tilted>0</tilted></_>
    <_>
      <rects>
        <_>
          5 2 4 3 -1.</_>
        <_>
          5 3 4 1 3.</_></rects>
      <tilted>0</tilted></_>
    <_>
      <rects>
        <_>
          5 2 5 3 -1.</_>
        <_>
          5 3 5 1 3.</_></rects>
      <tilted>0</tilted></_>
    <_>
      <rects>
        <_>
          5 3 3 3 -1.</_>
        <_>
          6 4 1 1 9.</_></rects>
      <tilted>0</tilted></_>
    <_>
      <rects>
        <_>
          5 3 3 5 -1.</_>
        <_>
          6 3 1 5 3.</_></rects>
      <tilted>0</tilted></_>
    <_>
      <rects>
        <_>
          5 4 4 1 -1.</_>
        <_>
          6 4 2 1 2.</_></rects>
      <tilted>0</tilted></_>
    <_>
      <rects>
        <_>
          5 4 3 4 -1.</_>
        <_>
          6 4 1 4 3.</_></rects>
      <tilted>0</tilted></_>
    <_>
      <rects>
        <_>
          5 4 3 5 -1.</_>
        <_>
          6 4 1 5 3.</_></rects>
      <tilted>0</tilted></_>
    <_>
      <rects>
        <_>
          5 4 4 4 -1.</_>
        <_>
          5 5 4 2 2.</_></rects>
      <tilted>0</tilted></_>
    <_>
      <rects>
        <_>
          5 5 1 2 -1.</_>
        <_>
          5 6 1 1 2.</_></rects>
      <tilted>0</tilted></_>
    <_>
      <rects>
        <_>
          5 5 3 3 -1.</_>
        <_>
          6 6 1 1 9.</_></rects>
      <tilted>0</tilted></_>
    <_>
      <rects>
        <_>
          5 6 1 2 -1.</_>
        <_>
          5 7 1 1 2.</_></rects>
      <tilted>0</tilted></_>
    <_>
      <rects>
        <_>
          5 6 4 5 -1.</_>
        <_>
          6 6 2 5 2.</_></rects>
      <tilted>0</tilted></_>
    <_>
      <rects>
        <_>
          5 6 6 3 -1.</_>
        <_>
          7 7 2 1 9.</_></rects>
      <tilted>0</tilted></_>
    <_>
      <rects>
        <_>
          5 6 4 4 -1.</_>
        <_>
          5 6 2 2 2.</_>
        <_>
          7 8 2 2 2.</_></rects>
      <tilted>0</tilted></_>
    <_>
      <rects>
        <_>
          5 7 5 3 -1.</_>
        <_>
          5 8 5 1 3.</_></rects>
      <tilted>0</tilted></_>
    <_>
      <rects>
        <_>
          5 8 6 3 -1.</_>
        <_>
          7 9 2 1 9.</_></rects>
      <tilted>0</tilted></_>
    <_>
      <rects>
        <_>
          5 9 3 3 -1.</_>
        <_>
          6 10 1 1 9.</_></rects>
      <tilted>0</tilted></_>
    <_>
      <rects>
        <_>
          6 0 6 1 -1.</_>
        <_>
          9 0 3 1 2.</_></rects>
      <tilted>0</tilted></_>
    <_>
      <rects>
        <_>
          6 0 6 12 -1.</_>
        <_>
          6 6 6 6 2.</_></rects>
      <tilted>0</tilted></_>
    <_>
      <rects>
        <_>
          6 1 3 3 -1.</_>
        <_>
          7 2 1 1 9.</_></rects>
      <tilted>0</tilted></_>
    <_>
      <rects>
        <_>
          6 1 5 3 -1.</_>
        <_>
          6 2 5 1 3.</_></rects>
      <tilted>0</tilted></_>
    <_>
      <rects>
        <_>
          6 2 3 3 -1.</_>
        <_>
          7 3 1 1 9.</_></rects>
      <tilted>0</tilted></_>
    <_>
      <rects>
        <_>
          6 2 3 6 -1.</_>
        <_>
          7 4 1 2 9.</_></rects>
      <tilted>0</tilted></_>
    <_>
      <rects>
        <_>
          6 2 4 5 -1.</_>
        <_>
          7 2 2 5 2.</_></rects>
      <tilted>0</tilted></_>
    <_>
      <rects>
        <_>
          6 2 3 7 -1.</_>
        <_>
          7 2 1 7 3.</_></rects>
      <tilted>0</tilted></_>
    <_>
      <rects>
        <_>
          6 2 3 6 -1.</_>
        <_>
          6 5 3 3 2.</_></rects>
      <tilted>0</tilted></_>
    <_>
      <rects>
        <_>
          6 3 3 1 -1.</_>
        <_>
          7 3 1 1 3.</_></rects>
      <tilted>0</tilted></_>
    <_>
      <rects>
        <_>
          6 3 4 4 -1.</_>
        <_>
          7 3 2 4 2.</_></rects>
      <tilted>0</tilted></_>
    <_>
      <rects>
        <_>
          6 3 3 5 -1.</_>
        <_>
          7 3 1 5 3.</_></rects>
      <tilted>0</tilted></_>
    <_>
      <rects>
        <_>
          6 3 3 8 -1.</_>
        <_>
          7 3 1 8 3.</_></rects>
      <tilted>0</tilted></_>
    <_>
      <rects>
        <_>
          6 3 4 4 -1.</_>
        <_>
          6 3 2 2 2.</_>
        <_>
          8 5 2 2 2.</_></rects>
      <tilted>0</tilted></_>
    <_>
      <rects>
        <_>
          6 3 6 9 -1.</_>
        <_>
          9 3 3 9 2.</_></rects>
      <tilted>0</tilted></_>
    <_>
      <rects>
        <_>
          6 4 1 2 -1.</_>
        <_>
          6 5 1 1 2.</_></rects>
      <tilted>0</tilted></_>
    <_>
      <rects>
        <_>
          6 4 3 3 -1.</_>
        <_>
          7 5 1 1 9.</_></rects>
      <tilted>0</tilted></_>
    <_>
      <rects>
        <_>
          6 5 1 2 -1.</_>
        <_>
          6 6 1 1 2.</_></rects>
      <tilted>0</tilted></_>
    <_>
      <rects>
        <_>
          6 5 3 3 -1.</_>
        <_>
          7 6 1 1 9.</_></rects>
      <tilted>0</tilted></_>
    <_>
      <rects>
        <_>
          6 6 3 3 -1.</_>
        <_>
          7 7 1 1 9.</_></rects>
      <tilted>0</tilted></_>
    <_>
      <rects>
        <_>
          6 7 3 3 -1.</_>
        <_>
          7 8 1 1 9.</_></rects>
      <tilted>0</tilted></_>
    <_>
      <rects>
        <_>
          6 8 1 2 -1.</_>
        <_>
          6 9 1 1 2.</_></rects>
      <tilted>0</tilted></_>
    <_>
      <rects>
        <_>
          6 9 3 1 -1.</_>
        <_>
          7 9 1 1 3.</_></rects>
      <tilted>0</tilted></_>
    <_>
      <rects>
        <_>
          6 9 3 3 -1.</_>
        <_>
          7 10 1 1 9.</_></rects>
      <tilted>0</tilted></_>
    <_>
      <rects>
        <_>
          6 9 4 3 -1.</_>
        <_>
          7 9 2 3 2.</_></rects>
      <tilted>0</tilted></_>
    <_>
      <rects>
        <_>
          7 0 2 2 -1.</_>
        <_>
          8 0 1 2 2.</_></rects>
      <tilted>0</tilted></_>
    <_>
      <rects>
        <_>
          7 0 4 12 -1.</_>
        <_>
          9 0 2 12 2.</_></rects>
      <tilted>0</tilted></_>
    <_>
      <rects>
        <_>
          7 2 3 5 -1.</_>
        <_>
          8 2 1 5 3.</_></rects>
      <tilted>0</tilted></_>
    <_>
      <rects>
        <_>
          7 2 4 1 -1.</_>
        <_>
          9 2 2 1 2.</_></rects>
      <tilted>0</tilted></_>
    <_>
      <rects>
        <_>
          7 2 4 2 -1.</_>
        <_>
          7 2 2 1 2.</_>
        <_>
          9 3 2 1 2.</_></rects>
      <tilted>0</tilted></_>
    <_>
      <rects>
        <_>
          7 3 3 3 -1.</_>
        <_>
          8 4 1 1 9.</_></rects>
      <tilted>0</tilted></_>
    <_>
      <rects>
        <_>
          7 4 3 6 -1.</_>
        <_>
          8 6 1 2 9.</_></rects>
      <tilted>0</tilted></_>
    <_>
      <rects>
        <_>
          7 4 3 8 -1.</_>
        <_>
          8 4 1 8 3.</_></rects>
      <tilted>0</tilted></_>
    <_>
      <rects>
        <_>
          7 7 1 3 -1.</_>
        <_>
          7 8 1 1 3.</_></rects>
      <tilted>0</tilted></_>
    <_>
      <rects>
        <_>
          7 7 3 3 -1.</_>
        <_>
          8 8 1 1 9.</_></rects>
      <tilted>0</tilted></_>
    <_>
      <rects>
        <_>
          7 9 4 2 -1.</_>
        <_>
          9 9 2 2 2.</_></rects>
      <tilted>0</tilted></_>
    <_>
      <rects>
        <_>
          8 0 4 1 -1.</_>
        <_>
          9 0 2 1 2.</_></rects>
      <tilted>0</tilted></_>
    <_>
      <rects>
        <_>
          8 0 2 2 -1.</_>
        <_>
          9 0 1 2 2.</_></rects>
      <tilted>0</tilted></_>
    <_>
      <rects>
        <_>
          8 0 2 6 -1.</_>
        <_>
          9 0 1 6 2.</_></rects>
      <tilted>0</tilted></_>
    <_>
      <rects>
        <_>
          8 0 2 2 -1.</_>
        <_>
          8 1 2 1 2.</_></rects>
      <tilted>0</tilted></_>
    <_>
      <rects>
        <_>
          8 0 4 12 -1.</_>
        <_>
          10 0 2 12 2.</_></rects>
      <tilted>0</tilted></_>
    <_>
      <rects>
        <_>
          8 2 2 5 -1.</_>
        <_>
          9 2 1 5 2.</_></rects>
      <tilted>0</tilted></_>
    <_>
      <rects>
        <_>
          8 3 2 4 -1.</_>
        <_>
          9 3 1 4 2.</_></rects>
      <tilted>0</tilted></_>
    <_>
      <rects>
        <_>
          8 3 4 4 -1.</_>
        <_>
          9 3 2 4 2.</_></rects>
      <tilted>0</tilted></_>
    <_>
      <rects>
        <_>
          8 5 3 3 -1.</_>
        <_>
          9 5 1 3 3.</_></rects>
      <tilted>0</tilted></_>
    <_>
      <rects>
        <_>
          8 6 1 2 -1.</_>
        <_>
          8 7 1 1 2.</_></rects>
      <tilted>0</tilted></_>
    <_>
      <rects>
        <_>
          8 7 3 3 -1.</_>
        <_>
          9 8 1 1 9.</_></rects>
      <tilted>0</tilted></_>
    <_>
      <rects>
        <_>
          8 8 4 4 -1.</_>
        <_>
          8 8 2 2 2.</_>
        <_>
          10 10 2 2 2.</_></rects>
      <tilted>0</tilted></_>
    <_>
      <rects>
        <_>
          8 10 1 2 -1.</_>
        <_>
          8 11 1 1 2.</_></rects>
      <tilted>0</tilted></_>
    <_>
      <rects>
        <_>
          8 10 4 1 -1.</_>
        <_>
          10 10 2 1 2.</_></rects>
      <tilted>0</tilted></_>
    <_>
      <rects>
        <_>
          8 10 4 2 -1.</_>
        <_>
          8 11 4 1 2.</_></rects>
      <tilted>0</tilted></_>
    <_>
      <rects>
        <_>
          8 11 4 1 -1.</_>
        <_>
          10 11 2 1 2.</_></rects>
      <tilted>0</tilted></_>
    <_>
      <rects>
        <_>
          9 1 3 1 -1.</_>
        <_>
          10 1 1 1 3.</_></rects>
      <tilted>0</tilted></_>
    <_>
      <rects>
        <_>
          9 2 2 3 -1.</_>
        <_>
          9 3 2 1 3.</_></rects>
      <tilted>0</tilted></_>
    <_>
      <rects>
        <_>
          9 8 2 1 -1.</_>
        <_>
          10 8 1 1 2.</_></rects>
      <tilted>0</tilted></_>
    <_>
      <rects>
        <_>
          10 7 1 4 -1.</_>
        <_>
          10 9 1 2 2.</_></rects>
      <tilted>0</tilted></_>
    <_>
      <rects>
        <_>
          10 8 2 4 -1.</_>
        <_>
          11 8 1 4 2.</_></rects>
      <tilted>0</tilted></_>
    <_>
      <rects>
        <_>
          10 9 2 3 -1.</_>
        <_>
          11 9 1 3 2.</_></rects>
      <tilted>0</tilted></_>
    <_>
      <rects>
        <_>
          10 10 2 2 -1.</_>
        <_>
          11 10 1 2 2.</_></rects>
      <tilted>0</tilted></_>
    <_>
      <rects>
        <_>
          10 11 2 1 -1.</_>
        <_>
          11 11 1 1 2.</_></rects>
      <tilted>0</tilted></_>
    <_>
      <rects>
        <_>
          11 2 1 8 -1.</_>
        <_>
          11 6 1 4 2.</_></rects>
      <tilted>0</tilted></_>
    <_>
      <rects>
        <_>
          11 3 1 6 -1.</_>
        <_>
          11 6 1 3 2.</_></rects>
      <tilted>0</tilted></_>
    <_>
      <rects>
        <_>
          11 4 1 2 -1.</_>
        <_>
          11 5 1 1 2.</_></rects>
      <tilted>0</tilted></_>
    <_>
      <rects>
        <_>
          11 6 1 6 -1.</_>
        <_>
          11 9 1 3 2.</_></rects>
      <tilted>0</tilted></_></features></cascade>
</opencv_storage>
