<?xml version="1.0"?>
<opencv_storage>
<cascade>
  <stageType>BOOST</stageType>
  <featureType>HAAR</featureType>
  <height>12</height>
  <width>12</width>
  <stageParams>
    <boostType>GAB</boostType>
    <minHitRate>9.9500000476837158e-01</minHitRate>
    <maxFalseAlarm>5.0000000000000000e-01</maxFalseAlarm>
    <weightTrimRate>9.4999999999999996e-01</weightTrimRate>
    <maxDepth>1</maxDepth>
    <maxWeakCount>100</maxWeakCount></stageParams>
  <featureParams>
    <maxCatCount>0</maxCatCount>
    <featSize>1</featSize>
    <mode>BASIC</mode></featureParams>
  <stageNum>10</stageNum>
  <stages>
    <!-- stage 0 -->
    <_>
      <maxWeakCount>6</maxWeakCount>
      <stageThreshold>-1.4088612794876099e+00</stageThreshold>
      <weakClassifiers>
        <_>
          <internalNodes>
            0 -1 78 -6.7272022366523743e-02</internalNodes>
          <leafValues>
            4.2857143282890320e-01 -7.8723406791687012e-01</leafValues></_>
        <_>
          <internalNodes>
            0 -1 40 -1.6307274345308542e-03</internalNodes>
          <leafValues>
            4.2470881342887878e-01 -5.5426615476608276e-01</leafValues></_>
        <_>
          <internalNodes>
            0 -1 166 -2.6490069925785065e-02</internalNodes>
          <leafValues>
            8.3340346813201904e-01 -2.3798151314258575e-01</leafValues></_>
        <_>
          <internalNodes>
            0 -1 174 -2.5205725803971291e-02</internalNodes>
          <leafValues>
            5.6700891256332397e-01 -3.7289395928382874e-01</leafValues></_>
        <_>
          <internalNodes>
            0 -1 122 -1.9902385771274567e-02</internalNodes>
          <leafValues>
            8.0798304080963135e-01 -1.7716720700263977e-01</leafValues></_>
        <_>
          <internalNodes>
            0 -1 69 -9.0062357485294342e-03</internalNodes>
          <leafValues>
            7.1254485845565796e-01 -2.6446866989135742e-01</leafValues></_></weakClassifiers></_>
    <!-- stage 1 -->
    <_>
      <maxWeakCount>9</maxWeakCount>
      <stageThreshold>-1.2324839830398560e+00</stageThreshold>
      <weakClassifiers>
        <_>
          <internalNodes>
            0 -1 116 -5.7383604347705841e-02</internalNodes>
          <leafValues>
            4.2904841899871826e-01 -7.1257483959197998e-01</leafValues></_>
        <_>
          <internalNodes>
            0 -1 53 -7.0535764098167419e-02</internalNodes>
          <leafValues>
            3.0501037836074829e-01 -6.9332838058471680e-01</leafValues></_>
        <_>
          <internalNodes>
            0 -1 158 1.5180804766714573e-02</internalNodes>
          <leafValues>
            -2.7266734838485718e-01 6.6782456636428833e-01</leafValues></_>
        <_>
          <internalNodes>
            0 -1 25 -1.8121433258056641e-01</internalNodes>
          <leafValues>
            -7.4755543470382690e-01 2.2574549913406372e-01</leafValues></_>
        <_>
          <internalNodes>
            0 -1 42 -1.0529756546020508e-03</internalNodes>
          <leafValues>
            4.3807581067085266e-01 -3.9218127727508545e-01</leafValues></_>
        <_>
          <internalNodes>
            0 -1 124 2.7143755927681923e-02</internalNodes>
          <leafValues>
            -2.2703951597213745e-01 8.0579060316085815e-01</leafValues></_>
        <_>
          <internalNodes>
            0 -1 30 -5.6201964616775513e-03</internalNodes>
          <leafValues>
            -5.4024916887283325e-01 3.3574342727661133e-01</leafValues></_>
        <_>
          <internalNodes>
            0 -1 93 6.0857512056827545e-02</internalNodes>
          <leafValues>
            -2.2402112185955048e-01 8.7354785203933716e-01</leafValues></_>
        <_>
          <internalNodes>
            0 -1 46 1.4623356051743031e-02</internalNodes>
          <leafValues>
            -1.0241751372814178e-01 8.0312025547027588e-01</leafValues></_></weakClassifiers></_>
    <!-- stage 2 -->
    <_>
      <maxWeakCount>13</maxWeakCount>
      <stageThreshold>-1.2515912055969238e+00</stageThreshold>
      <weakClassifiers>
        <_>
          <internalNodes>
            0 -1 5 4.2798697948455811e-02</internalNodes>
          <leafValues>
            -3.9560440182685852e-01 5.0537633895874023e-01</leafValues></_>
        <_>
          <internalNodes>
            0 -1 178 2.5223079137504101e-03</internalNodes>
          <leafValues>
            -3.5970154404640198e-01 3.8109228014945984e-01</leafValues></_>
        <_>
          <internalNodes>
            0 -1 157 1.8858347088098526e-02</internalNodes>
          <leafValues>
            -2.1062028408050537e-01 6.2010920047760010e-01</leafValues></_>
        <_>
          <internalNodes>
            0 -1 152 -1.9816450774669647e-02</internalNodes>
          <leafValues>
            5.7084137201309204e-01 -2.3844495415687561e-01</leafValues></_>
        <_>
          <internalNodes>
            0 -1 164 2.2181995213031769e-02</internalNodes>
          <leafValues>
            -1.7205317318439484e-01 6.3870739936828613e-01</leafValues></_>
        <_>
          <internalNodes>
            0 -1 100 4.7955438494682312e-02</internalNodes>
          <leafValues>
            -9.9149659276008606e-02 7.0126336812973022e-01</leafValues></_>
        <_>
          <internalNodes>
            0 -1 176 8.4281302988529205e-03</internalNodes>
          <leafValues>
            -1.8902286887168884e-01 4.6788471937179565e-01</leafValues></_>
        <_>
          <internalNodes>
            0 -1 114 2.1237678825855255e-02</internalNodes>
          <leafValues>
            -2.1065400540828705e-01 4.6903932094573975e-01</leafValues></_>
        <_>
          <internalNodes>
            0 -1 62 -1.9757833331823349e-02</internalNodes>
          <leafValues>
            5.0891679525375366e-01 -1.7546534538269043e-01</leafValues></_>
        <_>
          <internalNodes>
            0 -1 9 6.8042570352554321e-01</internalNodes>
          <leafValues>
            1.2092705816030502e-01 -9.5704752206802368e-01</leafValues></_>
        <_>
          <internalNodes>
            0 -1 70 7.2843044996261597e-02</internalNodes>
          <leafValues>
            -2.6911932229995728e-01 3.4999296069145203e-01</leafValues></_>
        <_>
          <internalNodes>
            0 -1 0 -3.4709139727056026e-03</internalNodes>
          <leafValues>
            -7.3286586999893188e-01 1.4061629772186279e-01</leafValues></_>
        <_>
          <internalNodes>
            0 -1 159 7.1717929095029831e-03</internalNodes>
          <leafValues>
            -2.5235217809677124e-01 3.4358230233192444e-01</leafValues></_></weakClassifiers></_>
    <!-- stage 3 -->
    <_>
      <maxWeakCount>15</maxWeakCount>
      <stageThreshold>-2.5376825332641602e+00</stageThreshold>
      <weakClassifiers>
        <_>
          <internalNodes>
            0 -1 104 2.2525593638420105e-02</internalNodes>
          <leafValues>
            -8.7395715713500977e-01 -2.9019981622695923e-01</leafValues></_>
        <_>
          <internalNodes>
            0 -1 94 -3.0620124936103821e-01</internalNodes>
          <leafValues>
            5.9655822813510895e-02 -7.5942265987396240e-01</leafValues></_>
        <_>
          <internalNodes>
            0 -1 4 1.6398035222664475e-03</internalNodes>
          <leafValues>
            1.6562448441982269e-01 -6.0418063402175903e-01</leafValues></_>
        <_>
          <internalNodes>
            0 -1 6 3.7371300160884857e-02</internalNodes>
          <leafValues>
            -6.6502606868743896e-01 1.7327588796615601e-01</leafValues></_>
        <_>
          <internalNodes>
            0 -1 15 2.8501790761947632e-01</internalNodes>
          <leafValues>
            1.1536148190498352e-01 -8.4137648344039917e-01</leafValues></_>
        <_>
          <internalNodes>
            0 -1 186 -5.1304519176483154e-02</internalNodes>
          <leafValues>
            -6.7621505260467529e-01 1.4823919534683228e-01</leafValues></_>
        <_>
          <internalNodes>
            0 -1 97 -2.6596937328577042e-02</internalNodes>
          <leafValues>
            6.5190780162811279e-01 -1.5708173811435699e-01</leafValues></_>
        <_>
          <internalNodes>
            0 -1 39 3.3039420377463102e-03</internalNodes>
          <leafValues>
            1.2919783592224121e-01 -7.7379143238067627e-01</leafValues></_>
        <_>
          <internalNodes>
            0 -1 132 8.1723287701606750e-02</internalNodes>
          <leafValues>
            6.8634748458862305e-02 -8.5469704866409302e-01</leafValues></_>
        <_>
          <internalNodes>
            0 -1 80 -1.5992344915866852e-01</internalNodes>
          <leafValues>
            -6.9947302341461182e-01 1.1526873707771301e-01</leafValues></_>
        <_>
          <internalNodes>
            0 -1 188 -1.3545415364205837e-02</internalNodes>
          <leafValues>
            -4.3513599038124084e-01 1.5764054656028748e-01</leafValues></_>
        <_>
          <internalNodes>
            0 -1 150 -3.0483961105346680e-01</internalNodes>
          <leafValues>
            -8.8654685020446777e-01 8.0347411334514618e-02</leafValues></_>
        <_>
          <internalNodes>
            0 -1 41 -1.3430819672066718e-04</internalNodes>
          <leafValues>
            1.7411842942237854e-01 -3.7620159983634949e-01</leafValues></_>
        <_>
          <internalNodes>
            0 -1 136 2.3144049569964409e-02</internalNodes>
          <leafValues>
            -1.4051875472068787e-01 4.6989482641220093e-01</leafValues></_>
        <_>
          <internalNodes>
            0 -1 134 -1.7178557813167572e-02</internalNodes>
          <leafValues>
            4.9815046787261963e-01 -1.3538941740989685e-01</leafValues></_></weakClassifiers></_>
    <!-- stage 4 -->
    <_>
      <maxWeakCount>20</maxWeakCount>
      <stageThreshold>-2.3088254928588867e+00</stageThreshold>
      <weakClassifiers>
        <_>
          <internalNodes>
            0 -1 90 -1.5819191932678223e-02</internalNodes>
          <leafValues>
            2.6808509230613708e-01 -8.4189504384994507e-01</leafValues></_>
        <_>
          <internalNodes>
            0 -1 66 -2.9844230413436890e-01</internalNodes>
          <leafValues>
            -3.8798239082098007e-02 -7.3352545499801636e-01</leafValues></_>
        <_>
          <internalNodes>
            0 -1 11 2.0244076848030090e-01</internalNodes>
          <leafValues>
            -5.7138001918792725e-01 1.6133792698383331e-01</leafValues></_>
        <_>
          <internalNodes>
            0 -1 58 -1.9079816993325949e-03</internalNodes>
          <leafValues>
            2.6557824015617371e-01 -3.7831005454063416e-01</leafValues></_>
        <_>
          <internalNodes>
            0 -1 8 1.6413789242506027e-02</internalNodes>
          <leafValues>
            2.3608511686325073e-01 -4.0752586722373962e-01</leafValues></_>
        <_>
          <internalNodes>
            0 -1 151 -2.1047350019216537e-02</internalNodes>
          <leafValues>
            5.9758424758911133e-01 -1.5222969651222229e-01</leafValues></_>
        <_>
          <internalNodes>
            0 -1 59 -3.9161611348390579e-03</internalNodes>
          <leafValues>
            -6.4721602201461792e-01 1.7079254984855652e-01</leafValues></_>
        <_>
          <internalNodes>
            0 -1 103 -5.9109546244144440e-02</internalNodes>
          <leafValues>
            5.6584304571151733e-01 -1.7383338510990143e-01</leafValues></_>
        <_>
          <internalNodes>
            0 -1 37 -5.5054249241948128e-03</internalNodes>
          <leafValues>
            -6.6045463085174561e-01 1.1794721335172653e-01</leafValues></_>
        <_>
          <internalNodes>
            0 -1 167 -1.6393616795539856e-02</internalNodes>
          <leafValues>
            4.0548187494277954e-01 -1.8050499260425568e-01</leafValues></_>
        <_>
          <internalNodes>
            0 -1 36 5.1858007907867432e-02</internalNodes>
          <leafValues>
            1.4333447813987732e-01 -4.8160415887832642e-01</leafValues></_>
        <_>
          <internalNodes>
            0 -1 77 -1.1770659685134888e-01</internalNodes>
          <leafValues>
            -8.2587999105453491e-01 8.2068443298339844e-02</leafValues></_>
        <_>
          <internalNodes>
            0 -1 56 -2.4733242392539978e-01</internalNodes>
          <leafValues>
            -9.0667438507080078e-01 5.9665102511644363e-02</leafValues></_>
        <_>
          <internalNodes>
            0 -1 18 -1.3474139850586653e-03</internalNodes>
          <leafValues>
            -5.0561583042144775e-01 1.0265288501977921e-01</leafValues></_>
        <_>
          <internalNodes>
            0 -1 189 1.0257778689265251e-02</internalNodes>
          <leafValues>
            7.0676214993000031e-02 -7.9505002498626709e-01</leafValues></_>
        <_>
          <internalNodes>
            0 -1 15 -1.9151313602924347e-01</internalNodes>
          <leafValues>
            -5.1843899488449097e-01 1.0918930917978287e-01</leafValues></_>
        <_>
          <internalNodes>
            0 -1 106 -5.4107517004013062e-02</internalNodes>
          <leafValues>
            7.3377519845962524e-01 -9.9376276135444641e-02</leafValues></_>
        <_>
          <internalNodes>
            0 -1 29 -4.0222507715225220e-01</internalNodes>
          <leafValues>
            -5.3081923723220825e-01 1.2251348793506622e-01</leafValues></_>
        <_>
          <internalNodes>
            0 -1 128 1.4796797931194305e-01</internalNodes>
          <leafValues>
            4.4719554483890533e-02 -9.4623488187789917e-01</leafValues></_>
        <_>
          <internalNodes>
            0 -1 147 -2.6303267106413841e-02</internalNodes>
          <leafValues>
            4.3295142054557800e-01 -1.4718529582023621e-01</leafValues></_></weakClassifiers></_>
    <!-- stage 5 -->
    <_>
      <maxWeakCount>25</maxWeakCount>
      <stageThreshold>-2.4804315567016602e+00</stageThreshold>
      <weakClassifiers>
        <_>
          <internalNodes>
            0 -1 95 -4.4678002595901489e-02</internalNodes>
          <leafValues>
            6.0975611209869385e-01 -8.3432930707931519e-01</leafValues></_>
        <_>
          <internalNodes>
            0 -1 133 5.0277453847229481e-03</internalNodes>
          <leafValues>
            -6.5578609704971313e-01 1.4393706806004047e-02</leafValues></_>
        <_>
          <internalNodes>
            0 -1 73 6.5931513905525208e-02</internalNodes>
          <leafValues>
            1.0663309693336487e-01 -7.0397603511810303e-01</leafValues></_>
        <_>
          <internalNodes>
            0 -1 185 7.4736824899446219e-05</internalNodes>
          <leafValues>
            -4.4341701269149780e-01 2.1242226660251617e-01</leafValues></_>
        <_>
          <internalNodes>
            0 -1 22 -6.2632430344820023e-03</internalNodes>
          <leafValues>
            -4.1724061965942383e-01 2.1833106875419617e-01</leafValues></_>
        <_>
          <internalNodes>
            0 -1 3 1.6652120975777507e-03</internalNodes>
          <leafValues>
            2.1849364042282104e-01 -5.0120490789413452e-01</leafValues></_>
        <_>
          <internalNodes>
            0 -1 102 -4.6002507209777832e-02</internalNodes>
          <leafValues>
            7.0612645149230957e-01 -1.3568545877933502e-01</leafValues></_>
        <_>
          <internalNodes>
            0 -1 14 -3.3859215676784515e-02</internalNodes>
          <leafValues>
            -4.6415007114410400e-01 1.5787312388420105e-01</leafValues></_>
        <_>
          <internalNodes>
            0 -1 181 -3.8887206465005875e-02</internalNodes>
          <leafValues>
            -5.1653981208801270e-01 1.5844167768955231e-01</leafValues></_>
        <_>
          <internalNodes>
            0 -1 162 1.5661353245377541e-02</internalNodes>
          <leafValues>
            -1.7870704829692841e-01 4.3891420960426331e-01</leafValues></_>
        <_>
          <internalNodes>
            0 -1 35 8.2150325179100037e-02</internalNodes>
          <leafValues>
            8.8445082306861877e-02 -8.6795467138290405e-01</leafValues></_>
        <_>
          <internalNodes>
            0 -1 184 6.1750914901494980e-03</internalNodes>
          <leafValues>
            7.1728080511093140e-02 -7.3902028799057007e-01</leafValues></_>
        <_>
          <internalNodes>
            0 -1 63 -1.6980508342385292e-02</internalNodes>
          <leafValues>
            3.5686737298965454e-01 -1.8585908412933350e-01</leafValues></_>
        <_>
          <internalNodes>
            0 -1 91 2.4404270574450493e-02</internalNodes>
          <leafValues>
            -1.4790180325508118e-01 4.3601799011230469e-01</leafValues></_>
        <_>
          <internalNodes>
            0 -1 142 1.8859144300222397e-02</internalNodes>
          <leafValues>
            -1.5648728609085083e-01 4.6789792180061340e-01</leafValues></_>
        <_>
          <internalNodes>
            0 -1 23 5.0242221355438232e-01</internalNodes>
          <leafValues>
            9.1183871030807495e-02 -7.7634489536285400e-01</leafValues></_>
        <_>
          <internalNodes>
            0 -1 61 3.2005958259105682e-02</internalNodes>
          <leafValues>
            -1.5771335363388062e-01 4.3217444419860840e-01</leafValues></_>
        <_>
          <internalNodes>
            0 -1 118 3.5119809210300446e-02</internalNodes>
          <leafValues>
            -1.1209341883659363e-01 4.9168306589126587e-01</leafValues></_>
        <_>
          <internalNodes>
            0 -1 141 5.4303284734487534e-02</internalNodes>
          <leafValues>
            -1.4647309482097626e-01 3.7474635243415833e-01</leafValues></_>
        <_>
          <internalNodes>
            0 -1 54 -1.4026236534118652e-01</internalNodes>
          <leafValues>
            1.5602645277976990e-01 -3.4151050448417664e-01</leafValues></_>
        <_>
          <internalNodes>
            0 -1 127 -1.8313062191009521e-01</internalNodes>
          <leafValues>
            -4.5180338621139526e-01 1.2518072128295898e-01</leafValues></_>
        <_>
          <internalNodes>
            0 -1 190 2.4757273495197296e-03</internalNodes>
          <leafValues>
            6.2227774411439896e-02 -7.4053364992141724e-01</leafValues></_>
        <_>
          <internalNodes>
            0 -1 177 1.6515487805008888e-03</internalNodes>
          <leafValues>
            -1.6750794649124146e-01 3.7859353423118591e-01</leafValues></_>
        <_>
          <internalNodes>
            0 -1 31 -2.2325629368424416e-02</internalNodes>
          <leafValues>
            -6.3915634155273438e-01 7.5434654951095581e-02</leafValues></_>
        <_>
          <internalNodes>
            0 -1 113 -7.7301459386944771e-03</internalNodes>
          <leafValues>
            3.1783840060234070e-01 -1.5913771092891693e-01</leafValues></_></weakClassifiers></_>
    <!-- stage 6 -->
    <_>
      <maxWeakCount>31</maxWeakCount>
      <stageThreshold>-2.4961185455322266e+00</stageThreshold>
      <weakClassifiers>
        <_>
          <internalNodes>
            0 -1 90 -1.8332198262214661e-02</internalNodes>
          <leafValues>
            5.7046979665756226e-01 -8.3724999427795410e-01</leafValues></_>
        <_>
          <internalNodes>
            0 -1 51 -3.2623180747032166e-01</internalNodes>
          <leafValues>
            -9.4817623496055603e-02 -7.1218323707580566e-01</leafValues></_>
        <_>
          <internalNodes>
            0 -1 182 -5.9794494882225990e-03</internalNodes>
          <leafValues>
            4.0721604228019714e-01 -2.4490453302860260e-01</leafValues></_>
        <_>
          <internalNodes>
            0 -1 184 6.5130670554935932e-04</internalNodes>
          <leafValues>
            -3.6176654696464539e-01 2.2617848217487335e-01</leafValues></_>
        <_>
          <internalNodes>
            0 -1 101 3.1355597078800201e-02</internalNodes>
          <leafValues>
            -1.3172219693660736e-01 5.7303732633590698e-01</leafValues></_>
        <_>
          <internalNodes>
            0 -1 76 -1.1512078344821930e-03</internalNodes>
          <leafValues>
            4.5000466704368591e-01 -1.1441131681203842e-01</leafValues></_>
        <_>
          <internalNodes>
            0 -1 43 -1.3661747798323631e-03</internalNodes>
          <leafValues>
            -4.3540883064270020e-01 1.6294090449810028e-01</leafValues></_>
        <_>
          <internalNodes>
            0 -1 41 -6.9480578531511128e-05</internalNodes>
          <leafValues>
            1.8239080905914307e-01 -3.7607052922248840e-01</leafValues></_>
        <_>
          <internalNodes>
            0 -1 44 -2.6945988647639751e-03</internalNodes>
          <leafValues>
            -3.8889241218566895e-01 1.7401567101478577e-01</leafValues></_>
        <_>
          <internalNodes>
            0 -1 99 1.8098566681146622e-02</internalNodes>
          <leafValues>
            -1.9299420714378357e-01 3.2092806696891785e-01</leafValues></_>
        <_>
          <internalNodes>
            0 -1 88 1.0757130384445190e-01</internalNodes>
          <leafValues>
            -1.0647013038396835e-01 5.3166317939758301e-01</leafValues></_>
        <_>
          <internalNodes>
            0 -1 164 2.0669972524046898e-02</internalNodes>
          <leafValues>
            -1.5787748992443085e-01 3.7656822800636292e-01</leafValues></_>
        <_>
          <internalNodes>
            0 -1 24 5.0365221500396729e-01</internalNodes>
          <leafValues>
            9.2246815562248230e-02 -5.4418826103210449e-01</leafValues></_>
        <_>
          <internalNodes>
            0 -1 144 2.2217696532607079e-02</internalNodes>
          <leafValues>
            -1.4633406698703766e-01 4.2949259281158447e-01</leafValues></_>
        <_>
          <internalNodes>
            0 -1 7 -2.8748847544193268e-02</internalNodes>
          <leafValues>
            -7.2598093748092651e-01 8.1623844802379608e-02</leafValues></_>
        <_>
          <internalNodes>
            0 -1 154 2.1816877648234367e-02</internalNodes>
          <leafValues>
            -1.2760542333126068e-01 5.1411676406860352e-01</leafValues></_>
        <_>
          <internalNodes>
            0 -1 74 -3.8107228279113770e-01</internalNodes>
          <leafValues>
            -6.4352911710739136e-01 8.8336013257503510e-02</leafValues></_>
        <_>
          <internalNodes>
            0 -1 145 -5.0578510854393244e-04</internalNodes>
          <leafValues>
            1.4232857525348663e-01 -3.3999934792518616e-01</leafValues></_>
        <_>
          <internalNodes>
            0 -1 26 -2.4289015680551529e-02</internalNodes>
          <leafValues>
            4.0666499733924866e-01 -1.2176431715488434e-01</leafValues></_>
        <_>
          <internalNodes>
            0 -1 28 -3.6671899259090424e-02</internalNodes>
          <leafValues>
            3.1541064381599426e-01 -1.6996814310550690e-01</leafValues></_>
        <_>
          <internalNodes>
            0 -1 1 2.5830736849457026e-03</internalNodes>
          <leafValues>
            1.5904311835765839e-01 -3.6708721518516541e-01</leafValues></_>
        <_>
          <internalNodes>
            0 -1 108 5.6913620792329311e-03</internalNodes>
          <leafValues>
            -1.9347482919692993e-01 2.7065247297286987e-01</leafValues></_>
        <_>
          <internalNodes>
            0 -1 82 4.2648324742913246e-03</internalNodes>
          <leafValues>
            -1.6233804821968079e-01 3.2709792256355286e-01</leafValues></_>
        <_>
          <internalNodes>
            0 -1 27 -1.3958258554339409e-02</internalNodes>
          <leafValues>
            -5.4828697443008423e-01 9.7526848316192627e-02</leafValues></_>
        <_>
          <internalNodes>
            0 -1 79 7.2852574288845062e-02</internalNodes>
          <leafValues>
            8.1032589077949524e-02 -5.3807705640792847e-01</leafValues></_>
        <_>
          <internalNodes>
            0 -1 117 -2.8338715434074402e-01</internalNodes>
          <leafValues>
            -4.9173304438591003e-01 1.1342819035053253e-01</leafValues></_>
        <_>
          <internalNodes>
            0 -1 160 6.7066294141113758e-03</internalNodes>
          <leafValues>
            -1.4743022620677948e-01 3.6816349625587463e-01</leafValues></_>
        <_>
          <internalNodes>
            0 -1 20 6.3607767224311829e-02</internalNodes>
          <leafValues>
            5.7720266282558441e-02 -8.3826643228530884e-01</leafValues></_>
        <_>
          <internalNodes>
            0 -1 185 2.8907903470098972e-03</internalNodes>
          <leafValues>
            6.1638042330741882e-02 -6.5750640630722046e-01</leafValues></_>
        <_>
          <internalNodes>
            0 -1 126 3.1070115044713020e-02</internalNodes>
          <leafValues>
            -1.1631570011377335e-01 4.9345788359642029e-01</leafValues></_>
        <_>
          <internalNodes>
            0 -1 139 -5.4078999906778336e-02</internalNodes>
          <leafValues>
            7.2051239013671875e-01 -6.8063154816627502e-02</leafValues></_></weakClassifiers></_>
    <!-- stage 7 -->
    <_>
      <maxWeakCount>32</maxWeakCount>
      <stageThreshold>-2.3674626350402832e+00</stageThreshold>
      <weakClassifiers>
        <_>
          <internalNodes>
            0 -1 49 -4.4668018817901611e-02</internalNodes>
          <leafValues>
            5.7961785793304443e-01 -8.3842110633850098e-01</leafValues></_>
        <_>
          <internalNodes>
            0 -1 119 -5.7208716869354248e-02</internalNodes>
          <leafValues>
            -1.1913812160491943e-01 -7.1160650253295898e-01</leafValues></_>
        <_>
          <internalNodes>
            0 -1 149 -2.7469724882394075e-03</internalNodes>
          <leafValues>
            -4.4779023528099060e-01 1.7258132994174957e-01</leafValues></_>
        <_>
          <internalNodes>
            0 -1 172 1.1760145425796509e-03</internalNodes>
          <leafValues>
            2.3044608533382416e-01 -4.8203724622726440e-01</leafValues></_>
        <_>
          <internalNodes>
            0 -1 42 -7.8000669600442052e-04</internalNodes>
          <leafValues>
            1.4697170257568359e-01 -4.3790972232818604e-01</leafValues></_>
        <_>
          <internalNodes>
            0 -1 148 1.3347312342375517e-03</internalNodes>
          <leafValues>
            2.5593945384025574e-01 -3.5479843616485596e-01</leafValues></_>
        <_>
          <internalNodes>
            0 -1 75 -6.3114941120147705e-01</internalNodes>
          <leafValues>
            -7.8040593862533569e-01 7.3954559862613678e-02</leafValues></_>
        <_>
          <internalNodes>
            0 -1 67 -4.7058928012847900e-01</internalNodes>
          <leafValues>
            2.9122242331504822e-01 -2.8775641322135925e-01</leafValues></_>
        <_>
          <internalNodes>
            0 -1 55 8.9458767324686050e-03</internalNodes>
          <leafValues>
            -2.3696705698966980e-01 3.1620723009109497e-01</leafValues></_>
        <_>
          <internalNodes>
            0 -1 111 -5.3265720605850220e-02</internalNodes>
          <leafValues>
            6.8998688459396362e-01 -1.0653761774301529e-01</leafValues></_>
        <_>
          <internalNodes>
            0 -1 107 2.6808818802237511e-02</internalNodes>
          <leafValues>
            -8.4082379937171936e-02 6.7783898115158081e-01</leafValues></_>
        <_>
          <internalNodes>
            0 -1 140 -2.8840087354183197e-02</internalNodes>
          <leafValues>
            4.7756439447402954e-01 -1.0742411762475967e-01</leafValues></_>
        <_>
          <internalNodes>
            0 -1 120 4.1227792389690876e-03</internalNodes>
          <leafValues>
            -9.3873076140880585e-02 5.6524312496185303e-01</leafValues></_>
        <_>
          <internalNodes>
            0 -1 143 1.2261599302291870e-02</internalNodes>
          <leafValues>
            -1.6054907441139221e-01 3.6740094423294067e-01</leafValues></_>
        <_>
          <internalNodes>
            0 -1 129 -1.2082050088793039e-03</internalNodes>
          <leafValues>
            1.8479856848716736e-01 -3.0713358521461487e-01</leafValues></_>
        <_>
          <internalNodes>
            0 -1 50 -9.8216585814952850e-02</internalNodes>
          <leafValues>
            4.5999264717102051e-01 -1.2247436493635178e-01</leafValues></_>
        <_>
          <internalNodes>
            0 -1 171 1.3263831846415997e-02</internalNodes>
          <leafValues>
            -1.7587798833847046e-01 3.2084390521049500e-01</leafValues></_>
        <_>
          <internalNodes>
            0 -1 187 7.1881909389048815e-04</internalNodes>
          <leafValues>
            1.8583616614341736e-01 -3.0790531635284424e-01</leafValues></_>
        <_>
          <internalNodes>
            0 -1 175 -1.9208172336220741e-02</internalNodes>
          <leafValues>
            4.5085182785987854e-01 -1.2346714735031128e-01</leafValues></_>
        <_>
          <internalNodes>
            0 -1 169 3.8120944518595934e-03</internalNodes>
          <leafValues>
            -1.5175111591815948e-01 4.0485706925392151e-01</leafValues></_>
        <_>
          <internalNodes>
            0 -1 132 8.8035359978675842e-02</internalNodes>
          <leafValues>
            6.7016452550888062e-02 -8.2276535034179688e-01</leafValues></_>
        <_>
          <internalNodes>
            0 -1 168 -1.6053084284067154e-02</internalNodes>
          <leafValues>
            3.6662274599075317e-01 -1.7107650637626648e-01</leafValues></_>
        <_>
          <internalNodes>
            0 -1 32 2.8830808401107788e-01</internalNodes>
          <leafValues>
            1.0756736248731613e-01 -5.4723721742630005e-01</leafValues></_>
        <_>
          <internalNodes>
            0 -1 92 -5.0848275423049927e-02</internalNodes>
          <leafValues>
            6.7320144176483154e-01 -9.8500207066535950e-02</leafValues></_>
        <_>
          <internalNodes>
            0 -1 19 -2.3948946036398411e-03</internalNodes>
          <leafValues>
            -3.3278593420982361e-01 1.7109043896198273e-01</leafValues></_>
        <_>
          <internalNodes>
            0 -1 17 1.3892815914005041e-03</internalNodes>
          <leafValues>
            1.2341944873332977e-01 -4.0577605366706848e-01</leafValues></_>
        <_>
          <internalNodes>
            0 -1 71 2.1348452195525169e-02</internalNodes>
          <leafValues>
            -1.5503820776939392e-01 3.8189554214477539e-01</leafValues></_>
        <_>
          <internalNodes>
            0 -1 123 4.9722984433174133e-02</internalNodes>
          <leafValues>
            -1.0962001234292984e-01 4.5345661044120789e-01</leafValues></_>
        <_>
          <internalNodes>
            0 -1 138 -2.9527429491281509e-02</internalNodes>
          <leafValues>
            4.6980881690979004e-01 -1.0267204791307449e-01</leafValues></_>
        <_>
          <internalNodes>
            0 -1 34 1.6129903495311737e-02</internalNodes>
          <leafValues>
            7.6848275959491730e-02 -7.0464390516281128e-01</leafValues></_>
        <_>
          <internalNodes>
            0 -1 47 1.0592374205589294e-01</internalNodes>
          <leafValues>
            8.9238367974758148e-02 -4.9615424871444702e-01</leafValues></_>
        <_>
          <internalNodes>
            0 -1 179 -7.6865113805979490e-04</internalNodes>
          <leafValues>
            -2.8583040833473206e-01 1.5588694810867310e-01</leafValues></_></weakClassifiers></_>
    <!-- stage 8 -->
    <_>
      <maxWeakCount>33</maxWeakCount>
      <stageThreshold>-2.4481613636016846e+00</stageThreshold>
      <weakClassifiers>
        <_>
          <internalNodes>
            0 -1 110 -4.8258475959300995e-02</internalNodes>
          <leafValues>
            1. -8.4145104885101318e-01</leafValues></_>
        <_>
          <internalNodes>
            0 -1 21 8.9389294385910034e-02</internalNodes>
          <leafValues>
            -5.5914491415023804e-01 2.0752364397048950e-01</leafValues></_>
        <_>
          <internalNodes>
            0 -1 3 -5.2142580971121788e-03</internalNodes>
          <leafValues>
            2.1999233961105347e-01 -4.7417414188385010e-01</leafValues></_>
        <_>
          <internalNodes>
            0 -1 112 1.2228556908667088e-02</internalNodes>
          <leafValues>
            -2.1149155497550964e-01 5.4034817218780518e-01</leafValues></_>
        <_>
          <internalNodes>
            0 -1 185 -2.8148654382675886e-04</internalNodes>
          <leafValues>
            -5.4831010103225708e-01 1.6693215072154999e-01</leafValues></_>
        <_>
          <internalNodes>
            0 -1 52 -6.2988543510437012e-01</internalNodes>
          <leafValues>
            -6.5878772735595703e-01 1.2645284831523895e-01</leafValues></_>
        <_>
          <internalNodes>
            0 -1 60 9.8389014601707458e-03</internalNodes>
          <leafValues>
            1.4644278585910797e-01 -5.4884535074234009e-01</leafValues></_>
        <_>
          <internalNodes>
            0 -1 87 2.8902966529130936e-02</internalNodes>
          <leafValues>
            -1.7033581435680389e-01 5.8211696147918701e-01</leafValues></_>
        <_>
          <internalNodes>
            0 -1 96 -1.2687053531408310e-02</internalNodes>
          <leafValues>
            5.3776705265045166e-01 -1.6409622132778168e-01</leafValues></_>
        <_>
          <internalNodes>
            0 -1 135 2.0276089198887348e-03</internalNodes>
          <leafValues>
            -4.1183438897132874e-01 1.9960775971412659e-01</leafValues></_>
        <_>
          <internalNodes>
            0 -1 16 6.3452374935150146e-01</internalNodes>
          <leafValues>
            1.7384542524814606e-01 -4.2549204826354980e-01</leafValues></_>
        <_>
          <internalNodes>
            0 -1 85 2.9357708990573883e-02</internalNodes>
          <leafValues>
            1.2212169915437698e-01 -5.0771766901016235e-01</leafValues></_>
        <_>
          <internalNodes>
            0 -1 38 -7.1702571585774422e-03</internalNodes>
          <leafValues>
            3.5279536247253418e-01 -2.0385420322418213e-01</leafValues></_>
        <_>
          <internalNodes>
            0 -1 146 1.0590440593659878e-02</internalNodes>
          <leafValues>
            -1.9302749633789063e-01 3.9934939146041870e-01</leafValues></_>
        <_>
          <internalNodes>
            0 -1 10 6.0145211219787598e-01</internalNodes>
          <leafValues>
            1.0657442361116409e-01 -6.4912396669387817e-01</leafValues></_>
        <_>
          <internalNodes>
            0 -1 83 -1.2396754464134574e-03</internalNodes>
          <leafValues>
            -6.0532623529434204e-01 1.0126721113920212e-01</leafValues></_>
        <_>
          <internalNodes>
            0 -1 165 -3.2394502311944962e-02</internalNodes>
          <leafValues>
            1. -8.7866231799125671e-02</leafValues></_>
        <_>
          <internalNodes>
            0 -1 109 -8.4217346739023924e-04</internalNodes>
          <leafValues>
            2.4271696805953979e-01 -3.0574896931648254e-01</leafValues></_>
        <_>
          <internalNodes>
            0 -1 12 -1.6947154654189944e-04</internalNodes>
          <leafValues>
            2.3361320793628693e-01 -2.9612633585929871e-01</leafValues></_>
        <_>
          <internalNodes>
            0 -1 2 5.0171978771686554e-02</internalNodes>
          <leafValues>
            1.1351478099822998e-01 -7.0567536354064941e-01</leafValues></_>
        <_>
          <internalNodes>
            0 -1 161 8.5041210055351257e-02</internalNodes>
          <leafValues>
            -1.0503280162811279e-01 7.8034043312072754e-01</leafValues></_>
        <_>
          <internalNodes>
            0 -1 45 6.1259383801370859e-04</internalNodes>
          <leafValues>
            2.3819497227668762e-01 -3.0095821619033813e-01</leafValues></_>
        <_>
          <internalNodes>
            0 -1 84 -8.3261363208293915e-02</internalNodes>
          <leafValues>
            2.5663593411445618e-01 -2.8966316580772400e-01</leafValues></_>
        <_>
          <internalNodes>
            0 -1 48 5.1381811499595642e-02</internalNodes>
          <leafValues>
            -1.2427824735641479e-01 7.1250444650650024e-01</leafValues></_>
        <_>
          <internalNodes>
            0 -1 121 -3.1130246818065643e-02</internalNodes>
          <leafValues>
            7.6534920930862427e-01 -8.6606465280056000e-02</leafValues></_>
        <_>
          <internalNodes>
            0 -1 156 1.5665145590901375e-02</internalNodes>
          <leafValues>
            -1.1388618499040604e-01 5.3179973363876343e-01</leafValues></_>
        <_>
          <internalNodes>
            0 -1 57 -3.4710328327491879e-04</internalNodes>
          <leafValues>
            2.4155744910240173e-01 -2.6705947518348694e-01</leafValues></_>
        <_>
          <internalNodes>
            0 -1 137 2.8576150536537170e-02</internalNodes>
          <leafValues>
            -9.2301256954669952e-02 7.5679838657379150e-01</leafValues></_>
        <_>
          <internalNodes>
            0 -1 72 6.5013475716114044e-02</internalNodes>
          <leafValues>
            -1.6465991735458374e-01 3.9622154831886292e-01</leafValues></_>
        <_>
          <internalNodes>
            0 -1 125 -5.2990639209747314e-01</internalNodes>
          <leafValues>
            -8.0208384990692139e-01 8.2689233124256134e-02</leafValues></_>
        <_>
          <internalNodes>
            0 -1 86 4.4105432927608490e-02</internalNodes>
          <leafValues>
            -1.1664590239524841e-01 6.7707335948944092e-01</leafValues></_>
        <_>
          <internalNodes>
            0 -1 170 6.3311392441391945e-03</internalNodes>
          <leafValues>
            -9.4701699912548065e-02 6.8331271409988403e-01</leafValues></_>
        <_>
          <internalNodes>
            0 -1 89 2.4212084710597992e-02</internalNodes>
          <leafValues>
            -1.3657702505588531e-01 5.3449416160583496e-01</leafValues></_></weakClassifiers></_>
    <!-- stage 9 -->
    <_>
      <maxWeakCount>19</maxWeakCount>
      <stageThreshold>-2.1810455322265625e+00</stageThreshold>
      <weakClassifiers>
        <_>
          <internalNodes>
            0 -1 163 1.2909686192870140e-02</internalNodes>
          <leafValues>
            -8.5442745685577393e-01 1.</leafValues></_>
        <_>
          <internalNodes>
            0 -1 90 -8.1272004172205925e-03</internalNodes>
          <leafValues>
            7.7057713270187378e-01 -5.1734060049057007e-01</leafValues></_>
        <_>
          <internalNodes>
            0 -1 115 -6.7383378744125366e-02</internalNodes>
          <leafValues>
            3.1508165597915649e-01 -4.6075174212455750e-01</leafValues></_>
        <_>
          <internalNodes>
            0 -1 81 1.5774443745613098e-02</internalNodes>
          <leafValues>
            -2.1780714392662048e-01 6.1990427970886230e-01</leafValues></_>
        <_>
          <internalNodes>
            0 -1 183 1.6057691536843777e-03</internalNodes>
          <leafValues>
            -3.1970167160034180e-01 3.5749310255050659e-01</leafValues></_>
        <_>
          <internalNodes>
            0 -1 68 5.0796009600162506e-03</internalNodes>
          <leafValues>
            -1.5334430336952209e-01 7.3876082897186279e-01</leafValues></_>
        <_>
          <internalNodes>
            0 -1 153 1.1156384833157063e-02</internalNodes>
          <leafValues>
            -1.5013821423053741e-01 8.8598060607910156e-01</leafValues></_>
        <_>
          <internalNodes>
            0 -1 155 -2.2721223533153534e-02</internalNodes>
          <leafValues>
            6.4192259311676025e-01 -1.9867146015167236e-01</leafValues></_>
        <_>
          <internalNodes>
            0 -1 65 -2.6317998766899109e-02</internalNodes>
          <leafValues>
            6.1255288124084473e-01 -1.5505710244178772e-01</leafValues></_>
        <_>
          <internalNodes>
            0 -1 173 2.6796855963766575e-03</internalNodes>
          <leafValues>
            3.0987852811813354e-01 -4.1383418440818787e-01</leafValues></_>
        <_>
          <internalNodes>
            0 -1 93 2.9557976871728897e-02</internalNodes>
          <leafValues>
            -2.2266292572021484e-01 5.8259522914886475e-01</leafValues></_>
        <_>
          <internalNodes>
            0 -1 13 -2.7293120510876179e-03</internalNodes>
          <leafValues>
            -4.1425120830535889e-01 2.6236569881439209e-01</leafValues></_>
        <_>
          <internalNodes>
            0 -1 105 7.0880474522709846e-03</internalNodes>
          <leafValues>
            -2.9200834035873413e-01 4.5377629995346069e-01</leafValues></_>
        <_>
          <internalNodes>
            0 -1 33 -3.2547753304243088e-02</internalNodes>
          <leafValues>
            8.8386613130569458e-01 -1.2843246757984161e-01</leafValues></_>
        <_>
          <internalNodes>
            0 -1 131 3.8007861003279686e-03</internalNodes>
          <leafValues>
            -2.2407262027263641e-01 5.3572177886962891e-01</leafValues></_>
        <_>
          <internalNodes>
            0 -1 98 1.2066191993653774e-03</internalNodes>
          <leafValues>
            -4.6266132593154907e-01 2.6328837871551514e-01</leafValues></_>
        <_>
          <internalNodes>
            0 -1 180 1.7852829769253731e-02</internalNodes>
          <leafValues>
            -1.5979696810245514e-01 7.8762263059616089e-01</leafValues></_>
        <_>
          <internalNodes>
            0 -1 64 -2.7521387673914433e-03</internalNodes>
          <leafValues>
            6.7399132251739502e-01 -1.4324353635311127e-01</leafValues></_>
        <_>
          <internalNodes>
            0 -1 130 8.8785418483894318e-05</internalNodes>
          <leafValues>
            -2.3385673761367798e-01 4.6760204434394836e-01</leafValues></_></weakClassifiers></_></stages>
  <features>
    <_>
      <rects>
        <_>
          0 0 2 2 -1.</_>
        <_>
          1 0 1 2 2.</_></rects>
      <tilted>0</tilted></_>
    <_>
      <rects>
        <_>
          0 0 1 6 -1.</_>
        <_>
          0 2 1 2 3.</_></rects>
      <tilted>0</tilted></_>
    <_>
      <rects>
        <_>
          0 0 1 8 -1.</_>
        <_>
          0 4 1 4 2.</_></rects>
      <tilted>0</tilted></_>
    <_>
      <rects>
        <_>
          0 0 1 12 -1.</_>
        <_>
          0 6 1 6 2.</_></rects>
      <tilted>0</tilted></_>
    <_>
      <rects>
        <_>
          0 0 4 1 -1.</_>
        <_>
          2 0 2 1 2.</_></rects>
      <tilted>0</tilted></_>
    <_>
      <rects>
        <_>
          0 0 6 4 -1.</_>
        <_>
          0 0 3 2 2.</_>
        <_>
          3 2 3 2 2.</_></rects>
      <tilted>0</tilted></_>
    <_>
      <rects>
        <_>
          0 0 6 10 -1.</_>
        <_>
          3 0 3 10 2.</_></rects>
      <tilted>0</tilted></_>
    <_>
      <rects>
        <_>
          0 0 6 12 -1.</_>
        <_>
          3 0 3 12 2.</_></rects>
      <tilted>0</tilted></_>
    <_>
      <rects>
        <_>
          0 0 12 1 -1.</_>
        <_>
          4 0 4 1 3.</_></rects>
      <tilted>0</tilted></_>
    <_>
      <rects>
        <_>
          0 0 12 9 -1.</_>
        <_>
          4 0 4 9 3.</_></rects>
      <tilted>0</tilted></_>
    <_>
      <rects>
        <_>
          0 0 12 10 -1.</_>
        <_>
          4 0 4 10 3.</_></rects>
      <tilted>0</tilted></_>
    <_>
      <rects>
        <_>
          0 0 12 11 -1.</_>
        <_>
          4 0 4 11 3.</_></rects>
      <tilted>0</tilted></_>
    <_>
      <rects>
        <_>
          0 0 5 3 -1.</_>
        <_>
          0 1 5 1 3.</_></rects>
      <tilted>0</tilted></_>
    <_>
      <rects>
        <_>
          0 0 12 1 -1.</_>
        <_>
          6 0 6 1 2.</_></rects>
      <tilted>0</tilted></_>
    <_>
      <rects>
        <_>
          0 0 12 2 -1.</_>
        <_>
          6 0 6 2 2.</_></rects>
      <tilted>0</tilted></_>
    <_>
      <rects>
        <_>
          0 0 12 12 -1.</_>
        <_>
          0 0 6 6 2.</_>
        <_>
          6 6 6 6 2.</_></rects>
      <tilted>0</tilted></_>
    <_>
      <rects>
        <_>
          0 0 8 12 -1.</_>
        <_>
          0 4 8 4 3.</_></rects>
      <tilted>0</tilted></_>
    <_>
      <rects>
        <_>
          0 1 2 2 -1.</_>
        <_>
          0 1 1 1 2.</_>
        <_>
          1 2 1 1 2.</_></rects>
      <tilted>0</tilted></_>
    <_>
      <rects>
        <_>
          0 2 1 2 -1.</_>
        <_>
          0 3 1 1 2.</_></rects>
      <tilted>0</tilted></_>
    <_>
      <rects>
        <_>
          0 2 1 4 -1.</_>
        <_>
          0 4 1 2 2.</_></rects>
      <tilted>0</tilted></_>
    <_>
      <rects>
        <_>
          0 2 1 10 -1.</_>
        <_>
          0 7 1 5 2.</_></rects>
      <tilted>0</tilted></_>
    <_>
      <rects>
        <_>
          0 2 12 1 -1.</_>
        <_>
          4 2 4 1 3.</_></rects>
      <tilted>0</tilted></_>
    <_>
      <rects>
        <_>
          0 3 1 6 -1.</_>
        <_>
          0 6 1 3 2.</_></rects>
      <tilted>0</tilted></_>
    <_>
      <rects>
        <_>
          0 3 12 6 -1.</_>
        <_>
          4 3 4 6 3.</_></rects>
      <tilted>0</tilted></_>
    <_>
      <rects>
        <_>
          0 3 12 9 -1.</_>
        <_>
          4 3 4 9 3.</_></rects>
      <tilted>0</tilted></_>
    <_>
      <rects>
        <_>
          0 4 12 7 -1.</_>
        <_>
          6 4 6 7 2.</_></rects>
      <tilted>0</tilted></_>
    <_>
      <rects>
        <_>
          0 4 9 3 -1.</_>
        <_>
          0 5 9 1 3.</_></rects>
      <tilted>0</tilted></_>
    <_>
      <rects>
        <_>
          0 5 1 6 -1.</_>
        <_>
          0 7 1 2 3.</_></rects>
      <tilted>0</tilted></_>
    <_>
      <rects>
        <_>
          0 5 11 2 -1.</_>
        <_>
          0 6 11 1 2.</_></rects>
      <tilted>0</tilted></_>
    <_>
      <rects>
        <_>
          0 5 12 6 -1.</_>
        <_>
          0 8 12 3 2.</_></rects>
      <tilted>0</tilted></_>
    <_>
      <rects>
        <_>
          0 6 1 4 -1.</_>
        <_>
          0 8 1 2 2.</_></rects>
      <tilted>0</tilted></_>
    <_>
      <rects>
        <_>
          0 6 1 6 -1.</_>
        <_>
          0 9 1 3 2.</_></rects>
      <tilted>0</tilted></_>
    <_>
      <rects>
        <_>
          0 6 12 5 -1.</_>
        <_>
          4 6 4 5 3.</_></rects>
      <tilted>0</tilted></_>
    <_>
      <rects>
        <_>
          0 6 9 3 -1.</_>
        <_>
          0 7 9 1 3.</_></rects>
      <tilted>0</tilted></_>
    <_>
      <rects>
        <_>
          0 8 2 4 -1.</_>
        <_>
          0 10 2 2 2.</_></rects>
      <tilted>0</tilted></_>
    <_>
      <rects>
        <_>
          0 8 6 2 -1.</_>
        <_>
          3 8 3 2 2.</_></rects>
      <tilted>0</tilted></_>
    <_>
      <rects>
        <_>
          0 8 12 3 -1.</_>
        <_>
          6 8 6 3 2.</_></rects>
      <tilted>0</tilted></_>
    <_>
      <rects>
        <_>
          0 9 2 3 -1.</_>
        <_>
          1 9 1 3 2.</_></rects>
      <tilted>0</tilted></_>
    <_>
      <rects>
        <_>
          0 9 6 2 -1.</_>
        <_>
          0 9 3 1 2.</_>
        <_>
          3 10 3 1 2.</_></rects>
      <tilted>0</tilted></_>
    <_>
      <rects>
        <_>
          0 10 2 2 -1.</_>
        <_>
          0 11 2 1 2.</_></rects>
      <tilted>0</tilted></_>
    <_>
      <rects>
        <_>
          0 10 4 2 -1.</_>
        <_>
          2 10 2 2 2.</_></rects>
      <tilted>0</tilted></_>
    <_>
      <rects>
        <_>
          0 11 2 1 -1.</_>
        <_>
          1 11 1 1 2.</_></rects>
      <tilted>0</tilted></_>
    <_>
      <rects>
        <_>
          0 11 4 1 -1.</_>
        <_>
          2 11 2 1 2.</_></rects>
      <tilted>0</tilted></_>
    <_>
      <rects>
        <_>
          1 0 3 1 -1.</_>
        <_>
          2 0 1 1 3.</_></rects>
      <tilted>0</tilted></_>
    <_>
      <rects>
        <_>
          1 0 6 1 -1.</_>
        <_>
          3 0 2 1 3.</_></rects>
      <tilted>0</tilted></_>
    <_>
      <rects>
        <_>
          1 1 2 2 -1.</_>
        <_>
          1 1 1 1 2.</_>
        <_>
          2 2 1 1 2.</_></rects>
      <tilted>0</tilted></_>
    <_>
      <rects>
        <_>
          1 1 4 2 -1.</_>
        <_>
          1 1 2 1 2.</_>
        <_>
          3 2 2 1 2.</_></rects>
      <tilted>0</tilted></_>
    <_>
      <rects>
        <_>
          1 1 10 10 -1.</_>
        <_>
          1 1 5 5 2.</_>
        <_>
          6 6 5 5 2.</_></rects>
      <tilted>0</tilted></_>
    <_>
      <rects>
        <_>
          1 2 1 9 -1.</_>
        <_>
          1 5 1 3 3.</_></rects>
      <tilted>0</tilted></_>
    <_>
      <rects>
        <_>
          1 2 2 6 -1.</_>
        <_>
          1 2 1 3 2.</_>
        <_>
          2 5 1 3 2.</_></rects>
      <tilted>0</tilted></_>
    <_>
      <rects>
        <_>
          1 3 6 4 -1.</_>
        <_>
          1 5 6 2 2.</_></rects>
      <tilted>0</tilted></_>
    <_>
      <rects>
        <_>
          1 4 10 8 -1.</_>
        <_>
          1 8 10 4 2.</_></rects>
      <tilted>0</tilted></_>
    <_>
      <rects>
        <_>
          1 4 11 8 -1.</_>
        <_>
          1 8 11 4 2.</_></rects>
      <tilted>0</tilted></_>
    <_>
      <rects>
        <_>
          1 6 7 6 -1.</_>
        <_>
          1 9 7 3 2.</_></rects>
      <tilted>0</tilted></_>
    <_>
      <rects>
        <_>
          1 6 11 6 -1.</_>
        <_>
          1 9 11 3 2.</_></rects>
      <tilted>0</tilted></_>
    <_>
      <rects>
        <_>
          1 8 6 3 -1.</_>
        <_>
          4 8 3 3 2.</_></rects>
      <tilted>0</tilted></_>
    <_>
      <rects>
        <_>
          1 8 11 4 -1.</_>
        <_>
          1 10 11 2 2.</_></rects>
      <tilted>0</tilted></_>
    <_>
      <rects>
        <_>
          1 11 2 1 -1.</_>
        <_>
          2 11 1 1 2.</_></rects>
      <tilted>0</tilted></_>
    <_>
      <rects>
        <_>
          1 11 4 1 -1.</_>
        <_>
          3 11 2 1 2.</_></rects>
      <tilted>0</tilted></_>
    <_>
      <rects>
        <_>
          2 0 4 1 -1.</_>
        <_>
          4 0 2 1 2.</_></rects>
      <tilted>0</tilted></_>
    <_>
      <rects>
        <_>
          2 0 6 1 -1.</_>
        <_>
          4 0 2 1 3.</_></rects>
      <tilted>0</tilted></_>
    <_>
      <rects>
        <_>
          2 1 3 10 -1.</_>
        <_>
          3 1 1 10 3.</_></rects>
      <tilted>0</tilted></_>
    <_>
      <rects>
        <_>
          2 1 4 4 -1.</_>
        <_>
          2 1 2 2 2.</_>
        <_>
          4 3 2 2 2.</_></rects>
      <tilted>0</tilted></_>
    <_>
      <rects>
        <_>
          2 1 7 3 -1.</_>
        <_>
          2 2 7 1 3.</_></rects>
      <tilted>0</tilted></_>
    <_>
      <rects>
        <_>
          2 2 2 2 -1.</_>
        <_>
          2 2 1 1 2.</_>
        <_>
          3 3 1 1 2.</_></rects>
      <tilted>0</tilted></_>
    <_>
      <rects>
        <_>
          2 2 4 6 -1.</_>
        <_>
          2 2 2 3 2.</_>
        <_>
          4 5 2 3 2.</_></rects>
      <tilted>0</tilted></_>
    <_>
      <rects>
        <_>
          2 2 7 10 -1.</_>
        <_>
          2 7 7 5 2.</_></rects>
      <tilted>0</tilted></_>
    <_>
      <rects>
        <_>
          2 2 10 10 -1.</_>
        <_>
          2 7 10 5 2.</_></rects>
      <tilted>0</tilted></_>
    <_>
      <rects>
        <_>
          2 3 2 4 -1.</_>
        <_>
          2 3 1 2 2.</_>
        <_>
          3 5 1 2 2.</_></rects>
      <tilted>0</tilted></_>
    <_>
      <rects>
        <_>
          2 3 3 7 -1.</_>
        <_>
          3 3 1 7 3.</_></rects>
      <tilted>0</tilted></_>
    <_>
      <rects>
        <_>
          2 3 6 9 -1.</_>
        <_>
          4 3 2 9 3.</_></rects>
      <tilted>0</tilted></_>
    <_>
      <rects>
        <_>
          2 4 4 4 -1.</_>
        <_>
          2 4 2 2 2.</_>
        <_>
          4 6 2 2 2.</_></rects>
      <tilted>0</tilted></_>
    <_>
      <rects>
        <_>
          2 4 4 6 -1.</_>
        <_>
          4 4 2 6 2.</_></rects>
      <tilted>0</tilted></_>
    <_>
      <rects>
        <_>
          2 4 10 8 -1.</_>
        <_>
          7 4 5 8 2.</_></rects>
      <tilted>0</tilted></_>
    <_>
      <rects>
        <_>
          2 4 10 6 -1.</_>
        <_>
          2 7 10 3 2.</_></rects>
      <tilted>0</tilted></_>
    <_>
      <rects>
        <_>
          2 4 10 8 -1.</_>
        <_>
          2 8 10 4 2.</_></rects>
      <tilted>0</tilted></_>
    <_>
      <rects>
        <_>
          2 5 2 4 -1.</_>
        <_>
          3 5 1 4 2.</_></rects>
      <tilted>0</tilted></_>
    <_>
      <rects>
        <_>
          2 5 8 4 -1.</_>
        <_>
          6 5 4 4 2.</_></rects>
      <tilted>0</tilted></_>
    <_>
      <rects>
        <_>
          2 5 10 6 -1.</_>
        <_>
          2 8 10 3 2.</_></rects>
      <tilted>0</tilted></_>
    <_>
      <rects>
        <_>
          2 6 10 6 -1.</_>
        <_>
          7 6 5 6 2.</_></rects>
      <tilted>0</tilted></_>
    <_>
      <rects>
        <_>
          2 7 10 5 -1.</_>
        <_>
          7 7 5 5 2.</_></rects>
      <tilted>0</tilted></_>
    <_>
      <rects>
        <_>
          2 8 5 3 -1.</_>
        <_>
          2 9 5 1 3.</_></rects>
      <tilted>0</tilted></_>
    <_>
      <rects>
        <_>
          2 9 5 3 -1.</_>
        <_>
          2 10 5 1 3.</_></rects>
      <tilted>0</tilted></_>
    <_>
      <rects>
        <_>
          3 0 2 1 -1.</_>
        <_>
          4 0 1 1 2.</_></rects>
      <tilted>0</tilted></_>
    <_>
      <rects>
        <_>
          3 0 3 12 -1.</_>
        <_>
          3 6 3 6 2.</_></rects>
      <tilted>0</tilted></_>
    <_>
      <rects>
        <_>
          3 0 8 2 -1.</_>
        <_>
          7 0 4 2 2.</_></rects>
      <tilted>0</tilted></_>
    <_>
      <rects>
        <_>
          3 0 5 3 -1.</_>
        <_>
          3 1 5 1 3.</_></rects>
      <tilted>0</tilted></_>
    <_>
      <rects>
        <_>
          3 1 3 8 -1.</_>
        <_>
          4 1 1 8 3.</_></rects>
      <tilted>0</tilted></_>
    <_>
      <rects>
        <_>
          3 1 6 5 -1.</_>
        <_>
          5 1 2 5 3.</_></rects>
      <tilted>0</tilted></_>
    <_>
      <rects>
        <_>
          3 1 5 3 -1.</_>
        <_>
          3 2 5 1 3.</_></rects>
      <tilted>0</tilted></_>
    <_>
      <rects>
        <_>
          3 2 2 2 -1.</_>
        <_>
          3 2 1 1 2.</_>
        <_>
          4 3 1 1 2.</_></rects>
      <tilted>0</tilted></_>
    <_>
      <rects>
        <_>
          3 2 3 7 -1.</_>
        <_>
          4 2 1 7 3.</_></rects>
      <tilted>0</tilted></_>
    <_>
      <rects>
        <_>
          3 2 4 4 -1.</_>
        <_>
          3 2 2 2 2.</_>
        <_>
          5 4 2 2 2.</_></rects>
      <tilted>0</tilted></_>
    <_>
      <rects>
        <_>
          3 2 4 6 -1.</_>
        <_>
          3 2 2 3 2.</_>
        <_>
          5 5 2 3 2.</_></rects>
      <tilted>0</tilted></_>
    <_>
      <rects>
        <_>
          3 2 7 10 -1.</_>
        <_>
          3 7 7 5 2.</_></rects>
      <tilted>0</tilted></_>
    <_>
      <rects>
        <_>
          3 3 1 4 -1.</_>
        <_>
          3 5 1 2 2.</_></rects>
      <tilted>0</tilted></_>
    <_>
      <rects>
        <_>
          3 3 3 5 -1.</_>
        <_>
          4 3 1 5 3.</_></rects>
      <tilted>0</tilted></_>
    <_>
      <rects>
        <_>
          3 3 3 7 -1.</_>
        <_>
          4 3 1 7 3.</_></rects>
      <tilted>0</tilted></_>
    <_>
      <rects>
        <_>
          3 3 9 7 -1.</_>
        <_>
          6 3 3 7 3.</_></rects>
      <tilted>0</tilted></_>
    <_>
      <rects>
        <_>
          3 3 4 3 -1.</_>
        <_>
          3 4 4 1 3.</_></rects>
      <tilted>0</tilted></_>
    <_>
      <rects>
        <_>
          3 3 6 3 -1.</_>
        <_>
          3 4 6 1 3.</_></rects>
      <tilted>0</tilted></_>
    <_>
      <rects>
        <_>
          3 4 3 5 -1.</_>
        <_>
          4 4 1 5 3.</_></rects>
      <tilted>0</tilted></_>
    <_>
      <rects>
        <_>
          3 4 4 4 -1.</_>
        <_>
          3 4 2 2 2.</_>
        <_>
          5 6 2 2 2.</_></rects>
      <tilted>0</tilted></_>
    <_>
      <rects>
        <_>
          3 4 6 6 -1.</_>
        <_>
          5 4 2 6 3.</_></rects>
      <tilted>0</tilted></_>
    <_>
      <rects>
        <_>
          3 5 3 4 -1.</_>
        <_>
          4 5 1 4 3.</_></rects>
      <tilted>0</tilted></_>
    <_>
      <rects>
        <_>
          3 5 3 6 -1.</_>
        <_>
          4 5 1 6 3.</_></rects>
      <tilted>0</tilted></_>
    <_>
      <rects>
        <_>
          3 5 4 4 -1.</_>
        <_>
          3 5 2 2 2.</_>
        <_>
          5 7 2 2 2.</_></rects>
      <tilted>0</tilted></_>
    <_>
      <rects>
        <_>
          3 5 6 2 -1.</_>
        <_>
          3 5 3 1 2.</_>
        <_>
          6 6 3 1 2.</_></rects>
      <tilted>0</tilted></_>
    <_>
      <rects>
        <_>
          3 6 3 3 -1.</_>
        <_>
          4 6 1 3 3.</_></rects>
      <tilted>0</tilted></_>
    <_>
      <rects>
        <_>
          3 7 1 2 -1.</_>
        <_>
          3 8 1 1 2.</_></rects>
      <tilted>0</tilted></_>
    <_>
      <rects>
        <_>
          3 7 6 1 -1.</_>
        <_>
          5 7 2 1 3.</_></rects>
      <tilted>0</tilted></_>
    <_>
      <rects>
        <_>
          3 7 6 3 -1.</_>
        <_>
          5 7 2 3 3.</_></rects>
      <tilted>0</tilted></_>
    <_>
      <rects>
        <_>
          3 8 4 3 -1.</_>
        <_>
          3 9 4 1 3.</_></rects>
      <tilted>0</tilted></_>
    <_>
      <rects>
        <_>
          3 10 2 2 -1.</_>
        <_>
          3 11 2 1 2.</_></rects>
      <tilted>0</tilted></_>
    <_>
      <rects>
        <_>
          4 0 4 6 -1.</_>
        <_>
          4 0 2 3 2.</_>
        <_>
          6 3 2 3 2.</_></rects>
      <tilted>0</tilted></_>
    <_>
      <rects>
        <_>
          4 0 8 5 -1.</_>
        <_>
          8 0 4 5 2.</_></rects>
      <tilted>0</tilted></_>
    <_>
      <rects>
        <_>
          4 0 8 6 -1.</_>
        <_>
          8 0 4 6 2.</_></rects>
      <tilted>0</tilted></_>
    <_>
      <rects>
        <_>
          4 0 8 12 -1.</_>
        <_>
          8 0 4 12 2.</_></rects>
      <tilted>0</tilted></_>
    <_>
      <rects>
        <_>
          4 1 3 7 -1.</_>
        <_>
          5 1 1 7 3.</_></rects>
      <tilted>0</tilted></_>
    <_>
      <rects>
        <_>
          4 1 8 4 -1.</_>
        <_>
          8 1 4 4 2.</_></rects>
      <tilted>0</tilted></_>
    <_>
      <rects>
        <_>
          4 2 2 2 -1.</_>
        <_>
          4 2 1 1 2.</_>
        <_>
          5 3 1 1 2.</_></rects>
      <tilted>0</tilted></_>
    <_>
      <rects>
        <_>
          4 2 3 7 -1.</_>
        <_>
          5 2 1 7 3.</_></rects>
      <tilted>0</tilted></_>
    <_>
      <rects>
        <_>
          4 2 3 9 -1.</_>
        <_>
          5 2 1 9 3.</_></rects>
      <tilted>0</tilted></_>
    <_>
      <rects>
        <_>
          4 3 6 4 -1.</_>
        <_>
          4 3 3 2 2.</_>
        <_>
          7 5 3 2 2.</_></rects>
      <tilted>0</tilted></_>
    <_>
      <rects>
        <_>
          4 4 3 5 -1.</_>
        <_>
          5 4 1 5 3.</_></rects>
      <tilted>0</tilted></_>
    <_>
      <rects>
        <_>
          4 4 7 8 -1.</_>
        <_>
          4 8 7 4 2.</_></rects>
      <tilted>0</tilted></_>
    <_>
      <rects>
        <_>
          4 5 3 6 -1.</_>
        <_>
          5 5 1 6 3.</_></rects>
      <tilted>0</tilted></_>
    <_>
      <rects>
        <_>
          4 6 4 6 -1.</_>
        <_>
          4 9 4 3 2.</_></rects>
      <tilted>0</tilted></_>
    <_>
      <rects>
        <_>
          4 6 8 5 -1.</_>
        <_>
          8 6 4 5 2.</_></rects>
      <tilted>0</tilted></_>
    <_>
      <rects>
        <_>
          4 7 1 2 -1.</_>
        <_>
          4 8 1 1 2.</_></rects>
      <tilted>0</tilted></_>
    <_>
      <rects>
        <_>
          4 9 1 3 -1.</_>
        <_>
          4 10 1 1 3.</_></rects>
      <tilted>0</tilted></_>
    <_>
      <rects>
        <_>
          4 9 4 2 -1.</_>
        <_>
          4 9 2 1 2.</_>
        <_>
          6 10 2 1 2.</_></rects>
      <tilted>0</tilted></_>
    <_>
      <rects>
        <_>
          4 9 8 3 -1.</_>
        <_>
          8 9 4 3 2.</_></rects>
      <tilted>0</tilted></_>
    <_>
      <rects>
        <_>
          4 11 8 1 -1.</_>
        <_>
          8 11 4 1 2.</_></rects>
      <tilted>0</tilted></_>
    <_>
      <rects>
        <_>
          5 1 3 7 -1.</_>
        <_>
          6 1 1 7 3.</_></rects>
      <tilted>0</tilted></_>
    <_>
      <rects>
        <_>
          5 2 1 9 -1.</_>
        <_>
          5 5 1 3 3.</_></rects>
      <tilted>0</tilted></_>
    <_>
      <rects>
        <_>
          5 2 3 5 -1.</_>
        <_>
          6 2 1 5 3.</_></rects>
      <tilted>0</tilted></_>
    <_>
      <rects>
        <_>
          5 2 2 3 -1.</_>
        <_>
          5 3 2 1 3.</_></rects>
      <tilted>0</tilted></_>
    <_>
      <rects>
        <_>
          5 2 4 4 -1.</_>
        <_>
          5 2 2 2 2.</_>
        <_>
          7 4 2 2 2.</_></rects>
      <tilted>0</tilted></_>
    <_>
      <rects>
        <_>
          5 2 3 4 -1.</_>
        <_>
          5 4 3 2 2.</_></rects>
      <tilted>0</tilted></_>
    <_>
      <rects>
        <_>
          5 2 4 3 -1.</_>
        <_>
          5 3 4 1 3.</_></rects>
      <tilted>0</tilted></_>
    <_>
      <rects>
        <_>
          5 3 6 3 -1.</_>
        <_>
          7 3 2 3 3.</_></rects>
      <tilted>0</tilted></_>
    <_>
      <rects>
        <_>
          5 4 3 4 -1.</_>
        <_>
          6 4 1 4 3.</_></rects>
      <tilted>0</tilted></_>
    <_>
      <rects>
        <_>
          5 5 3 4 -1.</_>
        <_>
          6 5 1 4 3.</_></rects>
      <tilted>0</tilted></_>
    <_>
      <rects>
        <_>
          5 5 3 6 -1.</_>
        <_>
          6 5 1 6 3.</_></rects>
      <tilted>0</tilted></_>
    <_>
      <rects>
        <_>
          5 6 1 2 -1.</_>
        <_>
          5 7 1 1 2.</_></rects>
      <tilted>0</tilted></_>
    <_>
      <rects>
        <_>
          5 6 3 5 -1.</_>
        <_>
          6 6 1 5 3.</_></rects>
      <tilted>0</tilted></_>
    <_>
      <rects>
        <_>
          5 6 4 4 -1.</_>
        <_>
          5 6 2 2 2.</_>
        <_>
          7 8 2 2 2.</_></rects>
      <tilted>0</tilted></_>
    <_>
      <rects>
        <_>
          6 0 6 1 -1.</_>
        <_>
          8 0 2 1 3.</_></rects>
      <tilted>0</tilted></_>
    <_>
      <rects>
        <_>
          6 0 6 1 -1.</_>
        <_>
          9 0 3 1 2.</_></rects>
      <tilted>0</tilted></_>
    <_>
      <rects>
        <_>
          6 0 6 9 -1.</_>
        <_>
          9 0 3 9 2.</_></rects>
      <tilted>0</tilted></_>
    <_>
      <rects>
        <_>
          6 2 3 6 -1.</_>
        <_>
          7 2 1 6 3.</_></rects>
      <tilted>0</tilted></_>
    <_>
      <rects>
        <_>
          6 2 2 7 -1.</_>
        <_>
          7 2 1 7 2.</_></rects>
      <tilted>0</tilted></_>
    <_>
      <rects>
        <_>
          6 3 2 3 -1.</_>
        <_>
          7 3 1 3 2.</_></rects>
      <tilted>0</tilted></_>
    <_>
      <rects>
        <_>
          6 3 3 4 -1.</_>
        <_>
          7 3 1 4 3.</_></rects>
      <tilted>0</tilted></_>
    <_>
      <rects>
        <_>
          6 3 2 7 -1.</_>
        <_>
          7 3 1 7 2.</_></rects>
      <tilted>0</tilted></_>
    <_>
      <rects>
        <_>
          6 3 2 2 -1.</_>
        <_>
          6 4 2 1 2.</_></rects>
      <tilted>0</tilted></_>
    <_>
      <rects>
        <_>
          6 4 3 8 -1.</_>
        <_>
          7 4 1 8 3.</_></rects>
      <tilted>0</tilted></_>
    <_>
      <rects>
        <_>
          6 5 3 6 -1.</_>
        <_>
          7 5 1 6 3.</_></rects>
      <tilted>0</tilted></_>
    <_>
      <rects>
        <_>
          6 5 3 7 -1.</_>
        <_>
          7 5 1 7 3.</_></rects>
      <tilted>0</tilted></_>
    <_>
      <rects>
        <_>
          6 8 3 3 -1.</_>
        <_>
          7 8 1 3 3.</_></rects>
      <tilted>0</tilted></_>
    <_>
      <rects>
        <_>
          7 0 4 10 -1.</_>
        <_>
          7 0 2 5 2.</_>
        <_>
          9 5 2 5 2.</_></rects>
      <tilted>0</tilted></_>
    <_>
      <rects>
        <_>
          7 1 2 3 -1.</_>
        <_>
          7 2 2 1 3.</_></rects>
      <tilted>0</tilted></_>
    <_>
      <rects>
        <_>
          7 2 3 1 -1.</_>
        <_>
          8 2 1 1 3.</_></rects>
      <tilted>0</tilted></_>
    <_>
      <rects>
        <_>
          7 2 3 6 -1.</_>
        <_>
          8 2 1 6 3.</_></rects>
      <tilted>0</tilted></_>
    <_>
      <rects>
        <_>
          7 3 3 3 -1.</_>
        <_>
          8 3 1 3 3.</_></rects>
      <tilted>0</tilted></_>
    <_>
      <rects>
        <_>
          7 3 3 7 -1.</_>
        <_>
          8 3 1 7 3.</_></rects>
      <tilted>0</tilted></_>
    <_>
      <rects>
        <_>
          7 4 3 6 -1.</_>
        <_>
          8 4 1 6 3.</_></rects>
      <tilted>0</tilted></_>
    <_>
      <rects>
        <_>
          7 5 3 7 -1.</_>
        <_>
          8 5 1 7 3.</_></rects>
      <tilted>0</tilted></_>
    <_>
      <rects>
        <_>
          7 6 2 4 -1.</_>
        <_>
          8 6 1 4 2.</_></rects>
      <tilted>0</tilted></_>
    <_>
      <rects>
        <_>
          7 9 3 2 -1.</_>
        <_>
          8 9 1 2 3.</_></rects>
      <tilted>0</tilted></_>
    <_>
      <rects>
        <_>
          8 0 3 6 -1.</_>
        <_>
          9 0 1 6 3.</_></rects>
      <tilted>0</tilted></_>
    <_>
      <rects>
        <_>
          8 0 4 1 -1.</_>
        <_>
          10 0 2 1 2.</_></rects>
      <tilted>0</tilted></_>
    <_>
      <rects>
        <_>
          8 0 4 2 -1.</_>
        <_>
          10 0 2 2 2.</_></rects>
      <tilted>0</tilted></_>
    <_>
      <rects>
        <_>
          8 0 4 6 -1.</_>
        <_>
          8 0 2 3 2.</_>
        <_>
          10 3 2 3 2.</_></rects>
      <tilted>0</tilted></_>
    <_>
      <rects>
        <_>
          8 3 3 8 -1.</_>
        <_>
          9 3 1 8 3.</_></rects>
      <tilted>0</tilted></_>
    <_>
      <rects>
        <_>
          8 4 3 2 -1.</_>
        <_>
          9 4 1 2 3.</_></rects>
      <tilted>0</tilted></_>
    <_>
      <rects>
        <_>
          8 10 2 2 -1.</_>
        <_>
          8 11 2 1 2.</_></rects>
      <tilted>0</tilted></_>
    <_>
      <rects>
        <_>
          8 11 4 1 -1.</_>
        <_>
          10 11 2 1 2.</_></rects>
      <tilted>0</tilted></_>
    <_>
      <rects>
        <_>
          9 1 3 1 -1.</_>
        <_>
          10 1 1 1 3.</_></rects>
      <tilted>0</tilted></_>
    <_>
      <rects>
        <_>
          9 6 3 6 -1.</_>
        <_>
          10 6 1 6 3.</_></rects>
      <tilted>0</tilted></_>
    <_>
      <rects>
        <_>
          10 0 2 8 -1.</_>
        <_>
          10 4 2 4 2.</_></rects>
      <tilted>0</tilted></_>
    <_>
      <rects>
        <_>
          10 6 2 1 -1.</_>
        <_>
          11 6 1 1 2.</_></rects>
      <tilted>0</tilted></_>
    <_>
      <rects>
        <_>
          10 9 2 3 -1.</_>
        <_>
          11 9 1 3 2.</_></rects>
      <tilted>0</tilted></_>
    <_>
      <rects>
        <_>
          10 10 2 2 -1.</_>
        <_>
          11 10 1 2 2.</_></rects>
      <tilted>0</tilted></_>
    <_>
      <rects>
        <_>
          10 11 2 1 -1.</_>
        <_>
          11 11 1 1 2.</_></rects>
      <tilted>0</tilted></_>
    <_>
      <rects>
        <_>
          11 0 1 12 -1.</_>
        <_>
          11 6 1 6 2.</_></rects>
      <tilted>0</tilted></_>
    <_>
      <rects>
        <_>
          11 1 1 3 -1.</_>
        <_>
          11 2 1 1 3.</_></rects>
      <tilted>0</tilted></_>
    <_>
      <rects>
        <_>
          11 6 1 6 -1.</_>
        <_>
          11 9 1 3 2.</_></rects>
      <tilted>0</tilted></_>
    <_>
      <rects>
        <_>
          11 8 1 4 -1.</_>
        <_>
          11 10 1 2 2.</_></rects>
      <tilted>0</tilted></_>
    <_>
      <rects>
        <_>
          11 10 1 2 -1.</_>
        <_>
          11 11 1 1 2.</_></rects>
      <tilted>0</tilted></_></features></cascade>
</opencv_storage>
