<?xml version="1.0"?>
<opencv_storage>
<cascade>
  <stageType>BOOST</stageType>
  <featureType>HAAR</featureType>
  <height>12</height>
  <width>12</width>
  <stageParams>
    <boostType>GAB</boostType>
    <minHitRate>9.9500000476837158e-01</minHitRate>
    <maxFalseAlarm>5.0000000000000000e-01</maxFalseAlarm>
    <weightTrimRate>9.4999999999999996e-01</weightTrimRate>
    <maxDepth>1</maxDepth>
    <maxWeakCount>100</maxWeakCount></stageParams>
  <featureParams>
    <maxCatCount>0</maxCatCount>
    <featSize>1</featSize>
    <mode>CORE</mode></featureParams>
  <stageNum>9</stageNum>
  <stages>
    <!-- stage 0 -->
    <_>
      <maxWeakCount>10</maxWeakCount>
      <stageThreshold>-2.1805675029754639e+00</stageThreshold>
      <weakClassifiers>
        <_>
          <internalNodes>
            0 -1 80 -3.0054324865341187e-01</internalNodes>
          <leafValues>
            -4.2136064171791077e-01 -9.4943141937255859e-01</leafValues></_>
        <_>
          <internalNodes>
            0 -1 78 -1.9725663959980011e-01</internalNodes>
          <leafValues>
            1.1723928153514862e-02 -7.8645765781402588e-01</leafValues></_>
        <_>
          <internalNodes>
            0 -1 9 6.7483618855476379e-02</internalNodes>
          <leafValues>
            -7.0105952024459839e-01 1.9347926974296570e-01</leafValues></_>
        <_>
          <internalNodes>
            0 -1 45 -1.0574550833553076e-03</internalNodes>
          <leafValues>
            3.5094219446182251e-01 -4.4651007652282715e-01</leafValues></_>
        <_>
          <internalNodes>
            0 -1 104 2.1304357796907425e-02</internalNodes>
          <leafValues>
            -1.3001589477062225e-01 7.3901301622390747e-01</leafValues></_>
        <_>
          <internalNodes>
            0 -1 99 -1.0629581287503242e-02</internalNodes>
          <leafValues>
            6.0641473531723022e-01 -2.1145378053188324e-01</leafValues></_>
        <_>
          <internalNodes>
            0 -1 41 3.6129492800682783e-03</internalNodes>
          <leafValues>
            1.5870818495750427e-01 -7.3804676532745361e-01</leafValues></_>
        <_>
          <internalNodes>
            0 -1 189 -3.5505346953868866e-02</internalNodes>
          <leafValues>
            -6.0927700996398926e-01 1.7525643110275269e-01</leafValues></_>
        <_>
          <internalNodes>
            0 -1 5 5.7739502191543579e-01</internalNodes>
          <leafValues>
            6.3793651759624481e-02 -9.3275833129882813e-01</leafValues></_>
        <_>
          <internalNodes>
            0 -1 123 -3.4437201917171478e-02</internalNodes>
          <leafValues>
            7.1994578838348389e-01 -1.5084964036941528e-01</leafValues></_></weakClassifiers></_>
    <!-- stage 1 -->
    <_>
      <maxWeakCount>14</maxWeakCount>
      <stageThreshold>-2.6659178733825684e+00</stageThreshold>
      <weakClassifiers>
        <_>
          <internalNodes>
            0 -1 70 2.4807116389274597e-01</internalNodes>
          <leafValues>
            -8.7193167209625244e-01 -1.8759019672870636e-02</leafValues></_>
        <_>
          <internalNodes>
            0 -1 50 2.4809151887893677e-01</internalNodes>
          <leafValues>
            -7.0201498270034790e-01 1.6121797263622284e-01</leafValues></_>
        <_>
          <internalNodes>
            0 -1 10 1.7981529235839844e-01</internalNodes>
          <leafValues>
            -6.2874251604080200e-01 2.6320934295654297e-01</leafValues></_>
        <_>
          <internalNodes>
            0 -1 161 5.5578052997589111e-02</internalNodes>
          <leafValues>
            -2.8317812085151672e-01 3.8365194201469421e-01</leafValues></_>
        <_>
          <internalNodes>
            0 -1 105 2.4833206087350845e-02</internalNodes>
          <leafValues>
            -1.8244256079196930e-01 6.1338639259338379e-01</leafValues></_>
        <_>
          <internalNodes>
            0 -1 122 -2.4070270359516144e-02</internalNodes>
          <leafValues>
            6.6606563329696655e-01 -1.5840378403663635e-01</leafValues></_>
        <_>
          <internalNodes>
            0 -1 100 6.3097640872001648e-02</internalNodes>
          <leafValues>
            -2.3049914836883545e-01 4.4299894571304321e-01</leafValues></_>
        <_>
          <internalNodes>
            0 -1 15 2.1540138125419617e-01</internalNodes>
          <leafValues>
            1.7966994643211365e-01 -7.7893221378326416e-01</leafValues></_>
        <_>
          <internalNodes>
            0 -1 30 -1.8414503335952759e-01</internalNodes>
          <leafValues>
            -8.0345731973648071e-01 9.1243945062160492e-02</leafValues></_>
        <_>
          <internalNodes>
            0 -1 139 -1.7143681645393372e-02</internalNodes>
          <leafValues>
            6.4174300432205200e-01 -1.6733467578887939e-01</leafValues></_>
        <_>
          <internalNodes>
            0 -1 46 -1.5743458643555641e-03</internalNodes>
          <leafValues>
            3.0448487401008606e-01 -3.3088031411170959e-01</leafValues></_>
        <_>
          <internalNodes>
            0 -1 11 7.9172834753990173e-02</internalNodes>
          <leafValues>
            1.6421408951282501e-01 -5.8021080493927002e-01</leafValues></_>
        <_>
          <internalNodes>
            0 -1 184 7.0455961395055056e-04</internalNodes>
          <leafValues>
            -3.2295769453048706e-01 2.3126423358917236e-01</leafValues></_>
        <_>
          <internalNodes>
            0 -1 42 -6.7268729209899902e-02</internalNodes>
          <leafValues>
            -7.0340514183044434e-01 1.1050946265459061e-01</leafValues></_></weakClassifiers></_>
    <!-- stage 2 -->
    <_>
      <maxWeakCount>16</maxWeakCount>
      <stageThreshold>-2.4220585823059082e+00</stageThreshold>
      <weakClassifiers>
        <_>
          <internalNodes>
            0 -1 156 -9.8711796104907990e-02</internalNodes>
          <leafValues>
            5.3191488981246948e-01 -8.4165740013122559e-01</leafValues></_>
        <_>
          <internalNodes>
            0 -1 180 2.4081552401185036e-03</internalNodes>
          <leafValues>
            -6.9526952505111694e-01 7.6180532574653625e-02</leafValues></_>
        <_>
          <internalNodes>
            0 -1 114 -4.4560469686985016e-02</internalNodes>
          <leafValues>
            1.6906911134719849e-01 -6.4723712205886841e-01</leafValues></_>
        <_>
          <internalNodes>
            0 -1 3 1.5838500112295151e-02</internalNodes>
          <leafValues>
            1.9005908071994781e-01 -5.0175523757934570e-01</leafValues></_>
        <_>
          <internalNodes>
            0 -1 98 -2.5387579202651978e-01</internalNodes>
          <leafValues>
            2.9501143097877502e-01 -3.5700818896293640e-01</leafValues></_>
        <_>
          <internalNodes>
            0 -1 18 -2.5929600000381470e-02</internalNodes>
          <leafValues>
            -4.9911412596702576e-01 2.3765885829925537e-01</leafValues></_>
        <_>
          <internalNodes>
            0 -1 35 -2.4840429425239563e-01</internalNodes>
          <leafValues>
            -9.3655848503112793e-01 6.6592007875442505e-02</leafValues></_>
        <_>
          <internalNodes>
            0 -1 162 -2.5775779038667679e-02</internalNodes>
          <leafValues>
            6.6645705699920654e-01 -1.4590121805667877e-01</leafValues></_>
        <_>
          <internalNodes>
            0 -1 157 2.9156181961297989e-02</internalNodes>
          <leafValues>
            -1.7885248363018036e-01 5.0344026088714600e-01</leafValues></_>
        <_>
          <internalNodes>
            0 -1 172 -1.6634251922369003e-02</internalNodes>
          <leafValues>
            5.2763938903808594e-01 -1.8442194163799286e-01</leafValues></_>
        <_>
          <internalNodes>
            0 -1 28 -2.1063920855522156e-01</internalNodes>
          <leafValues>
            -7.7915096282958984e-01 1.1844033002853394e-01</leafValues></_>
        <_>
          <internalNodes>
            0 -1 84 -1.0166479647159576e-01</internalNodes>
          <leafValues>
            1.7078937590122223e-01 -4.3213206529617310e-01</leafValues></_>
        <_>
          <internalNodes>
            0 -1 187 2.7591628022491932e-03</internalNodes>
          <leafValues>
            9.3164794147014618e-02 -7.0537030696868896e-01</leafValues></_>
        <_>
          <internalNodes>
            0 -1 62 -3.9161611348390579e-03</internalNodes>
          <leafValues>
            -5.6586271524429321e-01 9.2068709433078766e-02</leafValues></_>
        <_>
          <internalNodes>
            0 -1 121 -2.1020829677581787e-02</internalNodes>
          <leafValues>
            5.7943022251129150e-01 -1.2645810842514038e-01</leafValues></_>
        <_>
          <internalNodes>
            0 -1 118 3.1308278441429138e-02</internalNodes>
          <leafValues>
            -1.5298767387866974e-01 4.8194169998168945e-01</leafValues></_></weakClassifiers></_>
    <!-- stage 3 -->
    <_>
      <maxWeakCount>23</maxWeakCount>
      <stageThreshold>-2.4340653419494629e+00</stageThreshold>
      <weakClassifiers>
        <_>
          <internalNodes>
            0 -1 95 -1.5695020556449890e-02</internalNodes>
          <leafValues>
            4.3999999761581421e-01 -8.4148150682449341e-01</leafValues></_>
        <_>
          <internalNodes>
            0 -1 73 -3.6318498849868774e-01</internalNodes>
          <leafValues>
            -9.3098320066928864e-03 -6.9379484653472900e-01</leafValues></_>
        <_>
          <internalNodes>
            0 -1 60 -2.6863724924623966e-03</internalNodes>
          <leafValues>
            2.9942071437835693e-01 -4.0063408017158508e-01</leafValues></_>
        <_>
          <internalNodes>
            0 -1 1 1.6448361566290259e-03</internalNodes>
          <leafValues>
            2.0264887809753418e-01 -4.5516782999038696e-01</leafValues></_>
        <_>
          <internalNodes>
            0 -1 6 3.4994862973690033e-02</internalNodes>
          <leafValues>
            -5.2481663227081299e-01 1.8755672872066498e-01</leafValues></_>
        <_>
          <internalNodes>
            0 -1 143 2.6029631495475769e-02</internalNodes>
          <leafValues>
            -1.6287700831890106e-01 5.6328940391540527e-01</leafValues></_>
        <_>
          <internalNodes>
            0 -1 33 1.0774536058306694e-02</internalNodes>
          <leafValues>
            1.5211409330368042e-01 -6.8891394138336182e-01</leafValues></_>
        <_>
          <internalNodes>
            0 -1 77 2.3156091570854187e-02</internalNodes>
          <leafValues>
            -2.0027130842208862e-01 4.4718480110168457e-01</leafValues></_>
        <_>
          <internalNodes>
            0 -1 140 -1.9633725285530090e-02</internalNodes>
          <leafValues>
            5.0191348791122437e-01 -1.5571923553943634e-01</leafValues></_>
        <_>
          <internalNodes>
            0 -1 176 -1.6840067505836487e-01</internalNodes>
          <leafValues>
            -8.6387127637863159e-01 8.8544741272926331e-02</leafValues></_>
        <_>
          <internalNodes>
            0 -1 134 8.7238416075706482e-02</internalNodes>
          <leafValues>
            5.5611126124858856e-02 -7.4454289674758911e-01</leafValues></_>
        <_>
          <internalNodes>
            0 -1 159 1.5295868739485741e-02</internalNodes>
          <leafValues>
            -1.4897556602954865e-01 4.3412047624588013e-01</leafValues></_>
        <_>
          <internalNodes>
            0 -1 153 -2.1060358732938766e-02</internalNodes>
          <leafValues>
            4.9474018812179565e-01 -1.3220581412315369e-01</leafValues></_>
        <_>
          <internalNodes>
            0 -1 47 -2.1478724665939808e-03</internalNodes>
          <leafValues>
            -5.0911170244216919e-01 1.2413462996482849e-01</leafValues></_>
        <_>
          <internalNodes>
            0 -1 66 -3.3758348226547241e-01</internalNodes>
          <leafValues>
            -6.6775453090667725e-01 7.5263954699039459e-02</leafValues></_>
        <_>
          <internalNodes>
            0 -1 44 -1.2215388414915651e-04</internalNodes>
          <leafValues>
            1.8007980287075043e-01 -3.0872312188148499e-01</leafValues></_>
        <_>
          <internalNodes>
            0 -1 39 -1.9406331703066826e-03</internalNodes>
          <leafValues>
            -6.0138094425201416e-01 9.1248847544193268e-02</leafValues></_>
        <_>
          <internalNodes>
            0 -1 26 -6.5536993741989136e-01</internalNodes>
          <leafValues>
            -6.7069381475448608e-01 7.2919405996799469e-02</leafValues></_>
        <_>
          <internalNodes>
            0 -1 43 4.5015942305326462e-02</internalNodes>
          <leafValues>
            5.2186623215675354e-02 -8.1690728664398193e-01</leafValues></_>
        <_>
          <internalNodes>
            0 -1 87 2.2653248161077499e-02</internalNodes>
          <leafValues>
            -2.2095918655395508e-01 3.8195994496345520e-01</leafValues></_>
        <_>
          <internalNodes>
            0 -1 86 -4.6421989798545837e-02</internalNodes>
          <leafValues>
            1.6368314623832703e-01 -3.2791134715080261e-01</leafValues></_>
        <_>
          <internalNodes>
            0 -1 119 1.3268288969993591e-01</internalNodes>
          <leafValues>
            -1.1359884589910507e-01 5.4883706569671631e-01</leafValues></_>
        <_>
          <internalNodes>
            0 -1 96 3.2039262354373932e-02</internalNodes>
          <leafValues>
            -1.0929644852876663e-01 4.7652244567871094e-01</leafValues></_></weakClassifiers></_>
    <!-- stage 4 -->
    <_>
      <maxWeakCount>27</maxWeakCount>
      <stageThreshold>-2.3451881408691406e+00</stageThreshold>
      <weakClassifiers>
        <_>
          <internalNodes>
            0 -1 79 -2.2660800814628601e-01</internalNodes>
          <leafValues>
            7.5000000000000000e-01 -8.3664458990097046e-01</leafValues></_>
        <_>
          <internalNodes>
            0 -1 45 -2.3768884129822254e-03</internalNodes>
          <leafValues>
            -3.0081646400503814e-04 -6.5095597505569458e-01</leafValues></_>
        <_>
          <internalNodes>
            0 -1 176 -3.5426862537860870e-02</internalNodes>
          <leafValues>
            1.8362753093242645e-01 -4.6824124455451965e-01</leafValues></_>
        <_>
          <internalNodes>
            0 -1 184 1.2701153755187988e-03</internalNodes>
          <leafValues>
            -3.7782055139541626e-01 2.5720915198326111e-01</leafValues></_>
        <_>
          <internalNodes>
            0 -1 94 1.2222377955913544e-01</internalNodes>
          <leafValues>
            -1.2054189294576645e-01 5.3998333215713501e-01</leafValues></_>
        <_>
          <internalNodes>
            0 -1 103 1.3125853613018990e-02</internalNodes>
          <leafValues>
            -1.6284950077533722e-01 4.5763102173805237e-01</leafValues></_>
        <_>
          <internalNodes>
            0 -1 63 3.5272901877760887e-03</internalNodes>
          <leafValues>
            2.0976842939853668e-01 -3.5693946480751038e-01</leafValues></_>
        <_>
          <internalNodes>
            0 -1 11 -3.9275065064430237e-02</internalNodes>
          <leafValues>
            -4.8463529348373413e-01 1.5425717830657959e-01</leafValues></_>
        <_>
          <internalNodes>
            0 -1 163 -7.7331875218078494e-04</internalNodes>
          <leafValues>
            2.0125775039196014e-01 -3.2485640048980713e-01</leafValues></_>
        <_>
          <internalNodes>
            0 -1 71 3.0228609219193459e-02</internalNodes>
          <leafValues>
            -1.4170289039611816e-01 4.3812847137451172e-01</leafValues></_>
        <_>
          <internalNodes>
            0 -1 130 2.2996824234724045e-02</internalNodes>
          <leafValues>
            -1.6175872087478638e-01 4.4736778736114502e-01</leafValues></_>
        <_>
          <internalNodes>
            0 -1 92 -1.8487614393234253e-01</internalNodes>
          <leafValues>
            -8.3687865734100342e-01 8.5542261600494385e-02</leafValues></_>
        <_>
          <internalNodes>
            0 -1 40 2.1276983898133039e-03</internalNodes>
          <leafValues>
            5.6991260498762131e-02 -7.8093165159225464e-01</leafValues></_>
        <_>
          <internalNodes>
            0 -1 16 -2.9789726249873638e-03</internalNodes>
          <leafValues>
            -3.9319562911987305e-01 1.3878424465656281e-01</leafValues></_>
        <_>
          <internalNodes>
            0 -1 8 5.9849113225936890e-01</internalNodes>
          <leafValues>
            8.0182276666164398e-02 -6.6568428277969360e-01</leafValues></_>
        <_>
          <internalNodes>
            0 -1 164 1.8173988908529282e-02</internalNodes>
          <leafValues>
            -1.3406518101692200e-01 4.6709296107292175e-01</leafValues></_>
        <_>
          <internalNodes>
            0 -1 106 3.4518301486968994e-02</internalNodes>
          <leafValues>
            -1.4129479229450226e-01 4.7798708081245422e-01</leafValues></_>
        <_>
          <internalNodes>
            0 -1 146 4.1058803908526897e-03</internalNodes>
          <leafValues>
            -2.8264725208282471e-01 2.2220289707183838e-01</leafValues></_>
        <_>
          <internalNodes>
            0 -1 17 4.9257583916187286e-02</internalNodes>
          <leafValues>
            6.0333281755447388e-02 -7.6219469308853149e-01</leafValues></_>
        <_>
          <internalNodes>
            0 -1 52 -2.7843976020812988e-01</internalNodes>
          <leafValues>
            -5.6561636924743652e-01 8.2525819540023804e-02</leafValues></_>
        <_>
          <internalNodes>
            0 -1 186 6.1812037602066994e-03</internalNodes>
          <leafValues>
            6.2912218272686005e-02 -6.8271225690841675e-01</leafValues></_>
        <_>
          <internalNodes>
            0 -1 67 4.6652160584926605e-02</internalNodes>
          <leafValues>
            -1.0754342377185822e-01 4.6422097086906433e-01</leafValues></_>
        <_>
          <internalNodes>
            0 -1 48 -8.3303712308406830e-03</internalNodes>
          <leafValues>
            -5.5306786298751831e-01 9.4460040330886841e-02</leafValues></_>
        <_>
          <internalNodes>
            0 -1 12 -1.6168612241744995e-01</internalNodes>
          <leafValues>
            -3.9251539111137390e-01 1.0807878524065018e-01</leafValues></_>
        <_>
          <internalNodes>
            0 -1 72 -1.7053972929716110e-02</internalNodes>
          <leafValues>
            3.3503314852714539e-01 -1.3806280493736267e-01</leafValues></_>
        <_>
          <internalNodes>
            0 -1 85 8.7861463427543640e-02</internalNodes>
          <leafValues>
            1.0401193052530289e-01 -5.3273665904998779e-01</leafValues></_>
        <_>
          <internalNodes>
            0 -1 147 -4.4336667633615434e-04</internalNodes>
          <leafValues>
            1.4859749376773834e-01 -3.2975643873214722e-01</leafValues></_></weakClassifiers></_>
    <!-- stage 5 -->
    <_>
      <maxWeakCount>31</maxWeakCount>
      <stageThreshold>-2.2390615940093994e+00</stageThreshold>
      <weakClassifiers>
        <_>
          <internalNodes>
            0 -1 81 -9.6444517374038696e-02</internalNodes>
          <leafValues>
            5.9574466943740845e-01 -8.4276729822158813e-01</leafValues></_>
        <_>
          <internalNodes>
            0 -1 180 2.4178847670555115e-03</internalNodes>
          <leafValues>
            -6.7002630233764648e-01 -7.0846699178218842e-02</leafValues></_>
        <_>
          <internalNodes>
            0 -1 21 1.2416319549083710e-01</internalNodes>
          <leafValues>
            -3.7697812914848328e-01 2.2339276969432831e-01</leafValues></_>
        <_>
          <internalNodes>
            0 -1 190 -1.7610244452953339e-02</internalNodes>
          <leafValues>
            -4.5924654603004456e-01 1.4795178174972534e-01</leafValues></_>
        <_>
          <internalNodes>
            0 -1 182 -3.8045984692871571e-03</internalNodes>
          <leafValues>
            2.2055035829544067e-01 -3.4614700078964233e-01</leafValues></_>
        <_>
          <internalNodes>
            0 -1 166 1.1836617253720760e-02</internalNodes>
          <leafValues>
            -2.1207438409328461e-01 2.8366851806640625e-01</leafValues></_>
        <_>
          <internalNodes>
            0 -1 129 2.6916347444057465e-02</internalNodes>
          <leafValues>
            -1.3287322223186493e-01 3.8812893629074097e-01</leafValues></_>
        <_>
          <internalNodes>
            0 -1 53 -1.3054197654128075e-02</internalNodes>
          <leafValues>
            3.8652935624122620e-01 -1.6233228147029877e-01</leafValues></_>
        <_>
          <internalNodes>
            0 -1 31 1.7990496754646301e-01</internalNodes>
          <leafValues>
            6.3997253775596619e-02 -9.1243690252304077e-01</leafValues></_>
        <_>
          <internalNodes>
            0 -1 32 -6.3376119360327721e-03</internalNodes>
          <leafValues>
            -5.1496016979217529e-01 9.4399236142635345e-02</leafValues></_>
        <_>
          <internalNodes>
            0 -1 29 -4.0501534938812256e-01</internalNodes>
          <leafValues>
            -5.5842739343643188e-01 9.8345406353473663e-02</leafValues></_>
        <_>
          <internalNodes>
            0 -1 109 2.3518746718764305e-02</internalNodes>
          <leafValues>
            -2.5255408883094788e-01 2.2744809091091156e-01</leafValues></_>
        <_>
          <internalNodes>
            0 -1 149 -2.1860878914594650e-02</internalNodes>
          <leafValues>
            4.1073361039161682e-01 -1.5340787172317505e-01</leafValues></_>
        <_>
          <internalNodes>
            0 -1 111 -2.5996654294431210e-03</internalNodes>
          <leafValues>
            2.7326023578643799e-01 -2.0485204458236694e-01</leafValues></_>
        <_>
          <internalNodes>
            0 -1 155 2.0896377973258495e-03</internalNodes>
          <leafValues>
            1.1170709133148193e-01 -4.0633803606033325e-01</leafValues></_>
        <_>
          <internalNodes>
            0 -1 175 1.6044495627284050e-02</internalNodes>
          <leafValues>
            -1.4742472767829895e-01 3.6798161268234253e-01</leafValues></_>
        <_>
          <internalNodes>
            0 -1 152 3.3693239092826843e-02</internalNodes>
          <leafValues>
            -1.1242588609457016e-01 4.7276011109352112e-01</leafValues></_>
        <_>
          <internalNodes>
            0 -1 19 -1.3492238940671086e-03</internalNodes>
          <leafValues>
            -3.5793954133987427e-01 1.4403715729713440e-01</leafValues></_>
        <_>
          <internalNodes>
            0 -1 7 5.1425671577453613e-01</internalNodes>
          <leafValues>
            9.7523100674152374e-02 -4.7264206409454346e-01</leafValues></_>
        <_>
          <internalNodes>
            0 -1 117 1.6638513654470444e-02</internalNodes>
          <leafValues>
            -2.1356205642223358e-01 3.1017908453941345e-01</leafValues></_>
        <_>
          <internalNodes>
            0 -1 22 -4.3073761463165283e-01</internalNodes>
          <leafValues>
            2.1350689232349396e-01 -2.3302486538887024e-01</leafValues></_>
        <_>
          <internalNodes>
            0 -1 113 8.0633070319890976e-03</internalNodes>
          <leafValues>
            -1.5893644094467163e-01 3.3971938490867615e-01</leafValues></_>
        <_>
          <internalNodes>
            0 -1 57 2.3999279364943504e-03</internalNodes>
          <leafValues>
            -1.9676516950130463e-01 2.6887458562850952e-01</leafValues></_>
        <_>
          <internalNodes>
            0 -1 34 7.3587000370025635e-02</internalNodes>
          <leafValues>
            7.1061298251152039e-02 -6.8580609560012817e-01</leafValues></_>
        <_>
          <internalNodes>
            0 -1 132 -5.2621483802795410e-01</internalNodes>
          <leafValues>
            -8.1870007514953613e-01 4.1661776602268219e-02</leafValues></_>
        <_>
          <internalNodes>
            0 -1 165 7.3566883802413940e-02</internalNodes>
          <leafValues>
            4.8441108316183090e-02 -7.1136975288391113e-01</leafValues></_>
        <_>
          <internalNodes>
            0 -1 13 3.9623551070690155e-02</internalNodes>
          <leafValues>
            4.8360429704189301e-02 -7.4224799871444702e-01</leafValues></_>
        <_>
          <internalNodes>
            0 -1 112 2.3021027445793152e-01</internalNodes>
          <leafValues>
            3.3555999398231506e-02 -9.2148810625076294e-01</leafValues></_>
        <_>
          <internalNodes>
            0 -1 171 -3.3712819218635559e-02</internalNodes>
          <leafValues>
            7.3053485155105591e-01 -7.0609904825687408e-02</leafValues></_>
        <_>
          <internalNodes>
            0 -1 158 -1.6144219040870667e-01</internalNodes>
          <leafValues>
            8.4888315200805664e-01 -4.3856494128704071e-02</leafValues></_>
        <_>
          <internalNodes>
            0 -1 124 -1.9849989563226700e-02</internalNodes>
          <leafValues>
            4.0739360451698303e-01 -1.0371837764978409e-01</leafValues></_></weakClassifiers></_>
    <!-- stage 6 -->
    <_>
      <maxWeakCount>30</maxWeakCount>
      <stageThreshold>-2.4187612533569336e+00</stageThreshold>
      <weakClassifiers>
        <_>
          <internalNodes>
            0 -1 95 -1.6866080462932587e-02</internalNodes>
          <leafValues>
            6.6878980398178101e-01 -8.3971226215362549e-01</leafValues></_>
        <_>
          <internalNodes>
            0 -1 59 -1.0559801012277603e-02</internalNodes>
          <leafValues>
            1.7775839567184448e-01 -5.3862905502319336e-01</leafValues></_>
        <_>
          <internalNodes>
            0 -1 97 -1.7406588792800903e-01</internalNodes>
          <leafValues>
            1.5929274260997772e-01 -4.9086982011795044e-01</leafValues></_>
        <_>
          <internalNodes>
            0 -1 107 4.7256243415176868e-03</internalNodes>
          <leafValues>
            -3.0928745865821838e-01 2.4068476259708405e-01</leafValues></_>
        <_>
          <internalNodes>
            0 -1 151 5.8865509927272797e-03</internalNodes>
          <leafValues>
            -2.4082548916339874e-01 3.4340068697929382e-01</leafValues></_>
        <_>
          <internalNodes>
            0 -1 183 6.9326226366683841e-04</internalNodes>
          <leafValues>
            -3.0434784293174744e-01 2.4500270187854767e-01</leafValues></_>
        <_>
          <internalNodes>
            0 -1 116 2.8498208150267601e-02</internalNodes>
          <leafValues>
            -1.2456982582807541e-01 6.5361273288726807e-01</leafValues></_>
        <_>
          <internalNodes>
            0 -1 2 -5.5945580825209618e-03</internalNodes>
          <leafValues>
            -4.5405957102775574e-01 1.3888804614543915e-01</leafValues></_>
        <_>
          <internalNodes>
            0 -1 49 -5.5855419486761093e-03</internalNodes>
          <leafValues>
            -3.5882556438446045e-01 1.7418818175792694e-01</leafValues></_>
        <_>
          <internalNodes>
            0 -1 141 -9.0299956500530243e-03</internalNodes>
          <leafValues>
            3.9261740446090698e-01 -1.5828905999660492e-01</leafValues></_>
        <_>
          <internalNodes>
            0 -1 128 -1.9914299249649048e-02</internalNodes>
          <leafValues>
            4.5033925771713257e-01 -1.3736900687217712e-01</leafValues></_>
        <_>
          <internalNodes>
            0 -1 91 -2.8737115208059549e-03</internalNodes>
          <leafValues>
            -4.4322896003723145e-01 1.3514713943004608e-01</leafValues></_>
        <_>
          <internalNodes>
            0 -1 101 -4.7734998166561127e-02</internalNodes>
          <leafValues>
            5.4743885993957520e-01 -1.4113157987594604e-01</leafValues></_>
        <_>
          <internalNodes>
            0 -1 83 -1.3143032789230347e-02</internalNodes>
          <leafValues>
            7.3160851001739502e-01 -8.4849379956722260e-02</leafValues></_>
        <_>
          <internalNodes>
            0 -1 142 3.0538843944668770e-02</internalNodes>
          <leafValues>
            -1.3035680353641510e-01 4.4249960780143738e-01</leafValues></_>
        <_>
          <internalNodes>
            0 -1 148 5.7453736662864685e-03</internalNodes>
          <leafValues>
            -2.4546158313751221e-01 2.2559452056884766e-01</leafValues></_>
        <_>
          <internalNodes>
            0 -1 126 -5.1341645419597626e-02</internalNodes>
          <leafValues>
            4.2281186580657959e-01 -1.4241714775562286e-01</leafValues></_>
        <_>
          <internalNodes>
            0 -1 144 -6.8980967625975609e-04</internalNodes>
          <leafValues>
            -3.3626171946525574e-01 2.0499560236930847e-01</leafValues></_>
        <_>
          <internalNodes>
            0 -1 110 1.8189895199611783e-03</internalNodes>
          <leafValues>
            -2.1899989247322083e-01 2.5066590309143066e-01</leafValues></_>
        <_>
          <internalNodes>
            0 -1 90 1.4154234528541565e-01</internalNodes>
          <leafValues>
            -1.1324182897806168e-01 5.3488475084304810e-01</leafValues></_>
        <_>
          <internalNodes>
            0 -1 177 -4.5571406371891499e-03</internalNodes>
          <leafValues>
            4.9615579843521118e-01 -1.0149050503969193e-01</leafValues></_>
        <_>
          <internalNodes>
            0 -1 170 8.7892469018697739e-03</internalNodes>
          <leafValues>
            -2.2694480419158936e-01 2.2892102599143982e-01</leafValues></_>
        <_>
          <internalNodes>
            0 -1 152 -2.7466949075460434e-02</internalNodes>
          <leafValues>
            5.3830480575561523e-01 -1.1124680191278458e-01</leafValues></_>
        <_>
          <internalNodes>
            0 -1 125 -3.2513579353690147e-03</internalNodes>
          <leafValues>
            -3.1359004974365234e-01 1.8155343830585480e-01</leafValues></_>
        <_>
          <internalNodes>
            0 -1 44 -6.9480578531511128e-05</internalNodes>
          <leafValues>
            1.7012074589729309e-01 -3.2499739527702332e-01</leafValues></_>
        <_>
          <internalNodes>
            0 -1 168 4.8250155523419380e-03</internalNodes>
          <leafValues>
            -1.2617121636867523e-01 4.4141867756843567e-01</leafValues></_>
        <_>
          <internalNodes>
            0 -1 174 8.4303636103868484e-03</internalNodes>
          <leafValues>
            -2.1202538907527924e-01 2.9674467444419861e-01</leafValues></_>
        <_>
          <internalNodes>
            0 -1 131 2.4513971060514450e-02</internalNodes>
          <leafValues>
            -1.3910514116287231e-01 3.9787152409553528e-01</leafValues></_>
        <_>
          <internalNodes>
            0 -1 24 3.6242034286260605e-02</internalNodes>
          <leafValues>
            6.3208907842636108e-02 -9.3989902734756470e-01</leafValues></_>
        <_>
          <internalNodes>
            0 -1 120 8.5058119148015976e-03</internalNodes>
          <leafValues>
            -1.4722226560115814e-01 3.5976940393447876e-01</leafValues></_></weakClassifiers></_>
    <!-- stage 7 -->
    <_>
      <maxWeakCount>32</maxWeakCount>
      <stageThreshold>-2.3601732254028320e+00</stageThreshold>
      <weakClassifiers>
        <_>
          <internalNodes>
            0 -1 56 -1.1611655354499817e-02</internalNodes>
          <leafValues>
            1. -8.3857327699661255e-01</leafValues></_>
        <_>
          <internalNodes>
            0 -1 55 1.7115343362092972e-02</internalNodes>
          <leafValues>
            -5.8127522468566895e-01 5.5579371750354767e-02</leafValues></_>
        <_>
          <internalNodes>
            0 -1 20 6.3303813338279724e-02</internalNodes>
          <leafValues>
            -2.3707608878612518e-01 4.7763171792030334e-01</leafValues></_>
        <_>
          <internalNodes>
            0 -1 108 2.5925727561116219e-02</internalNodes>
          <leafValues>
            -1.1028419435024261e-01 7.0549094676971436e-01</leafValues></_>
        <_>
          <internalNodes>
            0 -1 186 8.8784325635060668e-04</internalNodes>
          <leafValues>
            -3.0792558193206787e-01 2.5123980641365051e-01</leafValues></_>
        <_>
          <internalNodes>
            0 -1 24 -7.0587005466222763e-03</internalNodes>
          <leafValues>
            -3.4980288147926331e-01 2.0796625316143036e-01</leafValues></_>
        <_>
          <internalNodes>
            0 -1 179 2.8985036537051201e-02</internalNodes>
          <leafValues>
            -8.9697524905204773e-02 6.9940811395645142e-01</leafValues></_>
        <_>
          <internalNodes>
            0 -1 23 5.5980261415243149e-02</internalNodes>
          <leafValues>
            -1.7043881118297577e-01 4.1342917084693909e-01</leafValues></_>
        <_>
          <internalNodes>
            0 -1 7 5.4343104362487793e-01</internalNodes>
          <leafValues>
            1.5138657391071320e-01 -5.3928411006927490e-01</leafValues></_>
        <_>
          <internalNodes>
            0 -1 169 -3.5007704049348831e-02</internalNodes>
          <leafValues>
            6.3009417057037354e-01 -1.4491178095340729e-01</leafValues></_>
        <_>
          <internalNodes>
            0 -1 4 2.2811982035636902e-01</internalNodes>
          <leafValues>
            -2.9096436500549316e-01 2.4832478165626526e-01</leafValues></_>
        <_>
          <internalNodes>
            0 -1 75 3.0165586620569229e-02</internalNodes>
          <leafValues>
            -9.5420591533184052e-02 5.6389552354812622e-01</leafValues></_>
        <_>
          <internalNodes>
            0 -1 138 -4.3389722704887390e-02</internalNodes>
          <leafValues>
            7.9690331220626831e-01 -6.4144708216190338e-02</leafValues></_>
        <_>
          <internalNodes>
            0 -1 61 -1.2757253833115101e-02</internalNodes>
          <leafValues>
            3.9456599950790405e-01 -1.5627069771289825e-01</leafValues></_>
        <_>
          <internalNodes>
            0 -1 127 -2.7485591173171997e-01</internalNodes>
          <leafValues>
            -6.1934196949005127e-01 1.1910557746887207e-01</leafValues></_>
        <_>
          <internalNodes>
            0 -1 150 1.1221930384635925e-02</internalNodes>
          <leafValues>
            -2.0491681993007660e-01 3.8746783137321472e-01</leafValues></_>
        <_>
          <internalNodes>
            0 -1 64 2.0105926692485809e-01</internalNodes>
          <leafValues>
            1.0504135489463806e-01 -6.0951590538024902e-01</leafValues></_>
        <_>
          <internalNodes>
            0 -1 89 -1.0773825924843550e-03</internalNodes>
          <leafValues>
            -5.7410168647766113e-01 9.8734863102436066e-02</leafValues></_>
        <_>
          <internalNodes>
            0 -1 76 -2.9291667044162750e-02</internalNodes>
          <leafValues>
            9.2129516601562500e-01 -7.1944355964660645e-02</leafValues></_>
        <_>
          <internalNodes>
            0 -1 37 -3.6160685122013092e-02</internalNodes>
          <leafValues>
            -6.5045589208602905e-01 9.3850128352642059e-02</leafValues></_>
        <_>
          <internalNodes>
            0 -1 25 1.5482448041439056e-01</internalNodes>
          <leafValues>
            7.8326657414436340e-02 -6.9780200719833374e-01</leafValues></_>
        <_>
          <internalNodes>
            0 -1 115 6.2329065799713135e-01</internalNodes>
          <leafValues>
            5.5374071002006531e-02 -7.6736944913864136e-01</leafValues></_>
        <_>
          <internalNodes>
            0 -1 27 -1.2119318544864655e-01</internalNodes>
          <leafValues>
            -7.6142907142639160e-01 7.1811355650424957e-02</leafValues></_>
        <_>
          <internalNodes>
            0 -1 51 -5.7558190822601318e-01</internalNodes>
          <leafValues>
            -7.4229770898818970e-01 5.9683058410882950e-02</leafValues></_>
        <_>
          <internalNodes>
            0 -1 136 1.3555492460727692e-01</internalNodes>
          <leafValues>
            -1.0446117818355560e-01 5.8402562141418457e-01</leafValues></_>
        <_>
          <internalNodes>
            0 -1 93 -1.1137899011373520e-02</internalNodes>
          <leafValues>
            5.3478610515594482e-01 -1.0566516965627670e-01</leafValues></_>
        <_>
          <internalNodes>
            0 -1 160 1.3001177459955215e-02</internalNodes>
          <leafValues>
            -1.5011112391948700e-01 4.7255799174308777e-01</leafValues></_>
        <_>
          <internalNodes>
            0 -1 120 -2.1510515362024307e-02</internalNodes>
          <leafValues>
            5.7966554164886475e-01 -1.2333727627992630e-01</leafValues></_>
        <_>
          <internalNodes>
            0 -1 82 3.6952629685401917e-02</internalNodes>
          <leafValues>
            -2.2377027571201324e-01 2.8510645031929016e-01</leafValues></_>
        <_>
          <internalNodes>
            0 -1 188 -4.1845827363431454e-03</internalNodes>
          <leafValues>
            -3.5158294439315796e-01 1.9308120012283325e-01</leafValues></_>
        <_>
          <internalNodes>
            0 -1 65 4.0890347957611084e-01</internalNodes>
          <leafValues>
            1.0053252428770065e-01 -5.6959712505340576e-01</leafValues></_>
        <_>
          <internalNodes>
            0 -1 145 1.4737702906131744e-02</internalNodes>
          <leafValues>
            -2.4474650621414185e-01 3.2840159535408020e-01</leafValues></_></weakClassifiers></_>
    <!-- stage 8 -->
    <_>
      <maxWeakCount>22</maxWeakCount>
      <stageThreshold>-2.5900173187255859e+00</stageThreshold>
      <weakClassifiers>
        <_>
          <internalNodes>
            0 -1 69 2.5502204895019531e-02</internalNodes>
          <leafValues>
            -8.4962546825408936e-01 1.</leafValues></_>
        <_>
          <internalNodes>
            0 -1 36 -7.6913442462682724e-03</internalNodes>
          <leafValues>
            3.8544443249702454e-01 -5.8616942167282104e-01</leafValues></_>
        <_>
          <internalNodes>
            0 -1 74 -4.6920505166053772e-01</internalNodes>
          <leafValues>
            4.1827544569969177e-01 -3.6364457011222839e-01</leafValues></_>
        <_>
          <internalNodes>
            0 -1 2 -2.8371245134621859e-03</internalNodes>
          <leafValues>
            -4.6622008085250854e-01 3.0099698901176453e-01</leafValues></_>
        <_>
          <internalNodes>
            0 -1 178 1.1661216616630554e-02</internalNodes>
          <leafValues>
            -2.0332770049571991e-01 6.0033392906188965e-01</leafValues></_>
        <_>
          <internalNodes>
            0 -1 0 1.2832449283450842e-03</internalNodes>
          <leafValues>
            2.2648310661315918e-01 -4.8399004340171814e-01</leafValues></_>
        <_>
          <internalNodes>
            0 -1 68 6.1334823258221149e-03</internalNodes>
          <leafValues>
            -1.3871788978576660e-01 6.8218892812728882e-01</leafValues></_>
        <_>
          <internalNodes>
            0 -1 135 1.7739746719598770e-02</internalNodes>
          <leafValues>
            -9.1583333909511566e-02 8.6546462774276733e-01</leafValues></_>
        <_>
          <internalNodes>
            0 -1 88 -1.6171694733202457e-03</internalNodes>
          <leafValues>
            4.2051514983177185e-01 -2.1470908820629120e-01</leafValues></_>
        <_>
          <internalNodes>
            0 -1 167 2.4894616217352450e-04</internalNodes>
          <leafValues>
            -3.1026634573936462e-01 3.6390179395675659e-01</leafValues></_>
        <_>
          <internalNodes>
            0 -1 58 -1.8940457084681839e-04</internalNodes>
          <leafValues>
            -1.8900449573993683e-01 4.6971648931503296e-01</leafValues></_>
        <_>
          <internalNodes>
            0 -1 133 7.6034571975469589e-05</internalNodes>
          <leafValues>
            -2.7946612238883972e-01 3.9543527364730835e-01</leafValues></_>
        <_>
          <internalNodes>
            0 -1 185 -3.1357207335531712e-03</internalNodes>
          <leafValues>
            -4.7468516230583191e-01 2.4470017850399017e-01</leafValues></_>
        <_>
          <internalNodes>
            0 -1 38 -2.2130385041236877e-03</internalNodes>
          <leafValues>
            3.9799132943153381e-01 -2.8126671910285950e-01</leafValues></_>
        <_>
          <internalNodes>
            0 -1 173 1.6089612618088722e-02</internalNodes>
          <leafValues>
            -2.3643897473812103e-01 3.9269384741783142e-01</leafValues></_>
        <_>
          <internalNodes>
            0 -1 14 3.3208405971527100e-01</internalNodes>
          <leafValues>
            -1.0400789231061935e-01 1.</leafValues></_>
        <_>
          <internalNodes>
            0 -1 154 -3.1957738101482391e-02</internalNodes>
          <leafValues>
            7.4695354700088501e-01 -1.0850772261619568e-01</leafValues></_>
        <_>
          <internalNodes>
            0 -1 102 2.4433437734842300e-02</internalNodes>
          <leafValues>
            -2.0390576124191284e-01 5.2106422185897827e-01</leafValues></_>
        <_>
          <internalNodes>
            0 -1 54 -2.2191826254129410e-02</internalNodes>
          <leafValues>
            5.4279124736785889e-01 -2.0497949421405792e-01</leafValues></_>
        <_>
          <internalNodes>
            0 -1 137 -1.3350768014788628e-02</internalNodes>
          <leafValues>
            5.9319674968719482e-01 -1.4875231683254242e-01</leafValues></_>
        <_>
          <internalNodes>
            0 -1 14 -2.8440002351999283e-02</internalNodes>
          <leafValues>
            5.2495092153549194e-01 -1.9296225905418396e-01</leafValues></_>
        <_>
          <internalNodes>
            0 -1 181 -3.9249332621693611e-03</internalNodes>
          <leafValues>
            4.9213773012161255e-01 -2.2099739313125610e-01</leafValues></_></weakClassifiers></_></stages>
  <features>
    <_>
      <rects>
        <_>
          0 0 1 3 -1.</_>
        <_>
          0 1 1 1 3.</_></rects>
      <tilted>0</tilted></_>
    <_>
      <rects>
        <_>
          0 0 4 1 -1.</_>
        <_>
          2 0 2 1 2.</_></rects>
      <tilted>0</tilted></_>
    <_>
      <rects>
        <_>
          0 0 6 1 -1.</_>
        <_>
          2 0 2 1 3.</_></rects>
      <tilted>0</tilted></_>
    <_>
      <rects>
        <_>
          0 0 12 1 -1.</_>
        <_>
          3 0 6 1 2.</_></rects>
      <tilted>0</tilted></_>
    <_>
      <rects>
        <_>
          0 0 12 8 -1.</_>
        <_>
          3 0 6 8 2.</_></rects>
      <tilted>0</tilted></_>
    <_>
      <rects>
        <_>
          0 0 12 10 -1.</_>
        <_>
          3 0 6 10 2.</_></rects>
      <tilted>0</tilted></_>
    <_>
      <rects>
        <_>
          0 0 6 12 -1.</_>
        <_>
          3 0 3 12 2.</_></rects>
      <tilted>0</tilted></_>
    <_>
      <rects>
        <_>
          0 0 12 9 -1.</_>
        <_>
          4 0 4 9 3.</_></rects>
      <tilted>0</tilted></_>
    <_>
      <rects>
        <_>
          0 0 12 10 -1.</_>
        <_>
          4 0 4 10 3.</_></rects>
      <tilted>0</tilted></_>
    <_>
      <rects>
        <_>
          0 0 8 11 -1.</_>
        <_>
          4 0 4 11 2.</_></rects>
      <tilted>0</tilted></_>
    <_>
      <rects>
        <_>
          0 0 12 11 -1.</_>
        <_>
          4 0 4 11 3.</_></rects>
      <tilted>0</tilted></_>
    <_>
      <rects>
        <_>
          0 0 12 2 -1.</_>
        <_>
          6 0 6 2 2.</_></rects>
      <tilted>0</tilted></_>
    <_>
      <rects>
        <_>
          0 0 12 12 -1.</_>
        <_>
          0 0 6 6 2.</_>
        <_>
          6 6 6 6 2.</_></rects>
      <tilted>0</tilted></_>
    <_>
      <rects>
        <_>
          0 1 1 6 -1.</_>
        <_>
          0 4 1 3 2.</_></rects>
      <tilted>0</tilted></_>
    <_>
      <rects>
        <_>
          0 1 6 6 -1.</_>
        <_>
          2 3 2 2 9.</_></rects>
      <tilted>0</tilted></_>
    <_>
      <rects>
        <_>
          0 1 12 10 -1.</_>
        <_>
          0 1 6 5 2.</_>
        <_>
          6 6 6 5 2.</_></rects>
      <tilted>0</tilted></_>
    <_>
      <rects>
        <_>
          0 2 1 4 -1.</_>
        <_>
          0 4 1 2 2.</_></rects>
      <tilted>0</tilted></_>
    <_>
      <rects>
        <_>
          0 2 1 8 -1.</_>
        <_>
          0 6 1 4 2.</_></rects>
      <tilted>0</tilted></_>
    <_>
      <rects>
        <_>
          0 2 1 10 -1.</_>
        <_>
          0 7 1 5 2.</_></rects>
      <tilted>0</tilted></_>
    <_>
      <rects>
        <_>
          0 2 2 2 -1.</_>
        <_>
          0 3 2 1 2.</_></rects>
      <tilted>0</tilted></_>
    <_>
      <rects>
        <_>
          0 2 12 1 -1.</_>
        <_>
          3 2 6 1 2.</_></rects>
      <tilted>0</tilted></_>
    <_>
      <rects>
        <_>
          0 2 12 3 -1.</_>
        <_>
          3 2 6 3 2.</_></rects>
      <tilted>0</tilted></_>
    <_>
      <rects>
        <_>
          0 2 12 10 -1.</_>
        <_>
          0 7 12 5 2.</_></rects>
      <tilted>0</tilted></_>
    <_>
      <rects>
        <_>
          0 3 9 4 -1.</_>
        <_>
          0 4 9 2 2.</_></rects>
      <tilted>0</tilted></_>
    <_>
      <rects>
        <_>
          0 4 1 6 -1.</_>
        <_>
          0 7 1 3 2.</_></rects>
      <tilted>0</tilted></_>
    <_>
      <rects>
        <_>
          0 4 4 8 -1.</_>
        <_>
          2 4 2 8 2.</_></rects>
      <tilted>0</tilted></_>
    <_>
      <rects>
        <_>
          0 4 12 8 -1.</_>
        <_>
          0 8 12 4 2.</_></rects>
      <tilted>0</tilted></_>
    <_>
      <rects>
        <_>
          0 5 12 5 -1.</_>
        <_>
          4 5 4 5 3.</_></rects>
      <tilted>0</tilted></_>
    <_>
      <rects>
        <_>
          0 5 12 7 -1.</_>
        <_>
          6 5 6 7 2.</_></rects>
      <tilted>0</tilted></_>
    <_>
      <rects>
        <_>
          0 5 12 6 -1.</_>
        <_>
          0 8 12 3 2.</_></rects>
      <tilted>0</tilted></_>
    <_>
      <rects>
        <_>
          0 6 12 6 -1.</_>
        <_>
          6 6 6 6 2.</_></rects>
      <tilted>0</tilted></_>
    <_>
      <rects>
        <_>
          0 7 8 4 -1.</_>
        <_>
          4 7 4 4 2.</_></rects>
      <tilted>0</tilted></_>
    <_>
      <rects>
        <_>
          0 8 1 4 -1.</_>
        <_>
          0 10 1 2 2.</_></rects>
      <tilted>0</tilted></_>
    <_>
      <rects>
        <_>
          0 8 2 4 -1.</_>
        <_>
          0 10 2 2 2.</_></rects>
      <tilted>0</tilted></_>
    <_>
      <rects>
        <_>
          0 8 6 2 -1.</_>
        <_>
          3 8 3 2 2.</_></rects>
      <tilted>0</tilted></_>
    <_>
      <rects>
        <_>
          0 8 11 4 -1.</_>
        <_>
          0 10 11 2 2.</_></rects>
      <tilted>0</tilted></_>
    <_>
      <rects>
        <_>
          0 9 4 2 -1.</_>
        <_>
          0 9 2 1 2.</_>
        <_>
          2 10 2 1 2.</_></rects>
      <tilted>0</tilted></_>
    <_>
      <rects>
        <_>
          0 9 6 2 -1.</_>
        <_>
          2 9 2 2 3.</_></rects>
      <tilted>0</tilted></_>
    <_>
      <rects>
        <_>
          0 9 12 2 -1.</_>
        <_>
          0 9 6 1 2.</_>
        <_>
          6 10 6 1 2.</_></rects>
      <tilted>0</tilted></_>
    <_>
      <rects>
        <_>
          0 10 2 1 -1.</_>
        <_>
          1 10 1 1 2.</_></rects>
      <tilted>0</tilted></_>
    <_>
      <rects>
        <_>
          0 10 1 2 -1.</_>
        <_>
          0 11 1 1 2.</_></rects>
      <tilted>0</tilted></_>
    <_>
      <rects>
        <_>
          0 10 2 2 -1.</_>
        <_>
          0 11 2 1 2.</_></rects>
      <tilted>0</tilted></_>
    <_>
      <rects>
        <_>
          0 10 12 2 -1.</_>
        <_>
          3 10 6 2 2.</_></rects>
      <tilted>0</tilted></_>
    <_>
      <rects>
        <_>
          0 10 8 1 -1.</_>
        <_>
          4 10 4 1 2.</_></rects>
      <tilted>0</tilted></_>
    <_>
      <rects>
        <_>
          0 11 2 1 -1.</_>
        <_>
          1 11 1 1 2.</_></rects>
      <tilted>0</tilted></_>
    <_>
      <rects>
        <_>
          0 11 4 1 -1.</_>
        <_>
          2 11 2 1 2.</_></rects>
      <tilted>0</tilted></_>
    <_>
      <rects>
        <_>
          0 11 6 1 -1.</_>
        <_>
          3 11 3 1 2.</_></rects>
      <tilted>0</tilted></_>
    <_>
      <rects>
        <_>
          1 0 2 2 -1.</_>
        <_>
          2 0 1 2 2.</_></rects>
      <tilted>0</tilted></_>
    <_>
      <rects>
        <_>
          1 0 6 1 -1.</_>
        <_>
          4 0 3 1 2.</_></rects>
      <tilted>0</tilted></_>
    <_>
      <rects>
        <_>
          1 0 10 1 -1.</_>
        <_>
          6 0 5 1 2.</_></rects>
      <tilted>0</tilted></_>
    <_>
      <rects>
        <_>
          1 0 9 9 -1.</_>
        <_>
          1 3 9 3 3.</_></rects>
      <tilted>0</tilted></_>
    <_>
      <rects>
        <_>
          1 2 10 8 -1.</_>
        <_>
          1 6 10 4 2.</_></rects>
      <tilted>0</tilted></_>
    <_>
      <rects>
        <_>
          1 3 5 8 -1.</_>
        <_>
          1 7 5 4 2.</_></rects>
      <tilted>0</tilted></_>
    <_>
      <rects>
        <_>
          1 3 8 3 -1.</_>
        <_>
          1 4 8 1 3.</_></rects>
      <tilted>0</tilted></_>
    <_>
      <rects>
        <_>
          1 4 7 2 -1.</_>
        <_>
          1 5 7 1 2.</_></rects>
      <tilted>0</tilted></_>
    <_>
      <rects>
        <_>
          1 5 3 3 -1.</_>
        <_>
          2 6 1 1 9.</_></rects>
      <tilted>0</tilted></_>
    <_>
      <rects>
        <_>
          1 6 2 1 -1.</_>
        <_>
          2 6 1 1 2.</_></rects>
      <tilted>0</tilted></_>
    <_>
      <rects>
        <_>
          1 9 4 1 -1.</_>
        <_>
          3 9 2 1 2.</_></rects>
      <tilted>0</tilted></_>
    <_>
      <rects>
        <_>
          1 9 2 2 -1.</_>
        <_>
          1 10 2 1 2.</_></rects>
      <tilted>0</tilted></_>
    <_>
      <rects>
        <_>
          1 10 6 2 -1.</_>
        <_>
          1 10 3 1 2.</_>
        <_>
          4 11 3 1 2.</_></rects>
      <tilted>0</tilted></_>
    <_>
      <rects>
        <_>
          1 11 4 1 -1.</_>
        <_>
          3 11 2 1 2.</_></rects>
      <tilted>0</tilted></_>
    <_>
      <rects>
        <_>
          2 0 3 11 -1.</_>
        <_>
          3 0 1 11 3.</_></rects>
      <tilted>0</tilted></_>
    <_>
      <rects>
        <_>
          2 0 4 1 -1.</_>
        <_>
          4 0 2 1 2.</_></rects>
      <tilted>0</tilted></_>
    <_>
      <rects>
        <_>
          2 0 6 1 -1.</_>
        <_>
          5 0 3 1 2.</_></rects>
      <tilted>0</tilted></_>
    <_>
      <rects>
        <_>
          2 0 6 10 -1.</_>
        <_>
          5 0 3 10 2.</_></rects>
      <tilted>0</tilted></_>
    <_>
      <rects>
        <_>
          2 0 9 12 -1.</_>
        <_>
          5 0 3 12 3.</_></rects>
      <tilted>0</tilted></_>
    <_>
      <rects>
        <_>
          2 0 10 12 -1.</_>
        <_>
          7 0 5 12 2.</_></rects>
      <tilted>0</tilted></_>
    <_>
      <rects>
        <_>
          2 0 7 3 -1.</_>
        <_>
          2 1 7 1 3.</_></rects>
      <tilted>0</tilted></_>
    <_>
      <rects>
        <_>
          2 1 2 2 -1.</_>
        <_>
          2 1 1 1 2.</_>
        <_>
          3 2 1 1 2.</_></rects>
      <tilted>0</tilted></_>
    <_>
      <rects>
        <_>
          2 1 4 2 -1.</_>
        <_>
          2 1 2 1 2.</_>
        <_>
          4 2 2 1 2.</_></rects>
      <tilted>0</tilted></_>
    <_>
      <rects>
        <_>
          2 1 9 3 -1.</_>
        <_>
          5 2 3 1 9.</_></rects>
      <tilted>0</tilted></_>
    <_>
      <rects>
        <_>
          2 2 3 10 -1.</_>
        <_>
          3 2 1 10 3.</_></rects>
      <tilted>0</tilted></_>
    <_>
      <rects>
        <_>
          2 2 6 6 -1.</_>
        <_>
          4 2 2 6 3.</_></rects>
      <tilted>0</tilted></_>
    <_>
      <rects>
        <_>
          2 2 8 10 -1.</_>
        <_>
          2 7 8 5 2.</_></rects>
      <tilted>0</tilted></_>
    <_>
      <rects>
        <_>
          2 2 9 10 -1.</_>
        <_>
          2 7 9 5 2.</_></rects>
      <tilted>0</tilted></_>
    <_>
      <rects>
        <_>
          2 3 3 6 -1.</_>
        <_>
          3 3 1 6 3.</_></rects>
      <tilted>0</tilted></_>
    <_>
      <rects>
        <_>
          2 3 6 2 -1.</_>
        <_>
          2 3 3 1 2.</_>
        <_>
          5 4 3 1 2.</_></rects>
      <tilted>0</tilted></_>
    <_>
      <rects>
        <_>
          2 3 4 3 -1.</_>
        <_>
          2 4 4 1 3.</_></rects>
      <tilted>0</tilted></_>
    <_>
      <rects>
        <_>
          2 3 10 8 -1.</_>
        <_>
          2 7 10 4 2.</_></rects>
      <tilted>0</tilted></_>
    <_>
      <rects>
        <_>
          2 4 3 6 -1.</_>
        <_>
          3 6 1 2 9.</_></rects>
      <tilted>0</tilted></_>
    <_>
      <rects>
        <_>
          2 4 9 8 -1.</_>
        <_>
          2 8 9 4 2.</_></rects>
      <tilted>0</tilted></_>
    <_>
      <rects>
        <_>
          2 5 3 3 -1.</_>
        <_>
          3 6 1 1 9.</_></rects>
      <tilted>0</tilted></_>
    <_>
      <rects>
        <_>
          2 5 6 3 -1.</_>
        <_>
          4 6 2 1 9.</_></rects>
      <tilted>0</tilted></_>
    <_>
      <rects>
        <_>
          2 6 3 1 -1.</_>
        <_>
          3 6 1 1 3.</_></rects>
      <tilted>0</tilted></_>
    <_>
      <rects>
        <_>
          2 6 10 6 -1.</_>
        <_>
          2 9 10 3 2.</_></rects>
      <tilted>0</tilted></_>
    <_>
      <rects>
        <_>
          2 7 10 5 -1.</_>
        <_>
          7 7 5 5 2.</_></rects>
      <tilted>0</tilted></_>
    <_>
      <rects>
        <_>
          2 7 8 4 -1.</_>
        <_>
          2 9 8 2 2.</_></rects>
      <tilted>0</tilted></_>
    <_>
      <rects>
        <_>
          2 9 6 3 -1.</_>
        <_>
          4 10 2 1 9.</_></rects>
      <tilted>0</tilted></_>
    <_>
      <rects>
        <_>
          2 10 8 1 -1.</_>
        <_>
          6 10 4 1 2.</_></rects>
      <tilted>0</tilted></_>
    <_>
      <rects>
        <_>
          3 0 2 1 -1.</_>
        <_>
          4 0 1 1 2.</_></rects>
      <tilted>0</tilted></_>
    <_>
      <rects>
        <_>
          3 0 3 6 -1.</_>
        <_>
          4 2 1 2 9.</_></rects>
      <tilted>0</tilted></_>
    <_>
      <rects>
        <_>
          3 0 6 1 -1.</_>
        <_>
          5 0 2 1 3.</_></rects>
      <tilted>0</tilted></_>
    <_>
      <rects>
        <_>
          3 0 8 10 -1.</_>
        <_>
          3 0 4 5 2.</_>
        <_>
          7 5 4 5 2.</_></rects>
      <tilted>0</tilted></_>
    <_>
      <rects>
        <_>
          3 1 4 2 -1.</_>
        <_>
          3 1 2 1 2.</_>
        <_>
          5 2 2 1 2.</_></rects>
      <tilted>0</tilted></_>
    <_>
      <rects>
        <_>
          3 1 6 3 -1.</_>
        <_>
          5 2 2 1 9.</_></rects>
      <tilted>0</tilted></_>
    <_>
      <rects>
        <_>
          3 2 2 2 -1.</_>
        <_>
          3 2 1 1 2.</_>
        <_>
          4 3 1 1 2.</_></rects>
      <tilted>0</tilted></_>
    <_>
      <rects>
        <_>
          3 2 4 4 -1.</_>
        <_>
          3 2 2 2 2.</_>
        <_>
          5 4 2 2 2.</_></rects>
      <tilted>0</tilted></_>
    <_>
      <rects>
        <_>
          3 2 5 10 -1.</_>
        <_>
          3 7 5 5 2.</_></rects>
      <tilted>0</tilted></_>
    <_>
      <rects>
        <_>
          3 2 6 10 -1.</_>
        <_>
          3 7 6 5 2.</_></rects>
      <tilted>0</tilted></_>
    <_>
      <rects>
        <_>
          3 3 3 6 -1.</_>
        <_>
          4 3 1 6 3.</_></rects>
      <tilted>0</tilted></_>
    <_>
      <rects>
        <_>
          3 3 6 3 -1.</_>
        <_>
          5 4 2 1 9.</_></rects>
      <tilted>0</tilted></_>
    <_>
      <rects>
        <_>
          3 4 6 8 -1.</_>
        <_>
          5 4 2 8 3.</_></rects>
      <tilted>0</tilted></_>
    <_>
      <rects>
        <_>
          3 4 6 3 -1.</_>
        <_>
          3 5 6 1 3.</_></rects>
      <tilted>0</tilted></_>
    <_>
      <rects>
        <_>
          3 5 3 3 -1.</_>
        <_>
          4 5 1 3 3.</_></rects>
      <tilted>0</tilted></_>
    <_>
      <rects>
        <_>
          3 5 3 4 -1.</_>
        <_>
          4 5 1 4 3.</_></rects>
      <tilted>0</tilted></_>
    <_>
      <rects>
        <_>
          3 5 4 4 -1.</_>
        <_>
          4 5 2 4 2.</_></rects>
      <tilted>0</tilted></_>
    <_>
      <rects>
        <_>
          3 5 4 6 -1.</_>
        <_>
          4 5 2 6 2.</_></rects>
      <tilted>0</tilted></_>
    <_>
      <rects>
        <_>
          3 6 3 3 -1.</_>
        <_>
          4 7 1 1 9.</_></rects>
      <tilted>0</tilted></_>
    <_>
      <rects>
        <_>
          3 6 3 4 -1.</_>
        <_>
          4 6 1 4 3.</_></rects>
      <tilted>0</tilted></_>
    <_>
      <rects>
        <_>
          3 6 6 3 -1.</_>
        <_>
          5 7 2 1 9.</_></rects>
      <tilted>0</tilted></_>
    <_>
      <rects>
        <_>
          3 7 1 4 -1.</_>
        <_>
          3 8 1 2 2.</_></rects>
      <tilted>0</tilted></_>
    <_>
      <rects>
        <_>
          3 7 4 3 -1.</_>
        <_>
          5 7 2 3 2.</_></rects>
      <tilted>0</tilted></_>
    <_>
      <rects>
        <_>
          3 8 9 3 -1.</_>
        <_>
          6 9 3 1 9.</_></rects>
      <tilted>0</tilted></_>
    <_>
      <rects>
        <_>
          4 0 2 12 -1.</_>
        <_>
          4 0 1 6 2.</_>
        <_>
          5 6 1 6 2.</_></rects>
      <tilted>0</tilted></_>
    <_>
      <rects>
        <_>
          4 0 8 12 -1.</_>
        <_>
          8 0 4 12 2.</_></rects>
      <tilted>0</tilted></_>
    <_>
      <rects>
        <_>
          4 0 7 12 -1.</_>
        <_>
          4 3 7 6 2.</_></rects>
      <tilted>0</tilted></_>
    <_>
      <rects>
        <_>
          4 1 3 5 -1.</_>
        <_>
          5 1 1 5 3.</_></rects>
      <tilted>0</tilted></_>
    <_>
      <rects>
        <_>
          4 1 4 5 -1.</_>
        <_>
          5 1 2 5 2.</_></rects>
      <tilted>0</tilted></_>
    <_>
      <rects>
        <_>
          4 1 4 6 -1.</_>
        <_>
          5 1 2 6 2.</_></rects>
      <tilted>0</tilted></_>
    <_>
      <rects>
        <_>
          4 1 6 3 -1.</_>
        <_>
          6 2 2 1 9.</_></rects>
      <tilted>0</tilted></_>
    <_>
      <rects>
        <_>
          4 2 2 10 -1.</_>
        <_>
          4 2 1 5 2.</_>
        <_>
          5 7 1 5 2.</_></rects>
      <tilted>0</tilted></_>
    <_>
      <rects>
        <_>
          4 2 2 8 -1.</_>
        <_>
          5 2 1 8 2.</_></rects>
      <tilted>0</tilted></_>
    <_>
      <rects>
        <_>
          4 2 3 8 -1.</_>
        <_>
          5 2 1 8 3.</_></rects>
      <tilted>0</tilted></_>
    <_>
      <rects>
        <_>
          4 2 4 8 -1.</_>
        <_>
          5 2 2 8 2.</_></rects>
      <tilted>0</tilted></_>
    <_>
      <rects>
        <_>
          4 2 3 9 -1.</_>
        <_>
          5 2 1 9 3.</_></rects>
      <tilted>0</tilted></_>
    <_>
      <rects>
        <_>
          4 2 4 1 -1.</_>
        <_>
          6 2 2 1 2.</_></rects>
      <tilted>0</tilted></_>
    <_>
      <rects>
        <_>
          4 2 6 8 -1.</_>
        <_>
          6 2 2 8 3.</_></rects>
      <tilted>0</tilted></_>
    <_>
      <rects>
        <_>
          4 2 8 7 -1.</_>
        <_>
          8 2 4 7 2.</_></rects>
      <tilted>0</tilted></_>
    <_>
      <rects>
        <_>
          4 2 5 3 -1.</_>
        <_>
          4 3 5 1 3.</_></rects>
      <tilted>0</tilted></_>
    <_>
      <rects>
        <_>
          4 3 5 3 -1.</_>
        <_>
          4 4 5 1 3.</_></rects>
      <tilted>0</tilted></_>
    <_>
      <rects>
        <_>
          4 4 4 4 -1.</_>
        <_>
          5 4 2 4 2.</_></rects>
      <tilted>0</tilted></_>
    <_>
      <rects>
        <_>
          4 4 4 3 -1.</_>
        <_>
          4 5 4 1 3.</_></rects>
      <tilted>0</tilted></_>
    <_>
      <rects>
        <_>
          4 4 7 8 -1.</_>
        <_>
          4 8 7 4 2.</_></rects>
      <tilted>0</tilted></_>
    <_>
      <rects>
        <_>
          4 7 1 4 -1.</_>
        <_>
          4 8 1 2 2.</_></rects>
      <tilted>0</tilted></_>
    <_>
      <rects>
        <_>
          4 8 8 4 -1.</_>
        <_>
          8 8 4 4 2.</_></rects>
      <tilted>0</tilted></_>
    <_>
      <rects>
        <_>
          4 9 6 2 -1.</_>
        <_>
          4 9 3 1 2.</_>
        <_>
          7 10 3 1 2.</_></rects>
      <tilted>0</tilted></_>
    <_>
      <rects>
        <_>
          5 0 3 6 -1.</_>
        <_>
          6 2 1 2 9.</_></rects>
      <tilted>0</tilted></_>
    <_>
      <rects>
        <_>
          5 1 3 8 -1.</_>
        <_>
          6 1 1 8 3.</_></rects>
      <tilted>0</tilted></_>
    <_>
      <rects>
        <_>
          5 1 3 3 -1.</_>
        <_>
          5 2 3 1 3.</_></rects>
      <tilted>0</tilted></_>
    <_>
      <rects>
        <_>
          5 2 3 4 -1.</_>
        <_>
          6 2 1 4 3.</_></rects>
      <tilted>0</tilted></_>
    <_>
      <rects>
        <_>
          5 2 3 7 -1.</_>
        <_>
          6 2 1 7 3.</_></rects>
      <tilted>0</tilted></_>
    <_>
      <rects>
        <_>
          5 2 4 2 -1.</_>
        <_>
          5 2 2 1 2.</_>
        <_>
          7 3 2 1 2.</_></rects>
      <tilted>0</tilted></_>
    <_>
      <rects>
        <_>
          5 2 5 3 -1.</_>
        <_>
          5 3 5 1 3.</_></rects>
      <tilted>0</tilted></_>
    <_>
      <rects>
        <_>
          5 3 3 5 -1.</_>
        <_>
          6 3 1 5 3.</_></rects>
      <tilted>0</tilted></_>
    <_>
      <rects>
        <_>
          5 4 4 1 -1.</_>
        <_>
          6 4 2 1 2.</_></rects>
      <tilted>0</tilted></_>
    <_>
      <rects>
        <_>
          5 4 4 6 -1.</_>
        <_>
          6 4 2 6 2.</_></rects>
      <tilted>0</tilted></_>
    <_>
      <rects>
        <_>
          5 5 3 3 -1.</_>
        <_>
          6 6 1 1 9.</_></rects>
      <tilted>0</tilted></_>
    <_>
      <rects>
        <_>
          5 6 1 2 -1.</_>
        <_>
          5 7 1 1 2.</_></rects>
      <tilted>0</tilted></_>
    <_>
      <rects>
        <_>
          5 6 3 3 -1.</_>
        <_>
          6 7 1 1 9.</_></rects>
      <tilted>0</tilted></_>
    <_>
      <rects>
        <_>
          5 6 4 4 -1.</_>
        <_>
          5 6 2 2 2.</_>
        <_>
          7 8 2 2 2.</_></rects>
      <tilted>0</tilted></_>
    <_>
      <rects>
        <_>
          5 7 4 3 -1.</_>
        <_>
          6 7 2 3 2.</_></rects>
      <tilted>0</tilted></_>
    <_>
      <rects>
        <_>
          5 8 3 3 -1.</_>
        <_>
          6 9 1 1 9.</_></rects>
      <tilted>0</tilted></_>
    <_>
      <rects>
        <_>
          6 0 4 6 -1.</_>
        <_>
          7 0 2 6 2.</_></rects>
      <tilted>0</tilted></_>
    <_>
      <rects>
        <_>
          6 0 3 7 -1.</_>
        <_>
          7 0 1 7 3.</_></rects>
      <tilted>0</tilted></_>
    <_>
      <rects>
        <_>
          6 0 4 7 -1.</_>
        <_>
          7 0 2 7 2.</_></rects>
      <tilted>0</tilted></_>
    <_>
      <rects>
        <_>
          6 0 4 1 -1.</_>
        <_>
          8 0 2 1 2.</_></rects>
      <tilted>0</tilted></_>
    <_>
      <rects>
        <_>
          6 2 3 3 -1.</_>
        <_>
          7 3 1 1 9.</_></rects>
      <tilted>0</tilted></_>
    <_>
      <rects>
        <_>
          6 2 4 9 -1.</_>
        <_>
          7 2 2 9 2.</_></rects>
      <tilted>0</tilted></_>
    <_>
      <rects>
        <_>
          6 3 3 6 -1.</_>
        <_>
          7 5 1 2 9.</_></rects>
      <tilted>0</tilted></_>
    <_>
      <rects>
        <_>
          6 3 3 4 -1.</_>
        <_>
          7 3 1 4 3.</_></rects>
      <tilted>0</tilted></_>
    <_>
      <rects>
        <_>
          6 4 4 2 -1.</_>
        <_>
          7 4 2 2 2.</_></rects>
      <tilted>0</tilted></_>
    <_>
      <rects>
        <_>
          6 4 3 6 -1.</_>
        <_>
          7 6 1 2 9.</_></rects>
      <tilted>0</tilted></_>
    <_>
      <rects>
        <_>
          6 4 3 5 -1.</_>
        <_>
          7 4 1 5 3.</_></rects>
      <tilted>0</tilted></_>
    <_>
      <rects>
        <_>
          6 5 1 2 -1.</_>
        <_>
          6 6 1 1 2.</_></rects>
      <tilted>0</tilted></_>
    <_>
      <rects>
        <_>
          6 5 3 4 -1.</_>
        <_>
          7 5 1 4 3.</_></rects>
      <tilted>0</tilted></_>
    <_>
      <rects>
        <_>
          6 6 6 4 -1.</_>
        <_>
          9 6 3 4 2.</_></rects>
      <tilted>0</tilted></_>
    <_>
      <rects>
        <_>
          6 8 3 3 -1.</_>
        <_>
          7 9 1 1 9.</_></rects>
      <tilted>0</tilted></_>
    <_>
      <rects>
        <_>
          6 9 3 3 -1.</_>
        <_>
          7 10 1 1 9.</_></rects>
      <tilted>0</tilted></_>
    <_>
      <rects>
        <_>
          6 9 4 2 -1.</_>
        <_>
          6 10 4 1 2.</_></rects>
      <tilted>0</tilted></_>
    <_>
      <rects>
        <_>
          7 1 3 8 -1.</_>
        <_>
          8 1 1 8 3.</_></rects>
      <tilted>0</tilted></_>
    <_>
      <rects>
        <_>
          7 3 3 3 -1.</_>
        <_>
          8 4 1 1 9.</_></rects>
      <tilted>0</tilted></_>
    <_>
      <rects>
        <_>
          7 3 3 3 -1.</_>
        <_>
          8 3 1 3 3.</_></rects>
      <tilted>0</tilted></_>
    <_>
      <rects>
        <_>
          7 4 3 6 -1.</_>
        <_>
          8 4 1 6 3.</_></rects>
      <tilted>0</tilted></_>
    <_>
      <rects>
        <_>
          7 5 3 3 -1.</_>
        <_>
          8 6 1 1 9.</_></rects>
      <tilted>0</tilted></_>
    <_>
      <rects>
        <_>
          7 7 3 3 -1.</_>
        <_>
          8 8 1 1 9.</_></rects>
      <tilted>0</tilted></_>
    <_>
      <rects>
        <_>
          8 0 3 6 -1.</_>
        <_>
          9 0 1 6 3.</_></rects>
      <tilted>0</tilted></_>
    <_>
      <rects>
        <_>
          8 0 4 7 -1.</_>
        <_>
          10 0 2 7 2.</_></rects>
      <tilted>0</tilted></_>
    <_>
      <rects>
        <_>
          8 5 2 2 -1.</_>
        <_>
          8 5 1 1 2.</_>
        <_>
          9 6 1 1 2.</_></rects>
      <tilted>0</tilted></_>
    <_>
      <rects>
        <_>
          8 5 4 2 -1.</_>
        <_>
          9 5 2 2 2.</_></rects>
      <tilted>0</tilted></_>
    <_>
      <rects>
        <_>
          8 5 3 5 -1.</_>
        <_>
          9 5 1 5 3.</_></rects>
      <tilted>0</tilted></_>
    <_>
      <rects>
        <_>
          8 11 4 1 -1.</_>
        <_>
          10 11 2 1 2.</_></rects>
      <tilted>0</tilted></_>
    <_>
      <rects>
        <_>
          9 8 1 2 -1.</_>
        <_>
          9 9 1 1 2.</_></rects>
      <tilted>0</tilted></_>
    <_>
      <rects>
        <_>
          10 6 2 6 -1.</_>
        <_>
          10 9 2 3 2.</_></rects>
      <tilted>0</tilted></_>
    <_>
      <rects>
        <_>
          10 9 2 2 -1.</_>
        <_>
          11 9 1 2 2.</_></rects>
      <tilted>0</tilted></_>
    <_>
      <rects>
        <_>
          10 9 2 3 -1.</_>
        <_>
          11 9 1 3 2.</_></rects>
      <tilted>0</tilted></_>
    <_>
      <rects>
        <_>
          10 9 2 3 -1.</_>
        <_>
          10 10 2 1 3.</_></rects>
      <tilted>0</tilted></_>
    <_>
      <rects>
        <_>
          10 10 2 2 -1.</_>
        <_>
          11 10 1 2 2.</_></rects>
      <tilted>0</tilted></_>
    <_>
      <rects>
        <_>
          10 11 2 1 -1.</_>
        <_>
          11 11 1 1 2.</_></rects>
      <tilted>0</tilted></_>
    <_>
      <rects>
        <_>
          11 2 1 6 -1.</_>
        <_>
          11 4 1 2 3.</_></rects>
      <tilted>0</tilted></_>
    <_>
      <rects>
        <_>
          11 2 1 10 -1.</_>
        <_>
          11 7 1 5 2.</_></rects>
      <tilted>0</tilted></_>
    <_>
      <rects>
        <_>
          11 6 1 6 -1.</_>
        <_>
          11 9 1 3 2.</_></rects>
      <tilted>0</tilted></_></features></cascade>
</opencv_storage>
