<?xml version="1.0"?>
<opencv_storage>
<cascade>
  <stageType>BOOST</stageType>
  <featureType>HAAR</featureType>
  <height>12</height>
  <width>12</width>
  <stageParams>
    <boostType>GAB</boostType>
    <minHitRate>9.9500000476837158e-01</minHitRate>
    <maxFalseAlarm>5.0000000000000000e-01</maxFalseAlarm>
    <weightTrimRate>9.4999999999999996e-01</weightTrimRate>
    <maxDepth>1</maxDepth>
    <maxWeakCount>100</maxWeakCount></stageParams>
  <featureParams>
    <maxCatCount>0</maxCatCount>
    <featSize>1</featSize>
    <mode>BASIC</mode></featureParams>
  <stageNum>20</stageNum>
  <stages>
    <!-- stage 0 -->
    <_>
      <maxWeakCount>2</maxWeakCount>
      <stageThreshold>-4.7600641846656799e-01</stageThreshold>
      <weakClassifiers>
        <_>
          <internalNodes>
            0 -1 41 1.3818943500518799e-01</internalNodes>
          <leafValues>
            -8.2403433322906494e-01 6.9135802984237671e-01</leafValues></_>
        <_>
          <internalNodes>
            0 -1 60 -1.5859346091747284e-01</internalNodes>
          <leafValues>
            3.4802791476249695e-01 -7.5757431983947754e-01</leafValues></_></weakClassifiers></_>
    <!-- stage 1 -->
    <_>
      <maxWeakCount>6</maxWeakCount>
      <stageThreshold>-7.4681115150451660e-01</stageThreshold>
      <weakClassifiers>
        <_>
          <internalNodes>
            0 -1 114 -6.0249366797506809e-03</internalNodes>
          <leafValues>
            4.6877351403236389e-01 -8.2287824153900146e-01</leafValues></_>
        <_>
          <internalNodes>
            0 -1 79 1.1660170741379261e-02</internalNodes>
          <leafValues>
            -4.4577103853225708e-01 5.3806525468826294e-01</leafValues></_>
        <_>
          <internalNodes>
            0 -1 99 1.2365713715553284e-02</internalNodes>
          <leafValues>
            -1.9033916294574738e-01 8.8855808973312378e-01</leafValues></_>
        <_>
          <internalNodes>
            0 -1 141 3.3644571900367737e-02</internalNodes>
          <leafValues>
            -5.2402216196060181e-01 6.7855656147003174e-01</leafValues></_>
        <_>
          <internalNodes>
            0 -1 184 6.8538859486579895e-03</internalNodes>
          <leafValues>
            -3.4360426664352417e-01 5.2826625108718872e-01</leafValues></_>
        <_>
          <internalNodes>
            0 -1 62 1.2055001221597195e-02</internalNodes>
          <leafValues>
            -2.7590310573577881e-01 6.7876803874969482e-01</leafValues></_></weakClassifiers></_>
    <!-- stage 2 -->
    <_>
      <maxWeakCount>8</maxWeakCount>
      <stageThreshold>-7.5628507137298584e-01</stageThreshold>
      <weakClassifiers>
        <_>
          <internalNodes>
            0 -1 176 -9.1130305081605911e-03</internalNodes>
          <leafValues>
            7.4351978302001953e-01 -1.6724336147308350e-01</leafValues></_>
        <_>
          <internalNodes>
            0 -1 186 1.4756106771528721e-02</internalNodes>
          <leafValues>
            -2.5820127129554749e-01 7.3899376392364502e-01</leafValues></_>
        <_>
          <internalNodes>
            0 -1 11 2.1480474621057510e-02</internalNodes>
          <leafValues>
            -5.6415486335754395e-01 3.7938684225082397e-01</leafValues></_>
        <_>
          <internalNodes>
            0 -1 107 3.1701382249593735e-03</internalNodes>
          <leafValues>
            -4.2243605852127075e-01 3.8078981637954712e-01</leafValues></_>
        <_>
          <internalNodes>
            0 -1 56 -5.2592791616916656e-02</internalNodes>
          <leafValues>
            7.6739192008972168e-01 -2.3718787729740143e-01</leafValues></_>
        <_>
          <internalNodes>
            0 -1 133 2.0280621945858002e-02</internalNodes>
          <leafValues>
            -2.2808761894702911e-01 8.4761887788772583e-01</leafValues></_>
        <_>
          <internalNodes>
            0 -1 106 -9.7352676093578339e-03</internalNodes>
          <leafValues>
            4.0177163481712341e-01 -4.1359272599220276e-01</leafValues></_>
        <_>
          <internalNodes>
            0 -1 156 -7.6696258038282394e-03</internalNodes>
          <leafValues>
            9.5896947383880615e-01 -1.7937028408050537e-01</leafValues></_></weakClassifiers></_>
    <!-- stage 3 -->
    <_>
      <maxWeakCount>8</maxWeakCount>
      <stageThreshold>-4.2001807689666748e-01</stageThreshold>
      <weakClassifiers>
        <_>
          <internalNodes>
            0 -1 23 7.1821463108062744e-01</internalNodes>
          <leafValues>
            -6.8203650414943695e-02 8.4257602691650391e-01</leafValues></_>
        <_>
          <internalNodes>
            0 -1 22 4.4551488757133484e-01</internalNodes>
          <leafValues>
            2.4305839836597443e-01 -9.4701385498046875e-01</leafValues></_>
        <_>
          <internalNodes>
            0 -1 152 -3.0105002224445343e-02</internalNodes>
          <leafValues>
            8.4896433353424072e-01 -2.0804293453693390e-01</leafValues></_>
        <_>
          <internalNodes>
            0 -1 158 4.9456749111413956e-03</internalNodes>
          <leafValues>
            -3.3785316348075867e-01 5.9522747993469238e-01</leafValues></_>
        <_>
          <internalNodes>
            0 -1 87 1.2167278677225113e-02</internalNodes>
          <leafValues>
            2.2785727679729462e-01 -9.2811298370361328e-01</leafValues></_>
        <_>
          <internalNodes>
            0 -1 180 3.4296938683837652e-03</internalNodes>
          <leafValues>
            -4.0964010357856750e-01 4.0318962931632996e-01</leafValues></_>
        <_>
          <internalNodes>
            0 -1 154 -2.0575078204274178e-02</internalNodes>
          <leafValues>
            8.8711816072463989e-01 -2.6509496569633484e-01</leafValues></_>
        <_>
          <internalNodes>
            0 -1 12 4.2551299557089806e-03</internalNodes>
          <leafValues>
            -2.2919686138629913e-01 6.2079071998596191e-01</leafValues></_></weakClassifiers></_>
    <!-- stage 4 -->
    <_>
      <maxWeakCount>9</maxWeakCount>
      <stageThreshold>-1.1846697330474854e+00</stageThreshold>
      <weakClassifiers>
        <_>
          <internalNodes>
            0 -1 78 2.0461757667362690e-03</internalNodes>
          <leafValues>
            -4.8448687791824341e-01 5.1058423519134521e-01</leafValues></_>
        <_>
          <internalNodes>
            0 -1 160 -4.8955902457237244e-03</internalNodes>
          <leafValues>
            4.9740624427795410e-01 -4.2034989595413208e-01</leafValues></_>
        <_>
          <internalNodes>
            0 -1 197 -3.1992837786674500e-02</internalNodes>
          <leafValues>
            3.6626252532005310e-01 -4.2967757582664490e-01</leafValues></_>
        <_>
          <internalNodes>
            0 -1 206 -1.1952964123338461e-03</internalNodes>
          <leafValues>
            3.4757664799690247e-01 -4.1826486587524414e-01</leafValues></_>
        <_>
          <internalNodes>
            0 -1 141 4.9325406551361084e-02</internalNodes>
          <leafValues>
            -2.1577940881252289e-01 6.0756778717041016e-01</leafValues></_>
        <_>
          <internalNodes>
            0 -1 102 3.5010096617043018e-03</internalNodes>
          <leafValues>
            -4.5010697841644287e-01 4.9671283364295959e-01</leafValues></_>
        <_>
          <internalNodes>
            0 -1 114 -1.5540959313511848e-02</internalNodes>
          <leafValues>
            2.3252682387828827e-01 -7.3869049549102783e-01</leafValues></_>
        <_>
          <internalNodes>
            0 -1 3 1.3550862669944763e-02</internalNodes>
          <leafValues>
            -3.3513301610946655e-01 5.5475932359695435e-01</leafValues></_>
        <_>
          <internalNodes>
            0 -1 47 6.0104429721832275e-03</internalNodes>
          <leafValues>
            -4.8181626200675964e-01 2.9956746101379395e-01</leafValues></_></weakClassifiers></_>
    <!-- stage 5 -->
    <_>
      <maxWeakCount>8</maxWeakCount>
      <stageThreshold>-6.4146697521209717e-01</stageThreshold>
      <weakClassifiers>
        <_>
          <internalNodes>
            0 -1 117 -3.1455885618925095e-04</internalNodes>
          <leafValues>
            -4.4166666269302368e-01 5.4642856121063232e-01</leafValues></_>
        <_>
          <internalNodes>
            0 -1 72 -1.6229536384344101e-02</internalNodes>
          <leafValues>
            4.5550000667572021e-01 -4.2367973923683167e-01</leafValues></_>
        <_>
          <internalNodes>
            0 -1 176 -1.3226771727204323e-02</internalNodes>
          <leafValues>
            6.1798918247222900e-01 -2.8882837295532227e-01</leafValues></_>
        <_>
          <internalNodes>
            0 -1 98 7.4562765657901764e-03</internalNodes>
          <leafValues>
            -1.8429850041866302e-01 7.5466048717498779e-01</leafValues></_>
        <_>
          <internalNodes>
            0 -1 134 5.0822593271732330e-02</internalNodes>
          <leafValues>
            -4.2024034261703491e-01 5.4142618179321289e-01</leafValues></_>
        <_>
          <internalNodes>
            0 -1 139 1.1483225971460342e-02</internalNodes>
          <leafValues>
            -1.7540374398231506e-01 7.3262518644332886e-01</leafValues></_>
        <_>
          <internalNodes>
            0 -1 95 -8.5301809012889862e-03</internalNodes>
          <leafValues>
            7.1015471220016479e-01 -1.5020053088665009e-01</leafValues></_>
        <_>
          <internalNodes>
            0 -1 191 1.5544722788035870e-02</internalNodes>
          <leafValues>
            -2.9668408632278442e-01 5.9042441844940186e-01</leafValues></_></weakClassifiers></_>
    <!-- stage 6 -->
    <_>
      <maxWeakCount>10</maxWeakCount>
      <stageThreshold>-5.8632570505142212e-01</stageThreshold>
      <weakClassifiers>
        <_>
          <internalNodes>
            0 -1 76 1.1354403197765350e-01</internalNodes>
          <leafValues>
            -5.8823531866073608e-01 4.4822257757186890e-01</leafValues></_>
        <_>
          <internalNodes>
            0 -1 107 3.7781668361276388e-03</internalNodes>
          <leafValues>
            -3.3952873945236206e-01 4.3809053301811218e-01</leafValues></_>
        <_>
          <internalNodes>
            0 -1 166 3.7496867589652538e-03</internalNodes>
          <leafValues>
            2.2114345431327820e-01 -7.8220981359481812e-01</leafValues></_>
        <_>
          <internalNodes>
            0 -1 94 1.4032239094376564e-02</internalNodes>
          <leafValues>
            -3.5734060406684875e-01 3.8606759905815125e-01</leafValues></_>
        <_>
          <internalNodes>
            0 -1 172 3.4692186862230301e-02</internalNodes>
          <leafValues>
            -3.8645619153976440e-01 4.0685710310935974e-01</leafValues></_>
        <_>
          <internalNodes>
            0 -1 96 1.6823804005980492e-02</internalNodes>
          <leafValues>
            -2.0438413321971893e-01 7.0815682411193848e-01</leafValues></_>
        <_>
          <internalNodes>
            0 -1 125 -1.4859130606055260e-02</internalNodes>
          <leafValues>
            6.9255131483078003e-01 -2.2920969128608704e-01</leafValues></_>
        <_>
          <internalNodes>
            0 -1 51 1.0590730607509613e-01</internalNodes>
          <leafValues>
            1.9320450723171234e-01 -9.7888934612274170e-01</leafValues></_>
        <_>
          <internalNodes>
            0 -1 131 7.6758088544011116e-03</internalNodes>
          <leafValues>
            -3.3618474006652832e-01 4.5769509673118591e-01</leafValues></_>
        <_>
          <internalNodes>
            0 -1 39 3.3384060859680176e-01</internalNodes>
          <leafValues>
            -1.3026686012744904e-01 7.9518270492553711e-01</leafValues></_></weakClassifiers></_>
    <!-- stage 7 -->
    <_>
      <maxWeakCount>11</maxWeakCount>
      <stageThreshold>-8.0031776428222656e-01</stageThreshold>
      <weakClassifiers>
        <_>
          <internalNodes>
            0 -1 26 -2.8887271881103516e-02</internalNodes>
          <leafValues>
            -7.2687226533889771e-01 4.1150763630867004e-01</leafValues></_>
        <_>
          <internalNodes>
            0 -1 73 1.3943716883659363e-01</internalNodes>
          <leafValues>
            -2.2491160035133362e-01 5.7445263862609863e-01</leafValues></_>
        <_>
          <internalNodes>
            0 -1 80 -3.3173081278800964e-01</internalNodes>
          <leafValues>
            2.6822963356971741e-01 -4.2716020345687866e-01</leafValues></_>
        <_>
          <internalNodes>
            0 -1 81 1.3388160150498152e-03</internalNodes>
          <leafValues>
            -3.6495265364646912e-01 2.9886555671691895e-01</leafValues></_>
        <_>
          <internalNodes>
            0 -1 151 1.2818608433008194e-02</internalNodes>
          <leafValues>
            -2.3392985761165619e-01 5.1056462526321411e-01</leafValues></_>
        <_>
          <internalNodes>
            0 -1 138 8.4219276905059814e-03</internalNodes>
          <leafValues>
            -2.7514255046844482e-01 5.6256270408630371e-01</leafValues></_>
        <_>
          <internalNodes>
            0 -1 48 9.1652438044548035e-02</internalNodes>
          <leafValues>
            2.0645925402641296e-01 -7.3837590217590332e-01</leafValues></_>
        <_>
          <internalNodes>
            0 -1 169 5.6745680049061775e-03</internalNodes>
          <leafValues>
            -2.4506655335426331e-01 4.7490957379341125e-01</leafValues></_>
        <_>
          <internalNodes>
            0 -1 205 -1.1891850735992193e-03</internalNodes>
          <leafValues>
            3.3258023858070374e-01 -3.1227061152458191e-01</leafValues></_>
        <_>
          <internalNodes>
            0 -1 192 2.6966237928718328e-03</internalNodes>
          <leafValues>
            -3.2477974891662598e-01 3.4381112456321716e-01</leafValues></_>
        <_>
          <internalNodes>
            0 -1 118 -1.0158568620681763e-03</internalNodes>
          <leafValues>
            -8.5732769966125488e-01 1.0051011294126511e-01</leafValues></_></weakClassifiers></_>
    <!-- stage 8 -->
    <_>
      <maxWeakCount>12</maxWeakCount>
      <stageThreshold>-7.9138028621673584e-01</stageThreshold>
      <weakClassifiers>
        <_>
          <internalNodes>
            0 -1 116 2.9588971287012100e-02</internalNodes>
          <leafValues>
            3.5194009542465210e-01 -8.9312976598739624e-01</leafValues></_>
        <_>
          <internalNodes>
            0 -1 74 5.7136952877044678e-01</internalNodes>
          <leafValues>
            -3.4901958703994751e-01 5.0775450468063354e-01</leafValues></_>
        <_>
          <internalNodes>
            0 -1 108 3.0242208391427994e-02</internalNodes>
          <leafValues>
            -2.3350699245929718e-01 5.7332915067672729e-01</leafValues></_>
        <_>
          <internalNodes>
            0 -1 151 1.3587189838290215e-02</internalNodes>
          <leafValues>
            -2.1781760454177856e-01 5.5627059936523438e-01</leafValues></_>
        <_>
          <internalNodes>
            0 -1 97 1.8329635262489319e-02</internalNodes>
          <leafValues>
            -2.3175857961177826e-01 6.1257791519165039e-01</leafValues></_>
        <_>
          <internalNodes>
            0 -1 63 1.7812136793509126e-03</internalNodes>
          <leafValues>
            -3.7535417079925537e-01 3.3637374639511108e-01</leafValues></_>
        <_>
          <internalNodes>
            0 -1 181 3.8580764085054398e-03</internalNodes>
          <leafValues>
            -3.8374537229537964e-01 3.0586251616477966e-01</leafValues></_>
        <_>
          <internalNodes>
            0 -1 144 -2.0386137068271637e-02</internalNodes>
          <leafValues>
            5.3639495372772217e-01 -2.2774629294872284e-01</leafValues></_>
        <_>
          <internalNodes>
            0 -1 52 -2.0738750696182251e-01</internalNodes>
          <leafValues>
            2.8759369254112244e-01 -3.8909974694252014e-01</leafValues></_>
        <_>
          <internalNodes>
            0 -1 200 -6.7699134349822998e-02</internalNodes>
          <leafValues>
            -7.6892715692520142e-01 1.1747866868972778e-01</leafValues></_>
        <_>
          <internalNodes>
            0 -1 113 2.1251228463370353e-04</internalNodes>
          <leafValues>
            -4.2864254117012024e-01 1.9225335121154785e-01</leafValues></_>
        <_>
          <internalNodes>
            0 -1 109 2.9961771797388792e-03</internalNodes>
          <leafValues>
            -4.1794663667678833e-01 2.4326807260513306e-01</leafValues></_></weakClassifiers></_>
    <!-- stage 9 -->
    <_>
      <maxWeakCount>14</maxWeakCount>
      <stageThreshold>-9.1872513294219971e-01</stageThreshold>
      <weakClassifiers>
        <_>
          <internalNodes>
            0 -1 24 9.0968944132328033e-03</internalNodes>
          <leafValues>
            -1.2531328201293945e-01 6.2344139814376831e-01</leafValues></_>
        <_>
          <internalNodes>
            0 -1 187 -5.6673265993595123e-02</internalNodes>
          <leafValues>
            2.2412958741188049e-01 -6.3813579082489014e-01</leafValues></_>
        <_>
          <internalNodes>
            0 -1 183 3.2482084352523088e-03</internalNodes>
          <leafValues>
            -3.7710264325141907e-01 2.8079134225845337e-01</leafValues></_>
        <_>
          <internalNodes>
            0 -1 129 1.1790001764893532e-02</internalNodes>
          <leafValues>
            -3.0307808518409729e-01 4.3731483817100525e-01</leafValues></_>
        <_>
          <internalNodes>
            0 -1 135 2.0515241194516420e-03</internalNodes>
          <leafValues>
            -2.0080842077732086e-01 6.6869646310806274e-01</leafValues></_>
        <_>
          <internalNodes>
            0 -1 123 -1.6943099908530712e-03</internalNodes>
          <leafValues>
            -5.7246237993240356e-01 2.1786566078662872e-01</leafValues></_>
        <_>
          <internalNodes>
            0 -1 50 1.1667960882186890e-01</internalNodes>
          <leafValues>
            -1.5980654954910278e-01 6.1711949110031128e-01</leafValues></_>
        <_>
          <internalNodes>
            0 -1 127 9.0511500835418701e-02</internalNodes>
          <leafValues>
            -2.5343769788742065e-01 5.5860358476638794e-01</leafValues></_>
        <_>
          <internalNodes>
            0 -1 38 -9.7836814820766449e-03</internalNodes>
          <leafValues>
            2.8027874231338501e-01 -4.1960030794143677e-01</leafValues></_>
        <_>
          <internalNodes>
            0 -1 75 -1.1577580124139786e-02</internalNodes>
          <leafValues>
            -6.5149974822998047e-01 1.2931296229362488e-01</leafValues></_>
        <_>
          <internalNodes>
            0 -1 137 2.6958039961755276e-03</internalNodes>
          <leafValues>
            -2.6239213347434998e-01 3.4859701991081238e-01</leafValues></_>
        <_>
          <internalNodes>
            0 -1 103 -3.1855907291173935e-02</internalNodes>
          <leafValues>
            6.6311985254287720e-01 -1.5115232765674591e-01</leafValues></_>
        <_>
          <internalNodes>
            0 -1 172 2.3556336760520935e-02</internalNodes>
          <leafValues>
            -3.5128334164619446e-01 3.0718526244163513e-01</leafValues></_>
        <_>
          <internalNodes>
            0 -1 32 -2.2448554635047913e-02</internalNodes>
          <leafValues>
            3.0190014839172363e-01 -3.6672255396842957e-01</leafValues></_></weakClassifiers></_>
    <!-- stage 10 -->
    <_>
      <maxWeakCount>16</maxWeakCount>
      <stageThreshold>-8.2489895820617676e-01</stageThreshold>
      <weakClassifiers>
        <_>
          <internalNodes>
            0 -1 207 -4.0751914493739605e-03</internalNodes>
          <leafValues>
            5.6080281734466553e-01 -9.9601596593856812e-02</leafValues></_>
        <_>
          <internalNodes>
            0 -1 4 -2.0769931375980377e-02</internalNodes>
          <leafValues>
            3.1495118141174316e-01 -2.8553953766822815e-01</leafValues></_>
        <_>
          <internalNodes>
            0 -1 208 6.7280661314725876e-03</internalNodes>
          <leafValues>
            1.3996776938438416e-01 -7.1484529972076416e-01</leafValues></_>
        <_>
          <internalNodes>
            0 -1 93 4.9792680889368057e-02</internalNodes>
          <leafValues>
            -2.2375765442848206e-01 4.2221021652221680e-01</leafValues></_>
        <_>
          <internalNodes>
            0 -1 36 6.5390348434448242e-02</internalNodes>
          <leafValues>
            -2.0160958170890808e-01 7.3615682125091553e-01</leafValues></_>
        <_>
          <internalNodes>
            0 -1 10 2.6169307529926300e-02</internalNodes>
          <leafValues>
            -1.8365797400474548e-01 4.7823190689086914e-01</leafValues></_>
        <_>
          <internalNodes>
            0 -1 194 2.8968174010515213e-03</internalNodes>
          <leafValues>
            -2.9032599925994873e-01 3.4410086274147034e-01</leafValues></_>
        <_>
          <internalNodes>
            0 -1 193 -1.1168812215328217e-01</internalNodes>
          <leafValues>
            3.6038136482238770e-01 -2.7170562744140625e-01</leafValues></_>
        <_>
          <internalNodes>
            0 -1 84 2.8283763676881790e-02</internalNodes>
          <leafValues>
            1.2334217876195908e-01 -7.1159768104553223e-01</leafValues></_>
        <_>
          <internalNodes>
            0 -1 105 -1.3005072250962257e-02</internalNodes>
          <leafValues>
            2.5185629725456238e-01 -3.5303843021392822e-01</leafValues></_>
        <_>
          <internalNodes>
            0 -1 165 2.6362556964159012e-02</internalNodes>
          <leafValues>
            -1.7144452035427094e-01 5.5342835187911987e-01</leafValues></_>
        <_>
          <internalNodes>
            0 -1 132 1.2282755225896835e-02</internalNodes>
          <leafValues>
            -2.4698585271835327e-01 4.8893263936042786e-01</leafValues></_>
        <_>
          <internalNodes>
            0 -1 62 1.5155971050262451e-02</internalNodes>
          <leafValues>
            -2.0346432924270630e-01 4.6166285872459412e-01</leafValues></_>
        <_>
          <internalNodes>
            0 -1 145 -4.1143015027046204e-02</internalNodes>
          <leafValues>
            -6.0364961624145508e-01 1.7461496591567993e-01</leafValues></_>
        <_>
          <internalNodes>
            0 -1 65 -9.9337678402662277e-03</internalNodes>
          <leafValues>
            5.5080479383468628e-01 -1.7628487944602966e-01</leafValues></_>
        <_>
          <internalNodes>
            0 -1 122 1.1021051555871964e-02</internalNodes>
          <leafValues>
            -2.4997627735137939e-01 4.4120997190475464e-01</leafValues></_></weakClassifiers></_>
    <!-- stage 11 -->
    <_>
      <maxWeakCount>15</maxWeakCount>
      <stageThreshold>-7.8103780746459961e-01</stageThreshold>
      <weakClassifiers>
        <_>
          <internalNodes>
            0 -1 202 -2.6363260112702847e-03</internalNodes>
          <leafValues>
            4.6740129590034485e-01 -2.1330724656581879e-01</leafValues></_>
        <_>
          <internalNodes>
            0 -1 1 2.8707891702651978e-01</internalNodes>
          <leafValues>
            -1.3806873559951782e-01 6.0491621494293213e-01</leafValues></_>
        <_>
          <internalNodes>
            0 -1 120 -1.8891395302489400e-03</internalNodes>
          <leafValues>
            1.4510053396224976e-01 -6.7576456069946289e-01</leafValues></_>
        <_>
          <internalNodes>
            0 -1 211 5.3490157006308436e-04</internalNodes>
          <leafValues>
            -3.6039018630981445e-01 2.2164893150329590e-01</leafValues></_>
        <_>
          <internalNodes>
            0 -1 61 -1.2171417474746704e-02</internalNodes>
          <leafValues>
            4.1629344224929810e-01 -2.4004501104354858e-01</leafValues></_>
        <_>
          <internalNodes>
            0 -1 167 3.4678820520639420e-03</internalNodes>
          <leafValues>
            1.4929407835006714e-01 -7.2753661870956421e-01</leafValues></_>
        <_>
          <internalNodes>
            0 -1 190 1.0595610365271568e-02</internalNodes>
          <leafValues>
            -2.2162760794162750e-01 3.4960821270942688e-01</leafValues></_>
        <_>
          <internalNodes>
            0 -1 155 8.1417877227067947e-03</internalNodes>
          <leafValues>
            -2.9401892423629761e-01 3.4246969223022461e-01</leafValues></_>
        <_>
          <internalNodes>
            0 -1 55 3.7285439670085907e-02</internalNodes>
          <leafValues>
            -1.0355032235383987e-01 7.3007869720458984e-01</leafValues></_>
        <_>
          <internalNodes>
            0 -1 128 1.0176325216889381e-02</internalNodes>
          <leafValues>
            -3.0319899320602417e-01 3.6875566840171814e-01</leafValues></_>
        <_>
          <internalNodes>
            0 -1 67 8.0729108303785324e-03</internalNodes>
          <leafValues>
            -1.8006148934364319e-01 5.3311443328857422e-01</leafValues></_>
        <_>
          <internalNodes>
            0 -1 195 -1.4328722842037678e-02</internalNodes>
          <leafValues>
            -6.9752281904220581e-01 1.4580866694450378e-01</leafValues></_>
        <_>
          <internalNodes>
            0 -1 170 2.7953781187534332e-02</internalNodes>
          <leafValues>
            -1.5939147770404816e-01 5.1861768960952759e-01</leafValues></_>
        <_>
          <internalNodes>
            0 -1 132 1.5852518379688263e-02</internalNodes>
          <leafValues>
            -2.3136015236377716e-01 4.4603827595710754e-01</leafValues></_>
        <_>
          <internalNodes>
            0 -1 124 2.3234728723764420e-03</internalNodes>
          <leafValues>
            1.6021370887756348e-01 -5.1180243492126465e-01</leafValues></_></weakClassifiers></_>
    <!-- stage 12 -->
    <_>
      <maxWeakCount>12</maxWeakCount>
      <stageThreshold>-7.0657646656036377e-01</stageThreshold>
      <weakClassifiers>
        <_>
          <internalNodes>
            0 -1 104 -9.7078885883092880e-03</internalNodes>
          <leafValues>
            5.3750002384185791e-01 -1.8125000596046448e-01</leafValues></_>
        <_>
          <internalNodes>
            0 -1 17 3.5632229410111904e-03</internalNodes>
          <leafValues>
            -2.7931097149848938e-01 4.7095534205436707e-01</leafValues></_>
        <_>
          <internalNodes>
            0 -1 40 5.0983525812625885e-02</internalNodes>
          <leafValues>
            -3.0050072073936462e-01 3.2519093155860901e-01</leafValues></_>
        <_>
          <internalNodes>
            0 -1 95 -8.6846668273210526e-03</internalNodes>
          <leafValues>
            4.5772048830986023e-01 -2.0848967134952545e-01</leafValues></_>
        <_>
          <internalNodes>
            0 -1 97 2.3845197632908821e-02</internalNodes>
          <leafValues>
            -2.1258439123630524e-01 5.0906115770339966e-01</leafValues></_>
        <_>
          <internalNodes>
            0 -1 201 2.6914216578006744e-03</internalNodes>
          <leafValues>
            -3.0416387319564819e-01 3.6928638815879822e-01</leafValues></_>
        <_>
          <internalNodes>
            0 -1 53 1.3817974831908941e-04</internalNodes>
          <leafValues>
            -4.8836842179298401e-01 2.4711954593658447e-01</leafValues></_>
        <_>
          <internalNodes>
            0 -1 147 1.5671754954382777e-04</internalNodes>
          <leafValues>
            -3.7856096029281616e-01 1.8541400134563446e-01</leafValues></_>
        <_>
          <internalNodes>
            0 -1 115 2.3447807878255844e-02</internalNodes>
          <leafValues>
            -2.7529194951057434e-01 3.1709337234497070e-01</leafValues></_>
        <_>
          <internalNodes>
            0 -1 185 4.3405178003013134e-03</internalNodes>
          <leafValues>
            1.1653327941894531e-01 -8.8803136348724365e-01</leafValues></_>
        <_>
          <internalNodes>
            0 -1 110 1.5905112028121948e-02</internalNodes>
          <leafValues>
            -2.5248816609382629e-01 3.1841367483139038e-01</leafValues></_>
        <_>
          <internalNodes>
            0 -1 112 1.9470317289233208e-02</internalNodes>
          <leafValues>
            8.4986127912998199e-02 -8.8044780492782593e-01</leafValues></_></weakClassifiers></_>
    <!-- stage 13 -->
    <_>
      <maxWeakCount>17</maxWeakCount>
      <stageThreshold>-8.0657142400741577e-01</stageThreshold>
      <weakClassifiers>
        <_>
          <internalNodes>
            0 -1 0 7.4907235801219940e-02</internalNodes>
          <leafValues>
            -3.0023640394210815e-01 4.4774851202964783e-01</leafValues></_>
        <_>
          <internalNodes>
            0 -1 163 -2.2285088896751404e-02</internalNodes>
          <leafValues>
            3.9451682567596436e-01 -2.4294140934944153e-01</leafValues></_>
        <_>
          <internalNodes>
            0 -1 58 -7.7504053711891174e-02</internalNodes>
          <leafValues>
            8.7132894992828369e-01 -1.0438022017478943e-01</leafValues></_>
        <_>
          <internalNodes>
            0 -1 188 1.1872433125972748e-02</internalNodes>
          <leafValues>
            -4.1012057662010193e-01 2.8244867920875549e-01</leafValues></_>
        <_>
          <internalNodes>
            0 -1 14 7.0247858762741089e-02</internalNodes>
          <leafValues>
            -1.0619578510522842e-01 5.5562162399291992e-01</leafValues></_>
        <_>
          <internalNodes>
            0 -1 126 2.4275198578834534e-02</internalNodes>
          <leafValues>
            -2.4285283684730530e-01 4.6822330355644226e-01</leafValues></_>
        <_>
          <internalNodes>
            0 -1 30 1.6360455751419067e-01</internalNodes>
          <leafValues>
            1.3771988451480865e-01 -8.4465843439102173e-01</leafValues></_>
        <_>
          <internalNodes>
            0 -1 203 -9.8597453907132149e-03</internalNodes>
          <leafValues>
            -6.4808475971221924e-01 1.1029602587223053e-01</leafValues></_>
        <_>
          <internalNodes>
            0 -1 140 -2.3147029802203178e-02</internalNodes>
          <leafValues>
            5.1973253488540649e-01 -1.5277737379074097e-01</leafValues></_>
        <_>
          <internalNodes>
            0 -1 68 2.1455651149153709e-02</internalNodes>
          <leafValues>
            -2.3270043730735779e-01 4.1929468512535095e-01</leafValues></_>
        <_>
          <internalNodes>
            0 -1 173 1.3295423239469528e-02</internalNodes>
          <leafValues>
            -1.7262329161167145e-01 5.1077002286911011e-01</leafValues></_>
        <_>
          <internalNodes>
            0 -1 117 -6.0089735779911280e-04</internalNodes>
          <leafValues>
            -5.3143733739852905e-01 1.6346739232540131e-01</leafValues></_>
        <_>
          <internalNodes>
            0 -1 85 1.5374604845419526e-04</internalNodes>
          <leafValues>
            -4.2841696739196777e-01 1.7912212014198303e-01</leafValues></_>
        <_>
          <internalNodes>
            0 -1 35 -1.7955981194972992e-02</internalNodes>
          <leafValues>
            -6.9046068191528320e-01 1.1807795614004135e-01</leafValues></_>
        <_>
          <internalNodes>
            0 -1 150 9.7435861825942993e-03</internalNodes>
          <leafValues>
            -2.0977561175823212e-01 3.8188594579696655e-01</leafValues></_>
        <_>
          <internalNodes>
            0 -1 91 -4.5849818736314774e-02</internalNodes>
          <leafValues>
            7.4435734748840332e-01 -1.2796060740947723e-01</leafValues></_>
        <_>
          <internalNodes>
            0 -1 121 -1.6349047422409058e-01</internalNodes>
          <leafValues>
            -8.7457555532455444e-01 1.2212947756052017e-01</leafValues></_></weakClassifiers></_>
    <!-- stage 14 -->
    <_>
      <maxWeakCount>19</maxWeakCount>
      <stageThreshold>-8.5374170541763306e-01</stageThreshold>
      <weakClassifiers>
        <_>
          <internalNodes>
            0 -1 162 -3.1243322882801294e-03</internalNodes>
          <leafValues>
            4.2526689171791077e-01 -1.6386555135250092e-01</leafValues></_>
        <_>
          <internalNodes>
            0 -1 6 4.8145838081836700e-02</internalNodes>
          <leafValues>
            1.3889193534851074e-01 -5.3348159790039062e-01</leafValues></_>
        <_>
          <internalNodes>
            0 -1 210 4.6434774994850159e-03</internalNodes>
          <leafValues>
            -2.5007802248001099e-01 2.8180652856826782e-01</leafValues></_>
        <_>
          <internalNodes>
            0 -1 31 -2.6478156447410583e-02</internalNodes>
          <leafValues>
            -6.2521058320999146e-01 9.3638576567173004e-02</leafValues></_>
        <_>
          <internalNodes>
            0 -1 64 8.5623115301132202e-02</internalNodes>
          <leafValues>
            -1.3022252917289734e-01 5.2279496192932129e-01</leafValues></_>
        <_>
          <internalNodes>
            0 -1 174 7.3210708796977997e-03</internalNodes>
          <leafValues>
            -2.7911469340324402e-01 3.4436005353927612e-01</leafValues></_>
        <_>
          <internalNodes>
            0 -1 100 6.2783852219581604e-02</internalNodes>
          <leafValues>
            -1.2714938819408417e-01 5.8984220027923584e-01</leafValues></_>
        <_>
          <internalNodes>
            0 -1 153 -5.5874027311801910e-02</internalNodes>
          <leafValues>
            1.0966343432664871e-01 -7.9283726215362549e-01</leafValues></_>
        <_>
          <internalNodes>
            0 -1 8 1.6890680789947510e-01</internalNodes>
          <leafValues>
            -1.3680773973464966e-01 5.7845687866210938e-01</leafValues></_>
        <_>
          <internalNodes>
            0 -1 143 1.6200466779991984e-03</internalNodes>
          <leafValues>
            -2.3572194576263428e-01 3.1738591194152832e-01</leafValues></_>
        <_>
          <internalNodes>
            0 -1 168 -4.4682152569293976e-02</internalNodes>
          <leafValues>
            7.6986420154571533e-01 -1.0594119131565094e-01</leafValues></_>
        <_>
          <internalNodes>
            0 -1 88 1.0433028638362885e-01</internalNodes>
          <leafValues>
            -1.0839476436376572e-01 5.5287569761276245e-01</leafValues></_>
        <_>
          <internalNodes>
            0 -1 101 -5.3629070520401001e-02</internalNodes>
          <leafValues>
            -8.2987064123153687e-01 1.1015973240137100e-01</leafValues></_>
        <_>
          <internalNodes>
            0 -1 68 1.3832805678248405e-02</internalNodes>
          <leafValues>
            -2.7931854128837585e-01 2.9125890135765076e-01</leafValues></_>
        <_>
          <internalNodes>
            0 -1 127 1.0611984133720398e-01</internalNodes>
          <leafValues>
            -1.9512405991554260e-01 4.5823541283607483e-01</leafValues></_>
        <_>
          <internalNodes>
            0 -1 118 -7.2968908352777362e-04</internalNodes>
          <leafValues>
            -8.2928055524826050e-01 1.2167445570230484e-01</leafValues></_>
        <_>
          <internalNodes>
            0 -1 107 8.3248980809003115e-04</internalNodes>
          <leafValues>
            -4.3772375583648682e-01 1.4294415712356567e-01</leafValues></_>
        <_>
          <internalNodes>
            0 -1 71 5.9041272848844528e-02</internalNodes>
          <leafValues>
            1.1713872104883194e-01 -5.6053644418716431e-01</leafValues></_>
        <_>
          <internalNodes>
            0 -1 182 9.7707682289183140e-04</internalNodes>
          <leafValues>
            -2.7527341246604919e-01 2.9198747873306274e-01</leafValues></_></weakClassifiers></_>
    <!-- stage 15 -->
    <_>
      <maxWeakCount>19</maxWeakCount>
      <stageThreshold>-7.7595585584640503e-01</stageThreshold>
      <weakClassifiers>
        <_>
          <internalNodes>
            0 -1 27 -3.1924360990524292e-01</internalNodes>
          <leafValues>
            3.8638103008270264e-01 -3.5836178064346313e-01</leafValues></_>
        <_>
          <internalNodes>
            0 -1 49 1.0214138031005859e-01</internalNodes>
          <leafValues>
            1.0247465223073959e-01 -7.8556710481643677e-01</leafValues></_>
        <_>
          <internalNodes>
            0 -1 44 2.4787381291389465e-02</internalNodes>
          <leafValues>
            -1.2731696665287018e-01 6.2206065654754639e-01</leafValues></_>
        <_>
          <internalNodes>
            0 -1 90 7.6973908580839634e-03</internalNodes>
          <leafValues>
            -2.4081677198410034e-01 3.2671430706977844e-01</leafValues></_>
        <_>
          <internalNodes>
            0 -1 148 1.6023268108256161e-04</internalNodes>
          <leafValues>
            -4.7673615813255310e-01 2.0657549798488617e-01</leafValues></_>
        <_>
          <internalNodes>
            0 -1 161 -6.4562097191810608e-02</internalNodes>
          <leafValues>
            -6.6498297452926636e-01 1.2987467646598816e-01</leafValues></_>
        <_>
          <internalNodes>
            0 -1 92 5.4453857243061066e-02</internalNodes>
          <leafValues>
            -2.5494325160980225e-01 3.8312327861785889e-01</leafValues></_>
        <_>
          <internalNodes>
            0 -1 171 -7.3266454041004181e-02</internalNodes>
          <leafValues>
            8.3731663227081299e-01 -1.0216584801673889e-01</leafValues></_>
        <_>
          <internalNodes>
            0 -1 199 -6.1157427262514830e-04</internalNodes>
          <leafValues>
            3.4063160419464111e-01 -2.6610177755355835e-01</leafValues></_>
        <_>
          <internalNodes>
            0 -1 21 -5.2841589786112309e-03</internalNodes>
          <leafValues>
            -5.0169742107391357e-01 1.3001866638660431e-01</leafValues></_>
        <_>
          <internalNodes>
            0 -1 177 -6.7756827920675278e-03</internalNodes>
          <leafValues>
            3.3930709958076477e-01 -2.5387844443321228e-01</leafValues></_>
        <_>
          <internalNodes>
            0 -1 77 -2.5990279391407967e-03</internalNodes>
          <leafValues>
            -5.9800237417221069e-01 1.5368631482124329e-01</leafValues></_>
        <_>
          <internalNodes>
            0 -1 180 4.4738296419382095e-03</internalNodes>
          <leafValues>
            -2.7057856321334839e-01 2.7114012837409973e-01</leafValues></_>
        <_>
          <internalNodes>
            0 -1 149 -1.4091175980865955e-03</internalNodes>
          <leafValues>
            9.5102481544017792e-02 -7.7335691452026367e-01</leafValues></_>
        <_>
          <internalNodes>
            0 -1 82 1.0829545557498932e-02</internalNodes>
          <leafValues>
            1.4114129543304443e-01 -5.0957357883453369e-01</leafValues></_>
        <_>
          <internalNodes>
            0 -1 93 -3.8158424198627472e-02</internalNodes>
          <leafValues>
            7.1133446693420410e-01 -1.1917208880186081e-01</leafValues></_>
        <_>
          <internalNodes>
            0 -1 34 -1.8201353028416634e-02</internalNodes>
          <leafValues>
            -9.6262180805206299e-01 9.0108729898929596e-02</leafValues></_>
        <_>
          <internalNodes>
            0 -1 54 1.5648067346774042e-04</internalNodes>
          <leafValues>
            -4.5811209082603455e-01 1.3953272998332977e-01</leafValues></_>
        <_>
          <internalNodes>
            0 -1 111 1.5538543811999261e-04</internalNodes>
          <leafValues>
            -4.6178603172302246e-01 1.7401733994483948e-01</leafValues></_></weakClassifiers></_>
    <!-- stage 16 -->
    <_>
      <maxWeakCount>18</maxWeakCount>
      <stageThreshold>-8.7204647064208984e-01</stageThreshold>
      <weakClassifiers>
        <_>
          <internalNodes>
            0 -1 196 2.6061462704092264e-03</internalNodes>
          <leafValues>
            -8.4648489952087402e-02 5.0830566883087158e-01</leafValues></_>
        <_>
          <internalNodes>
            0 -1 40 6.3105851411819458e-02</internalNodes>
          <leafValues>
            -2.3896320164203644e-01 3.6880460381507874e-01</leafValues></_>
        <_>
          <internalNodes>
            0 -1 45 2.8045710176229477e-02</internalNodes>
          <leafValues>
            1.2073259055614471e-01 -9.0511524677276611e-01</leafValues></_>
        <_>
          <internalNodes>
            0 -1 57 -1.5337821096181870e-02</internalNodes>
          <leafValues>
            -5.1838666200637817e-01 1.6111066937446594e-01</leafValues></_>
        <_>
          <internalNodes>
            0 -1 18 -6.7429696209728718e-03</internalNodes>
          <leafValues>
            2.2851692140102386e-01 -3.3797279000282288e-01</leafValues></_>
        <_>
          <internalNodes>
            0 -1 66 -1.3648413121700287e-02</internalNodes>
          <leafValues>
            7.3393535614013672e-01 -1.5304793417453766e-01</leafValues></_>
        <_>
          <internalNodes>
            0 -1 69 3.6400660872459412e-02</internalNodes>
          <leafValues>
            -2.5539663434028625e-01 3.8646709918975830e-01</leafValues></_>
        <_>
          <internalNodes>
            0 -1 37 1.8917500972747803e-02</internalNodes>
          <leafValues>
            -1.8056273460388184e-01 5.8433067798614502e-01</leafValues></_>
        <_>
          <internalNodes>
            0 -1 89 -8.0507528036832809e-03</internalNodes>
          <leafValues>
            4.8261228203773499e-01 -2.1379411220550537e-01</leafValues></_>
        <_>
          <internalNodes>
            0 -1 189 9.4603537581861019e-04</internalNodes>
          <leafValues>
            -1.9795195758342743e-01 5.7829743623733521e-01</leafValues></_>
        <_>
          <internalNodes>
            0 -1 159 1.2935295235365629e-03</internalNodes>
          <leafValues>
            -3.1008237600326538e-01 3.2718598842620850e-01</leafValues></_>
        <_>
          <internalNodes>
            0 -1 70 1.1699017137289047e-01</internalNodes>
          <leafValues>
            1.3253512978553772e-01 -7.3619019985198975e-01</leafValues></_>
        <_>
          <internalNodes>
            0 -1 28 7.9096741974353790e-03</internalNodes>
          <leafValues>
            1.2880495190620422e-01 -6.3534545898437500e-01</leafValues></_>
        <_>
          <internalNodes>
            0 -1 62 -1.5225133858621120e-02</internalNodes>
          <leafValues>
            5.3637272119522095e-01 -1.8641413748264313e-01</leafValues></_>
        <_>
          <internalNodes>
            0 -1 88 -2.3868426680564880e-02</internalNodes>
          <leafValues>
            6.5166908502578735e-01 -1.1547438055276871e-01</leafValues></_>
        <_>
          <internalNodes>
            0 -1 59 2.1257909014821053e-02</internalNodes>
          <leafValues>
            -2.3337039351463318e-01 3.9539393782615662e-01</leafValues></_>
        <_>
          <internalNodes>
            0 -1 42 1.3125187717378139e-02</internalNodes>
          <leafValues>
            -1.8846893310546875e-01 5.0329738855361938e-01</leafValues></_>
        <_>
          <internalNodes>
            0 -1 86 3.1191308051347733e-02</internalNodes>
          <leafValues>
            -1.2883192300796509e-01 5.7373112440109253e-01</leafValues></_></weakClassifiers></_>
    <!-- stage 17 -->
    <_>
      <maxWeakCount>14</maxWeakCount>
      <stageThreshold>-9.3628513813018799e-01</stageThreshold>
      <weakClassifiers>
        <_>
          <internalNodes>
            0 -1 120 -2.8565241955220699e-03</internalNodes>
          <leafValues>
            3.9617082476615906e-01 -5.7024794816970825e-01</leafValues></_>
        <_>
          <internalNodes>
            0 -1 204 -1.5025438740849495e-02</internalNodes>
          <leafValues>
            4.0841189026832581e-01 -3.0687862634658813e-01</leafValues></_>
        <_>
          <internalNodes>
            0 -1 43 6.4518656581640244e-03</internalNodes>
          <leafValues>
            -2.9603788256645203e-01 4.7074919939041138e-01</leafValues></_>
        <_>
          <internalNodes>
            0 -1 2 -5.6684270501136780e-02</internalNodes>
          <leafValues>
            2.2954264283180237e-01 -5.3269284963607788e-01</leafValues></_>
        <_>
          <internalNodes>
            0 -1 46 2.8269451111555099e-02</internalNodes>
          <leafValues>
            -4.1749384999275208e-01 3.0450811982154846e-01</leafValues></_>
        <_>
          <internalNodes>
            0 -1 119 8.0568552017211914e-02</internalNodes>
          <leafValues>
            -1.4267612993717194e-01 7.2880929708480835e-01</leafValues></_>
        <_>
          <internalNodes>
            0 -1 13 5.3314659744501114e-03</internalNodes>
          <leafValues>
            -2.2449152171611786e-01 6.1522102355957031e-01</leafValues></_>
        <_>
          <internalNodes>
            0 -1 186 1.3118565082550049e-02</internalNodes>
          <leafValues>
            -2.7341431379318237e-01 4.7591876983642578e-01</leafValues></_>
        <_>
          <internalNodes>
            0 -1 5 -3.5976305603981018e-02</internalNodes>
          <leafValues>
            5.0347906351089478e-01 -2.4812768399715424e-01</leafValues></_>
        <_>
          <internalNodes>
            0 -1 179 -9.3149892985820770e-02</internalNodes>
          <leafValues>
            7.3615425825119019e-01 -2.0414493978023529e-01</leafValues></_>
        <_>
          <internalNodes>
            0 -1 209 5.2345856092870235e-03</internalNodes>
          <leafValues>
            2.1867714822292328e-01 -7.2915112972259521e-01</leafValues></_>
        <_>
          <internalNodes>
            0 -1 20 1.0840257629752159e-02</internalNodes>
          <leafValues>
            -2.7003514766693115e-01 5.1514458656311035e-01</leafValues></_>
        <_>
          <internalNodes>
            0 -1 175 -7.2650033980607986e-03</internalNodes>
          <leafValues>
            4.7706553339958191e-01 -2.8692772984504700e-01</leafValues></_>
        <_>
          <internalNodes>
            0 -1 29 8.9448094367980957e-03</internalNodes>
          <leafValues>
            -5.9428334236145020e-01 2.6439979672431946e-01</leafValues></_></weakClassifiers></_>
    <!-- stage 18 -->
    <_>
      <maxWeakCount>9</maxWeakCount>
      <stageThreshold>-5.8691781759262085e-01</stageThreshold>
      <weakClassifiers>
        <_>
          <internalNodes>
            0 -1 33 -3.0803477764129639e-01</internalNodes>
          <leafValues>
            6.2918663024902344e-01 -1.6492146253585815e-01</leafValues></_>
        <_>
          <internalNodes>
            0 -1 5 -3.5874184221029282e-02</internalNodes>
          <leafValues>
            5.8818221092224121e-01 -2.3323011398315430e-01</leafValues></_>
        <_>
          <internalNodes>
            0 -1 7 6.0319947078824043e-03</internalNodes>
          <leafValues>
            -2.1738429367542267e-01 7.5597405433654785e-01</leafValues></_>
        <_>
          <internalNodes>
            0 -1 164 3.8180188275873661e-03</internalNodes>
          <leafValues>
            -2.1695457398891449e-01 8.2128751277923584e-01</leafValues></_>
        <_>
          <internalNodes>
            0 -1 198 -7.2667966596782207e-03</internalNodes>
          <leafValues>
            -2.3564253747463226e-01 6.9708549976348877e-01</leafValues></_>
        <_>
          <internalNodes>
            0 -1 25 2.4877855554223061e-02</internalNodes>
          <leafValues>
            2.3143829405307770e-01 -8.0493873357772827e-01</leafValues></_>
        <_>
          <internalNodes>
            0 -1 142 -7.9029559856280684e-04</internalNodes>
          <leafValues>
            6.2236154079437256e-01 -3.3905142545700073e-01</leafValues></_>
        <_>
          <internalNodes>
            0 -1 15 8.1436112523078918e-03</internalNodes>
          <leafValues>
            -4.7637242078781128e-01 4.0704149007797241e-01</leafValues></_>
        <_>
          <internalNodes>
            0 -1 9 1.1244298517704010e-01</internalNodes>
          <leafValues>
            3.9675146341323853e-01 -5.8505344390869141e-01</leafValues></_></weakClassifiers></_>
    <!-- stage 19 -->
    <_>
      <maxWeakCount>8</maxWeakCount>
      <stageThreshold>-6.7288261651992798e-01</stageThreshold>
      <weakClassifiers>
        <_>
          <internalNodes>
            0 -1 83 3.3049040939658880e-04</internalNodes>
          <leafValues>
            -2.6225489377975464e-01 7.8316324949264526e-01</leafValues></_>
        <_>
          <internalNodes>
            0 -1 16 -8.6568510159850121e-03</internalNodes>
          <leafValues>
            -5.0632375478744507e-01 5.5264592170715332e-01</leafValues></_>
        <_>
          <internalNodes>
            0 -1 19 6.0274535790085793e-03</internalNodes>
          <leafValues>
            7.8939676284790039e-01 -3.9138302206993103e-01</leafValues></_>
        <_>
          <internalNodes>
            0 -1 130 3.9276443421840668e-03</internalNodes>
          <leafValues>
            -3.6185729503631592e-01 8.9343243837356567e-01</leafValues></_>
        <_>
          <internalNodes>
            0 -1 146 3.6562524735927582e-02</internalNodes>
          <leafValues>
            -2.8099134564399719e-01 8.5515719652175903e-01</leafValues></_>
        <_>
          <internalNodes>
            0 -1 136 4.4312421232461929e-03</internalNodes>
          <leafValues>
            -2.1657314896583557e-01 9.1405320167541504e-01</leafValues></_>
        <_>
          <internalNodes>
            0 -1 157 3.1383833847939968e-03</internalNodes>
          <leafValues>
            -2.2300736606121063e-01 1.</leafValues></_>
        <_>
          <internalNodes>
            0 -1 178 1.7897362122312188e-03</internalNodes>
          <leafValues>
            5.1053851842880249e-01 -4.6249148249626160e-01</leafValues></_></weakClassifiers></_></stages>
  <features>
    <_>
      <rects>
        <_>
          0 0 5 12 -1.</_>
        <_>
          0 4 5 4 3.</_></rects>
      <tilted>0</tilted></_>
    <_>
      <rects>
        <_>
          0 3 6 7 -1.</_>
        <_>
          3 3 3 7 2.</_></rects>
      <tilted>0</tilted></_>
    <_>
      <rects>
        <_>
          0 5 8 4 -1.</_>
        <_>
          0 7 8 2 2.</_></rects>
      <tilted>0</tilted></_>
    <_>
      <rects>
        <_>
          0 8 4 4 -1.</_>
        <_>
          2 8 2 4 2.</_></rects>
      <tilted>0</tilted></_>
    <_>
      <rects>
        <_>
          0 9 11 2 -1.</_>
        <_>
          0 10 11 1 2.</_></rects>
      <tilted>0</tilted></_>
    <_>
      <rects>
        <_>
          1 0 10 3 -1.</_>
        <_>
          1 1 10 1 3.</_></rects>
      <tilted>0</tilted></_>
    <_>
      <rects>
        <_>
          1 2 8 6 -1.</_>
        <_>
          1 2 4 3 2.</_>
        <_>
          5 5 4 3 2.</_></rects>
      <tilted>0</tilted></_>
    <_>
      <rects>
        <_>
          1 3 2 4 -1.</_>
        <_>
          1 3 1 2 2.</_>
        <_>
          2 5 1 2 2.</_></rects>
      <tilted>0</tilted></_>
    <_>
      <rects>
        <_>
          1 3 4 7 -1.</_>
        <_>
          3 3 2 7 2.</_></rects>
      <tilted>0</tilted></_>
    <_>
      <rects>
        <_>
          1 3 10 5 -1.</_>
        <_>
          6 3 5 5 2.</_></rects>
      <tilted>0</tilted></_>
    <_>
      <rects>
        <_>
          1 4 2 4 -1.</_>
        <_>
          2 4 1 4 2.</_></rects>
      <tilted>0</tilted></_>
    <_>
      <rects>
        <_>
          1 5 9 1 -1.</_>
        <_>
          4 5 3 1 3.</_></rects>
      <tilted>0</tilted></_>
    <_>
      <rects>
        <_>
          1 6 2 1 -1.</_>
        <_>
          2 6 1 1 2.</_></rects>
      <tilted>0</tilted></_>
    <_>
      <rects>
        <_>
          1 6 3 1 -1.</_>
        <_>
          2 6 1 1 3.</_></rects>
      <tilted>0</tilted></_>
    <_>
      <rects>
        <_>
          1 6 6 3 -1.</_>
        <_>
          3 6 2 3 3.</_></rects>
      <tilted>0</tilted></_>
    <_>
      <rects>
        <_>
          1 6 8 1 -1.</_>
        <_>
          5 6 4 1 2.</_></rects>
      <tilted>0</tilted></_>
    <_>
      <rects>
        <_>
          1 6 4 3 -1.</_>
        <_>
          1 7 4 1 3.</_></rects>
      <tilted>0</tilted></_>
    <_>
      <rects>
        <_>
          1 7 2 1 -1.</_>
        <_>
          2 7 1 1 2.</_></rects>
      <tilted>0</tilted></_>
    <_>
      <rects>
        <_>
          1 7 2 4 -1.</_>
        <_>
          1 9 2 2 2.</_></rects>
      <tilted>0</tilted></_>
    <_>
      <rects>
        <_>
          1 8 3 3 -1.</_>
        <_>
          2 8 1 3 3.</_></rects>
      <tilted>0</tilted></_>
    <_>
      <rects>
        <_>
          1 8 6 1 -1.</_>
        <_>
          3 8 2 1 3.</_></rects>
      <tilted>0</tilted></_>
    <_>
      <rects>
        <_>
          2 0 3 2 -1.</_>
        <_>
          3 0 1 2 3.</_></rects>
      <tilted>0</tilted></_>
    <_>
      <rects>
        <_>
          2 0 9 8 -1.</_>
        <_>
          5 0 3 8 3.</_></rects>
      <tilted>0</tilted></_>
    <_>
      <rects>
        <_>
          2 0 8 12 -1.</_>
        <_>
          2 4 8 4 3.</_></rects>
      <tilted>0</tilted></_>
    <_>
      <rects>
        <_>
          2 2 2 3 -1.</_>
        <_>
          3 2 1 3 2.</_></rects>
      <tilted>0</tilted></_>
    <_>
      <rects>
        <_>
          2 3 3 3 -1.</_>
        <_>
          2 4 3 1 3.</_></rects>
      <tilted>0</tilted></_>
    <_>
      <rects>
        <_>
          2 3 8 2 -1.</_>
        <_>
          6 3 4 2 2.</_></rects>
      <tilted>0</tilted></_>
    <_>
      <rects>
        <_>
          2 4 8 8 -1.</_>
        <_>
          2 8 8 4 2.</_></rects>
      <tilted>0</tilted></_>
    <_>
      <rects>
        <_>
          2 5 1 3 -1.</_>
        <_>
          2 6 1 1 3.</_></rects>
      <tilted>0</tilted></_>
    <_>
      <rects>
        <_>
          2 5 9 1 -1.</_>
        <_>
          5 5 3 1 3.</_></rects>
      <tilted>0</tilted></_>
    <_>
      <rects>
        <_>
          2 5 9 3 -1.</_>
        <_>
          5 5 3 3 3.</_></rects>
      <tilted>0</tilted></_>
    <_>
      <rects>
        <_>
          2 6 1 6 -1.</_>
        <_>
          2 8 1 2 3.</_></rects>
      <tilted>0</tilted></_>
    <_>
      <rects>
        <_>
          2 6 7 2 -1.</_>
        <_>
          2 7 7 1 2.</_></rects>
      <tilted>0</tilted></_>
    <_>
      <rects>
        <_>
          2 6 10 6 -1.</_>
        <_>
          2 9 10 3 2.</_></rects>
      <tilted>0</tilted></_>
    <_>
      <rects>
        <_>
          2 7 1 3 -1.</_>
        <_>
          2 8 1 1 3.</_></rects>
      <tilted>0</tilted></_>
    <_>
      <rects>
        <_>
          2 7 2 2 -1.</_>
        <_>
          2 8 2 1 2.</_></rects>
      <tilted>0</tilted></_>
    <_>
      <rects>
        <_>
          2 7 6 2 -1.</_>
        <_>
          4 7 2 2 3.</_></rects>
      <tilted>0</tilted></_>
    <_>
      <rects>
        <_>
          2 8 6 1 -1.</_>
        <_>
          4 8 2 1 3.</_></rects>
      <tilted>0</tilted></_>
    <_>
      <rects>
        <_>
          3 0 6 3 -1.</_>
        <_>
          3 1 6 1 3.</_></rects>
      <tilted>0</tilted></_>
    <_>
      <rects>
        <_>
          3 0 7 6 -1.</_>
        <_>
          3 3 7 3 2.</_></rects>
      <tilted>0</tilted></_>
    <_>
      <rects>
        <_>
          3 1 6 6 -1.</_>
        <_>
          5 1 2 6 3.</_></rects>
      <tilted>0</tilted></_>
    <_>
      <rects>
        <_>
          3 1 7 9 -1.</_>
        <_>
          3 4 7 3 3.</_></rects>
      <tilted>0</tilted></_>
    <_>
      <rects>
        <_>
          3 2 2 2 -1.</_>
        <_>
          3 3 2 1 2.</_></rects>
      <tilted>0</tilted></_>
    <_>
      <rects>
        <_>
          3 3 3 4 -1.</_>
        <_>
          4 3 1 4 3.</_></rects>
      <tilted>0</tilted></_>
    <_>
      <rects>
        <_>
          3 3 3 5 -1.</_>
        <_>
          4 3 1 5 3.</_></rects>
      <tilted>0</tilted></_>
    <_>
      <rects>
        <_>
          3 3 4 1 -1.</_>
        <_>
          5 3 2 1 2.</_></rects>
      <tilted>0</tilted></_>
    <_>
      <rects>
        <_>
          3 3 6 3 -1.</_>
        <_>
          5 3 2 3 3.</_></rects>
      <tilted>0</tilted></_>
    <_>
      <rects>
        <_>
          3 3 4 4 -1.</_>
        <_>
          5 3 2 4 2.</_></rects>
      <tilted>0</tilted></_>
    <_>
      <rects>
        <_>
          3 3 6 6 -1.</_>
        <_>
          6 3 3 6 2.</_></rects>
      <tilted>0</tilted></_>
    <_>
      <rects>
        <_>
          3 3 8 7 -1.</_>
        <_>
          7 3 4 7 2.</_></rects>
      <tilted>0</tilted></_>
    <_>
      <rects>
        <_>
          3 4 6 6 -1.</_>
        <_>
          5 4 2 6 3.</_></rects>
      <tilted>0</tilted></_>
    <_>
      <rects>
        <_>
          3 4 8 5 -1.</_>
        <_>
          7 4 4 5 2.</_></rects>
      <tilted>0</tilted></_>
    <_>
      <rects>
        <_>
          3 4 9 6 -1.</_>
        <_>
          3 7 9 3 2.</_></rects>
      <tilted>0</tilted></_>
    <_>
      <rects>
        <_>
          3 5 3 1 -1.</_>
        <_>
          4 5 1 1 3.</_></rects>
      <tilted>0</tilted></_>
    <_>
      <rects>
        <_>
          3 5 2 3 -1.</_>
        <_>
          3 6 2 1 3.</_></rects>
      <tilted>0</tilted></_>
    <_>
      <rects>
        <_>
          3 5 4 4 -1.</_>
        <_>
          3 5 2 2 2.</_>
        <_>
          5 7 2 2 2.</_></rects>
      <tilted>0</tilted></_>
    <_>
      <rects>
        <_>
          3 5 6 5 -1.</_>
        <_>
          5 5 2 5 3.</_></rects>
      <tilted>0</tilted></_>
    <_>
      <rects>
        <_>
          3 5 6 2 -1.</_>
        <_>
          6 5 3 2 2.</_></rects>
      <tilted>0</tilted></_>
    <_>
      <rects>
        <_>
          3 5 6 4 -1.</_>
        <_>
          3 5 3 2 2.</_>
        <_>
          6 7 3 2 2.</_></rects>
      <tilted>0</tilted></_>
    <_>
      <rects>
        <_>
          3 5 6 3 -1.</_>
        <_>
          3 6 6 1 3.</_></rects>
      <tilted>0</tilted></_>
    <_>
      <rects>
        <_>
          3 5 7 6 -1.</_>
        <_>
          3 8 7 3 2.</_></rects>
      <tilted>0</tilted></_>
    <_>
      <rects>
        <_>
          3 6 2 4 -1.</_>
        <_>
          3 6 1 2 2.</_>
        <_>
          4 8 1 2 2.</_></rects>
      <tilted>0</tilted></_>
    <_>
      <rects>
        <_>
          3 6 3 4 -1.</_>
        <_>
          4 6 1 4 3.</_></rects>
      <tilted>0</tilted></_>
    <_>
      <rects>
        <_>
          3 6 2 3 -1.</_>
        <_>
          3 7 2 1 3.</_></rects>
      <tilted>0</tilted></_>
    <_>
      <rects>
        <_>
          3 6 6 3 -1.</_>
        <_>
          5 6 2 3 3.</_></rects>
      <tilted>0</tilted></_>
    <_>
      <rects>
        <_>
          3 7 3 2 -1.</_>
        <_>
          4 7 1 2 3.</_></rects>
      <tilted>0</tilted></_>
    <_>
      <rects>
        <_>
          3 7 4 2 -1.</_>
        <_>
          3 7 2 1 2.</_>
        <_>
          5 8 2 1 2.</_></rects>
      <tilted>0</tilted></_>
    <_>
      <rects>
        <_>
          3 7 3 3 -1.</_>
        <_>
          3 8 3 1 3.</_></rects>
      <tilted>0</tilted></_>
    <_>
      <rects>
        <_>
          3 8 6 2 -1.</_>
        <_>
          5 8 2 2 3.</_></rects>
      <tilted>0</tilted></_>
    <_>
      <rects>
        <_>
          3 8 9 1 -1.</_>
        <_>
          6 8 3 1 3.</_></rects>
      <tilted>0</tilted></_>
    <_>
      <rects>
        <_>
          3 9 9 3 -1.</_>
        <_>
          6 9 3 3 3.</_></rects>
      <tilted>0</tilted></_>
    <_>
      <rects>
        <_>
          4 0 6 3 -1.</_>
        <_>
          6 0 2 3 3.</_></rects>
      <tilted>0</tilted></_>
    <_>
      <rects>
        <_>
          4 0 5 3 -1.</_>
        <_>
          4 1 5 1 3.</_></rects>
      <tilted>0</tilted></_>
    <_>
      <rects>
        <_>
          4 0 6 4 -1.</_>
        <_>
          4 2 6 2 2.</_></rects>
      <tilted>0</tilted></_>
    <_>
      <rects>
        <_>
          4 0 8 12 -1.</_>
        <_>
          4 4 8 4 3.</_></rects>
      <tilted>0</tilted></_>
    <_>
      <rects>
        <_>
          4 1 6 1 -1.</_>
        <_>
          6 1 2 1 3.</_></rects>
      <tilted>0</tilted></_>
    <_>
      <rects>
        <_>
          4 1 4 9 -1.</_>
        <_>
          4 4 4 3 3.</_></rects>
      <tilted>0</tilted></_>
    <_>
      <rects>
        <_>
          4 2 4 1 -1.</_>
        <_>
          6 2 2 1 2.</_></rects>
      <tilted>0</tilted></_>
    <_>
      <rects>
        <_>
          4 2 6 1 -1.</_>
        <_>
          6 2 2 1 3.</_></rects>
      <tilted>0</tilted></_>
    <_>
      <rects>
        <_>
          4 2 5 3 -1.</_>
        <_>
          4 3 5 1 3.</_></rects>
      <tilted>0</tilted></_>
    <_>
      <rects>
        <_>
          4 2 6 10 -1.</_>
        <_>
          4 7 6 5 2.</_></rects>
      <tilted>0</tilted></_>
    <_>
      <rects>
        <_>
          4 3 3 2 -1.</_>
        <_>
          5 3 1 2 3.</_></rects>
      <tilted>0</tilted></_>
    <_>
      <rects>
        <_>
          4 3 4 1 -1.</_>
        <_>
          6 3 2 1 2.</_></rects>
      <tilted>0</tilted></_>
    <_>
      <rects>
        <_>
          4 3 2 3 -1.</_>
        <_>
          4 4 2 1 3.</_></rects>
      <tilted>0</tilted></_>
    <_>
      <rects>
        <_>
          4 3 3 4 -1.</_>
        <_>
          4 5 3 2 2.</_></rects>
      <tilted>0</tilted></_>
    <_>
      <rects>
        <_>
          4 4 3 1 -1.</_>
        <_>
          5 4 1 1 3.</_></rects>
      <tilted>0</tilted></_>
    <_>
      <rects>
        <_>
          4 4 3 6 -1.</_>
        <_>
          5 4 1 6 3.</_></rects>
      <tilted>0</tilted></_>
    <_>
      <rects>
        <_>
          4 4 6 1 -1.</_>
        <_>
          7 4 3 1 2.</_></rects>
      <tilted>0</tilted></_>
    <_>
      <rects>
        <_>
          4 4 4 6 -1.</_>
        <_>
          4 6 4 2 3.</_></rects>
      <tilted>0</tilted></_>
    <_>
      <rects>
        <_>
          4 5 3 4 -1.</_>
        <_>
          5 5 1 4 3.</_></rects>
      <tilted>0</tilted></_>
    <_>
      <rects>
        <_>
          4 5 2 3 -1.</_>
        <_>
          4 6 2 1 3.</_></rects>
      <tilted>0</tilted></_>
    <_>
      <rects>
        <_>
          4 5 4 4 -1.</_>
        <_>
          4 5 2 2 2.</_>
        <_>
          6 7 2 2 2.</_></rects>
      <tilted>0</tilted></_>
    <_>
      <rects>
        <_>
          4 5 6 4 -1.</_>
        <_>
          6 5 2 4 3.</_></rects>
      <tilted>0</tilted></_>
    <_>
      <rects>
        <_>
          4 5 6 4 -1.</_>
        <_>
          4 5 3 2 2.</_>
        <_>
          7 7 3 2 2.</_></rects>
      <tilted>0</tilted></_>
    <_>
      <rects>
        <_>
          4 5 5 3 -1.</_>
        <_>
          4 6 5 1 3.</_></rects>
      <tilted>0</tilted></_>
    <_>
      <rects>
        <_>
          4 6 2 3 -1.</_>
        <_>
          5 6 1 3 2.</_></rects>
      <tilted>0</tilted></_>
    <_>
      <rects>
        <_>
          4 6 3 3 -1.</_>
        <_>
          5 6 1 3 3.</_></rects>
      <tilted>0</tilted></_>
    <_>
      <rects>
        <_>
          4 6 3 4 -1.</_>
        <_>
          5 6 1 4 3.</_></rects>
      <tilted>0</tilted></_>
    <_>
      <rects>
        <_>
          4 7 3 1 -1.</_>
        <_>
          5 7 1 1 3.</_></rects>
      <tilted>0</tilted></_>
    <_>
      <rects>
        <_>
          4 7 3 2 -1.</_>
        <_>
          5 7 1 2 3.</_></rects>
      <tilted>0</tilted></_>
    <_>
      <rects>
        <_>
          4 7 6 2 -1.</_>
        <_>
          6 7 2 2 3.</_></rects>
      <tilted>0</tilted></_>
    <_>
      <rects>
        <_>
          4 7 8 1 -1.</_>
        <_>
          8 7 4 1 2.</_></rects>
      <tilted>0</tilted></_>
    <_>
      <rects>
        <_>
          4 8 3 2 -1.</_>
        <_>
          5 8 1 2 3.</_></rects>
      <tilted>0</tilted></_>
    <_>
      <rects>
        <_>
          4 8 6 1 -1.</_>
        <_>
          6 8 2 1 3.</_></rects>
      <tilted>0</tilted></_>
    <_>
      <rects>
        <_>
          5 0 3 3 -1.</_>
        <_>
          5 1 3 1 3.</_></rects>
      <tilted>0</tilted></_>
    <_>
      <rects>
        <_>
          5 0 4 3 -1.</_>
        <_>
          5 1 4 1 3.</_></rects>
      <tilted>0</tilted></_>
    <_>
      <rects>
        <_>
          5 0 5 3 -1.</_>
        <_>
          5 1 5 1 3.</_></rects>
      <tilted>0</tilted></_>
    <_>
      <rects>
        <_>
          5 1 3 2 -1.</_>
        <_>
          6 1 1 2 3.</_></rects>
      <tilted>0</tilted></_>
    <_>
      <rects>
        <_>
          5 1 3 11 -1.</_>
        <_>
          6 1 1 11 3.</_></rects>
      <tilted>0</tilted></_>
    <_>
      <rects>
        <_>
          5 2 3 3 -1.</_>
        <_>
          6 2 1 3 3.</_></rects>
      <tilted>0</tilted></_>
    <_>
      <rects>
        <_>
          5 2 3 7 -1.</_>
        <_>
          6 2 1 7 3.</_></rects>
      <tilted>0</tilted></_>
    <_>
      <rects>
        <_>
          5 3 1 2 -1.</_>
        <_>
          5 4 1 1 2.</_></rects>
      <tilted>0</tilted></_>
    <_>
      <rects>
        <_>
          5 3 3 3 -1.</_>
        <_>
          6 3 1 3 3.</_></rects>
      <tilted>0</tilted></_>
    <_>
      <rects>
        <_>
          5 3 2 2 -1.</_>
        <_>
          5 4 2 1 2.</_></rects>
      <tilted>0</tilted></_>
    <_>
      <rects>
        <_>
          5 3 2 6 -1.</_>
        <_>
          5 6 2 3 2.</_></rects>
      <tilted>0</tilted></_>
    <_>
      <rects>
        <_>
          5 3 4 6 -1.</_>
        <_>
          5 3 2 3 2.</_>
        <_>
          7 6 2 3 2.</_></rects>
      <tilted>0</tilted></_>
    <_>
      <rects>
        <_>
          5 3 3 4 -1.</_>
        <_>
          5 5 3 2 2.</_></rects>
      <tilted>0</tilted></_>
    <_>
      <rects>
        <_>
          5 4 1 2 -1.</_>
        <_>
          5 5 1 1 2.</_></rects>
      <tilted>0</tilted></_>
    <_>
      <rects>
        <_>
          5 4 1 3 -1.</_>
        <_>
          5 5 1 1 3.</_></rects>
      <tilted>0</tilted></_>
    <_>
      <rects>
        <_>
          5 4 6 4 -1.</_>
        <_>
          7 4 2 4 3.</_></rects>
      <tilted>0</tilted></_>
    <_>
      <rects>
        <_>
          5 4 6 2 -1.</_>
        <_>
          8 4 3 2 2.</_></rects>
      <tilted>0</tilted></_>
    <_>
      <rects>
        <_>
          5 4 6 5 -1.</_>
        <_>
          8 4 3 5 2.</_></rects>
      <tilted>0</tilted></_>
    <_>
      <rects>
        <_>
          5 4 4 3 -1.</_>
        <_>
          5 5 4 1 3.</_></rects>
      <tilted>0</tilted></_>
    <_>
      <rects>
        <_>
          5 5 2 1 -1.</_>
        <_>
          6 5 1 1 2.</_></rects>
      <tilted>0</tilted></_>
    <_>
      <rects>
        <_>
          5 5 2 2 -1.</_>
        <_>
          6 5 1 2 2.</_></rects>
      <tilted>0</tilted></_>
    <_>
      <rects>
        <_>
          5 5 3 4 -1.</_>
        <_>
          6 5 1 4 3.</_></rects>
      <tilted>0</tilted></_>
    <_>
      <rects>
        <_>
          5 5 3 5 -1.</_>
        <_>
          6 5 1 5 3.</_></rects>
      <tilted>0</tilted></_>
    <_>
      <rects>
        <_>
          5 5 6 5 -1.</_>
        <_>
          7 5 2 5 3.</_></rects>
      <tilted>0</tilted></_>
    <_>
      <rects>
        <_>
          5 5 3 3 -1.</_>
        <_>
          5 6 3 1 3.</_></rects>
      <tilted>0</tilted></_>
    <_>
      <rects>
        <_>
          5 5 5 3 -1.</_>
        <_>
          5 6 5 1 3.</_></rects>
      <tilted>0</tilted></_>
    <_>
      <rects>
        <_>
          5 6 2 2 -1.</_>
        <_>
          5 6 1 1 2.</_>
        <_>
          6 7 1 1 2.</_></rects>
      <tilted>0</tilted></_>
    <_>
      <rects>
        <_>
          5 6 2 4 -1.</_>
        <_>
          6 6 1 4 2.</_></rects>
      <tilted>0</tilted></_>
    <_>
      <rects>
        <_>
          5 6 3 4 -1.</_>
        <_>
          6 6 1 4 3.</_></rects>
      <tilted>0</tilted></_>
    <_>
      <rects>
        <_>
          5 6 3 5 -1.</_>
        <_>
          6 6 1 5 3.</_></rects>
      <tilted>0</tilted></_>
    <_>
      <rects>
        <_>
          5 6 6 3 -1.</_>
        <_>
          7 6 2 3 3.</_></rects>
      <tilted>0</tilted></_>
    <_>
      <rects>
        <_>
          5 6 5 2 -1.</_>
        <_>
          5 7 5 1 2.</_></rects>
      <tilted>0</tilted></_>
    <_>
      <rects>
        <_>
          5 7 3 1 -1.</_>
        <_>
          6 7 1 1 3.</_></rects>
      <tilted>0</tilted></_>
    <_>
      <rects>
        <_>
          5 7 2 2 -1.</_>
        <_>
          5 7 1 1 2.</_>
        <_>
          6 8 1 1 2.</_></rects>
      <tilted>0</tilted></_>
    <_>
      <rects>
        <_>
          5 7 3 2 -1.</_>
        <_>
          6 7 1 2 3.</_></rects>
      <tilted>0</tilted></_>
    <_>
      <rects>
        <_>
          5 7 3 3 -1.</_>
        <_>
          6 7 1 3 3.</_></rects>
      <tilted>0</tilted></_>
    <_>
      <rects>
        <_>
          5 7 2 2 -1.</_>
        <_>
          5 8 2 1 2.</_></rects>
      <tilted>0</tilted></_>
    <_>
      <rects>
        <_>
          5 7 6 2 -1.</_>
        <_>
          7 7 2 2 3.</_></rects>
      <tilted>0</tilted></_>
    <_>
      <rects>
        <_>
          5 9 1 3 -1.</_>
        <_>
          5 10 1 1 3.</_></rects>
      <tilted>0</tilted></_>
    <_>
      <rects>
        <_>
          5 10 3 1 -1.</_>
        <_>
          6 10 1 1 3.</_></rects>
      <tilted>0</tilted></_>
    <_>
      <rects>
        <_>
          5 10 4 2 -1.</_>
        <_>
          5 11 4 1 2.</_></rects>
      <tilted>0</tilted></_>
    <_>
      <rects>
        <_>
          6 1 6 3 -1.</_>
        <_>
          8 1 2 3 3.</_></rects>
      <tilted>0</tilted></_>
    <_>
      <rects>
        <_>
          6 2 6 9 -1.</_>
        <_>
          8 2 2 9 3.</_></rects>
      <tilted>0</tilted></_>
    <_>
      <rects>
        <_>
          6 3 1 2 -1.</_>
        <_>
          6 4 1 1 2.</_></rects>
      <tilted>0</tilted></_>
    <_>
      <rects>
        <_>
          6 3 1 3 -1.</_>
        <_>
          6 4 1 1 3.</_></rects>
      <tilted>0</tilted></_>
    <_>
      <rects>
        <_>
          6 3 1 6 -1.</_>
        <_>
          6 6 1 3 2.</_></rects>
      <tilted>0</tilted></_>
    <_>
      <rects>
        <_>
          6 3 3 5 -1.</_>
        <_>
          7 3 1 5 3.</_></rects>
      <tilted>0</tilted></_>
    <_>
      <rects>
        <_>
          6 4 2 6 -1.</_>
        <_>
          7 4 1 6 2.</_></rects>
      <tilted>0</tilted></_>
    <_>
      <rects>
        <_>
          6 4 2 7 -1.</_>
        <_>
          7 4 1 7 2.</_></rects>
      <tilted>0</tilted></_>
    <_>
      <rects>
        <_>
          6 4 2 8 -1.</_>
        <_>
          6 8 2 4 2.</_></rects>
      <tilted>0</tilted></_>
    <_>
      <rects>
        <_>
          6 5 3 4 -1.</_>
        <_>
          7 5 1 4 3.</_></rects>
      <tilted>0</tilted></_>
    <_>
      <rects>
        <_>
          6 6 3 3 -1.</_>
        <_>
          7 6 1 3 3.</_></rects>
      <tilted>0</tilted></_>
    <_>
      <rects>
        <_>
          6 7 3 1 -1.</_>
        <_>
          7 7 1 1 3.</_></rects>
      <tilted>0</tilted></_>
    <_>
      <rects>
        <_>
          6 7 2 2 -1.</_>
        <_>
          6 7 1 1 2.</_>
        <_>
          7 8 1 1 2.</_></rects>
      <tilted>0</tilted></_>
    <_>
      <rects>
        <_>
          6 7 2 2 -1.</_>
        <_>
          7 7 1 2 2.</_></rects>
      <tilted>0</tilted></_>
    <_>
      <rects>
        <_>
          6 9 3 1 -1.</_>
        <_>
          7 9 1 1 3.</_></rects>
      <tilted>0</tilted></_>
    <_>
      <rects>
        <_>
          6 10 3 2 -1.</_>
        <_>
          6 11 3 1 2.</_></rects>
      <tilted>0</tilted></_>
    <_>
      <rects>
        <_>
          7 0 4 12 -1.</_>
        <_>
          7 0 2 6 2.</_>
        <_>
          9 6 2 6 2.</_></rects>
      <tilted>0</tilted></_>
    <_>
      <rects>
        <_>
          7 0 4 3 -1.</_>
        <_>
          7 1 4 1 3.</_></rects>
      <tilted>0</tilted></_>
    <_>
      <rects>
        <_>
          7 2 4 2 -1.</_>
        <_>
          9 2 2 2 2.</_></rects>
      <tilted>0</tilted></_>
    <_>
      <rects>
        <_>
          7 3 2 6 -1.</_>
        <_>
          8 3 1 6 2.</_></rects>
      <tilted>0</tilted></_>
    <_>
      <rects>
        <_>
          7 3 3 6 -1.</_>
        <_>
          8 3 1 6 3.</_></rects>
      <tilted>0</tilted></_>
    <_>
      <rects>
        <_>
          7 4 1 2 -1.</_>
        <_>
          7 5 1 1 2.</_></rects>
      <tilted>0</tilted></_>
    <_>
      <rects>
        <_>
          7 4 2 2 -1.</_>
        <_>
          7 4 1 1 2.</_>
        <_>
          8 5 1 1 2.</_></rects>
      <tilted>0</tilted></_>
    <_>
      <rects>
        <_>
          7 5 1 4 -1.</_>
        <_>
          7 7 1 2 2.</_></rects>
      <tilted>0</tilted></_>
    <_>
      <rects>
        <_>
          7 5 2 4 -1.</_>
        <_>
          8 5 1 4 2.</_></rects>
      <tilted>0</tilted></_>
    <_>
      <rects>
        <_>
          7 5 3 6 -1.</_>
        <_>
          8 5 1 6 3.</_></rects>
      <tilted>0</tilted></_>
    <_>
      <rects>
        <_>
          7 5 2 4 -1.</_>
        <_>
          7 7 2 2 2.</_></rects>
      <tilted>0</tilted></_>
    <_>
      <rects>
        <_>
          7 5 2 6 -1.</_>
        <_>
          7 7 2 2 3.</_></rects>
      <tilted>0</tilted></_>
    <_>
      <rects>
        <_>
          7 6 3 2 -1.</_>
        <_>
          8 6 1 2 3.</_></rects>
      <tilted>0</tilted></_>
    <_>
      <rects>
        <_>
          7 7 3 2 -1.</_>
        <_>
          8 7 1 2 3.</_></rects>
      <tilted>0</tilted></_>
    <_>
      <rects>
        <_>
          7 8 1 2 -1.</_>
        <_>
          7 9 1 1 2.</_></rects>
      <tilted>0</tilted></_>
    <_>
      <rects>
        <_>
          7 9 2 2 -1.</_>
        <_>
          7 10 2 1 2.</_></rects>
      <tilted>0</tilted></_>
    <_>
      <rects>
        <_>
          7 10 2 2 -1.</_>
        <_>
          7 11 2 1 2.</_></rects>
      <tilted>0</tilted></_>
    <_>
      <rects>
        <_>
          8 0 3 1 -1.</_>
        <_>
          9 0 1 1 3.</_></rects>
      <tilted>0</tilted></_>
    <_>
      <rects>
        <_>
          8 0 3 10 -1.</_>
        <_>
          8 5 3 5 2.</_></rects>
      <tilted>0</tilted></_>
    <_>
      <rects>
        <_>
          8 2 1 3 -1.</_>
        <_>
          8 3 1 1 3.</_></rects>
      <tilted>0</tilted></_>
    <_>
      <rects>
        <_>
          8 2 2 3 -1.</_>
        <_>
          8 3 2 1 3.</_></rects>
      <tilted>0</tilted></_>
    <_>
      <rects>
        <_>
          8 3 2 2 -1.</_>
        <_>
          8 3 1 1 2.</_>
        <_>
          9 4 1 1 2.</_></rects>
      <tilted>0</tilted></_>
    <_>
      <rects>
        <_>
          8 3 2 3 -1.</_>
        <_>
          8 4 2 1 3.</_></rects>
      <tilted>0</tilted></_>
    <_>
      <rects>
        <_>
          8 3 3 3 -1.</_>
        <_>
          8 4 3 1 3.</_></rects>
      <tilted>0</tilted></_>
    <_>
      <rects>
        <_>
          8 4 1 6 -1.</_>
        <_>
          8 7 1 3 2.</_></rects>
      <tilted>0</tilted></_>
    <_>
      <rects>
        <_>
          8 4 3 4 -1.</_>
        <_>
          9 4 1 4 3.</_></rects>
      <tilted>0</tilted></_>
    <_>
      <rects>
        <_>
          8 4 2 8 -1.</_>
        <_>
          8 8 2 4 2.</_></rects>
      <tilted>0</tilted></_>
    <_>
      <rects>
        <_>
          8 5 1 6 -1.</_>
        <_>
          8 7 1 2 3.</_></rects>
      <tilted>0</tilted></_>
    <_>
      <rects>
        <_>
          8 5 2 3 -1.</_>
        <_>
          9 5 1 3 2.</_></rects>
      <tilted>0</tilted></_>
    <_>
      <rects>
        <_>
          8 5 3 3 -1.</_>
        <_>
          9 5 1 3 3.</_></rects>
      <tilted>0</tilted></_>
    <_>
      <rects>
        <_>
          8 5 3 4 -1.</_>
        <_>
          9 5 1 4 3.</_></rects>
      <tilted>0</tilted></_>
    <_>
      <rects>
        <_>
          8 6 1 3 -1.</_>
        <_>
          8 7 1 1 3.</_></rects>
      <tilted>0</tilted></_>
    <_>
      <rects>
        <_>
          8 6 3 6 -1.</_>
        <_>
          8 9 3 3 2.</_></rects>
      <tilted>0</tilted></_>
    <_>
      <rects>
        <_>
          8 11 4 1 -1.</_>
        <_>
          10 11 2 1 2.</_></rects>
      <tilted>0</tilted></_>
    <_>
      <rects>
        <_>
          9 2 3 3 -1.</_>
        <_>
          10 2 1 3 3.</_></rects>
      <tilted>0</tilted></_>
    <_>
      <rects>
        <_>
          9 3 1 3 -1.</_>
        <_>
          9 4 1 1 3.</_></rects>
      <tilted>0</tilted></_>
    <_>
      <rects>
        <_>
          9 3 1 8 -1.</_>
        <_>
          9 7 1 4 2.</_></rects>
      <tilted>0</tilted></_>
    <_>
      <rects>
        <_>
          9 4 2 4 -1.</_>
        <_>
          10 4 1 4 2.</_></rects>
      <tilted>0</tilted></_>
    <_>
      <rects>
        <_>
          9 5 2 2 -1.</_>
        <_>
          9 5 1 1 2.</_>
        <_>
          10 6 1 1 2.</_></rects>
      <tilted>0</tilted></_>
    <_>
      <rects>
        <_>
          9 5 3 4 -1.</_>
        <_>
          9 7 3 2 2.</_></rects>
      <tilted>0</tilted></_>
    <_>
      <rects>
        <_>
          9 6 1 3 -1.</_>
        <_>
          9 7 1 1 3.</_></rects>
      <tilted>0</tilted></_>
    <_>
      <rects>
        <_>
          9 8 1 2 -1.</_>
        <_>
          9 9 1 1 2.</_></rects>
      <tilted>0</tilted></_>
    <_>
      <rects>
        <_>
          9 8 1 3 -1.</_>
        <_>
          9 9 1 1 3.</_></rects>
      <tilted>0</tilted></_>
    <_>
      <rects>
        <_>
          9 8 1 4 -1.</_>
        <_>
          9 10 1 2 2.</_></rects>
      <tilted>0</tilted></_>
    <_>
      <rects>
        <_>
          10 1 1 3 -1.</_>
        <_>
          10 2 1 1 3.</_></rects>
      <tilted>0</tilted></_>
    <_>
      <rects>
        <_>
          10 3 2 1 -1.</_>
        <_>
          11 3 1 1 2.</_></rects>
      <tilted>0</tilted></_>
    <_>
      <rects>
        <_>
          10 4 2 1 -1.</_>
        <_>
          11 4 1 1 2.</_></rects>
      <tilted>0</tilted></_>
    <_>
      <rects>
        <_>
          10 4 1 4 -1.</_>
        <_>
          10 6 1 2 2.</_></rects>
      <tilted>0</tilted></_>
    <_>
      <rects>
        <_>
          10 7 1 2 -1.</_>
        <_>
          10 8 1 1 2.</_></rects>
      <tilted>0</tilted></_>
    <_>
      <rects>
        <_>
          10 7 2 4 -1.</_>
        <_>
          10 7 1 2 2.</_>
        <_>
          11 9 1 2 2.</_></rects>
      <tilted>0</tilted></_>
    <_>
      <rects>
        <_>
          11 4 1 3 -1.</_>
        <_>
          11 5 1 1 3.</_></rects>
      <tilted>0</tilted></_></features></cascade>
</opencv_storage>
