<?xml version="1.0"?>
<opencv_storage>
<cascade>
  <stageType>BOOST</stageType>
  <featureType>HAAR</featureType>
  <height>12</height>
  <width>12</width>
  <stageParams>
    <boostType>GAB</boostType>
    <minHitRate>9.9500000476837158e-01</minHitRate>
    <maxFalseAlarm>5.0000000000000000e-01</maxFalseAlarm>
    <weightTrimRate>9.4999999999999996e-01</weightTrimRate>
    <maxDepth>1</maxDepth>
    <maxWeakCount>100</maxWeakCount></stageParams>
  <featureParams>
    <maxCatCount>0</maxCatCount>
    <featSize>1</featSize>
    <mode>BASIC</mode></featureParams>
  <stageNum>15</stageNum>
  <stages>
    <!-- stage 0 -->
    <_>
      <maxWeakCount>3</maxWeakCount>
      <stageThreshold>-1.1806617975234985e+00</stageThreshold>
      <weakClassifiers>
        <_>
          <internalNodes>
            0 -1 46 -2.4778696894645691e-01</internalNodes>
          <leafValues>
            3.8816738128662109e-01 -9.5291203260421753e-01</leafValues></_>
        <_>
          <internalNodes>
            0 -1 3 2.2074808180332184e-01</internalNodes>
          <leafValues>
            -7.6249521970748901e-01 5.5124139785766602e-01</leafValues></_>
        <_>
          <internalNodes>
            0 -1 119 -1.3003384228795767e-03</internalNodes>
          <leafValues>
            5.3474545478820801e-01 -6.2304806709289551e-01</leafValues></_></weakClassifiers></_>
    <!-- stage 1 -->
    <_>
      <maxWeakCount>4</maxWeakCount>
      <stageThreshold>-6.0408788919448853e-01</stageThreshold>
      <weakClassifiers>
        <_>
          <internalNodes>
            0 -1 14 3.9005447179079056e-03</internalNodes>
          <leafValues>
            -7.7011495828628540e-01 4.3646410107612610e-01</leafValues></_>
        <_>
          <internalNodes>
            0 -1 41 -1.8850895762443542e-01</internalNodes>
          <leafValues>
            3.6408320069313049e-01 -8.8877928256988525e-01</leafValues></_>
        <_>
          <internalNodes>
            0 -1 98 -9.2044752091169357e-03</internalNodes>
          <leafValues>
            4.1811573505401611e-01 -7.9214370250701904e-01</leafValues></_>
        <_>
          <internalNodes>
            0 -1 58 1.1417422443628311e-02</internalNodes>
          <leafValues>
            -5.6988841295242310e-01 6.8633437156677246e-01</leafValues></_></weakClassifiers></_>
    <!-- stage 2 -->
    <_>
      <maxWeakCount>4</maxWeakCount>
      <stageThreshold>-1.3380491733551025e+00</stageThreshold>
      <weakClassifiers>
        <_>
          <internalNodes>
            0 -1 39 1.8780954182147980e-02</internalNodes>
          <leafValues>
            1.8532574176788330e-01 -9.1120505332946777e-01</leafValues></_>
        <_>
          <internalNodes>
            0 -1 57 3.3819779753684998e-02</internalNodes>
          <leafValues>
            -5.6976383924484253e-01 5.7130330801010132e-01</leafValues></_>
        <_>
          <internalNodes>
            0 -1 27 8.3085469901561737e-02</internalNodes>
          <leafValues>
            -3.4236541390419006e-01 7.3702734708786011e-01</leafValues></_>
        <_>
          <internalNodes>
            0 -1 108 -7.8584183938801289e-04</internalNodes>
          <leafValues>
            4.8528519272804260e-01 -5.2679401636123657e-01</leafValues></_></weakClassifiers></_>
    <!-- stage 3 -->
    <_>
      <maxWeakCount>8</maxWeakCount>
      <stageThreshold>-1.3399907350540161e+00</stageThreshold>
      <weakClassifiers>
        <_>
          <internalNodes>
            0 -1 37 3.6984443664550781e-01</internalNodes>
          <leafValues>
            -8.7051373720169067e-01 1.5009500086307526e-01</leafValues></_>
        <_>
          <internalNodes>
            0 -1 69 1.2215409427881241e-02</internalNodes>
          <leafValues>
            -4.4562208652496338e-01 6.5635496377944946e-01</leafValues></_>
        <_>
          <internalNodes>
            0 -1 24 5.9060137718915939e-03</internalNodes>
          <leafValues>
            -6.9402003288269043e-01 3.6299377679824829e-01</leafValues></_>
        <_>
          <internalNodes>
            0 -1 123 1.2352259829640388e-02</internalNodes>
          <leafValues>
            -4.6337795257568359e-01 5.0399881601333618e-01</leafValues></_>
        <_>
          <internalNodes>
            0 -1 7 3.1409785151481628e-02</internalNodes>
          <leafValues>
            -3.4137973189353943e-01 5.6089544296264648e-01</leafValues></_>
        <_>
          <internalNodes>
            0 -1 34 7.8064650297164917e-02</internalNodes>
          <leafValues>
            -1.8498028814792633e-01 8.6862534284591675e-01</leafValues></_>
        <_>
          <internalNodes>
            0 -1 112 1.7107781604863703e-04</internalNodes>
          <leafValues>
            -5.4497349262237549e-01 3.8738065958023071e-01</leafValues></_>
        <_>
          <internalNodes>
            0 -1 86 8.4045147523283958e-03</internalNodes>
          <leafValues>
            -4.2800748348236084e-01 3.7024727463722229e-01</leafValues></_></weakClassifiers></_>
    <!-- stage 4 -->
    <_>
      <maxWeakCount>5</maxWeakCount>
      <stageThreshold>-1.4397609233856201e+00</stageThreshold>
      <weakClassifiers>
        <_>
          <internalNodes>
            0 -1 56 4.4267069548368454e-02</internalNodes>
          <leafValues>
            -5.9264242649078369e-01 4.1634240746498108e-01</leafValues></_>
        <_>
          <internalNodes>
            0 -1 54 -5.1450552418828011e-03</internalNodes>
          <leafValues>
            4.3718990683555603e-01 -5.1705408096313477e-01</leafValues></_>
        <_>
          <internalNodes>
            0 -1 62 -7.4928812682628632e-02</internalNodes>
          <leafValues>
            2.5493061542510986e-01 -8.5308778285980225e-01</leafValues></_>
        <_>
          <internalNodes>
            0 -1 29 1.2473143637180328e-01</internalNodes>
          <leafValues>
            1.9583928585052490e-01 -9.5392763614654541e-01</leafValues></_>
        <_>
          <internalNodes>
            0 -1 11 3.0957568436861038e-02</internalNodes>
          <leafValues>
            -7.8083431720733643e-01 1.5191403031349182e-01</leafValues></_></weakClassifiers></_>
    <!-- stage 5 -->
    <_>
      <maxWeakCount>7</maxWeakCount>
      <stageThreshold>-1.2928098440170288e+00</stageThreshold>
      <weakClassifiers>
        <_>
          <internalNodes>
            0 -1 116 2.4299543350934982e-02</internalNodes>
          <leafValues>
            -5.7074028253555298e-01 4.2259413003921509e-01</leafValues></_>
        <_>
          <internalNodes>
            0 -1 109 -7.3186308145523071e-03</internalNodes>
          <leafValues>
            3.7949335575103760e-01 -5.1499193906784058e-01</leafValues></_>
        <_>
          <internalNodes>
            0 -1 20 -1.5511509962379932e-02</internalNodes>
          <leafValues>
            3.7267959117889404e-01 -5.0014621019363403e-01</leafValues></_>
        <_>
          <internalNodes>
            0 -1 31 1.4049900695681572e-02</internalNodes>
          <leafValues>
            -3.7078851461410522e-01 4.6656632423400879e-01</leafValues></_>
        <_>
          <internalNodes>
            0 -1 103 2.5272373110055923e-02</internalNodes>
          <leafValues>
            -2.4485063552856445e-01 6.7071092128753662e-01</leafValues></_>
        <_>
          <internalNodes>
            0 -1 82 1.4778835698962212e-02</internalNodes>
          <leafValues>
            -2.9167938232421875e-01 6.7254287004470825e-01</leafValues></_>
        <_>
          <internalNodes>
            0 -1 10 3.3661402761936188e-02</internalNodes>
          <leafValues>
            -5.7121741771697998e-01 3.0590182542800903e-01</leafValues></_></weakClassifiers></_>
    <!-- stage 6 -->
    <_>
      <maxWeakCount>10</maxWeakCount>
      <stageThreshold>-1.2998845577239990e+00</stageThreshold>
      <weakClassifiers>
        <_>
          <internalNodes>
            0 -1 93 2.0324477925896645e-02</internalNodes>
          <leafValues>
            -6.0799998044967651e-01 2.1600000560283661e-01</leafValues></_>
        <_>
          <internalNodes>
            0 -1 73 8.4061094094067812e-04</internalNodes>
          <leafValues>
            -6.0944855213165283e-01 3.0125594139099121e-01</leafValues></_>
        <_>
          <internalNodes>
            0 -1 46 -3.1143826246261597e-01</internalNodes>
          <leafValues>
            2.5134438276290894e-01 -6.4226502180099487e-01</leafValues></_>
        <_>
          <internalNodes>
            0 -1 16 1.7754456028342247e-02</internalNodes>
          <leafValues>
            -3.3432891964912415e-01 5.5847084522247314e-01</leafValues></_>
        <_>
          <internalNodes>
            0 -1 28 1.0790215805172920e-02</internalNodes>
          <leafValues>
            -3.2160905003547668e-01 4.7044646739959717e-01</leafValues></_>
        <_>
          <internalNodes>
            0 -1 113 7.6333396136760712e-03</internalNodes>
          <leafValues>
            -3.7550652027130127e-01 4.2730921506881714e-01</leafValues></_>
        <_>
          <internalNodes>
            0 -1 34 7.2573542594909668e-02</internalNodes>
          <leafValues>
            -1.4178556203842163e-01 8.0644130706787109e-01</leafValues></_>
        <_>
          <internalNodes>
            0 -1 84 1.1800333857536316e-01</internalNodes>
          <leafValues>
            -2.1316586434841156e-01 7.1091777086257935e-01</leafValues></_>
        <_>
          <internalNodes>
            0 -1 88 5.7527668774127960e-02</internalNodes>
          <leafValues>
            -2.1414108574390411e-01 6.2074524164199829e-01</leafValues></_>
        <_>
          <internalNodes>
            0 -1 76 1.6709832474589348e-02</internalNodes>
          <leafValues>
            -2.8613841533660889e-01 4.7470107674598694e-01</leafValues></_></weakClassifiers></_>
    <!-- stage 7 -->
    <_>
      <maxWeakCount>12</maxWeakCount>
      <stageThreshold>-1.5880265235900879e+00</stageThreshold>
      <weakClassifiers>
        <_>
          <internalNodes>
            0 -1 4 1.0017953813076019e-01</internalNodes>
          <leafValues>
            -5.6848031282424927e-01 2.4423962831497192e-01</leafValues></_>
        <_>
          <internalNodes>
            0 -1 124 -1.8344953656196594e-02</internalNodes>
          <leafValues>
            2.8770294785499573e-01 -4.3557956814765930e-01</leafValues></_>
        <_>
          <internalNodes>
            0 -1 127 -7.9514029494021088e-05</internalNodes>
          <leafValues>
            3.0669325590133667e-01 -4.2569273710250854e-01</leafValues></_>
        <_>
          <internalNodes>
            0 -1 34 7.1940273046493530e-02</internalNodes>
          <leafValues>
            -1.7281284928321838e-01 7.0612055063247681e-01</leafValues></_>
        <_>
          <internalNodes>
            0 -1 64 5.4857395589351654e-02</internalNodes>
          <leafValues>
            -2.3297095298767090e-01 6.3803595304489136e-01</leafValues></_>
        <_>
          <internalNodes>
            0 -1 55 2.8053946793079376e-02</internalNodes>
          <leafValues>
            -2.7512302994728088e-01 4.7469478845596313e-01</leafValues></_>
        <_>
          <internalNodes>
            0 -1 90 1.5116224996745586e-02</internalNodes>
          <leafValues>
            1.4869904518127441e-01 -8.9131039381027222e-01</leafValues></_>
        <_>
          <internalNodes>
            0 -1 74 -1.6358802095055580e-03</internalNodes>
          <leafValues>
            -8.7085157632827759e-01 1.1942103505134583e-01</leafValues></_>
        <_>
          <internalNodes>
            0 -1 51 -8.7971299886703491e-02</internalNodes>
          <leafValues>
            8.5667669773101807e-01 -2.0278476178646088e-01</leafValues></_>
        <_>
          <internalNodes>
            0 -1 26 2.2353882377501577e-04</internalNodes>
          <leafValues>
            -3.5677260160446167e-01 3.5451051592826843e-01</leafValues></_>
        <_>
          <internalNodes>
            0 -1 120 6.3367672264575958e-03</internalNodes>
          <leafValues>
            -3.9160585403442383e-01 2.9658207297325134e-01</leafValues></_>
        <_>
          <internalNodes>
            0 -1 77 -1.7942402046173811e-03</internalNodes>
          <leafValues>
            -3.9653986692428589e-01 3.1431484222412109e-01</leafValues></_></weakClassifiers></_>
    <!-- stage 8 -->
    <_>
      <maxWeakCount>10</maxWeakCount>
      <stageThreshold>-1.4319289922714233e+00</stageThreshold>
      <weakClassifiers>
        <_>
          <internalNodes>
            0 -1 1 1.5844311565160751e-02</internalNodes>
          <leafValues>
            -6.1789470911026001e-01 1.5818181633949280e-01</leafValues></_>
        <_>
          <internalNodes>
            0 -1 61 -3.4424226032570004e-04</internalNodes>
          <leafValues>
            1.2655732035636902e-01 -8.2718634605407715e-01</leafValues></_>
        <_>
          <internalNodes>
            0 -1 36 -1.0021659545600414e-02</internalNodes>
          <leafValues>
            3.4453693032264709e-01 -4.1421690583229065e-01</leafValues></_>
        <_>
          <internalNodes>
            0 -1 126 3.9983773604035378e-03</internalNodes>
          <leafValues>
            -5.4824531078338623e-01 2.0665790140628815e-01</leafValues></_>
        <_>
          <internalNodes>
            0 -1 68 -3.9931677281856537e-02</internalNodes>
          <leafValues>
            6.6026955842971802e-01 -1.7391519248485565e-01</leafValues></_>
        <_>
          <internalNodes>
            0 -1 91 4.0607403963804245e-02</internalNodes>
          <leafValues>
            -2.8162962198257446e-01 4.6294721961021423e-01</leafValues></_>
        <_>
          <internalNodes>
            0 -1 67 2.7047835290431976e-02</internalNodes>
          <leafValues>
            -2.0017856359481812e-01 6.9530624151229858e-01</leafValues></_>
        <_>
          <internalNodes>
            0 -1 33 1.1521155014634132e-02</internalNodes>
          <leafValues>
            -3.1500837206840515e-01 4.0779757499694824e-01</leafValues></_>
        <_>
          <internalNodes>
            0 -1 31 1.6934202983975410e-02</internalNodes>
          <leafValues>
            -2.2120733559131622e-01 4.8430979251861572e-01</leafValues></_>
        <_>
          <internalNodes>
            0 -1 40 1.2868084013462067e-01</internalNodes>
          <leafValues>
            -2.5357306003570557e-01 4.4879114627838135e-01</leafValues></_></weakClassifiers></_>
    <!-- stage 9 -->
    <_>
      <maxWeakCount>10</maxWeakCount>
      <stageThreshold>-1.3191939592361450e+00</stageThreshold>
      <weakClassifiers>
        <_>
          <internalNodes>
            0 -1 129 -1.5768690500408411e-03</internalNodes>
          <leafValues>
            -2.3514851927757263e-02 -6.9508671760559082e-01</leafValues></_>
        <_>
          <internalNodes>
            0 -1 12 -1.2978522107005119e-02</internalNodes>
          <leafValues>
            2.7776816487312317e-01 -4.4300767779350281e-01</leafValues></_>
        <_>
          <internalNodes>
            0 -1 53 1.4866480603814125e-02</internalNodes>
          <leafValues>
            -2.5954091548919678e-01 4.5382410287857056e-01</leafValues></_>
        <_>
          <internalNodes>
            0 -1 119 -1.3065265957266092e-03</internalNodes>
          <leafValues>
            2.5782793760299683e-01 -5.0232166051864624e-01</leafValues></_>
        <_>
          <internalNodes>
            0 -1 45 -2.4704585969448090e-01</internalNodes>
          <leafValues>
            1.8175794184207916e-01 -7.4907571077346802e-01</leafValues></_>
        <_>
          <internalNodes>
            0 -1 42 -5.1997661590576172e-02</internalNodes>
          <leafValues>
            6.7921113967895508e-01 -1.7871072888374329e-01</leafValues></_>
        <_>
          <internalNodes>
            0 -1 80 2.4958220310509205e-03</internalNodes>
          <leafValues>
            -3.7531784176826477e-01 3.2429346442222595e-01</leafValues></_>
        <_>
          <internalNodes>
            0 -1 9 -4.1462588123977184e-03</internalNodes>
          <leafValues>
            -7.5615048408508301e-01 1.6136981546878815e-01</leafValues></_>
        <_>
          <internalNodes>
            0 -1 47 6.3812185544520617e-05</internalNodes>
          <leafValues>
            -5.4771113395690918e-01 1.6764780879020691e-01</leafValues></_>
        <_>
          <internalNodes>
            0 -1 32 -1.6903001070022583e-01</internalNodes>
          <leafValues>
            -8.4280794858932495e-01 1.0981488972902298e-01</leafValues></_></weakClassifiers></_>
    <!-- stage 10 -->
    <_>
      <maxWeakCount>12</maxWeakCount>
      <stageThreshold>-1.4238344430923462e+00</stageThreshold>
      <weakClassifiers>
        <_>
          <internalNodes>
            0 -1 70 -5.6538946926593781e-02</internalNodes>
          <leafValues>
            6.7333334684371948e-01 -4.4518518447875977e-01</leafValues></_>
        <_>
          <internalNodes>
            0 -1 107 -1.5566005371510983e-02</internalNodes>
          <leafValues>
            2.1503157913684845e-01 -6.7778390645980835e-01</leafValues></_>
        <_>
          <internalNodes>
            0 -1 0 -1.3037683442234993e-02</internalNodes>
          <leafValues>
            3.0380541086196899e-01 -4.0198862552642822e-01</leafValues></_>
        <_>
          <internalNodes>
            0 -1 63 -6.0420565307140350e-02</internalNodes>
          <leafValues>
            -6.8590116500854492e-01 1.8412360548973083e-01</leafValues></_>
        <_>
          <internalNodes>
            0 -1 110 -6.4264703541994095e-04</internalNodes>
          <leafValues>
            2.3860891163349152e-01 -4.6720594167709351e-01</leafValues></_>
        <_>
          <internalNodes>
            0 -1 8 -5.6308307684957981e-03</internalNodes>
          <leafValues>
            -4.6653741598129272e-01 2.2710564732551575e-01</leafValues></_>
        <_>
          <internalNodes>
            0 -1 23 8.6836934089660645e-02</internalNodes>
          <leafValues>
            -2.2683879733085632e-01 4.8754957318305969e-01</leafValues></_>
        <_>
          <internalNodes>
            0 -1 49 9.9497707560658455e-04</internalNodes>
          <leafValues>
            -4.6232569217681885e-01 2.8132912516593933e-01</leafValues></_>
        <_>
          <internalNodes>
            0 -1 83 -2.6056407019495964e-02</internalNodes>
          <leafValues>
            6.6688400506973267e-01 -1.8869514763355255e-01</leafValues></_>
        <_>
          <internalNodes>
            0 -1 94 1.5282720327377319e-01</internalNodes>
          <leafValues>
            -1.3945563137531281e-01 8.5145074129104614e-01</leafValues></_>
        <_>
          <internalNodes>
            0 -1 87 2.7636580169200897e-02</internalNodes>
          <leafValues>
            -1.7919667065143585e-01 4.6564966440200806e-01</leafValues></_>
        <_>
          <internalNodes>
            0 -1 115 -1.7290756106376648e-02</internalNodes>
          <leafValues>
            6.1491298675537109e-01 -1.6755886375904083e-01</leafValues></_></weakClassifiers></_>
    <!-- stage 11 -->
    <_>
      <maxWeakCount>11</maxWeakCount>
      <stageThreshold>-1.0576797723770142e+00</stageThreshold>
      <weakClassifiers>
        <_>
          <internalNodes>
            0 -1 30 1.0407363623380661e-01</internalNodes>
          <leafValues>
            -4.7734627127647400e-01 3.4090909361839294e-01</leafValues></_>
        <_>
          <internalNodes>
            0 -1 100 1.7941527068614960e-02</internalNodes>
          <leafValues>
            -3.9432784914970398e-01 3.1621932983398438e-01</leafValues></_>
        <_>
          <internalNodes>
            0 -1 95 1.8912855535745621e-02</internalNodes>
          <leafValues>
            -2.3089815676212311e-01 4.7309479117393494e-01</leafValues></_>
        <_>
          <internalNodes>
            0 -1 93 2.4561308324337006e-02</internalNodes>
          <leafValues>
            -2.4854938685894012e-01 4.3373605608940125e-01</leafValues></_>
        <_>
          <internalNodes>
            0 -1 25 1.5602579712867737e-01</internalNodes>
          <leafValues>
            -2.0420090854167938e-01 5.3096383810043335e-01</leafValues></_>
        <_>
          <internalNodes>
            0 -1 2 1.3577260076999664e-01</internalNodes>
          <leafValues>
            -2.9808712005615234e-01 4.0185472369194031e-01</leafValues></_>
        <_>
          <internalNodes>
            0 -1 35 -6.8614140152931213e-02</internalNodes>
          <leafValues>
            7.6745063066482544e-01 -1.2809237837791443e-01</leafValues></_>
        <_>
          <internalNodes>
            0 -1 44 1.0498527437448502e-01</internalNodes>
          <leafValues>
            -1.6224053502082825e-01 5.9268969297409058e-01</leafValues></_>
        <_>
          <internalNodes>
            0 -1 111 2.4158421438187361e-03</internalNodes>
          <leafValues>
            1.6673436760902405e-01 -7.0480281114578247e-01</leafValues></_>
        <_>
          <internalNodes>
            0 -1 43 8.6002089083194733e-03</internalNodes>
          <leafValues>
            2.6608818769454956e-01 -4.1199800372123718e-01</leafValues></_>
        <_>
          <internalNodes>
            0 -1 89 -1.0479387640953064e-01</internalNodes>
          <leafValues>
            1.3194479048252106e-01 -7.4528348445892334e-01</leafValues></_></weakClassifiers></_>
    <!-- stage 12 -->
    <_>
      <maxWeakCount>15</maxWeakCount>
      <stageThreshold>-1.4520570039749146e+00</stageThreshold>
      <weakClassifiers>
        <_>
          <internalNodes>
            0 -1 60 -8.1691309809684753e-02</internalNodes>
          <leafValues>
            5.9298247098922729e-01 -4.3057090044021606e-01</leafValues></_>
        <_>
          <internalNodes>
            0 -1 78 1.6908342018723488e-02</internalNodes>
          <leafValues>
            -4.8712226748466492e-01 2.7548927068710327e-01</leafValues></_>
        <_>
          <internalNodes>
            0 -1 38 5.0480623031035066e-04</internalNodes>
          <leafValues>
            -4.3369033932685852e-01 2.9787379503250122e-01</leafValues></_>
        <_>
          <internalNodes>
            0 -1 6 -5.0692483782768250e-03</internalNodes>
          <leafValues>
            -3.7667265534400940e-01 2.7278503775596619e-01</leafValues></_>
        <_>
          <internalNodes>
            0 -1 97 -4.0751034393906593e-03</internalNodes>
          <leafValues>
            1.7249932885169983e-01 -6.4848268032073975e-01</leafValues></_>
        <_>
          <internalNodes>
            0 -1 104 3.9872378110885620e-02</internalNodes>
          <leafValues>
            -1.3510383665561676e-01 7.2573745250701904e-01</leafValues></_>
        <_>
          <internalNodes>
            0 -1 128 9.3147791922092438e-03</internalNodes>
          <leafValues>
            -4.0411406755447388e-01 2.5122213363647461e-01</leafValues></_>
        <_>
          <internalNodes>
            0 -1 79 1.2744116783142090e-01</internalNodes>
          <leafValues>
            -1.6449497640132904e-01 6.2073421478271484e-01</leafValues></_>
        <_>
          <internalNodes>
            0 -1 17 2.8789383359253407e-03</internalNodes>
          <leafValues>
            1.6940142214298248e-01 -5.8570075035095215e-01</leafValues></_>
        <_>
          <internalNodes>
            0 -1 92 -1.8010122701525688e-02</internalNodes>
          <leafValues>
            4.1318827867507935e-01 -2.3794962465763092e-01</leafValues></_>
        <_>
          <internalNodes>
            0 -1 96 2.5059696286916733e-02</internalNodes>
          <leafValues>
            -2.1784518659114838e-01 4.4155693054199219e-01</leafValues></_>
        <_>
          <internalNodes>
            0 -1 130 1.4734920114278793e-02</internalNodes>
          <leafValues>
            -3.1739839911460876e-01 2.9956355690956116e-01</leafValues></_>
        <_>
          <internalNodes>
            0 -1 48 -1.3860815670341253e-04</internalNodes>
          <leafValues>
            2.0672141015529633e-01 -4.2267283797264099e-01</leafValues></_>
        <_>
          <internalNodes>
            0 -1 65 9.6439309418201447e-03</internalNodes>
          <leafValues>
            1.0695527493953705e-01 -9.1151148080825806e-01</leafValues></_>
        <_>
          <internalNodes>
            0 -1 101 8.3724267780780792e-02</internalNodes>
          <leafValues>
            -2.2072158753871918e-01 4.8968511819839478e-01</leafValues></_></weakClassifiers></_>
    <!-- stage 13 -->
    <_>
      <maxWeakCount>15</maxWeakCount>
      <stageThreshold>-1.4933242797851562e+00</stageThreshold>
      <weakClassifiers>
        <_>
          <internalNodes>
            0 -1 15 1.0599014349281788e-02</internalNodes>
          <leafValues>
            -5.7649797201156616e-01 -7.0257610641419888e-03</leafValues></_>
        <_>
          <internalNodes>
            0 -1 66 2.5697223842144012e-02</internalNodes>
          <leafValues>
            -2.3143021762371063e-01 4.9648112058639526e-01</leafValues></_>
        <_>
          <internalNodes>
            0 -1 81 1.1646192520856857e-02</internalNodes>
          <leafValues>
            -2.4766795337200165e-01 4.8373624682426453e-01</leafValues></_>
        <_>
          <internalNodes>
            0 -1 21 1.3890308141708374e-01</internalNodes>
          <leafValues>
            1.4224261045455933e-01 -8.5035777091979980e-01</leafValues></_>
        <_>
          <internalNodes>
            0 -1 122 -7.9975929111242294e-05</internalNodes>
          <leafValues>
            2.4214525520801544e-01 -4.8374688625335693e-01</leafValues></_>
        <_>
          <internalNodes>
            0 -1 71 -9.2970882542431355e-04</internalNodes>
          <leafValues>
            2.4139574170112610e-01 -4.1052606701850891e-01</leafValues></_>
        <_>
          <internalNodes>
            0 -1 22 3.5018179565668106e-02</internalNodes>
          <leafValues>
            -2.7612304687500000e-01 3.8875126838684082e-01</leafValues></_>
        <_>
          <internalNodes>
            0 -1 13 1.1302022635936737e-01</internalNodes>
          <leafValues>
            -1.5258879959583282e-01 6.3298666477203369e-01</leafValues></_>
        <_>
          <internalNodes>
            0 -1 75 2.9546104371547699e-02</internalNodes>
          <leafValues>
            -2.9983407258987427e-01 4.5687484741210938e-01</leafValues></_>
        <_>
          <internalNodes>
            0 -1 85 8.8270571723114699e-05</internalNodes>
          <leafValues>
            -2.4042285978794098e-01 4.6145299077033997e-01</leafValues></_>
        <_>
          <internalNodes>
            0 -1 125 6.5830121457111090e-05</internalNodes>
          <leafValues>
            -3.7574914097785950e-01 2.7760300040245056e-01</leafValues></_>
        <_>
          <internalNodes>
            0 -1 117 -1.2127614021301270e-01</internalNodes>
          <leafValues>
            2.1098127961158752e-01 -5.2170783281326294e-01</leafValues></_>
        <_>
          <internalNodes>
            0 -1 44 1.1082844436168671e-01</internalNodes>
          <leafValues>
            -2.2833107411861420e-01 4.9976804852485657e-01</leafValues></_>
        <_>
          <internalNodes>
            0 -1 59 -8.3876773715019226e-03</internalNodes>
          <leafValues>
            1.5909969806671143e-01 -8.3047717809677124e-01</leafValues></_>
        <_>
          <internalNodes>
            0 -1 99 -4.7273449599742889e-03</internalNodes>
          <leafValues>
            -6.7977327108383179e-01 1.1058618873357773e-01</leafValues></_></weakClassifiers></_>
    <!-- stage 14 -->
    <_>
      <maxWeakCount>15</maxWeakCount>
      <stageThreshold>-1.3664619922637939e+00</stageThreshold>
      <weakClassifiers>
        <_>
          <internalNodes>
            0 -1 52 4.5680373907089233e-02</internalNodes>
          <leafValues>
            -4.6284329891204834e-01 2.7862596511840820e-01</leafValues></_>
        <_>
          <internalNodes>
            0 -1 113 9.9813714623451233e-03</internalNodes>
          <leafValues>
            -3.0127733945846558e-01 3.4328648447990417e-01</leafValues></_>
        <_>
          <internalNodes>
            0 -1 73 1.8379437969997525e-03</internalNodes>
          <leafValues>
            -3.7104174494743347e-01 2.6542887091636658e-01</leafValues></_>
        <_>
          <internalNodes>
            0 -1 72 4.4657709077000618e-03</internalNodes>
          <leafValues>
            1.6997277736663818e-01 -7.0675075054168701e-01</leafValues></_>
        <_>
          <internalNodes>
            0 -1 105 7.1473093703389168e-03</internalNodes>
          <leafValues>
            -1.9722509384155273e-01 5.7384878396987915e-01</leafValues></_>
        <_>
          <internalNodes>
            0 -1 114 2.7220085263252258e-02</internalNodes>
          <leafValues>
            -2.4080112576484680e-01 4.8749810457229614e-01</leafValues></_>
        <_>
          <internalNodes>
            0 -1 106 -1.6356064006686211e-03</internalNodes>
          <leafValues>
            4.1111403703689575e-01 -3.0182364583015442e-01</leafValues></_>
        <_>
          <internalNodes>
            0 -1 5 2.3284405469894409e-03</internalNodes>
          <leafValues>
            2.3361992835998535e-01 -5.4823279380798340e-01</leafValues></_>
        <_>
          <internalNodes>
            0 -1 102 1.6388798132538795e-02</internalNodes>
          <leafValues>
            -2.7558732032775879e-01 3.5493072867393494e-01</leafValues></_>
        <_>
          <internalNodes>
            0 -1 118 6.9144174456596375e-02</internalNodes>
          <leafValues>
            -1.9948345422744751e-01 5.9378886222839355e-01</leafValues></_>
        <_>
          <internalNodes>
            0 -1 50 9.3597294762730598e-03</internalNodes>
          <leafValues>
            -2.7825844287872314e-01 3.7058219313621521e-01</leafValues></_>
        <_>
          <internalNodes>
            0 -1 18 2.7229089289903641e-02</internalNodes>
          <leafValues>
            -2.4476897716522217e-01 4.9422219395637512e-01</leafValues></_>
        <_>
          <internalNodes>
            0 -1 121 6.1982404440641403e-04</internalNodes>
          <leafValues>
            -2.8797510266304016e-01 4.7743201255798340e-01</leafValues></_>
        <_>
          <internalNodes>
            0 -1 19 2.3207791149616241e-01</internalNodes>
          <leafValues>
            -1.5907478332519531e-01 7.6668953895568848e-01</leafValues></_>
        <_>
          <internalNodes>
            0 -1 53 8.7927710264921188e-03</internalNodes>
          <leafValues>
            -3.0490189790725708e-01 3.3971613645553589e-01</leafValues></_></weakClassifiers></_></stages>
  <features>
    <_>
      <rects>
        <_>
          0 0 12 3 -1.</_>
        <_>
          0 1 12 1 3.</_></rects>
      <tilted>0</tilted></_>
    <_>
      <rects>
        <_>
          0 1 6 2 -1.</_>
        <_>
          0 1 3 1 2.</_>
        <_>
          3 2 3 1 2.</_></rects>
      <tilted>0</tilted></_>
    <_>
      <rects>
        <_>
          0 1 8 4 -1.</_>
        <_>
          4 1 4 4 2.</_></rects>
      <tilted>0</tilted></_>
    <_>
      <rects>
        <_>
          0 2 12 5 -1.</_>
        <_>
          4 2 4 5 3.</_></rects>
      <tilted>0</tilted></_>
    <_>
      <rects>
        <_>
          0 3 4 5 -1.</_>
        <_>
          2 3 2 5 2.</_></rects>
      <tilted>0</tilted></_>
    <_>
      <rects>
        <_>
          0 5 1 3 -1.</_>
        <_>
          0 6 1 1 3.</_></rects>
      <tilted>0</tilted></_>
    <_>
      <rects>
        <_>
          0 6 1 6 -1.</_>
        <_>
          0 9 1 3 2.</_></rects>
      <tilted>0</tilted></_>
    <_>
      <rects>
        <_>
          0 7 6 2 -1.</_>
        <_>
          2 7 2 2 3.</_></rects>
      <tilted>0</tilted></_>
    <_>
      <rects>
        <_>
          0 8 1 4 -1.</_>
        <_>
          0 10 1 2 2.</_></rects>
      <tilted>0</tilted></_>
    <_>
      <rects>
        <_>
          0 10 2 2 -1.</_>
        <_>
          1 10 1 2 2.</_></rects>
      <tilted>0</tilted></_>
    <_>
      <rects>
        <_>
          1 4 6 2 -1.</_>
        <_>
          4 4 3 2 2.</_></rects>
      <tilted>0</tilted></_>
    <_>
      <rects>
        <_>
          1 4 9 2 -1.</_>
        <_>
          4 4 3 2 3.</_></rects>
      <tilted>0</tilted></_>
    <_>
      <rects>
        <_>
          1 6 2 6 -1.</_>
        <_>
          1 6 1 3 2.</_>
        <_>
          2 9 1 3 2.</_></rects>
      <tilted>0</tilted></_>
    <_>
      <rects>
        <_>
          1 6 6 3 -1.</_>
        <_>
          3 6 2 3 3.</_></rects>
      <tilted>0</tilted></_>
    <_>
      <rects>
        <_>
          1 7 2 1 -1.</_>
        <_>
          2 7 1 1 2.</_></rects>
      <tilted>0</tilted></_>
    <_>
      <rects>
        <_>
          1 7 2 2 -1.</_>
        <_>
          2 7 1 2 2.</_></rects>
      <tilted>0</tilted></_>
    <_>
      <rects>
        <_>
          1 8 6 1 -1.</_>
        <_>
          3 8 2 1 3.</_></rects>
      <tilted>0</tilted></_>
    <_>
      <rects>
        <_>
          2 0 3 1 -1.</_>
        <_>
          3 0 1 1 3.</_></rects>
      <tilted>0</tilted></_>
    <_>
      <rects>
        <_>
          2 0 3 12 -1.</_>
        <_>
          3 0 1 12 3.</_></rects>
      <tilted>0</tilted></_>
    <_>
      <rects>
        <_>
          2 0 5 6 -1.</_>
        <_>
          2 3 5 3 2.</_></rects>
      <tilted>0</tilted></_>
    <_>
      <rects>
        <_>
          2 0 10 3 -1.</_>
        <_>
          2 1 10 1 3.</_></rects>
      <tilted>0</tilted></_>
    <_>
      <rects>
        <_>
          2 1 8 10 -1.</_>
        <_>
          2 1 4 5 2.</_>
        <_>
          6 6 4 5 2.</_></rects>
      <tilted>0</tilted></_>
    <_>
      <rects>
        <_>
          2 1 6 2 -1.</_>
        <_>
          2 2 6 1 2.</_></rects>
      <tilted>0</tilted></_>
    <_>
      <rects>
        <_>
          2 3 3 6 -1.</_>
        <_>
          2 5 3 2 3.</_></rects>
      <tilted>0</tilted></_>
    <_>
      <rects>
        <_>
          2 4 4 1 -1.</_>
        <_>
          4 4 2 1 2.</_></rects>
      <tilted>0</tilted></_>
    <_>
      <rects>
        <_>
          2 4 7 6 -1.</_>
        <_>
          2 6 7 2 3.</_></rects>
      <tilted>0</tilted></_>
    <_>
      <rects>
        <_>
          2 5 1 2 -1.</_>
        <_>
          2 6 1 1 2.</_></rects>
      <tilted>0</tilted></_>
    <_>
      <rects>
        <_>
          2 5 6 4 -1.</_>
        <_>
          4 5 2 4 3.</_></rects>
      <tilted>0</tilted></_>
    <_>
      <rects>
        <_>
          2 5 3 3 -1.</_>
        <_>
          2 6 3 1 3.</_></rects>
      <tilted>0</tilted></_>
    <_>
      <rects>
        <_>
          2 5 8 6 -1.</_>
        <_>
          6 5 4 6 2.</_></rects>
      <tilted>0</tilted></_>
    <_>
      <rects>
        <_>
          2 6 6 4 -1.</_>
        <_>
          4 6 2 4 3.</_></rects>
      <tilted>0</tilted></_>
    <_>
      <rects>
        <_>
          2 6 3 3 -1.</_>
        <_>
          2 7 3 1 3.</_></rects>
      <tilted>0</tilted></_>
    <_>
      <rects>
        <_>
          2 6 10 3 -1.</_>
        <_>
          7 6 5 3 2.</_></rects>
      <tilted>0</tilted></_>
    <_>
      <rects>
        <_>
          2 7 3 4 -1.</_>
        <_>
          3 7 1 4 3.</_></rects>
      <tilted>0</tilted></_>
    <_>
      <rects>
        <_>
          2 7 6 2 -1.</_>
        <_>
          4 7 2 2 3.</_></rects>
      <tilted>0</tilted></_>
    <_>
      <rects>
        <_>
          2 7 9 1 -1.</_>
        <_>
          5 7 3 1 3.</_></rects>
      <tilted>0</tilted></_>
    <_>
      <rects>
        <_>
          2 10 6 2 -1.</_>
        <_>
          2 10 3 1 2.</_>
        <_>
          5 11 3 1 2.</_></rects>
      <tilted>0</tilted></_>
    <_>
      <rects>
        <_>
          3 0 8 12 -1.</_>
        <_>
          3 4 8 4 3.</_></rects>
      <tilted>0</tilted></_>
    <_>
      <rects>
        <_>
          3 1 2 2 -1.</_>
        <_>
          3 1 1 1 2.</_>
        <_>
          4 2 1 1 2.</_></rects>
      <tilted>0</tilted></_>
    <_>
      <rects>
        <_>
          3 2 8 10 -1.</_>
        <_>
          7 2 4 10 2.</_></rects>
      <tilted>0</tilted></_>
    <_>
      <rects>
        <_>
          3 2 6 6 -1.</_>
        <_>
          3 4 6 2 3.</_></rects>
      <tilted>0</tilted></_>
    <_>
      <rects>
        <_>
          3 3 9 8 -1.</_>
        <_>
          3 7 9 4 2.</_></rects>
      <tilted>0</tilted></_>
    <_>
      <rects>
        <_>
          3 4 4 4 -1.</_>
        <_>
          3 4 2 2 2.</_>
        <_>
          5 6 2 2 2.</_></rects>
      <tilted>0</tilted></_>
    <_>
      <rects>
        <_>
          3 4 4 3 -1.</_>
        <_>
          5 4 2 3 2.</_></rects>
      <tilted>0</tilted></_>
    <_>
      <rects>
        <_>
          3 4 6 5 -1.</_>
        <_>
          5 4 2 5 3.</_></rects>
      <tilted>0</tilted></_>
    <_>
      <rects>
        <_>
          3 4 7 8 -1.</_>
        <_>
          3 8 7 4 2.</_></rects>
      <tilted>0</tilted></_>
    <_>
      <rects>
        <_>
          3 4 8 8 -1.</_>
        <_>
          3 8 8 4 2.</_></rects>
      <tilted>0</tilted></_>
    <_>
      <rects>
        <_>
          3 5 3 1 -1.</_>
        <_>
          4 5 1 1 3.</_></rects>
      <tilted>0</tilted></_>
    <_>
      <rects>
        <_>
          3 5 2 2 -1.</_>
        <_>
          3 5 1 1 2.</_>
        <_>
          4 6 1 1 2.</_></rects>
      <tilted>0</tilted></_>
    <_>
      <rects>
        <_>
          3 6 1 3 -1.</_>
        <_>
          3 7 1 1 3.</_></rects>
      <tilted>0</tilted></_>
    <_>
      <rects>
        <_>
          3 6 2 3 -1.</_>
        <_>
          3 7 2 1 3.</_></rects>
      <tilted>0</tilted></_>
    <_>
      <rects>
        <_>
          3 6 6 2 -1.</_>
        <_>
          5 6 2 2 3.</_></rects>
      <tilted>0</tilted></_>
    <_>
      <rects>
        <_>
          3 7 4 4 -1.</_>
        <_>
          3 7 2 2 2.</_>
        <_>
          5 9 2 2 2.</_></rects>
      <tilted>0</tilted></_>
    <_>
      <rects>
        <_>
          3 9 6 1 -1.</_>
        <_>
          5 9 2 1 3.</_></rects>
      <tilted>0</tilted></_>
    <_>
      <rects>
        <_>
          3 10 4 2 -1.</_>
        <_>
          3 10 2 1 2.</_>
        <_>
          5 11 2 1 2.</_></rects>
      <tilted>0</tilted></_>
    <_>
      <rects>
        <_>
          4 1 4 2 -1.</_>
        <_>
          4 2 4 1 2.</_></rects>
      <tilted>0</tilted></_>
    <_>
      <rects>
        <_>
          4 1 5 2 -1.</_>
        <_>
          4 2 5 1 2.</_></rects>
      <tilted>0</tilted></_>
    <_>
      <rects>
        <_>
          4 1 6 2 -1.</_>
        <_>
          4 2 6 1 2.</_></rects>
      <tilted>0</tilted></_>
    <_>
      <rects>
        <_>
          4 2 3 5 -1.</_>
        <_>
          5 2 1 5 3.</_></rects>
      <tilted>0</tilted></_>
    <_>
      <rects>
        <_>
          4 2 4 8 -1.</_>
        <_>
          4 6 4 4 2.</_></rects>
      <tilted>0</tilted></_>
    <_>
      <rects>
        <_>
          4 3 4 6 -1.</_>
        <_>
          4 3 2 3 2.</_>
        <_>
          6 6 2 3 2.</_></rects>
      <tilted>0</tilted></_>
    <_>
      <rects>
        <_>
          4 3 3 6 -1.</_>
        <_>
          4 6 3 3 2.</_></rects>
      <tilted>0</tilted></_>
    <_>
      <rects>
        <_>
          4 3 3 8 -1.</_>
        <_>
          4 7 3 4 2.</_></rects>
      <tilted>0</tilted></_>
    <_>
      <rects>
        <_>
          4 3 8 8 -1.</_>
        <_>
          4 3 4 4 2.</_>
        <_>
          8 7 4 4 2.</_></rects>
      <tilted>0</tilted></_>
    <_>
      <rects>
        <_>
          4 4 4 6 -1.</_>
        <_>
          4 4 2 3 2.</_>
        <_>
          6 7 2 3 2.</_></rects>
      <tilted>0</tilted></_>
    <_>
      <rects>
        <_>
          4 4 6 2 -1.</_>
        <_>
          7 4 3 2 2.</_></rects>
      <tilted>0</tilted></_>
    <_>
      <rects>
        <_>
          4 5 3 5 -1.</_>
        <_>
          5 5 1 5 3.</_></rects>
      <tilted>0</tilted></_>
    <_>
      <rects>
        <_>
          4 6 3 4 -1.</_>
        <_>
          5 6 1 4 3.</_></rects>
      <tilted>0</tilted></_>
    <_>
      <rects>
        <_>
          4 6 5 3 -1.</_>
        <_>
          4 7 5 1 3.</_></rects>
      <tilted>0</tilted></_>
    <_>
      <rects>
        <_>
          4 7 4 2 -1.</_>
        <_>
          4 7 2 1 2.</_>
        <_>
          6 8 2 1 2.</_></rects>
      <tilted>0</tilted></_>
    <_>
      <rects>
        <_>
          4 7 4 2 -1.</_>
        <_>
          6 7 2 2 2.</_></rects>
      <tilted>0</tilted></_>
    <_>
      <rects>
        <_>
          4 10 2 2 -1.</_>
        <_>
          4 10 1 1 2.</_>
        <_>
          5 11 1 1 2.</_></rects>
      <tilted>0</tilted></_>
    <_>
      <rects>
        <_>
          5 0 3 1 -1.</_>
        <_>
          6 0 1 1 3.</_></rects>
      <tilted>0</tilted></_>
    <_>
      <rects>
        <_>
          5 1 3 1 -1.</_>
        <_>
          6 1 1 1 3.</_></rects>
      <tilted>0</tilted></_>
    <_>
      <rects>
        <_>
          5 2 1 4 -1.</_>
        <_>
          5 4 1 2 2.</_></rects>
      <tilted>0</tilted></_>
    <_>
      <rects>
        <_>
          5 4 2 6 -1.</_>
        <_>
          5 6 2 2 3.</_></rects>
      <tilted>0</tilted></_>
    <_>
      <rects>
        <_>
          5 4 5 3 -1.</_>
        <_>
          5 5 5 1 3.</_></rects>
      <tilted>0</tilted></_>
    <_>
      <rects>
        <_>
          5 5 2 2 -1.</_>
        <_>
          5 6 2 1 2.</_></rects>
      <tilted>0</tilted></_>
    <_>
      <rects>
        <_>
          5 5 4 4 -1.</_>
        <_>
          5 5 2 2 2.</_>
        <_>
          7 7 2 2 2.</_></rects>
      <tilted>0</tilted></_>
    <_>
      <rects>
        <_>
          5 5 6 4 -1.</_>
        <_>
          7 5 2 4 3.</_></rects>
      <tilted>0</tilted></_>
    <_>
      <rects>
        <_>
          5 6 3 2 -1.</_>
        <_>
          6 6 1 2 3.</_></rects>
      <tilted>0</tilted></_>
    <_>
      <rects>
        <_>
          5 6 2 4 -1.</_>
        <_>
          6 6 1 4 2.</_></rects>
      <tilted>0</tilted></_>
    <_>
      <rects>
        <_>
          5 6 3 4 -1.</_>
        <_>
          6 6 1 4 3.</_></rects>
      <tilted>0</tilted></_>
    <_>
      <rects>
        <_>
          5 6 4 4 -1.</_>
        <_>
          5 6 2 2 2.</_>
        <_>
          7 8 2 2 2.</_></rects>
      <tilted>0</tilted></_>
    <_>
      <rects>
        <_>
          5 6 6 4 -1.</_>
        <_>
          7 6 2 4 3.</_></rects>
      <tilted>0</tilted></_>
    <_>
      <rects>
        <_>
          5 7 7 2 -1.</_>
        <_>
          5 8 7 1 2.</_></rects>
      <tilted>0</tilted></_>
    <_>
      <rects>
        <_>
          5 8 6 1 -1.</_>
        <_>
          7 8 2 1 3.</_></rects>
      <tilted>0</tilted></_>
    <_>
      <rects>
        <_>
          5 8 6 3 -1.</_>
        <_>
          5 9 6 1 3.</_></rects>
      <tilted>0</tilted></_>
    <_>
      <rects>
        <_>
          6 0 2 6 -1.</_>
        <_>
          6 2 2 2 3.</_></rects>
      <tilted>0</tilted></_>
    <_>
      <rects>
        <_>
          6 2 4 10 -1.</_>
        <_>
          6 7 4 5 2.</_></rects>
      <tilted>0</tilted></_>
    <_>
      <rects>
        <_>
          6 2 5 8 -1.</_>
        <_>
          6 6 5 4 2.</_></rects>
      <tilted>0</tilted></_>
    <_>
      <rects>
        <_>
          6 3 1 9 -1.</_>
        <_>
          6 6 1 3 3.</_></rects>
      <tilted>0</tilted></_>
    <_>
      <rects>
        <_>
          6 3 2 6 -1.</_>
        <_>
          7 3 1 6 2.</_></rects>
      <tilted>0</tilted></_>
    <_>
      <rects>
        <_>
          6 3 5 3 -1.</_>
        <_>
          6 4 5 1 3.</_></rects>
      <tilted>0</tilted></_>
    <_>
      <rects>
        <_>
          6 5 4 6 -1.</_>
        <_>
          6 7 4 2 3.</_></rects>
      <tilted>0</tilted></_>
    <_>
      <rects>
        <_>
          6 6 3 4 -1.</_>
        <_>
          7 6 1 4 3.</_></rects>
      <tilted>0</tilted></_>
    <_>
      <rects>
        <_>
          6 7 5 3 -1.</_>
        <_>
          6 8 5 1 3.</_></rects>
      <tilted>0</tilted></_>
    <_>
      <rects>
        <_>
          6 8 1 4 -1.</_>
        <_>
          6 10 1 2 2.</_></rects>
      <tilted>0</tilted></_>
    <_>
      <rects>
        <_>
          6 9 3 2 -1.</_>
        <_>
          6 10 3 1 2.</_></rects>
      <tilted>0</tilted></_>
    <_>
      <rects>
        <_>
          7 1 3 1 -1.</_>
        <_>
          8 1 1 1 3.</_></rects>
      <tilted>0</tilted></_>
    <_>
      <rects>
        <_>
          7 1 3 2 -1.</_>
        <_>
          7 2 3 1 2.</_></rects>
      <tilted>0</tilted></_>
    <_>
      <rects>
        <_>
          7 3 4 6 -1.</_>
        <_>
          7 5 4 2 3.</_></rects>
      <tilted>0</tilted></_>
    <_>
      <rects>
        <_>
          7 4 5 3 -1.</_>
        <_>
          7 5 5 1 3.</_></rects>
      <tilted>0</tilted></_>
    <_>
      <rects>
        <_>
          7 5 3 4 -1.</_>
        <_>
          8 5 1 4 3.</_></rects>
      <tilted>0</tilted></_>
    <_>
      <rects>
        <_>
          7 5 4 4 -1.</_>
        <_>
          7 5 2 2 2.</_>
        <_>
          9 7 2 2 2.</_></rects>
      <tilted>0</tilted></_>
    <_>
      <rects>
        <_>
          7 6 4 2 -1.</_>
        <_>
          7 6 2 1 2.</_>
        <_>
          9 7 2 1 2.</_></rects>
      <tilted>0</tilted></_>
    <_>
      <rects>
        <_>
          7 7 2 1 -1.</_>
        <_>
          8 7 1 1 2.</_></rects>
      <tilted>0</tilted></_>
    <_>
      <rects>
        <_>
          7 8 4 2 -1.</_>
        <_>
          9 8 2 2 2.</_></rects>
      <tilted>0</tilted></_>
    <_>
      <rects>
        <_>
          7 9 2 1 -1.</_>
        <_>
          8 9 1 1 2.</_></rects>
      <tilted>0</tilted></_>
    <_>
      <rects>
        <_>
          7 9 1 2 -1.</_>
        <_>
          7 10 1 1 2.</_></rects>
      <tilted>0</tilted></_>
    <_>
      <rects>
        <_>
          7 10 2 1 -1.</_>
        <_>
          8 10 1 1 2.</_></rects>
      <tilted>0</tilted></_>
    <_>
      <rects>
        <_>
          8 0 2 1 -1.</_>
        <_>
          9 0 1 1 2.</_></rects>
      <tilted>0</tilted></_>
    <_>
      <rects>
        <_>
          8 1 1 2 -1.</_>
        <_>
          8 2 1 1 2.</_></rects>
      <tilted>0</tilted></_>
    <_>
      <rects>
        <_>
          8 2 2 3 -1.</_>
        <_>
          8 3 2 1 3.</_></rects>
      <tilted>0</tilted></_>
    <_>
      <rects>
        <_>
          8 3 3 5 -1.</_>
        <_>
          9 3 1 5 3.</_></rects>
      <tilted>0</tilted></_>
    <_>
      <rects>
        <_>
          8 4 2 4 -1.</_>
        <_>
          8 4 1 2 2.</_>
        <_>
          9 6 1 2 2.</_></rects>
      <tilted>0</tilted></_>
    <_>
      <rects>
        <_>
          8 4 3 5 -1.</_>
        <_>
          9 4 1 5 3.</_></rects>
      <tilted>0</tilted></_>
    <_>
      <rects>
        <_>
          8 4 4 8 -1.</_>
        <_>
          8 8 4 4 2.</_></rects>
      <tilted>0</tilted></_>
    <_>
      <rects>
        <_>
          8 5 2 6 -1.</_>
        <_>
          8 7 2 2 3.</_></rects>
      <tilted>0</tilted></_>
    <_>
      <rects>
        <_>
          8 9 2 1 -1.</_>
        <_>
          9 9 1 1 2.</_></rects>
      <tilted>0</tilted></_>
    <_>
      <rects>
        <_>
          8 9 4 2 -1.</_>
        <_>
          8 9 2 1 2.</_>
        <_>
          10 10 2 1 2.</_></rects>
      <tilted>0</tilted></_>
    <_>
      <rects>
        <_>
          8 11 2 1 -1.</_>
        <_>
          9 11 1 1 2.</_></rects>
      <tilted>0</tilted></_>
    <_>
      <rects>
        <_>
          9 2 2 1 -1.</_>
        <_>
          10 2 1 1 2.</_></rects>
      <tilted>0</tilted></_>
    <_>
      <rects>
        <_>
          9 6 2 6 -1.</_>
        <_>
          9 6 1 3 2.</_>
        <_>
          10 9 1 3 2.</_></rects>
      <tilted>0</tilted></_>
    <_>
      <rects>
        <_>
          9 7 1 4 -1.</_>
        <_>
          9 9 1 2 2.</_></rects>
      <tilted>0</tilted></_>
    <_>
      <rects>
        <_>
          9 11 2 1 -1.</_>
        <_>
          10 11 1 1 2.</_></rects>
      <tilted>0</tilted></_>
    <_>
      <rects>
        <_>
          10 0 1 9 -1.</_>
        <_>
          10 3 1 3 3.</_></rects>
      <tilted>0</tilted></_>
    <_>
      <rects>
        <_>
          10 1 1 3 -1.</_>
        <_>
          10 2 1 1 3.</_></rects>
      <tilted>0</tilted></_>
    <_>
      <rects>
        <_>
          10 2 1 6 -1.</_>
        <_>
          10 4 1 2 3.</_></rects>
      <tilted>0</tilted></_>
    <_>
      <rects>
        <_>
          10 3 2 1 -1.</_>
        <_>
          11 3 1 1 2.</_></rects>
      <tilted>0</tilted></_>
    <_>
      <rects>
        <_>
          10 4 2 8 -1.</_>
        <_>
          10 4 1 4 2.</_>
        <_>
          11 8 1 4 2.</_></rects>
      <tilted>0</tilted></_></features></cascade>
</opencv_storage>
