<?xml version="1.0"?>
<opencv_storage>
<cascade>
  <stageType>BOOST</stageType>
  <featureType>HAAR</featureType>
  <height>12</height>
  <width>12</width>
  <stageParams>
    <boostType>GAB</boostType>
    <minHitRate>9.9500000476837158e-01</minHitRate>
    <maxFalseAlarm>5.0000000000000000e-01</maxFalseAlarm>
    <weightTrimRate>9.4999999999999996e-01</weightTrimRate>
    <maxDepth>1</maxDepth>
    <maxWeakCount>100</maxWeakCount></stageParams>
  <featureParams>
    <maxCatCount>0</maxCatCount>
    <featSize>1</featSize>
    <mode>ALL</mode></featureParams>
  <stageNum>21</stageNum>
  <stages>
    <!-- stage 0 -->
    <_>
      <maxWeakCount>5</maxWeakCount>
      <stageThreshold>-9.9485921859741211e-01</stageThreshold>
      <weakClassifiers>
        <_>
          <internalNodes>
            0 -1 105 7.3295071721076965e-02</internalNodes>
          <leafValues>
            -8.1076532602310181e-01 6.6926980018615723e-01</leafValues></_>
        <_>
          <internalNodes>
            0 -1 11 8.0150641500949860e-02</internalNodes>
          <leafValues>
            -6.6414570808410645e-01 5.8201479911804199e-01</leafValues></_>
        <_>
          <internalNodes>
            0 -1 88 -1.4080883562564850e-01</internalNodes>
          <leafValues>
            5.2802014350891113e-01 -6.4625132083892822e-01</leafValues></_>
        <_>
          <internalNodes>
            0 -1 51 -1.6285611316561699e-02</internalNodes>
          <leafValues>
            6.1264765262603760e-01 -3.3082529902458191e-01</leafValues></_>
        <_>
          <internalNodes>
            0 -1 39 -1.0648728907108307e-01</internalNodes>
          <leafValues>
            2.8285694122314453e-01 -8.0868417024612427e-01</leafValues></_></weakClassifiers></_>
    <!-- stage 1 -->
    <_>
      <maxWeakCount>7</maxWeakCount>
      <stageThreshold>-1.0558648109436035e+00</stageThreshold>
      <weakClassifiers>
        <_>
          <internalNodes>
            0 -1 12 7.8031435608863831e-02</internalNodes>
          <leafValues>
            -6.1928218603134155e-01 6.9987118244171143e-01</leafValues></_>
        <_>
          <internalNodes>
            0 -1 205 1.8929976969957352e-02</internalNodes>
          <leafValues>
            -4.7662627696990967e-01 5.3450638055801392e-01</leafValues></_>
        <_>
          <internalNodes>
            0 -1 313 6.1583593487739563e-03</internalNodes>
          <leafValues>
            -4.5810636878013611e-01 5.3920066356658936e-01</leafValues></_>
        <_>
          <internalNodes>
            0 -1 384 2.2401544265449047e-03</internalNodes>
          <leafValues>
            -4.0543401241302490e-01 5.1167070865631104e-01</leafValues></_>
        <_>
          <internalNodes>
            0 -1 278 1.5172723680734634e-02</internalNodes>
          <leafValues>
            -3.6013421416282654e-01 5.3003412485122681e-01</leafValues></_>
        <_>
          <internalNodes>
            0 -1 209 -2.3094308562576771e-03</internalNodes>
          <leafValues>
            7.2868603467941284e-01 -2.1277573704719543e-01</leafValues></_>
        <_>
          <internalNodes>
            0 -1 44 1.0865438729524612e-02</internalNodes>
          <leafValues>
            -3.3077904582023621e-01 5.2247613668441772e-01</leafValues></_></weakClassifiers></_>
    <!-- stage 2 -->
    <_>
      <maxWeakCount>10</maxWeakCount>
      <stageThreshold>-1.2234252691268921e+00</stageThreshold>
      <weakClassifiers>
        <_>
          <internalNodes>
            0 -1 156 -1.7407100647687912e-02</internalNodes>
          <leafValues>
            6.2473344802856445e-01 -3.4675204753875732e-01</leafValues></_>
        <_>
          <internalNodes>
            0 -1 234 6.3976137898862362e-03</internalNodes>
          <leafValues>
            -4.6265625953674316e-01 4.2022940516471863e-01</leafValues></_>
        <_>
          <internalNodes>
            0 -1 41 1.4585915021598339e-02</internalNodes>
          <leafValues>
            -2.9833430051803589e-01 5.2793467044830322e-01</leafValues></_>
        <_>
          <internalNodes>
            0 -1 28 -6.2161870300769806e-03</internalNodes>
          <leafValues>
            4.8043617606163025e-01 -4.0129277110099792e-01</leafValues></_>
        <_>
          <internalNodes>
            0 -1 138 -7.1412533521652222e-02</internalNodes>
          <leafValues>
            8.1181132793426514e-01 -1.8048988282680511e-01</leafValues></_>
        <_>
          <internalNodes>
            0 -1 191 1.3492414727807045e-02</internalNodes>
          <leafValues>
            -3.7324890494346619e-01 4.4227936863899231e-01</leafValues></_>
        <_>
          <internalNodes>
            0 -1 418 -4.3602245859801769e-03</internalNodes>
          <leafValues>
            3.8723430037498474e-01 -3.4694966673851013e-01</leafValues></_>
        <_>
          <internalNodes>
            0 -1 181 -2.0695538818836212e-01</internalNodes>
          <leafValues>
            2.0376169681549072e-01 -5.9559226036071777e-01</leafValues></_>
        <_>
          <internalNodes>
            0 -1 261 9.2731378972530365e-03</internalNodes>
          <leafValues>
            -2.8661507368087769e-01 4.4862285256385803e-01</leafValues></_>
        <_>
          <internalNodes>
            0 -1 69 3.1781555153429508e-03</internalNodes>
          <leafValues>
            -4.2926198244094849e-01 3.1066974997520447e-01</leafValues></_></weakClassifiers></_>
    <!-- stage 3 -->
    <_>
      <maxWeakCount>12</maxWeakCount>
      <stageThreshold>-9.9449163675308228e-01</stageThreshold>
      <weakClassifiers>
        <_>
          <internalNodes>
            0 -1 360 -8.4178652614355087e-03</internalNodes>
          <leafValues>
            5.2215462923049927e-01 -3.1215471029281616e-01</leafValues></_>
        <_>
          <internalNodes>
            0 -1 76 3.0628005042672157e-02</internalNodes>
          <leafValues>
            -2.2189395129680634e-01 7.5472503900527954e-01</leafValues></_>
        <_>
          <internalNodes>
            0 -1 186 3.0303012579679489e-02</internalNodes>
          <leafValues>
            -1.9822269678115845e-01 7.3726123571395874e-01</leafValues></_>
        <_>
          <internalNodes>
            0 -1 265 7.0439025759696960e-02</internalNodes>
          <leafValues>
            -2.8106170892715454e-01 5.4004418849945068e-01</leafValues></_>
        <_>
          <internalNodes>
            0 -1 142 9.6458103507757187e-03</internalNodes>
          <leafValues>
            -5.1616179943084717e-01 2.2236377000808716e-01</leafValues></_>
        <_>
          <internalNodes>
            0 -1 244 9.4590438529849052e-03</internalNodes>
          <leafValues>
            -3.7740916013717651e-01 2.8788757324218750e-01</leafValues></_>
        <_>
          <internalNodes>
            0 -1 226 3.8530898746103048e-03</internalNodes>
          <leafValues>
            -4.1254225373268127e-01 3.0085211992263794e-01</leafValues></_>
        <_>
          <internalNodes>
            0 -1 127 3.5402107983827591e-02</internalNodes>
          <leafValues>
            -2.1084949374198914e-01 7.0577812194824219e-01</leafValues></_>
        <_>
          <internalNodes>
            0 -1 296 1.7751974985003471e-02</internalNodes>
          <leafValues>
            -1.6421008110046387e-01 6.2598454952239990e-01</leafValues></_>
        <_>
          <internalNodes>
            0 -1 409 1.7802685499191284e-02</internalNodes>
          <leafValues>
            -2.1503014862537384e-01 5.0802797079086304e-01</leafValues></_>
        <_>
          <internalNodes>
            0 -1 172 -1.7033106088638306e-01</internalNodes>
          <leafValues>
            2.2529277205467224e-01 -5.8863526582717896e-01</leafValues></_>
        <_>
          <internalNodes>
            0 -1 112 3.0923304148018360e-03</internalNodes>
          <leafValues>
            -4.2746508121490479e-01 2.1846638619899750e-01</leafValues></_></weakClassifiers></_>
    <!-- stage 4 -->
    <_>
      <maxWeakCount>15</maxWeakCount>
      <stageThreshold>-1.3527005910873413e+00</stageThreshold>
      <weakClassifiers>
        <_>
          <internalNodes>
            0 -1 387 4.3958526104688644e-02</internalNodes>
          <leafValues>
            -3.0867925286293030e-01 4.7793814539909363e-01</leafValues></_>
        <_>
          <internalNodes>
            0 -1 384 2.8948397375643253e-03</internalNodes>
          <leafValues>
            -2.9138198494911194e-01 3.8085550069808960e-01</leafValues></_>
        <_>
          <internalNodes>
            0 -1 19 4.8651475459337234e-02</internalNodes>
          <leafValues>
            -2.1358491480350494e-01 5.4533004760742188e-01</leafValues></_>
        <_>
          <internalNodes>
            0 -1 259 1.2369750067591667e-02</internalNodes>
          <leafValues>
            -3.0882957577705383e-01 3.8687285780906677e-01</leafValues></_>
        <_>
          <internalNodes>
            0 -1 202 -2.3605151101946831e-02</internalNodes>
          <leafValues>
            7.8181934356689453e-01 -1.2077178061008453e-01</leafValues></_>
        <_>
          <internalNodes>
            0 -1 378 1.3289507478475571e-02</internalNodes>
          <leafValues>
            -1.9285717606544495e-01 5.4518204927444458e-01</leafValues></_>
        <_>
          <internalNodes>
            0 -1 245 2.1559188142418861e-02</internalNodes>
          <leafValues>
            -2.4762912094593048e-01 5.3979980945587158e-01</leafValues></_>
        <_>
          <internalNodes>
            0 -1 32 -5.1774475723505020e-02</internalNodes>
          <leafValues>
            -4.1098126769065857e-01 3.0300354957580566e-01</leafValues></_>
        <_>
          <internalNodes>
            0 -1 315 -1.8242419173475355e-04</internalNodes>
          <leafValues>
            2.2457712888717651e-01 -4.1568240523338318e-01</leafValues></_>
        <_>
          <internalNodes>
            0 -1 169 -6.6956475377082825e-02</internalNodes>
          <leafValues>
            6.5360790491104126e-01 -1.3793510198593140e-01</leafValues></_>
        <_>
          <internalNodes>
            0 -1 244 4.4585885480046272e-03</internalNodes>
          <leafValues>
            -4.0001791715621948e-01 2.9090121388435364e-01</leafValues></_>
        <_>
          <internalNodes>
            0 -1 286 3.2013893127441406e-02</internalNodes>
          <leafValues>
            -1.7438371479511261e-01 6.4261859655380249e-01</leafValues></_>
        <_>
          <internalNodes>
            0 -1 257 -7.4901707470417023e-02</internalNodes>
          <leafValues>
            7.2969073057174683e-01 -9.4186715781688690e-02</leafValues></_>
        <_>
          <internalNodes>
            0 -1 57 2.7815766632556915e-02</internalNodes>
          <leafValues>
            -6.0039830207824707e-01 1.5843150019645691e-01</leafValues></_>
        <_>
          <internalNodes>
            0 -1 335 1.1029386892914772e-02</internalNodes>
          <leafValues>
            -3.1281870603561401e-01 2.7822458744049072e-01</leafValues></_></weakClassifiers></_>
    <!-- stage 5 -->
    <_>
      <maxWeakCount>18</maxWeakCount>
      <stageThreshold>-1.2156579494476318e+00</stageThreshold>
      <weakClassifiers>
        <_>
          <internalNodes>
            0 -1 308 7.7199481427669525e-02</internalNodes>
          <leafValues>
            -3.5452961921691895e-01 4.4465795159339905e-01</leafValues></_>
        <_>
          <internalNodes>
            0 -1 193 -2.3729188367724419e-02</internalNodes>
          <leafValues>
            7.1061801910400391e-01 -1.7099072039127350e-01</leafValues></_>
        <_>
          <internalNodes>
            0 -1 155 -2.2468395531177521e-02</internalNodes>
          <leafValues>
            3.7019112706184387e-01 -3.1064000725746155e-01</leafValues></_>
        <_>
          <internalNodes>
            0 -1 42 2.1704707294702530e-02</internalNodes>
          <leafValues>
            -2.3851227760314941e-01 4.7925615310668945e-01</leafValues></_>
        <_>
          <internalNodes>
            0 -1 195 1.6750302165746689e-02</internalNodes>
          <leafValues>
            -2.3527841269969940e-01 5.3030514717102051e-01</leafValues></_>
        <_>
          <internalNodes>
            0 -1 305 9.0441796928644180e-03</internalNodes>
          <leafValues>
            -2.1365980803966522e-01 4.6233442425727844e-01</leafValues></_>
        <_>
          <internalNodes>
            0 -1 173 3.9123492315411568e-03</internalNodes>
          <leafValues>
            -4.1208291053771973e-01 2.6204955577850342e-01</leafValues></_>
        <_>
          <internalNodes>
            0 -1 220 1.3321319129317999e-03</internalNodes>
          <leafValues>
            -3.8146412372589111e-01 2.1880590915679932e-01</leafValues></_>
        <_>
          <internalNodes>
            0 -1 259 2.1285986527800560e-02</internalNodes>
          <leafValues>
            -2.0499710738658905e-01 3.8388475775718689e-01</leafValues></_>
        <_>
          <internalNodes>
            0 -1 405 9.5209002494812012e-02</internalNodes>
          <leafValues>
            -4.1870546340942383e-01 2.1110416948795319e-01</leafValues></_>
        <_>
          <internalNodes>
            0 -1 135 1.0808227583765984e-02</internalNodes>
          <leafValues>
            -3.2106056809425354e-01 2.3221555352210999e-01</leafValues></_>
        <_>
          <internalNodes>
            0 -1 131 -2.4421636015176773e-02</internalNodes>
          <leafValues>
            5.7038521766662598e-01 -1.3760063052177429e-01</leafValues></_>
        <_>
          <internalNodes>
            0 -1 357 2.9147911816835403e-02</internalNodes>
          <leafValues>
            -3.2186985015869141e-01 2.4246379733085632e-01</leafValues></_>
        <_>
          <internalNodes>
            0 -1 37 5.0167672336101532e-02</internalNodes>
          <leafValues>
            -1.6576376557350159e-01 3.7287074327468872e-01</leafValues></_>
        <_>
          <internalNodes>
            0 -1 244 8.9044068008661270e-03</internalNodes>
          <leafValues>
            -3.4383925795555115e-01 1.9752642512321472e-01</leafValues></_>
        <_>
          <internalNodes>
            0 -1 412 -3.2791439443826675e-03</internalNodes>
          <leafValues>
            2.9013988375663757e-01 -3.1065329909324646e-01</leafValues></_>
        <_>
          <internalNodes>
            0 -1 281 7.1894195862114429e-03</internalNodes>
          <leafValues>
            -3.3261212706565857e-01 2.5623771548271179e-01</leafValues></_>
        <_>
          <internalNodes>
            0 -1 229 -2.0888885855674744e-01</internalNodes>
          <leafValues>
            7.5487327575683594e-01 -1.1683341860771179e-01</leafValues></_></weakClassifiers></_>
    <!-- stage 6 -->
    <_>
      <maxWeakCount>17</maxWeakCount>
      <stageThreshold>-1.2045979499816895e+00</stageThreshold>
      <weakClassifiers>
        <_>
          <internalNodes>
            0 -1 264 -4.4034503400325775e-02</internalNodes>
          <leafValues>
            5.6409609317779541e-01 -2.0620591938495636e-01</leafValues></_>
        <_>
          <internalNodes>
            0 -1 231 1.0110066086053848e-01</internalNodes>
          <leafValues>
            -5.2512425184249878e-01 2.3073814809322357e-01</leafValues></_>
        <_>
          <internalNodes>
            0 -1 351 -3.5358816385269165e-02</internalNodes>
          <leafValues>
            3.0236825346946716e-01 -3.3197605609893799e-01</leafValues></_>
        <_>
          <internalNodes>
            0 -1 138 -9.3235909938812256e-02</internalNodes>
          <leafValues>
            7.3935824632644653e-01 -1.2403035908937454e-01</leafValues></_>
        <_>
          <internalNodes>
            0 -1 370 3.8059018552303314e-02</internalNodes>
          <leafValues>
            -1.2220978736877441e-01 6.5991353988647461e-01</leafValues></_>
        <_>
          <internalNodes>
            0 -1 197 8.2637339830398560e-02</internalNodes>
          <leafValues>
            -1.6149462759494781e-01 5.6523108482360840e-01</leafValues></_>
        <_>
          <internalNodes>
            0 -1 329 1.1074413545429707e-02</internalNodes>
          <leafValues>
            -2.9487001895904541e-01 3.1322434544563293e-01</leafValues></_>
        <_>
          <internalNodes>
            0 -1 276 1.7281454056501389e-03</internalNodes>
          <leafValues>
            -5.0879114866256714e-01 2.0845924317836761e-01</leafValues></_>
        <_>
          <internalNodes>
            0 -1 130 6.0963230207562447e-03</internalNodes>
          <leafValues>
            -3.0215731263160706e-01 2.9497691988945007e-01</leafValues></_>
        <_>
          <internalNodes>
            0 -1 275 6.6734543070197105e-03</internalNodes>
          <leafValues>
            1.3388173282146454e-01 -6.1725527048110962e-01</leafValues></_>
        <_>
          <internalNodes>
            0 -1 234 1.8859875854104757e-04</internalNodes>
          <leafValues>
            -5.4015225172042847e-01 1.6776669025421143e-01</leafValues></_>
        <_>
          <internalNodes>
            0 -1 183 2.0729037001729012e-02</internalNodes>
          <leafValues>
            -3.3647683262825012e-01 2.6432174444198608e-01</leafValues></_>
        <_>
          <internalNodes>
            0 -1 207 -9.9858380854129791e-02</internalNodes>
          <leafValues>
            -6.9010257720947266e-01 1.3858908414840698e-01</leafValues></_>
        <_>
          <internalNodes>
            0 -1 390 2.8931889683008194e-03</internalNodes>
          <leafValues>
            9.0357847511768341e-02 -6.1794471740722656e-01</leafValues></_>
        <_>
          <internalNodes>
            0 -1 288 3.5291701555252075e-02</internalNodes>
          <leafValues>
            -1.6126036643981934e-01 4.7266131639480591e-01</leafValues></_>
        <_>
          <internalNodes>
            0 -1 297 -3.1957589089870453e-02</internalNodes>
          <leafValues>
            5.1763832569122314e-01 -1.3546516001224518e-01</leafValues></_>
        <_>
          <internalNodes>
            0 -1 244 4.4988974928855896e-02</internalNodes>
          <leafValues>
            9.2488691210746765e-02 -8.2465684413909912e-01</leafValues></_></weakClassifiers></_>
    <!-- stage 7 -->
    <_>
      <maxWeakCount>20</maxWeakCount>
      <stageThreshold>-9.8145920038223267e-01</stageThreshold>
      <weakClassifiers>
        <_>
          <internalNodes>
            0 -1 31 9.8088467493653297e-03</internalNodes>
          <leafValues>
            4.1563022136688232e-01 -3.4973970055580139e-01</leafValues></_>
        <_>
          <internalNodes>
            0 -1 15 5.5800609290599823e-02</internalNodes>
          <leafValues>
            -2.2089548408985138e-01 3.8012853264808655e-01</leafValues></_>
        <_>
          <internalNodes>
            0 -1 163 3.6879249382764101e-03</internalNodes>
          <leafValues>
            -3.7523448467254639e-01 2.2230650484561920e-01</leafValues></_>
        <_>
          <internalNodes>
            0 -1 257 8.9671760797500610e-02</internalNodes>
          <leafValues>
            -1.3514469563961029e-01 6.3521027565002441e-01</leafValues></_>
        <_>
          <internalNodes>
            0 -1 182 1.1266969144344330e-02</internalNodes>
          <leafValues>
            -3.1185826659202576e-01 3.1207421422004700e-01</leafValues></_>
        <_>
          <internalNodes>
            0 -1 226 2.7423112187534571e-03</internalNodes>
          <leafValues>
            -4.3742302060127258e-01 1.9598817825317383e-01</leafValues></_>
        <_>
          <internalNodes>
            0 -1 206 -6.7274302244186401e-02</internalNodes>
          <leafValues>
            6.9569617509841919e-01 -1.3345219194889069e-01</leafValues></_>
        <_>
          <internalNodes>
            0 -1 253 1.2511209584772587e-02</internalNodes>
          <leafValues>
            -2.8459221124649048e-01 3.3564820885658264e-01</leafValues></_>
        <_>
          <internalNodes>
            0 -1 256 -3.1733833253383636e-02</internalNodes>
          <leafValues>
            5.6121796369552612e-01 -1.3636548817157745e-01</leafValues></_>
        <_>
          <internalNodes>
            0 -1 116 -4.0227967500686646e-01</internalNodes>
          <leafValues>
            2.9311367869377136e-01 -2.6994365453720093e-01</leafValues></_>
        <_>
          <internalNodes>
            0 -1 342 -4.2225159704685211e-03</internalNodes>
          <leafValues>
            2.9411014914512634e-01 -2.4382911622524261e-01</leafValues></_>
        <_>
          <internalNodes>
            0 -1 58 -8.9886896312236786e-03</internalNodes>
          <leafValues>
            1.7431579530239105e-01 -4.1984075307846069e-01</leafValues></_>
        <_>
          <internalNodes>
            0 -1 338 -6.3086956739425659e-02</internalNodes>
          <leafValues>
            7.8805202245712280e-01 -1.1278965324163437e-01</leafValues></_>
        <_>
          <internalNodes>
            0 -1 325 5.1596738398075104e-02</internalNodes>
          <leafValues>
            -1.2722031772136688e-01 4.6395590901374817e-01</leafValues></_>
        <_>
          <internalNodes>
            0 -1 173 5.9363883920013905e-03</internalNodes>
          <leafValues>
            -3.6518633365631104e-01 2.4642986059188843e-01</leafValues></_>
        <_>
          <internalNodes>
            0 -1 291 4.6730302274227142e-02</internalNodes>
          <leafValues>
            -1.6035620868206024e-01 4.9723061919212341e-01</leafValues></_>
        <_>
          <internalNodes>
            0 -1 217 -2.4938511196523905e-03</internalNodes>
          <leafValues>
            -5.2960598468780518e-01 1.3766969740390778e-01</leafValues></_>
        <_>
          <internalNodes>
            0 -1 101 -9.3418154865503311e-03</internalNodes>
          <leafValues>
            -6.0120224952697754e-01 1.1475411802530289e-01</leafValues></_>
        <_>
          <internalNodes>
            0 -1 194 -1.7632717266678810e-02</internalNodes>
          <leafValues>
            4.2001947760581970e-01 -1.6604804992675781e-01</leafValues></_>
        <_>
          <internalNodes>
            0 -1 234 4.6609379351139069e-02</internalNodes>
          <leafValues>
            7.6710619032382965e-02 -8.6690247058868408e-01</leafValues></_></weakClassifiers></_>
    <!-- stage 8 -->
    <_>
      <maxWeakCount>15</maxWeakCount>
      <stageThreshold>-9.6209502220153809e-01</stageThreshold>
      <weakClassifiers>
        <_>
          <internalNodes>
            0 -1 156 -1.2275421991944313e-02</internalNodes>
          <leafValues>
            4.2740365862846375e-01 -2.9466554522514343e-01</leafValues></_>
        <_>
          <internalNodes>
            0 -1 227 6.3822820782661438e-02</internalNodes>
          <leafValues>
            -1.7318592965602875e-01 5.5250084400177002e-01</leafValues></_>
        <_>
          <internalNodes>
            0 -1 327 -2.8117513284087181e-02</internalNodes>
          <leafValues>
            4.9734154343605042e-01 -1.5294252336025238e-01</leafValues></_>
        <_>
          <internalNodes>
            0 -1 328 4.7089576721191406e-02</internalNodes>
          <leafValues>
            -2.1333239972591400e-01 5.5201816558837891e-01</leafValues></_>
        <_>
          <internalNodes>
            0 -1 282 4.8005510121583939e-02</internalNodes>
          <leafValues>
            -1.7924292385578156e-01 5.0374650955200195e-01</leafValues></_>
        <_>
          <internalNodes>
            0 -1 72 1.4295678585767746e-02</internalNodes>
          <leafValues>
            -3.6426672339439392e-01 3.2552298903465271e-01</leafValues></_>
        <_>
          <internalNodes>
            0 -1 302 -5.4060462862253189e-03</internalNodes>
          <leafValues>
            3.6245703697204590e-01 -2.5248450040817261e-01</leafValues></_>
        <_>
          <internalNodes>
            0 -1 285 9.7957421094179153e-03</internalNodes>
          <leafValues>
            -3.1950035691261292e-01 2.8122228384017944e-01</leafValues></_>
        <_>
          <internalNodes>
            0 -1 369 1.2988613918423653e-02</internalNodes>
          <leafValues>
            -3.2602196931838989e-01 2.8272604942321777e-01</leafValues></_>
        <_>
          <internalNodes>
            0 -1 361 -1.3916919007897377e-02</internalNodes>
          <leafValues>
            -7.7198243141174316e-01 1.0991674661636353e-01</leafValues></_>
        <_>
          <internalNodes>
            0 -1 78 1.3295787572860718e-01</internalNodes>
          <leafValues>
            8.6786136031150818e-02 -7.8672724962234497e-01</leafValues></_>
        <_>
          <internalNodes>
            0 -1 408 4.7479040920734406e-02</internalNodes>
          <leafValues>
            -1.8233864009380341e-01 4.2452120780944824e-01</leafValues></_>
        <_>
          <internalNodes>
            0 -1 53 -7.5571127235889435e-03</internalNodes>
          <leafValues>
            -8.0012637376785278e-01 8.9148700237274170e-02</leafValues></_>
        <_>
          <internalNodes>
            0 -1 404 -3.3962115645408630e-02</internalNodes>
          <leafValues>
            5.7997107505798340e-01 -1.4253294467926025e-01</leafValues></_>
        <_>
          <internalNodes>
            0 -1 386 5.9735225513577461e-03</internalNodes>
          <leafValues>
            1.4270702004432678e-01 -5.9582000970840454e-01</leafValues></_></weakClassifiers></_>
    <!-- stage 9 -->
    <_>
      <maxWeakCount>25</maxWeakCount>
      <stageThreshold>-1.0790224075317383e+00</stageThreshold>
      <weakClassifiers>
        <_>
          <internalNodes>
            0 -1 355 -4.5264407992362976e-02</internalNodes>
          <leafValues>
            -7.5027626752853394e-01 3.3040180802345276e-01</leafValues></_>
        <_>
          <internalNodes>
            0 -1 34 1.2328291311860085e-02</internalNodes>
          <leafValues>
            -3.0690526962280273e-01 3.1712779402732849e-01</leafValues></_>
        <_>
          <internalNodes>
            0 -1 86 2.9175810515880585e-02</internalNodes>
          <leafValues>
            -1.1241639405488968e-01 5.1829707622528076e-01</leafValues></_>
        <_>
          <internalNodes>
            0 -1 194 3.2979220151901245e-02</internalNodes>
          <leafValues>
            -1.3674944639205933e-01 5.1357781887054443e-01</leafValues></_>
        <_>
          <internalNodes>
            0 -1 417 -7.7885569771751761e-04</internalNodes>
          <leafValues>
            2.3432901501655579e-01 -3.1802070140838623e-01</leafValues></_>
        <_>
          <internalNodes>
            0 -1 131 -2.0623253658413887e-02</internalNodes>
          <leafValues>
            4.5135793089866638e-01 -2.1811597049236298e-01</leafValues></_>
        <_>
          <internalNodes>
            0 -1 373 1.4442436397075653e-02</internalNodes>
          <leafValues>
            -2.2286675870418549e-01 3.2764324545860291e-01</leafValues></_>
        <_>
          <internalNodes>
            0 -1 317 4.2531266808509827e-02</internalNodes>
          <leafValues>
            -2.2865761816501617e-01 3.4201464056968689e-01</leafValues></_>
        <_>
          <internalNodes>
            0 -1 303 -4.6777771785855293e-03</internalNodes>
          <leafValues>
            2.0088289678096771e-01 -3.5300722718238831e-01</leafValues></_>
        <_>
          <internalNodes>
            0 -1 321 1.3628826476633549e-02</internalNodes>
          <leafValues>
            -2.3520500957965851e-01 2.7981069684028625e-01</leafValues></_>
        <_>
          <internalNodes>
            0 -1 403 -2.6362739503383636e-02</internalNodes>
          <leafValues>
            4.8755344748497009e-01 -1.4761687815189362e-01</leafValues></_>
        <_>
          <internalNodes>
            0 -1 408 4.1066646575927734e-02</internalNodes>
          <leafValues>
            -2.0915767550468445e-01 4.0158110857009888e-01</leafValues></_>
        <_>
          <internalNodes>
            0 -1 55 -4.0807306766510010e-02</internalNodes>
          <leafValues>
            -5.0746560096740723e-01 1.4059384167194366e-01</leafValues></_>
        <_>
          <internalNodes>
            0 -1 53 9.1501036658883095e-03</internalNodes>
          <leafValues>
            3.7183545529842377e-02 -7.2772127389907837e-01</leafValues></_>
        <_>
          <internalNodes>
            0 -1 385 -1.5632491558790207e-02</internalNodes>
          <leafValues>
            -6.4635181427001953e-01 7.2754152119159698e-02</leafValues></_>
        <_>
          <internalNodes>
            0 -1 393 2.5954635348170996e-03</internalNodes>
          <leafValues>
            -2.5853019952774048e-01 1.9221422076225281e-01</leafValues></_>
        <_>
          <internalNodes>
            0 -1 224 -3.7814334034919739e-01</internalNodes>
          <leafValues>
            2.3993746936321259e-01 -2.1709331870079041e-01</leafValues></_>
        <_>
          <internalNodes>
            0 -1 201 9.5406472682952881e-03</internalNodes>
          <leafValues>
            -2.2098492085933685e-01 2.4505497515201569e-01</leafValues></_>
        <_>
          <internalNodes>
            0 -1 47 1.5807189047336578e-02</internalNodes>
          <leafValues>
            -1.8043480813503265e-01 2.8230050206184387e-01</leafValues></_>
        <_>
          <internalNodes>
            0 -1 235 4.6824812889099121e-02</internalNodes>
          <leafValues>
            -2.2146056592464447e-01 2.3044735193252563e-01</leafValues></_>
        <_>
          <internalNodes>
            0 -1 178 -2.6253191754221916e-02</internalNodes>
          <leafValues>
            4.1397422552108765e-01 -1.3529941439628601e-01</leafValues></_>
        <_>
          <internalNodes>
            0 -1 222 7.5214342214167118e-03</internalNodes>
          <leafValues>
            -3.0562371015548706e-01 1.8879418075084686e-01</leafValues></_>
        <_>
          <internalNodes>
            0 -1 374 1.8790151923894882e-02</internalNodes>
          <leafValues>
            -1.4780686795711517e-01 3.6757746338844299e-01</leafValues></_>
        <_>
          <internalNodes>
            0 -1 225 1.0194314643740654e-02</internalNodes>
          <leafValues>
            7.2887882590293884e-02 -7.6951497793197632e-01</leafValues></_>
        <_>
          <internalNodes>
            0 -1 143 -1.2697143480181694e-02</internalNodes>
          <leafValues>
            4.7708418965339661e-01 -1.1990836262702942e-01</leafValues></_></weakClassifiers></_>
    <!-- stage 10 -->
    <_>
      <maxWeakCount>24</maxWeakCount>
      <stageThreshold>-1.0695610046386719e+00</stageThreshold>
      <weakClassifiers>
        <_>
          <internalNodes>
            0 -1 426 -5.0882571376860142e-03</internalNodes>
          <leafValues>
            4.2920157313346863e-01 -1.5037086606025696e-01</leafValues></_>
        <_>
          <internalNodes>
            0 -1 85 1.1080045253038406e-02</internalNodes>
          <leafValues>
            -2.9707345366477966e-01 2.7644994854927063e-01</leafValues></_>
        <_>
          <internalNodes>
            0 -1 384 1.2095277197659016e-03</internalNodes>
          <leafValues>
            -3.0260547995567322e-01 2.2042661905288696e-01</leafValues></_>
        <_>
          <internalNodes>
            0 -1 109 2.6577647775411606e-02</internalNodes>
          <leafValues>
            -2.4891121685504913e-01 2.7511790394783020e-01</leafValues></_>
        <_>
          <internalNodes>
            0 -1 137 3.4253202378749847e-02</internalNodes>
          <leafValues>
            -1.5941977500915527e-01 5.9587973356246948e-01</leafValues></_>
        <_>
          <internalNodes>
            0 -1 245 2.8718970715999603e-02</internalNodes>
          <leafValues>
            -1.1018234491348267e-01 5.4349654912948608e-01</leafValues></_>
        <_>
          <internalNodes>
            0 -1 336 1.5657775104045868e-02</internalNodes>
          <leafValues>
            -1.6480633616447449e-01 4.1092246770858765e-01</leafValues></_>
        <_>
          <internalNodes>
            0 -1 202 1.1636717244982719e-02</internalNodes>
          <leafValues>
            -2.2904987633228302e-01 3.9192417263984680e-01</leafValues></_>
        <_>
          <internalNodes>
            0 -1 79 -3.9635208249092102e-01</internalNodes>
          <leafValues>
            2.0090705156326294e-01 -3.0084148049354553e-01</leafValues></_>
        <_>
          <internalNodes>
            0 -1 128 -3.2597643136978149e-01</internalNodes>
          <leafValues>
            7.2926241159439087e-01 -8.1989951431751251e-02</leafValues></_>
        <_>
          <internalNodes>
            0 -1 327 4.5478284358978271e-02</internalNodes>
          <leafValues>
            -1.2154868990182877e-01 4.2842078208923340e-01</leafValues></_>
        <_>
          <internalNodes>
            0 -1 281 2.7762167155742645e-03</internalNodes>
          <leafValues>
            -3.9385780692100525e-01 1.7132215201854706e-01</leafValues></_>
        <_>
          <internalNodes>
            0 -1 283 -1.3137681409716606e-02</internalNodes>
          <leafValues>
            4.6649375557899475e-01 -1.5831953287124634e-01</leafValues></_>
        <_>
          <internalNodes>
            0 -1 35 2.0728325471282005e-03</internalNodes>
          <leafValues>
            1.4108601212501526e-01 -4.2362678050994873e-01</leafValues></_>
        <_>
          <internalNodes>
            0 -1 294 1.0988787107635289e-04</internalNodes>
          <leafValues>
            -3.1437936425209045e-01 1.6233627498149872e-01</leafValues></_>
        <_>
          <internalNodes>
            0 -1 83 1.4774641394615173e-01</internalNodes>
          <leafValues>
            6.2746569514274597e-02 -9.1371291875839233e-01</leafValues></_>
        <_>
          <internalNodes>
            0 -1 362 5.2169471979141235e-02</internalNodes>
          <leafValues>
            -1.6224244236946106e-01 3.5472735762596130e-01</leafValues></_>
        <_>
          <internalNodes>
            0 -1 285 4.4098891317844391e-02</internalNodes>
          <leafValues>
            7.4564263224601746e-02 -6.7072635889053345e-01</leafValues></_>
        <_>
          <internalNodes>
            0 -1 274 6.2521964311599731e-02</internalNodes>
          <leafValues>
            -1.5042175352573395e-01 3.8418194651603699e-01</leafValues></_>
        <_>
          <internalNodes>
            0 -1 255 -6.3648045063018799e-02</internalNodes>
          <leafValues>
            5.9381139278411865e-01 -9.6457995474338531e-02</leafValues></_>
        <_>
          <internalNodes>
            0 -1 352 -4.7354642301797867e-03</internalNodes>
          <leafValues>
            -5.4246604442596436e-01 1.0364361852407455e-01</leafValues></_>
        <_>
          <internalNodes>
            0 -1 347 2.9599708504974842e-03</internalNodes>
          <leafValues>
            8.3089627325534821e-02 -5.5576074123382568e-01</leafValues></_>
        <_>
          <internalNodes>
            0 -1 425 -1.1376705020666122e-02</internalNodes>
          <leafValues>
            -6.4928060770034790e-01 6.3413396477699280e-02</leafValues></_>
        <_>
          <internalNodes>
            0 -1 316 6.1499988660216331e-03</internalNodes>
          <leafValues>
            -2.9181212186813354e-01 1.3851863145828247e-01</leafValues></_></weakClassifiers></_>
    <!-- stage 11 -->
    <_>
      <maxWeakCount>30</maxWeakCount>
      <stageThreshold>-1.0932980775833130e+00</stageThreshold>
      <weakClassifiers>
        <_>
          <internalNodes>
            0 -1 75 3.3305518329143524e-02</internalNodes>
          <leafValues>
            1.9032513722777367e-02 5.7166123390197754e-01</leafValues></_>
        <_>
          <internalNodes>
            0 -1 353 -1.5574952703900635e-04</internalNodes>
          <leafValues>
            1.9712468981742859e-01 -3.3366686105728149e-01</leafValues></_>
        <_>
          <internalNodes>
            0 -1 166 8.7249111384153366e-03</internalNodes>
          <leafValues>
            -2.6182392239570618e-01 2.1180218458175659e-01</leafValues></_>
        <_>
          <internalNodes>
            0 -1 68 3.6395115312188864e-03</internalNodes>
          <leafValues>
            -2.2917546331882477e-01 2.5645357370376587e-01</leafValues></_>
        <_>
          <internalNodes>
            0 -1 174 6.7285388708114624e-02</internalNodes>
          <leafValues>
            -2.4398137629032135e-01 2.6315614581108093e-01</leafValues></_>
        <_>
          <internalNodes>
            0 -1 146 8.5181780159473419e-03</internalNodes>
          <leafValues>
            -2.3510754108428955e-01 2.8368777036666870e-01</leafValues></_>
        <_>
          <internalNodes>
            0 -1 295 9.0056266635656357e-03</internalNodes>
          <leafValues>
            -2.3584496974945068e-01 3.3541601896286011e-01</leafValues></_>
        <_>
          <internalNodes>
            0 -1 420 3.9850637316703796e-02</internalNodes>
          <leafValues>
            -1.6007147729396820e-01 4.8381933569908142e-01</leafValues></_>
        <_>
          <internalNodes>
            0 -1 6 1.3962277770042419e-01</internalNodes>
          <leafValues>
            -4.6779987215995789e-01 1.7324438691139221e-01</leafValues></_>
        <_>
          <internalNodes>
            0 -1 328 5.6063503026962280e-02</internalNodes>
          <leafValues>
            -2.0948761701583862e-01 4.2315644025802612e-01</leafValues></_>
        <_>
          <internalNodes>
            0 -1 179 -4.2175985872745514e-02</internalNodes>
          <leafValues>
            5.4198968410491943e-01 -9.6543289721012115e-02</leafValues></_>
        <_>
          <internalNodes>
            0 -1 335 1.7424419522285461e-02</internalNodes>
          <leafValues>
            -1.9634923338890076e-01 2.5254756212234497e-01</leafValues></_>
        <_>
          <internalNodes>
            0 -1 352 5.1040928810834885e-03</internalNodes>
          <leafValues>
            1.1083240061998367e-01 -5.5633836984634399e-01</leafValues></_>
        <_>
          <internalNodes>
            0 -1 234 4.3963482603430748e-03</internalNodes>
          <leafValues>
            -3.5821166634559631e-01 1.4051795005798340e-01</leafValues></_>
        <_>
          <internalNodes>
            0 -1 259 1.4026919379830360e-02</internalNodes>
          <leafValues>
            -2.5243854522705078e-01 2.1744298934936523e-01</leafValues></_>
        <_>
          <internalNodes>
            0 -1 108 2.4534720182418823e-01</internalNodes>
          <leafValues>
            7.7862724661827087e-02 -7.8555119037628174e-01</leafValues></_>
        <_>
          <internalNodes>
            0 -1 366 4.7383803874254227e-02</internalNodes>
          <leafValues>
            -5.5813133716583252e-01 8.3350375294685364e-02</leafValues></_>
        <_>
          <internalNodes>
            0 -1 48 1.5565267205238342e-01</internalNodes>
          <leafValues>
            7.8654162585735321e-02 -6.5233182907104492e-01</leafValues></_>
        <_>
          <internalNodes>
            0 -1 152 -3.0752879101783037e-03</internalNodes>
          <leafValues>
            -4.5986053347587585e-01 8.8995605707168579e-02</leafValues></_>
        <_>
          <internalNodes>
            0 -1 365 7.6784744858741760e-02</internalNodes>
          <leafValues>
            -9.5600001513957977e-02 4.6042963862419128e-01</leafValues></_>
        <_>
          <internalNodes>
            0 -1 175 -8.5924677550792694e-03</internalNodes>
          <leafValues>
            3.2212504744529724e-01 -1.4371669292449951e-01</leafValues></_>
        <_>
          <internalNodes>
            0 -1 248 -1.7508843541145325e-01</internalNodes>
          <leafValues>
            7.4736911058425903e-01 -7.3186837136745453e-02</leafValues></_>
        <_>
          <internalNodes>
            0 -1 315 -1.1191494995728135e-03</internalNodes>
          <leafValues>
            2.1526718139648438e-01 -2.2839702665805817e-01</leafValues></_>
        <_>
          <internalNodes>
            0 -1 253 5.2275702357292175e-02</internalNodes>
          <leafValues>
            4.6655237674713135e-02 -8.5931330919265747e-01</leafValues></_>
        <_>
          <internalNodes>
            0 -1 43 1.6851462423801422e-02</internalNodes>
          <leafValues>
            -1.2966577708721161e-01 3.6559271812438965e-01</leafValues></_>
        <_>
          <internalNodes>
            0 -1 306 -2.7304585091769695e-03</internalNodes>
          <leafValues>
            -4.2768412828445435e-01 1.1282709240913391e-01</leafValues></_>
        <_>
          <internalNodes>
            0 -1 223 -3.1113997101783752e-02</internalNodes>
          <leafValues>
            -7.6616454124450684e-01 4.7864131629467010e-02</leafValues></_>
        <_>
          <internalNodes>
            0 -1 329 5.9813894331455231e-03</internalNodes>
          <leafValues>
            -2.8008747100830078e-01 1.6574782133102417e-01</leafValues></_>
        <_>
          <internalNodes>
            0 -1 326 -1.0220244526863098e-02</internalNodes>
          <leafValues>
            3.9253324270248413e-01 -1.2211369723081589e-01</leafValues></_>
        <_>
          <internalNodes>
            0 -1 369 1.0813559405505657e-02</internalNodes>
          <leafValues>
            -2.6163333654403687e-01 2.0739036798477173e-01</leafValues></_></weakClassifiers></_>
    <!-- stage 12 -->
    <_>
      <maxWeakCount>29</maxWeakCount>
      <stageThreshold>-1.0271205902099609e+00</stageThreshold>
      <weakClassifiers>
        <_>
          <internalNodes>
            0 -1 45 3.4211808815598488e-03</internalNodes>
          <leafValues>
            -9.2608824372291565e-02 4.4567084312438965e-01</leafValues></_>
        <_>
          <internalNodes>
            0 -1 342 -3.4043220803141594e-03</internalNodes>
          <leafValues>
            2.8060635924339294e-01 -2.7300986647605896e-01</leafValues></_>
        <_>
          <internalNodes>
            0 -1 258 2.6658492162823677e-02</internalNodes>
          <leafValues>
            -1.5854325890541077e-01 4.4547078013420105e-01</leafValues></_>
        <_>
          <internalNodes>
            0 -1 96 -2.1828250028192997e-03</internalNodes>
          <leafValues>
            1.8767771124839783e-01 -2.9073819518089294e-01</leafValues></_>
        <_>
          <internalNodes>
            0 -1 130 1.0435959324240685e-02</internalNodes>
          <leafValues>
            -2.9100596904754639e-01 1.9472402334213257e-01</leafValues></_>
        <_>
          <internalNodes>
            0 -1 65 -5.0691299140453339e-02</internalNodes>
          <leafValues>
            -5.0682991743087769e-01 1.3833193480968475e-01</leafValues></_>
        <_>
          <internalNodes>
            0 -1 419 -2.7943430468440056e-03</internalNodes>
          <leafValues>
            2.0988278090953827e-01 -2.8782168030738831e-01</leafValues></_>
        <_>
          <internalNodes>
            0 -1 250 -5.2704241126775742e-02</internalNodes>
          <leafValues>
            5.7749474048614502e-01 -1.0143558681011200e-01</leafValues></_>
        <_>
          <internalNodes>
            0 -1 320 4.6225689351558685e-02</internalNodes>
          <leafValues>
            -1.1907599866390228e-01 3.4792521595954895e-01</leafValues></_>
        <_>
          <internalNodes>
            0 -1 293 3.8896653801202774e-02</internalNodes>
          <leafValues>
            -1.6250762343406677e-01 3.5499474406242371e-01</leafValues></_>
        <_>
          <internalNodes>
            0 -1 134 1.5412930399179459e-02</internalNodes>
          <leafValues>
            7.8690670430660248e-02 -7.6932454109191895e-01</leafValues></_>
        <_>
          <internalNodes>
            0 -1 284 -3.3014163374900818e-02</internalNodes>
          <leafValues>
            3.1981009244918823e-01 -1.6495515406131744e-01</leafValues></_>
        <_>
          <internalNodes>
            0 -1 174 3.8685835897922516e-02</internalNodes>
          <leafValues>
            -2.6394033432006836e-01 1.9596588611602783e-01</leafValues></_>
        <_>
          <internalNodes>
            0 -1 299 9.0781245380640030e-03</internalNodes>
          <leafValues>
            -2.2548447549343109e-01 2.5262171030044556e-01</leafValues></_>
        <_>
          <internalNodes>
            0 -1 59 3.2332998514175415e-01</internalNodes>
          <leafValues>
            -2.6609590649604797e-01 1.9929584860801697e-01</leafValues></_>
        <_>
          <internalNodes>
            0 -1 99 -7.0891762152314186e-03</internalNodes>
          <leafValues>
            -3.8062667846679688e-01 1.0723863542079926e-01</leafValues></_>
        <_>
          <internalNodes>
            0 -1 381 8.3306608721613884e-03</internalNodes>
          <leafValues>
            -1.4695720374584198e-01 3.2049220800399780e-01</leafValues></_>
        <_>
          <internalNodes>
            0 -1 285 1.0507658123970032e-02</internalNodes>
          <leafValues>
            -2.2479374706745148e-01 1.9991002976894379e-01</leafValues></_>
        <_>
          <internalNodes>
            0 -1 395 -9.7529999911785126e-03</internalNodes>
          <leafValues>
            -7.5941503047943115e-01 4.6438056975603104e-02</leafValues></_>
        <_>
          <internalNodes>
            0 -1 337 3.2997600734233856e-02</internalNodes>
          <leafValues>
            -1.0416125506162643e-01 4.3583822250366211e-01</leafValues></_>
        <_>
          <internalNodes>
            0 -1 259 2.1899817511439323e-03</internalNodes>
          <leafValues>
            -2.6769262552261353e-01 1.9884516298770905e-01</leafValues></_>
        <_>
          <internalNodes>
            0 -1 376 -4.8696830868721008e-02</internalNodes>
          <leafValues>
            3.7803110480308533e-01 -1.0735962539911270e-01</leafValues></_>
        <_>
          <internalNodes>
            0 -1 335 5.5213281884789467e-03</internalNodes>
          <leafValues>
            -2.5117865204811096e-01 1.6989788413047791e-01</leafValues></_>
        <_>
          <internalNodes>
            0 -1 62 -4.8601967096328735e-01</internalNodes>
          <leafValues>
            4.4405737519264221e-01 -9.9187038838863373e-02</leafValues></_>
        <_>
          <internalNodes>
            0 -1 264 -6.5839737653732300e-02</internalNodes>
          <leafValues>
            2.9741534590721130e-01 -1.6453069448471069e-01</leafValues></_>
        <_>
          <internalNodes>
            0 -1 228 2.6634048670530319e-02</internalNodes>
          <leafValues>
            -1.4332728087902069e-01 3.1028997898101807e-01</leafValues></_>
        <_>
          <internalNodes>
            0 -1 87 6.5083295106887817e-02</internalNodes>
          <leafValues>
            -8.1391833722591400e-02 4.9212509393692017e-01</leafValues></_>
        <_>
          <internalNodes>
            0 -1 400 -6.8274075165390968e-03</internalNodes>
          <leafValues>
            -6.6419106721878052e-01 6.5695352852344513e-02</leafValues></_>
        <_>
          <internalNodes>
            0 -1 319 1.0290740057826042e-02</internalNodes>
          <leafValues>
            -2.4364775419235229e-01 1.7807620763778687e-01</leafValues></_></weakClassifiers></_>
    <!-- stage 13 -->
    <_>
      <maxWeakCount>34</maxWeakCount>
      <stageThreshold>-1.0005627870559692e+00</stageThreshold>
      <weakClassifiers>
        <_>
          <internalNodes>
            0 -1 81 1.2593099847435951e-02</internalNodes>
          <leafValues>
            -1.6438990831375122e-02 4.9386984109878540e-01</leafValues></_>
        <_>
          <internalNodes>
            0 -1 104 -3.1663391739130020e-02</internalNodes>
          <leafValues>
            2.5232309103012085e-01 -2.3796404898166656e-01</leafValues></_>
        <_>
          <internalNodes>
            0 -1 430 6.1036380939185619e-03</internalNodes>
          <leafValues>
            -4.2022299766540527e-01 1.4191360771656036e-01</leafValues></_>
        <_>
          <internalNodes>
            0 -1 402 -1.0161403566598892e-02</internalNodes>
          <leafValues>
            1.0617159307003021e-01 -4.6710166335105896e-01</leafValues></_>
        <_>
          <internalNodes>
            0 -1 288 4.8420593142509460e-02</internalNodes>
          <leafValues>
            -1.0344961285591125e-01 5.1596683263778687e-01</leafValues></_>
        <_>
          <internalNodes>
            0 -1 379 2.1514331921935081e-02</internalNodes>
          <leafValues>
            -1.9534115493297577e-01 3.9098227024078369e-01</leafValues></_>
        <_>
          <internalNodes>
            0 -1 198 1.1257064342498779e-01</internalNodes>
          <leafValues>
            -4.9568992108106613e-02 5.9373992681503296e-01</leafValues></_>
        <_>
          <internalNodes>
            0 -1 125 4.7892503440380096e-02</internalNodes>
          <leafValues>
            -1.0432901978492737e-01 5.3281253576278687e-01</leafValues></_>
        <_>
          <internalNodes>
            0 -1 414 -2.3655090481042862e-03</internalNodes>
          <leafValues>
            -4.1339996457099915e-01 1.2027872353792191e-01</leafValues></_>
        <_>
          <internalNodes>
            0 -1 415 4.6226270496845245e-03</internalNodes>
          <leafValues>
            8.2850866019725800e-02 -5.4794037342071533e-01</leafValues></_>
        <_>
          <internalNodes>
            0 -1 226 7.6405871659517288e-03</internalNodes>
          <leafValues>
            -2.6480841636657715e-01 1.7480823397636414e-01</leafValues></_>
        <_>
          <internalNodes>
            0 -1 36 2.7135256677865982e-02</internalNodes>
          <leafValues>
            -1.5909394621849060e-01 3.0888038873672485e-01</leafValues></_>
        <_>
          <internalNodes>
            0 -1 244 1.1429696343839169e-02</internalNodes>
          <leafValues>
            -2.5412410497665405e-01 1.7545646429061890e-01</leafValues></_>
        <_>
          <internalNodes>
            0 -1 239 -1.2059895321726799e-02</internalNodes>
          <leafValues>
            3.3985194563865662e-01 -1.6604720056056976e-01</leafValues></_>
        <_>
          <internalNodes>
            0 -1 262 1.0474289301782846e-03</internalNodes>
          <leafValues>
            -2.0932511985301971e-01 2.2382813692092896e-01</leafValues></_>
        <_>
          <internalNodes>
            0 -1 166 4.6205122023820877e-02</internalNodes>
          <leafValues>
            7.5695663690567017e-02 -7.6882451772689819e-01</leafValues></_>
        <_>
          <internalNodes>
            0 -1 24 -1.0269650816917419e-01</internalNodes>
          <leafValues>
            4.3391692638397217e-01 -1.0787017643451691e-01</leafValues></_>
        <_>
          <internalNodes>
            0 -1 117 4.2546214535832405e-03</internalNodes>
          <leafValues>
            -2.7719929814338684e-01 1.6870123147964478e-01</leafValues></_>
        <_>
          <internalNodes>
            0 -1 279 3.9345008553937078e-04</internalNodes>
          <leafValues>
            -6.8546509742736816e-01 6.2493506819009781e-02</leafValues></_>
        <_>
          <internalNodes>
            0 -1 26 6.4306138083338737e-03</internalNodes>
          <leafValues>
            7.2864703834056854e-02 -5.2904784679412842e-01</leafValues></_>
        <_>
          <internalNodes>
            0 -1 316 1.3176986947655678e-02</internalNodes>
          <leafValues>
            -2.4210898578166962e-01 1.7484299838542938e-01</leafValues></_>
        <_>
          <internalNodes>
            0 -1 223 1.3900168240070343e-01</internalNodes>
          <leafValues>
            7.1804150938987732e-02 -5.4020249843597412e-01</leafValues></_>
        <_>
          <internalNodes>
            0 -1 367 5.3866013884544373e-02</internalNodes>
          <leafValues>
            -1.3435725867748260e-01 2.8071394562721252e-01</leafValues></_>
        <_>
          <internalNodes>
            0 -1 328 6.1311110854148865e-02</internalNodes>
          <leafValues>
            -1.1046250164508820e-01 3.7325331568717957e-01</leafValues></_>
        <_>
          <internalNodes>
            0 -1 201 1.9605671986937523e-03</internalNodes>
          <leafValues>
            -2.4867090582847595e-01 1.7428931593894958e-01</leafValues></_>
        <_>
          <internalNodes>
            0 -1 316 6.3787102699279785e-02</internalNodes>
          <leafValues>
            5.3384087979793549e-02 -8.9131909608840942e-01</leafValues></_>
        <_>
          <internalNodes>
            0 -1 163 8.1980191171169281e-03</internalNodes>
          <leafValues>
            -2.7654325962066650e-01 1.4602938294410706e-01</leafValues></_>
        <_>
          <internalNodes>
            0 -1 141 -2.0219574868679047e-01</internalNodes>
          <leafValues>
            7.2365820407867432e-01 -6.0820534825325012e-02</leafValues></_>
        <_>
          <internalNodes>
            0 -1 219 2.2625806741416454e-03</internalNodes>
          <leafValues>
            -2.0722423493862152e-01 1.9324101507663727e-01</leafValues></_>
        <_>
          <internalNodes>
            0 -1 29 5.9663918800652027e-03</internalNodes>
          <leafValues>
            9.5397479832172394e-02 -4.0983140468597412e-01</leafValues></_>
        <_>
          <internalNodes>
            0 -1 281 1.0574886575341225e-02</internalNodes>
          <leafValues>
            -2.5143167376518250e-01 1.6420441865921021e-01</leafValues></_>
        <_>
          <internalNodes>
            0 -1 285 3.7069831043481827e-02</internalNodes>
          <leafValues>
            7.1977064013481140e-02 -5.2792632579803467e-01</leafValues></_>
        <_>
          <internalNodes>
            0 -1 190 -2.2297754883766174e-01</internalNodes>
          <leafValues>
            -8.2378792762756348e-01 3.9219863712787628e-02</leafValues></_>
        <_>
          <internalNodes>
            0 -1 301 5.5815067142248154e-02</internalNodes>
          <leafValues>
            3.7712790071964264e-02 -7.6925498247146606e-01</leafValues></_></weakClassifiers></_>
    <!-- stage 14 -->
    <_>
      <maxWeakCount>41</maxWeakCount>
      <stageThreshold>-9.4973701238632202e-01</stageThreshold>
      <weakClassifiers>
        <_>
          <internalNodes>
            0 -1 216 1.5684786438941956e-01</internalNodes>
          <leafValues>
            -3.2940185070037842e-01 2.9954063892364502e-01</leafValues></_>
        <_>
          <internalNodes>
            0 -1 325 -4.2668081820011139e-02</internalNodes>
          <leafValues>
            4.1384357213973999e-01 -1.3760764896869659e-01</leafValues></_>
        <_>
          <internalNodes>
            0 -1 159 -3.3583842217922211e-02</internalNodes>
          <leafValues>
            3.0219262838363647e-01 -1.7352871596813202e-01</leafValues></_>
        <_>
          <internalNodes>
            0 -1 359 7.8101709485054016e-02</internalNodes>
          <leafValues>
            -1.7387463152408600e-01 4.3287628889083862e-01</leafValues></_>
        <_>
          <internalNodes>
            0 -1 407 5.8576688170433044e-02</internalNodes>
          <leafValues>
            -1.2986747920513153e-01 4.2054995894432068e-01</leafValues></_>
        <_>
          <internalNodes>
            0 -1 253 1.9841708242893219e-02</internalNodes>
          <leafValues>
            -1.1507197469472885e-01 3.1547522544860840e-01</leafValues></_>
        <_>
          <internalNodes>
            0 -1 251 5.4794080555438995e-02</internalNodes>
          <leafValues>
            -1.3732253015041351e-01 4.5943260192871094e-01</leafValues></_>
        <_>
          <internalNodes>
            0 -1 173 6.6164410673081875e-03</internalNodes>
          <leafValues>
            -2.9975470900535583e-01 1.5656402707099915e-01</leafValues></_>
        <_>
          <internalNodes>
            0 -1 285 7.2091631591320038e-03</internalNodes>
          <leafValues>
            -2.8183460235595703e-01 1.4982834458351135e-01</leafValues></_>
        <_>
          <internalNodes>
            0 -1 392 3.6531675606966019e-02</internalNodes>
          <leafValues>
            -1.6770267486572266e-01 3.1581065058708191e-01</leafValues></_>
        <_>
          <internalNodes>
            0 -1 114 1.1010764539241791e-01</internalNodes>
          <leafValues>
            5.8018404990434647e-02 -7.0953422784805298e-01</leafValues></_>
        <_>
          <internalNodes>
            0 -1 215 -1.0412158444523811e-02</internalNodes>
          <leafValues>
            -3.3728998899459839e-01 1.1141034960746765e-01</leafValues></_>
        <_>
          <internalNodes>
            0 -1 330 2.0949065685272217e-02</internalNodes>
          <leafValues>
            -1.2415163218975067e-01 3.1520289182662964e-01</leafValues></_>
        <_>
          <internalNodes>
            0 -1 191 1.2284295633435249e-02</internalNodes>
          <leafValues>
            -2.0838761329650879e-01 2.1305210888385773e-01</leafValues></_>
        <_>
          <internalNodes>
            0 -1 238 1.4349479228258133e-02</internalNodes>
          <leafValues>
            -1.3284751772880554e-01 3.4764784574508667e-01</leafValues></_>
        <_>
          <internalNodes>
            0 -1 429 -1.3632480986416340e-02</internalNodes>
          <leafValues>
            -5.8740431070327759e-01 8.5783451795578003e-02</leafValues></_>
        <_>
          <internalNodes>
            0 -1 300 7.5666606426239014e-03</internalNodes>
          <leafValues>
            -1.5182888507843018e-01 2.6847684383392334e-01</leafValues></_>
        <_>
          <internalNodes>
            0 -1 334 4.5313455164432526e-02</internalNodes>
          <leafValues>
            -1.1494779586791992e-01 3.7316790223121643e-01</leafValues></_>
        <_>
          <internalNodes>
            0 -1 272 -1.7178110778331757e-02</internalNodes>
          <leafValues>
            -5.5992096662521362e-01 7.0148952305316925e-02</leafValues></_>
        <_>
          <internalNodes>
            0 -1 241 3.8396865129470825e-02</internalNodes>
          <leafValues>
            -1.2297478318214417e-01 3.2056853175163269e-01</leafValues></_>
        <_>
          <internalNodes>
            0 -1 281 6.2973603606224060e-02</internalNodes>
          <leafValues>
            4.8026636242866516e-02 -9.3727242946624756e-01</leafValues></_>
        <_>
          <internalNodes>
            0 -1 294 6.0764864087104797e-02</internalNodes>
          <leafValues>
            2.8725257143378258e-02 -8.9398914575576782e-01</leafValues></_>
        <_>
          <internalNodes>
            0 -1 397 1.6227434575557709e-01</internalNodes>
          <leafValues>
            5.4158844053745270e-02 -5.1103210449218750e-01</leafValues></_>
        <_>
          <internalNodes>
            0 -1 7 -1.1484760791063309e-02</internalNodes>
          <leafValues>
            2.1347709000110626e-01 -1.5970550477504730e-01</leafValues></_>
        <_>
          <internalNodes>
            0 -1 237 2.3317974060773849e-02</internalNodes>
          <leafValues>
            -1.0752394795417786e-01 2.8479930758476257e-01</leafValues></_>
        <_>
          <internalNodes>
            0 -1 130 7.6105026528239250e-03</internalNodes>
          <leafValues>
            -2.6224517822265625e-01 1.5622271597385406e-01</leafValues></_>
        <_>
          <internalNodes>
            0 -1 23 -6.9252629764378071e-03</internalNodes>
          <leafValues>
            1.8254865705966949e-01 -1.7989106476306915e-01</leafValues></_>
        <_>
          <internalNodes>
            0 -1 112 5.6548275053501129e-02</internalNodes>
          <leafValues>
            4.7056805342435837e-02 -7.0399379730224609e-01</leafValues></_>
        <_>
          <internalNodes>
            0 -1 60 2.3987352848052979e-01</internalNodes>
          <leafValues>
            4.5937262475490570e-02 -6.5495020151138306e-01</leafValues></_>
        <_>
          <internalNodes>
            0 -1 354 -6.2433825805783272e-03</internalNodes>
          <leafValues>
            1.8131223320960999e-01 -1.8357628583908081e-01</leafValues></_>
        <_>
          <internalNodes>
            0 -1 263 -5.5719697847962379e-03</internalNodes>
          <leafValues>
            -5.3251665830612183e-01 6.2786057591438293e-02</leafValues></_>
        <_>
          <internalNodes>
            0 -1 212 -4.1598221287131310e-04</internalNodes>
          <leafValues>
            2.1616028249263763e-01 -1.6718572378158569e-01</leafValues></_>
        <_>
          <internalNodes>
            0 -1 389 3.1890100799500942e-03</internalNodes>
          <leafValues>
            8.8434383273124695e-02 -3.9787349104881287e-01</leafValues></_>
        <_>
          <internalNodes>
            0 -1 396 -3.1949430704116821e-02</internalNodes>
          <leafValues>
            -4.9191451072692871e-01 6.0001712292432785e-02</leafValues></_>
        <_>
          <internalNodes>
            0 -1 71 4.7080017626285553e-02</internalNodes>
          <leafValues>
            5.0504744052886963e-02 -5.7064998149871826e-01</leafValues></_>
        <_>
          <internalNodes>
            0 -1 221 9.2842532321810722e-03</internalNodes>
          <leafValues>
            -1.6426819562911987e-01 2.1751236915588379e-01</leafValues></_>
        <_>
          <internalNodes>
            0 -1 233 1.1277701705694199e-02</internalNodes>
          <leafValues>
            4.5788757503032684e-02 -7.7995091676712036e-01</leafValues></_>
        <_>
          <internalNodes>
            0 -1 244 5.5056829005479813e-02</internalNodes>
          <leafValues>
            2.3080023005604744e-02 -9.2028945684432983e-01</leafValues></_>
        <_>
          <internalNodes>
            0 -1 210 -3.5003097727894783e-03</internalNodes>
          <leafValues>
            2.1486316621303558e-01 -1.4801269769668579e-01</leafValues></_>
        <_>
          <internalNodes>
            0 -1 338 -7.9559907317161560e-02</internalNodes>
          <leafValues>
            6.5048581361770630e-01 -4.8074234277009964e-02</leafValues></_>
        <_>
          <internalNodes>
            0 -1 331 2.9837924987077713e-02</internalNodes>
          <leafValues>
            -1.3169962167739868e-01 2.6686429977416992e-01</leafValues></_></weakClassifiers></_>
    <!-- stage 15 -->
    <_>
      <maxWeakCount>37</maxWeakCount>
      <stageThreshold>-9.8473429679870605e-01</stageThreshold>
      <weakClassifiers>
        <_>
          <internalNodes>
            0 -1 154 -2.1623452007770538e-01</internalNodes>
          <leafValues>
            6.0882645845413208e-01 5.1943335682153702e-02</leafValues></_>
        <_>
          <internalNodes>
            0 -1 102 4.0946668013930321e-03</internalNodes>
          <leafValues>
            1.5331481397151947e-01 -3.4892576932907104e-01</leafValues></_>
        <_>
          <internalNodes>
            0 -1 80 1.9833788275718689e-02</internalNodes>
          <leafValues>
            -2.2274078428745270e-01 2.1279790997505188e-01</leafValues></_>
        <_>
          <internalNodes>
            0 -1 282 5.2353035658597946e-02</internalNodes>
          <leafValues>
            -1.8448674678802490e-01 3.3519616723060608e-01</leafValues></_>
        <_>
          <internalNodes>
            0 -1 376 5.4585486650466919e-02</internalNodes>
          <leafValues>
            -9.5078676939010620e-02 4.5661497116088867e-01</leafValues></_>
        <_>
          <internalNodes>
            0 -1 92 -1.9840107415802777e-04</internalNodes>
          <leafValues>
            1.6988895833492279e-01 -2.5464928150177002e-01</leafValues></_>
        <_>
          <internalNodes>
            0 -1 123 8.3647593855857849e-03</internalNodes>
          <leafValues>
            -2.4667902290821075e-01 1.7924863100051880e-01</leafValues></_>
        <_>
          <internalNodes>
            0 -1 324 5.9459693729877472e-02</internalNodes>
          <leafValues>
            -1.1633574962615967e-01 4.7495877742767334e-01</leafValues></_>
        <_>
          <internalNodes>
            0 -1 371 -2.8477124869823456e-02</internalNodes>
          <leafValues>
            3.1648895144462585e-01 -1.7099931836128235e-01</leafValues></_>
        <_>
          <internalNodes>
            0 -1 196 3.9340037852525711e-02</internalNodes>
          <leafValues>
            -1.7327480018138885e-01 2.7617752552032471e-01</leafValues></_>
        <_>
          <internalNodes>
            0 -1 157 1.1995902657508850e-01</internalNodes>
          <leafValues>
            -2.8362360596656799e-01 1.6824334859848022e-01</leafValues></_>
        <_>
          <internalNodes>
            0 -1 289 4.7163702547550201e-02</internalNodes>
          <leafValues>
            -2.2276979684829712e-01 2.1417558193206787e-01</leafValues></_>
        <_>
          <internalNodes>
            0 -1 54 -7.6759783551096916e-03</internalNodes>
          <leafValues>
            -4.1915032267570496e-01 1.1881469190120697e-01</leafValues></_>
        <_>
          <internalNodes>
            0 -1 276 4.4214194640517235e-03</internalNodes>
          <leafValues>
            -3.1713324785232544e-01 1.3750559091567993e-01</leafValues></_>
        <_>
          <internalNodes>
            0 -1 362 -1.6623660922050476e-02</internalNodes>
          <leafValues>
            3.8226491212844849e-01 -1.4878235757350922e-01</leafValues></_>
        <_>
          <internalNodes>
            0 -1 321 9.9402004852890968e-03</internalNodes>
          <leafValues>
            -2.2943377494812012e-01 2.0359922945499420e-01</leafValues></_>
        <_>
          <internalNodes>
            0 -1 315 -1.5750036982353777e-04</internalNodes>
          <leafValues>
            1.5021003782749176e-01 -2.8725913166999817e-01</leafValues></_>
        <_>
          <internalNodes>
            0 -1 372 6.3281036913394928e-02</internalNodes>
          <leafValues>
            -1.2393579632043839e-01 3.5618361830711365e-01</leafValues></_>
        <_>
          <internalNodes>
            0 -1 288 -3.3646501600742340e-02</internalNodes>
          <leafValues>
            4.3102312088012695e-01 -8.9049853384494781e-02</leafValues></_>
        <_>
          <internalNodes>
            0 -1 270 9.1402921825647354e-03</internalNodes>
          <leafValues>
            6.9916188716888428e-02 -5.9466612339019775e-01</leafValues></_>
        <_>
          <internalNodes>
            0 -1 247 -3.1292937695980072e-02</internalNodes>
          <leafValues>
            4.8442792892456055e-01 -9.4087123870849609e-02</leafValues></_>
        <_>
          <internalNodes>
            0 -1 173 4.6992987394332886e-02</internalNodes>
          <leafValues>
            6.8608492612838745e-02 -7.5692605972290039e-01</leafValues></_>
        <_>
          <internalNodes>
            0 -1 390 -1.1006663553416729e-03</internalNodes>
          <leafValues>
            1.7241406440734863e-01 -2.3992411792278290e-01</leafValues></_>
        <_>
          <internalNodes>
            0 -1 394 -7.1389414370059967e-03</internalNodes>
          <leafValues>
            -5.2375996112823486e-01 6.9406069815158844e-02</leafValues></_>
        <_>
          <internalNodes>
            0 -1 67 2.5077632069587708e-01</internalNodes>
          <leafValues>
            4.2360328137874603e-02 -7.1355307102203369e-01</leafValues></_>
        <_>
          <internalNodes>
            0 -1 242 -1.2999001145362854e-01</internalNodes>
          <leafValues>
            6.9845721125602722e-02 -4.8785021901130676e-01</leafValues></_>
        <_>
          <internalNodes>
            0 -1 94 1.1127656325697899e-02</internalNodes>
          <leafValues>
            -1.1751634627580643e-01 3.5323002934455872e-01</leafValues></_>
        <_>
          <internalNodes>
            0 -1 144 -2.0090784877538681e-02</internalNodes>
          <leafValues>
            3.9398950338363647e-01 -8.8223978877067566e-02</leafValues></_>
        <_>
          <internalNodes>
            0 -1 129 3.1159326434135437e-02</internalNodes>
          <leafValues>
            1.0538322478532791e-01 -3.7728780508041382e-01</leafValues></_>
        <_>
          <internalNodes>
            0 -1 214 7.9379953444004059e-02</internalNodes>
          <leafValues>
            -7.5013101100921631e-02 6.6962581872940063e-01</leafValues></_>
        <_>
          <internalNodes>
            0 -1 249 -9.1899439692497253e-02</internalNodes>
          <leafValues>
            8.2217365503311157e-01 -2.8689363971352577e-02</leafValues></_>
        <_>
          <internalNodes>
            0 -1 204 4.7038536518812180e-02</internalNodes>
          <leafValues>
            -1.5388524532318115e-01 2.1617585420608521e-01</leafValues></_>
        <_>
          <internalNodes>
            0 -1 135 1.3643686659634113e-02</internalNodes>
          <leafValues>
            -2.2684848308563232e-01 2.1659523248672485e-01</leafValues></_>
        <_>
          <internalNodes>
            0 -1 203 -1.0217117145657539e-02</internalNodes>
          <leafValues>
            3.3317866921424866e-01 -1.1279754340648651e-01</leafValues></_>
        <_>
          <internalNodes>
            0 -1 140 6.1145566403865814e-02</internalNodes>
          <leafValues>
            4.8514742404222488e-02 -8.6685967445373535e-01</leafValues></_>
        <_>
          <internalNodes>
            0 -1 406 9.0109575539827347e-03</internalNodes>
          <leafValues>
            -2.0205560326576233e-01 1.7569224536418915e-01</leafValues></_>
        <_>
          <internalNodes>
            0 -1 388 1.1937802657485008e-02</internalNodes>
          <leafValues>
            8.7545357644557953e-02 -4.6562221646308899e-01</leafValues></_></weakClassifiers></_>
    <!-- stage 16 -->
    <_>
      <maxWeakCount>45</maxWeakCount>
      <stageThreshold>-9.5994096994400024e-01</stageThreshold>
      <weakClassifiers>
        <_>
          <internalNodes>
            0 -1 399 -2.3691072128713131e-03</internalNodes>
          <leafValues>
            3.6726805567741394e-01 -7.3839664459228516e-02</leafValues></_>
        <_>
          <internalNodes>
            0 -1 362 6.7332774400711060e-02</internalNodes>
          <leafValues>
            -1.2707066535949707e-01 3.7585958838462830e-01</leafValues></_>
        <_>
          <internalNodes>
            0 -1 56 -1.0571663826704025e-01</internalNodes>
          <leafValues>
            -3.3580866456031799e-01 1.2039776891469955e-01</leafValues></_>
        <_>
          <internalNodes>
            0 -1 185 -2.8764018788933754e-02</internalNodes>
          <leafValues>
            3.2535132765769958e-01 -1.2155567109584808e-01</leafValues></_>
        <_>
          <internalNodes>
            0 -1 176 4.0810361504554749e-02</internalNodes>
          <leafValues>
            -1.5398965775966644e-01 4.6530795097351074e-01</leafValues></_>
        <_>
          <internalNodes>
            0 -1 309 5.9012528508901596e-03</internalNodes>
          <leafValues>
            -2.1188777685165405e-01 2.0059604942798615e-01</leafValues></_>
        <_>
          <internalNodes>
            0 -1 320 4.9391038715839386e-02</internalNodes>
          <leafValues>
            -1.5687702596187592e-01 2.7885359525680542e-01</leafValues></_>
        <_>
          <internalNodes>
            0 -1 252 6.4097449183464050e-02</internalNodes>
          <leafValues>
            -1.0217722505331039e-01 3.9711794257164001e-01</leafValues></_>
        <_>
          <internalNodes>
            0 -1 332 4.1995976120233536e-02</internalNodes>
          <leafValues>
            -9.1725371778011322e-02 3.7621900439262390e-01</leafValues></_>
        <_>
          <internalNodes>
            0 -1 281 2.7387356385588646e-03</internalNodes>
          <leafValues>
            -3.3990472555160522e-01 1.2593184411525726e-01</leafValues></_>
        <_>
          <internalNodes>
            0 -1 77 2.3741619288921356e-01</internalNodes>
          <leafValues>
            5.5702202022075653e-02 -7.5563675165176392e-01</leafValues></_>
        <_>
          <internalNodes>
            0 -1 118 1.5110665000975132e-02</internalNodes>
          <leafValues>
            -1.2916246056556702e-01 2.8508707880973816e-01</leafValues></_>
        <_>
          <internalNodes>
            0 -1 38 2.1966125816106796e-02</internalNodes>
          <leafValues>
            -1.7024922370910645e-01 2.0668010413646698e-01</leafValues></_>
        <_>
          <internalNodes>
            0 -1 21 -1.7600870341993868e-04</internalNodes>
          <leafValues>
            1.9054253399372101e-01 -1.8215689063072205e-01</leafValues></_>
        <_>
          <internalNodes>
            0 -1 421 1.2560218572616577e-02</internalNodes>
          <leafValues>
            6.3014402985572815e-02 -6.8743288516998291e-01</leafValues></_>
        <_>
          <internalNodes>
            0 -1 161 2.6119738817214966e-01</internalNodes>
          <leafValues>
            4.0489658713340759e-02 -7.3466271162033081e-01</leafValues></_>
        <_>
          <internalNodes>
            0 -1 422 -9.9206129088997841e-03</internalNodes>
          <leafValues>
            2.2259011864662170e-01 -1.5267230570316315e-01</leafValues></_>
        <_>
          <internalNodes>
            0 -1 50 1.6130481660366058e-01</internalNodes>
          <leafValues>
            3.1694531440734863e-02 -8.1004953384399414e-01</leafValues></_>
        <_>
          <internalNodes>
            0 -1 363 1.8619399634189904e-04</internalNodes>
          <leafValues>
            -5.6244742870330811e-01 4.4378340244293213e-02</leafValues></_>
        <_>
          <internalNodes>
            0 -1 177 -2.4463228881359100e-02</internalNodes>
          <leafValues>
            3.2339003682136536e-01 -1.0971569269895554e-01</leafValues></_>
        <_>
          <internalNodes>
            0 -1 137 2.6602324098348618e-02</internalNodes>
          <leafValues>
            -8.8025078177452087e-02 3.4667161107063293e-01</leafValues></_>
        <_>
          <internalNodes>
            0 -1 244 1.6157538630068302e-03</internalNodes>
          <leafValues>
            -2.8806588053703308e-01 1.3539507985115051e-01</leafValues></_>
        <_>
          <internalNodes>
            0 -1 345 4.1799517348408699e-03</internalNodes>
          <leafValues>
            -2.1470904350280762e-01 2.0712685585021973e-01</leafValues></_>
        <_>
          <internalNodes>
            0 -1 430 1.5050772577524185e-02</internalNodes>
          <leafValues>
            -2.6625105738639832e-01 1.3138133287429810e-01</leafValues></_>
        <_>
          <internalNodes>
            0 -1 220 4.9750572070479393e-03</internalNodes>
          <leafValues>
            -1.9045317173004150e-01 1.7218370735645294e-01</leafValues></_>
        <_>
          <internalNodes>
            0 -1 307 -1.3032857328653336e-02</internalNodes>
          <leafValues>
            -5.4334717988967896e-01 5.9780903160572052e-02</leafValues></_>
        <_>
          <internalNodes>
            0 -1 261 5.0930023193359375e-02</internalNodes>
          <leafValues>
            4.8925183713436127e-02 -5.5791634321212769e-01</leafValues></_>
        <_>
          <internalNodes>
            0 -1 380 5.5824756622314453e-02</internalNodes>
          <leafValues>
            -9.3598008155822754e-02 4.0398642420768738e-01</leafValues></_>
        <_>
          <internalNodes>
            0 -1 319 1.1371923610568047e-02</internalNodes>
          <leafValues>
            -1.9638466835021973e-01 1.5757191181182861e-01</leafValues></_>
        <_>
          <internalNodes>
            0 -1 285 9.4388695433735847e-03</internalNodes>
          <leafValues>
            -2.3280531167984009e-01 1.2542280554771423e-01</leafValues></_>
        <_>
          <internalNodes>
            0 -1 411 -4.8503689467906952e-02</internalNodes>
          <leafValues>
            4.3805748224258423e-01 -7.1750566363334656e-02</leafValues></_>
        <_>
          <internalNodes>
            0 -1 244 4.3146848678588867e-02</internalNodes>
          <leafValues>
            5.1277045160531998e-02 -6.5575718879699707e-01</leafValues></_>
        <_>
          <internalNodes>
            0 -1 35 -5.4115179227665067e-04</internalNodes>
          <leafValues>
            1.5060901641845703e-01 -1.9038169085979462e-01</leafValues></_>
        <_>
          <internalNodes>
            0 -1 356 -6.4735673367977142e-03</internalNodes>
          <leafValues>
            -4.9803692102432251e-01 6.0515183955430984e-02</leafValues></_>
        <_>
          <internalNodes>
            0 -1 122 3.5361272096633911e-01</internalNodes>
          <leafValues>
            3.1768005341291428e-02 -7.6542842388153076e-01</leafValues></_>
        <_>
          <internalNodes>
            0 -1 171 -7.3192978743463755e-04</internalNodes>
          <leafValues>
            2.9049012064933777e-01 -1.1042196303606033e-01</leafValues></_>
        <_>
          <internalNodes>
            0 -1 166 6.0525489971041679e-03</internalNodes>
          <leafValues>
            -2.2542850673198700e-01 1.4185832440853119e-01</leafValues></_>
        <_>
          <internalNodes>
            0 -1 52 3.2188170589506626e-03</internalNodes>
          <leafValues>
            6.4599029719829559e-02 -4.3955358862876892e-01</leafValues></_>
        <_>
          <internalNodes>
            0 -1 211 -7.0576497819274664e-04</internalNodes>
          <leafValues>
            1.6587021946907043e-01 -1.7874531447887421e-01</leafValues></_>
        <_>
          <internalNodes>
            0 -1 143 3.9911076426506042e-02</internalNodes>
          <leafValues>
            -8.7048448622226715e-02 3.9825871586799622e-01</leafValues></_>
        <_>
          <internalNodes>
            0 -1 91 -1.0512739419937134e-02</internalNodes>
          <leafValues>
            -5.4474884271621704e-01 5.8907844126224518e-02</leafValues></_>
        <_>
          <internalNodes>
            0 -1 69 5.1666531711816788e-02</internalNodes>
          <leafValues>
            4.1071351617574692e-02 -5.9334778785705566e-01</leafValues></_>
        <_>
          <internalNodes>
            0 -1 353 -1.6131217125803232e-03</internalNodes>
          <leafValues>
            1.5474998950958252e-01 -1.7028026282787323e-01</leafValues></_>
        <_>
          <internalNodes>
            0 -1 398 -1.1466128751635551e-02</internalNodes>
          <leafValues>
            -5.5364900827407837e-01 4.5531269162893295e-02</leafValues></_>
        <_>
          <internalNodes>
            0 -1 27 -4.2797555215656757e-03</internalNodes>
          <leafValues>
            -4.3270933628082275e-01 5.6563351303339005e-02</leafValues></_></weakClassifiers></_>
    <!-- stage 17 -->
    <_>
      <maxWeakCount>46</maxWeakCount>
      <stageThreshold>-9.6059590578079224e-01</stageThreshold>
      <weakClassifiers>
        <_>
          <internalNodes>
            0 -1 373 1.5726514160633087e-02</internalNodes>
          <leafValues>
            -8.2827163860201836e-03 3.9453327655792236e-01</leafValues></_>
        <_>
          <internalNodes>
            0 -1 286 2.8233474120497704e-02</internalNodes>
          <leafValues>
            -1.0725646466016769e-01 3.5322073101997375e-01</leafValues></_>
        <_>
          <internalNodes>
            0 -1 277 4.9781557172536850e-02</internalNodes>
          <leafValues>
            -2.0224371552467346e-01 2.5092780590057373e-01</leafValues></_>
        <_>
          <internalNodes>
            0 -1 193 1.3664095662534237e-02</internalNodes>
          <leafValues>
            -1.7056855559349060e-01 2.8326690196990967e-01</leafValues></_>
        <_>
          <internalNodes>
            0 -1 72 1.3958354480564594e-02</internalNodes>
          <leafValues>
            -2.3952212929725647e-01 1.9687843322753906e-01</leafValues></_>
        <_>
          <internalNodes>
            0 -1 158 -3.3809509128332138e-02</internalNodes>
          <leafValues>
            2.8738448023796082e-01 -1.7873588204383850e-01</leafValues></_>
        <_>
          <internalNodes>
            0 -1 140 2.1808478981256485e-02</internalNodes>
          <leafValues>
            -1.7272716760635376e-01 2.4167291820049286e-01</leafValues></_>
        <_>
          <internalNodes>
            0 -1 377 4.9224212765693665e-02</internalNodes>
          <leafValues>
            -1.4365494251251221e-01 3.9547243714332581e-01</leafValues></_>
        <_>
          <internalNodes>
            0 -1 213 -4.1644096374511719e-02</internalNodes>
          <leafValues>
            -5.1428937911987305e-01 8.2086630165576935e-02</leafValues></_>
        <_>
          <internalNodes>
            0 -1 163 1.2868091464042664e-02</internalNodes>
          <leafValues>
            -2.2218266129493713e-01 1.7269580066204071e-01</leafValues></_>
        <_>
          <internalNodes>
            0 -1 208 2.6234835386276245e-03</internalNodes>
          <leafValues>
            -1.8754278123378754e-01 2.0461291074752808e-01</leafValues></_>
        <_>
          <internalNodes>
            0 -1 133 3.8549549877643585e-02</internalNodes>
          <leafValues>
            -1.3428163528442383e-01 3.2260549068450928e-01</leafValues></_>
        <_>
          <internalNodes>
            0 -1 240 1.6552250832319260e-02</internalNodes>
          <leafValues>
            -1.6436894237995148e-01 3.1587314605712891e-01</leafValues></_>
        <_>
          <internalNodes>
            0 -1 245 2.2764705121517181e-02</internalNodes>
          <leafValues>
            -1.3862328231334686e-01 2.6768729090690613e-01</leafValues></_>
        <_>
          <internalNodes>
            0 -1 132 8.4018997848033905e-02</internalNodes>
          <leafValues>
            1.2712459266185760e-01 -3.4793075919151306e-01</leafValues></_>
        <_>
          <internalNodes>
            0 -1 61 6.7044839262962341e-02</internalNodes>
          <leafValues>
            7.1870505809783936e-02 -4.1009029746055603e-01</leafValues></_>
        <_>
          <internalNodes>
            0 -1 276 5.0803288817405701e-02</internalNodes>
          <leafValues>
            4.0196862071752548e-02 -7.9240453243255615e-01</leafValues></_>
        <_>
          <internalNodes>
            0 -1 276 7.5730904936790466e-03</internalNodes>
          <leafValues>
            -2.4765348434448242e-01 1.3470847904682159e-01</leafValues></_>
        <_>
          <internalNodes>
            0 -1 280 4.8524983227252960e-02</internalNodes>
          <leafValues>
            -9.3042083084583282e-02 3.4502288699150085e-01</leafValues></_>
        <_>
          <internalNodes>
            0 -1 294 5.3323030471801758e-02</internalNodes>
          <leafValues>
            5.2847735583782196e-02 -7.1532815694808960e-01</leafValues></_>
        <_>
          <internalNodes>
            0 -1 64 1.8905571103096008e-01</internalNodes>
          <leafValues>
            2.6469971984624863e-02 -7.6058197021484375e-01</leafValues></_>
        <_>
          <internalNodes>
            0 -1 267 4.9396139383316040e-01</internalNodes>
          <leafValues>
            3.7535637617111206e-02 -6.4015579223632812e-01</leafValues></_>
        <_>
          <internalNodes>
            0 -1 66 1.2957337498664856e-01</internalNodes>
          <leafValues>
            5.0397615879774094e-02 -5.4843837022781372e-01</leafValues></_>
        <_>
          <internalNodes>
            0 -1 27 5.0457855686545372e-03</internalNodes>
          <leafValues>
            4.5736216008663177e-02 -6.0354387760162354e-01</leafValues></_>
        <_>
          <internalNodes>
            0 -1 72 5.5505394935607910e-02</internalNodes>
          <leafValues>
            3.8246307522058487e-02 -6.1035782098770142e-01</leafValues></_>
        <_>
          <internalNodes>
            0 -1 358 -3.9900660514831543e-02</internalNodes>
          <leafValues>
            4.0291342139244080e-01 -7.4610337615013123e-02</leafValues></_>
        <_>
          <internalNodes>
            0 -1 46 1.7089035362005234e-02</internalNodes>
          <leafValues>
            -1.1613480746746063e-01 2.4658879637718201e-01</leafValues></_>
        <_>
          <internalNodes>
            0 -1 20 -2.6450178120285273e-04</internalNodes>
          <leafValues>
            2.1318326890468597e-01 -1.5495945513248444e-01</leafValues></_>
        <_>
          <internalNodes>
            0 -1 234 2.2192826145328581e-04</internalNodes>
          <leafValues>
            -3.6475634574890137e-01 8.3847045898437500e-02</leafValues></_>
        <_>
          <internalNodes>
            0 -1 290 2.5159657001495361e-02</internalNodes>
          <leafValues>
            -1.1566905677318573e-01 2.5360235571861267e-01</leafValues></_>
        <_>
          <internalNodes>
            0 -1 410 4.7342617064714432e-02</internalNodes>
          <leafValues>
            -6.9860242307186127e-02 4.0689209103584290e-01</leafValues></_>
        <_>
          <internalNodes>
            0 -1 164 6.5344825387001038e-02</internalNodes>
          <leafValues>
            4.9454800784587860e-02 -6.3882774114608765e-01</leafValues></_>
        <_>
          <internalNodes>
            0 -1 17 -6.8012982606887817e-02</internalNodes>
          <leafValues>
            -7.5600719451904297e-01 3.0784210190176964e-02</leafValues></_>
        <_>
          <internalNodes>
            0 -1 234 4.2612560093402863e-02</internalNodes>
          <leafValues>
            3.5411112010478973e-02 -5.9778249263763428e-01</leafValues></_>
        <_>
          <internalNodes>
            0 -1 33 2.4336859583854675e-01</internalNodes>
          <leafValues>
            -2.6027968525886536e-01 9.4065859913825989e-02</leafValues></_>
        <_>
          <internalNodes>
            0 -1 2 -2.1719206124544144e-02</internalNodes>
          <leafValues>
            -4.7736161947250366e-01 5.0652340054512024e-02</leafValues></_>
        <_>
          <internalNodes>
            0 -1 126 -1.3876852579414845e-02</internalNodes>
          <leafValues>
            2.8338575363159180e-01 -9.9160306155681610e-02</leafValues></_>
        <_>
          <internalNodes>
            0 -1 119 2.1033210679888725e-02</internalNodes>
          <leafValues>
            -1.1795160919427872e-01 2.5547423958778381e-01</leafValues></_>
        <_>
          <internalNodes>
            0 -1 287 5.1177382469177246e-02</internalNodes>
          <leafValues>
            -8.2587085664272308e-02 3.1855159997940063e-01</leafValues></_>
        <_>
          <internalNodes>
            0 -1 49 5.7295411825180054e-03</internalNodes>
          <leafValues>
            -1.6675016283988953e-01 1.6744802892208099e-01</leafValues></_>
        <_>
          <internalNodes>
            0 -1 22 -2.8669621795415878e-02</internalNodes>
          <leafValues>
            -8.5938847064971924e-01 3.4580055624246597e-02</leafValues></_>
        <_>
          <internalNodes>
            0 -1 148 -3.4725053701549768e-03</internalNodes>
          <leafValues>
            1.7769010365009308e-01 -1.4871831238269806e-01</leafValues></_>
        <_>
          <internalNodes>
            0 -1 208 6.1101492494344711e-02</internalNodes>
          <leafValues>
            2.8975065797567368e-02 -8.8718676567077637e-01</leafValues></_>
        <_>
          <internalNodes>
            0 -1 168 2.1484570205211639e-01</internalNodes>
          <leafValues>
            2.2205432876944542e-02 -7.9749596118927002e-01</leafValues></_>
        <_>
          <internalNodes>
            0 -1 348 -1.3114716857671738e-02</internalNodes>
          <leafValues>
            -4.9275207519531250e-01 4.1533421725034714e-02</leafValues></_>
        <_>
          <internalNodes>
            0 -1 408 5.8051772415637970e-02</internalNodes>
          <leafValues>
            -9.0105168521404266e-02 2.6492238044738770e-01</leafValues></_></weakClassifiers></_>
    <!-- stage 18 -->
    <_>
      <maxWeakCount>59</maxWeakCount>
      <stageThreshold>-1.0800387859344482e+00</stageThreshold>
      <weakClassifiers>
        <_>
          <internalNodes>
            0 -1 100 -6.3141332939267159e-03</internalNodes>
          <leafValues>
            3.7462583184242249e-01 -4.0228065103292465e-02</leafValues></_>
        <_>
          <internalNodes>
            0 -1 340 1.7488576471805573e-02</internalNodes>
          <leafValues>
            -1.3542596995830536e-01 3.3120676875114441e-01</leafValues></_>
        <_>
          <internalNodes>
            0 -1 375 1.7569301649928093e-02</internalNodes>
          <leafValues>
            -1.3495671749114990e-01 3.0480316281318665e-01</leafValues></_>
        <_>
          <internalNodes>
            0 -1 165 8.7549939751625061e-02</internalNodes>
          <leafValues>
            -1.9807578623294830e-01 2.4906498193740845e-01</leafValues></_>
        <_>
          <internalNodes>
            0 -1 321 1.9150940701365471e-02</internalNodes>
          <leafValues>
            -1.5942366421222687e-01 2.4447771906852722e-01</leafValues></_>
        <_>
          <internalNodes>
            0 -1 292 4.0567409247159958e-02</internalNodes>
          <leafValues>
            -8.2658261060714722e-02 4.1033536195755005e-01</leafValues></_>
        <_>
          <internalNodes>
            0 -1 420 -4.3488346040248871e-02</internalNodes>
          <leafValues>
            5.0244879722595215e-01 -8.4549635648727417e-02</leafValues></_>
        <_>
          <internalNodes>
            0 -1 246 -1.8140301108360291e-02</internalNodes>
          <leafValues>
            3.1296527385711670e-01 -1.2895984947681427e-01</leafValues></_>
        <_>
          <internalNodes>
            0 -1 40 3.7938430905342102e-03</internalNodes>
          <leafValues>
            -1.5893781185150146e-01 2.3878842592239380e-01</leafValues></_>
        <_>
          <internalNodes>
            0 -1 288 -3.9897955954074860e-02</internalNodes>
          <leafValues>
            3.5518610477447510e-01 -1.1633554846048355e-01</leafValues></_>
        <_>
          <internalNodes>
            0 -1 382 9.4034094363451004e-03</internalNodes>
          <leafValues>
            7.7933877706527710e-02 -5.6749874353408813e-01</leafValues></_>
        <_>
          <internalNodes>
            0 -1 167 -2.4735596030950546e-02</internalNodes>
          <leafValues>
            3.2869687676429749e-01 -1.0976289957761765e-01</leafValues></_>
        <_>
          <internalNodes>
            0 -1 201 4.7273589298129082e-03</internalNodes>
          <leafValues>
            -1.8466199934482574e-01 1.8812182545661926e-01</leafValues></_>
        <_>
          <internalNodes>
            0 -1 84 -2.6870840787887573e-01</internalNodes>
          <leafValues>
            1.6626568138599396e-01 -2.4207004904747009e-01</leafValues></_>
        <_>
          <internalNodes>
            0 -1 236 5.6672871112823486e-02</internalNodes>
          <leafValues>
            -1.0162195563316345e-01 3.2819667458534241e-01</leafValues></_>
        <_>
          <internalNodes>
            0 -1 243 -2.7365967631340027e-02</internalNodes>
          <leafValues>
            7.5655668973922729e-01 -4.0013354271650314e-02</leafValues></_>
        <_>
          <internalNodes>
            0 -1 350 -8.2724764943122864e-03</internalNodes>
          <leafValues>
            1.7980183660984039e-01 -1.8009585142135620e-01</leafValues></_>
        <_>
          <internalNodes>
            0 -1 423 1.2462806887924671e-02</internalNodes>
          <leafValues>
            4.9023512750864029e-02 -6.3318336009979248e-01</leafValues></_>
        <_>
          <internalNodes>
            0 -1 385 -1.1716824024915695e-02</internalNodes>
          <leafValues>
            -4.6802631020545959e-01 6.4086548984050751e-02</leafValues></_>
        <_>
          <internalNodes>
            0 -1 347 3.3205670770257711e-03</internalNodes>
          <leafValues>
            6.1728276312351227e-02 -5.0729876756668091e-01</leafValues></_>
        <_>
          <internalNodes>
            0 -1 150 -1.5337910735979676e-04</internalNodes>
          <leafValues>
            1.3127218186855316e-01 -2.0888033509254456e-01</leafValues></_>
        <_>
          <internalNodes>
            0 -1 87 9.5188438892364502e-02</internalNodes>
          <leafValues>
            -4.6746682375669479e-02 6.6066974401473999e-01</leafValues></_>
        <_>
          <internalNodes>
            0 -1 18 -8.7029708083719015e-04</internalNodes>
          <leafValues>
            2.6147645711898804e-01 -1.0980546474456787e-01</leafValues></_>
        <_>
          <internalNodes>
            0 -1 188 4.8563275486230850e-02</internalNodes>
          <leafValues>
            -6.1941239982843399e-02 5.4377740621566772e-01</leafValues></_>
        <_>
          <internalNodes>
            0 -1 136 -5.0731762312352657e-03</internalNodes>
          <leafValues>
            1.7100784182548523e-01 -1.9666157662868500e-01</leafValues></_>
        <_>
          <internalNodes>
            0 -1 63 -5.4719317704439163e-03</internalNodes>
          <leafValues>
            -4.8102751374244690e-01 7.3869504034519196e-02</leafValues></_>
        <_>
          <internalNodes>
            0 -1 14 2.3013938218355179e-02</internalNodes>
          <leafValues>
            -8.2618452608585358e-02 4.2867699265480042e-01</leafValues></_>
        <_>
          <internalNodes>
            0 -1 134 1.4434251934289932e-02</internalNodes>
          <leafValues>
            4.9906235188245773e-02 -7.5055485963821411e-01</leafValues></_>
        <_>
          <internalNodes>
            0 -1 1 9.5821749418973923e-03</internalNodes>
          <leafValues>
            8.0612905323505402e-02 -3.5780259966850281e-01</leafValues></_>
        <_>
          <internalNodes>
            0 -1 273 2.8153643012046814e-02</internalNodes>
          <leafValues>
            -5.5083703994750977e-01 5.9537388384342194e-02</leafValues></_>
        <_>
          <internalNodes>
            0 -1 393 4.1808248497545719e-03</internalNodes>
          <leafValues>
            -2.0571404695510864e-01 1.6920962929725647e-01</leafValues></_>
        <_>
          <internalNodes>
            0 -1 298 7.5773082673549652e-02</internalNodes>
          <leafValues>
            -9.7460009157657623e-02 3.1816193461418152e-01</leafValues></_>
        <_>
          <internalNodes>
            0 -1 424 -5.7759853079915047e-03</internalNodes>
          <leafValues>
            3.5514318943023682e-01 -1.0384225845336914e-01</leafValues></_>
        <_>
          <internalNodes>
            0 -1 25 1.2731892056763172e-03</internalNodes>
          <leafValues>
            1.0299289971590042e-01 -3.0422943830490112e-01</leafValues></_>
        <_>
          <internalNodes>
            0 -1 232 -7.7595338225364685e-02</internalNodes>
          <leafValues>
            -4.4827333092689514e-01 6.4551942050457001e-02</leafValues></_>
        <_>
          <internalNodes>
            0 -1 261 8.3153217565268278e-04</internalNodes>
          <leafValues>
            -2.0001174509525299e-01 1.4470885694026947e-01</leafValues></_>
        <_>
          <internalNodes>
            0 -1 344 4.8570386134088039e-03</internalNodes>
          <leafValues>
            -1.1479537934064865e-01 2.8444042801856995e-01</leafValues></_>
        <_>
          <internalNodes>
            0 -1 0 -3.2355475705116987e-03</internalNodes>
          <leafValues>
            -3.3317756652832031e-01 8.9713364839553833e-02</leafValues></_>
        <_>
          <internalNodes>
            0 -1 253 4.9557249993085861e-02</internalNodes>
          <leafValues>
            3.2887570559978485e-02 -7.3071616888046265e-01</leafValues></_>
        <_>
          <internalNodes>
            0 -1 98 -5.3268484771251678e-04</internalNodes>
          <leafValues>
            2.2604200243949890e-01 -1.3111811876296997e-01</leafValues></_>
        <_>
          <internalNodes>
            0 -1 106 -4.0591894648969173e-03</internalNodes>
          <leafValues>
            -3.8408601284027100e-01 7.9058840870857239e-02</leafValues></_>
        <_>
          <internalNodes>
            0 -1 217 2.2058896720409393e-03</internalNodes>
          <leafValues>
            -1.5956205129623413e-01 2.1450431644916534e-01</leafValues></_>
        <_>
          <internalNodes>
            0 -1 13 -5.6492985459044576e-04</internalNodes>
          <leafValues>
            2.6791897416114807e-01 -1.1050295829772949e-01</leafValues></_>
        <_>
          <internalNodes>
            0 -1 97 3.3011338673532009e-03</internalNodes>
          <leafValues>
            7.9891577363014221e-02 -3.9026930928230286e-01</leafValues></_>
        <_>
          <internalNodes>
            0 -1 121 9.6675395965576172e-02</internalNodes>
          <leafValues>
            4.9564532935619354e-02 -5.9076088666915894e-01</leafValues></_>
        <_>
          <internalNodes>
            0 -1 427 5.8411777019500732e-02</internalNodes>
          <leafValues>
            -5.9585828334093094e-02 6.0844260454177856e-01</leafValues></_>
        <_>
          <internalNodes>
            0 -1 346 -2.7218977920711040e-03</internalNodes>
          <leafValues>
            2.7578660845756531e-01 -1.0931387543678284e-01</leafValues></_>
        <_>
          <internalNodes>
            0 -1 343 1.2210536748170853e-02</internalNodes>
          <leafValues>
            4.4655978679656982e-02 -7.1546852588653564e-01</leafValues></_>
        <_>
          <internalNodes>
            0 -1 368 1.2618955969810486e-01</internalNodes>
          <leafValues>
            -5.2008494734764099e-02 6.2176966667175293e-01</leafValues></_>
        <_>
          <internalNodes>
            0 -1 314 4.1133990883827209e-01</internalNodes>
          <leafValues>
            3.4955825656652451e-02 -9.0397572517395020e-01</leafValues></_>
        <_>
          <internalNodes>
            0 -1 318 1.0495170950889587e-01</internalNodes>
          <leafValues>
            -1.0571594536304474e-01 2.9686132073402405e-01</leafValues></_>
        <_>
          <internalNodes>
            0 -1 187 -2.0694671571254730e-01</internalNodes>
          <leafValues>
            7.4406766891479492e-01 -3.7266209721565247e-02</leafValues></_>
        <_>
          <internalNodes>
            0 -1 295 5.9999218210577965e-03</internalNodes>
          <leafValues>
            -1.5206521749496460e-01 1.9972312450408936e-01</leafValues></_>
        <_>
          <internalNodes>
            0 -1 281 4.0069077163934708e-02</internalNodes>
          <leafValues>
            6.8291306495666504e-02 -4.5596510171890259e-01</leafValues></_>
        <_>
          <internalNodes>
            0 -1 429 -5.6757112033665180e-03</internalNodes>
          <leafValues>
            -3.9552929997444153e-01 7.4604578316211700e-02</leafValues></_>
        <_>
          <internalNodes>
            0 -1 419 -2.4588501546531916e-03</internalNodes>
          <leafValues>
            1.2825468182563782e-01 -2.0184767246246338e-01</leafValues></_>
        <_>
          <internalNodes>
            0 -1 250 -5.0559867173433304e-02</internalNodes>
          <leafValues>
            4.5192939043045044e-01 -6.2044993042945862e-02</leafValues></_>
        <_>
          <internalNodes>
