<?xml version="1.0"?>
<opencv_storage>
<cascade>
  <stageType>BOOST</stageType>
  <featureType>HAAR</featureType>
  <height>12</height>
  <width>12</width>
  <stageParams>
    <boostType>GAB</boostType>
    <minHitRate>9.9500000476837158e-01</minHitRate>
    <maxFalseAlarm>5.0000000000000000e-01</maxFalseAlarm>
    <weightTrimRate>9.4999999999999996e-01</weightTrimRate>
    <maxDepth>1</maxDepth>
    <maxWeakCount>100</maxWeakCount></stageParams>
  <featureParams>
    <maxCatCount>0</maxCatCount>
    <featSize>1</featSize>
    <mode>ALL</mode></featureParams>
  <stageNum>20</stageNum>
  <stages>
    <!-- stage 0 -->
    <_>
      <maxWeakCount>4</maxWeakCount>
      <stageThreshold>-1.2708730697631836e+00</stageThreshold>
      <weakClassifiers>
        <_>
          <internalNodes>
            0 -1 8 6.1685420572757721e-02</internalNodes>
          <leafValues>
            -6.9818049669265747e-01 7.3600172996520996e-01</leafValues></_>
        <_>
          <internalNodes>
            0 -1 120 -1.6135686635971069e-01</internalNodes>
          <leafValues>
            5.7016581296920776e-01 -8.2156455516815186e-01</leafValues></_>
        <_>
          <internalNodes>
            0 -1 151 -7.0577397942543030e-02</internalNodes>
          <leafValues>
            5.9813362360000610e-01 -4.3697521090507507e-01</leafValues></_>
        <_>
          <internalNodes>
            0 -1 5 5.4271798580884933e-02</internalNodes>
          <leafValues>
            -7.0588308572769165e-01 3.5512283444404602e-01</leafValues></_></weakClassifiers></_>
    <!-- stage 1 -->
    <_>
      <maxWeakCount>6</maxWeakCount>
      <stageThreshold>-1.6760710477828979e+00</stageThreshold>
      <weakClassifiers>
        <_>
          <internalNodes>
            0 -1 17 -2.3558512330055237e-02</internalNodes>
          <leafValues>
            7.9794788360595703e-01 -4.1443634033203125e-01</leafValues></_>
        <_>
          <internalNodes>
            0 -1 212 2.0704686641693115e-02</internalNodes>
          <leafValues>
            -4.8237073421478271e-01 6.6393303871154785e-01</leafValues></_>
        <_>
          <internalNodes>
            0 -1 328 2.6841713115572929e-03</internalNodes>
          <leafValues>
            -4.6249610185623169e-01 6.6729313135147095e-01</leafValues></_>
        <_>
          <internalNodes>
            0 -1 34 6.0133434832096100e-02</internalNodes>
          <leafValues>
            -7.6670622825622559e-01 3.0959486961364746e-01</leafValues></_>
        <_>
          <internalNodes>
            0 -1 64 1.4308538287878036e-02</internalNodes>
          <leafValues>
            -3.9860677719116211e-01 5.3130918741226196e-01</leafValues></_>
        <_>
          <internalNodes>
            0 -1 273 -4.3315044604241848e-03</internalNodes>
          <leafValues>
            8.4854513406753540e-01 -2.3045924305915833e-01</leafValues></_></weakClassifiers></_>
    <!-- stage 2 -->
    <_>
      <maxWeakCount>9</maxWeakCount>
      <stageThreshold>-9.3488425016403198e-01</stageThreshold>
      <weakClassifiers>
        <_>
          <internalNodes>
            0 -1 9 8.9911155402660370e-02</internalNodes>
          <leafValues>
            -5.5659061670303345e-01 5.0345599651336670e-01</leafValues></_>
        <_>
          <internalNodes>
            0 -1 187 -1.9158205389976501e-01</internalNodes>
          <leafValues>
            3.0587840080261230e-01 -7.4598813056945801e-01</leafValues></_>
        <_>
          <internalNodes>
            0 -1 132 -3.8004674017429352e-02</internalNodes>
          <leafValues>
            7.9715633392333984e-01 -2.6235121488571167e-01</leafValues></_>
        <_>
          <internalNodes>
            0 -1 209 1.1211484670639038e-02</internalNodes>
          <leafValues>
            -2.6150125265121460e-01 6.8753725290298462e-01</leafValues></_>
        <_>
          <internalNodes>
            0 -1 162 -1.9528977572917938e-02</internalNodes>
          <leafValues>
            4.6852937340736389e-01 -3.2789000868797302e-01</leafValues></_>
        <_>
          <internalNodes>
            0 -1 42 1.8365863710641861e-02</internalNodes>
          <leafValues>
            -3.0775710940361023e-01 5.5468970537185669e-01</leafValues></_>
        <_>
          <internalNodes>
            0 -1 243 3.5092756152153015e-03</internalNodes>
          <leafValues>
            -5.1843959093093872e-01 3.1938877701759338e-01</leafValues></_>
        <_>
          <internalNodes>
            0 -1 270 -6.8873405456542969e-02</internalNodes>
          <leafValues>
            5.2898508310317993e-01 -3.1731736660003662e-01</leafValues></_>
        <_>
          <internalNodes>
            0 -1 254 -1.7541665583848953e-02</internalNodes>
          <leafValues>
            6.7528408765792847e-01 -2.8636264801025391e-01</leafValues></_></weakClassifiers></_>
    <!-- stage 3 -->
    <_>
      <maxWeakCount>11</maxWeakCount>
      <stageThreshold>-9.5331364870071411e-01</stageThreshold>
      <weakClassifiers>
        <_>
          <internalNodes>
            0 -1 96 -2.4121809750795364e-02</internalNodes>
          <leafValues>
            6.8332427740097046e-01 -2.6610791683197021e-01</leafValues></_>
        <_>
          <internalNodes>
            0 -1 191 -8.2538025453686714e-03</internalNodes>
          <leafValues>
            7.1620929241180420e-01 -1.7842422425746918e-01</leafValues></_>
        <_>
          <internalNodes>
            0 -1 206 1.4425762929022312e-02</internalNodes>
          <leafValues>
            -1.9333426654338837e-01 6.4847761392593384e-01</leafValues></_>
        <_>
          <internalNodes>
            0 -1 241 -1.4006787538528442e-01</internalNodes>
          <leafValues>
            2.3005326092243195e-01 -6.6190093755722046e-01</leafValues></_>
        <_>
          <internalNodes>
            0 -1 43 1.6114030033349991e-02</internalNodes>
          <leafValues>
            -3.1063497066497803e-01 5.3815221786499023e-01</leafValues></_>
        <_>
          <internalNodes>
            0 -1 421 -1.1536393314599991e-02</internalNodes>
          <leafValues>
            4.1182371973991394e-01 -3.0152559280395508e-01</leafValues></_>
        <_>
          <internalNodes>
            0 -1 250 6.0607064515352249e-03</internalNodes>
          <leafValues>
            -3.7583872675895691e-01 3.4738919138908386e-01</leafValues></_>
        <_>
          <internalNodes>
            0 -1 320 -4.1300221346318722e-03</internalNodes>
          <leafValues>
            3.5269886255264282e-01 -3.9322647452354431e-01</leafValues></_>
        <_>
          <internalNodes>
            0 -1 175 2.8370446525514126e-03</internalNodes>
          <leafValues>
            -4.1122210025787354e-01 2.9073166847229004e-01</leafValues></_>
        <_>
          <internalNodes>
            0 -1 128 7.1849394589662552e-03</internalNodes>
          <leafValues>
            -3.9258334040641785e-01 2.5822111964225769e-01</leafValues></_>
        <_>
          <internalNodes>
            0 -1 63 4.1097318753600121e-03</internalNodes>
          <leafValues>
            -3.9328843355178833e-01 2.8833970427513123e-01</leafValues></_></weakClassifiers></_>
    <!-- stage 4 -->
    <_>
      <maxWeakCount>14</maxWeakCount>
      <stageThreshold>-1.3521051406860352e+00</stageThreshold>
      <weakClassifiers>
        <_>
          <internalNodes>
            0 -1 19 5.1896139979362488e-02</internalNodes>
          <leafValues>
            -1.5939407050609589e-01 7.1660709381103516e-01</leafValues></_>
        <_>
          <internalNodes>
            0 -1 274 -2.8736472129821777e-02</internalNodes>
          <leafValues>
            4.8511603474617004e-01 -2.8668925166130066e-01</leafValues></_>
        <_>
          <internalNodes>
            0 -1 371 -6.3079580664634705e-02</internalNodes>
          <leafValues>
            4.5701095461845398e-01 -2.8122660517692566e-01</leafValues></_>
        <_>
          <internalNodes>
            0 -1 262 -6.7753523588180542e-02</internalNodes>
          <leafValues>
            7.1782791614532471e-01 -1.7802996933460236e-01</leafValues></_>
        <_>
          <internalNodes>
            0 -1 313 2.9421180486679077e-02</internalNodes>
          <leafValues>
            -1.5943884849548340e-01 7.1248894929885864e-01</leafValues></_>
        <_>
          <internalNodes>
            0 -1 429 1.0118378326296806e-02</internalNodes>
          <leafValues>
            -4.8369884490966797e-01 2.4504339694976807e-01</leafValues></_>
        <_>
          <internalNodes>
            0 -1 119 -1.2519814074039459e-02</internalNodes>
          <leafValues>
            1.7405822873115540e-01 -5.8453416824340820e-01</leafValues></_>
        <_>
          <internalNodes>
            0 -1 348 9.4424188137054443e-03</internalNodes>
          <leafValues>
            -3.4294217824935913e-01 3.0254116654396057e-01</leafValues></_>
        <_>
          <internalNodes>
            0 -1 124 7.0142060518264771e-02</internalNodes>
          <leafValues>
            -2.2880883514881134e-01 5.0647318363189697e-01</leafValues></_>
        <_>
          <internalNodes>
            0 -1 140 -2.7170777320861816e-02</internalNodes>
          <leafValues>
            6.3780927658081055e-01 -1.1190578341484070e-01</leafValues></_>
        <_>
          <internalNodes>
            0 -1 75 3.0555211007595062e-02</internalNodes>
          <leafValues>
            -1.4646334946155548e-01 5.7458937168121338e-01</leafValues></_>
        <_>
          <internalNodes>
            0 -1 53 1.1427733302116394e-01</internalNodes>
          <leafValues>
            -4.2363563179969788e-01 1.9366727769374847e-01</leafValues></_>
        <_>
          <internalNodes>
            0 -1 335 5.7250764220952988e-03</internalNodes>
          <leafValues>
            -3.3326029777526855e-01 2.3571744561195374e-01</leafValues></_>
        <_>
          <internalNodes>
            0 -1 226 -2.5469558313488960e-03</internalNodes>
          <leafValues>
            -5.5551451444625854e-01 1.3087306916713715e-01</leafValues></_></weakClassifiers></_>
    <!-- stage 5 -->
    <_>
      <maxWeakCount>13</maxWeakCount>
      <stageThreshold>-1.2654066085815430e+00</stageThreshold>
      <weakClassifiers>
        <_>
          <internalNodes>
            0 -1 391 -7.2824738919734955e-02</internalNodes>
          <leafValues>
            5.1600629091262817e-01 -2.6541379094123840e-01</leafValues></_>
        <_>
          <internalNodes>
            0 -1 165 -8.9215459302067757e-03</internalNodes>
          <leafValues>
            2.9037103056907654e-01 -4.4505339860916138e-01</leafValues></_>
        <_>
          <internalNodes>
            0 -1 243 8.3020376041531563e-03</internalNodes>
          <leafValues>
            -4.1708084940910339e-01 2.5377744436264038e-01</leafValues></_>
        <_>
          <internalNodes>
            0 -1 39 2.2683814167976379e-02</internalNodes>
          <leafValues>
            -2.3316572606563568e-01 5.0585174560546875e-01</leafValues></_>
        <_>
          <internalNodes>
            0 -1 207 -7.8475609421730042e-02</internalNodes>
          <leafValues>
            6.2237453460693359e-01 -2.1350742876529694e-01</leafValues></_>
        <_>
          <internalNodes>
            0 -1 303 1.4388654381036758e-02</internalNodes>
          <leafValues>
            -2.2943551838397980e-01 5.5434638261795044e-01</leafValues></_>
        <_>
          <internalNodes>
            0 -1 205 2.0447056740522385e-02</internalNodes>
          <leafValues>
            -2.5273352861404419e-01 5.6020802259445190e-01</leafValues></_>
        <_>
          <internalNodes>
            0 -1 400 -1.6329262405633926e-02</internalNodes>
          <leafValues>
            -7.2517770528793335e-01 1.8402184545993805e-01</leafValues></_>
        <_>
          <internalNodes>
            0 -1 380 1.1112274602055550e-02</internalNodes>
          <leafValues>
            -3.4275004267692566e-01 2.8055542707443237e-01</leafValues></_>
        <_>
          <internalNodes>
            0 -1 350 8.9368438348174095e-03</internalNodes>
          <leafValues>
            -3.3632946014404297e-01 3.1456547975540161e-01</leafValues></_>
        <_>
          <internalNodes>
            0 -1 10 7.3737740516662598e-02</internalNodes>
          <leafValues>
            2.0402944087982178e-01 -5.1295983791351318e-01</leafValues></_>
        <_>
          <internalNodes>
            0 -1 347 4.2852830141782761e-02</internalNodes>
          <leafValues>
            -2.4961958825588226e-01 4.0231895446777344e-01</leafValues></_>
        <_>
          <internalNodes>
            0 -1 86 3.4250006079673767e-02</internalNodes>
          <leafValues>
            -1.6904632747173309e-01 5.7306134700775146e-01</leafValues></_></weakClassifiers></_>
    <!-- stage 6 -->
    <_>
      <maxWeakCount>20</maxWeakCount>
      <stageThreshold>-1.0688834190368652e+00</stageThreshold>
      <weakClassifiers>
        <_>
          <internalNodes>
            0 -1 363 -3.2115057110786438e-02</internalNodes>
          <leafValues>
            5.4291570186614990e-01 -1.7208784818649292e-01</leafValues></_>
        <_>
          <internalNodes>
            0 -1 67 4.2102739214897156e-02</internalNodes>
          <leafValues>
            -1.6746774315834045e-01 6.5733557939529419e-01</leafValues></_>
        <_>
          <internalNodes>
            0 -1 243 1.7666033818386495e-04</internalNodes>
          <leafValues>
            -5.2853524684906006e-01 1.9817060232162476e-01</leafValues></_>
        <_>
          <internalNodes>
            0 -1 264 1.5650363638997078e-02</internalNodes>
          <leafValues>
            -3.3804115653038025e-01 3.2551348209381104e-01</leafValues></_>
        <_>
          <internalNodes>
            0 -1 353 2.3324478417634964e-02</internalNodes>
          <leafValues>
            -1.3004544377326965e-01 5.5318617820739746e-01</leafValues></_>
        <_>
          <internalNodes>
            0 -1 346 4.4169198721647263e-02</internalNodes>
          <leafValues>
            -2.2730508446693420e-01 4.3191683292388916e-01</leafValues></_>
        <_>
          <internalNodes>
            0 -1 226 1.8171715782955289e-04</internalNodes>
          <leafValues>
            -3.8777565956115723e-01 2.3653954267501831e-01</leafValues></_>
        <_>
          <internalNodes>
            0 -1 268 -8.5532151162624359e-02</internalNodes>
          <leafValues>
            7.4196565151214600e-01 -1.2575958669185638e-01</leafValues></_>
        <_>
          <internalNodes>
            0 -1 102 9.1276288032531738e-02</internalNodes>
          <leafValues>
            -3.5261237621307373e-01 2.5400292873382568e-01</leafValues></_>
        <_>
          <internalNodes>
            0 -1 299 5.9867855161428452e-03</internalNodes>
          <leafValues>
            -3.7031176686286926e-01 2.6486301422119141e-01</leafValues></_>
        <_>
          <internalNodes>
            0 -1 269 7.1524367667734623e-03</internalNodes>
          <leafValues>
            -2.6247480511665344e-01 3.6534494161605835e-01</leafValues></_>
        <_>
          <internalNodes>
            0 -1 140 2.8377935290336609e-02</internalNodes>
          <leafValues>
            -1.5103922784328461e-01 5.3804534673690796e-01</leafValues></_>
        <_>
          <internalNodes>
            0 -1 44 1.8854960799217224e-02</internalNodes>
          <leafValues>
            -1.8505401909351349e-01 4.0617978572845459e-01</leafValues></_>
        <_>
          <internalNodes>
            0 -1 112 -5.1495194435119629e-01</internalNodes>
          <leafValues>
            3.4652784466743469e-01 -2.0056368410587311e-01</leafValues></_>
        <_>
          <internalNodes>
            0 -1 208 1.0408839210867882e-02</internalNodes>
          <leafValues>
            -2.4779431521892548e-01 2.7900764346122742e-01</leafValues></_>
        <_>
          <internalNodes>
            0 -1 354 -5.3668126463890076e-02</internalNodes>
          <leafValues>
            7.7133339643478394e-01 -9.9367216229438782e-02</leafValues></_>
        <_>
          <internalNodes>
            0 -1 232 2.1564499475061893e-03</internalNodes>
          <leafValues>
            -3.6516630649566650e-01 2.4623911082744598e-01</leafValues></_>
        <_>
          <internalNodes>
            0 -1 364 1.3696121983230114e-02</internalNodes>
          <leafValues>
            -4.2909809947013855e-01 1.8281146883964539e-01</leafValues></_>
        <_>
          <internalNodes>
            0 -1 290 3.9609144441783428e-03</internalNodes>
          <leafValues>
            -3.1757229566574097e-01 2.1030604839324951e-01</leafValues></_>
        <_>
          <internalNodes>
            0 -1 381 2.6408875361084938e-02</internalNodes>
          <leafValues>
            -1.9898651540279388e-01 4.6167469024658203e-01</leafValues></_></weakClassifiers></_>
    <!-- stage 7 -->
    <_>
      <maxWeakCount>15</maxWeakCount>
      <stageThreshold>-9.0193068981170654e-01</stageThreshold>
      <weakClassifiers>
        <_>
          <internalNodes>
            0 -1 221 9.0196773409843445e-02</internalNodes>
          <leafValues>
            -8.3265304565429688e-02 7.3384612798690796e-01</leafValues></_>
        <_>
          <internalNodes>
            0 -1 203 -1.5913557261228561e-02</internalNodes>
          <leafValues>
            6.7905384302139282e-01 -1.7560806870460510e-01</leafValues></_>
        <_>
          <internalNodes>
            0 -1 293 -1.0519595816731453e-02</internalNodes>
          <leafValues>
            5.9166985750198364e-01 -2.4123413860797882e-01</leafValues></_>
        <_>
          <internalNodes>
            0 -1 299 1.0475395247340202e-02</internalNodes>
          <leafValues>
            -3.4045287966728210e-01 3.7485885620117188e-01</leafValues></_>
        <_>
          <internalNodes>
            0 -1 347 5.5970288813114166e-02</internalNodes>
          <leafValues>
            -2.1631489694118500e-01 5.9066414833068848e-01</leafValues></_>
        <_>
          <internalNodes>
            0 -1 374 6.0880385339260101e-02</internalNodes>
          <leafValues>
            -1.6279684007167816e-01 5.9129840135574341e-01</leafValues></_>
        <_>
          <internalNodes>
            0 -1 264 2.0659100264310837e-02</internalNodes>
          <leafValues>
            -2.3247544467449188e-01 3.9901512861251831e-01</leafValues></_>
        <_>
          <internalNodes>
            0 -1 57 1.4940303564071655e-01</internalNodes>
          <leafValues>
            -4.2213499546051025e-01 2.0120120048522949e-01</leafValues></_>
        <_>
          <internalNodes>
            0 -1 78 7.5534865260124207e-02</internalNodes>
          <leafValues>
            -1.4621031284332275e-01 5.3206390142440796e-01</leafValues></_>
        <_>
          <internalNodes>
            0 -1 376 7.3694423772394657e-03</internalNodes>
          <leafValues>
            -3.2293072342872620e-01 2.3528282344341278e-01</leafValues></_>
        <_>
          <internalNodes>
            0 -1 389 4.8335202038288116e-02</internalNodes>
          <leafValues>
            -1.3607648015022278e-01 6.1512035131454468e-01</leafValues></_>
        <_>
          <internalNodes>
            0 -1 201 1.7279535531997681e-02</internalNodes>
          <leafValues>
            -2.6064336299896240e-01 3.9945289492607117e-01</leafValues></_>
        <_>
          <internalNodes>
            0 -1 183 8.5585117340087891e-03</internalNodes>
          <leafValues>
            -2.5791662931442261e-01 3.5190200805664062e-01</leafValues></_>
        <_>
          <internalNodes>
            0 -1 250 3.3055276144295931e-03</internalNodes>
          <leafValues>
            -4.2271885275840759e-01 1.8046773970127106e-01</leafValues></_>
        <_>
          <internalNodes>
            0 -1 333 -8.8114544749259949e-02</internalNodes>
          <leafValues>
            -7.2660624980926514e-01 1.2429328262805939e-01</leafValues></_></weakClassifiers></_>
    <!-- stage 8 -->
    <_>
      <maxWeakCount>23</maxWeakCount>
      <stageThreshold>-1.2011649608612061e+00</stageThreshold>
      <weakClassifiers>
        <_>
          <internalNodes>
            0 -1 126 -3.2530099153518677e-01</internalNodes>
          <leafValues>
            4.2344674468040466e-01 -3.7762907147407532e-01</leafValues></_>
        <_>
          <internalNodes>
            0 -1 275 -6.9614022970199585e-02</internalNodes>
          <leafValues>
            4.5653831958770752e-01 -2.4350172281265259e-01</leafValues></_>
        <_>
          <internalNodes>
            0 -1 405 4.0828593075275421e-02</internalNodes>
          <leafValues>
            -2.1159161627292633e-01 4.5560491085052490e-01</leafValues></_>
        <_>
          <internalNodes>
            0 -1 111 8.6085006594657898e-02</internalNodes>
          <leafValues>
            9.8066829144954681e-02 -7.2149437665939331e-01</leafValues></_>
        <_>
          <internalNodes>
            0 -1 344 -4.3049115687608719e-02</internalNodes>
          <leafValues>
            6.2415212392807007e-01 -1.6190382838249207e-01</leafValues></_>
        <_>
          <internalNodes>
            0 -1 292 5.0594262778759003e-02</internalNodes>
          <leafValues>
            -1.9231443107128143e-01 4.8048359155654907e-01</leafValues></_>
        <_>
          <internalNodes>
            0 -1 259 1.7443478107452393e-02</internalNodes>
          <leafValues>
            -1.9434635341167450e-01 4.8047903180122375e-01</leafValues></_>
        <_>
          <internalNodes>
            0 -1 384 1.7609795555472374e-02</internalNodes>
          <leafValues>
            -2.0637188851833344e-01 3.8688057661056519e-01</leafValues></_>
        <_>
          <internalNodes>
            0 -1 162 -8.2059362903237343e-03</internalNodes>
          <leafValues>
            2.3252110183238983e-01 -3.4938606619834900e-01</leafValues></_>
        <_>
          <internalNodes>
            0 -1 302 3.9845265448093414e-02</internalNodes>
          <leafValues>
            -1.6544139385223389e-01 6.0512524843215942e-01</leafValues></_>
        <_>
          <internalNodes>
            0 -1 271 -3.4876877907663584e-03</internalNodes>
          <leafValues>
            2.7201437950134277e-01 -2.5931668281555176e-01</leafValues></_>
        <_>
          <internalNodes>
            0 -1 198 -2.2673127055168152e-01</internalNodes>
          <leafValues>
            -6.8827968835830688e-01 1.0320717096328735e-01</leafValues></_>
        <_>
          <internalNodes>
            0 -1 258 1.3527777045965195e-02</internalNodes>
          <leafValues>
            -2.4890229105949402e-01 2.4807684123516083e-01</leafValues></_>
        <_>
          <internalNodes>
            0 -1 246 -3.3964738249778748e-02</internalNodes>
          <leafValues>
            5.1828575134277344e-01 -1.2442908436059952e-01</leafValues></_>
        <_>
          <internalNodes>
            0 -1 332 -2.4645525962114334e-02</internalNodes>
          <leafValues>
            -7.7124273777008057e-01 1.0093396902084351e-01</leafValues></_>
        <_>
          <internalNodes>
            0 -1 392 9.1069785412400961e-04</internalNodes>
          <leafValues>
            -2.1931438148021698e-01 2.6816618442535400e-01</leafValues></_>
        <_>
          <internalNodes>
            0 -1 414 5.6476201862096786e-03</internalNodes>
          <leafValues>
            1.0594670474529266e-01 -5.5087482929229736e-01</leafValues></_>
        <_>
          <internalNodes>
            0 -1 395 7.2964122518897057e-03</internalNodes>
          <leafValues>
            1.1416064202785492e-01 -4.6869623661041260e-01</leafValues></_>
        <_>
          <internalNodes>
            0 -1 329 4.7059087082743645e-03</internalNodes>
          <leafValues>
            1.0341538488864899e-01 -4.9444770812988281e-01</leafValues></_>
        <_>
          <internalNodes>
            0 -1 243 4.2005434632301331e-02</internalNodes>
          <leafValues>
            6.5801374614238739e-02 -7.2131216526031494e-01</leafValues></_>
        <_>
          <internalNodes>
            0 -1 202 -1.1261714622378349e-02</internalNodes>
          <leafValues>
            3.9693930745124817e-01 -1.3897569477558136e-01</leafValues></_>
        <_>
          <internalNodes>
            0 -1 205 3.2931298017501831e-02</internalNodes>
          <leafValues>
            -1.2816126644611359e-01 4.5715790987014771e-01</leafValues></_>
        <_>
          <internalNodes>
            0 -1 12 -2.0178308477625251e-04</internalNodes>
          <leafValues>
            1.9721172749996185e-01 -2.6329097151756287e-01</leafValues></_></weakClassifiers></_>
    <!-- stage 9 -->
    <_>
      <maxWeakCount>27</maxWeakCount>
      <stageThreshold>-1.1231085062026978e+00</stageThreshold>
      <weakClassifiers>
        <_>
          <internalNodes>
            0 -1 331 -5.0563514232635498e-03</internalNodes>
          <leafValues>
            4.5986825227737427e-01 -1.1320199817419052e-01</leafValues></_>
        <_>
          <internalNodes>
            0 -1 230 -2.1893793344497681e-01</internalNodes>
          <leafValues>
            1.6685087978839874e-01 -5.3130358457565308e-01</leafValues></_>
        <_>
          <internalNodes>
            0 -1 178 5.9957019984722137e-03</internalNodes>
          <leafValues>
            -3.3435589075088501e-01 2.5880256295204163e-01</leafValues></_>
        <_>
          <internalNodes>
            0 -1 257 7.0452362298965454e-02</internalNodes>
          <leafValues>
            -1.4916062355041504e-01 6.2025010585784912e-01</leafValues></_>
        <_>
          <internalNodes>
            0 -1 262 8.0794870853424072e-02</internalNodes>
          <leafValues>
            -1.7193834483623505e-01 5.3780323266983032e-01</leafValues></_>
        <_>
          <internalNodes>
            0 -1 98 5.7423305511474609e-01</internalNodes>
          <leafValues>
            -1.9670066237449646e-01 3.5049080848693848e-01</leafValues></_>
        <_>
          <internalNodes>
            0 -1 222 3.3359136432409286e-04</internalNodes>
          <leafValues>
            -2.6637232303619385e-01 2.1885038912296295e-01</leafValues></_>
        <_>
          <internalNodes>
            0 -1 390 1.8205814063549042e-02</internalNodes>
          <leafValues>
            -1.4918000996112823e-01 3.9260894060134888e-01</leafValues></_>
        <_>
          <internalNodes>
            0 -1 76 1.3622520864009857e-01</internalNodes>
          <leafValues>
            9.2897191643714905e-02 -7.7456700801849365e-01</leafValues></_>
        <_>
          <internalNodes>
            0 -1 259 1.4410665258765221e-02</internalNodes>
          <leafValues>
            -2.0995424687862396e-01 3.1568181514739990e-01</leafValues></_>
        <_>
          <internalNodes>
            0 -1 429 1.4625362120568752e-02</internalNodes>
          <leafValues>
            -3.0041608214378357e-01 1.9392037391662598e-01</leafValues></_>
        <_>
          <internalNodes>
            0 -1 342 9.0326899662613869e-03</internalNodes>
          <leafValues>
            -2.5590950250625610e-01 2.0233659446239471e-01</leafValues></_>
        <_>
          <internalNodes>
            0 -1 294 5.0303921103477478e-02</internalNodes>
          <leafValues>
            -1.1476382613182068e-01 5.1357364654541016e-01</leafValues></_>
        <_>
          <internalNodes>
            0 -1 105 3.2731719315052032e-02</internalNodes>
          <leafValues>
            -2.3790572583675385e-01 2.7190423011779785e-01</leafValues></_>
        <_>
          <internalNodes>
            0 -1 283 5.9133721515536308e-03</internalNodes>
          <leafValues>
            -2.7662503719329834e-01 1.8576289713382721e-01</leafValues></_>
        <_>
          <internalNodes>
            0 -1 420 -7.6957056298851967e-03</internalNodes>
          <leafValues>
            2.5182968378067017e-01 -2.1457587182521820e-01</leafValues></_>
        <_>
          <internalNodes>
            0 -1 325 -1.2318696826696396e-02</internalNodes>
          <leafValues>
            -6.1184793710708618e-01 8.4898054599761963e-02</leafValues></_>
        <_>
          <internalNodes>
            0 -1 175 4.0630668401718140e-02</internalNodes>
          <leafValues>
            5.0309173762798309e-02 -7.2478264570236206e-01</leafValues></_>
        <_>
          <internalNodes>
            0 -1 155 -1.6744786989875138e-04</internalNodes>
          <leafValues>
            2.3539000749588013e-01 -1.9791850447654724e-01</leafValues></_>
        <_>
          <internalNodes>
            0 -1 107 -3.6954529583454132e-02</internalNodes>
          <leafValues>
            3.2331624627113342e-01 -1.4128546416759491e-01</leafValues></_>
        <_>
          <internalNodes>
            0 -1 366 -5.1554687321186066e-02</internalNodes>
          <leafValues>
            -7.4006229639053345e-01 6.7984677851200104e-02</leafValues></_>
        <_>
          <internalNodes>
            0 -1 352 2.0187344402074814e-02</internalNodes>
          <leafValues>
            -1.4065298438072205e-01 3.9361935853958130e-01</leafValues></_>
        <_>
          <internalNodes>
            0 -1 203 2.5347555056214333e-02</internalNodes>
          <leafValues>
            -1.2237618863582611e-01 4.4485765695571899e-01</leafValues></_>
        <_>
          <internalNodes>
            0 -1 137 1.0058170184493065e-02</internalNodes>
          <leafValues>
            -2.3624081909656525e-01 2.2954601049423218e-01</leafValues></_>
        <_>
          <internalNodes>
            0 -1 292 -3.7329692393541336e-02</internalNodes>
          <leafValues>
            4.7638657689094543e-01 -1.1882167309522629e-01</leafValues></_>
        <_>
          <internalNodes>
            0 -1 250 8.5329832509160042e-03</internalNodes>
          <leafValues>
            -2.8187337517738342e-01 1.9066666066646576e-01</leafValues></_>
        <_>
          <internalNodes>
            0 -1 250 4.5579239726066589e-02</internalNodes>
          <leafValues>
            6.7275576293468475e-02 -8.1743955612182617e-01</leafValues></_></weakClassifiers></_>
    <!-- stage 10 -->
    <_>
      <maxWeakCount>27</maxWeakCount>
      <stageThreshold>-1.1182308197021484e+00</stageThreshold>
      <weakClassifiers>
        <_>
          <internalNodes>
            0 -1 398 2.4053642991930246e-03</internalNodes>
          <leafValues>
            -1.6086235642433167e-01 4.4258639216423035e-01</leafValues></_>
        <_>
          <internalNodes>
            0 -1 263 2.5538116693496704e-02</internalNodes>
          <leafValues>
            -1.8622480332851410e-01 4.6740368008613586e-01</leafValues></_>
        <_>
          <internalNodes>
            0 -1 403 5.0905540585517883e-02</internalNodes>
          <leafValues>
            -1.4514397084712982e-01 4.7277110815048218e-01</leafValues></_>
        <_>
          <internalNodes>
            0 -1 347 5.0496645271778107e-02</internalNodes>
          <leafValues>
            -2.7156266570091248e-01 4.7803720831871033e-01</leafValues></_>
        <_>
          <internalNodes>
            0 -1 307 3.9430979639291763e-02</internalNodes>
          <leafValues>
            -1.3121761381626129e-01 4.8973515629768372e-01</leafValues></_>
        <_>
          <internalNodes>
            0 -1 274 -4.7852173447608948e-02</internalNodes>
          <leafValues>
            4.0166181325912476e-01 -1.7398498952388763e-01</leafValues></_>
        <_>
          <internalNodes>
            0 -1 350 1.5478808432817459e-02</internalNodes>
          <leafValues>
            -2.5945302844047546e-01 2.8312382102012634e-01</leafValues></_>
        <_>
          <internalNodes>
            0 -1 243 5.2837883122265339e-03</internalNodes>
          <leafValues>
            -4.4234329462051392e-01 2.0184108614921570e-01</leafValues></_>
        <_>
          <internalNodes>
            0 -1 323 4.5727328397333622e-03</internalNodes>
          <leafValues>
            -3.2667997479438782e-01 1.7324922978878021e-01</leafValues></_>
        <_>
          <internalNodes>
            0 -1 79 3.2525591552257538e-02</internalNodes>
          <leafValues>
            -1.6378149390220642e-01 3.8427394628524780e-01</leafValues></_>
        <_>
          <internalNodes>
            0 -1 239 -1.4800092205405235e-02</internalNodes>
          <leafValues>
            -5.1843726634979248e-01 1.1259151250123978e-01</leafValues></_>
        <_>
          <internalNodes>
            0 -1 303 1.7846480011940002e-02</internalNodes>
          <leafValues>
            -1.5284927189350128e-01 3.7215471267700195e-01</leafValues></_>
        <_>
          <internalNodes>
            0 -1 82 9.8422534763813019e-02</internalNodes>
          <leafValues>
            -1.0728555172681808e-01 6.7070508003234863e-01</leafValues></_>
        <_>
          <internalNodes>
            0 -1 214 5.7087060064077377e-02</internalNodes>
          <leafValues>
            7.8457295894622803e-02 -7.7010238170623779e-01</leafValues></_>
        <_>
          <internalNodes>
            0 -1 91 -6.0375072062015533e-03</internalNodes>
          <leafValues>
            -5.4839885234832764e-01 7.8979723155498505e-02</leafValues></_>
        <_>
          <internalNodes>
            0 -1 66 2.1973498165607452e-02</internalNodes>
          <leafValues>
            -1.5725122392177582e-01 3.5083633661270142e-01</leafValues></_>
        <_>
          <internalNodes>
            0 -1 205 2.3870628327131271e-02</internalNodes>
          <leafValues>
            -1.9892624020576477e-01 3.4546160697937012e-01</leafValues></_>
        <_>
          <internalNodes>
            0 -1 56 9.0015470981597900e-02</internalNodes>
          <leafValues>
            -3.9686009287834167e-01 1.3640704751014709e-01</leafValues></_>
        <_>
          <internalNodes>
            0 -1 133 -6.0437306761741638e-02</internalNodes>
          <leafValues>
            4.0100353956222534e-01 -1.2461636960506439e-01</leafValues></_>
        <_>
          <internalNodes>
            0 -1 251 1.5867698937654495e-02</internalNodes>
          <leafValues>
            -2.6857593655586243e-01 2.1123085916042328e-01</leafValues></_>
        <_>
          <internalNodes>
            0 -1 175 1.1670753592625260e-03</internalNodes>
          <leafValues>
            -3.2390272617340088e-01 1.4594018459320068e-01</leafValues></_>
        <_>
          <internalNodes>
            0 -1 291 4.8716872930526733e-02</internalNodes>
          <leafValues>
            -1.3925667107105255e-01 3.6408105492591858e-01</leafValues></_>
        <_>
          <internalNodes>
            0 -1 348 1.2772856280207634e-02</internalNodes>
          <leafValues>
            -2.2993522882461548e-01 2.0184688270092010e-01</leafValues></_>
        <_>
          <internalNodes>
            0 -1 279 7.9061374068260193e-02</internalNodes>
          <leafValues>
            -1.6363668441772461e-01 2.9665997624397278e-01</leafValues></_>
        <_>
          <internalNodes>
            0 -1 367 -7.7056121081113815e-03</internalNodes>
          <leafValues>
            -7.1356564760208130e-01 6.5632611513137817e-02</leafValues></_>
        <_>
          <internalNodes>
            0 -1 408 8.8465344160795212e-03</internalNodes>
          <leafValues>
            -1.5720678865909576e-01 2.8550323843955994e-01</leafValues></_>
        <_>
          <internalNodes>
            0 -1 161 2.5912320613861084e-01</internalNodes>
          <leafValues>
            -1.0934496670961380e-01 3.7558582425117493e-01</leafValues></_></weakClassifiers></_>
    <!-- stage 11 -->
    <_>
      <maxWeakCount>32</maxWeakCount>
      <stageThreshold>-1.0997751951217651e+00</stageThreshold>
      <weakClassifiers>
        <_>
          <internalNodes>
            0 -1 59 1.1009569279849529e-02</internalNodes>
          <leafValues>
            -1.6111446917057037e-01 4.8404002189636230e-01</leafValues></_>
        <_>
          <internalNodes>
            0 -1 383 1.5473082661628723e-02</internalNodes>
          <leafValues>
            -2.4834536015987396e-01 2.8056019544601440e-01</leafValues></_>
        <_>
          <internalNodes>
            0 -1 83 -3.0927646160125732e-01</internalNodes>
          <leafValues>
            2.5469216704368591e-01 -2.4398678541183472e-01</leafValues></_>
        <_>
          <internalNodes>
            0 -1 312 2.7316879481077194e-02</internalNodes>
          <leafValues>
            -1.5678189694881439e-01 4.7188493609428406e-01</leafValues></_>
        <_>
          <internalNodes>
            0 -1 291 4.1837535798549652e-02</internalNodes>
          <leafValues>
            -2.2460557520389557e-01 3.6038276553153992e-01</leafValues></_>
        <_>
          <internalNodes>
            0 -1 374 -3.1542539596557617e-02</internalNodes>
          <leafValues>
            5.4247832298278809e-01 -1.0868241637945175e-01</leafValues></_>
        <_>
          <internalNodes>
            0 -1 197 -3.1563140451908112e-02</internalNodes>
          <leafValues>
            5.3787010908126831e-01 -9.7407728433609009e-02</leafValues></_>
        <_>
          <internalNodes>
            0 -1 35 2.0750451087951660e-01</internalNodes>
          <leafValues>
            -4.6007430553436279e-01 1.7450167238712311e-01</leafValues></_>
        <_>
          <internalNodes>
            0 -1 20 -1.9618053920567036e-03</internalNodes>
          <leafValues>
            2.1334442496299744e-01 -2.5323310494422913e-01</leafValues></_>
        <_>
          <internalNodes>
            0 -1 219 -6.0400320217013359e-03</internalNodes>
          <leafValues>
            -5.6377273797988892e-01 1.0533913969993591e-01</leafValues></_>
        <_>
          <internalNodes>
            0 -1 41 1.3796666637063026e-02</internalNodes>
          <leafValues>
            -1.5434660017490387e-01 3.3015078306198120e-01</leafValues></_>
        <_>
          <internalNodes>
            0 -1 220 -1.7775215208530426e-02</internalNodes>
          <leafValues>
            2.3122172057628632e-01 -2.2758887708187103e-01</leafValues></_>
        <_>
          <internalNodes>
            0 -1 27 3.0970475636422634e-03</internalNodes>
          <leafValues>
            8.2103118300437927e-02 -5.2249956130981445e-01</leafValues></_>
        <_>
          <internalNodes>
            0 -1 405 5.1385365426540375e-02</internalNodes>
          <leafValues>
            -1.3285137712955475e-01 3.6722481250762939e-01</leafValues></_>
        <_>
          <internalNodes>
            0 -1 349 -1.6566090285778046e-02</internalNodes>
          <leafValues>
            5.0815171003341675e-01 -1.0549233108758926e-01</leafValues></_>
        <_>
          <internalNodes>
            0 -1 334 4.4827878475189209e-02</internalNodes>
          <leafValues>
            -5.5191278457641602e-01 8.9392855763435364e-02</leafValues></_>
        <_>
          <internalNodes>
            0 -1 61 1.5100920200347900e-01</internalNodes>
          <leafValues>
            5.4386720061302185e-02 -7.2828680276870728e-01</leafValues></_>
        <_>
          <internalNodes>
            0 -1 340 4.7080174088478088e-02</internalNodes>
          <leafValues>
            -1.6660782694816589e-01 2.9673254489898682e-01</leafValues></_>
        <_>
          <internalNodes>
            0 -1 144 2.2475704550743103e-02</internalNodes>
          <leafValues>
            -2.4182321131229401e-01 2.2279296815395355e-01</leafValues></_>
        <_>
          <internalNodes>
            0 -1 128 1.1145301163196564e-02</internalNodes>
          <leafValues>
            -2.3674947023391724e-01 2.0685303211212158e-01</leafValues></_>
        <_>
          <internalNodes>
            0 -1 261 2.6627140119671822e-02</internalNodes>
          <leafValues>
            -1.3419173657894135e-01 4.0224856138229370e-01</leafValues></_>
        <_>
          <internalNodes>
            0 -1 418 -4.3497810838744044e-04</internalNodes>
          <leafValues>
            1.9098134338855743e-01 -2.6054769754409790e-01</leafValues></_>
        <_>
          <internalNodes>
            0 -1 156 4.5734476298093796e-03</internalNodes>
          <leafValues>
            1.1793502420186996e-01 -3.4384477138519287e-01</leafValues></_>
        <_>
          <internalNodes>
            0 -1 347 -3.7883959710597992e-02</internalNodes>
          <leafValues>
            3.4730216860771179e-01 -1.1653622239828110e-01</leafValues></_>
        <_>
          <internalNodes>
            0 -1 346 3.7311077117919922e-02</internalNodes>
          <leafValues>
            -1.7819765210151672e-01 3.2810917496681213e-01</leafValues></_>
        <_>
          <internalNodes>
            0 -1 118 4.7095444053411484e-02</internalNodes>
          <leafValues>
            9.1086298227310181e-02 -5.8336710929870605e-01</leafValues></_>
        <_>
          <internalNodes>
            0 -1 365 3.1342992186546326e-01</internalNodes>
          <leafValues>
            6.5550267696380615e-02 -6.5272027254104614e-01</leafValues></_>
        <_>
          <internalNodes>
            0 -1 290 6.1571015976369381e-03</internalNodes>
          <leafValues>
            -3.2314866781234741e-01 1.5926156938076019e-01</leafValues></_>
        <_>
          <internalNodes>
            0 -1 428 -1.1423842981457710e-02</internalNodes>
          <leafValues>
            -4.8837491869926453e-01 8.4346197545528412e-02</leafValues></_>
        <_>
          <internalNodes>
            0 -1 85 -1.5721514821052551e-01</internalNodes>
          <leafValues>
            6.5723621845245361e-01 -7.4098654091358185e-02</leafValues></_>
        <_>
          <internalNodes>
            0 -1 171 3.5830570850521326e-03</internalNodes>
          <leafValues>
            -3.1761983036994934e-01 1.3980594277381897e-01</leafValues></_>
        <_>
          <internalNodes>
            0 -1 171 6.1310105025768280e-02</internalNodes>
          <leafValues>
            3.7861779332160950e-02 -8.7979239225387573e-01</leafValues></_></weakClassifiers></_>
    <!-- stage 12 -->
    <_>
      <maxWeakCount>32</maxWeakCount>
      <stageThreshold>-1.1161118745803833e+00</stageThreshold>
      <weakClassifiers>
        <_>
          <internalNodes>
            0 -1 152 -2.1729171276092529e-02</internalNodes>
          <leafValues>
            4.8162290453910828e-01 -1.5649546682834625e-01</leafValues></_>
        <_>
          <internalNodes>
            0 -1 74 1.2676520273089409e-02</internalNodes>
          <leafValues>
            -2.0078253746032715e-01 3.6498737335205078e-01</leafValues></_>
        <_>
          <internalNodes>
            0 -1 6 2.3231148719787598e-02</internalNodes>
          <leafValues>
            -1.9855901598930359e-01 2.9918578267097473e-01</leafValues></_>
        <_>
          <internalNodes>
            0 -1 139 3.3220615237951279e-02</internalNodes>
          <leafValues>
            -1.7145244777202606e-01 5.2364337444305420e-01</leafValues></_>
        <_>
          <internalNodes>
            0 -1 340 4.9656555056571960e-02</internalNodes>
          <leafValues>
            -1.5892234444618225e-01 3.7018811702728271e-01</leafValues></_>
        <_>
          <internalNodes>
            0 -1 45 3.2620150595903397e-03</internalNodes>
          <leafValues>
            -2.2255642712116241e-01 2.3338042199611664e-01</leafValues></_>
        <_>
          <internalNodes>
            0 -1 341 1.8516452983021736e-02</internalNodes>
          <leafValues>
            1.1127150803804398e-01 -5.4343879222869873e-01</leafValues></_>
        <_>
          <internalNodes>
            0 -1 205 3.8962099701166153e-02</internalNodes>
          <leafValues>
            -1.2058489769697189e-01 4.1764104366302490e-01</leafValues></_>
        <_>
          <internalNodes>
            0 -1 316 1.1005974374711514e-02</internalNodes>
          <leafValues>
            -2.0395061373710632e-01 2.8833979368209839e-01</leafValues></_>
        <_>
          <internalNodes>
            0 -1 211 -1.6013792157173157e-01</internalNodes>
          <leafValues>
            6.3221335411071777e-01 -1.0014078766107559e-01</leafValues></_>
        <_>
          <internalNodes>
            0 -1 178 4.8445407301187515e-02</internalNodes>
          <leafValues>
            1.0371776670217514e-01 -7.2381621599197388e-01</leafValues></_>
        <_>
          <internalNodes>
            0 -1 393 5.3410031832754612e-03</internalNodes>
          <leafValues>
            3.9449464529752731e-02 -6.1575317382812500e-01</leafValues></_>
        <_>
          <internalNodes>
            0 -1 370 -3.5529647022485733e-02</internalNodes>
          <leafValues>
            4.4650030136108398e-01 -9.6927240490913391e-02</leafValues></_>
        <_>
          <internalNodes>
            0 -1 337 1.9038323080167174e-04</internalNodes>
          <leafValues>
            -2.7380922436714172e-01 1.7812266945838928e-01</leafValues></_>
        <_>
          <internalNodes>
            0 -1 399 -1.0246163234114647e-02</internalNodes>
          <leafValues>
            -6.4556437730789185e-01 6.9822251796722412e-02</leafValues></_>
        <_>
          <internalNodes>
            0 -1 227 1.8453423399478197e-03</internalNodes>
          <leafValues>
            -2.4993757903575897e-01 1.7353865504264832e-01</leafValues></_>
        <_>
          <internalNodes>
            0 -1 243 6.9447606801986694e-03</internalNodes>
          <leafValues>
            -3.2655242085456848e-01 1.3773337006568909e-01</leafValues></_>
        <_>
          <internalNodes>
            0 -1 227 1.4367557130753994e-02</internalNodes>
          <leafValues>
            5.7424034923315048e-02 -7.2206032276153564e-01</leafValues></_>
        <_>
          <internalNodes>
            0 -1 255 -5.7686951011419296e-02</internalNodes>
          <leafValues>
            6.1995416879653931e-01 -6.8215109407901764e-02</leafValues></_>
        <_>
          <internalNodes>
            0 -1 409 -2.5243256241083145e-03</internalNodes>
          <leafValues>
            2.6541030406951904e-01 -1.7545402050018311e-01</leafValues></_>
        <_>
          <internalNodes>
            0 -1 356 5.9525094926357269e-02</internalNodes>
          <leafValues>
            4.8340003937482834e-02 -8.2585173845291138e-01</leafValues></_>
        <_>
          <internalNodes>
            0 -1 288 5.1992889493703842e-02</internalNodes>
          <leafValues>
            -1.3254342973232269e-01 3.1744810938835144e-01</leafValues></_>
        <_>
          <internalNodes>
            0 -1 7 -2.0849488675594330e-02</internalNodes>
          <leafValues>
            1.5477910637855530e-01 -3.0214661359786987e-01</leafValues></_>
        <_>
          <internalNodes>
            0 -1 258 5.0400912761688232e-02</internalNodes>
          <leafValues>
            5.4723147302865982e-02 -7.7365601062774658e-01</leafValues></_>
        <_>
          <internalNodes>
            0 -1 149 1.9834894686937332e-02</internalNodes>
          <leafValues>
            -1.8744188547134399e-01 2.0614820718765259e-01</leafValues></_>
        <_>
          <internalNodes>
            0 -1 402 -5.7278135791420937e-03</internalNodes>
          <leafValues>
            -5.9102118015289307e-01 7.0580519735813141e-02</leafValues></_>
        <_>
          <internalNodes>
            0 -1 197 3.2963089644908905e-02</internalNodes>
          <leafValues>
            -1.3096627593040466e-01 3.1211400032043457e-01</leafValues></_>
        <_>
          <internalNodes>
            0 -1 283 7.8391721472144127e-03</internalNodes>
          <leafValues>
            -2.5028502941131592e-01 1.8318176269531250e-01</leafValues></_>
        <_>
          <internalNodes>
            0 -1 186 -1.7253603041172028e-01</internalNodes>
          <leafValues>
            -4.7846379876136780e-01 8.4346957504749298e-02</leafValues></_>
        <_>
          <internalNodes>
            0 -1 117 2.9798239469528198e-02</internalNodes>
          <leafValues>
            8.3995036780834198e-02 -5.6413948535919189e-01</leafValues></_>
        <_>
          <internalNodes>
            0 -1 84 -2.8408145532011986e-02</internalNodes>
          <leafValues>
            -8.4134554862976074e-01 3.4611091017723083e-02</leafValues></_>
        <_>
          <internalNodes>
            0 -1 63 4.7091327607631683e-02</internalNodes>
          <leafValues>
            5.0879511982202530e-02 -5.9945076704025269e-01</leafValues></_></weakClassifiers></_>
    <!-- stage 13 -->
    <_>
      <maxWeakCount>38</maxWeakCount>
      <stageThreshold>-1.0122605562210083e+00</stageThreshold>
      <weakClassifiers>
        <_>
          <internalNodes>
            0 -1 324 7.0222709327936172e-03</internalNodes>
          <leafValues>
            -1.6430852934718132e-02 5.0416934490203857e-01</leafValues></_>
        <_>
          <internalNodes>
            0 -1 54 -3.1760029494762421e-02</internalNodes>
          <leafValues>
            2.7297303080558777e-01 -2.4569046497344971e-01</leafValues></_>
        <_>
          <internalNodes>
            0 -1 67 4.4184640049934387e-02</internalNodes>
          <leafValues>
            -1.4614149928092957e-01 4.0589177608489990e-01</leafValues></_>
        <_>
          <internalNodes>
            0 -1 416 -2.0512258925009519e-04</internalNodes>
          <leafValues>
            1.7734110355377197e-01 -2.9790651798248291e-01</leafValues></_>
        <_>
          <internalNodes>
            0 -1 385 6.1030611395835876e-02</internalNodes>
          <leafValues>
            -1.1545027047395706e-01 5.0356656312942505e-01</leafValues></_>
        <_>
          <internalNodes>
            0 -1 204 1.6107391566038132e-02</internalNodes>
          <leafValues>
            -1.8444481492042542e-01 3.5379746556282043e-01</leafValues></_>
        <_>
          <internalNodes>
            0 -1 148 -2.3907255381345749e-03</internalNodes>
          <leafValues>
            1.8612839281558990e-01 -2.4921180307865143e-01</leafValues></_>
        <_>
          <internalNodes>
            0 -1 387 5.0605043768882751e-02</internalNodes>
          <leafValues>
            -9.9483467638492584e-02 4.2171004414558411e-01</leafValues></_>
        <_>
          <internalNodes>
            0 -1 424 2.9781036078929901e-02</internalNodes>
          <leafValues>
            -1.7063951492309570e-01 3.1292137503623962e-01</leafValues></_>
        <_>
          <internalNodes>
            0 -1 343 -1.3530569151043892e-02</internalNodes>
          <leafValues>
            -7.3795986175537109e-01 7.1111634373664856e-02</leafValues></_>
        <_>
          <internalNodes>
            0 -1 243 4.3014161288738251e-02</internalNodes>
          <leafValues>
            4.3754301965236664e-02 -6.7913955450057983e-01</leafValues></_>
        <_>
          <internalNodes>
            0 -1 131 -1.4984894543886185e-02</internalNodes>
          <leafValues>
            2.9591637849807739e-01 -1.3488514721393585e-01</leafValues></_>
        <_>
          <internalNodes>
            0 -1 404 -6.0004837810993195e-02</internalNodes>
          <leafValues>
            7.6280760765075684e-01 -5.9229917824268341e-02</leafValues></_>
        <_>
          <internalNodes>
            0 -1 238 -2.3784477263689041e-02</internalNodes>
          <leafValues>
            4.2783585190773010e-01 -8.7938733398914337e-02</leafValues></_>
        <_>
          <internalNodes>
            0 -1 50 9.5273479819297791e-03</internalNodes>
          <leafValues>
            -2.0500193536281586e-01 2.0687919855117798e-01</leafValues></_>
        <_>
          <internalNodes>
            0 -1 298 -2.2799527645111084e-01</internalNodes>
          <leafValues>
            1.4752224087715149e-01 -3.0285486578941345e-01</leafValues></_>
        <_>
          <internalNodes>
            0 -1 425 1.3261112384498119e-02</internalNodes>
          <leafValues>
            5.1100354641675949e-02 -7.3486351966857910e-01</leafValues></_>
        <_>
          <internalNodes>
            0 -1 361 -1.7405746504664421e-02</internalNodes>
          <leafValues>
            -5.9799158573150635e-01 6.2980510294437408e-02</leafValues></_>
        <_>
          <internalNodes>
            0 -1 23 -1.3070204854011536e-01</internalNodes>
          <leafValues>
            4.8086658120155334e-01 -7.6691232621669769e-02</leafValues></_>
        <_>
          <internalNodes>
            0 -1 250 4.8462040722370148e-02</internalNodes>
          <leafValues>
            4.5101039111614227e-02 -8.1433784961700439e-01</leafValues></_>
        <_>
          <internalNodes>
            0 -1 235 2.3160761222243309e-02</internalNodes>
          <leafValues>
            -1.3344703614711761e-01 2.6317843794822693e-01</leafValues></_>
        <_>
          <internalNodes>
            0 -1 284 -1.9250368699431419e-02</internalNodes>
          <leafValues>
            4.3239825963973999e-01 -1.3554872572422028e-01</leafValues></_>
        <_>
          <internalNodes>
            0 -1 312 2.1922372281551361e-02</internalNodes>
          <leafValues>
            -1.3090449571609497e-01 3.3672830462455750e-01</leafValues></_>
        <_>
          <internalNodes>
            0 -1 13 1.0535614192485809e-01</internalNodes>
          <leafValues>
            -1.1638353019952774e-01 2.9509988427162170e-01</leafValues></_>
        <_>
          <internalNodes>
            0 -1 51 3.2712370157241821e-03</internalNodes>
          <leafValues>
            1.4543133974075317e-01 -2.6085099577903748e-01</leafValues></_>
        <_>
          <internalNodes>
            0 -1 378 6.0877576470375061e-02</internalNodes>
          <leafValues>
            -1.1590446531772614e-01 3.0679041147232056e-01</leafValues></_>
        <_>
          <internalNodes>
            0 -1 269 1.8928896170109510e-03</internalNodes>
          <leafValues>
            -2.0466026663780212e-01 1.9753883779048920e-01</leafValues></_>
        <_>
          <internalNodes>
            0 -1 1 -1.2959143146872520e-02</internalNodes>
          <leafValues>
            -4.1638734936714172e-01 9.3521773815155029e-02</leafValues></_>
        <_>
          <internalNodes>
            0 -1 116 9.8843073844909668e-01</internalNodes>
          <leafValues>
            2.8753167018294334e-02 -9.5442980527877808e-01</leafValues></_>
        <_>
          <internalNodes>
            0 -1 350 6.6800639033317566e-03</internalNodes>
          <leafValues>
            -2.2502571344375610e-01 1.4900852739810944e-01</leafValues></_>
        <_>
          <internalNodes>
            0 -1 384 3.2599858939647675e-02</internalNodes>
          <leafValues>
            -9.5316641032695770e-02 3.8558802008628845e-01</leafValues></_>
        <_>
          <internalNodes>
            0 -1 286 -4.6658953651785851e-03</internalNodes>
          <leafValues>
            -7.4262815713882446e-01 4.7976247966289520e-02</leafValues></_>
        <_>
          <internalNodes>
            0 -1 360 -1.4825825928710401e-04</internalNodes>
          <leafValues>
            1.9320206344127655e-01 -1.7060953378677368e-01</leafValues></_>
        <_>
          <internalNodes>
            0 -1 413 5.5853193625807762e-03</internalNodes>
          <leafValues>
            9.9933452904224396e-02 -3.1132888793945312e-01</leafValues></_>
        <_>
          <internalNodes>
            0 -1 282 9.9138826131820679e-02</internalNodes>
          <leafValues>
            -8.9689359068870544e-02 3.4572988748550415e-01</leafValues></_>
        <_>
          <internalNodes>
            0 -1 373 2.6969099044799805e-01</internalNodes>
          <leafValues>
            4.3142706155776978e-02 -8.8835579156875610e-01</leafValues></_>
        <_>
          <internalNodes>
            0 -1 394 4.3505690991878510e-03</internalNodes>
          <leafValues>
            7.1794234216213226e-02 -4.0571424365043640e-01</leafValues></_>
        <_>
          <internalNodes>
            0 -1 300 -4.4164471328258514e-02</internalNodes>
          <leafValues>
            5.9243720769882202e-01 -5.4747097194194794e-02</leafValues></_></weakClassifiers></_>
    <!-- stage 14 -->
    <_>
      <maxWeakCount>45</maxWeakCount>
      <stageThreshold>-1.1180409193038940e+00</stageThreshold>
      <weakClassifiers>
        <_>
          <internalNodes>
            0 -1 145 -1.6173377633094788e-02</internalNodes>
          <leafValues>
            4.6778872609138489e-01 -2.7627034112811089e-02</leafValues></_>
        <_>
          <internalNodes>
            0 -1 275 -7.7030405402183533e-02</internalNodes>
          <leafValues>
            3.5837692022323608e-01 -1.6407375037670135e-01</leafValues></_>
        <_>
          <internalNodes>
            0 -1 380 1.6329968348145485e-02</internalNodes>
          <leafValues>
            -2.1385610103607178e-01 2.0853362977504730e-01</leafValues></_>
        <_>
          <internalNodes>
            0 -1 379 4.8057056963443756e-02</internalNodes>
          <leafValues>
            -2.3660135269165039e-01 2.4002635478973389e-01</leafValues></_>
        <_>
          <internalNodes>
            0 -1 294 4.6497609466314316e-02</internalNodes>
          <leafValues>
            -1.1687964946031570e-01 4.7188127040863037e-01</leafValues></_>
        <_>
          <internalNodes>
            0 -1 298 -1.8253567814826965e-01</internalNodes>
          <leafValues>
            1.0624011605978012e-01 -3.9556881785392761e-01</leafValues></_>
        <_>
          <internalNodes>
            0 -1 256 4.8610866069793701e-02</internalNodes>
          <leafValues>
            -1.0839968174695969e-01 3.9949759840965271e-01</leafValues></_>
        <_>
          <internalNodes>
            0 -1 347 6.4284116029739380e-02</internalNodes>
          <leafValues>
            -1.2030094116926193e-01 4.3989920616149902e-01</leafValues></_>
        <_>
          <internalNodes>
            0 -1 290 2.3057581856846809e-03</internalNodes>
          <leafValues>
            -3.6003038287162781e-01 1.3035428524017334e-01</leafValues></_>
        <_>
          <internalNodes>
            0 -1 336 7.4736475944519043e-03</internalNodes>
          <leafValues>
            -2.1927694976329803e-01 2.2956283390522003e-01</leafValues></_>
        <_>
          <internalNodes>
            0 -1 70 1.2117326259613037e-01</internalNodes>
          <leafValues>
            7.3006913065910339e-02 -6.0419756174087524e-01</leafValues></_>
        <_>
          <internalNodes>
            0 -1 65 2.3860257863998413e-01</internalNodes>
          <leafValues>
            5.7485032826662064e-02 -7.1308898925781250e-01</leafValues></_>
        <_>
          <internalNodes>
            0 -1 245 8.2145646214485168e-02</internalNodes>
          <leafValues>
            -1.1845604330301285e-01 3.7500730156898499e-01</leafValues></_>
        <_>
          <internalNodes>
            0 -1 385 3.7127044051885605e-02</internalNodes>
          <leafValues>
            -1.2185615301132202e-01 3.2375252246856689e-01</leafValues></_>
        <_>
          <internalNodes>
            0 -1 338 1.1993890628218651e-02</internalNodes>
          <leafValues>
            -2.1810503304004669e-01 1.9788834452629089e-01</leafValues></_>
        <_>
          <internalNodes>
            0 -1 178 4.5687183737754822e-03</internalNodes>
          <leafValues>
            -3.3376157283782959e-01 1.4796738326549530e-01</leafValues></_>
        <_>
          <internalNodes>
            0 -1 299 4.7796252183616161e-03</internalNodes>
          <leafValues>
            -2.8776323795318604e-01 1.3226790726184845e-01</leafValues></_>
        <_>
          <internalNodes>
            0 -1 299 5.1803849637508392e-02</internalNodes>
          <leafValues>
            4.8856288194656372e-02 -8.1373775005340576e-01</leafValues></_>
        <_>
          <internalNodes>
            0 -1 103 2.4065455794334412e-01</internalNodes>
          <leafValues>
            4.4987056404352188e-02 -7.3297268152236938e-01</leafValues></_>
        <_>
          <internalNodes>
            0 -1 237 1.7799273133277893e-02</internalNodes>
          <leafValues>
            -1.4736936986446381e-01 2.8367695212364197e-01</leafValues></_>
        <_>
          <internalNodes>
            0 -1 137 1.1785103008151054e-02</internalNodes>
          <leafValues>
            -2.0653279125690460e-01 2.1326872706413269e-01</leafValues></_>
        <_>
          <internalNodes>
            0 -1 176 1.2415283359587193e-02</internalNodes>
          <leafValues>
            5.7275701314210892e-02 -5.9557729959487915e-01</leafValues></_>
        <_>
          <internalNodes>
            0 -1 278 3.7353583611547947e-03</internalNodes>
          <leafValues>
            -2.2327205538749695e-01 1.5663516521453857e-01</leafValues></_>
        <_>
          <internalNodes>
            0 -1 208 2.3248124867677689e-02</internalNodes>
          <leafValues>
            -1.4308585226535797e-01 2.5428882241249084e-01</leafValues></_>
        <_>
          <internalNodes>
            0 -1 304 4.3083809316158295e-02</internalNodes>
          <leafValues>
            -1.1156444251537323e-01 3.7940511107444763e-01</leafValues></_>
        <_>
          <internalNodes>
            0 -1 143 6.2676295638084412e-02</internalNodes>
          <leafValues>
            4.2486693710088730e-02 -9.0765553712844849e-01</leafValues></_>
        <_>
          <internalNodes>
            0 -1 94 -8.5650337859988213e-03</internalNodes>
          <leafValues>
            -5.0111335515975952e-01 5.6264054030179977e-02</leafValues></_>
        <_>
          <internalNodes>
            0 -1 164 -7.5228698551654816e-03</internalNodes>
          <leafValues>
            1.0952410101890564e-01 -2.9081070423126221e-01</leafValues></_>
        <_>
          <internalNodes>
            0 -1 283 4.3988727033138275e-02</internalNodes>
          <leafValues>
            3.6878984421491623e-02 -7.4526357650756836e-01</leafValues></_>
        <_>
          <internalNodes>
            0 -1 13 1.1313687264919281e-01</internalNodes>
          <leafValues>
            -1.0223101079463959e-01 2.9345265030860901e-01</leafValues></_>
        <_>
          <internalNodes>
            0 -1 15 -1.5385491133201867e-04</internalNodes>
          <leafValues>
            2.7374804019927979e-01 -1.5397746860980988e-01</leafValues></_>
        <_>
          <internalNodes>
            0 -1 24 3.7794820964336395e-03</internalNodes>
          <leafValues>
            6.5091148018836975e-02 -4.3217083811759949e-01</leafValues></_>
        <_>
          <internalNodes>
            0 -1 243 3.1112644355744123e-03</internalNodes>
          <leafValues>
            -3.3802917599678040e-01 8.3334073424339294e-02</leafValues></_>
        <_>
          <internalNodes>
            0 -1 130 3.9634600281715393e-02</internalNodes>
          <leafValues>
            -8.5775062441825867e-02 4.2128390073776245e-01</leafValues></_>
        <_>
          <internalNodes>
            0 -1 213 -2.3033156991004944e-02</internalNodes>
          <leafValues>
            2.7679085731506348e-01 -1.2150532752275467e-01</leafValues></_>
        <_>
          <internalNodes>
            0 -1 196 1.1847002897411585e-03</internalNodes>
          <leafValues>
            -1.0140834748744965e-01 3.1206130981445312e-01</leafValues></_>
        <_>
          <internalNodes>
            0 -1 193 8.7544567883014679e-02</internalNodes>
          <leafValues>
            -4.3042294681072235e-02 7.2040665149688721e-01</leafValues></_>
        <_>
          <internalNodes>
            0 -1 217 4.8502092249691486e-03</internalNodes>
          <leafValues>
            -1.2825679779052734e-01 2.7465057373046875e-01</leafValues></_>
        <_>
          <internalNodes>
            0 -1 372 5.0462812185287476e-02</internalNodes>
          <leafValues>
            -9.9777750670909882e-02 3.3604371547698975e-01</leafValues></_>
        <_>
          <internalNodes>
            0 -1 242 7.0443153381347656e-03</internalNodes>
          <leafValues>
            6.1887808144092560e-02 -5.3011465072631836e-01</leafValues></_>
        <_>
          <internalNodes>
            0 -1 203 1.8014587461948395e-02</internalNodes>
          <leafValues>
            -1.3414698839187622e-01 2.5285398960113525e-01</leafValues></_>
        <_>
          <internalNodes>
            0 -1 188 6.0179557651281357e-02</internalNodes>
          <leafValues>
            3.8588933646678925e-02 -8.9731937646865845e-01</leafValues></_>
        <_>
          <internalNodes>
            0 -1 272 3.8838321343064308e-03</internalNodes>
          <leafValues>
            -2.2176291048526764e-01 1.2765744328498840e-01</leafValues></_>
        <_>
          <internalNodes>
            0 -1 180 4.5838680118322372e-02</internalNodes>
          <leafValues>
            -9.7628727555274963e-02 3.3287671208381653e-01</leafValues></_>
        <_>
          <internalNodes>
            0 -1 52 -1.0848264396190643e-01</internalNodes>
          <leafValues>
            2.9071295261383057e-01 -1.0829342901706696e-01</leafValues></_></weakClassifiers></_>
    <!-- stage 15 -->
    <_>
      <maxWeakCount>41</maxWeakCount>
      <stageThreshold>-9.9753892421722412e-01</stageThreshold>
      <weakClassifiers>
        <_>
          <internalNodes>
            0 -1 276 -6.2802977859973907e-02</internalNodes>
          <leafValues>
            4.5116773247718811e-01 -5.3590569645166397e-02</leafValues></_>
        <_>
          <internalNodes>
            0 -1 383 1.7877846956253052e-02</internalNodes>
          <leafValues>
            -2.2852069139480591e-01 2.5934091210365295e-01</leafValues></_>
        <_>
          <internalNodes>
            0 -1 28 4.8611816018819809e-03</internalNodes>
          <leafValues>
            1.0744360089302063e-01 -4.9755382537841797e-01</leafValues></_>
        <_>
          <internalNodes>
            0 -1 244 5.9263862669467926e-02</internalNodes>
          <leafValues>
            -1.2965346872806549e-01 4.0523323416709900e-01</leafValues></_>
        <_>
          <internalNodes>
            0 -1 396 -1.1689246166497469e-03</internalNodes>
          <leafValues>
            1.9682955741882324e-01 -2.3317644000053406e-01</leafValues></_>
        <_>
          <internalNodes>
            0 -1 154 -3.9358525536954403e-03</internalNodes>
          <leafValues>
            -5.4813343286514282e-01 6.3590511679649353e-02</leafValues></_>
        <_>
          <internalNodes>
            0 -1 302 4.7624692320823669e-02</internalNodes>
          <leafValues>
            -9.2924088239669800e-02 4.7499275207519531e-01</leafValues></_>
        <_>
          <internalNodes>
            0 -1 123 1.4779976010322571e-01</internalNodes>
          <leafValues>
            -2.2682367265224457e-01 2.7062672376632690e-01</leafValues></_>
        <_>
          <internalNodes>
            0 -1 318 3.0290443450212479e-02</internalNodes>
          <leafValues>
            -1.0979276150465012e-01 4.5453906059265137e-01</leafValues></_>
        <_>
          <internalNodes>
            0 -1 210 -1.2190107256174088e-02</internalNodes>
          <leafValues>
            4.2988318204879761e-01 -1.2347317487001419e-01</leafValues></_>
        <_>
          <internalNodes>
            0 -1 375 1.6714693978428841e-02</internalNodes>
          <leafValues>
            -7.2218149900436401e-01 7.6436288654804230e-02</leafValues></_>
        <_>
          <internalNodes>
            0 -1 168 1.8669855594635010e-01</internalNodes>
          <leafValues>
            -1.7107079923152924e-01 2.0587284862995148e-01</leafValues></_>
        <_>
          <internalNodes>
            0 -1 301 -2.6121001690626144e-02</internalNodes>
          <leafValues>
            2.8236037492752075e-01 -1.3921757042407990e-01</leafValues></_>
        <_>
          <internalNodes>
            0 -1 385 -5.9268195182085037e-02</internalNodes>
          <leafValues>
            4.8066106438636780e-01 -7.4888698756694794e-02</leafValues></_>
        <_>
          <internalNodes>
            0 -1 280 -7.6968604698777199e-03</internalNodes>
          <leafValues>
            -6.5005069971084595e-01 5.8966610580682755e-02</leafValues></_>
        <_>
          <internalNodes>
            0 -1 109 9.3470305204391479e-02</internalNodes>
          <leafValues>
            5.8223556727170944e-02 -5.4867994785308838e-01</leafValues></_>
        <_>
          <internalNodes>
            0 -1 224 8.1783975474536419e-04</internalNodes>
          <leafValues>
            -2.3505879938602448e-01 1.4941340684890747e-01</leafValues></_>
        <_>
          <internalNodes>
            0 -1 48 -3.2950616441667080e-03</internalNodes>
          <leafValues>
            -3.1924176216125488e-01 9.4327554106712341e-02</leafValues></_>
        <_>
          <internalNodes>
            0 -1 406 5.9311902150511742e-03</internalNodes>
          <leafValues>
            -1.3523046672344208e-01 2.5844967365264893e-01</leafValues></_>
        <_>
          <internalNodes>
            0 -1 348 1.7037101089954376e-02</internalNodes>
          <leafValues>
            -2.0319378376007080e-01 1.9357493519783020e-01</leafValues></_>
        <_>
          <internalNodes>
            0 -1 348 6.7745417356491089e-02</internalNodes>
          <leafValues>
            3.7794779986143112e-02 -9.7634118795394897e-01</leafValues></_>
        <_>
          <internalNodes>
            0 -1 310 5.9558086097240448e-02</internalNodes>
          <leafValues>
            -9.5837578177452087e-02 4.1784533858299255e-01</leafValues></_>
        <_>
          <internalNodes>
            0 -1 315 -8.3467245101928711e-02</internalNodes>
          <leafValues>
            1.0955256223678589e-01 -3.4505537152290344e-01</leafValues></_>
        <_>
          <internalNodes>
            0 -1 104 2.8744825720787048e-01</internalNodes>
          <leafValues>
            3.2401099801063538e-02 -8.5846877098083496e-01</leafValues></_>
        <_>
          <internalNodes>
            0 -1 253 2.3067772388458252e-02</internalNodes>
          <leafValues>
            -1.4733025431632996e-01 3.0401763319969177e-01</leafValues></_>
        <_>
          <internalNodes>
            0 -1 376 8.2145901396870613e-03</internalNodes>
          <leafValues>
            -2.4365472793579102e-01 1.6400125622749329e-01</leafValues></_>
        <_>
          <internalNodes>
            0 -1 306 -8.4341548383235931e-02</internalNodes>
          <leafValues>
            6.7366677522659302e-01 -5.5289451032876968e-02</leafValues></_>
        <_>
          <internalNodes>
            0 -1 166 -7.5182013213634491e-02</internalNodes>
          <leafValues>
            3.8392820954322815e-01 -7.5036235153675079e-02</leafValues></_>
        <_>
          <internalNodes>
            0 -1 218 -1.7154974921140820e-04</internalNodes>
          <leafValues>
            2.0459148287773132e-01 -1.8321661651134491e-01</leafValues></_>
        <_>
          <internalNodes>
            0 -1 154 -1.5168610843829811e-04</internalNodes>
          <leafValues>
            2.1035651862621307e-01 -1.5392303466796875e-01</leafValues></_>
        <_>
          <internalNodes>
            0 -1 0 -3.4742630086839199e-03</internalNodes>
          <leafValues>
            -4.0940451622009277e-01 8.7142199277877808e-02</leafValues></_>
        <_>
          <internalNodes>
            0 -1 37 2.2401762008666992e-01</internalNodes>
          <leafValues>
            5.0785843282938004e-02 -5.9694254398345947e-01</leafValues></_>
        <_>
          <internalNodes>
            0 -1 174 1.5774081111885607e-04</internalNodes>
          <leafValues>
            -2.3404350876808167e-01 1.3080480694770813e-01</leafValues></_>
        <_>
          <internalNodes>
            0 -1 369 3.3645987510681152e-02</internalNodes>
          <leafValues>
            -1.3087342679500580e-01 2.3539477586746216e-01</leafValues></_>
        <_>
          <internalNodes>
            0 -1 192 -2.3614179342985153e-02</internalNodes>
          <leafValues>
            2.9239183664321899e-01 -1.1978919804096222e-01</leafValues></_>
        <_>
          <internalNodes>
            0 -1 208 1.5943951904773712e-02</internalNodes>
          <leafValues>
            -1.6587054729461670e-01 2.1530401706695557e-01</leafValues></_>
        <_>
          <internalNodes>
            0 -1 77 1.7610590904951096e-02</internalNodes>
          <leafValues>
            -1.4134380221366882e-01 2.5778245925903320e-01</leafValues></_>
        <_>
          <internalNodes>
            0 -1 147 5.7744503021240234e-02</internalNodes>
          <leafValues>
            -8.1871442496776581e-02 4.1627520322799683e-01</leafValues></_>
        <_>
          <internalNodes>
            0 -1 258 1.5377743169665337e-02</internalNodes>
          <leafValues>
            -1.7428360879421234e-01 2.1114934980869293e-01</leafValues></_>
        <_>
          <internalNodes>
            0 -1 122 1.2487244792282581e-02</internalNodes>
          <leafValues>
            -2.0070402324199677e-01 1.8545277416706085e-01</leafValues></_>
        <_>
          <internalNodes>
            0 -1 121 7.7478308230638504e-03</internalNodes>
          <leafValues>
            7.6917603611946106e-02 -4.5211607217788696e-01</leafValues></_></weakClassifiers></_>
    <!-- stage 16 -->
    <_>
      <maxWeakCount>48</maxWeakCount>
      <stageThreshold>-1.0513207912445068e+00</stageThreshold>
      <weakClassifiers>
        <_>
          <internalNodes>
            0 -1 410 -2.4497238919138908e-03</internalNodes>
          <leafValues>
            3.6190089583396912e-01 -1.0947205126285553e-01</leafValues></_>
        <_>
          <internalNodes>
            0 -1 101 1.8745888955891132e-03</internalNodes>
          <leafValues>
            -2.0563155412673950e-01 2.3154330253601074e-01</leafValues></_>
        <_>
          <internalNodes>
            0 -1 263 2.7795758098363876e-02</internalNodes>
          <leafValues>
            -1.4710067212581635e-01 3.0832484364509583e-01</leafValues></_>
        <_>
          <internalNodes>
            0 -1 401 -2.4126288481056690e-03</internalNodes>
          <leafValues>
            1.6646407544612885e-01 -2.3012104630470276e-01</leafValues></_>
        <_>
          <internalNodes>
            0 -1 287 4.1739150881767273e-02</internalNodes>
          <leafValues>
            -1.6360454261302948e-01 3.0269843339920044e-01</leafValues></_>
        <_>
          <internalNodes>
            0 -1 346 -2.6164043694734573e-02</internalNodes>
          <leafValues>
            3.7641987204551697e-01 -1.6588787734508514e-01</leafValues></_>
        <_>
          <internalNodes>
            0 -1 260 2.9216043651103973e-02</internalNodes>
          <leafValues>
            -9.3490920960903168e-02 3.9167916774749756e-01</leafValues></_>
        <_>
          <internalNodes>
            0 -1 179 7.3364771902561188e-02</internalNodes>
          <leafValues>
            -1.6637852787971497e-01 2.5268369913101196e-01</leafValues></_>
        <_>
          <internalNodes>
            0 -1 351 1.7455797642469406e-02</internalNodes>
          <leafValues>
            -1.5045340359210968e-01 3.1446343660354614e-01</leafValues></_>
        <_>
          <internalNodes>
            0 -1 232 2.5992267765104771e-03</internalNodes>
          <leafValues>
            -2.6044908165931702e-01 1.8294218182563782e-01</leafValues></_>
        <_>
          <internalNodes>
            0 -1 229 -6.9635151885449886e-03</internalNodes>
          <leafValues>
            -6.9043165445327759e-01 3.4868445247411728e-02</leafValues></_>
        <_>
          <internalNodes>
            0 -1 90 -2.3881392553448677e-03</internalNodes>
          <leafValues>
            -4.3715417385101318e-01 7.7420406043529510e-02</leafValues></_>
        <_>
          <internalNodes>
            0 -1 328 5.2003664895892143e-03</internalNodes>
          <leafValues>
            -2.3006716370582581e-01 1.7430776357650757e-01</leafValues></_>
        <_>
          <internalNodes>
            0 -1 407 -5.0792641937732697e-02</internalNodes>
          <leafValues>
            4.8458868265151978e-01 -8.5137866437435150e-02</leafValues></_>
        <_>
          <internalNodes>
            0 -1 299 9.1689154505729675e-03</internalNodes>
          <leafValues>
            -2.4174335598945618e-01 1.5639002621173859e-01</leafValues></_>
        <_>
          <internalNodes>
            0 -1 60 1.8487066030502319e-01</internalNodes>
          <leafValues>
            5.2837029099464417e-02 -7.1720826625823975e-01</leafValues></_>
        <_>
          <internalNodes>
            0 -1 118 5.7722516357898712e-02</internalNodes>
          <leafValues>
            5.0416398793458939e-02 -6.6151905059814453e-01</leafValues></_>
        <_>
          <internalNodes>
            0 -1 323 4.3421904556453228e-03</internalNodes>
          <leafValues>
            -2.5470414757728577e-01 1.2676045298576355e-01</leafValues></_>
        <_>
          <internalNodes>
            0 -1 355 -8.7296053767204285e-02</internalNodes>
          <leafValues>
            5.4054290056228638e-01 -5.9415999799966812e-02</leafValues></_>
        <_>
          <internalNodes>
            0 -1 115 2.4979289621114731e-02</internalNodes>
          <leafValues>
            -1.0149001330137253e-01 2.9781797528266907e-01</leafValues></_>
        <_>
          <internalNodes>
            0 -1 73 1.6063958406448364e-02</internalNodes>
          <leafValues>
            -2.0429950952529907e-01 1.6443824768066406e-01</leafValues></_>
        <_>
          <internalNodes>
            0 -1 72 1.4086917042732239e-02</internalNodes>
          <leafValues>
            4.6374537050724030e-02 -7.6464533805847168e-01</leafValues></_>
        <_>
          <internalNodes>
            0 -1 40 1.8247844651341438e-02</internalNodes>
          <leafValues>
            -1.0689342767000198e-01 3.1266191601753235e-01</leafValues></_>
        <_>
          <internalNodes>
            0 -1 362 2.0075244829058647e-02</internalNodes>
          <leafValues>
            6.4610935747623444e-02 -5.0600343942642212e-01</leafValues></_>
        <_>
          <internalNodes>
            0 -1 367 -5.5335247889161110e-03</internalNodes>
          <leafValues>
            -4.3045091629028320e-01 6.2786452472209930e-02</leafValues></_>
        <_>
          <internalNodes>
            0 -1 381 3.9141107350587845e-02</internalNodes>
          <leafValues>
            -8.7621286511421204e-02 3.0993977189064026e-01</leafValues></_>
        <_>
          <internalNodes>
            0 -1 182 -1.9704306498169899e-02</internalNodes>
          <leafValues>
            2.7557685971260071e-01 -9.8958075046539307e-02</leafValues></_>
        <_>
          <internalNodes>
            0 -1 208 6.7082233726978302e-03</internalNodes>
          <leafValues>
            -2.0271229743957520e-01 1.7465017735958099e-01</leafValues></_>
        <_>
          <internalNodes>
            0 -1 214 5.7804621756076813e-02</internalNodes>
          <leafValues>
            3.5019252449274063e-02 -7.0190453529357910e-01</leafValues></_>
        <_>
          <internalNodes>
            0 -1 177 3.1152990460395813e-01</internalNodes>
          <leafValues>
            3.3453837037086487e-02 -7.2327339649200439e-01</leafValues></_>
        <_>
          <internalNodes>
            0 -1 136 -1.9551789760589600e-01</internalNodes>
          <leafValues>
            1.2440204620361328e-01 -2.0921951532363892e-01</leafValues></_>
        <_>
          <internalNodes>
            0 -1 30 -3.6414572969079018e-03</internalNodes>
          <leafValues>
            -3.7224504351615906e-01 6.7474089562892914e-02</leafValues></_>
        <_>
          <internalNodes>
            0 -1 243 5.4275520145893097e-02</internalNodes>
          <leafValues>
            2.5280658155679703e-02 -9.0003240108489990e-01</leafValues></_>
        <_>
          <internalNodes>
            0 -1 243 8.5074594244360924e-03</internalNodes>
          <leafValues>
            -2.3727756738662720e-01 1.0572973638772964e-01</leafValues></_>
        <_>
          <internalNodes>
            0 -1 247 -2.3603893816471100e-02</internalNodes>
          <leafValues>
            4.1293045878410339e-01 -7.3431231081485748e-02</leafValues></_>
        <_>
          <internalNodes>
            0 -1 69 -4.1330493986606598e-02</internalNodes>
          <leafValues>
            -3.7591245770454407e-01 8.4484741091728210e-02</leafValues></_>
        <_>
          <internalNodes>
            0 -1 169 2.5961631536483765e-01</internalNodes>
          <leafValues>
            2.8593502938747406e-02 -7.1095061302185059e-01</leafValues></_>
        <_>
          <internalNodes>
            0 -1 405 4.9185134470462799e-02</internalNodes>
          <leafValues>
            -1.0868372023105621e-01 2.4349759519100189e-01</leafValues></_>
        <_>
          <internalNodes>
            0 -1 215 2.8139278292655945e-02</internalNodes>
          <leafValues>
            -1.4029335975646973e-01 2.2500413656234741e-01</leafValues></_>
        <_>
          <internalNodes>
            0 -1 225 4.1216509416699409e-03</internalNodes>
          <leafValues>
            -1.7882825434207916e-01 1.5582883358001709e-01</leafValues></_>
        <_>
          <internalNodes>
            0 -1 231 8.5185691714286804e-03</internalNodes>
          <leafValues>
            4.3546214699745178e-02 -5.9214514493942261e-01</leafValues></_>
        <_>
          <internalNodes>
            0 -1 139 3.4377608448266983e-02</internalNodes>
          <leafValues>
            -7.5803078711032867e-02 3.5092917084693909e-01</leafValues></_>
        <_>
          <internalNodes>
            0 -1 386 3.7314802408218384e-02</internalNodes>
          <leafValues>
            -9.7549885511398315e-02 2.8829181194305420e-01</leafValues></_>
        <_>
          <internalNodes>
            0 -1 87 1.2513819336891174e-01</internalNodes>
          <leafValues>
            4.1869580745697021e-02 -7.5567805767059326e-01</leafValues></_>
        <_>
          <internalNodes>
            0 -1 89 -1.2071563862264156e-02</internalNodes>
          <leafValues>
            -7.6866281032562256e-01 2.3703450337052345e-02</leafValues></_>
        <_>
          <internalNodes>
            0 -1 150 -5.8943387120962143e-03</internalNodes>
          <leafValues>
            2.5465473532676697e-01 -9.8931252956390381e-02</leafValues></_>
        <_>
          <internalNodes>
            0 -1 147 6.1967991292476654e-02</internalNodes>
          <leafValues>
            -6.9701060652732849e-02 4.4312423467636108e-01</leafValues></_>
        <_>
          <internalNodes>
            0 -1 153 -6.4827799797058105e-03</internalNodes>
          <leafValues>
            -5.4854649305343628e-01 4.7451596707105637e-02</leafValues></_></weakClassifiers></_>
    <!-- stage 17 -->
    <_>
      <maxWeakCount>57</maxWeakCount>
      <stageThreshold>-9.5462602376937866e-01</stageThreshold>
      <weakClassifiers>
        <_>
          <internalNodes>
            0 -1 305 7.6134622097015381e-02</internalNodes>
          <leafValues>
            -2.3832221049815416e-03 4.5702180266380310e-01</leafValues></_>
        <_>
          <internalNodes>
            0 -1 412 9.5867516938596964e-04</internalNodes>
          <leafValues>
            -1.8724383413791656e-01 2.2743283212184906e-01</leafValues></_>
        <_>
          <internalNodes>
            0 -1 4 -3.0805943533778191e-02</internalNodes>
          <leafValues>
            1.8184284865856171e-01 -2.1594497561454773e-01</leafValues></_>
        <_>
          <internalNodes>
            0 -1 233 5.9110667556524277e-02</internalNodes>
          <leafValues>
            -1.2994921207427979e-01 2.5100177526473999e-01</leafValues></_>
        <_>
          <internalNodes>
            0 -1 209 2.2006368264555931e-02</internalNodes>
          <leafValues>
            -1.2788164615631104e-01 3.6460968852043152e-01</leafValues></_>
        <_>
          <internalNodes>
            0 -1 340 6.2592983245849609e-02</internalNodes>
          <leafValues>
            -1.2658692896366119e-01 3.3429467678070068e-01</leafValues></_>
        <_>
          <internalNodes>
            0 -1 25 -7.1615129709243774e-03</internalNodes>
          <leafValues>
            2.0739436149597168e-01 -2.1830634772777557e-01</leafValues></_>
        <_>
          <internalNodes>
            0 -1 135 4.4129028916358948e-02</internalNodes>
          <leafValues>
            -6.9185815751552582e-02 4.4771412014961243e-01</leafValues></_>
        <_>
          <internalNodes>
            0 -1 199 -2.5329383090138435e-02</internalNodes>
          <leafValues>
            3.5176008939743042e-01 -1.0784210264682770e-01</leafValues></_>
        <_>
          <internalNodes>
            0 -1 62 2.6203906163573265e-03</internalNodes>
          <leafValues>
            -1.8267719447612762e-01 2.3032461106777191e-01</leafValues></_>
        <_>
          <internalNodes>
            0 -1 248 -2.8711193799972534e-01</internalNodes>
          <leafValues>
            1.1110338568687439e-01 -3.0580294132232666e-01</leafValues></_>
        <_>
          <internalNodes>
            0 -1 388 6.0749389231204987e-02</internalNodes>
          <leafValues>
            3.9421025663614273e-02 -7.4486219882965088e-01</leafValues></_>
        <_>
          <internalNodes>
            0 -1 415 -1.6969963908195496e-02</internalNodes>
          <leafValues>
            -4.6429350972175598e-01 6.4491428434848785e-02</leafValues></_>
        <_>
          <internalNodes>
            0 -1 106 5.6828830391168594e-02</internalNodes>
          <leafValues>
            3.4695185720920563e-02 -7.3448872566223145e-01</leafValues></_>
        <_>
          <internalNodes>
            0 -1 113 1.4962491695769131e-04</internalNodes>
          <leafValues>
            -2.3238830268383026e-01 1.1929637938737869e-01</leafValues></_>
        <_>
          <internalNodes>
            0 -1 115 -1.8819635733962059e-02</internalNodes>
          <leafValues>
            4.4837039709091187e-01 -7.8907489776611328e-02</leafValues></_>
        <_>
          <internalNodes>
            0 -1 82 8.7989725172519684e-02</internalNodes>
          <leafValues>
            -8.7567947804927826e-02 3.6428231000900269e-01</leafValues></_>
        <_>
          <internalNodes>
            0 -1 266 2.8967222198843956e-02</internalNodes>
          <leafValues>
            -9.3649752438068390e-02 3.8971960544586182e-01</leafValues></_>
        <_>
          <internalNodes>
            0 -1 173 -9.0739831328392029e-02</internalNodes>
          <leafValues>
            -5.0323295593261719e-01 7.6649956405162811e-02</leafValues></_>
        <_>
          <internalNodes>
            0 -1 426 -1.0085556656122208e-02</internalNodes>
          <leafValues>
            -5.2704900503158569e-01 4.5964013785123825e-02</leafValues></_>
        <_>
          <internalNodes>
            0 -1 345 -1.4880122616887093e-02</internalNodes>
          <leafValues>
            3.6131879687309265e-01 -7.9419590532779694e-02</leafValues></_>
        <_>
          <internalNodes>
            0 -1 342 5.7015940546989441e-03</internalNodes>
          <leafValues>
            -2.5391989946365356e-01 1.4909560978412628e-01</leafValues></_>
        <_>
          <internalNodes>
            0 -1 417 1.4210771769285202e-03</internalNodes>
          <leafValues>
            -1.9410537183284760e-01 1.4856329560279846e-01</leafValues></_>
        <_>
          <internalNodes>
            0 -1 195 5.5485009215772152e-03</internalNodes>
          <leafValues>
            6.2073871493339539e-02 -4.8218053579330444e-01</leafValues></_>
        <_>
          <internalNodes>
            0 -1 99 -1.4269878738559783e-04</internalNodes>
          <leafValues>
            1.9347228109836578e-01 -1.5008880198001862e-01</leafValues></_>
        <_>
          <internalNodes>
            0 -1 327 3.3222240209579468e-01</internalNodes>
          <leafValues>
            4.5372296124696732e-02 -6.6011917591094971e-01</leafValues></_>
        <_>
          <internalNodes>
            0 -1 311 1.2755722738802433e-02</internalNodes>
          <leafValues>
            -1.8704214692115784e-01 1.6353021562099457e-01</leafValues></_>
        <_>
          <internalNodes>
            0 -1 382 -2.4727633222937584e-02</internalNodes>
          <leafValues>
            2.6907017827033997e-01 -1.1418037861585617e-01</leafValues></_>
        <_>
          <internalNodes>
            0 -1 250 3.3195400610566139e-03</internalNodes>
          <leafValues>
            -2.6193660497665405e-01 1.1640782654285431e-01</leafValues></_>
        <_>
          <internalNodes>
            0 -1 228 -8.1136580556631088e-03</internalNodes>
          <leafValues>
            -4.1279590129852295e-01 7.5018458068370819e-02</leafValues></_>
        <_>
          <internalNodes>
            0 -1 326 -7.2823427617549896e-03</internalNodes>
          <leafValues>
            -3.1067818403244019e-01 9.1300413012504578e-02</leafValues></_>
        <_>
          <internalNodes>
            0 -1 358 -6.3047469593584538e-03</internalNodes>
          <leafValues>
            1.9406922161579132e-01 -1.4834283292293549e-01</leafValues></_>
        <_>
          <internalNodes>
            0 -1 357 1.7623923718929291e-02</internalNodes>
          <leafValues>
            -1.1238136887550354e-01 2.6454448699951172e-01</leafValues></_>
        <_>
          <internalNodes>
            0 -1 319 5.1833368837833405e-02</internalNodes>
          <leafValues>
            4.1706744581460953e-02 -6.7742300033569336e-01</leafValues></_>
        <_>
          <internalNodes>
            0 -1 68 5.3056991100311279e-01</internalNodes>
          <leafValues>
            3.9369467645883560e-02 -6.6507136821746826e-01</leafValues></_>
        <_>
          <internalNodes>
            0 -1 346 7.0805899798870087e-02</internalNodes>
          <leafValues>
            -6.0631897300481796e-02 4.7406220436096191e-01</leafValues></_>
        <_>
          <internalNodes>
            0 -1 267 -1.0465109720826149e-02</internalNodes>
          <leafValues>
            2.7279832959175110e-01 -1.0076258331537247e-01</leafValues></_>
        <_>
          <internalNodes>
            0 -1 134 1.5976978465914726e-04</internalNodes>
          <leafValues>
            -1.1464646458625793e-01 2.6553997397422791e-01</leafValues></_>
        <_>
          <internalNodes>
            0 -1 321 -2.3470103740692139e-02</internalNodes>
          <leafValues>
            -9.3704313039779663e-01 2.8855318203568459e-02</leafValues></_>
        <_>
          <internalNodes>
            0 -1 311 5.9995315968990326e-02</internalNodes>
          <leafValues>
            2.4049250409007072e-02 -7.7892053127288818e-01</leafValues></_>
        <_>
          <internalNodes>
            0 -1 243 1.8855542293749750e-04</internalNodes>
          <leafValues>
            -3.6572095751762390e-01 6.4015537500381470e-02</leafValues></_>
        <_>
          <internalNodes>
            0 -1 234 -8.8741974905133247e-03</internalNodes>
          <leafValues>
            2.6902645826339722e-01 -9.6700601279735565e-02</leafValues></_>
        <_>
          <internalNodes>
            0 -1 258 1.0503721423447132e-02</internalNodes>
          <leafValues>
            -1.8380597233772278e-01 1.6349010169506073e-01</leafValues></_>
        <_>
          <internalNodes>
            0 -1 110 3.2466188073158264e-01</internalNodes>
          <leafValues>
            4.0214739739894867e-02 -7.1654057502746582e-01</leafValues></_>
        <_>
          <internalNodes>
            0 -1 81 2.4732017889618874e-02</internalNodes>
          <leafValues>
            2.8332261368632317e-02 -7.3607623577117920e-01</leafValues></_>
        <_>
          <internalNodes>
            0 -1 22 -4.5385441626422107e-04</internalNodes>
          <leafValues>
            1.8834035098552704e-01 -1.2896285951137543e-01</leafValues></_>
        <_>
          <internalNodes>
            0 -1 158 -2.4565513432025909e-01</internalNodes>
          <leafValues>
            3.3787956833839417e-01 -8.6421422660350800e-02</leafValues></_>
        <_>
          <internalNodes>
            0 -1 58 -6.7279990762472153e-03</internalNodes>
          <leafValues>
            -4.5471861958503723e-01 5.4482676088809967e-02</leafValues></_>
        <_>
          <internalNodes>
            0 -1 302 5.1605090498924255e-02</internalNodes>
          <leafValues>
            -6.4596131443977356e-02 3.8935676217079163e-01</leafValues></_>
        <_>
          <internalNodes>
            0 -1 285 -1.7619282007217407e-02</internalNodes>
          <leafValues>
            2.5617247819900513e-01 -1.0230664908885956e-01</leafValues></_>
        <_>
          <internalNodes>
            0 -1 11 -1.9600670039653778e-01</internalNodes>
          <leafValues>
            -4.8235478997230530e-01 5.3490560501813889e-02</leafValues></_>
        <_>
          <internalNodes>
            0 -1 31 5.3275702521204948e-03</internalNodes>
          <leafValues>
            5.8300089091062546e-02 -4.0970140695571899e-01</leafValues></_>
        <_>
          <internalNodes>
            0 -1 240 1.0257631540298462e-01</internalNodes>
          <leafValues>
            3.9815742522478104e-02 -5.7986915111541748e-01</leafValues></_>
        <_>
          <internalNodes>
            0 -1 232 4.1748419404029846e-02</internalNodes>
          <leafValues>
            2.8746001422405243e-02 -7.1640992164611816e-01</leafValues></_>
        <_>
          <internalNodes>
            0 -1 419 2.6971556246280670e-02</internalNodes>
          <leafValues>
            2.3946197703480721e-02 -8.1686621904373169e-01</leafValues></_>
        <_>
          <internalNodes>
            0 -1 141 -4.7711804509162903e-02</internalNodes>
          <leafValues>
            -6.5938115119934082e-01 2.9787749052047729e-02</leafValues></_>
        <_>
          <internalNodes>
            0 -1 114 1.0134832561016083e-01</internalNodes>
          <leafValues>
            -9.4809457659721375e-02 2.4899677932262421e-01</leafValues></_></weakClassifiers></_>
    <!-- stage 18 -->
    <_>
      <maxWeakCount>53</maxWeakCount>
      <stageThreshold>-1.0016547441482544e+00</stageThreshold>
      <weakClassifiers>
        <_>
          <internalNodes>
            0 -1 317 8.3612361922860146e-03</internalNodes>
          <leafValues>
            1.9117299467325211e-02 4.3487587571144104e-01</leafValues></_>
        <_>
          <internalNodes>
            0 -1 93 -3.6391722969710827e-03</internalNodes>
          <leafValues>
            1.7408137023448944e-01 -2.7335879206657410e-01</leafValues></_>
        <_>
          <internalNodes>
            0 -1 423 -2.7961455285549164e-02</internalNodes>
          <leafValues>
            3.1624078750610352e-01 -1.3022504746913910e-01</leafValues></_>
        <_>
          <internalNodes>
            0 -1 210 1.4284981414675713e-02</internalNodes>
          <leafValues>
            -1.3397820293903351e-01 3.9313215017318726e-01</leafValues></_>
        <_>
          <internalNodes>
            0 -1 296 -1.2635466456413269e-01</internalNodes>
          <leafValues>
            1.3326947391033173e-01 -4.2241623997688293e-01</leafValues></_>
        <_>
          <internalNodes>
            0 -1 146 8.1021048128604889e-02</internalNodes>
          <leafValues>
            -3.8359589874744415e-02 5.9147500991821289e-01</leafValues></_>
        <_>
          <internalNodes>
            0 -1 302 3.0313136056065559e-02</internalNodes>
          <leafValues>
            -1.3940258324146271e-01 3.1969594955444336e-01</leafValues></_>
        <_>
          <internalNodes>
            0 -1 252 4.5739203691482544e-02</internalNodes>
          <leafValues>
            -1.1216695606708527e-01 4.0179350972175598e-01</leafValues></_>
        <_>
          <internalNodes>
            0 -1 88 1.4403589069843292e-02</internalNodes>
          <leafValues>
            -1.7364227771759033e-01 2.4976734817028046e-01</leafValues></_>
        <_>
          <internalNodes>
            0 -1 138 -2.8844899497926235e-03</internalNodes>
          <leafValues>
            1.5411287546157837e-01 -2.1481969952583313e-01</leafValues></_>
        <_>
          <internalNodes>
            0 -1 3 1.6160246729850769e-01</internalNodes>
          <leafValues>
            7.8797481954097748e-02 -4.8665323853492737e-01</leafValues></_>
        <_>
          <internalNodes>
            0 -1 399 5.9843277558684349e-03</internalNodes>
          <leafValues>
            5.1246657967567444e-02 -5.6114435195922852e-01</leafValues></_>
        <_>
          <internalNodes>
            0 -1 390 1.9904451444745064e-02</internalNodes>
          <leafValues>
            -1.1769765615463257e-01 2.9551783204078674e-01</leafValues></_>
        <_>
          <internalNodes>
            0 -1 346 4.0797173976898193e-02</internalNodes>
          <leafValues>
            -1.2534779310226440e-01 2.7758994698524475e-01</leafValues></_>
        <_>
          <internalNodes>
            0 -1 92 6.3163950107991695e-03</internalNodes>
          <leafValues>
            1.0798118263483047e-01 -3.2564297318458557e-01</leafValues></_>
        <_>
          <internalNodes>
            0 -1 283 7.9018156975507736e-03</internalNodes>
          <leafValues>
            -2.0958545804023743e-01 1.5296152234077454e-01</leafValues></_>
        <_>
          <internalNodes>
            0 -1 289 5.2646238356828690e-02</internalNodes>
          <leafValues>
            4.9284186214208603e-02 -6.5141320228576660e-01</leafValues></_>
        <_>
          <internalNodes>
            0 -1 95 2.2735568881034851e-01</internalNodes>
          <leafValues>
            4.3243430554866791e-02 -6.3641953468322754e-01</leafValues></_>
        <_>
          <internalNodes>
            0 -1 332 -3.0639667063951492e-02</internalNodes>
          <leafValues>
            -6.7409193515777588e-01 3.6256771534681320e-02</leafValues></_>
        <_>
          <internalNodes>
            0 -1 160 -1.5596286952495575e-01</internalNodes>
          <leafValues>
            -4.8706710338592529e-01 5.2500870078802109e-02</leafValues></_>
        <_>
          <internalNodes>
            0 -1 125 1.6354046761989594e-02</internalNodes>
          <leafValues>
            5.5939372628927231e-02 -4.7916862368583679e-01</leafValues></_>
        <_>
          <internalNodes>
            0 -1 14 4.3412432074546814e-02</internalNodes>
          <leafValues>
            -1.5641848742961884e-01 2.1331356465816498e-01</leafValues></_>
        <_>
          <internalNodes>
            0 -1 377 6.5946489572525024e-02</internalNodes>
          <leafValues>
            -8.0357111990451813e-02 4.0338715910911560e-01</leafValues></_>
        <_>
          <internalNodes>
            0 -1 203 -1.5737330541014671e-02</internalNodes>
          <leafValues>
            2.8392013907432556e-01 -1.4170305430889130e-01</leafValues></_>
        <_>
          <internalNodes>
            0 -1 67 -2.8837542980909348e-02</internalNodes>
          <leafValues>
            4.8334905505180359e-01 -7.7523857355117798e-02</leafValues></_>
        <_>
          <internalNodes>
