<?xml version="1.0"?>
<opencv_storage>
<cascade>
  <stageType>BOOST</stageType>
  <featureType>LBP</featureType>
  <height>12</height>
  <width>12</width>
  <stageParams>
    <boostType>GAB</boostType>
    <minHitRate>9.9500000476837158e-01</minHitRate>
    <maxFalseAlarm>5.0000000000000000e-01</maxFalseAlarm>
    <weightTrimRate>9.4999999999999996e-01</weightTrimRate>
    <maxDepth>1</maxDepth>
    <maxWeakCount>100</maxWeakCount></stageParams>
  <featureParams>
    <maxCatCount>256</maxCatCount>
    <featSize>1</featSize></featureParams>
  <stageNum>20</stageNum>
  <stages>
    <!-- stage 0 -->
    <_>
      <maxWeakCount>3</maxWeakCount>
      <stageThreshold>-7.3168247938156128e-01</stageThreshold>
      <weakClassifiers>
        <_>
          <internalNodes>
            0 -1 48 -749341996 -170594060 -1006575268 -778503168
            -1027476540 -259993472 -788405624 -715654923</internalNodes>
          <leafValues>
            -7.9608726501464844e-01 7.4679887294769287e-01</leafValues></_>
        <_>
          <internalNodes>
            0 -1 6 -262221 -5177552 -5177672 -654251472 -1 -12648464
            -9306118 -15204557</internalNodes>
          <leafValues>
            -5.3663080930709839e-01 8.5506331920623779e-01</leafValues></_>
        <_>
          <internalNodes>
            0 -1 12 1313532610 -80289392 -1073291078 -552680066
            -1072832480 -4078976 -818166067 -11542817</internalNodes>
          <leafValues>
            -6.1568206548690796e-01 6.0103565454483032e-01</leafValues></_></weakClassifiers></_>
    <!-- stage 1 -->
    <_>
      <maxWeakCount>5</maxWeakCount>
      <stageThreshold>-5.6475937366485596e-01</stageThreshold>
      <weakClassifiers>
        <_>
          <internalNodes>
            0 -1 37 -262146 -2294032 1476198392 -45039536 -524290
            -279117832 -720966 1372675315</internalNodes>
          <leafValues>
            -6.2651413679122925e-01 7.4249118566513062e-01</leafValues></_>
        <_>
          <internalNodes>
            0 -1 2 -3146822 -12387352 -290783404 -10420316 -4085780
            -270991380 -272172116 -3145729</internalNodes>
          <leafValues>
            -6.2064397335052490e-01 6.6852432489395142e-01</leafValues></_>
        <_>
          <internalNodes>
            0 -1 101 -1048580 -524292 -55181828 -35197772 -520
            -143327756 -706019940 1963196127</internalNodes>
          <leafValues>
            -5.3022062778472900e-01 6.5798825025558472e-01</leafValues></_>
        <_>
          <internalNodes>
            0 -1 87 -1048580 302055088 -83887300 -78184718 -615752452
            1291976020 -134292264 1946157055</internalNodes>
          <leafValues>
            -5.5882918834686279e-01 6.5837216377258301e-01</leafValues></_>
        <_>
          <internalNodes>
            0 -1 92 50536451 1929461905 1344327903 2004911747
            -1064382077 -376723321 1074778797 -74978337</internalNodes>
          <leafValues>
            -6.3396173715591431e-01 5.8797454833984375e-01</leafValues></_></weakClassifiers></_>
    <!-- stage 2 -->
    <_>
      <maxWeakCount>5</maxWeakCount>
      <stageThreshold>-6.1508947610855103e-01</stageThreshold>
      <weakClassifiers>
        <_>
          <internalNodes>
            0 -1 80 -716309888 1461059361 -324998144 -168558765
            1431654092 2138963967 -121783092 -1258816393</internalNodes>
          <leafValues>
            -5.1656919717788696e-01 5.7244175672531128e-01</leafValues></_>
        <_>
          <internalNodes>
            0 -1 11 -1073552817 -343162417 -1018394529 -14466681
            1153485550 1531805903 -507262055 -13632513</internalNodes>
          <leafValues>
            -5.0433880090713501e-01 5.3786534070968628e-01</leafValues></_>
        <_>
          <internalNodes>
            0 -1 67 -65569 1897725924 -134283280 -201326610 -555954228
            1313931236 -518662 2012216311</internalNodes>
          <leafValues>
            -4.5024886727333069e-01 5.7898265123367310e-01</leafValues></_>
        <_>
          <internalNodes>
            0 -1 39 -1043405844 1560852618 13286474 -134816954
            -1018437122 1531485160 -1196758017 1962380287</internalNodes>
          <leafValues>
            -5.5727088451385498e-01 4.1932204365730286e-01</leafValues></_>
        <_>
          <internalNodes>
            0 -1 84 -202378241 -209088084 281018864 -41056640
            -1618394936 2134477263 -117924098 1958214902</internalNodes>
          <leafValues>
            -5.6738984584808350e-01 4.3674537539482117e-01</leafValues></_></weakClassifiers></_>
    <!-- stage 3 -->
    <_>
      <maxWeakCount>6</maxWeakCount>
      <stageThreshold>-1.3622285127639771e+00</stageThreshold>
      <weakClassifiers>
        <_>
          <internalNodes>
            0 -1 52 -750058752 -547553483 925459235 -4521987 -641730645
            -1611661313 1356281731 -140513365</internalNodes>
          <leafValues>
            -4.5853817462921143e-01 6.5160709619522095e-01</leafValues></_>
        <_>
          <internalNodes>
            0 -1 100 -713032832 1562198284 -653223680 -39874434
            -1085678648 1530538172 -123486648 -168431906</internalNodes>
          <leafValues>
            -5.4491227865219116e-01 4.5658239722251892e-01</leafValues></_>
        <_>
          <internalNodes>
            0 -1 34 -360009809 -1912549662 1290693742 -1379430848
            2113891839 1869611007 -285250465 -370149513</internalNodes>
          <leafValues>
            -4.7204792499542236e-01 5.1257348060607910e-01</leafValues></_>
        <_>
          <internalNodes>
            0 -1 41 1137374174 -1420946994 696287744 -4240016 194677242
            160407720 -1870493032 552945622</internalNodes>
          <leafValues>
            -6.3698768615722656e-01 3.6610814929008484e-01</leafValues></_>
        <_>
          <internalNodes>
            0 -1 137 -184686667 3205848 -1849638840 -1936796544
            140636593 1342231697 -2138611228 -1530923788</internalNodes>
          <leafValues>
            -5.9702515602111816e-01 3.5930866003036499e-01</leafValues></_>
        <_>
          <internalNodes>
            0 -1 54 -811144536 2001836546 -2146164728 1976893666
            1805663231 2099839208 -102680146 -167826741</internalNodes>
          <leafValues>
            -6.1214697360992432e-01 3.3749726414680481e-01</leafValues></_></weakClassifiers></_>
    <!-- stage 4 -->
    <_>
      <maxWeakCount>6</maxWeakCount>
      <stageThreshold>-6.7154616117477417e-01</stageThreshold>
      <weakClassifiers>
        <_>
          <internalNodes>
            0 -1 71 821756547 -234904849 -1224761349 -244320258
            -1191447361 -4982801 -150996225 -17</internalNodes>
          <leafValues>
            -2.9909527301788330e-01 7.0122927427291870e-01</leafValues></_>
        <_>
          <internalNodes>
            0 -1 20 -219152769 -903151838 -286064922 -366285262
            -998515073 1182597117 -185140137 -84410510</internalNodes>
          <leafValues>
            -4.3722596764564514e-01 5.2652716636657715e-01</leafValues></_>
        <_>
          <internalNodes>
            0 -1 103 -750267905 1698647445 -1050717218 -176700706
            -732955204 -854482728 -19137794 2050030330</internalNodes>
          <leafValues>
            -5.0268590450286865e-01 4.6950206160545349e-01</leafValues></_>
        <_>
          <internalNodes>
            0 -1 86 2078079967 486593242 -39071312 -276113944 1542738172
            1536057710 -66596 -16777354</internalNodes>
          <leafValues>
            -4.6072918176651001e-01 4.8123404383659363e-01</leafValues></_>
        <_>
          <internalNodes>
            0 -1 141 -67111163 -752889797 -1001196153 -68160373
            -777021436 1130356006 -522209068 -50331733</internalNodes>
          <leafValues>
            -4.2827787995338440e-01 5.2404254674911499e-01</leafValues></_>
        <_>
          <internalNodes>
            0 -1 99 1170603517 966328129 -1934955136 -1887240406
            1960334428 -1 -36413873 -1392513033</internalNodes>
          <leafValues>
            -4.1204950213432312e-01 5.1450473070144653e-01</leafValues></_></weakClassifiers></_>
    <!-- stage 5 -->
    <_>
      <maxWeakCount>9</maxWeakCount>
      <stageThreshold>-8.6585032939910889e-01</stageThreshold>
      <weakClassifiers>
        <_>
          <internalNodes>
            0 -1 29 1438973950 1700659191 66977790 1163263919 1473642494
            -437125258 -131073 1476263935</internalNodes>
          <leafValues>
            -4.8192772269248962e-01 5.0618237257003784e-01</leafValues></_>
        <_>
          <internalNodes>
            0 -1 143 -236979437 -616971705 -1785413359 -1864369909
            737536004 -720650129 -527960060 -251662401</internalNodes>
          <leafValues>
            -4.3839570879936218e-01 4.7127828001976013e-01</leafValues></_>
        <_>
          <internalNodes>
            0 -1 69 -103810049 -235146156 -787015878 -148357134
            -1844258016 1091608848 -19730326 1946155706</internalNodes>
          <leafValues>
            -4.5110559463500977e-01 4.3899503350257874e-01</leafValues></_>
        <_>
          <internalNodes>
            0 -1 96 2098585536 -551689296 18047060 1934999254 357366232
            159432749 1897372059 1998057466</internalNodes>
          <leafValues>
            -6.1316537857055664e-01 3.0623275041580200e-01</leafValues></_>
        <_>
          <internalNodes>
            0 -1 44 -8946329 -2964193 -783281650 -212931070 -1319482623
            1898986275 -77180844 -17401034</internalNodes>
          <leafValues>
            -4.9123913049697876e-01 3.6944535374641418e-01</leafValues></_>
        <_>
          <internalNodes>
            0 -1 15 -280499417 -1465735798 -149356089 -269499638
            -175406857 -726431613 -246707721 -319291469</internalNodes>
          <leafValues>
            -4.4872912764549255e-01 4.1009998321533203e-01</leafValues></_>
        <_>
          <internalNodes>
            0 -1 105 -648162864 353832983 -778998072 -1760919414
            -1429505668 1664090129 -91901186 632805599</internalNodes>
          <leafValues>
            -4.7614184021949768e-01 4.0668582916259766e-01</leafValues></_>
        <_>
          <internalNodes>
            0 -1 94 1885011991 -231262273 -709 1832674239 -1242843986
            -168001673 -639493 -273694737</internalNodes>
          <leafValues>
            -4.0182140469551086e-01 4.6191322803497314e-01</leafValues></_>
        <_>
          <internalNodes>
            0 -1 76 -128343936 964284581 2037501140 2138955202
            -1053490883 1015652393 564914410 1071489606</internalNodes>
          <leafValues>
            -5.8996933698654175e-01 3.1723406910896301e-01</leafValues></_></weakClassifiers></_>
    <!-- stage 6 -->
    <_>
      <maxWeakCount>8</maxWeakCount>
      <stageThreshold>-1.0370575189590454e+00</stageThreshold>
      <weakClassifiers>
        <_>
          <internalNodes>
            0 -1 56 -784082466 -237112516 -1018892016 -668782
            -2138750710 -2113396600 -1046419206 1364253320</internalNodes>
          <leafValues>
            -6.8217521905899048e-01 4.4978615641593933e-01</leafValues></_>
        <_>
          <internalNodes>
            0 -1 49 -1476350165 -1325246169 -268348477 -135138805
            -125314385 -133529559 -100054260 -270537821</internalNodes>
          <leafValues>
            -4.6924340724945068e-01 4.2849636077880859e-01</leafValues></_>
        <_>
          <internalNodes>
            0 -1 107 -572719171 153157628 -3 800783356 1602117116
            2136997887 -134326416 -1090520073</internalNodes>
          <leafValues>
            -4.2003402113914490e-01 4.6290808916091919e-01</leafValues></_>
        <_>
          <internalNodes>
            0 -1 137 -33554441 -101318672 -268505872 -809517840
            1684524541 2147221495 -855773956 -268698378</internalNodes>
          <leafValues>
            -3.0506086349487305e-01 5.4326069355010986e-01</leafValues></_>
        <_>
          <internalNodes>
            0 -1 114 1477705075 420020072 -1108857204 -35061761
            -41073188 2147254271 -53707666 -16910489</internalNodes>
          <leafValues>
            -4.0899696946144104e-01 4.2609968781471252e-01</leafValues></_>
        <_>
          <internalNodes>
            0 -1 124 1081936151 1419567815 -1026080289 -813448933
            -393535301 -825511229 -648767234 -805502213</internalNodes>
          <leafValues>
            -4.4010868668556213e-01 3.8770958781242371e-01</leafValues></_>
        <_>
          <internalNodes>
            0 -1 22 -120328993 -89878448 -2105507836 -1332568462
            -402032596 1931116609 -1374385590 -15270350</internalNodes>
          <leafValues>
            -4.2240491509437561e-01 3.8907885551452637e-01</leafValues></_>
        <_>
          <internalNodes>
            0 -1 97 1826988998 332910785 -960446378 -476479357
            -519744099 193495176 -1333708689 -1393611997</internalNodes>
          <leafValues>
            -4.3335360288619995e-01 3.9736029505729675e-01</leafValues></_></weakClassifiers></_>
    <!-- stage 7 -->
    <_>
      <maxWeakCount>8</maxWeakCount>
      <stageThreshold>-1.0905838012695312e+00</stageThreshold>
      <weakClassifiers>
        <_>
          <internalNodes>
            0 -1 77 -774504466 -157700 2107703276 -571405987 -170330916
            2145189884 -2069561426 606428935</internalNodes>
          <leafValues>
            -4.9724191427230835e-01 5.5663037300109863e-01</leafValues></_>
        <_>
          <internalNodes>
            0 -1 106 -787490819 1426161820 1411387988 1287946268
            -1316428802 -1065285440 -19997958 1076951774</internalNodes>
          <leafValues>
            -5.3396922349929810e-01 4.5090946555137634e-01</leafValues></_>
        <_>
          <internalNodes>
            0 -1 0 903165 -541368845 -1645273645 2146021875 -2026920247
            -1107337729 -1411526659 -2118315</internalNodes>
          <leafValues>
            -3.5125464200973511e-01 5.4002451896667480e-01</leafValues></_>
        <_>
          <internalNodes>
            0 -1 83 1606287359 530251772 -16843076 -1109524484
            1602052095 536674302 -17019314 855080951</internalNodes>
          <leafValues>
            -3.6799159646034241e-01 5.2039647102355957e-01</leafValues></_>
        <_>
          <internalNodes>
            0 -1 99 297893639 999366672 8665486 -1895345877 1661022445
            -763166584 -978761457 -1392645129</internalNodes>
          <leafValues>
            -4.6293628215789795e-01 4.0994575619697571e-01</leafValues></_>
        <_>
          <internalNodes>
            0 -1 50 190602 1939652996 17514975 936444225 1769998761
            484999360 1786977211 764086439</internalNodes>
          <leafValues>
            -5.4580372571945190e-01 3.4801647067070007e-01</leafValues></_>
        <_>
          <internalNodes>
            0 -1 90 -575408389 -279916336 138580 -539426724 -880110925
            1363148832 786114712 1409258394</internalNodes>
          <leafValues>
            -4.3429979681968689e-01 4.2617812752723694e-01</leafValues></_>
        <_>
          <internalNodes>
            0 -1 86 1360058363 159961274 273453340 -410353494 1214273753
            294649908 -1146463608 1660911190</internalNodes>
          <leafValues>
            -5.1790332794189453e-01 3.1781405210494995e-01</leafValues></_></weakClassifiers></_>
    <!-- stage 8 -->
    <_>
      <maxWeakCount>10</maxWeakCount>
      <stageThreshold>-1.0659884214401245e+00</stageThreshold>
      <weakClassifiers>
        <_>
          <internalNodes>
            0 -1 42 -1028 -8 2147213823 -1960 -268698120 -789520144
            -1076777992 1934749808</internalNodes>
          <leafValues>
            -4.6272605657577515e-01 4.8710107803344727e-01</leafValues></_>
        <_>
          <internalNodes>
            0 -1 55 -711132164 -116588404 -788476760 1159580224
            -1448494152 -812006996 -72809557 1700119298</internalNodes>
          <leafValues>
            -6.8583506345748901e-01 2.6519551873207092e-01</leafValues></_>
        <_>
          <internalNodes>
            0 -1 113 -2097202 -2621442 -16908915 -1074528577 -698485316
            -44696332 2050380314 991165819</internalNodes>
          <leafValues>
            -3.5913610458374023e-01 4.3440076708793640e-01</leafValues></_>
        <_>
          <internalNodes>
            0 -1 109 -545980421 -1523536080 -16645 -1275398492
            1416953044 2012676084 -1364218436 -261</internalNodes>
          <leafValues>
            -2.9067599773406982e-01 5.6095623970031738e-01</leafValues></_>
        <_>
          <internalNodes>
            0 -1 138 -438831201 -1988050814 -771308805 -1096973304
            -2142111245 -369065736 -388101892 -318767380</internalNodes>
          <leafValues>
            -4.1794741153717041e-01 3.6542820930480957e-01</leafValues></_>
        <_>
          <internalNodes>
            0 -1 105 -778494704 1360085072 285279458 -548057048
            -1987943920 1477447696 -1740052276 2004221687</internalNodes>
          <leafValues>
            -5.3842675685882568e-01 3.0035835504531860e-01</leafValues></_>
        <_>
          <internalNodes>
            0 -1 32 -491852147 456065830 -8272871 1070270251 -527789573
            -337892943 -92238497 -71308594</internalNodes>
          <leafValues>
            -4.1933354735374451e-01 3.6186677217483521e-01</leafValues></_>
        <_>
          <internalNodes>
            0 -1 37 -1 -2293774 -196614 -37662483 -1 -807600132 -204869
            1570733563</internalNodes>
          <leafValues>
            -3.3194932341575623e-01 4.7362419962882996e-01</leafValues></_>
        <_>
          <internalNodes>
            0 -1 111 -923795403 -946560041 -2095478371 -41451304
            547401965 -1159679359 -1467430405 -593819004</internalNodes>
          <leafValues>
            -3.9672571420669556e-01 3.6961349844932556e-01</leafValues></_>
        <_>
          <internalNodes>
            0 -1 99 1440088063 428965685 -1650393824 -1213956293
            1423203836 -229377 -1093153394 -17436841</internalNodes>
          <leafValues>
            -3.6283886432647705e-01 4.2525926232337952e-01</leafValues></_></weakClassifiers></_>
    <!-- stage 9 -->
    <_>
      <maxWeakCount>11</maxWeakCount>
      <stageThreshold>-9.0825706720352173e-01</stageThreshold>
      <weakClassifiers>
        <_>
          <internalNodes>
            0 -1 61 -438243394 -1626800224 -1052971619 -655520
            -269725986 -10682380 -268632402 1962246132</internalNodes>
          <leafValues>
            -3.9105692505836487e-01 4.8849207162857056e-01</leafValues></_>
        <_>
          <internalNodes>
            0 -1 129 -34209793 1897987536 1879015406 -1079459948
            1297087997 2134245237 -268443668 -285220876</internalNodes>
          <leafValues>
            -3.9350211620330811e-01 4.2478865385055542e-01</leafValues></_>
        <_>
          <internalNodes>
            0 -1 131 -42118025 -604514473 -540681 -772919402 -67122023
            -4243723 -262177 -1112601025</internalNodes>
          <leafValues>
            -3.2523494958877563e-01 4.5845356583595276e-01</leafValues></_>
        <_>
          <internalNodes>
            0 -1 81 2136997855 1032716188 2130476416 -1377042522
            -565911560 2147483647 -294256832 -487194777</internalNodes>
          <leafValues>
            -3.7437999248504639e-01 4.1076520085334778e-01</leafValues></_>
        <_>
          <internalNodes>
            0 -1 58 14812330 487608719 738230308 -981346232 83431356
            2069430990 -132515270 893365166</internalNodes>
          <leafValues>
            -6.1897438764572144e-01 2.0566672086715698e-01</leafValues></_>
        <_>
          <internalNodes>
            0 -1 98 1944450046 -747536292 -1795045432 -1679821877
            -1680950294 -887586264 -1285450866 1633151503</internalNodes>
          <leafValues>
            -3.8569930195808411e-01 3.8075077533721924e-01</leafValues></_>
        <_>
          <internalNodes>
            0 -1 8 -788464719 -1622654976 16777216 -1624232400
            -2147433523 -351778544 1594886734 2135193924</internalNodes>
          <leafValues>
            -6.1314916610717773e-01 2.4260301887989044e-01</leafValues></_>
        <_>
          <internalNodes>
            0 -1 82 1494480887 -577571508 -737898148 -577374152
            -483138582 190619932 -356910406 827410466</internalNodes>
          <leafValues>
            -5.5870556831359863e-01 2.1009664237499237e-01</leafValues></_>
        <_>
          <internalNodes>
            0 -1 43 -1710033409 -822079116 -671055578 -1615120102
            -939201656 1267761665 1268279866 1186941950</internalNodes>
          <leafValues>
            -4.3372890353202820e-01 3.3880662918090820e-01</leafValues></_>
        <_>
          <internalNodes>
            0 -1 91 -1164929829 -1194164024 -1861640997 -1109423613
            -1320768513 -1329069949 -55866450 -2098718272</internalNodes>
          <leafValues>
            -3.5911649465560913e-01 3.8330006599426270e-01</leafValues></_>
        <_>
          <internalNodes>
            0 -1 135 -76024985 805667233 -787691232 -1979097020
            -69504028 2068382795 -358917972 2094527223</internalNodes>
          <leafValues>
            -3.7400811910629272e-01 3.5603082180023193e-01</leafValues></_></weakClassifiers></_>
    <!-- stage 10 -->
    <_>
      <maxWeakCount>12</maxWeakCount>
      <stageThreshold>-1.3140065670013428e+00</stageThreshold>
      <weakClassifiers>
        <_>
          <internalNodes>
            0 -1 140 -588819433 -729874635 -25429121 -580584650
            -168465324 -168304777 -428409345 -51577233</internalNodes>
          <leafValues>
            -2.2689610719680786e-01 5.0710684061050415e-01</leafValues></_>
        <_>
          <internalNodes>
            0 -1 78 2101673967 1057554319 1928070160 -1381389023
            1598377975 -1 1207905743 -1360658489</internalNodes>
          <leafValues>
            -3.3685454726219177e-01 3.9443394541740417e-01</leafValues></_>
        <_>
          <internalNodes>
            0 -1 66 1473903583 302575799 -1282377326 -1892099330
            407919980 1901524710 -84522492 1055326069</internalNodes>
          <leafValues>
            -5.4307013750076294e-01 2.4365854263305664e-01</leafValues></_>
        <_>
          <internalNodes>
            0 -1 102 -545914881 -1088356400 -268435859 -1356730430
            1154252284 -65537 -570441905 -419430409</internalNodes>
          <leafValues>
            -2.8805518150329590e-01 4.2857831716537476e-01</leafValues></_>
        <_>
          <internalNodes>
            0 -1 87 -574630401 -585972144 -1337704386 -339228418
            1359668733 1259634904 1621834750 666894335</internalNodes>
          <leafValues>
            -3.7514081597328186e-01 3.3888813853263855e-01</leafValues></_>
        <_>
          <internalNodes>
            0 -1 46 -1818394119 -1107752010 488736255 -1512766912
            713173423 -1345838429 -1450266850 30474245</internalNodes>
          <leafValues>
            -4.1745084524154663e-01 3.1829905509948730e-01</leafValues></_>
        <_>
          <internalNodes>
            0 -1 118 -782240429 1561788435 1346900192 -1423343526
            -183763468 1819902289 -376718644 2004868019</internalNodes>
          <leafValues>
            -4.3610167503356934e-01 2.7834612131118774e-01</leafValues></_>
        <_>
          <internalNodes>
            0 -1 57 2116453582 166081098 -2113248062 1803643138
            1505853583 2055372938 -22320677 1692233575</internalNodes>
          <leafValues>
            -4.3639725446701050e-01 2.8805375099182129e-01</leafValues></_>
        <_>
          <internalNodes>
            0 -1 26 -114168465 -38320681 -2096623550 1060127094
            -1241495535 1747007601 -97599936 1981874018</internalNodes>
          <leafValues>
            -5.3857010602951050e-01 2.3077990114688873e-01</leafValues></_>
        <_>
          <internalNodes>
            0 -1 16 -359666193 -1567987485 1348682543 -753150
            -1051794965 -1331657718 -233971036 -424447217</internalNodes>
          <leafValues>
            -4.0118190646171570e-01 3.0573734641075134e-01</leafValues></_>
        <_>
          <internalNodes>
            0 -1 80 -1341066488 1461035268 -2145386216 -1091099641
            830761116 2075164899 -107353976 882105442</internalNodes>
          <leafValues>
            -6.3707858324050903e-01 1.8052567541599274e-01</leafValues></_>
        <_>
          <internalNodes>
            0 -1 67 -1313357361 -117436016 1094733968 -945991208
            1887961994 235178582 -1145931332 1947721727</internalNodes>
          <leafValues>
            -4.4084498286247253e-01 2.6657432317733765e-01</leafValues></_></weakClassifiers></_>
    <!-- stage 11 -->
    <_>
      <maxWeakCount>11</maxWeakCount>
      <stageThreshold>-1.3858100175857544e+00</stageThreshold>
      <weakClassifiers>
        <_>
          <internalNodes>
            0 -1 35 -2437890 -208617518 -273494790 -1393025200
            1567948287 1558511611 -33759266 1157586654</internalNodes>
          <leafValues>
            -3.6305731534957886e-01 4.8356053233146667e-01</leafValues></_>
        <_>
          <internalNodes>
            0 -1 72 1360117888 1507192906 491516881 1065025642
            1341902303 -368670565 1541534459 2138045231</internalNodes>
          <leafValues>
            -5.3429281711578369e-01 2.7877670526504517e-01</leafValues></_>
        <_>
          <internalNodes>
            0 -1 68 -749872129 1415610645 1614926168 -6893306 -670804704
            1476409732 -87229924 -84483230</internalNodes>
          <leafValues>
            -4.5724302530288696e-01 3.0802589654922485e-01</leafValues></_>
        <_>
          <internalNodes>
            0 -1 108 -145502084 1427427376 1215553744 -1252278248
            -1848540688 1497211072 -1159462914 975941879</internalNodes>
          <leafValues>
            -3.9220988750457764e-01 3.3740791678428650e-01</leafValues></_>
        <_>
          <internalNodes>
            0 -1 21 -2145719074 174883356 1375733934 -839214 -938475272
            1250992265 1535660271 1171651515</internalNodes>
          <leafValues>
            -4.0670233964920044e-01 3.2773986458778381e-01</leafValues></_>
        <_>
          <internalNodes>
            0 -1 28 -1609904481 -149192492 -1660598049 -73580203
            -1053639702 -246775662 -1441404695 -529530</internalNodes>
          <leafValues>
            -3.6399513483047485e-01 3.8211894035339355e-01</leafValues></_>
        <_>
          <internalNodes>
            0 -1 117 1364530007 421380156 -1340575493 -2017290818
            -1735113932 1536819228 -116687268 -1325614346</internalNodes>
          <leafValues>
            -4.4026619195938110e-01 3.1838446855545044e-01</leafValues></_>
        <_>
          <internalNodes>
            0 -1 127 1410724709 387219632 294691208 1060586276
            -107779112 2067751384 -1417102612 1760476150</internalNodes>
          <leafValues>
            -4.5895612239837646e-01 2.7099657058715820e-01</leafValues></_>
        <_>
          <internalNodes>
            0 -1 146 -974659593 639696885 -249928 1040121572 -303579667
            208983511 -321016596 -1395658754</internalNodes>
          <leafValues>
            -3.1960967183113098e-01 4.1389673948287964e-01</leafValues></_>
        <_>
          <internalNodes>
            0 -1 142 -730203952 -654210815 270115637 -34223892
            -238777888 -666885079 -628846560 78769915</internalNodes>
          <leafValues>
            -4.4187340140342712e-01 2.9653790593147278e-01</leafValues></_>
        <_>
          <internalNodes>
            0 -1 33 88588891 -660830033 67420240 -27189840 134417035
            -1442152446 -889023798 -615126414</internalNodes>
          <leafValues>
            -3.7205624580383301e-01 3.3463722467422485e-01</leafValues></_></weakClassifiers></_>
    <!-- stage 12 -->
    <_>
      <maxWeakCount>12</maxWeakCount>
      <stageThreshold>-1.0343172550201416e+00</stageThreshold>
      <weakClassifiers>
        <_>
          <internalNodes>
            0 -1 18 -489754898 14741122 -285283322 -530911742 2105300439
            1953923070 -16829186 -452987681</internalNodes>
          <leafValues>
            -3.7819024920463562e-01 5.0427353382110596e-01</leafValues></_>
        <_>
          <internalNodes>
            0 -1 54 1314967208 2102512032 -724945393 902133282
            1263016702 2147213986 2108366091 1760770527</internalNodes>
          <leafValues>
            -5.4457914829254150e-01 2.9476004838943481e-01</leafValues></_>
        <_>
          <internalNodes>
            0 -1 121 -741869571 -1338860112 -753544867 -1347759152
            1500857180 2041940308 -3188495 -50331652</internalNodes>
          <leafValues>
            -4.2022663354873657e-01 3.3301481604576111e-01</leafValues></_>
        <_>
          <internalNodes>
            0 -1 99 1435598829 789970901 -1380783101 -809238729
            1439784703 1610547199 -33862129 -50331785</internalNodes>
          <leafValues>
            -2.8999632596969604e-01 4.2063382267951965e-01</leafValues></_>
        <_>
          <internalNodes>
            0 -1 124 -774503097 -107954041 -721336099 -74186546
            -929975301 -779565926 -763184181 -475218985</internalNodes>
          <leafValues>
            -3.5721412301063538e-01 3.4238034486770630e-01</leafValues></_>
        <_>
          <internalNodes>
            0 -1 79 2147483647 -2018713602 -16842754 -1077936130 -65572
            -131074 -131076 594501535</internalNodes>
          <leafValues>
            -3.1595817208290100e-01 4.2893135547637939e-01</leafValues></_>
        <_>
          <internalNodes>
            0 -1 115 1364324863 995672323 294802316 -1684176880
            -922217512 2066415769 -259213540 -1392677001</internalNodes>
          <leafValues>
            -3.8532963395118713e-01 3.1916722655296326e-01</leafValues></_>
        <_>
          <internalNodes>
            0 -1 65 -17 -67305743 2147384120 2075917362 -268443664
            -229574668 -1331519566 2136586847</internalNodes>
          <leafValues>
            -3.1900250911712646e-01 3.7094444036483765e-01</leafValues></_>
        <_>
          <internalNodes>
            0 -1 58 445155512 424935820 1326982601 2138063202
            -1031503190 1521123480 -406648100 950532908</internalNodes>
          <leafValues>
            -4.4879060983657837e-01 2.6526153087615967e-01</leafValues></_>
        <_>
          <internalNodes>
            0 -1 130 -287707171 613702933 -1056206377 -1497517920
            -925683603 -1590836955 472078589 -1460685844</internalNodes>
          <leafValues>
            -3.5755679011344910e-01 3.3515036106109619e-01</leafValues></_>
        <_>
          <internalNodes>
            0 -1 31 -389412150 1567240387 -1858043886 915087873
            -249784310 -624295863 -242857970 -137925689</internalNodes>
          <leafValues>
            -3.9347293972969055e-01 2.7969411015510559e-01</leafValues></_>
        <_>
          <internalNodes>
            0 -1 84 1083277722 1359450950 16967301 -1412496892 153160620
            1511752203 -64238594 1693711287</internalNodes>
          <leafValues>
            -3.6150631308555603e-01 3.3104237914085388e-01</leafValues></_></weakClassifiers></_>
    <!-- stage 13 -->
    <_>
      <maxWeakCount>14</maxWeakCount>
      <stageThreshold>-9.2170220613479614e-01</stageThreshold>
      <weakClassifiers>
        <_>
          <internalNodes>
            0 -1 40 -1347747960 -11534482 -1642738 -201850896 1333743583
            -545300611 1991042252 390027019</internalNodes>
          <leafValues>
            -3.8280099630355835e-01 4.1701737046241760e-01</leafValues></_>
        <_>
          <internalNodes>
            0 -1 102 1934750463 1057178449 20152399 -318389376 276824120
            -1297055613 429500510 -1527447753</internalNodes>
          <leafValues>
            -4.0985366702079773e-01 2.8782436251640320e-01</leafValues></_>
        <_>
          <internalNodes>
            0 -1 78 1346764287 1057357755 1928070156 -1915900511
            1550142839 -1 -302690593 -1126301753</internalNodes>
          <leafValues>
            -3.0489709973335266e-01 3.6579668521881104e-01</leafValues></_>
        <_>
          <internalNodes>
            0 -1 128 -646713347 302006544 -132495464 -1800219516
            1754790325 806715393 -371341252 654244852</internalNodes>
          <leafValues>
            -5.5253803730010986e-01 2.2301267087459564e-01</leafValues></_>
        <_>
          <internalNodes>
            0 -1 132 -923661051 -99430315 -645178217 -1618884428
            -1195212140 -7815025 -1296987989 -285241394</internalNodes>
          <leafValues>
            -3.7975409626960754e-01 2.7698710560798645e-01</leafValues></_>
        <_>
          <internalNodes>
            0 -1 69 -641213033 -738536240 -905324716 -13427454
            -616423656 2118449296 -1366066678 -11670</internalNodes>
          <leafValues>
            -3.6733081936836243e-01 3.0365270376205444e-01</leafValues></_>
        <_>
          <internalNodes>
            0 -1 93 -192770125 -51142675 -1115701257 -1208762437
            -20983837 -1 -1367765077 -1109676373</internalNodes>
          <leafValues>
            -1.9873656332492828e-01 5.0049120187759399e-01</leafValues></_>
        <_>
          <internalNodes>
            0 -1 126 -716570944 587301004 268685632 1073725906
            -107331444 1807974563 -1473594802 549055063</internalNodes>
          <leafValues>
            -3.9805710315704346e-01 2.6797881722450256e-01</leafValues></_>
        <_>
          <internalNodes>
            0 -1 36 -957701970 458003598 4221071 635474122 -1073042547
            2073770121 -1156797560 1432852731</internalNodes>
          <leafValues>
            -5.3281712532043457e-01 2.0448790490627289e-01</leafValues></_>
        <_>
          <internalNodes>
            0 -1 122 -388503641 -992954907 -502139816 1941168016
            -82908987 16793776 -1128726808 1828661818</internalNodes>
          <leafValues>
            -3.9015522599220276e-01 2.7695316076278687e-01</leafValues></_>
        <_>
          <internalNodes>
            0 -1 119 1463263709 656460660 17666509 -1415918948
            2035827952 1394311219 -374596804 1056963572</internalNodes>
          <leafValues>
            -4.8162931203842163e-01 2.2442984580993652e-01</leafValues></_>
        <_>
          <internalNodes>
            0 -1 83 1566439933 227160284 -1291845300 -1077364284
            2051541736 865862282 -1306376172 854981620</internalNodes>
          <leafValues>
            -6.6260504722595215e-01 1.5518207848072052e-01</leafValues></_>
        <_>
          <internalNodes>
            0 -1 145 -2091649101 439439363 537411600 -887611262
            1619994853 1565674400 -933142284 -473960517</internalNodes>
          <leafValues>
            -3.4291374683380127e-01 3.0868440866470337e-01</leafValues></_>
        <_>
          <internalNodes>
            0 -1 9 -1324099223 -83738143 1410358646 2110964736
            -250345215 2064011300 -1166001918 -614236395</internalNodes>
          <leafValues>
            -3.9502283930778503e-01 2.7407142519950867e-01</leafValues></_></weakClassifiers></_>
    <!-- stage 14 -->
    <_>
      <maxWeakCount>16</maxWeakCount>
      <stageThreshold>-9.9662530422210693e-01</stageThreshold>
      <weakClassifiers>
        <_>
          <internalNodes>
            0 -1 15 -370675721 -1373589884 -1082130451 -303390
            1828703999 -390791171 -437957171 -168857886</internalNodes>
          <leafValues>
            -1.3121923804283142e-01 5.1535660028457642e-01</leafValues></_>
        <_>
          <internalNodes>
            0 -1 101 -1055673864 354484224 206656000 989937666
            -619994200 -1191116664 -1701990690 922999758</internalNodes>
          <leafValues>
            -4.0798044204711914e-01 2.9616993665695190e-01</leafValues></_>
        <_>
          <internalNodes>
            0 -1 63 1610407422 364183535 -1828 -807403522 -242434
            2147475455 -41380 -150994953</internalNodes>
          <leafValues>
            -2.6050448417663574e-01 4.1092193126678467e-01</leafValues></_>
        <_>
          <internalNodes>
            0 -1 50 278956642 971690041 1942051537 2006406465 -105846530
            1543043242 -190782001 1610308147</internalNodes>
          <leafValues>
            -4.3031966686248779e-01 2.3567657172679901e-01</leafValues></_>
        <_>
          <internalNodes>
            0 -1 89 -673194035 -172699435 -381565648 -774382630
            -910533736 1342480720 -1381241090 1979711419</internalNodes>
          <leafValues>
            -3.4559249877929688e-01 3.0638492107391357e-01</leafValues></_>
        <_>
          <internalNodes>
            0 -1 59 1360089518 1396637964 295504828 -1346401656
            674332830 -125173608 -1188396614 1573354202</internalNodes>
          <leafValues>
            -3.6013641953468323e-01 2.8533753752708435e-01</leafValues></_>
        <_>
          <internalNodes>
            0 -1 104 -783032837 994574448 25493716 -1379217000 822215640
            1943077017 -74958022 -1426316297</internalNodes>
          <leafValues>
            -4.0734100341796875e-01 2.6557710766792297e-01</leafValues></_>
        <_>
          <internalNodes>
            0 -1 73 1900149744 -739040895 221711355 1805626163
            1879368411 -1526620023 421614751 2147191307</internalNodes>
          <leafValues>
            -4.1613581776618958e-01 2.5826767086982727e-01</leafValues></_>
        <_>
          <internalNodes>
            0 -1 120 -750009675 -240004981 69064856 1213469888 948023796
            1290883505 -8659512 1635119987</internalNodes>
          <leafValues>
            -4.4878256320953369e-01 2.3935253918170929e-01</leafValues></_>
        <_>
          <internalNodes>
            0 -1 60 1347687134 559845582 -2147053560 -296137908
            1363677358 -71491447 -221247141 -423136649</internalNodes>
          <leafValues>
            -3.9885464310646057e-01 2.6175218820571899e-01</leafValues></_>
        <_>
          <internalNodes>
            0 -1 88 1507715519 302039460 -1316271341 -1280442112
            1104968596 1574700965 -85583108 -1078465618</internalNodes>
          <leafValues>
            -3.1425294280052185e-01 3.2545983791351318e-01</leafValues></_>
        <_>
          <internalNodes>
            0 -1 30 -1440567657 -1096766618 -17068289 -211026447
            -302395746 -3 -51384859 -153</internalNodes>
          <leafValues>
            -3.1248784065246582e-01 3.3729937672615051e-01</leafValues></_>
        <_>
          <internalNodes>
            0 -1 107 1574821727 528285692 -69 -1180237832 -545300996
            2145386495 -65572 -16777229</internalNodes>
          <leafValues>
            -2.8095379471778870e-01 3.6741071939468384e-01</leafValues></_>
        <_>
          <internalNodes>
            0 -1 78 1901450317 838893771 318816284 261210291 1137656080
            2132361411 1805197517 803208003</internalNodes>
          <leafValues>
            -3.4095206856727600e-01 3.1217482686042786e-01</leafValues></_>
        <_>
          <internalNodes>
            0 -1 5 -77209775 673918054 1064828903 -520117200 343211871
            875838975 -629818347 -529158441</internalNodes>
          <leafValues>
            -2.8387603163719177e-01 3.5958525538444519e-01</leafValues></_>
        <_>
          <internalNodes>
            0 -1 23 -1006579565 -266694597 1376819834 -548120494
            167920178 1610909705 -99087848 1977937905</internalNodes>
          <leafValues>
            -4.8317328095436096e-01 2.0538428425788879e-01</leafValues></_></weakClassifiers></_>
    <!-- stage 15 -->
    <_>
      <maxWeakCount>15</maxWeakCount>
      <stageThreshold>-1.1436053514480591e+00</stageThreshold>
      <weakClassifiers>
        <_>
          <internalNodes>
            0 -1 27 1879112398 1057878622 -1342107133 446435928
            -94514818 -1322974184 -1042885266 -1081083170</internalNodes>
          <leafValues>
            -4.1230067610740662e-01 3.8718661665916443e-01</leafValues></_>
        <_>
          <internalNodes>
            0 -1 116 -1314148332 -1786277365 1414103812 1068435503
            -99907444 2067401217 -1187566516 830417527</internalNodes>
          <leafValues>
            -4.4969162344932556e-01 2.4269832670688629e-01</leafValues></_>
        <_>
          <internalNodes>
            0 -1 20 -1438456609 814878999 -2143268204 -91041614
            -2146367313 607944993 -1199312741 -201884993</internalNodes>
          <leafValues>
            -3.1086078286170959e-01 3.2771870493888855e-01</leafValues></_>
        <_>
          <internalNodes>
            0 -1 67 366335445 1359249572 -2146028680 -549124928
            -1064825972 1246792592 -477565192 1938262931</internalNodes>
          <leafValues>
            -4.5694112777709961e-01 2.0954529941082001e-01</leafValues></_>
        <_>
          <internalNodes>
            0 -1 91 -1137375015 -580970913 -805267361 -1151532857
            -1104628994 -1181122486 -1168170562 -1465253368</internalNodes>
          <leafValues>
            -4.3511742353439331e-01 2.2677846252918243e-01</leafValues></_>
        <_>
          <internalNodes>
            0 -1 114 1950996477 337117240 296532484 -321302188 -98561832
            -643299703 2057664526 -26381753</internalNodes>
          <leafValues>
            -3.5139387845993042e-01 2.8347757458686829e-01</leafValues></_>
        <_>
          <internalNodes>
            0 -1 137 -1047293441 1024528744 -1055731367 -203585328
            1882413429 -735860439 -1600230660 -303056202</internalNodes>
          <leafValues>
            -3.2592853903770447e-01 3.1495043635368347e-01</leafValues></_>
        <_>
          <internalNodes>
            0 -1 43 -1701703468 -620756986 340415732 -1088876072
            180636620 223347168 -1471089994 26459122</internalNodes>
          <leafValues>
            -4.5444187521934509e-01 2.2992998361587524e-01</leafValues></_>
        <_>
          <internalNodes>
            0 -1 99 96600015 -1852653495 537449390 799490311 -875752517
            -71171965 -905635061 -23106697</internalNodes>
          <leafValues>
            -3.2073879241943359e-01 3.1883916258811951e-01</leafValues></_>
        <_>
          <internalNodes>
            0 -1 81 1398657279 185242530 1358987470 -1485975162
            -666844515 -72701455 -2004055478 -118133901</internalNodes>
          <leafValues>
            -3.6015346646308899e-01 2.9820567369461060e-01</leafValues></_>
        <_>
          <internalNodes>
            0 -1 96 -15344240 -80379184 1260853300 -610533295 2046927551
            -1199013720 370878606 578627599</internalNodes>
          <leafValues>
            -4.4897037744522095e-01 2.3243865370750427e-01</leafValues></_>
        <_>
          <internalNodes>
            0 -1 112 2022755393 1000194053 -1793599327 -36716387
            1218989185 -1196947317 -107911157 866736247</internalNodes>
          <leafValues>
            -4.2795738577842712e-01 2.1413512527942657e-01</leafValues></_>
        <_>
          <internalNodes>
            0 -1 141 -776228843 -714949058 -545460244 -101056601
            -1997241340 -134217835 -1930101618 -190317112</internalNodes>
          <leafValues>
            -3.0109444260597229e-01 3.1892925500869751e-01</leafValues></_>
        <_>
          <internalNodes>
            0 -1 25 -838924227 1537058653 -1358999809 2067402623
            -9042859 -1216915629 -17007491 -15501487</internalNodes>
          <leafValues>
            -2.9389300942420959e-01 3.3653411269187927e-01</leafValues></_>
        <_>
          <internalNodes>
            0 -1 123 -2028735577 545820822 328470801 1083179136
            976884691 217648664 1897400520 1045628</internalNodes>
          <leafValues>
            -5.0208151340484619e-01 1.7874458432197571e-01</leafValues></_></weakClassifiers></_>
    <!-- stage 16 -->
    <_>
      <maxWeakCount>16</maxWeakCount>
      <stageThreshold>-9.8018097877502441e-01</stageThreshold>
      <weakClassifiers>
        <_>
          <internalNodes>
            0 -1 133 1969945056 -1291738064 17432996 -6576695 1617486016
            1000247400 -1369429440 976386934</internalNodes>
          <leafValues>
            -4.4992741942405701e-01 3.4629204869270325e-01</leafValues></_>
        <_>
          <internalNodes>
            0 -1 85 -1 -198412 -1090716548 -251981712 -269101060
            -187638532 -402719958 2132135391</internalNodes>
          <leafValues>
            -2.9954850673675537e-01 3.1823331117630005e-01</leafValues></_>
        <_>
          <internalNodes>
            0 -1 47 -1566328521 -605037004 2147471359 -537002332
            -319819779 -150994953 -1934098977 -322189329</internalNodes>
          <leafValues>
            -2.5651758909225464e-01 3.6889377236366272e-01</leafValues></_>
        <_>
          <internalNodes>
            0 -1 105 -1807019907 -1828618223 322965750 -1110473721
            -1968463720 2014941187 -1195513634 662146483</internalNodes>
          <leafValues>
            -3.7962555885314941e-01 2.3922975361347198e-01</leafValues></_>
        <_>
          <internalNodes>
            0 -1 38 1591199999 -807206948 -18010274 -1077294 769608956
            1979383806 -16810145 -131073</internalNodes>
          <leafValues>
            -2.1129743754863739e-01 4.3623206019401550e-01</leafValues></_>
        <_>
          <internalNodes>
            0 -1 86 2002057695 527994958 -2130329594 -17674022
            1350586540 2147090659 -224720354 -134225422</internalNodes>
          <leafValues>
            -3.5661405324935913e-01 2.8778114914894104e-01</leafValues></_>
        <_>
          <internalNodes>
            0 -1 75 -402425081 942796676 -277074115 -270434521
            1565810139 2147483647 -60854769 -453545993</internalNodes>
          <leafValues>
            -3.0575132369995117e-01 3.3316990733146667e-01</leafValues></_>
        <_>
          <internalNodes>
            0 -1 66 1574961151 322347002 -1078002052 -1614840074
            -101561148 -204802 -18198708 -1074266126</internalNodes>
          <leafValues>
            -2.3365426063537598e-01 4.0623250603675842e-01</leafValues></_>
        <_>
          <internalNodes>
            0 -1 45 -149034113 -650067689 -1844423902 -653256174
            -108889824 1895841812 -645891040 1991273234</internalNodes>
          <leafValues>
            -5.5362349748611450e-01 1.6548985242843628e-01</leafValues></_>
        <_>
          <internalNodes>
            0 -1 34 -393346393 1317989956 1074336779 -69862558
            1527718347 -117204608 974625455 1961846743</internalNodes>
          <leafValues>
            -3.7004411220550537e-01 2.5434857606887817e-01</leafValues></_>
        <_>
          <internalNodes>
            0 -1 95 1224996224 -53038636 -1188820003 -1088219938
            235017371 -867688312 1122030315 2115197871</internalNodes>
          <leafValues>
            -3.6704546213150024e-01 2.6024603843688965e-01</leafValues></_>
        <_>
          <internalNodes>
            0 -1 109 -763506153 590381250 -536767856 -344812400
            1342963740 2118811808 -1567446488 -1409324378</internalNodes>
          <leafValues>
            -3.0481186509132385e-01 3.1006446480751038e-01</leafValues></_>
        <_>
          <internalNodes>
            0 -1 71 -777809229 -185081160 -1224892677 -332906769
            -385878633 -805568514 -1091995158 -269027418</internalNodes>
          <leafValues>
            -2.6437550783157349e-01 3.6353635787963867e-01</leafValues></_>
        <_>
          <internalNodes>
            0 -1 22 -253815939 -1626057903 75911560 1050693650
            -2136460469 -1299995892 -1505715608 -235544218</internalNodes>
          <leafValues>
            -3.2944351434707642e-01 2.8382754325866699e-01</leafValues></_>
        <_>
          <internalNodes>
            0 -1 100 1935397424 995131557 52762025 -14974829 1506314696
            960102586 -1197798646 1964974307</internalNodes>
          <leafValues>
            -4.0438777208328247e-01 2.2599762678146362e-01</leafValues></_>
        <_>
          <internalNodes>
            0 -1 97 1814162695 1035194420 -1608462961 -896679743
            1791326717 -87523187 -326866821 1823331299</internalNodes>
          <leafValues>
            -3.7594887614250183e-01 2.4583694338798523e-01</leafValues></_></weakClassifiers></_>
    <!-- stage 17 -->
    <_>
      <maxWeakCount>17</maxWeakCount>
      <stageThreshold>-9.8383158445358276e-01</stageThreshold>
      <weakClassifiers>
        <_>
          <internalNodes>
            0 -1 10 -400307335 -135283291 -1946165387 -16459 -335237457
            -419430433 -582615298 -373555217</internalNodes>
          <leafValues>
            -3.0728708952665329e-02 5.5706518888473511e-01</leafValues></_>
        <_>
          <internalNodes>
            0 -1 119 2138566645 1060175860 -1073889297 -340328708
            2105499509 2142765055 -34603138 -1363181633</internalNodes>
          <leafValues>
            -2.2655190527439117e-01 3.8802561163902283e-01</leafValues></_>
        <_>
          <internalNodes>
            0 -1 61 1702937336 520618016 152306397 -543305438
            -1174241128 -569900526 -1425220980 2000632823</internalNodes>
          <leafValues>
            -3.4936681389808655e-01 2.5935548543930054e-01</leafValues></_>
        <_>
          <internalNodes>
            0 -1 88 1368193527 37781640 -243182329 -1413823854
            1302879512 -1078165117 -99718412 -1073782282</internalNodes>
          <leafValues>
            -3.5785639286041260e-01 2.4237471818923950e-01</leafValues></_>
        <_>
          <internalNodes>
            0 -1 136 1539830265 956547328 269554168 -1492778808 27875445
            2047587489 -90191812 -17964105</internalNodes>
          <leafValues>
            -2.7267441153526306e-01 3.2256960868835449e-01</leafValues></_>
        <_>
          <internalNodes>
            0 -1 99 365032671 1069645841 2143052 -889114341 1353212360
            -68222333 67115598 -1895859465</internalNodes>
          <leafValues>
            -3.5271510481834412e-01 2.4190421402454376e-01</leafValues></_>
        <_>
          <internalNodes>
            0 -1 124 -585759401 -107461618 1879117915 -845806942
            -483851777 -366868084 -1173918502 1803888075</internalNodes>
          <leafValues>
            -3.9443144202232361e-01 2.1267895400524139e-01</leafValues></_>
        <_>
          <internalNodes>
            0 -1 74 -1409682546 -1423376380 626000152 -393412248
            -1601699058 -1442250622 -70744914 1716553620</internalNodes>
          <leafValues>
            -5.5172026157379150e-01 1.6983713209629059e-01</leafValues></_>
        <_>
          <internalNodes>
            0 -1 17 810959582 -46092270 25198754 -2051030160 134914078
            -845675900 -2113306438 1164789491</internalNodes>
          <leafValues>
            -3.9263203740119934e-01 2.3681522905826569e-01</leafValues></_>
        <_>
          <internalNodes>
            0 -1 1 -266504743 -537745432 243073907 1731657888
            -1208025382 -270563329 -1367879941 1207386189</internalNodes>
          <leafValues>
            -2.4532440304756165e-01 3.8693892955780029e-01</leafValues></_>
        <_>
          <internalNodes>
            0 -1 115 1549663743 2105147249 -786517 -272629784 2145279836
            2147450871 2135194958 -16943113</internalNodes>
          <leafValues>
            -2.6146331429481506e-01 3.2893076539039612e-01</leafValues></_>
        <_>
          <internalNodes>
            0 -1 144 -220739433 274202773 1343226054 957808646
            -1853242400 1143639176 -1196488064 15196646</internalNodes>
          <leafValues>
            -3.6931249499320984e-01 2.3825283348560333e-01</leafValues></_>
        <_>
          <internalNodes>
            0 -1 70 -1010043019 1506232501 -1878978055 834339771
            -568831916 -1840642011 -99550356 -1230361294</internalNodes>
          <leafValues>
            -3.2431352138519287e-01 2.5887051224708557e-01</leafValues></_>
        <_>
          <internalNodes>
            0 -1 108 1099022608 1478304032 268494728 -1331969816
            310421740 422873616 -635791042 2003281907</internalNodes>
          <leafValues>
            -3.8609445095062256e-01 2.4106137454509735e-01</leafValues></_>
        <_>
          <internalNodes>
            0 -1 64 17928192 1393033368 21267256 -538628068 805445760
            237043883 -354154152 883192226</internalNodes>
          <leafValues>
            -6.3647997379302979e-01 1.3077673316001892e-01</leafValues></_>
        <_>
          <internalNodes>
            0 -1 53 -1039662485 682111378 1747026179 -421453612
            352998124 2122358920 -392578117 1685549879</internalNodes>
          <leafValues>
            -4.5840567350387573e-01 1.9411869347095490e-01</leafValues></_>
        <_>
          <internalNodes>
            0 -1 62 1427243200 420544647 290083873 -587005951
            -2109535576 691929130 -1735663592 1263209034</internalNodes>
          <leafValues>
            -4.1366872191429138e-01 2.2774955630302429e-01</leafValues></_></weakClassifiers></_>
    <!-- stage 18 -->
    <_>
      <maxWeakCount>19</maxWeakCount>
      <stageThreshold>-1.0827193260192871e+00</stageThreshold>
      <weakClassifiers>
        <_>
          <internalNodes>
            0 -1 76 503357440 1059126952 -350755711 2146955179
            -992704801 2146299901 -168460946 2012577513</internalNodes>
          <leafValues>
            -3.3915066719055176e-01 3.6031827330589294e-01</leafValues></_>
        <_>
          <internalNodes>
            0 -1 147 -530603521 -2045100030 -788426512 -1923264072
            -247217681 1747976451 629922037 -1393820936</internalNodes>
          <leafValues>
            -3.0888381600379944e-01 2.9253476858139038e-01</leafValues></_>
        <_>
          <internalNodes>
            0 -1 3 -526269487 -101062793 1525673847 -1589572 -147919460
            -177209356 -599331123 -623921165</internalNodes>
          <leafValues>
            -2.4096223711967468e-01 3.6579370498657227e-01</leafValues></_>
        <_>
          <internalNodes>
            0 -1 39 153264550 1598292010 -2145779552 1564542308
            -1811709933 436217988 -2146788546 384240182</internalNodes>
          <leafValues>
            -4.5630902051925659e-01 2.0879243314266205e-01</leafValues></_>
        <_>
          <internalNodes>
            0 -1 107 501047069 255524860 -71 1021902828 1601658204
            2145386495 -98470 -1157890597</internalNodes>
          <leafValues>
            -2.5108352303504944e-01 3.6465778946876526e-01</leafValues></_>
        <_>
          <internalNodes>
            0 -1 114 1548604743 472186737 904445696 1073085814
            1546081757 -32769 -157811585 -1099956665</internalNodes>
          <leafValues>
            -2.8889617323875427e-01 3.5834428668022156e-01</leafValues></_>
        <_>
          <internalNodes>
            0 -1 129 -369771161 816889168 805273067 -1221411192
            1599012853 121109885 -1392517396 -51394578</internalNodes>
          <leafValues>
            -2.9158180952072144e-01 3.3864930272102356e-01</leafValues></_>
        <_>
          <internalNodes>
            0 -1 110 -1338115719 859832452 16908307 -573927404
            1082155280 8980632 -1971132372 1916740344</internalNodes>
          <leafValues>
            -3.4402295947074890e-01 2.7625927329063416e-01</leafValues></_>
        <_>
          <internalNodes>
            0 -1 5 -106562735 572735883 1073741829 591895705 1929748777
            538181635 570468357 875684276</internalNodes>
          <leafValues>
            -3.4685862064361572e-01 2.6220619678497314e-01</leafValues></_>
        <_>
          <internalNodes>
            0 -1 19 -1870090119 -1827110651 541098435 -83742140
            1375764490 -1064927095 -2147483506 -1542051030</internalNodes>
          <leafValues>
            -4.1661199927330017e-01 2.1487095952033997e-01</leafValues></_>
        <_>
          <internalNodes>
            0 -1 106 -1071443941 33620064 16924756 1350631948
            -1576959350 -1558114144 -410269142 1499552239</internalNodes>
          <leafValues>
            -3.0499023199081421e-01 3.0687198042869568e-01</leafValues></_>
        <_>
          <internalNodes>
            0 -1 125 -1391984766 -1623367694 -1883263643 -1111629855
            -1628154706 -1208156169 -956556161 -252416009</internalNodes>
          <leafValues>
            -2.2988665103912354e-01 3.8645115494728088e-01</leafValues></_>
        <_>
          <internalNodes>
            0 -1 111 -2066677643 -1342144365 -1996455035 1493946372
            -2126512031 -1744830464 -1870655333 -288681769</internalNodes>
          <leafValues>
            -4.6982097625732422e-01 1.8559511005878448e-01</leafValues></_>
        <_>
          <internalNodes>
            0 -1 63 1593695487 -727646210 -5926 -805306374 2113690750
            1576853503 -33202 -71600265</internalNodes>
          <leafValues>
            -2.2814656794071198e-01 4.1200554370880127e-01</leafValues></_>
        <_>
          <internalNodes>
            0 -1 126 1342828885 73521153 285212752 152141850 -241609908
            965214338 -1568036344 841556487</internalNodes>
          <leafValues>
            -4.4042286276817322e-01 2.3080460727214813e-01</leafValues></_>
        <_>
          <internalNodes>
            0 -1 67 -2146762735 -620691288 1070288 1464141850
            -2130670712 236257795 -2094493542 1921948362</internalNodes>
          <leafValues>
            -4.5471042394638062e-01 1.9261078536510468e-01</leafValues></_>
        <_>
          <internalNodes>
            0 -1 23 -50663425 -1087701390 -290276624 2142502704
            -864890908 1161162741 -235602298 1610448883</internalNodes>
          <leafValues>
            -2.9010602831840515e-01 3.4163892269134521e-01</leafValues></_>
        <_>
          <internalNodes>
            0 -1 141 -641477353 -134086526 -1073180662 -582385662
            -641168828 763887746 683835532 -1333417832</internalNodes>
          <leafValues>
            -3.6105266213417053e-01 2.7177357673645020e-01</leafValues></_>
        <_>
          <internalNodes>
            0 -1 51 -647655425 494268355 1998691419 2132135772
            -701778718 -134807569 1560780729 -27820037</internalNodes>
          <leafValues>
            -1.3899110257625580e-01 6.2057816982269287e-01</leafValues></_></weakClassifiers></_>
    <!-- stage 19 -->
    <_>
      <maxWeakCount>17</maxWeakCount>
      <stageThreshold>-1.1650547981262207e+00</stageThreshold>
      <weakClassifiers>
        <_>
          <internalNodes>
            0 -1 131 -668269485 -1067252143 -1367969859 -1557627113
            -654457699 -1086439811 -424555106 -1733782522</internalNodes>
          <leafValues>
            -1.7073170840740204e-01 4.6350365877151489e-01</leafValues></_>
        <_>
          <internalNodes>
            0 -1 99 360796635 379158546 1358962890 -653156351
            -2147483512 -1563754495 -1022816113 -1198430201</internalNodes>
          <leafValues>
            -3.1322696805000305e-01 3.2876759767532349e-01</leafValues></_>
        <_>
          <internalNodes>
            0 -1 13 -926209311 37814278 286327185 1695634305 -2130476919
            1744896000 -251625462 1928217251</internalNodes>
          <leafValues>
            -3.4120890498161316e-01 3.1017902493476868e-01</leafValues></_>
        <_>
          <internalNodes>
            0 -1 37 537072011 -795934716 130 1696137741 2228227
            -1593769980 50331786 278776363</internalNodes>
          <leafValues>
            -3.1272804737091064e-01 3.5597884654998779e-01</leafValues></_>
        <_>
          <internalNodes>
            0 -1 87 8417 -784269231 134420496 -1052311486 -1610055655
            167772177 -2113172982 395553327</internalNodes>
          <leafValues>
            -3.5622701048851013e-01 3.1957918405532837e-01</leafValues></_>
        <_>
          <internalNodes>
            0 -1 4 -744119337 1809898933 -452989647 -240032114
            -1955186690 898953047 485836404 -533498223</internalNodes>
          <leafValues>
            -2.7108970284461975e-01 4.2274960875511169e-01</leafValues></_>
        <_>
          <internalNodes>
            0 -1 7 787623095 -1188075872 -1342443789 2006166715
            1190786293 1548091372 -436928513 -704745731</internalNodes>
          <leafValues>
            -1.7348673939704895e-01 6.2351804971694946e-01</leafValues></_>
        <_>
          <internalNodes>
            0 -1 137 -285945865 683212537 1878982140 -1644773904
            342752637 -59048075 1056960220 -11018</internalNodes>
          <leafValues>
            -2.7547281980514526e-01 3.6933994293212891e-01</leafValues></_>
        <_>
          <internalNodes>
            0 -1 46 -679898727 -83385449 1056849727 535074372
            -1488015162 -53266 1702803785 -1178270759</internalNodes>
          <leafValues>
            -2.0450106263160706e-01 5.2631336450576782e-01</leafValues></_>
        <_>
          <internalNodes>
            0 -1 41 274 -1828716542 2118 1563951186 640 539623424
            -1744828408 616114239</internalNodes>
          <leafValues>
            -5.2599138021469116e-01 2.2955790162086487e-01</leafValues></_>
        <_>
          <internalNodes>
            0 -1 127 136020471 17825803 8392832 1208025088 -1040055480
            133120 -2121465364 -74347549</internalNodes>
          <leafValues>
            -3.4898063540458679e-01 3.3541101217269897e-01</leafValues></_>
        <_>
          <internalNodes>
            0 -1 134 1359995408 25428019 16777216 289472596 537608328
            8912896 -1744590708 -1333559165</internalNodes>
          <leafValues>
            -3.4925132989883423e-01 3.5498782992362976e-01</leafValues></_>
        <_>
          <internalNodes>
            0 -1 14 -255328018 -1694039798 -1608249344 894501122
            327880732 -636874239 1880887321 -234356596</internalNodes>
          <leafValues>
            -3.9866921305656433e-01 2.8635007143020630e-01</leafValues></_>
        <_>
          <internalNodes>
            0 -1 18 -1024479695 1357381615 -285328289 -1858400286
            1979012311 -167870473 -193604522 -77223957</internalNodes>
          <leafValues>
            -2.1293847262859344e-01 5.9821689128875732e-01</leafValues></_>
        <_>
          <internalNodes>
            0 -1 24 -788430795 -1879014399 332043 -1810595293
            -1476392439 1379991552 -1576924920 2052336182</internalNodes>
          <leafValues>
            -4.6609741449356079e-01 2.7016595005989075e-01</leafValues></_>
        <_>
          <internalNodes>
            0 -1 105 268501059 1094778896 20971587 1090584576 1073782940
            134348802 -2146854770 1666386595</internalNodes>
          <leafValues>
            -3.7785527110099792e-01 3.1579315662384033e-01</leafValues></_>
        <_>
          <internalNodes>
            0 -1 139 1075353023 -2041823231 -2147418091 -979795860
            272781403 1359169538 -134182408 -1459680536</internalNodes>
          <leafValues>
            -3.2620659470558167e-01 3.6715418100357056e-01</leafValues></_></weakClassifiers></_></stages>
  <features>
    <_>
      <rect>
        0 0 2 2</rect></_>
    <_>
      <rect>
        0 0 3 1</rect></_>
    <_>
      <rect>
        0 0 4 3</rect></_>
    <_>
      <rect>
        0 1 3 1</rect></_>
    <_>
      <rect>
        0 3 1 1</rect></_>
    <_>
      <rect>
        0 3 1 2</rect></_>
    <_>
      <rect>
        0 3 3 3</rect></_>
    <_>
      <rect>
        0 5 2 1</rect></_>
    <_>
      <rect>
        0 6 2 2</rect></_>
    <_>
      <rect>
        0 9 3 1</rect></_>
    <_>
      <rect>
        1 1 2 1</rect></_>
    <_>
      <rect>
        1 1 2 2</rect></_>
    <_>
      <rect>
        1 1 3 2</rect></_>
    <_>
      <rect>
        1 2 1 2</rect></_>
    <_>
      <rect>
        1 2 2 2</rect></_>
    <_>
      <rect>
        1 3 1 1</rect></_>
    <_>
      <rect>
        1 4 1 1</rect></_>
    <_>
      <rect>
        1 4 2 2</rect></_>
    <_>
      <rect>
        1 5 1 1</rect></_>
    <_>
      <rect>
        1 5 1 2</rect></_>
    <_>
      <rect>
        1 6 1 1</rect></_>
    <_>
      <rect>
        1 6 2 1</rect></_>
    <_>
      <rect>
        1 7 1 1</rect></_>
    <_>
      <rect>
        1 7 2 1</rect></_>
    <_>
      <rect>
        1 8 1 1</rect></_>
    <_>
      <rect>
        1 9 1 1</rect></_>
    <_>
      <rect>
        1 9 2 1</rect></_>
    <_>
      <rect>
        2 0 2 3</rect></_>
    <_>
      <rect>
        2 1 2 1</rect></_>
    <_>
      <rect>
        2 1 2 3</rect></_>
    <_>
      <rect>
        2 2 1 1</rect></_>
    <_>
      <rect>
        2 2 1 2</rect></_>
    <_>
      <rect>
        2 2 2 1</rect></_>
    <_>
      <rect>
        2 3 2 3</rect></_>
    <_>
      <rect>
        2 4 1 1</rect></_>
    <_>
      <rect>
        2 4 1 2</rect></_>
    <_>
      <rect>
        2 4 2 1</rect></_>
    <_>
      <rect>
        2 4 2 2</rect></_>
    <_>
      <rect>
        2 5 1 1</rect></_>
    <_>
      <rect>
        2 5 2 1</rect></_>
    <_>
      <rect>
        2 5 3 1</rect></_>
    <_>
      <rect>
        2 6 2 1</rect></_>
    <_>
      <rect>
        2 6 3 2</rect></_>
    <_>
      <rect>
        2 7 2 1</rect></_>
    <_>
      <rect>
        2 8 1 1</rect></_>
    <_>
      <rect>
        2 9 2 1</rect></_>
    <_>
      <rect>
        3 0 2 1</rect></_>
    <_>
      <rect>
        3 1 1 1</rect></_>
    <_>
      <rect>
        3 1 3 3</rect></_>
    <_>
      <rect>
        3 2 1 1</rect></_>
    <_>
      <rect>
        3 2 2 1</rect></_>
    <_>
      <rect>
        3 2 2 2</rect></_>
    <_>
      <rect>
        3 2 3 1</rect></_>
    <_>
      <rect>
        3 3 1 1</rect></_>
    <_>
      <rect>
        3 3 2 1</rect></_>
    <_>
      <rect>
        3 3 2 2</rect></_>
    <_>
      <rect>
        3 3 2 3</rect></_>
    <_>
      <rect>
        3 4 1 1</rect></_>
    <_>
      <rect>
        3 4 2 1</rect></_>
    <_>
      <rect>
        3 4 2 2</rect></_>
    <_>
      <rect>
        3 5 1 1</rect></_>
    <_>
      <rect>
        3 5 2 1</rect></_>
    <_>
      <rect>
        3 5 3 1</rect></_>
    <_>
      <rect>
        3 6 1 1</rect></_>
    <_>
      <rect>
        3 6 2 1</rect></_>
    <_>
      <rect>
        3 6 2 2</rect></_>
    <_>
      <rect>
        3 7 1 1</rect></_>
    <_>
      <rect>
        3 7 2 1</rect></_>
    <_>
      <rect>
        3 8 1 1</rect></_>
    <_>
      <rect>
        3 8 2 1</rect></_>
    <_>
      <rect>
        3 9 1 1</rect></_>
    <_>
      <rect>
        4 1 2 1</rect></_>
    <_>
      <rect>
        4 1 2 2</rect></_>
    <_>
      <rect>
        4 2 2 2</rect></_>
    <_>
      <rect>
        4 2 2 3</rect></_>
    <_>
      <rect>
        4 3 1 1</rect></_>
    <_>
      <rect>
        4 3 2 1</rect></_>
    <_>
      <rect>
        4 3 2 2</rect></_>
    <_>
      <rect>
        4 4 1 1</rect></_>
    <_>
      <rect>
        4 4 1 2</rect></_>
    <_>
      <rect>
        4 4 2 1</rect></_>
    <_>
      <rect>
        4 5 1 1</rect></_>
    <_>
      <rect>
        4 5 2 2</rect></_>
    <_>
      <rect>
        4 6 1 1</rect></_>
    <_>
      <rect>
        4 6 2 1</rect></_>
    <_>
      <rect>
        4 6 2 2</rect></_>
    <_>
      <rect>
        4 7 1 1</rect></_>
    <_>
      <rect>
        4 7 2 1</rect></_>
    <_>
      <rect>
        4 8 1 1</rect></_>
    <_>
      <rect>
        4 8 2 1</rect></_>
    <_>
      <rect>
        4 9 2 1</rect></_>
    <_>
      <rect>
        5 0 1 1</rect></_>
    <_>
      <rect>
        5 0 2 2</rect></_>
    <_>
      <rect>
        5 1 1 1</rect></_>
    <_>
      <rect>
        5 1 2 1</rect></_>
    <_>
      <rect>
        5 1 2 2</rect></_>
    <_>
      <rect>
        5 2 2 2</rect></_>
    <_>
      <rect>
        5 3 1 1</rect></_>
    <_>
      <rect>
        5 3 2 2</rect></_>
    <_>
      <rect>
        5 4 1 1</rect></_>
    <_>
      <rect>
        5 4 2 1</rect></_>
    <_>
      <rect>
        5 4 2 2</rect></_>
    <_>
      <rect>
        5 5 1 1</rect></_>
    <_>
      <rect>
        5 5 2 2</rect></_>
    <_>
      <rect>
        5 6 1 1</rect></_>
    <_>
      <rect>
        5 6 2 1</rect></_>
    <_>
      <rect>
        5 6 2 2</rect></_>
    <_>
      <rect>
        5 7 1 1</rect></_>
    <_>
      <rect>
        5 7 2 1</rect></_>
    <_>
      <rect>
        5 8 1 1</rect></_>
    <_>
      <rect>
        5 9 1 1</rect></_>
    <_>
      <rect>
        6 1 1 1</rect></_>
    <_>
      <rect>
        6 3 1 1</rect></_>
    <_>
      <rect>
        6 3 2 2</rect></_>
    <_>
      <rect>
        6 4 1 1</rect></_>
    <_>
      <rect>
        6 5 1 1</rect></_>
    <_>
      <rect>
        6 5 2 1</rect></_>
    <_>
      <rect>
        6 6 1 1</rect></_>
    <_>
      <rect>
        6 6 2 1</rect></_>
    <_>
      <rect>
        6 7 1 1</rect></_>
    <_>
      <rect>
        6 7 2 1</rect></_>
    <_>
      <rect>
        6 8 1 1</rect></_>
    <_>
      <rect>
        6 8 2 1</rect></_>
    <_>
      <rect>
        6 9 2 1</rect></_>
    <_>
      <rect>
        7 1 1 1</rect></_>
    <_>
      <rect>
        7 3 1 1</rect></_>
    <_>
      <rect>
        7 4 1 1</rect></_>
    <_>
      <rect>
        7 5 1 1</rect></_>
    <_>
      <rect>
        7 7 1 1</rect></_>
    <_>
      <rect>
        7 8 1 1</rect></_>
    <_>
      <rect>
        7 9 1 1</rect></_>
    <_>
      <rect>
        8 1 1 1</rect></_>
    <_>
      <rect>
        8 2 1 1</rect></_>
    <_>
      <rect>
        8 3 1 2</rect></_>
    <_>
      <rect>
        8 4 1 1</rect></_>
    <_>
      <rect>
        8 5 1 1</rect></_>
    <_>
      <rect>
        8 6 1 1</rect></_>
    <_>
      <rect>
        8 7 1 1</rect></_>
    <_>
      <rect>
        8 8 1 1</rect></_>
    <_>
      <rect>
        8 9 1 1</rect></_>
    <_>
      <rect>
        9 2 1 1</rect></_>
    <_>
      <rect>
        9 3 1 1</rect></_>
    <_>
      <rect>
        9 3 1 2</rect></_>
    <_>
      <rect>
        9 4 1 1</rect></_>
    <_>
      <rect>
        9 5 1 1</rect></_>
    <_>
      <rect>
        9 6 1 1</rect></_>
    <_>
      <rect>
        9 7 1 1</rect></_>
    <_>
      <rect>
        9 8 1 1</rect></_></features></cascade>
</opencv_storage>
