<?xml version="1.0"?>
<opencv_storage>
<cascade>
  <stageType>BOOST</stageType>
  <featureType>LBP</featureType>
  <height>12</height>
  <width>12</width>
  <stageParams>
    <boostType>GAB</boostType>
    <minHitRate>9.9500000476837158e-01</minHitRate>
    <maxFalseAlarm>5.0000000000000000e-01</maxFalseAlarm>
    <weightTrimRate>9.4999999999999996e-01</weightTrimRate>
    <maxDepth>1</maxDepth>
    <maxWeakCount>100</maxWeakCount></stageParams>
  <featureParams>
    <maxCatCount>256</maxCatCount>
    <featSize>1</featSize></featureParams>
  <stageNum>15</stageNum>
  <stages>
    <!-- stage 0 -->
    <_>
      <maxWeakCount>3</maxWeakCount>
      <stageThreshold>-1.0976887941360474e+00</stageThreshold>
      <weakClassifiers>
        <_>
          <internalNodes>
            0 -1 11 -188418050 -136724002 -801058374 -141299233 -3080198
            -612331126 -104465425 -2049</internalNodes>
          <leafValues>
            -9.2690789699554443e-01 6.3604444265365601e-01</leafValues></_>
        <_>
          <internalNodes>
            0 -1 1 -136314881 -11349542 -1325345953 -754915048 -3408901
            -108429142 -612250369 -16384034</internalNodes>
          <leafValues>
            -8.1014186143875122e-01 6.6140449047088623e-01</leafValues></_>
        <_>
          <internalNodes>
            0 -1 47 -77594659 -10809057 -111824470 -4206161 -39584804
            2137554955 -1147551794 2010638842</internalNodes>
          <leafValues>
            -7.6930600404739380e-01 6.3936096429824829e-01</leafValues></_></weakClassifiers></_>
    <!-- stage 1 -->
    <_>
      <maxWeakCount>4</maxWeakCount>
      <stageThreshold>-1.7792818546295166e+00</stageThreshold>
      <weakClassifiers>
        <_>
          <internalNodes>
            0 -1 9 -11799602 -3159208 -1727953415 -3156993 -1085674770
            -1081176 -275910657 -2097153</internalNodes>
          <leafValues>
            -8.4053391218185425e-01 5.4022985696792603e-01</leafValues></_>
        <_>
          <internalNodes>
            0 -1 61 -203433987 -80159264 -2121966638 -1145392728
            -266504195 2131856337 -276048387 -3588</internalNodes>
          <leafValues>
            -7.3157972097396851e-01 5.9682786464691162e-01</leafValues></_>
        <_>
          <internalNodes>
            0 -1 35 -182715393 -77889090 -787489956 -2231329 -102761474
            -39002470 -5373954 1963849714</internalNodes>
          <leafValues>
            -6.8456345796585083e-01 5.5109548568725586e-01</leafValues></_>
        <_>
          <internalNodes>
            0 -1 41 -142610940 -664080 -778862371 -4203636 -383913026
            -82272038 1464059775 2002779063</internalNodes>
          <leafValues>
            -7.8306972980499268e-01 4.7739526629447937e-01</leafValues></_></weakClassifiers></_>
    <!-- stage 2 -->
    <_>
      <maxWeakCount>3</maxWeakCount>
      <stageThreshold>-9.9003797769546509e-01</stageThreshold>
      <weakClassifiers>
        <_>
          <internalNodes>
            0 -1 2 -360189953 -117190629 -207883269 -1052385 -875852341
            -6585178 -343291409 -4097</internalNodes>
          <leafValues>
            -6.9963592290878296e-01 6.6943520307540894e-01</leafValues></_>
        <_>
          <internalNodes>
            0 -1 54 -4195329 -203832949 -651962148 -12066335 -641467396
            -47216243 -96359288 -34214660</internalNodes>
          <leafValues>
            -7.6268434524536133e-01 5.1056295633316040e-01</leafValues></_>
        <_>
          <internalNodes>
            0 -1 28 -252182529 -145439802 -578235408 -2304570 -86783800
            134774936 -4490539 1894998015</internalNodes>
          <leafValues>
            -7.9294741153717041e-01 4.7228229045867920e-01</leafValues></_></weakClassifiers></_>
    <!-- stage 3 -->
    <_>
      <maxWeakCount>4</maxWeakCount>
      <stageThreshold>-1.6583502292633057e+00</stageThreshold>
      <weakClassifiers>
        <_>
          <internalNodes>
            0 -1 75 -136318697 -2637697 -745946249 -34098785 -224202752
            -171655034 -4148547 -134485333</internalNodes>
          <leafValues>
            -7.2122007608413696e-01 4.8173671960830688e-01</leafValues></_>
        <_>
          <internalNodes>
            0 -1 12 -923861250 -213655590 -113067553 -11552292 -74712834
            -1279772534 -135275521 -1048581</internalNodes>
          <leafValues>
            -7.5322884321212769e-01 4.3820086121559143e-01</leafValues></_>
        <_>
          <internalNodes>
            0 -1 47 -675557028 423084651 321373574 -1148744917 859814840
            2134573290 -81002550 901250047</internalNodes>
          <leafValues>
            -8.0713891983032227e-01 4.4821810722351074e-01</leafValues></_>
        <_>
          <internalNodes>
            0 -1 5 -321393677 -1097014896 -243088353 -57498096
            -406345261 -1557495293 -615847169 -71304409</internalNodes>
          <leafValues>
            -5.7971918582916260e-01 5.8621865510940552e-01</leafValues></_></weakClassifiers></_>
    <!-- stage 4 -->
    <_>
      <maxWeakCount>5</maxWeakCount>
      <stageThreshold>-1.3228089809417725e+00</stageThreshold>
      <weakClassifiers>
        <_>
          <internalNodes>
            0 -1 68 -2105345 -114127464 -1730416033 -2449168 -742016261
            -111957816 -437528071 -3100</internalNodes>
          <leafValues>
            -7.5434935092926025e-01 4.1082412004470825e-01</leafValues></_>
        <_>
          <internalNodes>
            0 -1 3 -285018642 -2106370 -851248369 -2125553 -1109606465
            -2523001 -1146553857 -71304209</internalNodes>
          <leafValues>
            -7.4933618307113647e-01 4.4693040847778320e-01</leafValues></_>
        <_>
          <internalNodes>
            0 -1 18 -18421025 -705523222 -607461966 -1107297898
            -788506182 1542777915 -1524738 82313079</internalNodes>
          <leafValues>
            -6.8855476379394531e-01 4.0558582544326782e-01</leafValues></_>
        <_>
          <internalNodes>
            0 -1 52 -229310348 -539965954 -602548005 -1211672422
            -936007188 -655781191 -19944721 -268436754</internalNodes>
          <leafValues>
            -5.8013981580734253e-01 5.4582798480987549e-01</leafValues></_>
        <_>
          <internalNodes>
            0 -1 37 -1152122889 -787969849 -1761603444 -1344450302
            -1458338866 1535879563 -275465540 615906102</internalNodes>
          <leafValues>
            -9.1768503189086914e-01 3.5543057322502136e-01</leafValues></_></weakClassifiers></_>
    <!-- stage 5 -->
    <_>
      <maxWeakCount>5</maxWeakCount>
      <stageThreshold>-1.1641405820846558e+00</stageThreshold>
      <weakClassifiers>
        <_>
          <internalNodes>
            0 -1 0 -821564417 -205262123 86584733 -13119325 -850794753
            -17637207 -1349592325 -1057813</internalNodes>
          <leafValues>
            -6.8702292442321777e-01 4.8672565817832947e-01</leafValues></_>
        <_>
          <internalNodes>
            0 -1 50 -3477027 -1182609276 -653819458 -1380263780
            1442844856 2056309676 -71611923 -1073747042</internalNodes>
          <leafValues>
            -6.0697537660598755e-01 5.2856117486953735e-01</leafValues></_>
        <_>
          <internalNodes>
            0 -1 24 -974340100 -170107955 -551740456 -707411008
            -74675201 -13598531 -67109889 -709374713</internalNodes>
          <leafValues>
            -7.2989732027053833e-01 4.0800875425338745e-01</leafValues></_>
        <_>
          <internalNodes>
            0 -1 42 1228977119 805884247 25189020 -1925117489 1568688863
            -543588212 -80520354 -1128923273</internalNodes>
          <leafValues>
            -6.2784296274185181e-01 4.3024024367332458e-01</leafValues></_>
        <_>
          <internalNodes>
            0 -1 20 -545269131 -579795344 -1064218530 -47181020
            -503304075 1778393092 1505763390 -78316718</internalNodes>
          <leafValues>
            -6.4856600761413574e-01 4.2951479554176331e-01</leafValues></_></weakClassifiers></_>
    <!-- stage 6 -->
    <_>
      <maxWeakCount>5</maxWeakCount>
      <stageThreshold>-1.1891744136810303e+00</stageThreshold>
      <weakClassifiers>
        <_>
          <internalNodes>
            0 -1 44 -103025665 1942454430 -788313991 -134938337
            -1043848278 -1257701236 -2102549954 -1795200265</internalNodes>
          <leafValues>
            -6.6946417093276978e-01 4.0941512584686279e-01</leafValues></_>
        <_>
          <internalNodes>
            0 -1 49 -1781411472 1996571457 -1072873224 -1928724090
            -268205128 2063812731 -41239554 1846199086</internalNodes>
          <leafValues>
            -7.9396182298660278e-01 3.4169277548789978e-01</leafValues></_>
        <_>
          <internalNodes>
            0 -1 63 -1001979899 -106706183 -519704073 -36712293
            1116338348 -771719038 -1192649985 -19936565</internalNodes>
          <leafValues>
            -6.1878615617752075e-01 4.6123307943344116e-01</leafValues></_>
        <_>
          <internalNodes>
            0 -1 33 -202902545 923291798 304111824 2011291808
            -1163288161 1103233180 -1163881982 -151692313</internalNodes>
          <leafValues>
            -6.2002837657928467e-01 4.7471174597740173e-01</leafValues></_>
        <_>
          <internalNodes>
            0 -1 38 1531248095 -1818605413 1360073116 -1882815714
            134353032 1904279553 -486313512 654310263</internalNodes>
          <leafValues>
            -6.2911647558212280e-01 4.3304684758186340e-01</leafValues></_></weakClassifiers></_>
    <!-- stage 7 -->
    <_>
      <maxWeakCount>5</maxWeakCount>
      <stageThreshold>-1.1156502962112427e+00</stageThreshold>
      <weakClassifiers>
        <_>
          <internalNodes>
            0 -1 34 -1655065603 -107544389 -1991024707 -38444553
            722009004 2141588109 -1164035410 -1225295105</internalNodes>
          <leafValues>
            -6.9782149791717529e-01 2.9383313655853271e-01</leafValues></_>
        <_>
          <internalNodes>
            0 -1 45 -1073265187 -586612667 -2130618914 -238825202
            -742006018 -69106952 -521278738 2065954303</internalNodes>
          <leafValues>
            -6.1741328239440918e-01 4.0089184045791626e-01</leafValues></_>
        <_>
          <internalNodes>
            0 -1 70 -741272571 -36583241 -1719287425 -1621897006
            -1181888052 -102772514 -1147408689 -33555793</internalNodes>
          <leafValues>
            -5.6883108615875244e-01 4.4416606426239014e-01</leafValues></_>
        <_>
          <internalNodes>
            0 -1 7 -254546113 815173683 -2004830142 -1106590190
            -2086492139 2047459465 -1366636706 -16777662</internalNodes>
          <leafValues>
            -5.9984123706817627e-01 4.3377202749252319e-01</leafValues></_>
        <_>
          <internalNodes>
            0 -1 31 -116162400 1563627653 1494347953 -40791673
            -913717009 1001953449 1852033915 2068305971</internalNodes>
          <leafValues>
            -6.4170300960540771e-01 4.0572491288185120e-01</leafValues></_></weakClassifiers></_>
    <!-- stage 8 -->
    <_>
      <maxWeakCount>7</maxWeakCount>
      <stageThreshold>-1.2897261381149292e+00</stageThreshold>
      <weakClassifiers>
        <_>
          <internalNodes>
            0 -1 14 -439355937 -237386798 -449265186 -8530064
            -1060912897 -1979088869 -305541393 -548013606</internalNodes>
          <leafValues>
            -7.0140641927719116e-01 2.5767225027084351e-01</leafValues></_>
        <_>
          <internalNodes>
            0 -1 10 -2146441217 -201331009 -1074790401 -262145
            -1525682689 -307757073 -386929153 -37409</internalNodes>
          <leafValues>
            -5.0319248437881470e-01 5.3467428684234619e-01</leafValues></_>
        <_>
          <internalNodes>
            0 -1 66 2068970495 1562497234 1363325100 -1882270582
            -402931727 -1113959 -88130692 -16786433</internalNodes>
          <leafValues>
            -5.1201754808425903e-01 5.0491446256637573e-01</leafValues></_>
        <_>
          <internalNodes>
            0 -1 55 135656757 455471876 -1989021612 1602205759
            2025392861 2075746729 -259999154 2029271919</internalNodes>
          <leafValues>
            -6.4386659860610962e-01 3.4062707424163818e-01</leafValues></_>
        <_>
          <internalNodes>
            0 -1 51 -683213825 1438933460 -1862034857 -1278733128
            -1314338457 1258348680 -457664588 -67148120</internalNodes>
          <leafValues>
            -4.9119284749031067e-01 4.3486317992210388e-01</leafValues></_>
        <_>
          <internalNodes>
            0 -1 58 1532359677 1906180153 1895825540 -508686324
            2063813596 1538982105 -88446568 -1393198477</internalNodes>
          <leafValues>
            -6.6625249385833740e-01 3.2098299264907837e-01</leafValues></_>
        <_>
          <internalNodes>
            0 -1 23 206103272 2132009099 -753786587 -458333 -796855558
            732041368 -8301777 2130649851</internalNodes>
          <leafValues>
            -6.7301923036575317e-01 3.1765249371528625e-01</leafValues></_></weakClassifiers></_>
    <!-- stage 9 -->
    <_>
      <maxWeakCount>6</maxWeakCount>
      <stageThreshold>-1.6658160686492920e+00</stageThreshold>
      <weakClassifiers>
        <_>
          <internalNodes>
            0 -1 36 -788270849 -44629735 33657372 -19490 1393279901
            2063796683 -2103309746 -16909313</internalNodes>
          <leafValues>
            -6.4245808124542236e-01 3.1228551268577576e-01</leafValues></_>
        <_>
          <internalNodes>
            0 -1 73 -38273539 1977303437 -2126198888 -70329640
            2081553141 2052686473 -324277000 -33555467</internalNodes>
          <leafValues>
            -5.8643102645874023e-01 3.7090629339218140e-01</leafValues></_>
        <_>
          <internalNodes>
            0 -1 62 -185334715 -1798577833 -1022830625 -13602 -640951041
            -124206887 -292554309 -338691425</internalNodes>
          <leafValues>
            -4.9655860662460327e-01 4.4953888654708862e-01</leafValues></_>
        <_>
          <internalNodes>
            0 -1 39 1498741247 40937406 -946093603 1067107312 1305768421
            2141766297 -3262968 1879046962</internalNodes>
          <leafValues>
            -5.9325784444808960e-01 3.7358844280242920e-01</leafValues></_>
        <_>
          <internalNodes>
            0 -1 6 -786272130 1775665326 273686542 -537339694 166074
            1627553963 -2111831986 1425398707</internalNodes>
          <leafValues>
            -7.0429199934005737e-01 3.3121523261070251e-01</leafValues></_>
        <_>
          <internalNodes>
            0 -1 40 -451029523 -242827192 -460238128 -639732264
            -662086212 1497377296 -74718212 2046262270</internalNodes>
          <leafValues>
            -6.3566303253173828e-01 3.3883470296859741e-01</leafValues></_></weakClassifiers></_>
    <!-- stage 10 -->
    <_>
      <maxWeakCount>8</maxWeakCount>
      <stageThreshold>-1.2857240438461304e+00</stageThreshold>
      <weakClassifiers>
        <_>
          <internalNodes>
            0 -1 15 -338710545 -1429552884 -451931763 -403861041
            -255090517 -343687040 -276067665 -135291937</internalNodes>
          <leafValues>
            -6.9844281673431396e-01 1.8157471716403961e-01</leafValues></_>
        <_>
          <internalNodes>
            0 -1 32 1978006478 1034746826 -645660660 -1719548077
            -652201507 -13041495 -573249506 -75370505</internalNodes>
          <leafValues>
            -5.2885705232620239e-01 3.7206593155860901e-01</leafValues></_>
        <_>
          <internalNodes>
            0 -1 38 2107169791 -1089038633 1158738318 -285556482
            1552029852 2135933121 -73405444 -1594393737</internalNodes>
          <leafValues>
            -6.1284077167510986e-01 3.1735175848007202e-01</leafValues></_>
        <_>
          <internalNodes>
            0 -1 26 269550564 -117112694 286327071 -13303790 -1718902580
            186188067 -2003588596 1997777811</internalNodes>
          <leafValues>
            -6.5097182989120483e-01 3.6430642008781433e-01</leafValues></_>
        <_>
          <internalNodes>
            0 -1 76 -70534285 320053507 -511655536 -542011071 -796679981
            1342374175 -307113744 -553649233</internalNodes>
          <leafValues>
            -4.3667587637901306e-01 4.3955028057098389e-01</leafValues></_>
        <_>
          <internalNodes>
            0 -1 30 933634944 -136854378 285557239 1434665415 1904866287
            2038989002 1913141227 -137899021</internalNodes>
          <leafValues>
            -6.4479118585586548e-01 3.2174786925315857e-01</leafValues></_>
        <_>
          <internalNodes>
            0 -1 46 -241577313 995098907 17826066 -1278966830 2013462941
            2030403721 -82236645 653028322</internalNodes>
          <leafValues>
            -8.1064563989639282e-01 1.9817744195461273e-01</leafValues></_>
        <_>
          <internalNodes>
            0 -1 64 -1242777528 -1827634527 -1862200000 324128791
            -336607012 1911226539 -495243498 649804535</internalNodes>
          <leafValues>
            -5.9002089500427246e-01 3.2075208425521851e-01</leafValues></_></weakClassifiers></_>
    <!-- stage 11 -->
    <_>
      <maxWeakCount>6</maxWeakCount>
      <stageThreshold>-1.3119077682495117e+00</stageThreshold>
      <weakClassifiers>
        <_>
          <internalNodes>
            0 -1 21 -2100185953 -181159019 -242099877 -2114049
            -1100375617 -70671728 -75395349 -1077</internalNodes>
          <leafValues>
            -6.5605539083480835e-01 2.4596273899078369e-01</leafValues></_>
        <_>
          <internalNodes>
            0 -1 59 -786706251 -786956285 69634 -783122094 -607677452
            -125075064 -1041304612 2143288311</internalNodes>
          <leafValues>
            -4.9814361333847046e-01 4.3629258871078491e-01</leafValues></_>
        <_>
          <internalNodes>
            0 -1 25 -1862012449 -1043331818 54839792 -35683582
            -767839564 -1426019760 -173345810 1465252859</internalNodes>
          <leafValues>
            -5.0449389219284058e-01 4.3828243017196655e-01</leafValues></_>
        <_>
          <internalNodes>
            0 -1 17 -686587177 277922397 9962218 -86064400 2030266538
            404463635 -108090693 -1296</internalNodes>
          <leafValues>
            -5.7664966583251953e-01 3.9578205347061157e-01</leafValues></_>
        <_>
          <internalNodes>
            0 -1 57 -787235907 -204341216 352422193 1900478465
            -1444282884 -1324153831 -1326058658 1903643246</internalNodes>
          <leafValues>
            -4.6862509846687317e-01 4.4761276245117188e-01</leafValues></_>
        <_>
          <internalNodes>
            0 -1 71 -216271983 -182746496 -977235160 -205879254
            871086216 -124745600 -21038456 -1293681885</internalNodes>
          <leafValues>
            -4.4032174348831177e-01 4.5762363076210022e-01</leafValues></_></weakClassifiers></_>
    <!-- stage 12 -->
    <_>
      <maxWeakCount>7</maxWeakCount>
      <stageThreshold>-1.3540235757827759e+00</stageThreshold>
      <weakClassifiers>
        <_>
          <internalNodes>
            0 -1 69 -755023011 -665860659 -783726625 -107495393
            -789906949 -880762831 -353776929 -1069909</internalNodes>
          <leafValues>
            -6.2779819965362549e-01 2.5149303674697876e-01</leafValues></_>
        <_>
          <internalNodes>
            0 -1 48 1367888158 397938836 1074873810 -1610726946
            -612492648 -82092023 -70763952 -1224778753</internalNodes>
          <leafValues>
            -5.2178329229354858e-01 3.4658953547477722e-01</leafValues></_>
        <_>
          <internalNodes>
            0 -1 27 -778841633 954733015 -1862250114 -1410281188
            -608104420 1909363347 -68011462 1910995828</internalNodes>
          <leafValues>
            -6.3935065269470215e-01 2.9608079791069031e-01</leafValues></_>
        <_>
          <internalNodes>
            0 -1 16 -358701906 797622570 28656783 -1847590886
            -1953963525 -1115455336 -1207324677 -269770581</internalNodes>
          <leafValues>
            -6.4139395952224731e-01 3.1444478034973145e-01</leafValues></_>
        <_>
          <internalNodes>
            0 -1 34 -687811651 421105930 17569084 -586940390 411181352
            999897704 -1097958898 922159807</internalNodes>
          <leafValues>
            -6.2597072124481201e-01 2.9622954130172729e-01</leafValues></_>
        <_>
          <internalNodes>
            0 -1 19 -214229751 -786984017 -213886945 -1550143397
            -905426888 -1436350464 -336721304 -8718730</internalNodes>
          <leafValues>
            -5.4233855009078979e-01 3.4699413180351257e-01</leafValues></_>
        <_>
          <internalNodes>
            0 -1 72 -48503980 1532092501 562155952 -1995730752
            -1176765970 2069594117 -72615298 -136611145</internalNodes>
          <leafValues>
            -4.3848377466201782e-01 4.2952233552932739e-01</leafValues></_></weakClassifiers></_>
    <!-- stage 13 -->
    <_>
      <maxWeakCount>9</maxWeakCount>
      <stageThreshold>-1.1978054046630859e+00</stageThreshold>
      <weakClassifiers>
        <_>
          <internalNodes>
            0 -1 43 -607963713 -771620861 98955 50987787 -248872949
            -1572667374 -336931942 1001339895</internalNodes>
          <leafValues>
            -6.0951435565948486e-01 2.3421588540077209e-01</leafValues></_>
        <_>
          <internalNodes>
            0 -1 74 -233843439 -577912830 -1878949431 -540639028
            -1065318263 -1903492981 -1991595777 -84547893</internalNodes>
          <leafValues>
            -4.9444422125816345e-01 3.8560086488723755e-01</leafValues></_>
        <_>
          <internalNodes>
            0 -1 4 -471864865 -2008890543 -486438133 -73298105
            1535886315 58884616 -357347589 -289453565</internalNodes>
          <leafValues>
            -4.4835573434829712e-01 3.7647965550422668e-01</leafValues></_>
        <_>
          <internalNodes>
            0 -1 56 -1819020911 -1818683136 221368773 -45809449
            -1429529912 -1162444663 2198120 1634961959</internalNodes>
          <leafValues>
            -4.9679929018020630e-01 3.4243646264076233e-01</leafValues></_>
        <_>
          <internalNodes>
            0 -1 67 -246164811 -1685405616 -2129723304 -931004344
            -259815179 1225457673 -542393604 1711169524</internalNodes>
          <leafValues>
            -7.6276338100433350e-01 2.4757687747478485e-01</leafValues></_>
        <_>
          <internalNodes>
            0 -1 50 -779034161 1762193604 -2147200891 -1701130038
            -1038595928 433758366 -359683863 -83908161</internalNodes>
          <leafValues>
            -4.2041152715682983e-01 4.1779184341430664e-01</leafValues></_>
        <_>
          <internalNodes>
            0 -1 28 -16842753 -10682386 -65548 -2 -77841 1584332798 -289
            -135824129</internalNodes>
          <leafValues>
            -3.3341556787490845e-01 5.2203440666198730e-01</leafValues></_>
        <_>
          <internalNodes>
            0 -1 51 -164565047 -25890828 -16393 -203249732 108029439
            -42172420 -1476993158 -67148198</internalNodes>
          <leafValues>
            -3.3857586979866028e-01 4.9391579627990723e-01</leafValues></_>
        <_>
          <internalNodes>
            0 -1 33 1124106431 289407188 17305788 -374337172 -888565592
            176160777 436208390 2092245571</internalNodes>
          <leafValues>
            -6.5677678585052490e-01 2.4199564754962921e-01</leafValues></_></weakClassifiers></_>
    <!-- stage 14 -->
    <_>
      <maxWeakCount>8</maxWeakCount>
      <stageThreshold>-1.1939746141433716e+00</stageThreshold>
      <weakClassifiers>
        <_>
          <internalNodes>
            0 -1 13 1363661658 -744882166 1073807488 -775061288 163971
            -1291386743 98443 2068161159</internalNodes>
          <leafValues>
            -6.3688349723815918e-01 1.6568742692470551e-01</leafValues></_>
        <_>
          <internalNodes>
            0 -1 22 1889923722 1397048279 1879113815 1504010263
            1347270065 -1232595952 -737983942 -896859953</internalNodes>
          <leafValues>
            -5.2686387300491333e-01 3.1385952234268188e-01</leafValues></_>
        <_>
          <internalNodes>
            0 -1 53 270086151 294469891 -1602084725 -1819586415
            1889034447 -1166016384 -1610032501 1061487591</internalNodes>
          <leafValues>
            -6.0741394758224487e-01 2.9299366474151611e-01</leafValues></_>
        <_>
          <internalNodes>
            0 -1 8 -1342054119 1368985618 553734478 -1806688104
            -2147475448 -1190592512 -1560239544 -1094268862</internalNodes>
          <leafValues>
            -5.7826036214828491e-01 3.2983395457267761e-01</leafValues></_>
        <_>
          <internalNodes>
            0 -1 65 268546053 34832532 32896 151060488 -1065155752
            815792257 -2104875000 2060247083</internalNodes>
          <leafValues>
            -6.4891344308853149e-01 2.7309730648994446e-01</leafValues></_>
        <_>
          <internalNodes>
            0 -1 60 1379995805 807047176 131140 -1532886396 -1744306167
            536940676 -805074932 989797084</internalNodes>
          <leafValues>
            -6.8032765388488770e-01 2.5533828139305115e-01</leafValues></_>
        <_>
          <internalNodes>
            0 -1 77 -503201295 0 1114113 1090719745 -670531160 679477280
            -1593791600 -391533661</internalNodes>
          <leafValues>
            -4.8488175868988037e-01 3.9361333847045898e-01</leafValues></_>
        <_>
          <internalNodes>
            0 -1 29 -787492339 1493262473 -1072693112 1929445779 2621444
            444825600 -100507616 -609609681</internalNodes>
          <leafValues>
            -4.9784564971923828e-01 3.5849705338478088e-01</leafValues></_></weakClassifiers></_></stages>
  <features>
    <_>
      <rect>
        0 0 3 2</rect></_>
    <_>
      <rect>
        0 3 3 3</rect></_>
    <_>
      <rect>
        1 1 2 2</rect></_>
    <_>
      <rect>
        1 2 3 2</rect></_>
    <_>
      <rect>
        1 3 1 1</rect></_>
    <_>
      <rect>
        1 6 1 1</rect></_>
    <_>
      <rect>
        1 6 2 1</rect></_>
    <_>
      <rect>
        1 7 1 1</rect></_>
    <_>
      <rect>
        1 8 1 1</rect></_>
    <_>
      <rect>
        2 0 3 3</rect></_>
    <_>
      <rect>
        2 1 2 1</rect></_>
    <_>
      <rect>
        2 1 2 3</rect></_>
    <_>
      <rect>
        2 2 2 2</rect></_>
    <_>
      <rect>
        2 3 1 3</rect></_>
    <_>
      <rect>
        2 3 2 3</rect></_>
    <_>
      <rect>
        2 4 1 1</rect></_>
    <_>
      <rect>
        2 4 2 1</rect></_>
    <_>
      <rect>
        2 6 1 1</rect></_>
    <_>
      <rect>
        2 7 2 1</rect></_>
    <_>
      <rect>
        2 9 1 1</rect></_>
    <_>
      <rect>
        2 9 2 1</rect></_>
    <_>
      <rect>
        3 1 1 1</rect></_>
    <_>
      <rect>
        3 1 2 2</rect></_>
    <_>
      <rect>
        3 3 2 1</rect></_>
    <_>
      <rect>
        3 3 2 2</rect></_>
    <_>
      <rect>
        3 6 2 2</rect></_>
    <_>
      <rect>
        3 6 3 1</rect></_>
    <_>
      <rect>
        3 7 1 1</rect></_>
    <_>
      <rect>
        3 7 2 1</rect></_>
    <_>
      <rect>
        3 9 1 1</rect></_>
    <_>
      <rect>
        4 2 2 1</rect></_>
    <_>
      <rect>
        4 3 2 1</rect></_>
    <_>
      <rect>
        4 4 1 1</rect></_>
    <_>
      <rect>
        4 5 1 1</rect></_>
    <_>
      <rect>
        4 5 2 1</rect></_>
    <_>
      <rect>
        4 5 2 2</rect></_>
    <_>
      <rect>
        4 6 1 1</rect></_>
    <_>
      <rect>
        4 6 2 1</rect></_>
    <_>
      <rect>
        4 7 1 1</rect></_>
    <_>
      <rect>
        4 8 1 1</rect></_>
    <_>
      <rect>
        4 8 2 1</rect></_>
    <_>
      <rect>
        5 2 2 2</rect></_>
    <_>
      <rect>
        5 4 1 1</rect></_>
    <_>
      <rect>
        5 4 1 2</rect></_>
    <_>
      <rect>
        5 5 1 1</rect></_>
    <_>
      <rect>
        5 5 2 2</rect></_>
    <_>
      <rect>
        5 6 1 1</rect></_>
    <_>
      <rect>
        5 6 2 1</rect></_>
    <_>
      <rect>
        5 7 1 1</rect></_>
    <_>
      <rect>
        5 7 2 1</rect></_>
    <_>
      <rect>
        5 8 1 1</rect></_>
    <_>
      <rect>
        5 9 1 1</rect></_>
    <_>
      <rect>
        6 1 1 1</rect></_>
    <_>
      <rect>
        6 3 1 1</rect></_>
    <_>
      <rect>
        6 3 2 3</rect></_>
    <_>
      <rect>
        6 4 1 1</rect></_>
    <_>
      <rect>
        6 4 2 1</rect></_>
    <_>
      <rect>
        6 4 2 2</rect></_>
    <_>
      <rect>
        6 5 1 1</rect></_>
    <_>
      <rect>
        6 5 1 2</rect></_>
    <_>
      <rect>
        6 7 1 1</rect></_>
    <_>
      <rect>
        6 8 1 1</rect></_>
    <_>
      <rect>
        7 1 1 1</rect></_>
    <_>
      <rect>
        7 2 1 1</rect></_>
    <_>
      <rect>
        7 4 1 1</rect></_>
    <_>
      <rect>
        7 5 1 1</rect></_>
    <_>
      <rect>
        7 6 1 1</rect></_>
    <_>
      <rect>
        7 7 1 1</rect></_>
    <_>
      <rect>
        7 8 1 1</rect></_>
    <_>
      <rect>
        8 1 1 1</rect></_>
    <_>
      <rect>
        8 2 1 1</rect></_>
    <_>
      <rect>
        8 4 1 1</rect></_>
    <_>
      <rect>
        8 5 1 1</rect></_>
    <_>
      <rect>
        8 7 1 1</rect></_>
    <_>
      <rect>
        9 1 1 2</rect></_>
    <_>
      <rect>
        9 3 1 1</rect></_>
    <_>
      <rect>
        9 6 1 1</rect></_>
    <_>
      <rect>
        9 7 1 1</rect></_></features></cascade>
</opencv_storage>
