<?xml version="1.0"?>
<opencv_storage>
<cascade>
  <stageType>BOOST</stageType>
  <featureType>HAAR</featureType>
  <height>12</height>
  <width>12</width>
  <stageParams>
    <boostType>RAB</boostType>
    <minHitRate>9.9500000476837158e-01</minHitRate>
    <maxFalseAlarm>5.0000000000000000e-01</maxFalseAlarm>
    <weightTrimRate>9.4999999999999996e-01</weightTrimRate>
    <maxDepth>1</maxDepth>
    <maxWeakCount>100</maxWeakCount></stageParams>
  <featureParams>
    <maxCatCount>0</maxCatCount>
    <featSize>1</featSize>
    <mode>BASIC</mode></featureParams>
  <stageNum>9</stageNum>
  <stages>
    <!-- stage 0 -->
    <_>
      <maxWeakCount>11</maxWeakCount>
      <stageThreshold>-2.9511857032775879e+00</stageThreshold>
      <weakClassifiers>
        <_>
          <internalNodes>
            0 -1 71 -3.0054324865341187e-01</internalNodes>
          <leafValues>
            -4.4934523105621338e-01 -1.8259811401367188e+00</leafValues></_>
        <_>
          <internalNodes>
            0 -1 5 3.5990059375762939e-02</internalNodes>
          <leafValues>
            -7.4450910091400146e-01 2.6798802614212036e-01</leafValues></_>
        <_>
          <internalNodes>
            0 -1 145 2.2862568497657776e-02</internalNodes>
          <leafValues>
            -1.8731859326362610e-01 9.0970230102539063e-01</leafValues></_>
        <_>
          <internalNodes>
            0 -1 144 -2.1305747330188751e-02</internalNodes>
          <leafValues>
            1.0475862026214600e+00 -2.0286796987056732e-01</leafValues></_>
        <_>
          <internalNodes>
            0 -1 7 6.2649369239807129e-01</internalNodes>
          <leafValues>
            1.4240178465843201e-01 -1.3660370111465454e+00</leafValues></_>
        <_>
          <internalNodes>
            0 -1 130 1.8436998128890991e-02</internalNodes>
          <leafValues>
            -2.1535612642765045e-01 5.4287874698638916e-01</leafValues></_>
        <_>
          <internalNodes>
            0 -1 159 -1.3487895950675011e-02</internalNodes>
          <leafValues>
            6.7863082885742188e-01 -1.8264244496822357e-01</leafValues></_>
        <_>
          <internalNodes>
            0 -1 157 1.5840452164411545e-02</internalNodes>
          <leafValues>
            -2.2157259285449982e-01 6.2772727012634277e-01</leafValues></_>
        <_>
          <internalNodes>
            0 -1 177 -5.9299975633621216e-02</internalNodes>
          <leafValues>
            -7.8316867351531982e-01 1.4020371437072754e-01</leafValues></_>
        <_>
          <internalNodes>
            0 -1 23 -3.5571567714214325e-02</internalNodes>
          <leafValues>
            1.9915631413459778e-01 -4.5953217148780823e-01</leafValues></_>
        <_>
          <internalNodes>
            0 -1 109 -1.7523847520351410e-02</internalNodes>
          <leafValues>
            6.2160402536392212e-01 -1.4440891146659851e-01</leafValues></_></weakClassifiers></_>
    <!-- stage 1 -->
    <_>
      <maxWeakCount>15</maxWeakCount>
      <stageThreshold>-2.5598366260528564e+00</stageThreshold>
      <weakClassifiers>
        <_>
          <internalNodes>
            0 -1 94 2.2105511277914047e-02</internalNodes>
          <leafValues>
            -1.3504370450973511e+00 -2.1086281538009644e-01</leafValues></_>
        <_>
          <internalNodes>
            0 -1 103 -4.2585484683513641e-02</internalNodes>
          <leafValues>
            3.3588230609893799e-01 -8.3011752367019653e-01</leafValues></_>
        <_>
          <internalNodes>
            0 -1 59 1.8572291731834412e-01</internalNodes>
          <leafValues>
            -4.1010659933090210e-01 4.4645169377326965e-01</leafValues></_>
        <_>
          <internalNodes>
            0 -1 36 -6.2558398349210620e-04</internalNodes>
          <leafValues>
            3.2067820429801941e-01 -4.8439845442771912e-01</leafValues></_>
        <_>
          <internalNodes>
            0 -1 21 -1.3199682533740997e-01</internalNodes>
          <leafValues>
            -8.6431449651718140e-01 2.3113693296909332e-01</leafValues></_>
        <_>
          <internalNodes>
            0 -1 10 2.3884329199790955e-01</internalNodes>
          <leafValues>
            1.7386163771152496e-01 -9.5388966798782349e-01</leafValues></_>
        <_>
          <internalNodes>
            0 -1 88 -1.0308700613677502e-02</internalNodes>
          <leafValues>
            5.4208374023437500e-01 -2.3433107137680054e-01</leafValues></_>
        <_>
          <internalNodes>
            0 -1 29 2.1230734419077635e-03</internalNodes>
          <leafValues>
            1.2408223748207092e-01 -1.2553415298461914e+00</leafValues></_>
        <_>
          <internalNodes>
            0 -1 113 3.1222555786371231e-02</internalNodes>
          <leafValues>
            -1.6478644311428070e-01 7.0020896196365356e-01</leafValues></_>
        <_>
          <internalNodes>
            0 -1 172 4.5769446296617389e-04</internalNodes>
          <leafValues>
            -4.1262680292129517e-01 2.4392291903495789e-01</leafValues></_>
        <_>
          <internalNodes>
            0 -1 107 -2.2979646921157837e-02</internalNodes>
          <leafValues>
            5.8133393526077271e-01 -1.8989266455173492e-01</leafValues></_>
        <_>
          <internalNodes>
            0 -1 187 2.2230967879295349e-03</internalNodes>
          <leafValues>
            1.1327805370092392e-01 -1.0748229026794434e+00</leafValues></_>
        <_>
          <internalNodes>
            0 -1 140 1.5659619122743607e-02</internalNodes>
          <leafValues>
            -1.7220085859298706e-01 5.8802598714828491e-01</leafValues></_>
        <_>
          <internalNodes>
            0 -1 112 1.2502604164183140e-02</internalNodes>
          <leafValues>
            -2.1282801032066345e-01 4.4277188181877136e-01</leafValues></_>
        <_>
          <internalNodes>
            0 -1 105 -1.9212570041418076e-02</internalNodes>
          <leafValues>
            5.3186887502670288e-01 -1.7248454689979553e-01</leafValues></_></weakClassifiers></_>
    <!-- stage 2 -->
    <_>
      <maxWeakCount>16</maxWeakCount>
      <stageThreshold>-2.5483112335205078e+00</stageThreshold>
      <weakClassifiers>
        <_>
          <internalNodes>
            0 -1 42 1.8515240401029587e-02</internalNodes>
          <leafValues>
            -1.3340506553649902e+00 -2.7485737204551697e-01</leafValues></_>
        <_>
          <internalNodes>
            0 -1 173 2.4081552401185036e-03</internalNodes>
          <leafValues>
            -4.5286697149276733e-01 4.0756940841674805e-01</leafValues></_>
        <_>
          <internalNodes>
            0 -1 8 1.3621370494365692e-01</internalNodes>
          <leafValues>
            -6.7145693302154541e-01 1.8914270401000977e-01</leafValues></_>
        <_>
          <internalNodes>
            0 -1 67 -2.3178716003894806e-01</internalNodes>
          <leafValues>
            3.4422400593757629e-01 -3.3103764057159424e-01</leafValues></_>
        <_>
          <internalNodes>
            0 -1 100 -6.8913042545318604e-02</internalNodes>
          <leafValues>
            1.0084077119827271e+00 -1.2066122889518738e-01</leafValues></_>
        <_>
          <internalNodes>
            0 -1 133 1.9695304334163666e-02</internalNodes>
          <leafValues>
            -2.1689282357692719e-01 5.7708638906478882e-01</leafValues></_>
        <_>
          <internalNodes>
            0 -1 10 -2.1141073107719421e-01</internalNodes>
          <leafValues>
            -6.5943658351898193e-01 1.4669062197208405e-01</leafValues></_>
        <_>
          <internalNodes>
            0 -1 4 -9.6212282776832581e-02</internalNodes>
          <leafValues>
            -9.6378707885742188e-01 1.2713500857353210e-01</leafValues></_>
        <_>
          <internalNodes>
            0 -1 25 5.1870286464691162e-02</internalNodes>
          <leafValues>
            1.8858589231967926e-01 -6.0076540708541870e-01</leafValues></_>
        <_>
          <internalNodes>
            0 -1 26 -2.4902477860450745e-01</internalNodes>
          <leafValues>
            -1.7808167934417725e+00 7.6681099832057953e-02</leafValues></_>
        <_>
          <internalNodes>
            0 -1 96 -2.4437338113784790e-01</internalNodes>
          <leafValues>
            -1.5065919160842896e+00 9.2280790209770203e-02</leafValues></_>
        <_>
          <internalNodes>
            0 -1 112 1.0428764857351780e-02</internalNodes>
          <leafValues>
            -2.4332189559936523e-01 3.4339389204978943e-01</leafValues></_>
        <_>
          <internalNodes>
            0 -1 143 1.7891723662614822e-02</internalNodes>
          <leafValues>
            -1.5677312016487122e-01 4.5920529961585999e-01</leafValues></_>
        <_>
          <internalNodes>
            0 -1 185 2.0134955644607544e-02</internalNodes>
          <leafValues>
            1.0333778709173203e-01 -9.0806680917739868e-01</leafValues></_>
        <_>
          <internalNodes>
            0 -1 98 5.0901826471090317e-03</internalNodes>
          <leafValues>
            -2.3701018095016479e-01 3.1126680970191956e-01</leafValues></_>
        <_>
          <internalNodes>
            0 -1 6 5.6026220321655273e-01</internalNodes>
          <leafValues>
            8.3576947450637817e-02 -1.0112165212631226e+00</leafValues></_></weakClassifiers></_>
    <!-- stage 3 -->
    <_>
      <maxWeakCount>21</maxWeakCount>
      <stageThreshold>-2.6249485015869141e+00</stageThreshold>
      <weakClassifiers>
        <_>
          <internalNodes>
            0 -1 162 -8.3261150866746902e-03</internalNodes>
          <leafValues>
            -2.6595911383628845e-01 -1.3154740333557129e+00</leafValues></_>
        <_>
          <internalNodes>
            0 -1 12 6.7461207509040833e-02</internalNodes>
          <leafValues>
            -6.9841271638870239e-01 2.4389100074768066e-01</leafValues></_>
        <_>
          <internalNodes>
            0 -1 36 -9.0369000099599361e-04</internalNodes>
          <leafValues>
            3.0519899725914001e-01 -5.1455497741699219e-01</leafValues></_>
        <_>
          <internalNodes>
            0 -1 3 1.6396450810134411e-03</internalNodes>
          <leafValues>
            2.6001271605491638e-01 -4.3379232287406921e-01</leafValues></_>
        <_>
          <internalNodes>
            0 -1 73 9.2687211930751801e-02</internalNodes>
          <leafValues>
            1.3039831817150116e-01 -6.6711264848709106e-01</leafValues></_>
        <_>
          <internalNodes>
            0 -1 92 -4.9127280712127686e-02</internalNodes>
          <leafValues>
            5.8564203977584839e-01 -1.4161254465579987e-01</leafValues></_>
        <_>
          <internalNodes>
            0 -1 123 2.4909416213631630e-02</internalNodes>
          <leafValues>
            -1.6749082505702972e-01 5.4550075531005859e-01</leafValues></_>
        <_>
          <internalNodes>
            0 -1 120 -1.3050448894500732e-01</internalNodes>
          <leafValues>
            -1.0552580356597900e+00 8.9732252061367035e-02</leafValues></_>
        <_>
          <internalNodes>
            0 -1 68 -2.2702664136886597e-02</internalNodes>
          <leafValues>
            5.9591680765151978e-01 -1.3618616759777069e-01</leafValues></_>
        <_>
          <internalNodes>
            0 -1 136 -2.1664595231413841e-02</internalNodes>
          <leafValues>
            4.6825182437896729e-01 -1.6085533797740936e-01</leafValues></_>
        <_>
          <internalNodes>
            0 -1 142 2.9916200786828995e-02</internalNodes>
          <leafValues>
            -1.4098954200744629e-01 5.7798159122467041e-01</leafValues></_>
        <_>
          <internalNodes>
            0 -1 27 -2.2565398365259171e-02</internalNodes>
          <leafValues>
            -7.2437930107116699e-01 9.7603939473628998e-02</leafValues></_>
        <_>
          <internalNodes>
            0 -1 78 3.1317314133048058e-03</internalNodes>
          <leafValues>
            1.9119460880756378e-01 -3.1873211264610291e-01</leafValues></_>
        <_>
          <internalNodes>
            0 -1 1 -4.2176921851933002e-03</internalNodes>
          <leafValues>
            -1.0064699649810791e+00 7.5968787074089050e-02</leafValues></_>
        <_>
          <internalNodes>
            0 -1 158 -3.2170463353395462e-02</internalNodes>
          <leafValues>
            5.5125039815902710e-01 -1.1703900247812271e-01</leafValues></_>
        <_>
          <internalNodes>
            0 -1 153 1.6004959121346474e-02</internalNodes>
          <leafValues>
            -1.8210034072399139e-01 3.8054841756820679e-01</leafValues></_>
        <_>
          <internalNodes>
            0 -1 137 3.9924001321196556e-03</internalNodes>
          <leafValues>
            1.1633446812629700e-01 -5.2161318063735962e-01</leafValues></_>
        <_>
          <internalNodes>
            0 -1 179 2.7047994080930948e-04</internalNodes>
          <leafValues>
            -3.1489399075508118e-01 1.7302289605140686e-01</leafValues></_>
        <_>
          <internalNodes>
            0 -1 180 2.9386205133050680e-03</internalNodes>
          <leafValues>
            8.6679145693778992e-02 -7.6366233825683594e-01</leafValues></_>
        <_>
          <internalNodes>
            0 -1 167 -7.4932221323251724e-03</internalNodes>
          <leafValues>
            4.4452700018882751e-01 -1.3471254706382751e-01</leafValues></_>
        <_>
          <internalNodes>
            0 -1 174 2.5767397880554199e-01</internalNodes>
          <leafValues>
            4.8354338854551315e-02 -1.8522841930389404e+00</leafValues></_></weakClassifiers></_>
    <!-- stage 4 -->
    <_>
      <maxWeakCount>22</maxWeakCount>
      <stageThreshold>-2.3559834957122803e+00</stageThreshold>
      <weakClassifiers>
        <_>
          <internalNodes>
            0 -1 83 -1.6099385917186737e-02</internalNodes>
          <leafValues>
            2.2447511553764343e-01 -1.2227653264999390e+00</leafValues></_>
        <_>
          <internalNodes>
            0 -1 64 -2.8657215833663940e-01</internalNodes>
          <leafValues>
            3.3350786566734314e-01 -5.6424641609191895e-01</leafValues></_>
        <_>
          <internalNodes>
            0 -1 55 -4.9352094531059265e-02</internalNodes>
          <leafValues>
            2.7181354165077209e-01 -5.1471018791198730e-01</leafValues></_>
        <_>
          <internalNodes>
            0 -1 16 -2.8267312794923782e-02</internalNodes>
          <leafValues>
            -7.3051613569259644e-01 1.4633730053901672e-01</leafValues></_>
        <_>
          <internalNodes>
            0 -1 148 -2.2920534014701843e-02</internalNodes>
          <leafValues>
            7.1492975950241089e-01 -1.2631280720233917e-01</leafValues></_>
        <_>
          <internalNodes>
            0 -1 147 1.8503529950976372e-02</internalNodes>
          <leafValues>
            -1.5361455082893372e-01 5.8415144681930542e-01</leafValues></_>
        <_>
          <internalNodes>
            0 -1 58 -3.4364529419690371e-03</internalNodes>
          <leafValues>
            -3.0610004067420959e-01 2.2742813825607300e-01</leafValues></_>
        <_>
          <internalNodes>
            0 -1 9 6.9220423698425293e-02</internalNodes>
          <leafValues>
            1.3761414587497711e-01 -5.8695387840270996e-01</leafValues></_>
        <_>
          <internalNodes>
            0 -1 86 6.3604190945625305e-02</internalNodes>
          <leafValues>
            -1.7828357219696045e-01 4.1068404912948608e-01</leafValues></_>
        <_>
          <internalNodes>
            0 -1 8 6.2785410881042480e-01</internalNodes>
          <leafValues>
            8.1306852400302887e-02 -9.0657478570938110e-01</leafValues></_>
        <_>
          <internalNodes>
            0 -1 43 2.6867939159274101e-02</internalNodes>
          <leafValues>
            -1.2423278391361237e-01 5.6647038459777832e-01</leafValues></_>
        <_>
          <internalNodes>
            0 -1 128 7.7906996011734009e-02</internalNodes>
          <leafValues>
            -1.5793049335479736e-01 4.1063654422760010e-01</leafValues></_>
        <_>
          <internalNodes>
            0 -1 95 7.7758833765983582e-02</internalNodes>
          <leafValues>
            -1.4227484166622162e-01 4.7262701392173767e-01</leafValues></_>
        <_>
          <internalNodes>
            0 -1 85 -5.2635848522186279e-02</internalNodes>
          <leafValues>
            1.1151295900344849e+00 -8.1011824309825897e-02</leafValues></_>
        <_>
          <internalNodes>
            0 -1 129 -2.7297414839267731e-02</internalNodes>
          <leafValues>
            4.3230697512626648e-01 -1.4972801506519318e-01</leafValues></_>
        <_>
          <internalNodes>
            0 -1 34 -6.9480578531511128e-05</internalNodes>
          <leafValues>
            1.8871417641639709e-01 -3.3344560861587524e-01</leafValues></_>
        <_>
          <internalNodes>
            0 -1 30 -6.1597707681357861e-03</internalNodes>
          <leafValues>
            -1.0566082000732422e+00 7.3907122015953064e-02</leafValues></_>
        <_>
          <internalNodes>
            0 -1 50 -3.6989295482635498e-01</internalNodes>
          <leafValues>
            -7.1688884496688843e-01 8.8175274431705475e-02</leafValues></_>
        <_>
          <internalNodes>
            0 -1 39 -1.1715439613908529e-03</internalNodes>
          <leafValues>
            -3.6357158422470093e-01 1.5410664677619934e-01</leafValues></_>
        <_>
          <internalNodes>
            0 -1 110 -2.9012002050876617e-02</internalNodes>
          <leafValues>
            6.0280519723892212e-01 -1.1871531605720520e-01</leafValues></_>
        <_>
          <internalNodes>
            0 -1 126 -1.8240388482809067e-02</internalNodes>
          <leafValues>
            4.3488234281539917e-01 -1.3602647185325623e-01</leafValues></_>
        <_>
          <internalNodes>
            0 -1 166 1.6929354518651962e-02</internalNodes>
          <leafValues>
            -1.5626733005046844e-01 3.7610495090484619e-01</leafValues></_></weakClassifiers></_>
    <!-- stage 5 -->
    <_>
      <maxWeakCount>23</maxWeakCount>
      <stageThreshold>-2.1617436408996582e+00</stageThreshold>
      <weakClassifiers>
        <_>
          <internalNodes>
            0 -1 154 -2.6236806064844131e-02</internalNodes>
          <leafValues>
            2.6569595932960510e-01 -1.2176337242126465e+00</leafValues></_>
        <_>
          <internalNodes>
            0 -1 37 -5.2877310663461685e-03</internalNodes>
          <leafValues>
            3.6075174808502197e-01 -4.0317031741142273e-01</leafValues></_>
        <_>
          <internalNodes>
            0 -1 99 2.1592952311038971e-02</internalNodes>
          <leafValues>
            -1.4533233642578125e-01 6.5864068269729614e-01</leafValues></_>
        <_>
          <internalNodes>
            0 -1 111 -1.2848070263862610e-01</internalNodes>
          <leafValues>
            1.8314813077449799e-01 -4.5868974924087524e-01</leafValues></_>
        <_>
          <internalNodes>
            0 -1 181 3.1212086323648691e-03</internalNodes>
          <leafValues>
            2.2334112226963043e-01 -3.9813444018363953e-01</leafValues></_>
        <_>
          <internalNodes>
            0 -1 178 1.1150271166115999e-03</internalNodes>
          <leafValues>
            -2.5359797477722168e-01 2.9744783043861389e-01</leafValues></_>
        <_>
          <internalNodes>
            0 -1 33 -3.8076799362897873e-02</internalNodes>
          <leafValues>
            -5.1486140489578247e-01 1.7934212088584900e-01</leafValues></_>
        <_>
          <internalNodes>
            0 -1 89 -1.7500467598438263e-02</internalNodes>
          <leafValues>
            4.6702453494071960e-01 -1.6632685065269470e-01</leafValues></_>
        <_>
          <internalNodes>
            0 -1 179 5.4644457995891571e-03</internalNodes>
          <leafValues>
            1.1373683065176010e-01 -7.5880271196365356e-01</leafValues></_>
        <_>
          <internalNodes>
            0 -1 77 -2.7180584147572517e-03</internalNodes>
          <leafValues>
            -4.4513684511184692e-01 1.4113128185272217e-01</leafValues></_>
        <_>
          <internalNodes>
            0 -1 115 2.9196247458457947e-02</internalNodes>
          <leafValues>
            -1.0381380468606949e-01 5.9221178293228149e-01</leafValues></_>
        <_>
          <internalNodes>
            0 -1 138 4.6035043895244598e-02</internalNodes>
          <leafValues>
            -1.6265510022640228e-01 4.0291604399681091e-01</leafValues></_>
        <_>
          <internalNodes>
            0 -1 74 -1.0156142711639404e-01</internalNodes>
          <leafValues>
            1.2876260280609131e-01 -4.2294377088546753e-01</leafValues></_>
        <_>
          <internalNodes>
            0 -1 17 -3.4021693468093872e-01</internalNodes>
          <leafValues>
            -4.9514043331146240e-01 1.6237200796604156e-01</leafValues></_>
        <_>
          <internalNodes>
            0 -1 84 2.6107020676136017e-02</internalNodes>
          <leafValues>
            -1.1778004467487335e-01 6.2155032157897949e-01</leafValues></_>
        <_>
          <internalNodes>
            0 -1 40 2.4585936963558197e-01</internalNodes>
          <leafValues>
            9.0840660035610199e-02 -6.6250258684158325e-01</leafValues></_>
        <_>
          <internalNodes>
            0 -1 56 3.7229890003800392e-03</internalNodes>
          <leafValues>
            -1.4256961643695831e-01 4.5324322581291199e-01</leafValues></_>
        <_>
          <internalNodes>
            0 -1 20 -2.2291688248515129e-02</internalNodes>
          <leafValues>
            -8.4659051895141602e-01 6.8513929843902588e-02</leafValues></_>
        <_>
          <internalNodes>
            0 -1 186 1.8356421962380409e-02</internalNodes>
          <leafValues>
            5.4709494113922119e-02 -1.5925015211105347e+00</leafValues></_>
        <_>
          <internalNodes>
            0 -1 72 -1.1842747917398810e-03</internalNodes>
          <leafValues>
            3.5714679956436157e-01 -1.4965151250362396e-01</leafValues></_>
        <_>
          <internalNodes>
            0 -1 79 5.4166078567504883e-01</internalNodes>
          <leafValues>
            5.1110930740833282e-02 -2.6986591815948486e+00</leafValues></_>
        <_>
          <internalNodes>
            0 -1 114 9.0267509222030640e-02</internalNodes>
          <leafValues>
            -1.4023022353649139e-01 4.3080741167068481e-01</leafValues></_>
        <_>
          <internalNodes>
            0 -1 117 -1.5941965579986572e-01</internalNodes>
          <leafValues>
            -7.5666850805282593e-01 9.1976553201675415e-02</leafValues></_></weakClassifiers></_>
    <!-- stage 6 -->
    <_>
      <maxWeakCount>33</maxWeakCount>
      <stageThreshold>-2.4015753269195557e+00</stageThreshold>
      <weakClassifiers>
        <_>
          <internalNodes>
            0 -1 69 7.6307319104671478e-02</internalNodes>
          <leafValues>
            -1.1973501443862915e+00 5.7564578056335449e+00</leafValues></_>
        <_>
          <internalNodes>
            0 -1 57 -1.0604411363601685e-02</internalNodes>
          <leafValues>
            6.1663365364074707e-01 -2.5098365545272827e-01</leafValues></_>
        <_>
          <internalNodes>
            0 -1 22 -9.7914889454841614e-02</internalNodes>
          <leafValues>
            1.6085709631443024e-01 -5.6768327951431274e-01</leafValues></_>
        <_>
          <internalNodes>
            0 -1 185 -1.2377912178635597e-02</internalNodes>
          <leafValues>
            -4.9489504098892212e-01 2.2949661314487457e-01</leafValues></_>
        <_>
          <internalNodes>
            0 -1 102 9.0762889012694359e-03</internalNodes>
          <leafValues>
            -1.8567186594009399e-01 4.1913020610809326e-01</leafValues></_>
        <_>
          <internalNodes>
            0 -1 121 1.1917564552277327e-03</internalNodes>
          <leafValues>
            -1.6081239283084869e-01 5.1511448621749878e-01</leafValues></_>
        <_>
          <internalNodes>
            0 -1 160 -2.2765204310417175e-02</internalNodes>
          <leafValues>
            5.7897353172302246e-01 -1.0947166383266449e-01</leafValues></_>
        <_>
          <internalNodes>
            0 -1 156 2.4177350103855133e-02</internalNodes>
          <leafValues>
            -1.5934735536575317e-01 5.4841953516006470e-01</leafValues></_>
        <_>
          <internalNodes>
            0 -1 0 1.0642884299159050e-03</internalNodes>
          <leafValues>
            1.5754494071006775e-01 -4.5396873354911804e-01</leafValues></_>
        <_>
          <internalNodes>
            0 -1 28 3.6242701113224030e-02</internalNodes>
          <leafValues>
            1.4323838055133820e-01 -5.3723627328872681e-01</leafValues></_>
        <_>
          <internalNodes>
            0 -1 2 3.0014067888259888e-03</internalNodes>
          <leafValues>
            1.6620121896266937e-01 -3.7543416023254395e-01</leafValues></_>
        <_>
          <internalNodes>
            0 -1 151 1.3016302138566971e-02</internalNodes>
          <leafValues>
            -8.8097743690013885e-02 6.4664709568023682e-01</leafValues></_>
        <_>
          <internalNodes>
            0 -1 165 -1.8326591700315475e-02</internalNodes>
          <leafValues>
            7.4794715642929077e-01 -9.2961862683296204e-02</leafValues></_>
        <_>
          <internalNodes>
            0 -1 152 -9.0224388986825943e-03</internalNodes>
          <leafValues>
            4.6134856343269348e-01 -1.4108513295650482e-01</leafValues></_>
        <_>
          <internalNodes>
            0 -1 61 1.1603917926549911e-02</internalNodes>
          <leafValues>
            -1.2425985932350159e-01 5.1997631788253784e-01</leafValues></_>
        <_>
          <internalNodes>
            0 -1 127 -3.3726042602211237e-04</internalNodes>
          <leafValues>
            -2.9540273547172546e-01 2.1745364367961884e-01</leafValues></_>
        <_>
          <internalNodes>
            0 -1 31 -1.6150211915373802e-02</internalNodes>
          <leafValues>
            -5.6612205505371094e-01 1.0053781419992447e-01</leafValues></_>
        <_>
          <internalNodes>
            0 -1 104 -2.4183481931686401e-02</internalNodes>
          <leafValues>
            6.1754250526428223e-01 -9.6843272447586060e-02</leafValues></_>
        <_>
          <internalNodes>
            0 -1 91 6.1488538980484009e-02</internalNodes>
          <leafValues>
            -1.4951363205909729e-01 4.5877045392990112e-01</leafValues></_>
        <_>
          <internalNodes>
            0 -1 32 3.2140303403139114e-02</internalNodes>
          <leafValues>
            6.3021220266819000e-02 -1.2120207548141479e+00</leafValues></_>
        <_>
          <internalNodes>
            0 -1 135 -2.2568024694919586e-02</internalNodes>
          <leafValues>
            7.2604346275329590e-01 -9.9367976188659668e-02</leafValues></_>
        <_>
          <internalNodes>
            0 -1 141 2.1220566704869270e-02</internalNodes>
          <leafValues>
            -1.4963899552822113e-01 3.7755176424980164e-01</leafValues></_>
        <_>
          <internalNodes>
            0 -1 116 -2.2531032562255859e-02</internalNodes>
          <leafValues>
            3.5057383775711060e-01 -1.4808104932308197e-01</leafValues></_>
        <_>
          <internalNodes>
            0 -1 122 2.4098297581076622e-03</internalNodes>
          <leafValues>
            -1.6572277247905731e-01 3.2555282115936279e-01</leafValues></_>
        <_>
          <internalNodes>
            0 -1 60 -1.0839161695912480e-03</internalNodes>
          <leafValues>
            -5.3307330608367920e-01 1.0771401971578598e-01</leafValues></_>
        <_>
          <internalNodes>
            0 -1 62 -2.1960422396659851e-02</internalNodes>
          <leafValues>
            8.9539468288421631e-01 -7.0074602961540222e-02</leafValues></_>
        <_>
          <internalNodes>
            0 -1 46 -3.7249490618705750e-02</internalNodes>
          <leafValues>
            8.0182236433029175e-01 -8.4779724478721619e-02</leafValues></_>
        <_>
          <internalNodes>
            0 -1 184 -3.6848552525043488e-02</internalNodes>
          <leafValues>
            -9.1732263565063477e-01 7.1374215185642242e-02</leafValues></_>
        <_>
          <internalNodes>
            0 -1 11 -2.2926493547856808e-03</internalNodes>
          <leafValues>
            2.2891776263713837e-01 -2.6067295670509338e-01</leafValues></_>
        <_>
          <internalNodes>
            0 -1 54 6.7710047587752342e-03</internalNodes>
          <leafValues>
            -1.7328390479087830e-01 3.3859840035438538e-01</leafValues></_>
        <_>
          <internalNodes>
            0 -1 48 2.1553883329033852e-02</internalNodes>
          <leafValues>
            -1.9544221460819244e-01 2.7406680583953857e-01</leafValues></_>
        <_>
          <internalNodes>
            0 -1 97 -3.6408787965774536e-01</internalNodes>
          <leafValues>
            -1.0018277168273926e+00 6.6209234297275543e-02</leafValues></_>
        <_>
          <internalNodes>
            0 -1 75 -2.4796605110168457e-02</internalNodes>
          <leafValues>
            5.5975341796875000e-01 -1.1443035304546356e-01</leafValues></_></weakClassifiers></_>
    <!-- stage 7 -->
    <_>
      <maxWeakCount>34</maxWeakCount>
      <stageThreshold>-2.4887044429779053e+00</stageThreshold>
      <weakClassifiers>
        <_>
          <internalNodes>
            0 -1 51 -9.8540782928466797e-03</internalNodes>
          <leafValues>
            5.7564578056335449e+00 -1.2249628305435181e+00</leafValues></_>
        <_>
          <internalNodes>
            0 -1 47 1.9032213836908340e-02</internalNodes>
          <leafValues>
            -2.4682906270027161e-01 5.0642949342727661e-01</leafValues></_>
        <_>
          <internalNodes>
            0 -1 36 -1.6811351524665952e-03</internalNodes>
          <leafValues>
            2.7732643485069275e-01 -3.9487013220787048e-01</leafValues></_>
        <_>
          <internalNodes>
            0 -1 35 2.9509305022656918e-03</internalNodes>
          <leafValues>
            1.0614815354347229e-01 -9.9334734678268433e-01</leafValues></_>
        <_>
          <internalNodes>
            0 -1 139 -6.8305134773254395e-03</internalNodes>
          <leafValues>
            9.0964370965957642e-01 -8.4617294371128082e-02</leafValues></_>
        <_>
          <internalNodes>
            0 -1 182 1.6831919550895691e-02</internalNodes>
          <leafValues>
            2.6188847422599792e-01 -3.3194866776466370e-01</leafValues></_>
        <_>
          <internalNodes>
            0 -1 106 4.2136836796998978e-02</internalNodes>
          <leafValues>
            -1.0491359233856201e-01 1.6601237058639526e+00</leafValues></_>
        <_>
          <internalNodes>
            0 -1 161 4.0357448160648346e-03</internalNodes>
          <leafValues>
            -1.7388318479061127e-01 4.4968473911285400e-01</leafValues></_>
        <_>
          <internalNodes>
            0 -1 53 -1.3439553976058960e-01</internalNodes>
          <leafValues>
            -6.8966013193130493e-01 1.4159330725669861e-01</leafValues></_>
        <_>
          <internalNodes>
            0 -1 108 -2.9123432934284210e-02</internalNodes>
          <leafValues>
            8.4688425064086914e-01 -1.2676495313644409e-01</leafValues></_>
        <_>
          <internalNodes>
            0 -1 80 1.3420027494430542e-01</internalNodes>
          <leafValues>
            1.3473995029926300e-01 -7.8522849082946777e-01</leafValues></_>
        <_>
          <internalNodes>
            0 -1 169 -2.9859997332096100e-02</internalNodes>
          <leafValues>
            9.7974556684494019e-01 -1.0880367457866669e-01</leafValues></_>
        <_>
          <internalNodes>
            0 -1 168 4.8432156443595886e-02</internalNodes>
          <leafValues>
            -9.7923785448074341e-02 9.5389109849929810e-01</leafValues></_>
        <_>
          <internalNodes>
            0 -1 15 4.4854822754859924e-01</internalNodes>
          <leafValues>
            1.0033684223890305e-01 -7.5196748971939087e-01</leafValues></_>
        <_>
          <internalNodes>
            0 -1 150 -3.2882080413401127e-03</internalNodes>
          <leafValues>
            2.0513218641281128e-01 -3.2000005245208740e-01</leafValues></_>
        <_>
          <internalNodes>
            0 -1 155 3.5895094275474548e-02</internalNodes>
          <leafValues>
            -1.4214846491813660e-01 5.3053945302963257e-01</leafValues></_>
        <_>
          <internalNodes>
            0 -1 87 1.6551321372389793e-02</internalNodes>
          <leafValues>
            -1.8270663917064667e-01 4.5172557234764099e-01</leafValues></_>
        <_>
          <internalNodes>
            0 -1 41 -3.4675978124141693e-02</internalNodes>
          <leafValues>
            -4.0226092934608459e-01 1.8217496573925018e-01</leafValues></_>
        <_>
          <internalNodes>
            0 -1 38 -2.0219709258526564e-03</internalNodes>
          <leafValues>
            -6.0819298028945923e-01 1.2767481803894043e-01</leafValues></_>
        <_>
          <internalNodes>
            0 -1 119 -4.5364229008555412e-03</internalNodes>
          <leafValues>
            3.7313053011894226e-01 -2.0751452445983887e-01</leafValues></_>
        <_>
          <internalNodes>
            0 -1 124 -8.2090094685554504e-02</internalNodes>
          <leafValues>
            8.4570056200027466e-01 -9.4405107200145721e-02</leafValues></_>
        <_>
          <internalNodes>
            0 -1 65 -7.4952788650989532e-02</internalNodes>
          <leafValues>
            7.6699918508529663e-01 -1.1529210954904556e-01</leafValues></_>
        <_>
          <internalNodes>
            0 -1 66 -1.0189931094646454e-01</internalNodes>
          <leafValues>
            -5.8949762582778931e-01 1.3007453083992004e-01</leafValues></_>
        <_>
          <internalNodes>
            0 -1 90 -2.3004540801048279e-01</internalNodes>
          <leafValues>
            -1.1163508892059326e+00 7.2098031640052795e-02</leafValues></_>
        <_>
          <internalNodes>
            0 -1 132 3.7741148844361305e-04</internalNodes>
          <leafValues>
            -2.8910958766937256e-01 2.3554645478725433e-01</leafValues></_>
        <_>
          <internalNodes>
            0 -1 146 -1.1937636882066727e-02</internalNodes>
          <leafValues>
            6.0622161626815796e-01 -1.3201816380023956e-01</leafValues></_>
        <_>
          <internalNodes>
            0 -1 93 -8.5488200187683105e-02</internalNodes>
          <leafValues>
            6.4106684923171997e-01 -1.3592290878295898e-01</leafValues></_>
        <_>
          <internalNodes>
            0 -1 45 -7.3249921202659607e-02</internalNodes>
          <leafValues>
            1.3368598222732544e+00 -8.2046069204807281e-02</leafValues></_>
        <_>
          <internalNodes>
            0 -1 175 5.6191263720393181e-03</internalNodes>
          <leafValues>
            -1.2118064612150192e-01 6.9870722293853760e-01</leafValues></_>
        <_>
          <internalNodes>
            0 -1 171 -1.5127191320061684e-02</internalNodes>
          <leafValues>
            2.8654199838638306e-01 -2.7403578162193298e-01</leafValues></_>
        <_>
          <internalNodes>
            0 -1 13 5.2117645740509033e-01</internalNodes>
          <leafValues>
            1.1030347645282745e-01 -7.0188409090042114e-01</leafValues></_>
        <_>
          <internalNodes>
            0 -1 176 -7.7727846801280975e-03</internalNodes>
          <leafValues>
            2.0069161057472229e-01 -3.4626644849777222e-01</leafValues></_>
        <_>
          <internalNodes>
            0 -1 163 -1.9725341349840164e-02</internalNodes>
          <leafValues>
            8.2096809148788452e-01 -1.0384013503789902e-01</leafValues></_>
        <_>
          <internalNodes>
            0 -1 118 2.9885463416576385e-02</internalNodes>
          <leafValues>
            -1.5082377195358276e-01 5.6399303674697876e-01</leafValues></_></weakClassifiers></_>
    <!-- stage 8 -->
    <_>
      <maxWeakCount>23</maxWeakCount>
      <stageThreshold>-2.6385035514831543e+00</stageThreshold>
      <weakClassifiers>
        <_>
          <internalNodes>
            0 -1 81 -2.6959583163261414e-02</internalNodes>
          <leafValues>
            5.7564578056335449e+00 -1.2560361623764038e+00</leafValues></_>
        <_>
          <internalNodes>
            0 -1 181 1.3647465966641903e-03</internalNodes>
          <leafValues>
            3.7478345632553101e-01 -4.7182828187942505e-01</leafValues></_>
        <_>
          <internalNodes>
            0 -1 52 2.8582178056240082e-02</internalNodes>
          <leafValues>
            -1.3749213516712189e-01 1.3624157905578613e+00</leafValues></_>
        <_>
          <internalNodes>
            0 -1 149 -1.4057031366974115e-03</internalNodes>
          <leafValues>
            2.9037091135978699e-01 -4.8678675293922424e-01</leafValues></_>
        <_>
          <internalNodes>
            0 -1 19 2.5342017412185669e-02</internalNodes>
          <leafValues>
            -6.3460610806941986e-02 5.7564578056335449e+00</leafValues></_>
        <_>
          <internalNodes>
            0 -1 96 -1.6306474804878235e-01</internalNodes>
          <leafValues>
            -2.0607323646545410e+00 9.3479469418525696e-02</leafValues></_>
        <_>
          <internalNodes>
            0 -1 14 5.1725227385759354e-02</internalNodes>
          <leafValues>
            1.4006255567073822e-01 -2.1039555072784424e+00</leafValues></_>
        <_>
          <internalNodes>
            0 -1 70 -7.1835108101367950e-02</internalNodes>
          <leafValues>
            1.8128817081451416e+00 -1.3996705412864685e-01</leafValues></_>
        <_>
          <internalNodes>
            0 -1 134 -5.2374999970197678e-02</internalNodes>
          <leafValues>
            5.9242957830429077e-01 -3.2543811202049255e-01</leafValues></_>
        <_>
          <internalNodes>
            0 -1 44 1.3443706848192960e-04</internalNodes>
          <leafValues>
            -2.8985336422920227e-01 5.8321744203567505e-01</leafValues></_>
        <_>
          <internalNodes>
            0 -1 76 -1.4608450001105666e-03</internalNodes>
          <leafValues>
            6.7927265167236328e-01 -2.2653836011886597e-01</leafValues></_>
        <_>
          <internalNodes>
            0 -1 18 -2.9020331799983978e-02</internalNodes>
          <leafValues>
            5.0686573982238770e-01 -3.0818310379981995e-01</leafValues></_>
        <_>
          <internalNodes>
            0 -1 63 -1.5031773597002029e-02</internalNodes>
          <leafValues>
            1.4180455207824707e+00 -1.1378315836191177e-01</leafValues></_>
        <_>
          <internalNodes>
            0 -1 24 1.3266339898109436e-02</internalNodes>
          <leafValues>
            8.5238948464393616e-02 -1.2659195661544800e+00</leafValues></_>
        <_>
          <internalNodes>
            0 -1 125 -2.3017791099846363e-03</internalNodes>
          <leafValues>
            -4.5825716853141785e-01 2.8043842315673828e-01</leafValues></_>
        <_>
          <internalNodes>
            0 -1 183 4.5610060915350914e-03</internalNodes>
          <leafValues>
            2.1414349973201752e-01 -6.3810968399047852e-01</leafValues></_>
        <_>
          <internalNodes>
            0 -1 52 2.8582178056240082e-02</internalNodes>
          <leafValues>
            -1.2281286716461182e-01 5.7564578056335449e+00</leafValues></_>
        <_>
          <internalNodes>
            0 -1 49 7.0290073752403259e-02</internalNodes>
          <leafValues>
            2.0289145410060883e-01 -2.2135348320007324e+00</leafValues></_>
        <_>
          <internalNodes>
            0 -1 170 -4.8287611454725266e-02</internalNodes>
          <leafValues>
            8.4310650825500488e-01 -4.0505298972129822e-01</leafValues></_>
        <_>
          <internalNodes>
            0 -1 131 -3.7049321690574288e-04</internalNodes>
          <leafValues>
            4.2723351716995239e-01 -5.1381850242614746e-01</leafValues></_>
        <_>
          <internalNodes>
            0 -1 82 -1.4096672646701336e-02</internalNodes>
          <leafValues>
            -4.8753499984741211e-01 3.6691093444824219e-01</leafValues></_>
        <_>
          <internalNodes>
            0 -1 101 6.9172754883766174e-02</internalNodes>
          <leafValues>
            -2.3496817052364349e-01 7.3778778314590454e-01</leafValues></_>
        <_>
          <internalNodes>
            0 -1 164 1.5672244131565094e-02</internalNodes>
          <leafValues>
            1.6281802952289581e-01 -9.7129553556442261e-01</leafValues></_></weakClassifiers></_></stages>
  <features>
    <_>
      <rects>
        <_>
          0 0 1 3 -1.</_>
        <_>
          0 1 1 1 3.</_></rects>
      <tilted>0</tilted></_>
    <_>
      <rects>
        <_>
          0 0 2 2 -1.</_>
        <_>
          1 0 1 2 2.</_></rects>
      <tilted>0</tilted></_>
    <_>
      <rects>
        <_>
          0 0 1 6 -1.</_>
        <_>
          0 2 1 2 3.</_></rects>
      <tilted>0</tilted></_>
    <_>
      <rects>
        <_>
          0 0 4 1 -1.</_>
        <_>
          2 0 2 1 2.</_></rects>
      <tilted>0</tilted></_>
    <_>
      <rects>
        <_>
          0 0 2 12 -1.</_>
        <_>
          0 6 2 6 2.</_></rects>
      <tilted>0</tilted></_>
    <_>
      <rects>
        <_>
          0 0 8 7 -1.</_>
        <_>
          4 0 4 7 2.</_></rects>
      <tilted>0</tilted></_>
    <_>
      <rects>
        <_>
          0 0 12 8 -1.</_>
        <_>
          4 0 4 8 3.</_></rects>
      <tilted>0</tilted></_>
    <_>
      <rects>
        <_>
          0 0 12 9 -1.</_>
        <_>
          4 0 4 9 3.</_></rects>
      <tilted>0</tilted></_>
    <_>
      <rects>
        <_>
          0 0 12 10 -1.</_>
        <_>
          4 0 4 10 3.</_></rects>
      <tilted>0</tilted></_>
    <_>
      <rects>
        <_>
          0 0 12 2 -1.</_>
        <_>
          6 0 6 2 2.</_></rects>
      <tilted>0</tilted></_>
    <_>
      <rects>
        <_>
          0 0 12 12 -1.</_>
        <_>
          0 0 6 6 2.</_>
        <_>
          6 6 6 6 2.</_></rects>
      <tilted>0</tilted></_>
    <_>
      <rects>
        <_>
          0 1 6 9 -1.</_>
        <_>
          2 1 2 9 3.</_></rects>
      <tilted>0</tilted></_>
    <_>
      <rects>
        <_>
          0 1 6 10 -1.</_>
        <_>
          3 1 3 10 2.</_></rects>
      <tilted>0</tilted></_>
    <_>
      <rects>
        <_>
          0 1 12 8 -1.</_>
        <_>
          4 1 4 8 3.</_></rects>
      <tilted>0</tilted></_>
    <_>
      <rects>
        <_>
          0 3 2 6 -1.</_>
        <_>
          1 3 1 6 2.</_></rects>
      <tilted>0</tilted></_>
    <_>
      <rects>
        <_>
          0 3 12 6 -1.</_>
        <_>
          4 3 4 6 3.</_></rects>
      <tilted>0</tilted></_>
    <_>
      <rects>
        <_>
          0 4 1 8 -1.</_>
        <_>
          0 8 1 4 2.</_></rects>
      <tilted>0</tilted></_>
    <_>
      <rects>
        <_>
          0 4 7 8 -1.</_>
        <_>
          0 8 7 4 2.</_></rects>
      <tilted>0</tilted></_>
    <_>
      <rects>
        <_>
          0 4 12 2 -1.</_>
        <_>
          0 5 12 1 2.</_></rects>
      <tilted>0</tilted></_>
    <_>
      <rects>
        <_>
          0 5 3 3 -1.</_>
        <_>
          1 5 1 3 3.</_></rects>
      <tilted>0</tilted></_>
    <_>
      <rects>
        <_>
          0 6 1 6 -1.</_>
        <_>
          0 9 1 3 2.</_></rects>
      <tilted>0</tilted></_>
    <_>
      <rects>
        <_>
          0 6 12 6 -1.</_>
        <_>
          6 6 6 6 2.</_></rects>
      <tilted>0</tilted></_>
    <_>
      <rects>
        <_>
          0 6 11 6 -1.</_>
        <_>
          0 9 11 3 2.</_></rects>
      <tilted>0</tilted></_>
    <_>
      <rects>
        <_>
          0 7 12 4 -1.</_>
        <_>
          0 9 12 2 2.</_></rects>
      <tilted>0</tilted></_>
    <_>
      <rects>
        <_>
          0 8 2 4 -1.</_>
        <_>
          0 10 2 2 2.</_></rects>
      <tilted>0</tilted></_>
    <_>
      <rects>
        <_>
          0 8 12 3 -1.</_>
        <_>
          6 8 6 3 2.</_></rects>
      <tilted>0</tilted></_>
    <_>
      <rects>
        <_>
          0 8 11 4 -1.</_>
        <_>
          0 10 11 2 2.</_></rects>
      <tilted>0</tilted></_>
    <_>
      <rects>
        <_>
          0 9 4 3 -1.</_>
        <_>
          2 9 2 3 2.</_></rects>
      <tilted>0</tilted></_>
    <_>
      <rects>
        <_>
          0 9 12 2 -1.</_>
        <_>
          6 9 6 2 2.</_></rects>
      <tilted>0</tilted></_>
    <_>
      <rects>
        <_>
          0 10 1 2 -1.</_>
        <_>
          0 11 1 1 2.</_></rects>
      <tilted>0</tilted></_>
    <_>
      <rects>
        <_>
          0 10 2 2 -1.</_>
        <_>
          1 10 1 2 2.</_></rects>
      <tilted>0</tilted></_>
    <_>
      <rects>
        <_>
          0 10 4 2 -1.</_>
        <_>
          2 10 2 2 2.</_></rects>
      <tilted>0</tilted></_>
    <_>
      <rects>
        <_>
          0 10 6 1 -1.</_>
        <_>
          3 10 3 1 2.</_></rects>
      <tilted>0</tilted></_>
    <_>
      <rects>
        <_>
          0 10 8 2 -1.</_>
        <_>
          4 10 4 2 2.</_></rects>
      <tilted>0</tilted></_>
    <_>
      <rects>
        <_>
          0 11 2 1 -1.</_>
        <_>
          1 11 1 1 2.</_></rects>
      <tilted>0</tilted></_>
    <_>
      <rects>
        <_>
          0 11 3 1 -1.</_>
        <_>
          1 11 1 1 3.</_></rects>
      <tilted>0</tilted></_>
    <_>
      <rects>
        <_>
          0 11 4 1 -1.</_>
        <_>
          2 11 2 1 2.</_></rects>
      <tilted>0</tilted></_>
    <_>
      <rects>
        <_>
          0 11 6 1 -1.</_>
        <_>
          3 11 3 1 2.</_></rects>
      <tilted>0</tilted></_>
    <_>
      <rects>
        <_>
          1 0 2 2 -1.</_>
        <_>
          2 0 1 2 2.</_></rects>
      <tilted>0</tilted></_>
    <_>
      <rects>
        <_>
          1 0 3 4 -1.</_>
        <_>
          1 2 3 2 2.</_></rects>
      <tilted>0</tilted></_>
    <_>
      <rects>
        <_>
          1 0 6 12 -1.</_>
        <_>
          4 0 3 12 2.</_></rects>
      <tilted>0</tilted></_>
    <_>
      <rects>
        <_>
          1 0 10 3 -1.</_>
        <_>
          6 0 5 3 2.</_></rects>
      <tilted>0</tilted></_>
    <_>
      <rects>
        <_>
          1 1 4 2 -1.</_>
        <_>
          1 1 2 1 2.</_>
        <_>
          3 2 2 1 2.</_></rects>
      <tilted>0</tilted></_>
    <_>
      <rects>
        <_>
          1 2 4 1 -1.</_>
        <_>
          3 2 2 1 2.</_></rects>
      <tilted>0</tilted></_>
    <_>
      <rects>
        <_>
          1 3 2 4 -1.</_>
        <_>
          1 5 2 2 2.</_></rects>
      <tilted>0</tilted></_>
    <_>
      <rects>
        <_>
          1 3 4 6 -1.</_>
        <_>
          1 3 2 3 2.</_>
        <_>
          3 6 2 3 2.</_></rects>
      <tilted>0</tilted></_>
    <_>
      <rects>
        <_>
          1 3 7 2 -1.</_>
        <_>
          1 4 7 1 2.</_></rects>
      <tilted>0</tilted></_>
    <_>
      <rects>
        <_>
          1 4 2 4 -1.</_>
        <_>
          2 4 1 4 2.</_></rects>
      <tilted>0</tilted></_>
    <_>
      <rects>
        <_>
          1 4 9 3 -1.</_>
        <_>
          1 5 9 1 3.</_></rects>
      <tilted>0</tilted></_>
    <_>
      <rects>
        <_>
          1 5 6 3 -1.</_>
        <_>
          3 5 2 3 3.</_></rects>
      <tilted>0</tilted></_>
    <_>
      <rects>
        <_>
          1 5 9 6 -1.</_>
        <_>
          1 8 9 3 2.</_></rects>
      <tilted>0</tilted></_>
    <_>
      <rects>
        <_>
          1 6 2 1 -1.</_>
        <_>
          2 6 1 1 2.</_></rects>
      <tilted>0</tilted></_>
    <_>
      <rects>
        <_>
          1 6 6 1 -1.</_>
        <_>
          3 6 2 1 3.</_></rects>
      <tilted>0</tilted></_>
    <_>
      <rects>
        <_>
          1 6 10 6 -1.</_>
        <_>
          6 6 5 6 2.</_></rects>
      <tilted>0</tilted></_>
    <_>
      <rects>
        <_>
          1 7 6 1 -1.</_>
        <_>
          3 7 2 1 3.</_></rects>
      <tilted>0</tilted></_>
    <_>
      <rects>
        <_>
          1 8 8 4 -1.</_>
        <_>
          1 10 8 2 2.</_></rects>
      <tilted>0</tilted></_>
    <_>
      <rects>
        <_>
          1 10 4 1 -1.</_>
        <_>
          3 10 2 1 2.</_></rects>
      <tilted>0</tilted></_>
    <_>
      <rects>
        <_>
          1 10 6 2 -1.</_>
        <_>
          1 10 3 1 2.</_>
        <_>
          4 11 3 1 2.</_></rects>
      <tilted>0</tilted></_>
    <_>
      <rects>
        <_>
          2 0 10 1 -1.</_>
        <_>
          7 0 5 1 2.</_></rects>
      <tilted>0</tilted></_>
    <_>
      <rects>
        <_>
          2 0 8 9 -1.</_>
        <_>
          2 3 8 3 3.</_></rects>
      <tilted>0</tilted></_>
    <_>
      <rects>
        <_>
          2 1 2 1 -1.</_>
        <_>
          3 1 1 1 2.</_></rects>
      <tilted>0</tilted></_>
    <_>
      <rects>
        <_>
          2 2 2 6 -1.</_>
        <_>
          2 2 1 3 2.</_>
        <_>
          3 5 1 3 2.</_></rects>
      <tilted>0</tilted></_>
    <_>
      <rects>
        <_>
          2 2 4 2 -1.</_>
        <_>
          2 2 2 1 2.</_>
        <_>
          4 3 2 1 2.</_></rects>
      <tilted>0</tilted></_>
    <_>
      <rects>
        <_>
          2 2 5 2 -1.</_>
        <_>
          2 3 5 1 2.</_></rects>
      <tilted>0</tilted></_>
    <_>
      <rects>
        <_>
          2 2 7 10 -1.</_>
        <_>
          2 7 7 5 2.</_></rects>
      <tilted>0</tilted></_>
    <_>
      <rects>
        <_>
          2 3 6 7 -1.</_>
        <_>
          4 3 2 7 3.</_></rects>
      <tilted>0</tilted></_>
    <_>
      <rects>
        <_>
          2 3 10 8 -1.</_>
        <_>
          2 3 5 4 2.</_>
        <_>
          7 7 5 4 2.</_></rects>
      <tilted>0</tilted></_>
    <_>
      <rects>
        <_>
          2 3 10 8 -1.</_>
        <_>
          2 7 10 4 2.</_></rects>
      <tilted>0</tilted></_>
    <_>
      <rects>
        <_>
          2 4 3 5 -1.</_>
        <_>
          3 4 1 5 3.</_></rects>
      <tilted>0</tilted></_>
    <_>
      <rects>
        <_>
          2 4 4 4 -1.</_>
        <_>
          2 4 2 2 2.</_>
        <_>
          4 6 2 2 2.</_></rects>
      <tilted>0</tilted></_>
    <_>
      <rects>
        <_>
          2 4 6 6 -1.</_>
        <_>
          4 4 2 6 3.</_></rects>
      <tilted>0</tilted></_>
    <_>
      <rects>
        <_>
          2 4 9 8 -1.</_>
        <_>
          2 8 9 4 2.</_></rects>
      <tilted>0</tilted></_>
    <_>
      <rects>
        <_>
          2 5 2 5 -1.</_>
        <_>
          3 5 1 5 2.</_></rects>
      <tilted>0</tilted></_>
    <_>
      <rects>
        <_>
          2 5 10 7 -1.</_>
        <_>
          7 5 5 7 2.</_></rects>
      <tilted>0</tilted></_>
    <_>
      <rects>
        <_>
          2 6 10 6 -1.</_>
        <_>
          2 9 10 3 2.</_></rects>
      <tilted>0</tilted></_>
    <_>
      <rects>
        <_>
          2 8 8 2 -1.</_>
        <_>
          2 8 4 1 2.</_>
        <_>
          6 9 4 1 2.</_></rects>
      <tilted>0</tilted></_>
    <_>
      <rects>
        <_>
          2 9 2 2 -1.</_>
        <_>
          2 9 1 1 2.</_>
        <_>
          3 10 1 1 2.</_></rects>
      <tilted>0</tilted></_>
    <_>
      <rects>
        <_>
          3 0 6 1 -1.</_>
        <_>
          5 0 2 1 3.</_></rects>
      <tilted>0</tilted></_>
    <_>
      <rects>
        <_>
          3 0 9 1 -1.</_>
        <_>
          6 0 3 1 3.</_></rects>
      <tilted>0</tilted></_>
    <_>
      <rects>
        <_>
          3 0 9 11 -1.</_>
        <_>
          6 0 3 11 3.</_></rects>
      <tilted>0</tilted></_>
    <_>
      <rects>
        <_>
          3 0 8 10 -1.</_>
        <_>
          7 0 4 10 2.</_></rects>
      <tilted>0</tilted></_>
    <_>
      <rects>
        <_>
          3 1 3 5 -1.</_>
        <_>
          4 1 1 5 3.</_></rects>
      <tilted>0</tilted></_>
    <_>
      <rects>
        <_>
          3 1 8 2 -1.</_>
        <_>
          3 1 4 1 2.</_>
        <_>
          7 2 4 1 2.</_></rects>
      <tilted>0</tilted></_>
    <_>
      <rects>
        <_>
          3 2 2 2 -1.</_>
        <_>
          3 2 1 1 2.</_>
        <_>
          4 3 1 1 2.</_></rects>
      <tilted>0</tilted></_>
    <_>
      <rects>
        <_>
          3 2 3 4 -1.</_>
        <_>
          4 2 1 4 3.</_></rects>
      <tilted>0</tilted></_>
    <_>
      <rects>
        <_>
          3 2 4 4 -1.</_>
        <_>
          3 2 2 2 2.</_>
        <_>
          5 4 2 2 2.</_></rects>
      <tilted>0</tilted></_>
    <_>
      <rects>
        <_>
          3 2 6 4 -1.</_>
        <_>
          5 2 2 4 3.</_></rects>
      <tilted>0</tilted></_>
    <_>
      <rects>
        <_>
          3 3 3 5 -1.</_>
        <_>
          4 3 1 5 3.</_></rects>
      <tilted>0</tilted></_>
    <_>
      <rects>
        <_>
          3 3 3 6 -1.</_>
        <_>
          4 3 1 6 3.</_></rects>
      <tilted>0</tilted></_>
    <_>
      <rects>
        <_>
          3 3 3 7 -1.</_>
        <_>
          4 3 1 7 3.</_></rects>
      <tilted>0</tilted></_>
    <_>
      <rects>
        <_>
          3 3 3 8 -1.</_>
        <_>
          3 7 3 4 2.</_></rects>
      <tilted>0</tilted></_>
    <_>
      <rects>
        <_>
          3 4 6 3 -1.</_>
        <_>
          5 4 2 3 3.</_></rects>
      <tilted>0</tilted></_>
    <_>
      <rects>
        <_>
          3 4 6 8 -1.</_>
        <_>
          5 4 2 8 3.</_></rects>
      <tilted>0</tilted></_>
    <_>
      <rects>
        <_>
          3 4 6 6 -1.</_>
        <_>
          3 4 3 3 2.</_>
        <_>
          6 7 3 3 2.</_></rects>
      <tilted>0</tilted></_>
    <_>
      <rects>
        <_>
          3 5 3 4 -1.</_>
        <_>
          4 5 1 4 3.</_></rects>
      <tilted>0</tilted></_>
    <_>
      <rects>
        <_>
          3 5 6 4 -1.</_>
        <_>
          5 5 2 4 3.</_></rects>
      <tilted>0</tilted></_>
    <_>
      <rects>
        <_>
          3 5 8 7 -1.</_>
        <_>
          7 5 4 7 2.</_></rects>
      <tilted>0</tilted></_>
    <_>
      <rects>
        <_>
          3 5 7 6 -1.</_>
        <_>
          3 8 7 3 2.</_></rects>
      <tilted>0</tilted></_>
    <_>
      <rects>
        <_>
          3 6 1 6 -1.</_>
        <_>
          3 8 1 2 3.</_></rects>
      <tilted>0</tilted></_>
    <_>
      <rects>
        <_>
          3 6 3 4 -1.</_>
        <_>
          4 6 1 4 3.</_></rects>
      <tilted>0</tilted></_>
    <_>
      <rects>
        <_>
          3 6 6 4 -1.</_>
        <_>
          5 6 2 4 3.</_></rects>
      <tilted>0</tilted></_>
    <_>
      <rects>
        <_>
          3 6 6 6 -1.</_>
        <_>
          5 6 2 6 3.</_></rects>
      <tilted>0</tilted></_>
    <_>
      <rects>
        <_>
          3 8 4 3 -1.</_>
        <_>
          3 9 4 1 3.</_></rects>
      <tilted>0</tilted></_>
    <_>
      <rects>
        <_>
          4 0 8 12 -1.</_>
        <_>
          8 0 4 12 2.</_></rects>
      <tilted>0</tilted></_>
    <_>
      <rects>
        <_>
          4 2 3 6 -1.</_>
        <_>
          5 2 1 6 3.</_></rects>
      <tilted>0</tilted></_>
    <_>
      <rects>
        <_>
          4 2 3 8 -1.</_>
        <_>
          5 2 1 8 3.</_></rects>
      <tilted>0</tilted></_>
    <_>
      <rects>
        <_>
          4 2 6 1 -1.</_>
        <_>
          6 2 2 1 3.</_></rects>
      <tilted>0</tilted></_>
    <_>
      <rects>
        <_>
          4 2 5 3 -1.</_>
        <_>
          4 3 5 1 3.</_></rects>
      <tilted>0</tilted></_>
    <_>
      <rects>
        <_>
          4 3 2 8 -1.</_>
        <_>
          4 3 1 4 2.</_>
        <_>
          5 7 1 4 2.</_></rects>
      <tilted>0</tilted></_>
    <_>
      <rects>
        <_>
          4 3 3 6 -1.</_>
        <_>
          5 3 1 6 3.</_></rects>
      <tilted>0</tilted></_>
    <_>
      <rects>
        <_>
          4 3 5 3 -1.</_>
        <_>
          4 4 5 1 3.</_></rects>
      <tilted>0</tilted></_>
    <_>
      <rects>
        <_>
          4 3 7 8 -1.</_>
        <_>
          4 7 7 4 2.</_></rects>
      <tilted>0</tilted></_>
    <_>
      <rects>
        <_>
          4 4 3 5 -1.</_>
        <_>
          5 4 1 5 3.</_></rects>
      <tilted>0</tilted></_>
    <_>
      <rects>
        <_>
          4 4 4 4 -1.</_>
        <_>
          4 4 2 2 2.</_>
        <_>
          6 6 2 2 2.</_></rects>
      <tilted>0</tilted></_>
    <_>
      <rects>
        <_>
          4 4 6 7 -1.</_>
        <_>
          6 4 2 7 3.</_></rects>
      <tilted>0</tilted></_>
    <_>
      <rects>
        <_>
          4 5 3 6 -1.</_>
        <_>
          5 5 1 6 3.</_></rects>
      <tilted>0</tilted></_>
    <_>
      <rects>
        <_>
          4 6 4 4 -1.</_>
        <_>
          4 6 2 2 2.</_>
        <_>
          6 8 2 2 2.</_></rects>
      <tilted>0</tilted></_>
    <_>
      <rects>
        <_>
          4 6 8 6 -1.</_>
        <_>
          8 6 4 6 2.</_></rects>
      <tilted>0</tilted></_>
    <_>
      <rects>
        <_>
          4 6 6 3 -1.</_>
        <_>
          4 7 6 1 3.</_></rects>
      <tilted>0</tilted></_>
    <_>
      <rects>
        <_>
          4 7 4 2 -1.</_>
        <_>
          4 7 2 1 2.</_>
        <_>
          6 8 2 1 2.</_></rects>
      <tilted>0</tilted></_>
    <_>
      <rects>
        <_>
          4 8 8 4 -1.</_>
        <_>
          8 8 4 4 2.</_></rects>
      <tilted>0</tilted></_>
    <_>
      <rects>
        <_>
          4 10 1 2 -1.</_>
        <_>
          4 11 1 1 2.</_></rects>
      <tilted>0</tilted></_>
    <_>
      <rects>
        <_>
          4 10 6 1 -1.</_>
        <_>
          6 10 2 1 3.</_></rects>
      <tilted>0</tilted></_>
    <_>
      <rects>
        <_>
          5 0 3 7 -1.</_>
        <_>
          6 0 1 7 3.</_></rects>
      <tilted>0</tilted></_>
    <_>
      <rects>
        <_>
          5 0 4 6 -1.</_>
        <_>
          7 0 2 6 2.</_></rects>
      <tilted>0</tilted></_>
    <_>
      <rects>
        <_>
          5 1 6 1 -1.</_>
        <_>
          7 1 2 1 3.</_></rects>
      <tilted>0</tilted></_>
    <_>
      <rects>
        <_>
          5 1 3 3 -1.</_>
        <_>
          5 2 3 1 3.</_></rects>
      <tilted>0</tilted></_>
    <_>
      <rects>
        <_>
          5 2 1 3 -1.</_>
        <_>
          5 3 1 1 3.</_></rects>
      <tilted>0</tilted></_>
    <_>
      <rects>
        <_>
          5 2 6 6 -1.</_>
        <_>
          7 2 2 6 3.</_></rects>
      <tilted>0</tilted></_>
    <_>
      <rects>
        <_>
          5 2 6 3 -1.</_>
        <_>
          5 3 6 1 3.</_></rects>
      <tilted>0</tilted></_>
    <_>
      <rects>
        <_>
          5 3 4 4 -1.</_>
        <_>
          5 3 2 2 2.</_>
        <_>
          7 5 2 2 2.</_></rects>
      <tilted>0</tilted></_>
    <_>
      <rects>
        <_>
          5 4 1 2 -1.</_>
        <_>
          5 5 1 1 2.</_></rects>
      <tilted>0</tilted></_>
    <_>
      <rects>
        <_>
          5 4 1 3 -1.</_>
        <_>
          5 5 1 1 3.</_></rects>
      <tilted>0</tilted></_>
    <_>
      <rects>
        <_>
          5 4 3 5 -1.</_>
        <_>
          6 4 1 5 3.</_></rects>
      <tilted>0</tilted></_>
    <_>
      <rects>
        <_>
          5 4 4 8 -1.</_>
        <_>
          7 4 2 8 2.</_></rects>
      <tilted>0</tilted></_>
    <_>
      <rects>
        <_>
          5 6 3 5 -1.</_>
        <_>
          6 6 1 5 3.</_></rects>
      <tilted>0</tilted></_>
    <_>
      <rects>
        <_>
          5 6 4 4 -1.</_>
        <_>
          5 6 2 2 2.</_>
        <_>
          7 8 2 2 2.</_></rects>
      <tilted>0</tilted></_>
    <_>
      <rects>
        <_>
          6 0 4 1 -1.</_>
        <_>
          8 0 2 1 2.</_></rects>
      <tilted>0</tilted></_>
    <_>
      <rects>
        <_>
          6 0 2 6 -1.</_>
        <_>
          6 2 2 2 3.</_></rects>
      <tilted>0</tilted></_>
    <_>
      <rects>
        <_>
          6 2 2 2 -1.</_>
        <_>
          6 2 1 1 2.</_>
        <_>
          7 3 1 1 2.</_></rects>
      <tilted>0</tilted></_>
    <_>
      <rects>
        <_>
          6 3 3 4 -1.</_>
        <_>
          7 3 1 4 3.</_></rects>
      <tilted>0</tilted></_>
    <_>
      <rects>
        <_>
          6 3 3 3 -1.</_>
        <_>
          6 4 3 1 3.</_></rects>
      <tilted>0</tilted></_>
    <_>
      <rects>
        <_>
          6 3 4 3 -1.</_>
        <_>
          6 4 4 1 3.</_></rects>
      <tilted>0</tilted></_>
    <_>
      <rects>
        <_>
          6 4 3 5 -1.</_>
        <_>
          7 4 1 5 3.</_></rects>
      <tilted>0</tilted></_>
    <_>
      <rects>
        <_>
          6 4 3 6 -1.</_>
        <_>
          7 4 1 6 3.</_></rects>
      <tilted>0</tilted></_>
    <_>
      <rects>
        <_>
          6 4 3 7 -1.</_>
        <_>
          7 4 1 7 3.</_></rects>
      <tilted>0</tilted></_>
    <_>
      <rects>
        <_>
          6 4 3 3 -1.</_>
        <_>
          6 5 3 1 3.</_></rects>
      <tilted>0</tilted></_>
    <_>
      <rects>
        <_>
          6 5 3 4 -1.</_>
        <_>
          7 5 1 4 3.</_></rects>
      <tilted>0</tilted></_>
    <_>
      <rects>
        <_>
          6 5 3 6 -1.</_>
        <_>
          7 5 1 6 3.</_></rects>
      <tilted>0</tilted></_>
    <_>
      <rects>
        <_>
          6 6 1 2 -1.</_>
        <_>
          6 7 1 1 2.</_></rects>
      <tilted>0</tilted></_>
    <_>
      <rects>
        <_>
          6 8 2 2 -1.</_>
        <_>
          6 9 2 1 2.</_></rects>
      <tilted>0</tilted></_>
    <_>
      <rects>
        <_>
          7 0 1 2 -1.</_>
        <_>
          7 1 1 1 2.</_></rects>
      <tilted>0</tilted></_>
    <_>
      <rects>
        <_>
          7 0 1 3 -1.</_>
        <_>
          7 1 1 1 3.</_></rects>
      <tilted>0</tilted></_>
    <_>
      <rects>
        <_>
          7 0 3 7 -1.</_>
        <_>
          8 0 1 7 3.</_></rects>
      <tilted>0</tilted></_>
    <_>
      <rects>
        <_>
          7 2 1 3 -1.</_>
        <_>
          7 3 1 1 3.</_></rects>
      <tilted>0</tilted></_>
    <_>
      <rects>
        <_>
          7 2 1 6 -1.</_>
        <_>
          7 4 1 2 3.</_></rects>
      <tilted>0</tilted></_>
    <_>
      <rects>
        <_>
          7 2 3 5 -1.</_>
        <_>
          8 2 1 5 3.</_></rects>
      <tilted>0</tilted></_>
    <_>
      <rects>
        <_>
          7 2 3 6 -1.</_>
        <_>
          8 2 1 6 3.</_></rects>
      <tilted>0</tilted></_>
    <_>
      <rects>
        <_>
          7 2 3 9 -1.</_>
        <_>
          8 2 1 9 3.</_></rects>
      <tilted>0</tilted></_>
    <_>
      <rects>
        <_>
          7 4 3 5 -1.</_>
        <_>
          8 4 1 5 3.</_></rects>
      <tilted>0</tilted></_>
    <_>
      <rects>
        <_>
          7 4 3 8 -1.</_>
        <_>
          8 4 1 8 3.</_></rects>
      <tilted>0</tilted></_>
    <_>
      <rects>
        <_>
          7 10 4 2 -1.</_>
        <_>
          7 10 2 1 2.</_>
        <_>
          9 11 2 1 2.</_></rects>
      <tilted>0</tilted></_>
    <_>
      <rects>
        <_>
          8 1 2 2 -1.</_>
        <_>
          8 1 1 1 2.</_>
        <_>
          9 2 1 1 2.</_></rects>
      <tilted>0</tilted></_>
    <_>
      <rects>
        <_>
          8 2 2 3 -1.</_>
        <_>
          9 2 1 3 2.</_></rects>
      <tilted>0</tilted></_>
    <_>
      <rects>
        <_>
          8 3 1 3 -1.</_>
        <_>
          8 4 1 1 3.</_></rects>
      <tilted>0</tilted></_>
    <_>
      <rects>
        <_>
          8 3 2 6 -1.</_>
        <_>
          8 3 1 3 2.</_>
        <_>
          9 6 1 3 2.</_></rects>
      <tilted>0</tilted></_>
    <_>
      <rects>
        <_>
          8 3 3 6 -1.</_>
        <_>
          9 3 1 6 3.</_></rects>
      <tilted>0</tilted></_>
    <_>
      <rects>
        <_>
          8 4 2 8 -1.</_>
        <_>
          8 4 1 4 2.</_>
        <_>
          9 8 1 4 2.</_></rects>
      <tilted>0</tilted></_>
    <_>
      <rects>
        <_>
          8 4 3 7 -1.</_>
        <_>
          9 4 1 7 3.</_></rects>
      <tilted>0</tilted></_>
    <_>
      <rects>
        <_>
          8 5 3 7 -1.</_>
        <_>
          9 5 1 7 3.</_></rects>
      <tilted>0</tilted></_>
    <_>
      <rects>
        <_>
          8 5 4 4 -1.</_>
        <_>
          10 5 2 4 2.</_></rects>
      <tilted>0</tilted></_>
    <_>
      <rects>
        <_>
          8 6 4 2 -1.</_>
        <_>
          10 6 2 2 2.</_></rects>
      <tilted>0</tilted></_>
    <_>
      <rects>
        <_>
          8 10 4 2 -1.</_>
        <_>
          10 10 2 2 2.</_></rects>
      <tilted>0</tilted></_>
    <_>
      <rects>
        <_>
          8 11 4 1 -1.</_>
        <_>
          10 11 2 1 2.</_></rects>
      <tilted>0</tilted></_>
    <_>
      <rects>
        <_>
          9 0 2 12 -1.</_>
        <_>
          9 4 2 4 3.</_></rects>
      <tilted>0</tilted></_>
    <_>
      <rects>
        <_>
          9 5 2 2 -1.</_>
        <_>
          9 5 1 1 2.</_>
        <_>
          10 6 1 1 2.</_></rects>
      <tilted>0</tilted></_>
    <_>
      <rects>
        <_>
          10 0 2 12 -1.</_>
        <_>
          10 6 2 6 2.</_></rects>
      <tilted>0</tilted></_>
    <_>
      <rects>
        <_>
          10 6 2 6 -1.</_>
        <_>
          10 9 2 3 2.</_></rects>
      <tilted>0</tilted></_>
    <_>
      <rects>
        <_>
          10 9 2 2 -1.</_>
        <_>
          11 9 1 2 2.</_></rects>
      <tilted>0</tilted></_>
    <_>
      <rects>
        <_>
          10 10 2 2 -1.</_>
        <_>
          11 10 1 2 2.</_></rects>
      <tilted>0</tilted></_>
    <_>
      <rects>
        <_>
          10 11 2 1 -1.</_>
        <_>
          11 11 1 1 2.</_></rects>
      <tilted>0</tilted></_>
    <_>
      <rects>
        <_>
          11 0 1 4 -1.</_>
        <_>
          11 2 1 2 2.</_></rects>
      <tilted>0</tilted></_>
    <_>
      <rects>
        <_>
          11 0 1 12 -1.</_>
        <_>
          11 4 1 4 3.</_></rects>
      <tilted>0</tilted></_>
    <_>
      <rects>
        <_>
          11 3 1 3 -1.</_>
        <_>
          11 4 1 1 3.</_></rects>
      <tilted>0</tilted></_>
    <_>
      <rects>
        <_>
          11 3 1 9 -1.</_>
        <_>
          11 6 1 3 3.</_></rects>
      <tilted>0</tilted></_>
    <_>
      <rects>
        <_>
          11 6 1 6 -1.</_>
        <_>
          11 9 1 3 2.</_></rects>
      <tilted>0</tilted></_>
    <_>
      <rects>
        <_>
          11 7 1 4 -1.</_>
        <_>
          11 9 1 2 2.</_></rects>
      <tilted>0</tilted></_>
    <_>
      <rects>
        <_>
          11 10 1 2 -1.</_>
        <_>
          11 11 1 1 2.</_></rects>
      <tilted>0</tilted></_></features></cascade>
</opencv_storage>
