<?xml version="1.0"?>
<opencv_storage>
<cascade>
  <stageType>BOOST</stageType>
  <featureType>HAAR</featureType>
  <height>12</height>
  <width>12</width>
  <stageParams>
    <boostType>RAB</boostType>
    <minHitRate>9.9500000476837158e-01</minHitRate>
    <maxFalseAlarm>5.0000000000000000e-01</maxFalseAlarm>
    <weightTrimRate>9.4999999999999996e-01</weightTrimRate>
    <maxDepth>1</maxDepth>
    <maxWeakCount>100</maxWeakCount></stageParams>
  <featureParams>
    <maxCatCount>0</maxCatCount>
    <featSize>1</featSize>
    <mode>CORE</mode></featureParams>
  <stageNum>9</stageNum>
  <stages>
    <!-- stage 0 -->
    <_>
      <maxWeakCount>9</maxWeakCount>
      <stageThreshold>-2.7462251186370850e+00</stageThreshold>
      <weakClassifiers>
        <_>
          <internalNodes>
            0 -1 67 -3.0054324865341187e-01</internalNodes>
          <leafValues>
            -4.4934523105621338e-01 -1.8259811401367188e+00</leafValues></_>
        <_>
          <internalNodes>
            0 -1 8 3.5990059375762939e-02</internalNodes>
          <leafValues>
            -7.4450910091400146e-01 2.6798802614212036e-01</leafValues></_>
        <_>
          <internalNodes>
            0 -1 140 2.2862568497657776e-02</internalNodes>
          <leafValues>
            -1.8731859326362610e-01 9.0970230102539063e-01</leafValues></_>
        <_>
          <internalNodes>
            0 -1 139 -2.1305747330188751e-02</internalNodes>
          <leafValues>
            1.0475862026214600e+00 -2.0286796987056732e-01</leafValues></_>
        <_>
          <internalNodes>
            0 -1 7 5.0598293542861938e-01</internalNodes>
          <leafValues>
            1.5132783353328705e-01 -1.3133101463317871e+00</leafValues></_>
        <_>
          <internalNodes>
            0 -1 138 2.0055197179317474e-02</internalNodes>
          <leafValues>
            -2.1944771707057953e-01 6.7266893386840820e-01</leafValues></_>
        <_>
          <internalNodes>
            0 -1 153 -1.3487895950675011e-02</internalNodes>
          <leafValues>
            7.5260478258132935e-01 -2.3849622905254364e-01</leafValues></_>
        <_>
          <internalNodes>
            0 -1 154 2.3432670161128044e-02</internalNodes>
          <leafValues>
            -1.8267218768596649e-01 5.8329397439956665e-01</leafValues></_>
        <_>
          <internalNodes>
            0 -1 4 -4.3622817844152451e-02</internalNodes>
          <leafValues>
            -7.8309386968612671e-01 1.7924036085605621e-01</leafValues></_></weakClassifiers></_>
    <!-- stage 1 -->
    <_>
      <maxWeakCount>16</maxWeakCount>
      <stageThreshold>-2.7565910816192627e+00</stageThreshold>
      <weakClassifiers>
        <_>
          <internalNodes>
            0 -1 80 1.2266448140144348e-01</internalNodes>
          <leafValues>
            -1.3719131946563721e+00 -2.1602237224578857e-01</leafValues></_>
        <_>
          <internalNodes>
            0 -1 102 1.3712671399116516e-01</internalNodes>
          <leafValues>
            -7.4182683229446411e-01 3.5266697406768799e-01</leafValues></_>
        <_>
          <internalNodes>
            0 -1 48 -6.6548970062285662e-04</internalNodes>
          <leafValues>
            3.2786932587623596e-01 -5.0315034389495850e-01</leafValues></_>
        <_>
          <internalNodes>
            0 -1 66 5.5091343820095062e-02</internalNodes>
          <leafValues>
            -2.4355302751064301e-01 5.3837525844573975e-01</leafValues></_>
        <_>
          <internalNodes>
            0 -1 134 2.3874815553426743e-02</internalNodes>
          <leafValues>
            -2.3845987021923065e-01 5.3650259971618652e-01</leafValues></_>
        <_>
          <internalNodes>
            0 -1 106 2.5737762451171875e-02</internalNodes>
          <leafValues>
            -2.5907343626022339e-01 5.7415550947189331e-01</leafValues></_>
        <_>
          <internalNodes>
            0 -1 14 -1.7856314778327942e-01</internalNodes>
          <leafValues>
            -8.4091240167617798e-01 1.3082170486450195e-01</leafValues></_>
        <_>
          <internalNodes>
            0 -1 85 -4.2676605284214020e-02</internalNodes>
          <leafValues>
            7.2961229085922241e-01 -1.5887239575386047e-01</leafValues></_>
        <_>
          <internalNodes>
            0 -1 35 -1.4684137701988220e-01</internalNodes>
          <leafValues>
            -8.2631570100784302e-01 1.1328974366188049e-01</leafValues></_>
        <_>
          <internalNodes>
            0 -1 40 5.2045986056327820e-02</internalNodes>
          <leafValues>
            2.3793715238571167e-01 -6.7749309539794922e-01</leafValues></_>
        <_>
          <internalNodes>
            0 -1 125 3.5469856113195419e-02</internalNodes>
          <leafValues>
            -1.5203507244586945e-01 6.9812941551208496e-01</leafValues></_>
        <_>
          <internalNodes>
            0 -1 9 6.3294851779937744e-01</internalNodes>
          <leafValues>
            1.3499942421913147e-01 -9.4665300846099854e-01</leafValues></_>
        <_>
          <internalNodes>
            0 -1 92 1.0377958416938782e-02</internalNodes>
          <leafValues>
            -2.6886457204818726e-01 4.2882493138313293e-01</leafValues></_>
        <_>
          <internalNodes>
            0 -1 44 2.1925889886915684e-03</internalNodes>
          <leafValues>
            1.4906886219978333e-01 -7.3209834098815918e-01</leafValues></_>
        <_>
          <internalNodes>
            0 -1 13 -1.8900245428085327e-01</internalNodes>
          <leafValues>
            -7.4271613359451294e-01 1.3626113533973694e-01</leafValues></_>
        <_>
          <internalNodes>
            0 -1 171 6.4465031027793884e-04</internalNodes>
          <leafValues>
            -3.4575483202934265e-01 2.7146211266517639e-01</leafValues></_></weakClassifiers></_>
    <!-- stage 2 -->
    <_>
      <maxWeakCount>15</maxWeakCount>
      <stageThreshold>-2.5085825920104980e+00</stageThreshold>
      <weakClassifiers>
        <_>
          <internalNodes>
            0 -1 81 -1.3458295725286007e-02</internalNodes>
          <leafValues>
            2.3500181734561920e-01 -1.2379761934280396e+00</leafValues></_>
        <_>
          <internalNodes>
            0 -1 164 1.8793756607919931e-03</internalNodes>
          <leafValues>
            -5.2943933010101318e-01 4.5199686288833618e-01</leafValues></_>
        <_>
          <internalNodes>
            0 -1 101 -4.4560074806213379e-02</internalNodes>
          <leafValues>
            2.6576420664787292e-01 -6.8662357330322266e-01</leafValues></_>
        <_>
          <internalNodes>
            0 -1 41 -2.4902477860450745e-01</internalNodes>
          <leafValues>
            -1.6371109485626221e+00 1.0380413383245468e-01</leafValues></_>
        <_>
          <internalNodes>
            0 -1 160 2.0333830267190933e-02</internalNodes>
          <leafValues>
            -1.9696693122386932e-01 5.8939504623413086e-01</leafValues></_>
        <_>
          <internalNodes>
            0 -1 135 1.3459598645567894e-02</internalNodes>
          <leafValues>
            -2.7281782031059265e-01 3.2206639647483826e-01</leafValues></_>
        <_>
          <internalNodes>
            0 -1 27 -9.4678476452827454e-03</internalNodes>
          <leafValues>
            -6.1624324321746826e-01 1.7713864147663116e-01</leafValues></_>
        <_>
          <internalNodes>
            0 -1 133 3.7274967879056931e-02</internalNodes>
          <leafValues>
            -1.6235171258449554e-01 5.4165601730346680e-01</leafValues></_>
        <_>
          <internalNodes>
            0 -1 31 -1.5285775065422058e-01</internalNodes>
          <leafValues>
            -7.8421247005462646e-01 1.2854580581188202e-01</leafValues></_>
        <_>
          <internalNodes>
            0 -1 57 -6.0187950730323792e-02</internalNodes>
          <leafValues>
            1.6079881787300110e-01 -5.6962633132934570e-01</leafValues></_>
        <_>
          <internalNodes>
            0 -1 76 6.2232729978859425e-03</internalNodes>
          <leafValues>
            -2.7298125624656677e-01 3.1556531786918640e-01</leafValues></_>
        <_>
          <internalNodes>
            0 -1 36 -5.2354941144585609e-03</internalNodes>
          <leafValues>
            -5.2255576848983765e-01 1.5657490491867065e-01</leafValues></_>
        <_>
          <internalNodes>
            0 -1 13 2.4722598493099213e-01</internalNodes>
          <leafValues>
            1.0081384330987930e-01 -9.1256302595138550e-01</leafValues></_>
        <_>
          <internalNodes>
            0 -1 39 7.7657610177993774e-02</internalNodes>
          <leafValues>
            7.6781995594501495e-02 -1.2336223125457764e+00</leafValues></_>
        <_>
          <internalNodes>
            0 -1 30 -6.5536993741989136e-01</internalNodes>
          <leafValues>
            -9.7913789749145508e-01 8.7994724512100220e-02</leafValues></_></weakClassifiers></_>
    <!-- stage 3 -->
    <_>
      <maxWeakCount>17</maxWeakCount>
      <stageThreshold>-2.4195775985717773e+00</stageThreshold>
      <weakClassifiers>
        <_>
          <internalNodes>
            0 -1 68 -9.8429501056671143e-02</internalNodes>
          <leafValues>
            2.5541281700134277e-01 -1.2252503633499146e+00</leafValues></_>
        <_>
          <internalNodes>
            0 -1 64 -2.9844230413436890e-01</internalNodes>
          <leafValues>
            3.9974465966224670e-01 -5.7079815864562988e-01</leafValues></_>
        <_>
          <internalNodes>
            0 -1 9 1.7805804312229156e-01</internalNodes>
          <leafValues>
            -6.0846734046936035e-01 2.4698610603809357e-01</leafValues></_>
        <_>
          <internalNodes>
            0 -1 5 3.1246602535247803e-02</internalNodes>
          <leafValues>
            1.9634090363979340e-01 -6.7591637372970581e-01</leafValues></_>
        <_>
          <internalNodes>
            0 -1 48 -1.7042460385710001e-03</internalNodes>
          <leafValues>
            3.3962279558181763e-01 -3.2237359881401062e-01</leafValues></_>
        <_>
          <internalNodes>
            0 -1 114 -2.4082411080598831e-02</internalNodes>
          <leafValues>
            7.3868620395660400e-01 -1.2755098938941956e-01</leafValues></_>
        <_>
          <internalNodes>
            0 -1 100 4.3934527784585953e-02</internalNodes>
          <leafValues>
            -2.0168852806091309e-01 5.4800951480865479e-01</leafValues></_>
        <_>
          <internalNodes>
            0 -1 16 -2.3880000226199627e-03</internalNodes>
          <leafValues>
            -5.3468167781829834e-01 1.8957242369651794e-01</leafValues></_>
        <_>
          <internalNodes>
            0 -1 42 -2.4990718811750412e-02</internalNodes>
          <leafValues>
            -8.7206065654754639e-01 1.1991678178310394e-01</leafValues></_>
        <_>
          <internalNodes>
            0 -1 28 -1.8434960395097733e-02</internalNodes>
          <leafValues>
            -4.9424827098846436e-01 1.4970421791076660e-01</leafValues></_>
        <_>
          <internalNodes>
            0 -1 119 -1.3849874027073383e-02</internalNodes>
          <leafValues>
            4.5656928420066833e-01 -1.5190763771533966e-01</leafValues></_>
        <_>
          <internalNodes>
            0 -1 131 2.0901584066450596e-03</internalNodes>
          <leafValues>
            1.4605510234832764e-01 -4.8352786898612976e-01</leafValues></_>
        <_>
          <internalNodes>
            0 -1 124 1.8294041976332664e-02</internalNodes>
          <leafValues>
            -1.4608006179332733e-01 4.6850654482841492e-01</leafValues></_>
        <_>
          <internalNodes>
            0 -1 180 1.9958235323429108e-02</internalNodes>
          <leafValues>
            7.8091308474540710e-02 -1.0013552904129028e+00</leafValues></_>
        <_>
          <internalNodes>
            0 -1 24 5.0223290920257568e-01</internalNodes>
          <leafValues>
            7.6634265482425690e-02 -1.1220886707305908e+00</leafValues></_>
        <_>
          <internalNodes>
            0 -1 178 -3.1942036002874374e-02</internalNodes>
          <leafValues>
            -5.2700096368789673e-01 1.2697693705558777e-01</leafValues></_>
        <_>
          <internalNodes>
            0 -1 70 -1.2623450160026550e-01</internalNodes>
          <leafValues>
            -1.0185405015945435e+00 7.4401490390300751e-02</leafValues></_></weakClassifiers></_>
    <!-- stage 4 -->
    <_>
      <maxWeakCount>23</maxWeakCount>
      <stageThreshold>-2.4897673130035400e+00</stageThreshold>
      <weakClassifiers>
        <_>
          <internalNodes>
            0 -1 95 1.9509546458721161e-02</internalNodes>
          <leafValues>
            -1.3267168998718262e+00 -2.9536607861518860e-01</leafValues></_>
        <_>
          <internalNodes>
            0 -1 26 -2.5369781255722046e-01</internalNodes>
          <leafValues>
            2.8927728533744812e-01 -5.3908163309097290e-01</leafValues></_>
        <_>
          <internalNodes>
            0 -1 73 1.4941252768039703e-02</internalNodes>
          <leafValues>
            -2.6974114775657654e-01 4.4194161891937256e-01</leafValues></_>
        <_>
          <internalNodes>
            0 -1 116 1.8992768600583076e-02</internalNodes>
          <leafValues>
            -2.3142322897911072e-01 5.8051496744155884e-01</leafValues></_>
        <_>
          <internalNodes>
            0 -1 79 5.2363440394401550e-02</internalNodes>
          <leafValues>
            -1.3600578904151917e-01 6.2126642465591431e-01</leafValues></_>
        <_>
          <internalNodes>
            0 -1 19 -2.5929600000381470e-02</internalNodes>
          <leafValues>
            -5.0870841741561890e-01 2.0513486862182617e-01</leafValues></_>
        <_>
          <internalNodes>
            0 -1 172 1.1807219125330448e-03</internalNodes>
          <leafValues>
            -3.5058563947677612e-01 1.8301862478256226e-01</leafValues></_>
        <_>
          <internalNodes>
            0 -1 121 1.3308117166161537e-02</internalNodes>
          <leafValues>
            -2.5522124767303467e-01 3.1993353366851807e-01</leafValues></_>
        <_>
          <internalNodes>
            0 -1 15 -2.1162420511245728e-01</internalNodes>
          <leafValues>
            -7.1881401538848877e-01 1.3136607408523560e-01</leafValues></_>
        <_>
          <internalNodes>
            0 -1 84 -5.2708823233842850e-02</internalNodes>
          <leafValues>
            1.0681658983230591e+00 -9.6278354525566101e-02</leafValues></_>
        <_>
          <internalNodes>
            0 -1 99 -1.9008957315236330e-03</internalNodes>
          <leafValues>
            -7.0392817258834839e-01 1.0363116860389709e-01</leafValues></_>
        <_>
          <internalNodes>
            0 -1 97 8.2977134734392166e-03</internalNodes>
          <leafValues>
            -2.2044174373149872e-01 3.0047503113746643e-01</leafValues></_>
        <_>
          <internalNodes>
            0 -1 173 6.4828796312212944e-03</internalNodes>
          <leafValues>
            8.4046639502048492e-02 -9.1893839836120605e-01</leafValues></_>
        <_>
          <internalNodes>
            0 -1 143 1.2482605874538422e-02</internalNodes>
          <leafValues>
            -1.6236883401870728e-01 3.9351209998130798e-01</leafValues></_>
        <_>
          <internalNodes>
            0 -1 113 1.8295375630259514e-03</internalNodes>
          <leafValues>
            -3.1144732236862183e-01 2.0846307277679443e-01</leafValues></_>
        <_>
          <internalNodes>
            0 -1 10 5.1369929313659668e-01</internalNodes>
          <leafValues>
            1.3986901938915253e-01 -4.7890612483024597e-01</leafValues></_>
        <_>
          <internalNodes>
            0 -1 75 8.7860852479934692e-02</internalNodes>
          <leafValues>
            9.6172221004962921e-02 -6.6241073608398438e-01</leafValues></_>
        <_>
          <internalNodes>
            0 -1 170 7.8616857528686523e-02</internalNodes>
          <leafValues>
            8.7422035634517670e-02 -6.4381033182144165e-01</leafValues></_>
        <_>
          <internalNodes>
            0 -1 127 -8.6407101480290294e-04</internalNodes>
          <leafValues>
            1.8801416456699371e-01 -2.9088413715362549e-01</leafValues></_>
        <_>
          <internalNodes>
            0 -1 146 3.6859079264104366e-03</internalNodes>
          <leafValues>
            -2.6896226406097412e-01 2.4548834562301636e-01</leafValues></_>
        <_>
          <internalNodes>
            0 -1 93 -4.4691868126392365e-02</internalNodes>
          <leafValues>
            3.9598459005355835e-01 -1.5179838240146637e-01</leafValues></_>
        <_>
          <internalNodes>
            0 -1 151 6.2028765678405762e-03</internalNodes>
          <leafValues>
            -1.3555082678794861e-01 4.0773475170135498e-01</leafValues></_>
        <_>
          <internalNodes>
            0 -1 129 2.9128505848348141e-03</internalNodes>
          <leafValues>
            -2.8510838747024536e-01 1.9395948946475983e-01</leafValues></_></weakClassifiers></_>
    <!-- stage 5 -->
    <_>
      <maxWeakCount>23</maxWeakCount>
      <stageThreshold>-2.3306951522827148e+00</stageThreshold>
      <weakClassifiers>
        <_>
          <internalNodes>
            0 -1 158 -1.0548603720963001e-02</internalNodes>
          <leafValues>
            -8.5196495056152344e-02 -1.2819080352783203e+00</leafValues></_>
        <_>
          <internalNodes>
            0 -1 104 -5.6669782847166061e-02</internalNodes>
          <leafValues>
            2.6961272954940796e-01 -4.8918473720550537e-01</leafValues></_>
        <_>
          <internalNodes>
            0 -1 168 1.3008717214688659e-03</internalNodes>
          <leafValues>
            -3.2456684112548828e-01 2.8703370690345764e-01</leafValues></_>
        <_>
          <internalNodes>
            0 -1 91 2.2379957139492035e-02</internalNodes>
          <leafValues>
            -1.4185109734535217e-01 5.3782093524932861e-01</leafValues></_>
        <_>
          <internalNodes>
            0 -1 1 2.6284288614988327e-03</internalNodes>
          <leafValues>
            1.7216603457927704e-01 -4.0136647224426270e-01</leafValues></_>
        <_>
          <internalNodes>
            0 -1 145 -1.0375828715041280e-03</internalNodes>
          <leafValues>
            2.0772303640842438e-01 -3.2410180568695068e-01</leafValues></_>
        <_>
          <internalNodes>
            0 -1 12 -2.5911241769790649e-02</internalNodes>
          <leafValues>
            -4.2600291967391968e-01 1.9773879647254944e-01</leafValues></_>
        <_>
          <internalNodes>
            0 -1 2 2.5205947458744049e-02</internalNodes>
          <leafValues>
            1.1880312114953995e-01 -5.9430927038192749e-01</leafValues></_>
        <_>
          <internalNodes>
            0 -1 137 2.0952008664608002e-02</internalNodes>
          <leafValues>
            -1.3595022261142731e-01 4.5733553171157837e-01</leafValues></_>
        <_>
          <internalNodes>
            0 -1 65 6.4648121595382690e-02</internalNodes>
          <leafValues>
            -2.1107861399650574e-01 2.9746201634407043e-01</leafValues></_>
        <_>
          <internalNodes>
            0 -1 56 -1.0030534118413925e-02</internalNodes>
          <leafValues>
            3.7595295906066895e-01 -2.2675959765911102e-01</leafValues></_>
        <_>
          <internalNodes>
            0 -1 120 3.0606327578425407e-02</internalNodes>
          <leafValues>
            -1.4831237494945526e-01 4.7915098071098328e-01</leafValues></_>
        <_>
          <internalNodes>
            0 -1 111 2.4635991081595421e-02</internalNodes>
          <leafValues>
            -1.7907068133354187e-01 3.8087812066078186e-01</leafValues></_>
        <_>
          <internalNodes>
            0 -1 71 -4.1001987457275391e-01</internalNodes>
          <leafValues>
            -8.4114176034927368e-01 7.9505912959575653e-02</leafValues></_>
        <_>
          <internalNodes>
            0 -1 33 -9.3684285879135132e-02</internalNodes>
          <leafValues>
            1.5758426487445831e-01 -4.5362859964370728e-01</leafValues></_>
        <_>
          <internalNodes>
            0 -1 43 3.2284418120980263e-03</internalNodes>
          <leafValues>
            -1.9776134192943573e-01 3.2215428352355957e-01</leafValues></_>
        <_>
          <internalNodes>
            0 -1 126 -2.2015359252691269e-02</internalNodes>
          <leafValues>
            4.7610247135162354e-01 -1.2862892448902130e-01</leafValues></_>
        <_>
          <internalNodes>
            0 -1 155 -1.3871015049517155e-02</internalNodes>
          <leafValues>
            3.7402656674385071e-01 -1.6622458398342133e-01</leafValues></_>
        <_>
          <internalNodes>
            0 -1 141 2.3735910654067993e-02</internalNodes>
          <leafValues>
            -1.5128959715366364e-01 6.1603856086730957e-01</leafValues></_>
        <_>
          <internalNodes>
            0 -1 117 9.6095904707908630e-02</internalNodes>
          <leafValues>
            7.5833760201931000e-02 -9.8491191864013672e-01</leafValues></_>
        <_>
          <internalNodes>
            0 -1 109 -2.0117041468620300e-01</internalNodes>
          <leafValues>
            -4.5220756530761719e-01 1.4206339418888092e-01</leafValues></_>
        <_>
          <internalNodes>
            0 -1 11 -2.2097332403063774e-03</internalNodes>
          <leafValues>
            -3.8558134436607361e-01 1.5459674596786499e-01</leafValues></_>
        <_>
          <internalNodes>
            0 -1 49 -2.6240646839141846e-03</internalNodes>
          <leafValues>
            -3.7919104099273682e-01 1.6071905195713043e-01</leafValues></_></weakClassifiers></_>
    <!-- stage 6 -->
    <_>
      <maxWeakCount>31</maxWeakCount>
      <stageThreshold>-2.4141831398010254e+00</stageThreshold>
      <weakClassifiers>
        <_>
          <internalNodes>
            0 -1 55 -2.2688291966915131e-01</internalNodes>
          <leafValues>
            5.7564578056335449e+00 -1.1984479427337646e+00</leafValues></_>
        <_>
          <internalNodes>
            0 -1 62 -2.2109288256615400e-03</internalNodes>
          <leafValues>
            2.9693534970283508e-01 -3.9317643642425537e-01</leafValues></_>
        <_>
          <internalNodes>
            0 -1 3 -2.0209632348269224e-03</internalNodes>
          <leafValues>
            2.0888620615005493e-01 -4.4126847386360168e-01</leafValues></_>
        <_>
          <internalNodes>
            0 -1 18 -6.6407769918441772e-03</internalNodes>
          <leafValues>
            -4.8403573036193848e-01 2.1436011791229248e-01</leafValues></_>
        <_>
          <internalNodes>
            0 -1 149 4.1097640991210938e-02</internalNodes>
          <leafValues>
            -1.5066666901111603e-01 5.3927886486053467e-01</leafValues></_>
        <_>
          <internalNodes>
            0 -1 179 -8.1594455987215042e-03</internalNodes>
          <leafValues>
            -2.7528437972068787e-01 2.7974674105644226e-01</leafValues></_>
        <_>
          <internalNodes>
            0 -1 175 -3.8564621936529875e-03</internalNodes>
          <leafValues>
            -4.4218617677688599e-01 1.5499244630336761e-01</leafValues></_>
        <_>
          <internalNodes>
            0 -1 108 -3.9985693991184235e-02</internalNodes>
          <leafValues>
            8.6592358350753784e-01 -1.0177072882652283e-01</leafValues></_>
        <_>
          <internalNodes>
            0 -1 130 -2.6194894686341286e-02</internalNodes>
          <leafValues>
            4.9231120944023132e-01 -1.5558801591396332e-01</leafValues></_>
        <_>
          <internalNodes>
            0 -1 47 2.4584936909377575e-03</internalNodes>
          <leafValues>
            1.3458435237407684e-01 -5.7105159759521484e-01</leafValues></_>
        <_>
          <internalNodes>
            0 -1 113 1.5633599832653999e-03</internalNodes>
          <leafValues>
            -3.5749301314353943e-01 1.8648838996887207e-01</leafValues></_>
        <_>
          <internalNodes>
            0 -1 142 1.8503529950976372e-02</internalNodes>
          <leafValues>
            -1.3387532532215118e-01 5.5091661214828491e-01</leafValues></_>
        <_>
          <internalNodes>
            0 -1 22 -1.9959388673305511e-01</internalNodes>
          <leafValues>
            5.0710439682006836e-01 -1.4330933988094330e-01</leafValues></_>
        <_>
          <internalNodes>
            0 -1 58 3.2402491196990013e-03</internalNodes>
          <leafValues>
            -1.6480195522308350e-01 4.1537281870841980e-01</leafValues></_>
        <_>
          <internalNodes>
            0 -1 37 1.4684924483299255e-01</internalNodes>
          <leafValues>
            6.1328206211328506e-02 -1.8790798187255859e+00</leafValues></_>
        <_>
          <internalNodes>
            0 -1 88 6.4783836714923382e-03</internalNodes>
          <leafValues>
            -2.6078170537948608e-01 2.2431263327598572e-01</leafValues></_>
        <_>
          <internalNodes>
            0 -1 53 2.7036857604980469e-01</internalNodes>
          <leafValues>
            -8.4815949201583862e-02 8.2819080352783203e-01</leafValues></_>
        <_>
          <internalNodes>
            0 -1 103 -1.2790948152542114e-02</internalNodes>
          <leafValues>
            3.7043353915214539e-01 -1.7794251441955566e-01</leafValues></_>
        <_>
          <internalNodes>
            0 -1 105 -2.4892292916774750e-01</internalNodes>
          <leafValues>
            -5.0641822814941406e-01 1.1407727003097534e-01</leafValues></_>
        <_>
          <internalNodes>
            0 -1 91 -2.3062150925397873e-02</internalNodes>
          <leafValues>
            7.0695281028747559e-01 -9.3132719397544861e-02</leafValues></_>
        <_>
          <internalNodes>
            0 -1 74 5.1118329167366028e-02</internalNodes>
          <leafValues>
            -2.1659536659717560e-01 3.2664281129837036e-01</leafValues></_>
        <_>
          <internalNodes>
            0 -1 46 -2.6935518253594637e-03</internalNodes>
          <leafValues>
            -7.2922474145889282e-01 8.2265354692935944e-02</leafValues></_>
        <_>
          <internalNodes>
            0 -1 148 5.1271067932248116e-03</internalNodes>
          <leafValues>
            -1.7773327231407166e-01 3.4346872568130493e-01</leafValues></_>
        <_>
          <internalNodes>
            0 -1 167 -5.3113279864192009e-03</internalNodes>
          <leafValues>
            3.1787130236625671e-01 -1.6126587986946106e-01</leafValues></_>
        <_>
          <internalNodes>
            0 -1 52 9.8464317619800568e-02</internalNodes>
          <leafValues>
            -1.1919268220663071e-01 5.7058167457580566e-01</leafValues></_>
        <_>
          <internalNodes>
            0 -1 136 -1.9598685204982758e-02</internalNodes>
          <leafValues>
            4.4466981291770935e-01 -1.2366645783185959e-01</leafValues></_>
        <_>
          <internalNodes>
            0 -1 20 -2.1193744614720345e-03</internalNodes>
          <leafValues>
            -3.1809312105178833e-01 1.7943952977657318e-01</leafValues></_>
        <_>
          <internalNodes>
            0 -1 112 -5.1799970865249634e-01</internalNodes>
          <leafValues>
            -9.8199760913848877e-01 7.7608965337276459e-02</leafValues></_>
        <_>
          <internalNodes>
            0 -1 50 -1.7481041140854359e-03</internalNodes>
          <leafValues>
            -7.6877027750015259e-01 7.2431065142154694e-02</leafValues></_>
        <_>
          <internalNodes>
            0 -1 45 -9.5738330855965614e-04</internalNodes>
          <leafValues>
            2.1698404848575592e-01 -2.6532980799674988e-01</leafValues></_>
        <_>
          <internalNodes>
            0 -1 38 1.0834626853466034e-02</internalNodes>
          <leafValues>
            8.5723511874675751e-02 -7.1720659732818604e-01</leafValues></_></weakClassifiers></_>
    <!-- stage 7 -->
    <_>
      <maxWeakCount>26</maxWeakCount>
      <stageThreshold>-2.3890280723571777e+00</stageThreshold>
      <weakClassifiers>
        <_>
          <internalNodes>
            0 -1 87 2.4863976985216141e-02</internalNodes>
          <leafValues>
            -1.2261229753494263e+00 5.7564578056335449e+00</leafValues></_>
        <_>
          <internalNodes>
            0 -1 173 1.2869954807683825e-03</internalNodes>
          <leafValues>
            -3.7909877300262451e-01 3.4278082847595215e-01</leafValues></_>
        <_>
          <internalNodes>
            0 -1 51 1.5404883772134781e-02</internalNodes>
          <leafValues>
            -1.8099193274974823e-01 7.3161017894744873e-01</leafValues></_>
        <_>
          <internalNodes>
            0 -1 60 2.1533973515033722e-02</internalNodes>
          <leafValues>
            -1.7488972842693329e-01 7.2938144207000732e-01</leafValues></_>
        <_>
          <internalNodes>
            0 -1 156 1.6359176486730576e-02</internalNodes>
          <leafValues>
            -1.1006502062082291e-01 7.3921191692352295e-01</leafValues></_>
        <_>
          <internalNodes>
            0 -1 82 -2.1107532083988190e-02</internalNodes>
          <leafValues>
            7.2579675912857056e-01 -1.2168533354997635e-01</leafValues></_>
        <_>
          <internalNodes>
            0 -1 46 -6.9480578531511128e-05</internalNodes>
          <leafValues>
            1.8618330359458923e-01 -3.6653277277946472e-01</leafValues></_>
        <_>
          <internalNodes>
            0 -1 0 1.3463227078318596e-03</internalNodes>
          <leafValues>
            2.3002080619335175e-01 -4.0878811478614807e-01</leafValues></_>
        <_>
          <internalNodes>
            0 -1 86 4.5708566904067993e-03</internalNodes>
          <leafValues>
            -3.8009718060493469e-01 2.0465157926082611e-01</leafValues></_>
        <_>
          <internalNodes>
            0 -1 90 -2.1201290655881166e-03</internalNodes>
          <leafValues>
            -3.1116986274719238e-01 2.6787605881690979e-01</leafValues></_>
        <_>
          <internalNodes>
            0 -1 17 1.9920293241739273e-02</internalNodes>
          <leafValues>
            -2.0681805908679962e-01 4.2608338594436646e-01</leafValues></_>
        <_>
          <internalNodes>
            0 -1 163 2.4569877423346043e-03</internalNodes>
          <leafValues>
            -1.7447723448276520e-01 5.9573495388031006e-01</leafValues></_>
        <_>
          <internalNodes>
            0 -1 34 2.7024408336728811e-03</internalNodes>
          <leafValues>
            -1.4733028411865234e-01 5.2861481904983521e-01</leafValues></_>
        <_>
          <internalNodes>
            0 -1 115 -1.6569098830223083e-01</internalNodes>
          <leafValues>
            -5.8477216958999634e-01 1.1567282676696777e-01</leafValues></_>
        <_>
          <internalNodes>
            0 -1 144 1.0856313630938530e-02</internalNodes>
          <leafValues>
            -1.9169087707996368e-01 4.0369081497192383e-01</leafValues></_>
        <_>
          <internalNodes>
            0 -1 128 -4.6994518488645554e-02</internalNodes>
          <leafValues>
            6.0719782114028931e-01 -1.9900740683078766e-01</leafValues></_>
        <_>
          <internalNodes>
            0 -1 174 2.8907903470098972e-03</internalNodes>
          <leafValues>
            9.4794116914272308e-02 -1.0543215274810791e+00</leafValues></_>
        <_>
          <internalNodes>
            0 -1 77 -1.2404123554006219e-03</internalNodes>
          <leafValues>
            -6.1524248123168945e-01 1.2620142102241516e-01</leafValues></_>
        <_>
          <internalNodes>
            0 -1 110 -2.0472362637519836e-02</internalNodes>
          <leafValues>
            6.8290668725967407e-01 -1.2005190551280975e-01</leafValues></_>
        <_>
          <internalNodes>
            0 -1 6 3.2045774161815643e-02</internalNodes>
          <leafValues>
            -9.8981030285358429e-02 1.1993675231933594e+00</leafValues></_>
        <_>
          <internalNodes>
            0 -1 118 -2.0915329456329346e-02</internalNodes>
          <leafValues>
            4.5796003937721252e-01 -1.5754835307598114e-01</leafValues></_>
        <_>
          <internalNodes>
            0 -1 54 7.6936608552932739e-01</internalNodes>
          <leafValues>
            1.4154101908206940e-01 -5.3271299600601196e-01</leafValues></_>
        <_>
          <internalNodes>
            0 -1 96 2.4806629866361618e-02</internalNodes>
          <leafValues>
            -1.4833444356918335e-01 6.2831139564514160e-01</leafValues></_>
        <_>
          <internalNodes>
            0 -1 123 -7.7682803384959698e-04</internalNodes>
          <leafValues>
            -3.6372339725494385e-01 2.0307208597660065e-01</leafValues></_>
        <_>
          <internalNodes>
            0 -1 157 1.3765781186521053e-02</internalNodes>
          <leafValues>
            -7.6334796845912933e-02 1.8016558885574341e+00</leafValues></_>
        <_>
          <internalNodes>
            0 -1 150 1.6568303108215332e-02</internalNodes>
          <leafValues>
            -1.8416604399681091e-01 4.6476387977600098e-01</leafValues></_></weakClassifiers></_>
    <!-- stage 8 -->
    <_>
      <maxWeakCount>30</maxWeakCount>
      <stageThreshold>-2.4875741004943848e+00</stageThreshold>
      <weakClassifiers>
        <_>
          <internalNodes>
            0 -1 63 1.8131214380264282e-01</internalNodes>
          <leafValues>
            -1.2572706937789917e+00 5.7564578056335449e+00</leafValues></_>
        <_>
          <internalNodes>
            0 -1 23 8.5475295782089233e-02</internalNodes>
          <leafValues>
            -2.5710719823837280e-01 6.0982042551040649e-01</leafValues></_>
        <_>
          <internalNodes>
            0 -1 161 1.1205509305000305e-02</internalNodes>
          <leafValues>
            -2.4369922280311584e-01 5.4227989912033081e-01</leafValues></_>
        <_>
          <internalNodes>
            0 -1 59 4.6894587576389313e-03</internalNodes>
          <leafValues>
            -1.8408228456974030e-01 7.0595234632492065e-01</leafValues></_>
        <_>
          <internalNodes>
            0 -1 132 4.2323872447013855e-02</internalNodes>
          <leafValues>
            -2.1772852540016174e-01 5.9477674961090088e-01</leafValues></_>
        <_>
          <internalNodes>
            0 -1 69 3.3035695552825928e-02</internalNodes>
          <leafValues>
            -2.8915742039680481e-01 3.1820124387741089e-01</leafValues></_>
        <_>
          <internalNodes>
            0 -1 176 1.9968919456005096e-02</internalNodes>
          <leafValues>
            2.7636232972145081e-01 -3.8645300269126892e-01</leafValues></_>
        <_>
          <internalNodes>
            0 -1 175 -1.8185535445809364e-03</internalNodes>
          <leafValues>
            -4.1978639364242554e-01 2.6254686713218689e-01</leafValues></_>
        <_>
          <internalNodes>
            0 -1 122 1.6456822049804032e-04</internalNodes>
          <leafValues>
            -3.8158705830574036e-01 2.6677957177162170e-01</leafValues></_>
        <_>
          <internalNodes>
            0 -1 147 -1.0004585981369019e-01</internalNodes>
          <leafValues>
            -7.2780150175094604e-01 1.3680069148540497e-01</leafValues></_>
        <_>
          <internalNodes>
            0 -1 25 -2.3337402939796448e-01</internalNodes>
          <leafValues>
            -7.5029689073562622e-01 1.3075582683086395e-01</leafValues></_>
        <_>
          <internalNodes>
            0 -1 162 -9.3225121963769197e-04</internalNodes>
          <leafValues>
            3.1473046541213989e-01 -3.2318136096000671e-01</leafValues></_>
        <_>
          <internalNodes>
            0 -1 32 -2.7468216419219971e-01</internalNodes>
          <leafValues>
            -9.6082830429077148e-01 8.9025959372520447e-02</leafValues></_>
        <_>
          <internalNodes>
            0 -1 21 1.3405960984528065e-02</internalNodes>
          <leafValues>
            -2.3244646191596985e-01 4.6679386496543884e-01</leafValues></_>
        <_>
          <internalNodes>
            0 -1 98 -4.1722636669874191e-03</internalNodes>
          <leafValues>
            6.8472981452941895e-01 -1.6915774345397949e-01</leafValues></_>
        <_>
          <internalNodes>
            0 -1 72 1.7127273604273796e-02</internalNodes>
          <leafValues>
            -1.2591929733753204e-01 8.4677636623382568e-01</leafValues></_>
        <_>
          <internalNodes>
            0 -1 94 -3.9655005093663931e-04</internalNodes>
          <leafValues>
            2.3767223954200745e-01 -3.9145982265472412e-01</leafValues></_>
        <_>
          <internalNodes>
            0 -1 165 -5.2241375669836998e-03</internalNodes>
          <leafValues>
            -5.8351206779479980e-01 1.6558861732482910e-01</leafValues></_>
        <_>
          <internalNodes>
            0 -1 107 3.5577021539211273e-02</internalNodes>
          <leafValues>
            -9.3094542622566223e-02 5.7564578056335449e+00</leafValues></_>
        <_>
          <internalNodes>
            0 -1 107 3.4186311066150665e-02</internalNodes>
          <leafValues>
            5.6280779838562012e-01 -3.6254255771636963e+00</leafValues></_>
        <_>
          <internalNodes>
            0 -1 89 -3.1125307083129883e-02</internalNodes>
          <leafValues>
            9.2367362976074219e-01 -7.1036428213119507e-01</leafValues></_>
        <_>
          <internalNodes>
            0 -1 152 6.8181565438862890e-05</internalNodes>
          <leafValues>
            -5.3329217433929443e-01 3.3662030100822449e-01</leafValues></_>
        <_>
          <internalNodes>
            0 -1 159 1.1373445391654968e-01</internalNodes>
          <leafValues>
            -1.4374507963657379e-01 1.3635309934616089e+00</leafValues></_>
        <_>
          <internalNodes>
            0 -1 177 1.2160562910139561e-03</internalNodes>
          <leafValues>
            2.6755023002624512e-01 -4.8420640826225281e-01</leafValues></_>
        <_>
          <internalNodes>
            0 -1 169 4.1801137849688530e-03</internalNodes>
          <leafValues>
            1.3805790245532990e-01 -1.2066888809204102e+00</leafValues></_>
        <_>
          <internalNodes>
            0 -1 166 3.1978014856576920e-02</internalNodes>
          <leafValues>
            -1.5441992878913879e-01 1.2218534946441650e+00</leafValues></_>
        <_>
          <internalNodes>
            0 -1 29 3.7342883646488190e-02</internalNodes>
          <leafValues>
            2.9303368926048279e-01 -4.6991041302680969e-01</leafValues></_>
        <_>
          <internalNodes>
            0 -1 61 6.6013440489768982e-02</internalNodes>
          <leafValues>
            -2.0229896903038025e-01 6.6771167516708374e-01</leafValues></_>
        <_>
          <internalNodes>
            0 -1 83 3.4715775400400162e-02</internalNodes>
          <leafValues>
            -1.3269966840744019e-01 1.6441242694854736e+00</leafValues></_>
        <_>
          <internalNodes>
            0 -1 78 5.5403642356395721e-02</internalNodes>
          <leafValues>
            2.2545178234577179e-01 -5.6397312879562378e-01</leafValues></_></weakClassifiers></_></stages>
  <features>
    <_>
      <rects>
        <_>
          0 0 1 4 -1.</_>
        <_>
          0 1 1 2 2.</_></rects>
      <tilted>0</tilted></_>
    <_>
      <rects>
        <_>
          0 0 1 6 -1.</_>
        <_>
          0 2 1 2 3.</_></rects>
      <tilted>0</tilted></_>
    <_>
      <rects>
        <_>
          0 0 1 8 -1.</_>
        <_>
          0 4 1 4 2.</_></rects>
      <tilted>0</tilted></_>
    <_>
      <rects>
        <_>
          0 0 1 12 -1.</_>
        <_>
          0 6 1 6 2.</_></rects>
      <tilted>0</tilted></_>
    <_>
      <rects>
        <_>
          0 0 8 5 -1.</_>
        <_>
          2 0 4 5 2.</_></rects>
      <tilted>0</tilted></_>
    <_>
      <rects>
        <_>
          0 0 12 1 -1.</_>
        <_>
          3 0 6 1 2.</_></rects>
      <tilted>0</tilted></_>
    <_>
      <rects>
        <_>
          0 0 6 2 -1.</_>
        <_>
          0 0 3 1 2.</_>
        <_>
          3 1 3 1 2.</_></rects>
      <tilted>0</tilted></_>
    <_>
      <rects>
        <_>
          0 0 12 9 -1.</_>
        <_>
          3 0 6 9 2.</_></rects>
      <tilted>0</tilted></_>
    <_>
      <rects>
        <_>
          0 0 8 7 -1.</_>
        <_>
          4 0 4 7 2.</_></rects>
      <tilted>0</tilted></_>
    <_>
      <rects>
        <_>
          0 0 12 11 -1.</_>
        <_>
          4 0 4 11 3.</_></rects>
      <tilted>0</tilted></_>
    <_>
      <rects>
        <_>
          0 0 12 12 -1.</_>
        <_>
          4 0 4 12 3.</_></rects>
      <tilted>0</tilted></_>
    <_>
      <rects>
        <_>
          0 0 5 4 -1.</_>
        <_>
          0 2 5 2 2.</_></rects>
      <tilted>0</tilted></_>
    <_>
      <rects>
        <_>
          0 0 12 2 -1.</_>
        <_>
          6 0 6 2 2.</_></rects>
      <tilted>0</tilted></_>
    <_>
      <rects>
        <_>
          0 0 12 10 -1.</_>
        <_>
          0 0 6 5 2.</_>
        <_>
          6 5 6 5 2.</_></rects>
      <tilted>0</tilted></_>
    <_>
      <rects>
        <_>
          0 0 12 6 -1.</_>
        <_>
          6 0 6 6 2.</_></rects>
      <tilted>0</tilted></_>
    <_>
      <rects>
        <_>
          0 0 12 12 -1.</_>
        <_>
          0 0 6 6 2.</_>
        <_>
          6 6 6 6 2.</_></rects>
      <tilted>0</tilted></_>
    <_>
      <rects>
        <_>
          0 1 1 4 -1.</_>
        <_>
          0 3 1 2 2.</_></rects>
      <tilted>0</tilted></_>
    <_>
      <rects>
        <_>
          0 1 4 4 -1.</_>
        <_>
          0 1 2 2 2.</_>
        <_>
          2 3 2 2 2.</_></rects>
      <tilted>0</tilted></_>
    <_>
      <rects>
        <_>
          0 2 1 6 -1.</_>
        <_>
          0 5 1 3 2.</_></rects>
      <tilted>0</tilted></_>
    <_>
      <rects>
        <_>
          0 2 1 10 -1.</_>
        <_>
          0 7 1 5 2.</_></rects>
      <tilted>0</tilted></_>
    <_>
      <rects>
        <_>
          0 2 4 4 -1.</_>
        <_>
          0 2 2 2 2.</_>
        <_>
          2 4 2 2 2.</_></rects>
      <tilted>0</tilted></_>
    <_>
      <rects>
        <_>
          0 2 5 3 -1.</_>
        <_>
          0 3 5 1 3.</_></rects>
      <tilted>0</tilted></_>
    <_>
      <rects>
        <_>
          0 2 11 6 -1.</_>
        <_>
          0 5 11 3 2.</_></rects>
      <tilted>0</tilted></_>
    <_>
      <rects>
        <_>
          0 3 6 3 -1.</_>
        <_>
          2 4 2 1 9.</_></rects>
      <tilted>0</tilted></_>
    <_>
      <rects>
        <_>
          0 3 12 6 -1.</_>
        <_>
          4 3 4 6 3.</_></rects>
      <tilted>0</tilted></_>
    <_>
      <rects>
        <_>
          0 3 5 8 -1.</_>
        <_>
          0 7 5 4 2.</_></rects>
      <tilted>0</tilted></_>
    <_>
      <rects>
        <_>
          0 3 12 8 -1.</_>
        <_>
          0 7 12 4 2.</_></rects>
      <tilted>0</tilted></_>
    <_>
      <rects>
        <_>
          0 4 1 8 -1.</_>
        <_>
          0 6 1 4 2.</_></rects>
      <tilted>0</tilted></_>
    <_>
      <rects>
        <_>
          0 4 1 8 -1.</_>
        <_>
          0 8 1 4 2.</_></rects>
      <tilted>0</tilted></_>
    <_>
      <rects>
        <_>
          0 4 10 1 -1.</_>
        <_>
          5 4 5 1 2.</_></rects>
      <tilted>0</tilted></_>
    <_>
      <rects>
        <_>
          0 4 12 8 -1.</_>
        <_>
          0 8 12 4 2.</_></rects>
      <tilted>0</tilted></_>
    <_>
      <rects>
        <_>
          0 5 12 6 -1.</_>
        <_>
          6 5 6 6 2.</_></rects>
      <tilted>0</tilted></_>
    <_>
      <rects>
        <_>
          0 6 7 6 -1.</_>
        <_>
          0 9 7 3 2.</_></rects>
      <tilted>0</tilted></_>
    <_>
      <rects>
        <_>
          0 6 9 6 -1.</_>
        <_>
          0 9 9 3 2.</_></rects>
      <tilted>0</tilted></_>
    <_>
      <rects>
        <_>
          0 7 2 1 -1.</_>
        <_>
          1 7 1 1 2.</_></rects>
      <tilted>0</tilted></_>
    <_>
      <rects>
        <_>
          0 7 12 5 -1.</_>
        <_>
          6 7 6 5 2.</_></rects>
      <tilted>0</tilted></_>
    <_>
      <rects>
        <_>
          0 8 1 4 -1.</_>
        <_>
          0 10 1 2 2.</_></rects>
      <tilted>0</tilted></_>
    <_>
      <rects>
        <_>
          0 8 6 3 -1.</_>
        <_>
          2 9 2 1 9.</_></rects>
      <tilted>0</tilted></_>
    <_>
      <rects>
        <_>
          0 8 2 4 -1.</_>
        <_>
          0 10 2 2 2.</_></rects>
      <tilted>0</tilted></_>
    <_>
      <rects>
        <_>
          0 8 6 2 -1.</_>
        <_>
          3 8 3 2 2.</_></rects>
      <tilted>0</tilted></_>
    <_>
      <rects>
        <_>
          0 8 12 3 -1.</_>
        <_>
          6 8 6 3 2.</_></rects>
      <tilted>0</tilted></_>
    <_>
      <rects>
        <_>
          0 8 11 4 -1.</_>
        <_>
          0 10 11 2 2.</_></rects>
      <tilted>0</tilted></_>
    <_>
      <rects>
        <_>
          0 9 4 3 -1.</_>
        <_>
          2 9 2 3 2.</_></rects>
      <tilted>0</tilted></_>
    <_>
      <rects>
        <_>
          0 9 7 3 -1.</_>
        <_>
          0 10 7 1 3.</_></rects>
      <tilted>0</tilted></_>
    <_>
      <rects>
        <_>
          0 10 2 2 -1.</_>
        <_>
          0 11 2 1 2.</_></rects>
      <tilted>0</tilted></_>
    <_>
      <rects>
        <_>
          0 10 10 1 -1.</_>
        <_>
          5 10 5 1 2.</_></rects>
      <tilted>0</tilted></_>
    <_>
      <rects>
        <_>
          0 11 2 1 -1.</_>
        <_>
          1 11 1 1 2.</_></rects>
      <tilted>0</tilted></_>
    <_>
      <rects>
        <_>
          0 11 4 1 -1.</_>
        <_>
          1 11 2 1 2.</_></rects>
      <tilted>0</tilted></_>
    <_>
      <rects>
        <_>
          0 11 4 1 -1.</_>
        <_>
          2 11 2 1 2.</_></rects>
      <tilted>0</tilted></_>
    <_>
      <rects>
        <_>
          1 0 6 1 -1.</_>
        <_>
          3 0 2 1 3.</_></rects>
      <tilted>0</tilted></_>
    <_>
      <rects>
        <_>
          1 1 2 1 -1.</_>
        <_>
          2 1 1 1 2.</_></rects>
      <tilted>0</tilted></_>
    <_>
      <rects>
        <_>
          1 1 4 2 -1.</_>
        <_>
          1 1 2 1 2.</_>
        <_>
          3 2 2 1 2.</_></rects>
      <tilted>0</tilted></_>
    <_>
      <rects>
        <_>
          1 1 6 3 -1.</_>
        <_>
          3 2 2 1 9.</_></rects>
      <tilted>0</tilted></_>
    <_>
      <rects>
        <_>
          1 1 9 3 -1.</_>
        <_>
          4 2 3 1 9.</_></rects>
      <tilted>0</tilted></_>
    <_>
      <rects>
        <_>
          1 2 9 9 -1.</_>
        <_>
          4 5 3 3 9.</_></rects>
      <tilted>0</tilted></_>
    <_>
      <rects>
        <_>
          1 4 3 6 -1.</_>
        <_>
          2 6 1 2 9.</_></rects>
      <tilted>0</tilted></_>
    <_>
      <rects>
        <_>
          1 4 6 8 -1.</_>
        <_>
          3 4 2 8 3.</_></rects>
      <tilted>0</tilted></_>
    <_>
      <rects>
        <_>
          1 6 11 6 -1.</_>
        <_>
          1 9 11 3 2.</_></rects>
      <tilted>0</tilted></_>
    <_>
      <rects>
        <_>
          1 8 2 1 -1.</_>
        <_>
          2 8 1 1 2.</_></rects>
      <tilted>0</tilted></_>
    <_>
      <rects>
        <_>
          1 8 4 1 -1.</_>
        <_>
          2 8 2 1 2.</_></rects>
      <tilted>0</tilted></_>
    <_>
      <rects>
        <_>
          1 8 6 3 -1.</_>
        <_>
          1 9 6 1 3.</_></rects>
      <tilted>0</tilted></_>
    <_>
      <rects>
        <_>
          1 9 9 3 -1.</_>
        <_>
          4 10 3 1 9.</_></rects>
      <tilted>0</tilted></_>
    <_>
      <rects>
        <_>
          1 11 4 1 -1.</_>
        <_>
          3 11 2 1 2.</_></rects>
      <tilted>0</tilted></_>
    <_>
      <rects>
        <_>
          2 1 6 3 -1.</_>
        <_>
          4 2 2 1 9.</_></rects>
      <tilted>0</tilted></_>
    <_>
      <rects>
        <_>
          2 2 7 10 -1.</_>
        <_>
          2 7 7 5 2.</_></rects>
      <tilted>0</tilted></_>
    <_>
      <rects>
        <_>
          2 3 3 9 -1.</_>
        <_>
          3 6 1 3 9.</_></rects>
      <tilted>0</tilted></_>
    <_>
      <rects>
        <_>
          2 3 6 3 -1.</_>
        <_>
          4 4 2 1 9.</_></rects>
      <tilted>0</tilted></_>
    <_>
      <rects>
        <_>
          2 4 9 8 -1.</_>
        <_>
          2 8 9 4 2.</_></rects>
      <tilted>0</tilted></_>
    <_>
      <rects>
        <_>
          2 5 3 3 -1.</_>
        <_>
          3 6 1 1 9.</_></rects>
      <tilted>0</tilted></_>
    <_>
      <rects>
        <_>
          2 5 6 3 -1.</_>
        <_>
          4 6 2 1 9.</_></rects>
      <tilted>0</tilted></_>
    <_>
      <rects>
        <_>
          2 5 8 4 -1.</_>
        <_>
          6 5 4 4 2.</_></rects>
      <tilted>0</tilted></_>
    <_>
      <rects>
        <_>
          2 5 10 6 -1.</_>
        <_>
          2 8 10 3 2.</_></rects>
      <tilted>0</tilted></_>
    <_>
      <rects>
        <_>
          2 6 3 3 -1.</_>
        <_>
          2 7 3 1 3.</_></rects>
      <tilted>0</tilted></_>
    <_>
      <rects>
        <_>
          2 7 3 3 -1.</_>
        <_>
          3 8 1 1 9.</_></rects>
      <tilted>0</tilted></_>
    <_>
      <rects>
        <_>
          2 7 6 3 -1.</_>
        <_>
          4 8 2 1 9.</_></rects>
      <tilted>0</tilted></_>
    <_>
      <rects>
        <_>
          2 7 10 5 -1.</_>
        <_>
          7 7 5 5 2.</_></rects>
      <tilted>0</tilted></_>
    <_>
      <rects>
        <_>
          2 8 3 3 -1.</_>
        <_>
          3 9 1 1 9.</_></rects>
      <tilted>0</tilted></_>
    <_>
      <rects>
        <_>
          3 0 2 1 -1.</_>
        <_>
          4 0 1 1 2.</_></rects>
      <tilted>0</tilted></_>
    <_>
      <rects>
        <_>
          3 0 9 3 -1.</_>
        <_>
          6 0 3 3 3.</_></rects>
      <tilted>0</tilted></_>
    <_>
      <rects>
        <_>
          3 1 3 3 -1.</_>
        <_>
          4 2 1 1 9.</_></rects>
      <tilted>0</tilted></_>
    <_>
      <rects>
        <_>
          3 1 6 3 -1.</_>
        <_>
          5 2 2 1 9.</_></rects>
      <tilted>0</tilted></_>
    <_>
      <rects>
        <_>
          3 2 2 2 -1.</_>
        <_>
          3 2 1 1 2.</_>
        <_>
          4 3 1 1 2.</_></rects>
      <tilted>0</tilted></_>
    <_>
      <rects>
        <_>
          3 2 3 6 -1.</_>
        <_>
          4 2 1 6 3.</_></rects>
      <tilted>0</tilted></_>
    <_>
      <rects>
        <_>
          3 2 4 2 -1.</_>
        <_>
          5 2 2 2 2.</_></rects>
      <tilted>0</tilted></_>
    <_>
      <rects>
        <_>
          3 2 4 4 -1.</_>
        <_>
          3 2 2 2 2.</_>
        <_>
          5 4 2 2 2.</_></rects>
      <tilted>0</tilted></_>
    <_>
      <rects>
        <_>
          3 2 4 8 -1.</_>
        <_>
          5 2 2 8 2.</_></rects>
      <tilted>0</tilted></_>
    <_>
      <rects>
        <_>
          3 3 3 3 -1.</_>
        <_>
          4 4 1 1 9.</_></rects>
      <tilted>0</tilted></_>
    <_>
      <rects>
        <_>
          3 3 2 4 -1.</_>
        <_>
          3 3 1 2 2.</_>
        <_>
          4 5 1 2 2.</_></rects>
      <tilted>0</tilted></_>
    <_>
      <rects>
        <_>
          3 4 3 3 -1.</_>
        <_>
          4 5 1 1 9.</_></rects>
      <tilted>0</tilted></_>
    <_>
      <rects>
        <_>
          3 4 5 3 -1.</_>
        <_>
          3 5 5 1 3.</_></rects>
      <tilted>0</tilted></_>
    <_>
      <rects>
        <_>
          3 5 1 4 -1.</_>
        <_>
          3 6 1 2 2.</_></rects>
      <tilted>0</tilted></_>
    <_>
      <rects>
        <_>
          3 5 3 4 -1.</_>
        <_>
          4 5 1 4 3.</_></rects>
      <tilted>0</tilted></_>
    <_>
      <rects>
        <_>
          3 5 4 4 -1.</_>
        <_>
          4 5 2 4 2.</_></rects>
      <tilted>0</tilted></_>
    <_>
      <rects>
        <_>
          3 5 6 4 -1.</_>
        <_>
          3 5 3 2 2.</_>
        <_>
          6 7 3 2 2.</_></rects>
      <tilted>0</tilted></_>
    <_>
      <rects>
        <_>
          3 6 1 2 -1.</_>
        <_>
          3 7 1 1 2.</_></rects>
      <tilted>0</tilted></_>
    <_>
      <rects>
        <_>
          3 6 3 3 -1.</_>
        <_>
          4 6 1 3 3.</_></rects>
      <tilted>0</tilted></_>
    <_>
      <rects>
        <_>
          3 6 4 3 -1.</_>
        <_>
          4 6 2 3 2.</_></rects>
      <tilted>0</tilted></_>
    <_>
      <rects>
        <_>
          3 8 3 3 -1.</_>
        <_>
          4 9 1 1 9.</_></rects>
      <tilted>0</tilted></_>
    <_>
      <rects>
        <_>
          3 10 4 2 -1.</_>
        <_>
          4 10 2 2 2.</_></rects>
      <tilted>0</tilted></_>
    <_>
      <rects>
        <_>
          4 0 2 1 -1.</_>
        <_>
          5 0 1 1 2.</_></rects>
      <tilted>0</tilted></_>
    <_>
      <rects>
        <_>
          4 0 4 12 -1.</_>
        <_>
          5 0 2 12 2.</_></rects>
      <tilted>0</tilted></_>
    <_>
      <rects>
        <_>
          4 0 8 12 -1.</_>
        <_>
          8 0 4 12 2.</_></rects>
      <tilted>0</tilted></_>
    <_>
      <rects>
        <_>
          4 0 6 12 -1.</_>
        <_>
          4 3 6 6 2.</_></rects>
      <tilted>0</tilted></_>
    <_>
      <rects>
        <_>
          4 1 4 3 -1.</_>
        <_>
          4 2 4 1 3.</_></rects>
      <tilted>0</tilted></_>
    <_>
      <rects>
        <_>
          4 1 8 4 -1.</_>
        <_>
          8 1 4 4 2.</_></rects>
      <tilted>0</tilted></_>
    <_>
      <rects>
        <_>
          4 1 8 8 -1.</_>
        <_>
          8 1 4 8 2.</_></rects>
      <tilted>0</tilted></_>
    <_>
      <rects>
        <_>
          4 2 4 8 -1.</_>
        <_>
          5 2 2 8 2.</_></rects>
      <tilted>0</tilted></_>
    <_>
      <rects>
        <_>
          4 3 2 7 -1.</_>
        <_>
          5 3 1 7 2.</_></rects>
      <tilted>0</tilted></_>
    <_>
      <rects>
        <_>
          4 3 4 4 -1.</_>
        <_>
          4 3 2 2 2.</_>
        <_>
          6 5 2 2 2.</_></rects>
      <tilted>0</tilted></_>
    <_>
      <rects>
        <_>
          4 3 8 9 -1.</_>
        <_>
          8 3 4 9 2.</_></rects>
      <tilted>0</tilted></_>
    <_>
      <rects>
        <_>
          4 3 6 3 -1.</_>
        <_>
          4 4 6 1 3.</_></rects>
      <tilted>0</tilted></_>
    <_>
      <rects>
        <_>
          4 4 5 3 -1.</_>
        <_>
          4 5 5 1 3.</_></rects>
      <tilted>0</tilted></_>
    <_>
      <rects>
        <_>
          4 4 7 8 -1.</_>
        <_>
          4 8 7 4 2.</_></rects>
      <tilted>0</tilted></_>
    <_>
      <rects>
        <_>
          4 5 3 3 -1.</_>
        <_>
          5 6 1 1 9.</_></rects>
      <tilted>0</tilted></_>
    <_>
      <rects>
        <_>
          4 5 4 5 -1.</_>
        <_>
          5 5 2 5 2.</_></rects>
      <tilted>0</tilted></_>
    <_>
      <rects>
        <_>
          4 5 8 5 -1.</_>
        <_>
          8 5 4 5 2.</_></rects>
      <tilted>0</tilted></_>
    <_>
      <rects>
        <_>
          4 6 4 4 -1.</_>
        <_>
          5 6 2 4 2.</_></rects>
      <tilted>0</tilted></_>
    <_>
      <rects>
        <_>
          4 7 8 5 -1.</_>
        <_>
          8 7 4 5 2.</_></rects>
      <tilted>0</tilted></_>
    <_>
      <rects>
        <_>
          5 1 4 4 -1.</_>
        <_>
          5 2 4 2 2.</_></rects>
      <tilted>0</tilted></_>
    <_>
      <rects>
        <_>
          5 2 3 6 -1.</_>
        <_>
          6 2 1 6 3.</_></rects>
      <tilted>0</tilted></_>
    <_>
      <rects>
        <_>
          5 2 5 3 -1.</_>
        <_>
          5 3 5 1 3.</_></rects>
      <tilted>0</tilted></_>
    <_>
      <rects>
        <_>
          5 3 3 3 -1.</_>
        <_>
          6 4 1 1 9.</_></rects>
      <tilted>0</tilted></_>
    <_>
      <rects>
        <_>
          5 4 1 3 -1.</_>
        <_>
          5 5 1 1 3.</_></rects>
      <tilted>0</tilted></_>
    <_>
      <rects>
        <_>
          5 4 4 1 -1.</_>
        <_>
          6 4 2 1 2.</_></rects>
      <tilted>0</tilted></_>
    <_>
      <rects>
        <_>
          5 4 3 4 -1.</_>
        <_>
          6 4 1 4 3.</_></rects>
      <tilted>0</tilted></_>
    <_>
      <rects>
        <_>
          5 4 4 5 -1.</_>
        <_>
          6 4 2 5 2.</_></rects>
      <tilted>0</tilted></_>
    <_>
      <rects>
        <_>
          5 4 4 7 -1.</_>
        <_>
          6 4 2 7 2.</_></rects>
      <tilted>0</tilted></_>
    <_>
      <rects>
        <_>
          5 5 1 2 -1.</_>
        <_>
          5 6 1 1 2.</_></rects>
      <tilted>0</tilted></_>
    <_>
      <rects>
        <_>
          5 5 4 5 -1.</_>
        <_>
          7 5 2 5 2.</_></rects>
      <tilted>0</tilted></_>
    <_>
      <rects>
        <_>
          5 6 3 3 -1.</_>
        <_>
          6 7 1 1 9.</_></rects>
      <tilted>0</tilted></_>
    <_>
      <rects>
        <_>
          5 6 4 4 -1.</_>
        <_>
          5 6 2 2 2.</_>
        <_>
          7 8 2 2 2.</_></rects>
      <tilted>0</tilted></_>
    <_>
      <rects>
        <_>
          6 0 4 1 -1.</_>
        <_>
          8 0 2 1 2.</_></rects>
      <tilted>0</tilted></_>
    <_>
      <rects>
        <_>
          6 0 2 6 -1.</_>
        <_>
          6 2 2 2 3.</_></rects>
      <tilted>0</tilted></_>
    <_>
      <rects>
        <_>
          6 1 3 3 -1.</_>
        <_>
          7 2 1 1 9.</_></rects>
      <tilted>0</tilted></_>
    <_>
      <rects>
        <_>
          6 2 4 6 -1.</_>
        <_>
          7 2 2 6 2.</_></rects>
      <tilted>0</tilted></_>
    <_>
      <rects>
        <_>
          6 3 3 3 -1.</_>
        <_>
          7 4 1 1 9.</_></rects>
      <tilted>0</tilted></_>
    <_>
      <rects>
        <_>
          6 3 4 4 -1.</_>
        <_>
          7 3 2 4 2.</_></rects>
      <tilted>0</tilted></_>
    <_>
      <rects>
        <_>
          6 3 3 3 -1.</_>
        <_>
          6 4 3 1 3.</_></rects>
      <tilted>0</tilted></_>
    <_>
      <rects>
        <_>
          6 4 4 4 -1.</_>
        <_>
          7 4 2 4 2.</_></rects>
      <tilted>0</tilted></_>
    <_>
      <rects>
        <_>
          6 4 3 6 -1.</_>
        <_>
          7 4 1 6 3.</_></rects>
      <tilted>0</tilted></_>
    <_>
      <rects>
        <_>
          6 4 3 7 -1.</_>
        <_>
          7 4 1 7 3.</_></rects>
      <tilted>0</tilted></_>
    <_>
      <rects>
        <_>
          6 5 4 3 -1.</_>
        <_>
          7 5 2 3 2.</_></rects>
      <tilted>0</tilted></_>
    <_>
      <rects>
        <_>
          6 5 3 4 -1.</_>
        <_>
          7 5 1 4 3.</_></rects>
      <tilted>0</tilted></_>
    <_>
      <rects>
        <_>
          6 5 3 5 -1.</_>
        <_>
          7 5 1 5 3.</_></rects>
      <tilted>0</tilted></_>
    <_>
      <rects>
        <_>
          6 5 3 7 -1.</_>
        <_>
          7 5 1 7 3.</_></rects>
      <tilted>0</tilted></_>
    <_>
      <rects>
        <_>
          6 6 1 2 -1.</_>
        <_>
          6 7 1 1 2.</_></rects>
      <tilted>0</tilted></_>
    <_>
      <rects>
        <_>
          6 7 3 3 -1.</_>
        <_>
          7 8 1 1 9.</_></rects>
      <tilted>0</tilted></_>
    <_>
      <rects>
        <_>
          6 7 6 5 -1.</_>
        <_>
          9 7 3 5 2.</_></rects>
      <tilted>0</tilted></_>
    <_>
      <rects>
        <_>
          6 9 3 3 -1.</_>
        <_>
          7 10 1 1 9.</_></rects>
      <tilted>0</tilted></_>
    <_>
      <rects>
        <_>
          7 1 3 3 -1.</_>
        <_>
          8 2 1 1 9.</_></rects>
      <tilted>0</tilted></_>
    <_>
      <rects>
        <_>
          7 2 3 5 -1.</_>
        <_>
          8 2 1 5 3.</_></rects>
      <tilted>0</tilted></_>
    <_>
      <rects>
        <_>
          7 2 2 8 -1.</_>
        <_>
          8 2 1 8 2.</_></rects>
      <tilted>0</tilted></_>
    <_>
      <rects>
        <_>
          7 4 1 3 -1.</_>
        <_>
          7 5 1 1 3.</_></rects>
      <tilted>0</tilted></_>
    <_>
      <rects>
        <_>
          7 4 3 5 -1.</_>
        <_>
          8 4 1 5 3.</_></rects>
      <tilted>0</tilted></_>
    <_>
      <rects>
        <_>
          7 4 4 5 -1.</_>
        <_>
          8 4 2 5 2.</_></rects>
      <tilted>0</tilted></_>
    <_>
      <rects>
        <_>
          7 4 3 6 -1.</_>
        <_>
          8 4 1 6 3.</_></rects>
      <tilted>0</tilted></_>
    <_>
      <rects>
        <_>
          7 4 2 8 -1.</_>
        <_>
          8 4 1 8 2.</_></rects>
      <tilted>0</tilted></_>
    <_>
      <rects>
        <_>
          7 5 1 2 -1.</_>
        <_>
          7 6 1 1 2.</_></rects>
      <tilted>0</tilted></_>
    <_>
      <rects>
        <_>
          8 1 2 2 -1.</_>
        <_>
          8 1 1 1 2.</_>
        <_>
          9 2 1 1 2.</_></rects>
      <tilted>0</tilted></_>
    <_>
      <rects>
        <_>
          8 1 4 6 -1.</_>
        <_>
          8 3 4 2 3.</_></rects>
      <tilted>0</tilted></_>
    <_>
      <rects>
        <_>
          8 3 3 5 -1.</_>
        <_>
          9 3 1 5 3.</_></rects>
      <tilted>0</tilted></_>
    <_>
      <rects>
        <_>
          8 5 4 3 -1.</_>
        <_>
          9 5 2 3 2.</_></rects>
      <tilted>0</tilted></_>
    <_>
      <rects>
        <_>
          8 8 1 2 -1.</_>
        <_>
          8 9 1 1 2.</_></rects>
      <tilted>0</tilted></_>
    <_>
      <rects>
        <_>
          8 10 2 2 -1.</_>
        <_>
          8 11 2 1 2.</_></rects>
      <tilted>0</tilted></_>
    <_>
      <rects>
        <_>
          8 11 4 1 -1.</_>
        <_>
          10 11 2 1 2.</_></rects>
      <tilted>0</tilted></_>
    <_>
      <rects>
        <_>
          9 1 2 2 -1.</_>
        <_>
          9 1 1 1 2.</_>
        <_>
          10 2 1 1 2.</_></rects>
      <tilted>0</tilted></_>
    <_>
      <rects>
        <_>
          9 1 2 10 -1.</_>
        <_>
          9 1 1 5 2.</_>
        <_>
          10 6 1 5 2.</_></rects>
      <tilted>0</tilted></_>
    <_>
      <rects>
        <_>
          9 2 2 6 -1.</_>
        <_>
          9 2 1 3 2.</_>
        <_>
          10 5 1 3 2.</_></rects>
      <tilted>0</tilted></_>
    <_>
      <rects>
        <_>
          9 10 2 2 -1.</_>
        <_>
          10 10 1 2 2.</_></rects>
      <tilted>0</tilted></_>
    <_>
      <rects>
        <_>
          9 11 3 1 -1.</_>
        <_>
          10 11 1 1 3.</_></rects>
      <tilted>0</tilted></_>
    <_>
      <rects>
        <_>
          10 0 2 6 -1.</_>
        <_>
          10 3 2 3 2.</_></rects>
      <tilted>0</tilted></_>
    <_>
      <rects>
        <_>
          10 8 2 4 -1.</_>
        <_>
          11 8 1 4 2.</_></rects>
      <tilted>0</tilted></_>
    <_>
      <rects>
        <_>
          10 9 2 3 -1.</_>
        <_>
          11 9 1 3 2.</_></rects>
      <tilted>0</tilted></_>
    <_>
      <rects>
        <_>
          10 10 2 2 -1.</_>
        <_>
          11 10 1 2 2.</_></rects>
      <tilted>0</tilted></_>
    <_>
      <rects>
        <_>
          10 11 2 1 -1.</_>
        <_>
          11 11 1 1 2.</_></rects>
      <tilted>0</tilted></_>
    <_>
      <rects>
        <_>
          11 2 1 4 -1.</_>
        <_>
          11 4 1 2 2.</_></rects>
      <tilted>0</tilted></_>
    <_>
      <rects>
        <_>
          11 2 1 9 -1.</_>
        <_>
          11 5 1 3 3.</_></rects>
      <tilted>0</tilted></_>
    <_>
      <rects>
        <_>
          11 3 1 4 -1.</_>
        <_>
          11 4 1 2 2.</_></rects>
      <tilted>0</tilted></_>
    <_>
      <rects>
        <_>
          11 4 1 8 -1.</_>
        <_>
          11 8 1 4 2.</_></rects>
      <tilted>0</tilted></_>
    <_>
      <rects>
        <_>
          11 5 1 6 -1.</_>
        <_>
          11 8 1 3 2.</_></rects>
      <tilted>0</tilted></_>
    <_>
      <rects>
        <_>
          11 6 1 6 -1.</_>
        <_>
          11 9 1 3 2.</_></rects>
      <tilted>0</tilted></_></features></cascade>
</opencv_storage>
