<?xml version="1.0"?>
<opencv_storage>
<cascade>
  <stageType>BOOST</stageType>
  <featureType>HAAR</featureType>
  <height>12</height>
  <width>12</width>
  <stageParams>
    <boostType>RAB</boostType>
    <minHitRate>9.9500000476837158e-01</minHitRate>
    <maxFalseAlarm>5.0000000000000000e-01</maxFalseAlarm>
    <weightTrimRate>9.4999999999999996e-01</weightTrimRate>
    <maxDepth>1</maxDepth>
    <maxWeakCount>100</maxWeakCount></stageParams>
  <featureParams>
    <maxCatCount>0</maxCatCount>
    <featSize>1</featSize>
    <mode>ALL</mode></featureParams>
  <stageNum>8</stageNum>
  <stages>
    <!-- stage 0 -->
    <_>
      <maxWeakCount>9</maxWeakCount>
      <stageThreshold>-2.6558866500854492e+00</stageThreshold>
      <weakClassifiers>
        <_>
          <internalNodes>
            0 -1 82 9.6289068460464478e-02</internalNodes>
          <leafValues>
            -1.3428393602371216e+00 4.1508448123931885e-01</leafValues></_>
        <_>
          <internalNodes>
            0 -1 44 -1.9302088022232056e-01</internalNodes>
          <leafValues>
            5.2816897630691528e-01 -7.9821044206619263e-01</leafValues></_>
        <_>
          <internalNodes>
            0 -1 2 3.5990059375762939e-02</internalNodes>
          <leafValues>
            -7.6953202486038208e-01 2.5084605813026428e-01</leafValues></_>
        <_>
          <internalNodes>
            0 -1 127 -3.8905411958694458e-02</internalNodes>
          <leafValues>
            1.0554807186126709e+00 -2.0393805205821991e-01</leafValues></_>
        <_>
          <internalNodes>
            0 -1 7 -2.1167223155498505e-01</internalNodes>
          <leafValues>
            -8.8804829120635986e-01 2.1732413768768311e-01</leafValues></_>
        <_>
          <internalNodes>
            0 -1 116 1.5590313822031021e-02</internalNodes>
          <leafValues>
            -3.4876021742820740e-01 4.9048551917076111e-01</leafValues></_>
        <_>
          <internalNodes>
            0 -1 137 7.0513342507183552e-04</internalNodes>
          <leafValues>
            -3.5827773809432983e-01 3.1483182311058044e-01</leafValues></_>
        <_>
          <internalNodes>
            0 -1 118 2.5732867419719696e-02</internalNodes>
          <leafValues>
            -1.9080774486064911e-01 6.0160398483276367e-01</leafValues></_>
        <_>
          <internalNodes>
            0 -1 111 -2.1681226789951324e-02</internalNodes>
          <leafValues>
            6.9997161626815796e-01 -1.8722453713417053e-01</leafValues></_></weakClassifiers></_>
    <!-- stage 1 -->
    <_>
      <maxWeakCount>12</maxWeakCount>
      <stageThreshold>-2.8237025737762451e+00</stageThreshold>
      <weakClassifiers>
        <_>
          <internalNodes>
            0 -1 57 4.1806768625974655e-02</internalNodes>
          <leafValues>
            -1.3223756551742554e+00 -1.6000013565644622e-03</leafValues></_>
        <_>
          <internalNodes>
            0 -1 34 1.1885954439640045e-01</internalNodes>
          <leafValues>
            -5.0889855623245239e-01 4.6565601229667664e-01</leafValues></_>
        <_>
          <internalNodes>
            0 -1 1 5.1309749484062195e-02</internalNodes>
          <leafValues>
            -8.7637847661972046e-01 2.3708452284336090e-01</leafValues></_>
        <_>
          <internalNodes>
            0 -1 22 -6.2558398349210620e-04</internalNodes>
          <leafValues>
            3.9592322707176208e-01 -4.4420871138572693e-01</leafValues></_>
        <_>
          <internalNodes>
            0 -1 102 5.6119792163372040e-02</internalNodes>
          <leafValues>
            -3.6428564786911011e-01 4.6925237774848938e-01</leafValues></_>
        <_>
          <internalNodes>
            0 -1 6 -8.5021793842315674e-02</internalNodes>
          <leafValues>
            -7.8947895765304565e-01 2.1772520244121552e-01</leafValues></_>
        <_>
          <internalNodes>
            0 -1 125 4.4100739061832428e-02</internalNodes>
          <leafValues>
            -2.2923825681209564e-01 7.3620676994323730e-01</leafValues></_>
        <_>
          <internalNodes>
            0 -1 16 1.7658974230289459e-01</internalNodes>
          <leafValues>
            1.1514408886432648e-01 -1.6449854373931885e+00</leafValues></_>
        <_>
          <internalNodes>
            0 -1 75 1.9494833424687386e-02</internalNodes>
          <leafValues>
            -2.0462387800216675e-01 6.2311547994613647e-01</leafValues></_>
        <_>
          <internalNodes>
            0 -1 84 -1.4378478750586510e-02</internalNodes>
          <leafValues>
            6.2605923414230347e-01 -1.8544690310955048e-01</leafValues></_>
        <_>
          <internalNodes>
            0 -1 83 2.1245915442705154e-02</internalNodes>
          <leafValues>
            -2.0870874822139740e-01 4.6448519825935364e-01</leafValues></_>
        <_>
          <internalNodes>
            0 -1 49 -9.9661890417337418e-03</internalNodes>
          <leafValues>
            -1.4995589256286621e+00 1.0677945613861084e-01</leafValues></_></weakClassifiers></_>
    <!-- stage 2 -->
    <_>
      <maxWeakCount>15</maxWeakCount>
      <stageThreshold>-2.4222223758697510e+00</stageThreshold>
      <weakClassifiers>
        <_>
          <internalNodes>
            0 -1 81 9.4484895467758179e-02</internalNodes>
          <leafValues>
            -1.2865365743637085e+00 3.8715869188308716e-02</leafValues></_>
        <_>
          <internalNodes>
            0 -1 22 -1.5951362438499928e-03</internalNodes>
          <leafValues>
            4.1464775800704956e-01 -5.1664888858795166e-01</leafValues></_>
        <_>
          <internalNodes>
            0 -1 59 2.1682558581233025e-02</internalNodes>
          <leafValues>
            -1.8650804460048676e-01 8.3985215425491333e-01</leafValues></_>
        <_>
          <internalNodes>
            0 -1 113 4.5607451349496841e-02</internalNodes>
          <leafValues>
            -2.1193952858448029e-01 5.7661622762680054e-01</leafValues></_>
        <_>
          <internalNodes>
            0 -1 67 2.8930282592773438e-01</internalNodes>
          <leafValues>
            -1.5861183404922485e-01 7.8097093105316162e-01</leafValues></_>
        <_>
          <internalNodes>
            0 -1 77 1.7985548824071884e-02</internalNodes>
          <leafValues>
            -2.0052282512187958e-01 5.6021285057067871e-01</leafValues></_>
        <_>
          <internalNodes>
            0 -1 15 -1.8687304854393005e-01</internalNodes>
          <leafValues>
            -9.5151990652084351e-01 1.1285050958395004e-01</leafValues></_>
        <_>
          <internalNodes>
            0 -1 46 3.8756132125854492e-02</internalNodes>
          <leafValues>
            2.6643627882003784e-01 -5.4715251922607422e-01</leafValues></_>
        <_>
          <internalNodes>
            0 -1 97 2.3646192625164986e-02</internalNodes>
          <leafValues>
            -2.1089980006217957e-01 4.3625384569168091e-01</leafValues></_>
        <_>
          <internalNodes>
            0 -1 3 6.0330665111541748e-01</internalNodes>
          <leafValues>
            1.1442078649997711e-01 -1.0771955251693726e+00</leafValues></_>
        <_>
          <internalNodes>
            0 -1 90 1.2373419478535652e-02</internalNodes>
          <leafValues>
            -1.9366021454334259e-01 4.5114615559577942e-01</leafValues></_>
        <_>
          <internalNodes>
            0 -1 26 -8.3666443824768066e-03</internalNodes>
          <leafValues>
            -5.9766185283660889e-01 1.4208304882049561e-01</leafValues></_>
        <_>
          <internalNodes>
            0 -1 110 5.8537900447845459e-02</internalNodes>
          <leafValues>
            -1.7699317634105682e-01 5.2480274438858032e-01</leafValues></_>
        <_>
          <internalNodes>
            0 -1 99 3.2983250916004181e-02</internalNodes>
          <leafValues>
            -2.2603355348110199e-01 4.1437494754791260e-01</leafValues></_>
        <_>
          <internalNodes>
            0 -1 112 -3.8352318108081818e-02</internalNodes>
          <leafValues>
            4.9998730421066284e-01 -1.6128450632095337e-01</leafValues></_></weakClassifiers></_>
    <!-- stage 3 -->
    <_>
      <maxWeakCount>18</maxWeakCount>
      <stageThreshold>-2.5173387527465820e+00</stageThreshold>
      <weakClassifiers>
        <_>
          <internalNodes>
            0 -1 27 1.8485788255929947e-02</internalNodes>
          <leafValues>
            -1.3349711894989014e+00 -2.9167252779006958e-01</leafValues></_>
        <_>
          <internalNodes>
            0 -1 39 -3.6318498849868774e-01</internalNodes>
          <leafValues>
            4.1601881384849548e-01 -4.5614472031593323e-01</leafValues></_>
        <_>
          <internalNodes>
            0 -1 10 8.0342285335063934e-02</internalNodes>
          <leafValues>
            -5.9334135055541992e-01 2.1109424531459808e-01</leafValues></_>
        <_>
          <internalNodes>
            0 -1 141 -3.5524573177099228e-02</internalNodes>
          <leafValues>
            -5.9062635898590088e-01 2.3083733022212982e-01</leafValues></_>
        <_>
          <internalNodes>
            0 -1 21 -6.9480578531511128e-05</internalNodes>
          <leafValues>
            2.0240777730941772e-01 -4.5116177201271057e-01</leafValues></_>
        <_>
          <internalNodes>
            0 -1 103 -2.5775779038667679e-02</internalNodes>
          <leafValues>
            7.7661567926406860e-01 -1.1206587404012680e-01</leafValues></_>
        <_>
          <internalNodes>
            0 -1 103 1.9344912841916084e-02</internalNodes>
          <leafValues>
            -1.7316873371601105e-01 6.1382079124450684e-01</leafValues></_>
        <_>
          <internalNodes>
            0 -1 18 7.0579543709754944e-02</internalNodes>
          <leafValues>
            1.4987796545028687e-01 -6.6491425037384033e-01</leafValues></_>
        <_>
          <internalNodes>
            0 -1 0 3.1245479360222816e-02</internalNodes>
          <leafValues>
            1.6963030397891998e-01 -5.3026461601257324e-01</leafValues></_>
        <_>
          <internalNodes>
            0 -1 20 -5.8707147836685181e-03</internalNodes>
          <leafValues>
            -1.1494944095611572e+00 7.9017333686351776e-02</leafValues></_>
        <_>
          <internalNodes>
            0 -1 32 -3.8398453034460545e-03</internalNodes>
          <leafValues>
            -8.0454510450363159e-01 9.6148252487182617e-02</leafValues></_>
        <_>
          <internalNodes>
            0 -1 110 -6.0867093503475189e-02</internalNodes>
          <leafValues>
            7.3740136623382568e-01 -1.0170493274927139e-01</leafValues></_>
        <_>
          <internalNodes>
            0 -1 133 -3.7244476377964020e-02</internalNodes>
          <leafValues>
            6.2191194295883179e-01 -1.7449271678924561e-01</leafValues></_>
        <_>
          <internalNodes>
            0 -1 28 -8.1912927329540253e-02</internalNodes>
          <leafValues>
            1.5205064415931702e-01 -4.8627510666847229e-01</leafValues></_>
        <_>
          <internalNodes>
            0 -1 124 -4.0377050638198853e-02</internalNodes>
          <leafValues>
            5.9697782993316650e-01 -1.3583377003669739e-01</leafValues></_>
        <_>
          <internalNodes>
            0 -1 126 7.6890155673027039e-02</internalNodes>
          <leafValues>
            -1.2634478509426117e-01 6.2020713090896606e-01</leafValues></_>
        <_>
          <internalNodes>
            0 -1 38 1.8005418777465820e-01</internalNodes>
          <leafValues>
            1.1364441365003586e-01 -6.1029225587844849e-01</leafValues></_>
        <_>
          <internalNodes>
            0 -1 19 -2.5159776210784912e-01</internalNodes>
          <leafValues>
            -1.3867142200469971e+00 7.3946811258792877e-02</leafValues></_></weakClassifiers></_>
    <!-- stage 4 -->
    <_>
      <maxWeakCount>20</maxWeakCount>
      <stageThreshold>-2.4219636917114258e+00</stageThreshold>
      <weakClassifiers>
        <_>
          <internalNodes>
            0 -1 69 1.0486429929733276e-01</internalNodes>
          <leafValues>
            -1.2645261287689209e+00 3.3030875027179718e-02</leafValues></_>
        <_>
          <internalNodes>
            0 -1 131 1.8741652602329850e-03</internalNodes>
          <leafValues>
            -4.8538333177566528e-01 3.5987398028373718e-01</leafValues></_>
        <_>
          <internalNodes>
            0 -1 53 -1.5675875544548035e-01</internalNodes>
          <leafValues>
            2.6065397262573242e-01 -4.2205885052680969e-01</leafValues></_>
        <_>
          <internalNodes>
            0 -1 129 1.6261667013168335e-02</internalNodes>
          <leafValues>
            -2.2150798141956329e-01 4.4287076592445374e-01</leafValues></_>
        <_>
          <internalNodes>
            0 -1 14 -2.6001799851655960e-02</internalNodes>
          <leafValues>
            -5.5144423246383667e-01 1.7295907437801361e-01</leafValues></_>
        <_>
          <internalNodes>
            0 -1 73 3.0184421688318253e-02</internalNodes>
          <leafValues>
            -1.4836132526397705e-01 5.3599244356155396e-01</leafValues></_>
        <_>
          <internalNodes>
            0 -1 70 2.8797280043363571e-02</internalNodes>
          <leafValues>
            -1.7614386975765228e-01 4.5125350356101990e-01</leafValues></_>
        <_>
          <internalNodes>
            0 -1 139 2.8377808630466461e-03</internalNodes>
          <leafValues>
            1.3938812911510468e-01 -8.2995319366455078e-01</leafValues></_>
        <_>
          <internalNodes>
            0 -1 92 4.1014989838004112e-03</internalNodes>
          <leafValues>
            -2.9749116301536560e-01 2.5709721446037292e-01</leafValues></_>
        <_>
          <internalNodes>
            0 -1 62 4.5478208921849728e-03</internalNodes>
          <leafValues>
            -2.7183994650840759e-01 2.5651651620864868e-01</leafValues></_>
        <_>
          <internalNodes>
            0 -1 4 6.2731325626373291e-01</internalNodes>
          <leafValues>
            8.8254764676094055e-02 -9.9837249517440796e-01</leafValues></_>
        <_>
          <internalNodes>
            0 -1 91 2.8007006272673607e-02</internalNodes>
          <leafValues>
            -1.5837025642395020e-01 5.1728379726409912e-01</leafValues></_>
        <_>
          <internalNodes>
            0 -1 132 2.3775946348905563e-02</internalNodes>
          <leafValues>
            -1.7898686230182648e-01 4.5147645473480225e-01</leafValues></_>
        <_>
          <internalNodes>
            0 -1 48 1.0317278793081641e-03</internalNodes>
          <leafValues>
            -2.4352902173995972e-01 3.1724256277084351e-01</leafValues></_>
        <_>
          <internalNodes>
            0 -1 80 -5.7099258992820978e-04</internalNodes>
          <leafValues>
            -2.7663230895996094e-01 2.4317122995853424e-01</leafValues></_>
        <_>
          <internalNodes>
            0 -1 12 -1.6279573738574982e-01</internalNodes>
          <leafValues>
            -5.2706545591354370e-01 1.0939364880323410e-01</leafValues></_>
        <_>
          <internalNodes>
            0 -1 17 1.6184397041797638e-02</internalNodes>
          <leafValues>
            7.8150406479835510e-02 -1.0024874210357666e+00</leafValues></_>
        <_>
          <internalNodes>
            0 -1 8 -2.3896088823676109e-03</internalNodes>
          <leafValues>
            -3.8608169555664063e-01 1.5895640850067139e-01</leafValues></_>
        <_>
          <internalNodes>
            0 -1 29 5.9692256152629852e-02</internalNodes>
          <leafValues>
            7.2080492973327637e-02 -9.6961545944213867e-01</leafValues></_>
        <_>
          <internalNodes>
            0 -1 72 -2.6664994657039642e-02</internalNodes>
          <leafValues>
            4.7713750600814819e-01 -1.3541379570960999e-01</leafValues></_></weakClassifiers></_>
    <!-- stage 5 -->
    <_>
      <maxWeakCount>24</maxWeakCount>
      <stageThreshold>-2.3570661544799805e+00</stageThreshold>
      <weakClassifiers>
        <_>
          <internalNodes>
            0 -1 64 -6.0189098119735718e-02</internalNodes>
          <leafValues>
            8.0886834859848022e-01 -1.2145762443542480e+00</leafValues></_>
        <_>
          <internalNodes>
            0 -1 30 -2.5905107613652945e-03</internalNodes>
          <leafValues>
            3.8638001680374146e-01 -4.1790524125099182e-01</leafValues></_>
        <_>
          <internalNodes>
            0 -1 11 1.7684657871723175e-01</internalNodes>
          <leafValues>
            -5.5745595693588257e-01 2.0013162493705750e-01</leafValues></_>
        <_>
          <internalNodes>
            0 -1 36 -1.6703706234693527e-02</internalNodes>
          <leafValues>
            6.7404425144195557e-01 -1.2392405420541763e-01</leafValues></_>
        <_>
          <internalNodes>
            0 -1 128 3.1480789184570313e-02</internalNodes>
          <leafValues>
            -9.6414290368556976e-02 5.9577572345733643e-01</leafValues></_>
        <_>
          <internalNodes>
            0 -1 33 3.8797436282038689e-03</internalNodes>
          <leafValues>
            1.8993566930294037e-01 -3.5793790221214294e-01</leafValues></_>
        <_>
          <internalNodes>
            0 -1 55 -1.2398768216371536e-02</internalNodes>
          <leafValues>
            4.6586695313453674e-01 -1.3929630815982819e-01</leafValues></_>
        <_>
          <internalNodes>
            0 -1 60 2.0944135263562202e-02</internalNodes>
          <leafValues>
            -1.6016717255115509e-01 4.9761390686035156e-01</leafValues></_>
        <_>
          <internalNodes>
            0 -1 5 -1.6634838655591011e-02</internalNodes>
          <leafValues>
            -4.8693886399269104e-01 1.6347208619117737e-01</leafValues></_>
        <_>
          <internalNodes>
            0 -1 86 -8.7467074627056718e-04</internalNodes>
          <leafValues>
            2.0594102144241333e-01 -3.2594266533851624e-01</leafValues></_>
        <_>
          <internalNodes>
            0 -1 115 -2.7054350823163986e-02</internalNodes>
          <leafValues>
            4.9991142749786377e-01 -1.4250662922859192e-01</leafValues></_>
        <_>
          <internalNodes>
            0 -1 104 4.2939558625221252e-03</internalNodes>
          <leafValues>
            -2.7962455153465271e-01 2.1233487129211426e-01</leafValues></_>
        <_>
          <internalNodes>
            0 -1 109 -2.5777785107493401e-02</internalNodes>
          <leafValues>
            4.6727150678634644e-01 -1.3236115872859955e-01</leafValues></_>
        <_>
          <internalNodes>
            0 -1 110 5.7209864258766174e-02</internalNodes>
          <leafValues>
            -1.6497467458248138e-01 4.0552681684494019e-01</leafValues></_>
        <_>
          <internalNodes>
            0 -1 51 -1.8492464721202850e-01</internalNodes>
          <leafValues>
            -1.4384446144104004e+00 6.9066263735294342e-02</leafValues></_>
        <_>
          <internalNodes>
            0 -1 114 4.4405221939086914e-02</internalNodes>
          <leafValues>
            -1.7083244025707245e-01 4.7193658351898193e-01</leafValues></_>
        <_>
          <internalNodes>
            0 -1 124 -3.4109659492969513e-02</internalNodes>
          <leafValues>
            4.4539669156074524e-01 -1.4431206881999969e-01</leafValues></_>
        <_>
          <internalNodes>
            0 -1 21 4.8908131429925561e-04</internalNodes>
          <leafValues>
            1.0235062241554260e-01 -5.6992000341415405e-01</leafValues></_>
        <_>
          <internalNodes>
            0 -1 61 -3.5202634334564209e-01</internalNodes>
          <leafValues>
            -9.6010017395019531e-01 8.1885367631912231e-02</leafValues></_>
        <_>
          <internalNodes>
            0 -1 65 3.3998787403106689e-02</internalNodes>
          <leafValues>
            -2.2946831583976746e-01 2.5116127729415894e-01</leafValues></_>
        <_>
          <internalNodes>
            0 -1 119 5.7653328403830528e-03</internalNodes>
          <leafValues>
            -1.4036186039447784e-01 4.1977381706237793e-01</leafValues></_>
        <_>
          <internalNodes>
            0 -1 120 -1.2388778850436211e-03</internalNodes>
          <leafValues>
            2.1459521353244781e-01 -3.2240188121795654e-01</leafValues></_>
        <_>
          <internalNodes>
            0 -1 142 -3.7573590874671936e-02</internalNodes>
          <leafValues>
            -9.1348177194595337e-01 7.5488612055778503e-02</leafValues></_>
        <_>
          <internalNodes>
            0 -1 106 7.3566883802413940e-02</internalNodes>
          <leafValues>
            7.5646094977855682e-02 -1.0457032918930054e+00</leafValues></_></weakClassifiers></_>
    <!-- stage 6 -->
    <_>
      <maxWeakCount>28</maxWeakCount>
      <stageThreshold>-2.3394908905029297e+00</stageThreshold>
      <weakClassifiers>
        <_>
          <internalNodes>
            0 -1 88 -5.8116056025028229e-02</internalNodes>
          <leafValues>
            5.7564578056335449e+00 -1.2089979648590088e+00</leafValues></_>
        <_>
          <internalNodes>
            0 -1 54 -3.0610415339469910e-01</internalNodes>
          <leafValues>
            2.7202668786048889e-01 -5.0425237417221069e-01</leafValues></_>
        <_>
          <internalNodes>
            0 -1 79 4.2317494750022888e-02</internalNodes>
          <leafValues>
            -1.8855869770050049e-01 6.9974166154861450e-01</leafValues></_>
        <_>
          <internalNodes>
            0 -1 123 4.7783263027667999e-02</internalNodes>
          <leafValues>
            -1.6650149226188660e-01 5.8883601427078247e-01</leafValues></_>
        <_>
          <internalNodes>
            0 -1 76 1.3137636706233025e-03</internalNodes>
          <leafValues>
            -3.6111915111541748e-01 2.0925687253475189e-01</leafValues></_>
        <_>
          <internalNodes>
            0 -1 140 3.1477892771363258e-03</internalNodes>
          <leafValues>
            2.3181983828544617e-01 -3.3315977454185486e-01</leafValues></_>
        <_>
          <internalNodes>
            0 -1 41 5.6227378547191620e-02</internalNodes>
          <leafValues>
            -2.5217714905738831e-01 2.7707242965698242e-01</leafValues></_>
        <_>
          <internalNodes>
            0 -1 91 2.7312723919749260e-02</internalNodes>
          <leafValues>
            -1.6428881883621216e-01 4.8987472057342529e-01</leafValues></_>
        <_>
          <internalNodes>
            0 -1 43 3.7047602236270905e-02</internalNodes>
          <leafValues>
            -1.1764433234930038e-01 7.3622196912765503e-01</leafValues></_>
        <_>
          <internalNodes>
            0 -1 68 -2.9465022683143616e-01</internalNodes>
          <leafValues>
            -5.9800136089324951e-01 1.0593899339437485e-01</leafValues></_>
        <_>
          <internalNodes>
            0 -1 136 1.2137505412101746e-01</internalNodes>
          <leafValues>
            2.1027849614620209e-01 -3.1747031211853027e-01</leafValues></_>
        <_>
          <internalNodes>
            0 -1 42 -1.0325660556554794e-01</internalNodes>
          <leafValues>
            -5.6615996360778809e-01 1.2539985775947571e-01</leafValues></_>
        <_>
          <internalNodes>
            0 -1 47 -1.6749091446399689e-02</internalNodes>
          <leafValues>
            5.1519936323165894e-01 -1.3753440976142883e-01</leafValues></_>
        <_>
          <internalNodes>
            0 -1 93 2.0321002230048180e-03</internalNodes>
          <leafValues>
            -3.9506971836090088e-01 2.0949941873550415e-01</leafValues></_>
        <_>
          <internalNodes>
            0 -1 89 -3.6461986601352692e-02</internalNodes>
          <leafValues>
            7.1181058883666992e-01 -1.0145501792430878e-01</leafValues></_>
        <_>
          <internalNodes>
            0 -1 66 5.6974999606609344e-02</internalNodes>
          <leafValues>
            -1.3146317005157471e-01 5.6287801265716553e-01</leafValues></_>
        <_>
          <internalNodes>
            0 -1 23 -5.5117672309279442e-03</internalNodes>
          <leafValues>
            -6.5860635042190552e-01 9.8422549664974213e-02</leafValues></_>
        <_>
          <internalNodes>
            0 -1 98 -3.8348108530044556e-02</internalNodes>
          <leafValues>
            7.6452773809432983e-01 -8.8020443916320801e-02</leafValues></_>
        <_>
          <internalNodes>
            0 -1 101 5.4858997464179993e-03</internalNodes>
          <leafValues>
            -3.5862237215042114e-01 1.9714282453060150e-01</leafValues></_>
        <_>
          <internalNodes>
            0 -1 85 -5.5089689791202545e-02</internalNodes>
          <leafValues>
            8.9442807435989380e-01 -7.9996429383754730e-02</leafValues></_>
        <_>
          <internalNodes>
            0 -1 137 9.2259002849459648e-04</internalNodes>
          <leafValues>
            -3.2513660192489624e-01 1.8488813936710358e-01</leafValues></_>
        <_>
          <internalNodes>
            0 -1 24 -4.5364261604845524e-03</internalNodes>
          <leafValues>
            -3.4341797232627869e-01 1.7672792077064514e-01</leafValues></_>
        <_>
          <internalNodes>
            0 -1 9 -2.3500658571720123e-03</internalNodes>
          <leafValues>
            -4.3577009439468384e-01 1.3613837957382202e-01</leafValues></_>
        <_>
          <internalNodes>
            0 -1 95 -2.1707791835069656e-02</internalNodes>
          <leafValues>
            4.0898656845092773e-01 -1.7717932164669037e-01</leafValues></_>
        <_>
          <internalNodes>
            0 -1 94 2.4109195917844772e-02</internalNodes>
          <leafValues>
            -1.7878282070159912e-01 4.4727554917335510e-01</leafValues></_>
        <_>
          <internalNodes>
            0 -1 13 3.6844444274902344e-01</internalNodes>
          <leafValues>
            4.3305978178977966e-02 -2.6410536766052246e+00</leafValues></_>
        <_>
          <internalNodes>
            0 -1 37 1.4403867721557617e-01</internalNodes>
          <leafValues>
            -9.6896976232528687e-02 7.6304787397384644e-01</leafValues></_>
        <_>
          <internalNodes>
            0 -1 134 -6.8364024162292480e-02</internalNodes>
          <leafValues>
            8.4702086448669434e-01 -8.5785999894142151e-02</leafValues></_></weakClassifiers></_>
    <!-- stage 7 -->
    <_>
      <maxWeakCount>28</maxWeakCount>
      <stageThreshold>-2.4118170738220215e+00</stageThreshold>
      <weakClassifiers>
        <_>
          <internalNodes>
            0 -1 52 -1.5919080004096031e-02</internalNodes>
          <leafValues>
            5.7564578056335449e+00 -1.2296195030212402e+00</leafValues></_>
        <_>
          <internalNodes>
            0 -1 40 -3.2540941238403320e-01</internalNodes>
          <leafValues>
            2.6303127408027649e-01 -5.2320766448974609e-01</leafValues></_>
        <_>
          <internalNodes>
            0 -1 143 -1.4854109846055508e-02</internalNodes>
          <leafValues>
            -4.1682747006416321e-01 2.7480590343475342e-01</leafValues></_>
        <_>
          <internalNodes>
            0 -1 108 7.7902907505631447e-03</internalNodes>
          <leafValues>
            -1.9265276193618774e-01 5.3033691644668579e-01</leafValues></_>
        <_>
          <internalNodes>
            0 -1 121 1.5646921470761299e-02</internalNodes>
          <leafValues>
            -2.2644765675067902e-01 4.3937504291534424e-01</leafValues></_>
        <_>
          <internalNodes>
            0 -1 105 -1.6928888857364655e-02</internalNodes>
          <leafValues>
            5.2366876602172852e-01 -1.6801123321056366e-01</leafValues></_>
        <_>
          <internalNodes>
            0 -1 71 1.5071812272071838e-01</internalNodes>
          <leafValues>
            -1.1406860500574112e-01 9.9227070808410645e-01</leafValues></_>
        <_>
          <internalNodes>
            0 -1 56 -3.5794578492641449e-02</internalNodes>
          <leafValues>
            9.1835385560989380e-01 -1.2134619802236557e-01</leafValues></_>
        <_>
          <internalNodes>
            0 -1 109 -4.2921405285596848e-02</internalNodes>
          <leafValues>
            8.3301353454589844e-01 -7.6282888650894165e-02</leafValues></_>
        <_>
          <internalNodes>
            0 -1 25 7.0864576846361160e-03</internalNodes>
          <leafValues>
            1.7998029291629791e-01 -5.3842198848724365e-01</leafValues></_>
        <_>
          <internalNodes>
            0 -1 96 2.5791045278310776e-02</internalNodes>
          <leafValues>
            -1.1205228418111801e-01 1.1075278520584106e+00</leafValues></_>
        <_>
          <internalNodes>
            0 -1 130 2.4797203950583935e-03</internalNodes>
          <leafValues>
            -1.8342606723308563e-01 5.3586155176162720e-01</leafValues></_>
        <_>
          <internalNodes>
            0 -1 31 4.5828342437744141e-02</internalNodes>
          <leafValues>
            -7.7708140015602112e-02 1.3022112846374512e+00</leafValues></_>
        <_>
          <internalNodes>
            0 -1 63 1.6690406948328018e-02</internalNodes>
          <leafValues>
            -3.5106980800628662e-01 2.4730163812637329e-01</leafValues></_>
        <_>
          <internalNodes>
            0 -1 138 5.6053115986287594e-03</internalNodes>
          <leafValues>
            1.1801438778638840e-01 -9.1509449481964111e-01</leafValues></_>
        <_>
          <internalNodes>
            0 -1 100 -5.1961235702037811e-02</internalNodes>
          <leafValues>
            9.1624104976654053e-01 -9.8576910793781281e-02</leafValues></_>
        <_>
          <internalNodes>
            0 -1 87 4.0921792387962341e-03</internalNodes>
          <leafValues>
            -4.0681424736976624e-01 2.2057604789733887e-01</leafValues></_>
        <_>
          <internalNodes>
            0 -1 78 -1.7143543064594269e-01</internalNodes>
          <leafValues>
            -1.6857769489288330e+00 8.3965860307216644e-02</leafValues></_>
        <_>
          <internalNodes>
            0 -1 58 2.4717258289456367e-02</internalNodes>
          <leafValues>
            -1.7022444307804108e-01 5.7989883422851563e-01</leafValues></_>
        <_>
          <internalNodes>
            0 -1 50 -2.6798655744642019e-03</internalNodes>
          <leafValues>
            -4.9260997772216797e-01 1.5876156091690063e-01</leafValues></_>
        <_>
          <internalNodes>
            0 -1 122 6.1148166656494141e-02</internalNodes>
          <leafValues>
            -9.5342524349689484e-02 1.0039516687393188e+00</leafValues></_>
        <_>
          <internalNodes>
            0 -1 35 -4.6936534345149994e-02</internalNodes>
          <leafValues>
            6.1056417226791382e-01 -1.4978623390197754e-01</leafValues></_>
        <_>
          <internalNodes>
            0 -1 74 -2.4412468075752258e-02</internalNodes>
          <leafValues>
            5.8988350629806519e-01 -1.3373354077339172e-01</leafValues></_>
        <_>
          <internalNodes>
            0 -1 107 9.9630113691091537e-03</internalNodes>
          <leafValues>
            -2.2732104361057281e-01 3.5226693749427795e-01</leafValues></_>
        <_>
          <internalNodes>
            0 -1 117 -1.6996525228023529e-02</internalNodes>
          <leafValues>
            6.6169834136962891e-01 -1.5424765646457672e-01</leafValues></_>
        <_>
          <internalNodes>
            0 -1 135 1.8370987381786108e-03</internalNodes>
          <leafValues>
            -3.2831114530563354e-01 2.3556298017501831e-01</leafValues></_>
        <_>
          <internalNodes>
            0 -1 126 -4.3892771005630493e-02</internalNodes>
          <leafValues>
            8.2785469293594360e-01 -1.1199186742305756e-01</leafValues></_>
        <_>
          <internalNodes>
            0 -1 45 -5.5794015526771545e-02</internalNodes>
          <leafValues>
            3.2239341735839844e-01 -2.6585459709167480e-01</leafValues></_></weakClassifiers></_></stages>
  <features>
    <_>
      <rects>
        <_>
          0 0 12 1 -1.</_>
        <_>
          3 0 6 1 2.</_></rects>
      <tilted>0</tilted></_>
    <_>
      <rects>
        <_>
          0 0 12 11 -1.</_>
        <_>
          3 0 6 11 2.</_></rects>
      <tilted>0</tilted></_>
    <_>
      <rects>
        <_>
          0 0 8 7 -1.</_>
        <_>
          4 0 4 7 2.</_></rects>
      <tilted>0</tilted></_>
    <_>
      <rects>
        <_>
          0 0 12 9 -1.</_>
        <_>
          4 0 4 9 3.</_></rects>
      <tilted>0</tilted></_>
    <_>
      <rects>
        <_>
          0 0 12 10 -1.</_>
        <_>
          4 0 4 10 3.</_></rects>
      <tilted>0</tilted></_>
    <_>
      <rects>
        <_>
          0 0 10 2 -1.</_>
        <_>
          5 0 5 2 2.</_></rects>
      <tilted>0</tilted></_>
    <_>
      <rects>
        <_>
          0 0 12 3 -1.</_>
        <_>
          6 0 6 3 2.</_></rects>
      <tilted>0</tilted></_>
    <_>
      <rects>
        <_>
          0 0 12 12 -1.</_>
        <_>
          0 0 6 6 2.</_>
        <_>
          6 6 6 6 2.</_></rects>
      <tilted>0</tilted></_>
    <_>
      <rects>
        <_>
          0 1 1 4 -1.</_>
        <_>
          0 3 1 2 2.</_></rects>
      <tilted>0</tilted></_>
    <_>
      <rects>
        <_>
          0 1 3 2 -1.</_>
        <_>
          0 2 3 1 2.</_></rects>
      <tilted>0</tilted></_>
    <_>
      <rects>
        <_>
          0 1 8 10 -1.</_>
        <_>
          4 1 4 10 2.</_></rects>
      <tilted>0</tilted></_>
    <_>
      <rects>
        <_>
          0 1 12 11 -1.</_>
        <_>
          4 1 4 11 3.</_></rects>
      <tilted>0</tilted></_>
    <_>
      <rects>
        <_>
          0 1 12 10 -1.</_>
        <_>
          0 1 6 5 2.</_>
        <_>
          6 6 6 5 2.</_></rects>
      <tilted>0</tilted></_>
    <_>
      <rects>
        <_>
          0 1 7 8 -1.</_>
        <_>
          0 3 7 4 2.</_></rects>
      <tilted>0</tilted></_>
    <_>
      <rects>
        <_>
          0 2 1 10 -1.</_>
        <_>
          0 7 1 5 2.</_></rects>
      <tilted>0</tilted></_>
    <_>
      <rects>
        <_>
          0 6 12 6 -1.</_>
        <_>
          6 6 6 6 2.</_></rects>
      <tilted>0</tilted></_>
    <_>
      <rects>
        <_>
          0 7 8 4 -1.</_>
        <_>
          4 7 4 4 2.</_></rects>
      <tilted>0</tilted></_>
    <_>
      <rects>
        <_>
          0 8 2 4 -1.</_>
        <_>
          0 10 2 2 2.</_></rects>
      <tilted>0</tilted></_>
    <_>
      <rects>
        <_>
          0 8 12 4 -1.</_>
        <_>
          6 8 6 4 2.</_></rects>
      <tilted>0</tilted></_>
    <_>
      <rects>
        <_>
          0 8 12 4 -1.</_>
        <_>
          0 10 12 2 2.</_></rects>
      <tilted>0</tilted></_>
    <_>
      <rects>
        <_>
          0 10 2 2 -1.</_>
        <_>
          1 10 1 2 2.</_></rects>
      <tilted>0</tilted></_>
    <_>
      <rects>
        <_>
          0 11 2 1 -1.</_>
        <_>
          1 11 1 1 2.</_></rects>
      <tilted>0</tilted></_>
    <_>
      <rects>
        <_>
          0 11 4 1 -1.</_>
        <_>
          2 11 2 1 2.</_></rects>
      <tilted>0</tilted></_>
    <_>
      <rects>
        <_>
          1 0 4 1 -1.</_>
        <_>
          2 0 2 1 2.</_></rects>
      <tilted>0</tilted></_>
    <_>
      <rects>
        <_>
          1 0 2 1 -1.</_>
        <_>
          1 0 1 1 2.</_></rects>
      <tilted>1</tilted></_>
    <_>
      <rects>
        <_>
          1 0 8 1 -1.</_>
        <_>
          3 0 4 1 2.</_></rects>
      <tilted>0</tilted></_>
    <_>
      <rects>
        <_>
          1 0 9 1 -1.</_>
        <_>
          4 0 3 1 3.</_></rects>
      <tilted>0</tilted></_>
    <_>
      <rects>
        <_>
          1 1 4 2 -1.</_>
        <_>
          1 1 2 1 2.</_>
        <_>
          3 2 2 1 2.</_></rects>
      <tilted>0</tilted></_>
    <_>
      <rects>
        <_>
          1 6 10 6 -1.</_>
        <_>
          1 9 10 3 2.</_></rects>
      <tilted>0</tilted></_>
    <_>
      <rects>
        <_>
          1 9 6 3 -1.</_>
        <_>
          4 9 3 3 2.</_></rects>
      <tilted>0</tilted></_>
    <_>
      <rects>
        <_>
          1 11 4 1 -1.</_>
        <_>
          3 11 2 1 2.</_></rects>
      <tilted>0</tilted></_>
    <_>
      <rects>
        <_>
          2 0 2 8 -1.</_>
        <_>
          3 0 1 8 2.</_></rects>
      <tilted>0</tilted></_>
    <_>
      <rects>
        <_>
          2 0 4 1 -1.</_>
        <_>
          4 0 2 1 2.</_></rects>
      <tilted>0</tilted></_>
    <_>
      <rects>
        <_>
          2 0 6 1 -1.</_>
        <_>
          5 0 3 1 2.</_></rects>
      <tilted>0</tilted></_>
    <_>
      <rects>
        <_>
          2 0 8 8 -1.</_>
        <_>
          2 2 8 4 2.</_></rects>
      <tilted>0</tilted></_>
    <_>
      <rects>
        <_>
          2 1 9 3 -1.</_>
        <_>
          5 2 3 1 9.</_></rects>
      <tilted>0</tilted></_>
    <_>
      <rects>
        <_>
          2 2 4 2 -1.</_>
        <_>
          2 2 2 1 2.</_>
        <_>
          4 3 2 1 2.</_></rects>
      <tilted>0</tilted></_>
    <_>
      <rects>
        <_>
          2 2 4 6 -1.</_>
        <_>
          2 4 4 2 3.</_></rects>
      <tilted>0</tilted></_>
    <_>
      <rects>
        <_>
          2 2 10 10 -1.</_>
        <_>
          2 2 5 5 2.</_>
        <_>
          7 7 5 5 2.</_></rects>
      <tilted>0</tilted></_>
    <_>
      <rects>
        <_>
          2 2 8 10 -1.</_>
        <_>
          2 7 8 5 2.</_></rects>
      <tilted>0</tilted></_>
    <_>
      <rects>
        <_>
          2 2 10 10 -1.</_>
        <_>
          2 7 10 5 2.</_></rects>
      <tilted>0</tilted></_>
    <_>
      <rects>
        <_>
          2 3 6 3 -1.</_>
        <_>
          4 4 2 1 9.</_></rects>
      <tilted>0</tilted></_>
    <_>
      <rects>
        <_>
          2 3 8 5 -1.</_>
        <_>
          6 3 4 5 2.</_></rects>
      <tilted>0</tilted></_>
    <_>
      <rects>
        <_>
          2 4 4 4 -1.</_>
        <_>
          3 4 2 4 2.</_></rects>
      <tilted>0</tilted></_>
    <_>
      <rects>
        <_>
          2 4 10 8 -1.</_>
        <_>
          2 8 10 4 2.</_></rects>
      <tilted>0</tilted></_>
    <_>
      <rects>
        <_>
          2 5 6 6 -1.</_>
        <_>
          2 5 3 3 2.</_>
        <_>
          5 8 3 3 2.</_></rects>
      <tilted>0</tilted></_>
    <_>
      <rects>
        <_>
          2 6 10 6 -1.</_>
        <_>
          7 6 5 6 2.</_></rects>
      <tilted>0</tilted></_>
    <_>
      <rects>
        <_>
          2 7 5 3 -1.</_>
        <_>
          2 8 5 1 3.</_></rects>
      <tilted>0</tilted></_>
    <_>
      <rects>
        <_>
          2 9 4 1 -1.</_>
        <_>
          3 9 2 1 2.</_></rects>
      <tilted>0</tilted></_>
    <_>
      <rects>
        <_>
          2 9 1 2 -1.</_>
        <_>
          2 9 1 1 2.</_></rects>
      <tilted>1</tilted></_>
    <_>
      <rects>
        <_>
          3 0 6 1 -1.</_>
        <_>
          5 0 2 1 3.</_></rects>
      <tilted>0</tilted></_>
    <_>
      <rects>
        <_>
          3 0 8 10 -1.</_>
        <_>
          3 0 4 5 2.</_>
        <_>
          7 5 4 5 2.</_></rects>
      <tilted>0</tilted></_>
    <_>
      <rects>
        <_>
          3 2 2 2 -1.</_>
        <_>
          3 2 1 1 2.</_>
        <_>
          4 3 1 1 2.</_></rects>
      <tilted>0</tilted></_>
    <_>
      <rects>
        <_>
          3 2 4 10 -1.</_>
        <_>
          3 7 4 5 2.</_></rects>
      <tilted>0</tilted></_>
    <_>
      <rects>
        <_>
          3 2 9 10 -1.</_>
        <_>
          3 7 9 5 2.</_></rects>
      <tilted>0</tilted></_>
    <_>
      <rects>
        <_>
          3 3 3 5 -1.</_>
        <_>
          4 3 1 5 3.</_></rects>
      <tilted>0</tilted></_>
    <_>
      <rects>
        <_>
          3 3 4 4 -1.</_>
        <_>
          3 3 2 2 2.</_>
        <_>
          5 5 2 2 2.</_></rects>
      <tilted>0</tilted></_>
    <_>
      <rects>
        <_>
          3 4 4 5 -1.</_>
        <_>
          4 4 2 5 2.</_></rects>
      <tilted>0</tilted></_>
    <_>
      <rects>
        <_>
          3 4 2 7 -1.</_>
        <_>
          4 4 1 7 2.</_></rects>
      <tilted>0</tilted></_>
    <_>
      <rects>
        <_>
          3 5 3 4 -1.</_>
        <_>
          4 5 1 4 3.</_></rects>
      <tilted>0</tilted></_>
    <_>
      <rects>
        <_>
          3 5 3 7 -1.</_>
        <_>
          4 5 1 7 3.</_></rects>
      <tilted>0</tilted></_>
    <_>
      <rects>
        <_>
          3 5 7 6 -1.</_>
        <_>
          3 8 7 3 2.</_></rects>
      <tilted>0</tilted></_>
    <_>
      <rects>
        <_>
          3 6 3 3 -1.</_>
        <_>
          4 7 1 1 9.</_></rects>
      <tilted>0</tilted></_>
    <_>
      <rects>
        <_>
          3 6 6 6 -1.</_>
        <_>
          5 8 2 2 9.</_></rects>
      <tilted>0</tilted></_>
    <_>
      <rects>
        <_>
          3 7 6 1 -1.</_>
        <_>
          5 7 2 1 3.</_></rects>
      <tilted>0</tilted></_>
    <_>
      <rects>
        <_>
          3 7 6 3 -1.</_>
        <_>
          5 8 2 1 9.</_></rects>
      <tilted>0</tilted></_>
    <_>
      <rects>
        <_>
          4 0 3 3 -1.</_>
        <_>
          5 1 1 3 3.</_></rects>
      <tilted>1</tilted></_>
    <_>
      <rects>
        <_>
          4 0 6 6 -1.</_>
        <_>
          6 2 2 2 9.</_></rects>
      <tilted>0</tilted></_>
    <_>
      <rects>
        <_>
          4 0 8 12 -1.</_>
        <_>
          8 0 4 12 2.</_></rects>
      <tilted>0</tilted></_>
    <_>
      <rects>
        <_>
          4 1 3 3 -1.</_>
        <_>
          5 2 1 3 3.</_></rects>
      <tilted>1</tilted></_>
    <_>
      <rects>
        <_>
          4 1 4 5 -1.</_>
        <_>
          5 1 2 5 2.</_></rects>
      <tilted>0</tilted></_>
    <_>
      <rects>
        <_>
          4 1 6 3 -1.</_>
        <_>
          6 2 2 1 9.</_></rects>
      <tilted>0</tilted></_>
    <_>
      <rects>
        <_>
          4 2 3 4 -1.</_>
        <_>
          5 3 1 4 3.</_></rects>
      <tilted>1</tilted></_>
    <_>
      <rects>
        <_>
          4 3 5 3 -1.</_>
        <_>
          4 4 5 1 3.</_></rects>
      <tilted>0</tilted></_>
    <_>
      <rects>
        <_>
          4 3 6 3 -1.</_>
        <_>
          4 4 6 1 3.</_></rects>
      <tilted>0</tilted></_>
    <_>
      <rects>
        <_>
          4 4 4 3 -1.</_>
        <_>
          5 4 2 3 2.</_></rects>
      <tilted>0</tilted></_>
    <_>
      <rects>
        <_>
          4 5 3 3 -1.</_>
        <_>
          5 6 1 1 9.</_></rects>
      <tilted>0</tilted></_>
    <_>
      <rects>
        <_>
          4 5 3 5 -1.</_>
        <_>
          5 5 1 5 3.</_></rects>
      <tilted>0</tilted></_>
    <_>
      <rects>
        <_>
          4 5 6 6 -1.</_>
        <_>
          7 5 3 6 2.</_></rects>
      <tilted>0</tilted></_>
    <_>
      <rects>
        <_>
          4 5 4 3 -1.</_>
        <_>
          3 6 4 1 3.</_></rects>
      <tilted>1</tilted></_>
    <_>
      <rects>
        <_>
          4 9 3 3 -1.</_>
        <_>
          5 10 1 1 9.</_></rects>
      <tilted>0</tilted></_>
    <_>
      <rects>
        <_>
          5 0 3 3 -1.</_>
        <_>
          6 1 1 3 3.</_></rects>
      <tilted>1</tilted></_>
    <_>
      <rects>
        <_>
          5 0 3 4 -1.</_>
        <_>
          6 1 1 4 3.</_></rects>
      <tilted>1</tilted></_>
    <_>
      <rects>
        <_>
          5 0 3 10 -1.</_>
        <_>
          6 0 1 10 3.</_></rects>
      <tilted>0</tilted></_>
    <_>
      <rects>
        <_>
          5 1 3 7 -1.</_>
        <_>
          6 1 1 7 3.</_></rects>
      <tilted>0</tilted></_>
    <_>
      <rects>
        <_>
          5 2 3 4 -1.</_>
        <_>
          5 4 3 2 2.</_></rects>
      <tilted>0</tilted></_>
    <_>
      <rects>
        <_>
          5 5 1 2 -1.</_>
        <_>
          5 6 1 1 2.</_></rects>
      <tilted>0</tilted></_>
    <_>
      <rects>
        <_>
          5 5 3 3 -1.</_>
        <_>
          6 6 1 1 9.</_></rects>
      <tilted>0</tilted></_>
    <_>
      <rects>
        <_>
          5 5 1 3 -1.</_>
        <_>
          4 6 1 1 3.</_></rects>
      <tilted>1</tilted></_>
    <_>
      <rects>
        <_>
          5 5 3 3 -1.</_>
        <_>
          6 6 1 3 3.</_></rects>
      <tilted>1</tilted></_>
    <_>
      <rects>
        <_>
          5 5 3 4 -1.</_>
        <_>
          6 5 1 4 3.</_></rects>
      <tilted>0</tilted></_>
    <_>
      <rects>
        <_>
          5 5 4 6 -1.</_>
        <_>
          6 5 2 6 2.</_></rects>
      <tilted>0</tilted></_>
    <_>
      <rects>
        <_>
          5 8 3 3 -1.</_>
        <_>
          6 9 1 1 9.</_></rects>
      <tilted>0</tilted></_>
    <_>
      <rects>
        <_>
          5 8 2 1 -1.</_>
        <_>
          5 8 1 1 2.</_></rects>
      <tilted>1</tilted></_>
    <_>
      <rects>
        <_>
          6 1 4 7 -1.</_>
        <_>
          7 1 2 7 2.</_></rects>
      <tilted>0</tilted></_>
    <_>
      <rects>
        <_>
          6 1 2 11 -1.</_>
        <_>
          7 1 1 11 2.</_></rects>
      <tilted>0</tilted></_>
    <_>
      <rects>
        <_>
          6 2 2 8 -1.</_>
        <_>
          6 2 1 4 2.</_>
        <_>
          7 6 1 4 2.</_></rects>
      <tilted>0</tilted></_>
    <_>
      <rects>
        <_>
          6 2 4 9 -1.</_>
        <_>
          7 2 2 9 2.</_></rects>
      <tilted>0</tilted></_>
    <_>
      <rects>
        <_>
          6 3 4 4 -1.</_>
        <_>
          7 3 2 4 2.</_></rects>
      <tilted>0</tilted></_>
    <_>
      <rects>
        <_>
          6 3 3 4 -1.</_>
        <_>
          7 4 1 4 3.</_></rects>
      <tilted>1</tilted></_>
    <_>
      <rects>
        <_>
          6 3 6 3 -1.</_>
        <_>
          5 4 6 1 3.</_></rects>
      <tilted>1</tilted></_>
    <_>
      <rects>
        <_>
          6 4 3 3 -1.</_>
        <_>
          7 5 1 1 9.</_></rects>
      <tilted>0</tilted></_>
    <_>
      <rects>
        <_>
          6 4 3 6 -1.</_>
        <_>
          7 6 1 2 9.</_></rects>
      <tilted>0</tilted></_>
    <_>
      <rects>
        <_>
          6 4 3 5 -1.</_>
        <_>
          7 4 1 5 3.</_></rects>
      <tilted>0</tilted></_>
    <_>
      <rects>
        <_>
          6 6 3 3 -1.</_>
        <_>
          7 7 1 1 9.</_></rects>
      <tilted>0</tilted></_>
    <_>
      <rects>
        <_>
          6 6 4 4 -1.</_>
        <_>
          7 6 2 4 2.</_></rects>
      <tilted>0</tilted></_>
    <_>
      <rects>
        <_>
          6 6 6 4 -1.</_>
        <_>
          9 6 3 4 2.</_></rects>
      <tilted>0</tilted></_>
    <_>
      <rects>
        <_>
          6 8 4 4 -1.</_>
        <_>
          6 8 2 2 2.</_>
        <_>
          8 10 2 2 2.</_></rects>
      <tilted>0</tilted></_>
    <_>
      <rects>
        <_>
          6 9 3 3 -1.</_>
        <_>
          7 10 1 1 9.</_></rects>
      <tilted>0</tilted></_>
    <_>
      <rects>
        <_>
          7 0 3 3 -1.</_>
        <_>
          8 1 1 3 3.</_></rects>
      <tilted>1</tilted></_>
    <_>
      <rects>
        <_>
          7 0 3 5 -1.</_>
        <_>
          8 1 1 5 3.</_></rects>
      <tilted>1</tilted></_>
    <_>
      <rects>
        <_>
          7 0 3 10 -1.</_>
        <_>
          8 0 1 10 3.</_></rects>
      <tilted>0</tilted></_>
    <_>
      <rects>
        <_>
          7 1 3 6 -1.</_>
        <_>
          8 2 1 6 3.</_></rects>
      <tilted>1</tilted></_>
    <_>
      <rects>
        <_>
          7 2 3 3 -1.</_>
        <_>
          6 3 3 1 3.</_></rects>
      <tilted>1</tilted></_>
    <_>
      <rects>
        <_>
          7 3 3 3 -1.</_>
        <_>
          8 4 1 3 3.</_></rects>
      <tilted>1</tilted></_>
    <_>
      <rects>
        <_>
          7 3 5 3 -1.</_>
        <_>
          6 4 5 1 3.</_></rects>
      <tilted>1</tilted></_>
    <_>
      <rects>
        <_>
          7 4 3 2 -1.</_>
        <_>
          8 5 1 2 3.</_></rects>
      <tilted>1</tilted></_>
    <_>
      <rects>
        <_>
          7 4 3 4 -1.</_>
        <_>
          8 5 1 4 3.</_></rects>
      <tilted>1</tilted></_>
    <_>
      <rects>
        <_>
          7 4 4 5 -1.</_>
        <_>
          8 4 2 5 2.</_></rects>
      <tilted>0</tilted></_>
    <_>
      <rects>
        <_>
          7 5 2 5 -1.</_>
        <_>
          8 5 1 5 2.</_></rects>
      <tilted>0</tilted></_>
    <_>
      <rects>
        <_>
          7 6 1 2 -1.</_>
        <_>
          7 7 1 1 2.</_></rects>
      <tilted>0</tilted></_>
    <_>
      <rects>
        <_>
          7 7 3 3 -1.</_>
        <_>
          8 8 1 1 9.</_></rects>
      <tilted>0</tilted></_>
    <_>
      <rects>
        <_>
          8 0 4 8 -1.</_>
        <_>
          8 0 2 4 2.</_>
        <_>
          10 4 2 4 2.</_></rects>
      <tilted>0</tilted></_>
    <_>
      <rects>
        <_>
          8 1 3 3 -1.</_>
        <_>
          7 2 3 1 3.</_></rects>
      <tilted>1</tilted></_>
    <_>
      <rects>
        <_>
          8 1 4 3 -1.</_>
        <_>
          7 2 4 1 3.</_></rects>
      <tilted>1</tilted></_>
    <_>
      <rects>
        <_>
          8 2 3 3 -1.</_>
        <_>
          7 3 3 1 3.</_></rects>
      <tilted>1</tilted></_>
    <_>
      <rects>
        <_>
          8 2 4 3 -1.</_>
        <_>
          7 3 4 1 3.</_></rects>
      <tilted>1</tilted></_>
    <_>
      <rects>
        <_>
          8 3 3 4 -1.</_>
        <_>
          9 4 1 4 3.</_></rects>
      <tilted>1</tilted></_>
    <_>
      <rects>
        <_>
          8 3 3 5 -1.</_>
        <_>
          9 3 1 5 3.</_></rects>
      <tilted>0</tilted></_>
    <_>
      <rects>
        <_>
          8 7 3 3 -1.</_>
        <_>
          9 8 1 1 9.</_></rects>
      <tilted>0</tilted></_>
    <_>
      <rects>
        <_>
          8 10 2 2 -1.</_>
        <_>
          8 11 2 1 2.</_></rects>
      <tilted>0</tilted></_>
    <_>
      <rects>
        <_>
          8 11 4 1 -1.</_>
        <_>
          10 11 2 1 2.</_></rects>
      <tilted>0</tilted></_>
    <_>
      <rects>
        <_>
          9 0 2 3 -1.</_>
        <_>
          8 1 2 1 3.</_></rects>
      <tilted>1</tilted></_>
    <_>
      <rects>
        <_>
          9 1 3 5 -1.</_>
        <_>
          10 2 1 5 3.</_></rects>
      <tilted>1</tilted></_>
    <_>
      <rects>
        <_>
          9 2 2 5 -1.</_>
        <_>
          9 2 1 5 2.</_></rects>
      <tilted>1</tilted></_>
    <_>
      <rects>
        <_>
          9 3 1 3 -1.</_>
        <_>
          8 4 1 1 3.</_></rects>
      <tilted>1</tilted></_>
    <_>
      <rects>
        <_>
          9 4 2 6 -1.</_>
        <_>
          9 4 2 3 2.</_></rects>
      <tilted>1</tilted></_>
    <_>
      <rects>
        <_>
          10 9 2 3 -1.</_>
        <_>
          11 9 1 3 2.</_></rects>
      <tilted>0</tilted></_>
    <_>
      <rects>
        <_>
          10 10 2 2 -1.</_>
        <_>
          11 10 1 2 2.</_></rects>
      <tilted>0</tilted></_>
    <_>
      <rects>
        <_>
          10 11 2 1 -1.</_>
        <_>
          11 11 1 1 2.</_></rects>
      <tilted>0</tilted></_>
    <_>
      <rects>
        <_>
          11 0 1 4 -1.</_>
        <_>
          11 2 1 2 2.</_></rects>
      <tilted>0</tilted></_>
    <_>
      <rects>
        <_>
          11 2 1 10 -1.</_>
        <_>
          11 7 1 5 2.</_></rects>
      <tilted>0</tilted></_>
    <_>
      <rects>
        <_>
          11 3 1 9 -1.</_>
        <_>
          11 6 1 3 3.</_></rects>
      <tilted>0</tilted></_>
    <_>
      <rects>
        <_>
          11 4 1 8 -1.</_>
        <_>
          11 8 1 4 2.</_></rects>
      <tilted>0</tilted></_></features></cascade>
</opencv_storage>
