%YAML:1.0
opencv_ml_ann_mlp:
   format: 3
   layer_sizes: [ 144, 10, 10, 2 ]
   activation_function: SIGMOID_SYM
   f_param1: 6.6666666666666663e-01
   f_param2: 1.7159000000000000e+00
   min_val: -9.4999999999999996e-01
   max_val: 9.4999999999999996e-01
   min_val1: -9.7999999999999998e-01
   max_val1: 9.7999999999999998e-01
   training_params:
      train_method: RPROP
      dw0: 1.0000000000000001e-01
      dw_plus: 1.2000000000000000e+00
      dw_minus: 5.0000000000000000e-01
      dw_min: 1.1920928955078125e-07
      dw_max: 50.
      term_criteria:
         epsilon: 1.0000000000000000e-03
         iterations: 20000
   input_scale:
      - 9.8663369973773594e-03
      - -4.9476844473003745e-01
      - 9.5914946423240471e-03
      - -5.1898198781563476e-01
      - 9.5073759699154433e-03
      - -5.2705858496475866e-01
      - 9.1471018327022799e-03
      - -5.6612895268688668e-01
      - 9.0506926809537785e-03
      - -5.7808890640738808e-01
      - 9.0484957927114400e-03
      - -5.7837029239229709e-01
      - 9.0896631600816281e-03
      - -5.7316460480225950e-01
      - 8.5230725869639735e-03
      - -6.6136955928177454e-01
      - 8.1175017308575976e-03
      - -7.6817321620197743e-01
      - 7.9099210990100609e-03
      - -8.7773885495192427e-01
      - 7.8582792405674801e-03
      - -9.3976201324691933e-01
      - 7.8804056307247902e-03
      - -9.0715041332578061e-01
      - 1.0102197393244626e-02
      - -4.7622864463731512e-01
      - 9.5630360473895545e-03
      - -5.2167615678236601e-01
      - 9.3525407863687994e-03
      - -5.4288409670158033e-01
      - 8.9903744957206145e-03
      - -5.8596817631867792e-01
      - 8.4239670544762526e-03
      - -6.8214272193619385e-01
      - 8.2638234174364361e-03
      - -7.2174601050723752e-01
      - 8.0346503180901228e-03
      - -8.0208468431764701e-01
      - 7.8730496922376370e-03
      - -9.1639406188845696e-01
      - 7.8432672356152713e-03
      - -1.0057737729494345e+00
      - 7.8434328238328986e-03
      - -9.9135600907427202e-01
      - 7.8471290600255848e-03
      - -9.6860018924368618e-01
      - 7.9457519268260023e-03
      - -8.5079376555425368e-01
      - 9.9047731205511216e-03
      - -4.9161815959310445e-01
      - 9.4589524493078857e-03
      - -5.3186834746832512e-01
      - 8.6605913174354603e-03
      - -6.3591596696664354e-01
      - 8.2533415696014831e-03
      - -7.2467702766479836e-01
      - 7.9436149671173323e-03
      - -8.5223090959472636e-01
      - 7.8479958631673015e-03
      - -9.6541536975448661e-01
      - 7.8640223117950412e-03
      - -1.0756887322864304e+00
      - 7.9935701750714142e-03
      - -1.2159752038957212e+00
      - 8.0434558887561240e-03
      - -1.2529907856314855e+00
      - 7.9637095260371091e-03
      - -1.1913907397491867e+00
      - 7.8618714396716232e-03
      - -9.3322993182767500e-01
      - 7.9968121621963022e-03
      - -8.2066892025858462e-01
      - 9.6905703473846236e-03
      - -5.0989066072563216e-01
      - 9.1742438059066560e-03
      - -5.6289179429249914e-01
      - 8.3436241131571564e-03
      - -7.0091246062528967e-01
      - 8.0469012925195402e-03
      - -7.9655719237036160e-01
      - 7.8580120594637214e-03
      - -9.4027939696274188e-01
      - 8.0479412967739469e-03
      - -1.2561275020996923e+00
      - 8.4181535282947285e-03
      - -1.4631917049918073e+00
      - 8.2585622116789804e-03
      - -1.3827223997242928e+00
      - 8.1966303068217727e-03
      - -1.3486688917206868e+00
      - 7.9326176728679934e-03
      - -1.1628936245913550e+00
      - 7.8809727763379089e-03
      - -9.0648111250306118e-01
      - 8.1461829873223784e-03
      - -7.5797913830178698e-01
      - 9.6373083828193359e-03
      - -5.1472368248401612e-01
      - 8.6696305613126311e-03
      - -6.3435741482619246e-01
      - 8.3029206479120123e-03
      - -7.1123017060584492e-01
      - 7.9431433147694446e-03
      - -8.5255049963411822e-01
      - 7.9818153880974272e-03
      - -1.2065612069596949e+00
      - 9.2901311811294431e-03
      - -1.8193307981160578e+00
      - 9.1100979783186337e-03
      - -1.7524430226455436e+00
      - 8.5485916014912018e-03
      - -1.5235132308226447e+00
      - 8.2430211578529422e-03
      - -1.3743578706051027e+00
      - 7.8631889957705772e-03
      - -1.0741088862988044e+00
      - 7.9697719814941035e-03
      - -8.3572268562226848e-01
      - 8.3501265739600664e-03
      - -6.9931833146643352e-01
      - 9.4296738115523544e-03
      - -5.3483648401866035e-01
      - 8.6556906814091068e-03
      - -6.3676632986458748e-01
      - 8.2052478451777044e-03
      - -7.3880972373302523e-01
      - 7.8464301582469274e-03
      - -1.0294002976046057e+00
      - 9.0506926809537751e-03
      - -1.7298377272358247e+00
      - 1.0308159384389812e-02
      - -2.1671437961547149e+00
      - 9.4421637841529821e-03
      - -1.8741871090122315e+00
      - 8.9334735852880827e-03
      - -1.6843267265406470e+00
      - 8.0620913620072700e-03
      - -1.2658507500034060e+00
      - 7.8494561428546113e-03
      - -9.6065636789540954e-01
      - 8.1918962934797585e-03
      - -7.4295251717325428e-01
      - 8.6125180147291879e-03
      - -6.4442774495570987e-01
      - 9.1192672926368751e-03
      - -5.6950628418057581e-01
      - 8.3584799538324352e-03
      - -6.9729108561213837e-01
      - 7.8986404071983637e-03
      - -8.8789870581219510e-01
      - 8.0514293141918988e-03
      - -1.2585481037282107e+00
      - 9.3249574030953089e-03
      - -1.8320179608609723e+00
      - 9.9367489930144905e-03
      - -2.0448336599757191e+00
      - 9.2079172895894457e-03
      - -1.7890689629856698e+00
      - 8.6054832877944191e-03
      - -1.5486920949526872e+00
      - 7.8731760975651720e-03
      - -1.0914345950951181e+00
      - 7.9768174505667356e-03
      - -8.3162859589034743e-01
      - 8.5846490409431358e-03
      - -6.4954405886551236e-01
      - 9.1718652391857246e-03
      - -5.6317331178286290e-01
      - 8.8122467740280788e-03
      - -6.1132093162768941e-01
      - 8.0649850328851774e-03
      - -7.8876261141093551e-01
      - 7.8556339261330026e-03
      - -1.0580662381181973e+00
      - 8.2120365586202705e-03
      - -1.3573273968861248e+00
      - 8.8787890724940782e-03
      - -1.6626370274671858e+00
      - 9.0919203772735213e-03
      - -1.7455564888084545e+00
      - 8.5052345640242218e-03
      - -1.5038945963001946e+00
      - 7.8991614501354550e-03
      - -1.1268811049457150e+00
      - 7.8865793229441431e-03
      - -9.0014243887087675e-01
      - 8.1514171824746059e-03
      - -7.5618677783743116e-01
      - 9.2164458313308620e-03
      - -5.5796428756267780e-01
      - 9.8837209432844717e-03
      - -4.9333703887703656e-01
      - 8.5302982719263291e-03
      - -6.5994247619600011e-01
      - 7.9189916989048544e-03
      - -8.7025687994782053e-01
      - 7.9364357953282914e-03
      - -1.1665973164778736e+00
      - 8.1783818707247234e-03
      - -1.3382337897777938e+00
      - 8.3330984209514722e-03
      - -1.4214165688155000e+00
      - 8.3198541592238266e-03
      - -1.4146983303448184e+00
      - 7.8431375496354969e-03
      - -1.0002741854459054e+00
      - 7.9491234294791612e-03
      - -8.4856148037679158e-01
      - 7.9793040726781114e-03
      - -8.3021439591971857e-01
      - 8.0951079272606422e-03
      - -7.7661771276758451e-01
      - 9.2213393035412271e-03
      - -5.5740101517987894e-01
      - 1.0009561531213516e-02
      - -4.8329086453732739e-01
      - 8.1774615102094359e-03
      - -7.4755060620128511e-01
      - 7.9082165274379796e-03
      - -8.7920823982122664e-01
      - 7.9317314721381871e-03
      - -1.1620243918632787e+00
      - 7.9447992310056684e-03
      - -1.1744915116496837e+00
      - 7.8689129488593978e-03
      - -1.0844258019543447e+00
      - 7.9101119076692792e-03
      - -8.7757570246417127e-01
      - 8.1501037193098883e-03
      - -7.5663468614834151e-01
      - 8.0793988894756214e-03
      - -7.8282974033830821e-01
      - 8.0881405275394953e-03
      - -7.7934182360877569e-01
      - 8.0812839381887748e-03
      - -7.8207081328712280e-01
      - 8.9103415055198382e-03
      - -5.9694728285061049e-01
      - 9.7081151073182166e-03
      - -5.0832535271559254e-01
      - 8.0786472433684742e-03
      - -7.8313341823679772e-01
      - 7.8788685218552958e-03
      - -9.0899304607373843e-01
      - 7.8587298739909335e-03
      - -9.3890026101687252e-01
      - 7.8553112142319692e-03
      - -9.4581378289352358e-01
      - 7.9886334643826436e-03
      - -8.2504194426635180e-01
      - 8.5434362765962005e-03
      - -6.5737537962686343e-01
      - 8.7271141573767152e-03
      - -6.2473472962831245e-01
      - 8.4060057425349444e-03
      - -6.8617296167463004e-01
      - 8.3418599689230911e-03
      - -7.0134742262706762e-01
      - 8.2803931921119085e-03
      - -7.1721159474050911e-01
      - 8.8546392050317061e-03
      - -6.0497665613031215e-01
      - 9.3846087216502595e-03
      - -5.3949708285290632e-01
      - 8.0790228970273447e-03
      - -7.8298157162824311e-01
      - 7.9085933456881849e-03
      - -8.7888155210862406e-01
      - 8.0221733725228464e-03
      - -8.0794274838628843e-01
      - 8.2590865034834430e-03
      - -7.2306441911402353e-01
      - 8.9631933533764179e-03
      - -5.8962708428477706e-01
      - 9.2213393035412271e-03
      - -5.5740101517987894e-01
      - 9.5884788928689221e-03
      - -5.1926568230759218e-01
      - 9.0020294955626499e-03
      - -5.8442034309901980e-01
      - 8.7323215791710977e-03
      - -6.2388659236437349e-01
      - 8.4603364593302741e-03
      - -6.7424467021675327e-01
      - 8.4705106748522250e-03
      - -6.7209473235925399e-01
      - 9.0148507802541161e-03
      - -5.8273188306939183e-01
   output_scale:
      - 5.2631578947368418e-01
      - 4.9999999999999994e-01
      - 5.2631578947368418e-01
      - 4.9999999999999994e-01
   inv_output_scale:
      - 1.8999999999999999e+00
      - -9.4999999999999996e-01
      - 1.8999999999999999e+00
      - -9.4999999999999996e-01
   weights:
      -
         - 2.1463026904550903e-01
         - 2.1554046970163701e-01
         - -1.3558367002368507e-01
         - 4.5321318195700500e-01
         - -3.4144426186868365e-01
         - -1.0289051636019305e-02
         - -3.7968064671011753e-01
         - 3.2541419931793542e-01
         - 4.8412312164419304e-02
         - -2.4766671695567227e-01
         - 7.3509060828404887e-02
         - -6.0195524657454653e-02
         - 1.9236130924060395e+00
         - 4.1438419498989264e-02
         - 2.2631161228303037e-01
         - 3.2441329225092776e-02
         - -5.2262822174171952e-01
         - 6.2648508137188086e-01
         - -3.4587600654586304e-01
         - -8.1504210606328259e-02
         - 5.7115808644291083e-02
         - -5.6828470415178682e-02
         - 2.6085214913044147e-01
         - -7.0704817075420881e-02
         - 1.9212940452294827e-01
         - 8.1123390486403671e-02
         - -1.7494401131353096e-01
         - 3.3708456854016838e-01
         - -1.3101718108546317e-01
         - -1.0284885769029245e-01
         - 5.1176414651420810e-02
         - -8.2892842797339744e-02
         - 1.1551969766027172e-01
         - -1.0874325580239025e-01
         - 2.1540036915477981e-01
         - 1.3284564178662353e-01
         - -1.2324980243435749e-01
         - 4.2061715873753780e-01
         - 6.9081439738031311e-02
         - -1.6335948679390683e-01
         - -9.2472157825056078e-02
         - -6.9044990328745812e-03
         - 2.6222350661287758e-01
         - -3.5154607238446246e-02
         - -2.8254772904557568e-01
         - 3.0885025769380142e-01
         - -1.7609352411139159e-01
         - 1.4614676736429827e-01
         - -9.2704926542122069e-03
         - -9.0965400008794814e-02
         - 6.1082322806167627e-02
         - -4.0356579335674485e-02
         - -6.8526360870762387e-02
         - 7.0292957371502496e-01
         - 1.0743264894490355e-01
         - 5.4051756186510380e-01
         - -1.8618582702163561e-01
         - 8.1547738586509444e-01
         - 1.4772304708522335e-01
         - -5.1339772597876798e-01
         - 5.2852927217536851e-02
         - -3.1008298957054506e-03
         - 5.9081913110958506e-01
         - 2.4906627152013416e-01
         - 1.2552157462612956e-01
         - 8.6332664382984092e-01
         - -9.3371141236204525e-01
         - 3.7755275911493014e-01
         - 2.0074312469085651e-01
         - -1.2219685764004857e+00
         - 3.2133513765105792e-01
         - -9.4460407751259190e-02
         - 6.4902841938320321e-01
         - -4.1352606421103333e-02
         - -4.3680745559313075e-02
         - 4.2563508527546723e-01
         - -3.3929155782289883e-01
         - 4.4149181717870822e-01
         - 1.6511749961803585e-01
         - -2.3267023868373002e-01
         - 3.0547570975411081e-01
         - -3.3762132602037165e-01
         - 2.8344956100598860e-02
         - -1.5628694180319966e-01
         - 7.3870485350563697e-01
         - 1.6388095906779696e-01
         - -2.2811812791845404e-01
         - 5.2160880767230848e-02
         - 2.6120678177940787e-01
         - -1.9393968771249070e-01
         - 2.2396195419954942e-01
         - -1.2586192996934617e-01
         - 1.4607566689149441e-02
         - -1.0954972073194356e-01
         - 2.5824818736842953e-01
         - 8.4646506465231502e-02
         - -1.3459799507360395e-01
         - 4.2932685842431373e-02
         - 1.1804578145151789e-01
         - -2.6533232345369451e-01
         - 1.4038983473319136e-01
         - -7.7190800528606052e-02
         - -1.0011689781489373e-01
         - -6.7055111620676427e-02
         - 5.7150338669636820e-02
         - -1.4282102697008406e-01
         - -2.1853756808810487e-01
         - 1.1874917943381421e-04
         - 1.7362961279503575e-01
         - 2.5355580610791618e-02
         - -2.2128030468987314e-02
         - -1.9735443845654516e-01
         - -1.9914202898356225e-02
         - 1.8607465043068629e-02
         - -3.1138157147850115e-01
         - -4.6817233312457124e-01
         - -1.1406262534351420e-01
         - -6.1277763392336027e-01
         - -3.4985959444163495e-01
         - 1.2242987671965801e-01
         - -4.6733912670707523e-01
         - 1.3077261231481146e-01
         - 5.1693020441786319e-01
         - 2.3456931098877376e-01
         - -2.6168020023419625e-01
         - 3.2225716635789142e-01
         - 2.4201830030500054e-01
         - 4.2789718376658331e-01
         - 4.7573444340147229e-02
         - 5.8024425657915135e-01
         - 5.5267274160570978e-02
         - -2.4185754985055891e-02
         - 4.7062574889256253e-01
         - 1.4177756663223542e-01
         - 2.5002190311156686e-01
         - 8.7816991952490875e-02
         - -2.8693394135112837e-01
         - 2.0314938856979570e+00
         - 9.8036366063940270e-02
         - 2.1916633432623925e-01
         - 5.5779491427606590e-02
         - -7.8517505668836279e-02
         - 1.1405787723082266e+00
         - -9.9561511809545436e-02
         - 2.6183317881110629e-01
         - 5.0263951508178606e-01
         - -1.3137790872862368e-01
         - 1.5954349945398270e+00
         - 9.5912775292160926e-02
         - -5.7150629995770719e-01
         - 5.4598582815150037e-02
         - -9.2992611839701422e-02
         - -5.8846922510859365e-02
         - -1.0172672308916600e-01
         - 1.5014779391649460e-01
         - 1.3516940558417126e-01
         - -1.2931605000527963e-01
         - 5.9809338081529606e-01
         - 1.1466770426957022e-01
         - -2.1147738746844189e-01
         - -2.3460549763536900e-01
         - 2.6325322617896291e-01
         - 1.6806130446030555e-02
         - 2.1042597073186012e-01
         - -1.7350372120725660e-01
         - 1.2478556925284420e-01
         - 1.8716219964396949e-01
         - 1.6158121282779853e-02
         - 1.2970552334245433e-01
         - 1.7302033557914956e-01
         - -2.2230672243491204e-01
         - 2.7796799974502739e-01
         - 3.3790337888525196e-01
         - 2.1281201334445249e-01
         - 2.2133184199195619e-01
         - 2.4499872943802337e-01
         - 3.5698350373523685e-01
         - 4.8120163619327264e-02
         - -3.8724473655983395e-02
         - -2.9057207367094485e-02
         - -3.7166192172415835e-01
         - 1.2255440573443818e-01
         - -1.6239853833695070e-02
         - -3.0903288404909482e-02
         - 5.1221969935543521e-01
         - 1.5840105461559822e-01
         - 1.8880663111524981e-01
         - 1.9624260692481355e-01
         - 4.6586974464971742e-01
         - 7.8219627574984060e-03
         - -6.0307354720214246e-01
         - -3.2921322896694705e-01
         - -2.1740709677085990e-01
         - -5.5165154578409266e-02
         - 5.4415707104051719e-02
         - 1.8356320365445440e-02
         - -1.4289963200895020e-01
         - -1.3314756492794208e-01
         - 8.8088576281138350e-02
         - -4.9961608185726969e-01
         - -8.1790523351409600e-02
         - -3.7597040282860272e-01
         - 1.1207757561196757e-01
         - -5.1410903733462542e-02
         - 1.2772014443423962e-01
         - -3.0778819234509308e-01
         - 9.3692553388720318e-02
         - -9.4045335049658363e-01
         - -8.6046292395895910e-02
         - 3.3757421890105960e-01
         - 2.0863272792732904e-01
         - -2.2339420131896834e-01
         - 2.8726112235017330e-02
         - -1.2235759029520230e-01
         - 2.7515832103870319e-01
         - -2.5032623814465770e-03
         - -1.5872186366544577e-01
         - 4.8113239388019334e-02
         - 2.0179099492306082e-01
         - 2.3772979826150553e-03
         - 1.7454724483892067e-01
         - -1.9905179097507264e-01
         - -9.0794328079567676e-03
         - -1.6543139268253312e-01
         - 1.7124280868968830e-01
         - 1.0993125852554976e-03
         - -1.5730863134156717e-01
         - 8.4089311619989712e-02
         - 2.2516623678826381e-01
         - -2.0357570688143514e-01
         - 2.1978854766035175e-01
         - -1.9785984477091748e-01
         - 3.1900016352052579e-01
         - -3.1433178084587773e-02
         - 5.1303626744329915e-02
         - -1.1848636735785080e-01
         - -2.0790083457688338e-01
         - -7.8299022348153655e-02
         - 2.4070693962167022e-01
         - -5.9616630636231280e-02
         - -8.5468702737673719e-01
         - 7.8543236507657355e-01
         - 9.4250667879978267e-01
         - 6.8945289493165196e-02
         - 6.6848815963257291e-01
         - 5.2529381406242548e-01
         - -7.8473080221123717e-02
         - 1.9377370856775620e+00
         - 2.0028901358461662e-01
         - 1.9990112830431406e-01
         - -6.0762124565228857e-02
         - 4.3640707662759987e-01
         - 3.3346028884840129e-01
         - 1.8851620434162334e-03
         - 7.7291918857103514e-02
         - 1.6672724404530954e-02
         - -1.8718601511151761e-01
         - -2.6501494973309386e-01
         - 1.0066236490210283e-01
         - -7.3247151299595470e-01
         - -3.1325429812708122e-01
         - -1.8131634619268974e-03
         - -4.6488914950697402e-01
         - 1.3272402894067825e-01
         - -1.5029484169265359e-01
         - -3.8060129598280153e-02
         - 3.6736071076608763e-02
         - -2.3807163879405588e-01
         - 1.0979817598965252e-01
         - 7.2797718770578002e-02
         - -3.5901812437606040e-01
         - -7.9108587228269647e-02
         - -1.1191798249239377e+00
         - 1.1657301796498720e+00
         - -5.7748427822745907e-01
         - -1.3269264885116730e-01
         - 8.6388616406369800e-02
         - -2.3628826550761148e-01
         - -2.2497794667706630e-01
         - 5.5919903987694163e-02
         - -9.1614358301214216e-01
         - 2.5620878226965327e-01
         - -8.9270593799597342e-01
         - 9.6095756048497238e-01
         - -3.3798132299691647e-01
         - -1.2056417353773181e-01
         - 1.0163862617349938e-01
         - -3.8747253823987422e-02
         - -1.4594653571594116e-01
         - 1.5169788407731732e-01
         - -2.5962941582407922e-01
         - 2.5890263224176341e-01
         - -2.7999768124725856e-02
         - 7.0030561504620004e-01
         - -1.7750350253871619e-01
         - -1.4744032512750430e-01
         - 1.1603104836050401e-01
         - 6.0050301937442596e-02
         - -1.7714580883426298e-01
         - 1.9903547093152969e-02
         - -8.8392038618235413e-01
         - -1.3401758586953770e-02
         - 3.3508552444256871e-02
         - 2.2724833248580512e-01
         - -3.2574049192243715e-01
         - -4.1593799182549912e-01
         - 4.5104083143882190e-01
         - -3.4990208546541596e-01
         - 1.3645518389687392e-01
         - 3.2327806476676979e-01
         - -2.0404014692645372e-01
         - 9.5094363976082792e-03
         - -3.6248015571761499e-01
         - 1.9217751611298359e-01
         - -1.4386179962732462e-01
         - -2.3171598760503925e-01
         - 3.0793646547976509e-02
         - -6.1054732269919110e-01
         - 8.6828549956044818e-02
         - 2.1738291336822430e-01
         - -1.0087411472938665e-01
         - -4.1192177316385801e-03
         - -1.9688931263811091e-01
         - 7.4732521313915112e-02
         - 6.6385314392182537e-01
         - -1.0009450125444501e+00
         - 1.3199219138318594e-01
         - -3.7877842734167044e-01
         - -6.8900470431215111e-02
         - 3.7763519521159777e-01
         - 2.8077765613206379e-01
         - -2.8553056352127232e-01
         - -9.2150103362038618e-02
         - -4.5177016216809439e-02
         - 2.9055938887090677e-01
         - -2.5622782747568357e-01
         - -1.5892473022026982e-01
         - 1.0593229458751120e-01
         - 1.8675515111665986e-01
         - 4.7717163237472517e-03
         - 2.3281392806614100e-02
         - -2.0348812773468794e-01
         - -2.1767328948087195e-01
         - 2.8756980380198138e-02
         - 5.3947234818357892e-02
         - -7.2112766711640464e-01
         - -1.7976708427100013e-01
         - 3.7213070491599921e-02
         - 2.5682740697158382e-02
         - 1.6521046235702708e-02
         - 1.6947088082748629e-01
         - -1.7462926367629092e-01
         - 4.1431541340172218e-01
         - -2.4737993302059651e-02
         - -1.3470410860954199e-02
         - -2.2572853286256439e-02
         - -3.0846995956498191e-01
         - 5.7211163051582907e-02
         - 6.3583150497875853e-03
         - -2.7939237998316803e-02
         - -1.7316484440557295e-01
         - 7.9517665719773689e-01
         - 2.6083002891358864e-01
         - 1.1446724161700698e-01
         - 6.8390219645906067e-02
         - 6.7438452393604953e-01
         - -1.9087670217565414e-01
         - 7.7681707441348880e-01
         - 9.8675896045650816e-02
         - -2.0966439648502844e+00
         - -6.3374768282565358e-02
         - 2.3902252185879480e-01
         - 4.6343709253451487e-01
         - -4.1549118247194775e-02
         - 1.2788090527191917e-01
         - 5.7375804319763923e-01
         - -1.7931516764556674e-01
         - -1.6727898495656590e-01
         - 8.6963685922637035e-02
         - -2.0978310130026642e-01
         - -3.6733408063622158e-01
         - 4.2834808613949132e-01
         - -1.0808246556567040e-01
         - 4.2190273449426474e-01
         - -1.2769034839424750e-01
         - -1.8288904770337894e-01
         - 1.2018991266536677e-01
         - -1.3586326612314026e-01
         - -1.6378690740591062e-01
         - 4.0267265947607178e-01
         - -2.5437143074568885e-01
         - 4.9548186071578315e-01
         - -4.7649459798689275e-01
         - 1.6828836638652456e+00
         - -1.4137338878040875e-01
         - -9.7749978126926040e-02
         - 1.0424993811131039e-01
         - -8.1289572273357355e-02
         - -2.0405655682221507e-01
         - 2.0611801857397435e-01
         - -2.1626653551242425e-01
         - 1.6982976686850546e-01
         - 2.3651588522836370e-01
         - 8.7041539273313762e-02
         - 3.5965422090321758e-01
         - -4.5425785598409804e-02
         - 4.5399847915452629e-01
         - 1.6697121451094671e-01
         - -3.3982305675841339e-02
         - -1.0780619171727313e-01
         - -4.9670780224235600e-01
         - 1.7535049813481135e-01
         - -5.2611973445650675e-02
         - 2.3073392517154800e-01
         - 4.6688031337867614e-02
         - -1.4049601919372198e-01
         - 1.2196351191999055e-01
         - 1.3194073948505322e-01
         - -8.9459218170576824e-02
         - 3.9522052756367797e-02
         - -4.5864492884139046e-01
         - -4.4269686570271161e-01
         - 1.5569812867898117e-01
         - -9.8277167595610546e-02
         - 5.7159143607637586e-01
         - -6.6595704682853318e-01
         - -8.7997638493615826e-01
         - -1.3845115678266906e-01
         - 5.5980326472804154e-01
         - 6.1385464713313154e-01
         - 2.2361900568153989e-01
         - -1.5275135042848365e-01
         - -6.3170058736851359e-02
         - -6.3784457313838180e-02
         - 8.1560994731864978e-01
         - -1.5546597705231631e+00
         - -2.5951469985838849e-01
         - -7.8556864278264094e-01
         - 1.1523565320605853e+00
         - 2.8684857943449354e-01
         - -1.1315043153955588e-01
         - 3.3876859063244148e-02
         - 5.6993593173917043e-03
         - 7.6880333024279573e-02
         - 5.5652142140959948e-01
         - -5.9925585675406101e-01
         - 1.2907098884668611e-01
         - -2.0270743600050400e-01
         - 4.9769765973646574e-01
         - 3.9392513813529761e-01
         - 3.0406550167191876e-02
         - -2.2346943222858909e-03
         - -6.1551794291168957e-02
         - 4.4563684329888848e-03
         - 3.3196596340572881e-01
         - -3.9189493103440631e-01
         - 3.6120669914244202e-01
         - 2.1106180617293596e-01
         - -1.7195217771221838e-01
         - 4.0198057761964195e-01
         - -8.3129817489537142e-02
         - 7.0641282306469058e-02
         - 3.6783219183677995e-02
         - 1.4790015171002370e-02
         - -6.5842326984834991e-03
         - -7.4573196588718371e-01
         - 2.8606215460524220e-01
         - 2.6465689588722401e-02
         - 3.3757310534987504e-02
         - 5.0420868356838910e-01
         - 8.2042044323569907e-01
         - -1.5697349996024909e-01
         - 2.4757710421446152e-01
         - -9.5975391048500145e-04
         - -1.0575579716938396e-02
         - 2.5034397093488152e-04
         - -3.3799730872921058e-01
         - 3.1830872952976574e-01
         - 1.9604511354138245e-02
         - -1.1528692910116826e-01
         - -1.6328296744158793e-01
         - 1.2691138665138604e+00
         - 5.8396505383286690e-01
         - 2.7474028758666591e-01
         - 1.6825105858384942e-01
         - 2.6809843183475870e+00
         - -1.8663903714435640e-01
         - 3.9645731796662498e-01
         - 9.3811409121257697e-02
         - -2.8145422799250236e-01
         - 5.5108212683828012e-02
         - 7.9555982052767771e-01
         - 6.4748723723722490e-01
         - 2.3605106648665736e-01
         - 1.1276323875031536e-02
         - 1.2699150003270208e-02
         - 8.0904201383388288e-02
         - 3.6375809868435122e-01
         - 2.3179511626096247e-01
         - 3.2935651503308561e-01
         - -3.9219476892648192e-01
         - 6.4833692068730520e-01
         - -3.6895967923588978e-02
         - 2.0985520419490711e-01
         - -5.7369140096442485e-02
         - -3.3963759886872524e-01
         - 3.1638891341512498e-01
         - -1.4081557705035401e-02
         - -5.3938757393745720e-02
         - 2.9157857489081479e-01
         - -2.8817798954747353e-01
         - 1.9731136105061883e-01
         - 2.4304145204679602e-02
         - 2.5588685790628263e-01
         - -2.4544290029198192e-02
         - -6.6985018903808716e-02
         - 1.9283608782990738e-01
         - 1.4696095239231785e-01
         - -9.9149951307904396e-02
         - 1.1070826964461578e-01
         - 3.6898710694403702e-02
         - -1.5908318603900329e-01
         - 6.0062496277409012e-02
         - 6.9402658552850785e-02
         - 7.7080088578668424e-03
         - 6.5037480602834249e-02
         - 1.5702014889077551e-01
         - 4.5821230125007731e-02
         - -1.9864540410890294e-01
         - 2.8577868858112324e-02
         - 5.0343345252479237e-02
         - -1.0871358201260797e+00
         - -6.3345448265641113e-01
         - -1.4606139295355100e-01
         - 7.5248954609112739e-01
         - -8.7013506596261975e-02
         - -2.7908369469603855e-01
         - 5.7589238407309541e-02
         - 3.4230698547228683e-01
         - 2.7355258884019862e-01
         - -2.5139159750143236e-01
         - -5.1007283948483695e-01
         - -9.5977404347158082e-02
         - -1.7061378545972003e-01
         - 1.8899595276834165e+00
         - -1.6709500422450710e-01
         - -1.0481213983479487e+00
         - -4.4963411472962539e-01
         - 8.2806857184673022e-01
         - 5.0162128171646081e-01
         - -4.7269207118330492e-01
         - -3.7502751509926463e-01
         - -2.4016887032427096e-02
         - -2.1800200333937956e-02
         - 5.9309613697794217e-01
         - -2.3354895515981480e-01
         - -6.9750367102677013e-01
         - -1.0034342691030450e-01
         - 8.9879530973246857e-01
         - 5.5515012727356305e-01
         - -1.0250693258702950e-01
         - -6.3669273064607896e-03
         - 2.6148274817781321e-02
         - 6.4742639539957680e-02
         - 2.8771316300285765e-01
         - -5.3408434479183020e-01
         - 1.0402966802247537e-01
         - 1.5122395568610450e-01
         - 1.5935863935055100e-01
         - 1.2965676740499843e-01
         - -7.6688833313169683e-03
         - 2.3972623486776028e-02
         - -8.2767568895292215e-02
         - -5.9012968000881190e-02
         - -6.5861917841207984e-02
         - -1.6921031686790519e-01
         - 3.6418361813350064e-01
         - -1.6120251351044332e-01
         - -1.7453199201080105e-01
         - 9.9178860075417000e-02
         - 1.6056372084633766e-01
         - -3.0186434188985395e-02
         - -1.4464695305495007e-01
         - 2.0191983587806600e-03
         - -2.1009412173168485e-01
         - -1.9756910753507764e-01
         - 5.2503435956397015e-01
         - -3.9602901222750297e-01
         - -7.2296714087261779e-02
         - 1.2000331398648852e-01
         - 1.3120760240799631e-01
         - -4.0573711625260266e-02
         - 2.0651889601941611e-01
         - 3.9514032281950207e-01
         - -4.2717424996239295e-01
         - -1.2384893058067985e-01
         - -1.6712174023626955e-01
         - 1.2157424470190833e-01
         - -4.2979036905591789e-01
         - -7.7743902098854595e-02
         - -4.2442464092722099e-01
         - 1.4988901799534149e+00
         - 7.9115116489771908e-01
         - 1.2585434775433116e-01
         - 7.2428527402540288e-01
         - 1.2960866177280870e+00
         - -4.0377338172062560e-01
         - 8.4595482201880390e-01
         - 1.7471945544870449e-01
         - -4.3428100772071049e-01
         - 3.9753965899573238e-02
         - 5.8273449352774120e-01
         - 3.4144431130929721e-02
         - 1.2890243078772351e-01
         - 1.5783977528410112e-01
         - -6.3244453173316395e-02
         - 6.0959176271549079e-02
         - 9.3162955775431489e-02
         - -6.9812469622596948e-02
         - 4.9636529367536895e-02
         - -2.0189424863113628e-01
         - 3.1983120767220924e-01
         - 2.9265101543774219e-01
         - 2.7185242277154892e-01
         - -9.0659949763638475e-02
         - 6.6559108203905662e-02
         - 4.6635452635241054e-01
         - 3.3066964854652103e-01
         - -6.5001760196432057e-02
         - 8.6862760411592799e-02
         - 3.5505294578296392e-01
         - -1.0341990235339747e-01
         - -1.8801063118300132e-01
         - 1.0221706981602456e-02
         - -5.4769492918899577e-02
         - 9.3345217478223358e-02
         - 2.6920253079925960e-01
         - 8.6642799139283522e-02
         - 9.8465219126237236e-03
         - 9.8760461630947885e-02
         - 4.3227793445252329e-02
         - -5.9050817968095248e-01
         - -1.9168277911342110e-01
         - -1.9315509325033797e-01
         - -2.4060546266933693e-02
         - -2.0837835952212380e-01
         - -2.5432378758850455e-01
         - 2.4006479324512267e-01
         - 8.5032371403028539e-01
         - 5.6637378825130025e-01
         - -6.8737056589983664e-02
         - -1.8670798620005552e-01
         - -6.0807012198970689e-01
         - -2.0420927696435523e-01
         - 9.0843139671060813e-01
         - -9.0542731466638788e-03
         - -8.4142573637107965e-01
         - -1.4238810054971779e-01
         - 1.3182502920056374e-01
         - 1.1880969716723820e-01
         - -2.5131136860146014e-01
         - -6.0879394123939157e-01
         - -1.1414984197206031e-01
         - -8.7245266751793493e-01
         - 9.9335724089035027e-01
         - 6.1902278696440494e-02
         - -9.5655018116707735e-01
         - -9.7222502893122942e-01
         - 8.2480915520519449e-01
         - 2.1531004662404596e-01
         - -9.0830847248831226e-02
         - -1.7156782071044469e-01
         - 1.7260441007252120e-01
         - -7.3888522593151498e-02
         - 4.3931548106575030e-01
         - 6.9061843040629178e-02
         - -2.3516274847973195e-01
         - -1.7588121942402911e-02
         - 2.4074350227408067e-01
         - 1.6355212334819628e-02
         - -9.2850212343444455e-02
         - -1.9529903557535849e-03
         - 9.6485781016108718e-02
         - 5.2196345701732406e-02
         - 5.7978274141478714e-01
         - -6.9682732143106219e-02
         - 1.1740174834541205e-01
         - -2.7493380680207818e-01
         - 1.2613065750944163e-01
         - 3.2966428265189210e-02
         - 1.9513744495823279e-01
         - 9.3534790546320717e-02
         - 1.1940812625027028e-01
         - 5.3895889654859079e-02
         - -2.5016331543056818e-02
         - -5.0939872093852097e-02
         - -3.2195862545457692e-02
         - -3.2867354003971749e-03
         - -8.7307722625628192e-02
         - 2.7574288897442810e-02
         - 1.6341551472347224e-01
         - 1.8612075340716186e-01
         - 3.4429796994697913e-02
         - 6.7314060883108318e-02
         - -8.8452410915867169e-02
         - -1.9425534529553512e-01
         - 2.5895254077478191e-01
         - 7.4718052414702224e-02
         - -3.9653410433744457e-01
         - -7.9095683251608831e-02
         - 1.6422281482616133e-01
         - 3.4145999243262010e-01
         - -1.2897337931132138e-01
         - 4.1731027357848982e-01
         - -3.5479361377143437e-01
         - 7.5622078822970396e-02
         - 1.5261907121690979e-01
         - 3.7666468376283124e-01
         - -2.3126638832664348e-01
         - -1.1009738772496880e-01
         - -2.7034703487906792e-01
         - 1.3361391423453688e+00
         - 9.5136360162949707e-01
         - 2.1271175168441045e-01
         - -3.0450125783842472e-02
         - 4.6101109057230150e-01
         - -1.1787884234837487e+00
         - 6.4082067090906414e-01
         - 5.9399702781467181e-02
         - 3.5394848896625926e-02
         - -1.4134678623476468e-01
         - 1.9295154613279769e-01
         - 7.2316495955110893e-01
         - 6.6031795096861634e-02
         - -3.7052753411609893e-02
         - -1.1491810713636426e-02
         - -8.7751782026110232e-03
         - 5.6029071401108264e-02
         - -4.0433808427585344e-02
         - 7.6058146726809772e-02
         - -6.8853527890211314e-03
         - 3.9239080368900803e-01
         - 8.5589700021295534e-01
         - -3.0818983312796408e-04
         - -1.5541884674428111e-01
         - -3.2072337356963757e-03
         - 9.3409331037985238e-02
         - 3.4103452525439432e-01
         - -7.3242569705267810e-02
         - 4.8163311677206382e-02
         - 3.7862574824906520e-01
         - -4.2694145680327547e-02
         - -3.3601117043541929e-03
         - -3.9733486884130642e-01
         - -6.6569547031655088e-02
         - -4.0991452879713931e-02
         - 5.9262531970755083e-01
         - 9.3086012338314761e-01
         - -1.8509191448649764e-02
         - 5.1473381462636005e-02
         - -9.8438225863486190e-02
         - 4.1083784511221223e-02
         - 2.6469662202980659e-01
         - -7.2079474907779473e-01
         - 9.6587222979919368e-02
         - -1.5224044321831184e-01
         - 1.1140927645518373e+00
         - 1.8662720756415344e-01
         - -3.7191690239371533e-01
         - 4.9888949614311145e-01
         - -4.3528424121796311e-01
         - -7.1631798573694366e-02
         - -2.9107002845926983e-01
         - -6.7973579121148542e-01
         - 6.9295622655020161e-01
         - -2.7006987980682684e-01
         - 2.6388318884307038e+00
         - -4.3212808238435996e-01
         - -1.0546195016384104e-01
         - 2.6394364014985344e-01
         - -1.6136513933266505e-01
         - -3.4752568554149299e-01
         - -2.6485727847173851e-01
         - -1.5927215234401788e+00
         - 3.3292057128955405e-01
         - -3.4411785819284602e-01
         - 4.7540182193807490e-01
         - -7.6153420747507250e-01
         - 6.0643128898825005e-01
         - 6.8161365132815482e-02
         - -1.4551222665377106e-01
         - 5.1833225120816374e-02
         - 5.4444760984762725e-02
         - -1.0098216142231073e-01
         - 7.7289711537593231e-01
         - 4.1838060538717178e-02
         - 1.2575425406034021e-01
         - -3.0295457397300413e-01
         - -1.1284371722560249e-01
         - -1.0256536562267589e-01
         - -3.7129538999691497e-01
         - 1.6074293379074112e-01
         - 9.9514090515557818e-02
         - -4.5722625612552061e-03
         - 1.9020878934041521e-01
         - 1.9581141377923059e-01
         - -2.1590007171739992e-01
         - 2.7550166759668954e-01
         - 9.6431823527630661e-02
         - -1.0127814456464332e-01
         - -2.4805065027593853e-01
         - 2.4653092648860719e-01
         - 4.7677069129389282e-01
         - -5.9107428366453434e-03
         - 8.3985868895880222e-02
         - 2.5384320101247956e-02
         - 2.5031861285763174e-01
         - 1.9277572729013298e-01
         - -2.5373411268969698e-01
         - -1.8670932808371229e-02
         - 1.3196133894147594e-01
         - 8.4265111943481547e-02
         - 8.4348299901376170e-02
         - 1.0206006475194056e-01
         - -2.5198245030449866e-02
         - 3.4916398143683081e-02
         - 2.6817535527896696e-01
         - 1.6259663107165578e-01
         - -1.2548707711287399e-01
         - -1.1273057088999354e-01
         - 2.5696545395690645e-01
         - 2.2630766158965299e-01
         - -4.7992380233705050e-02
         - 3.3487968711890144e-02
         - -2.2205467131985138e-01
         - 3.1153908021920390e-01
         - 1.3899482781979960e-01
         - 3.8507442100373585e-01
         - -1.9164552192115369e-01
         - -4.2224142743877641e-01
         - -2.0796045655673071e-01
         - 8.3239699336399098e-01
         - 1.4518128433379109e+00
         - -1.3979920936540874e-01
         - 7.9392366104381579e-02
         - 1.0750591775319533e+00
         - -1.0870369931063818e-01
         - 1.6125036608668677e+00
         - 3.5203829964681049e-01
         - -2.6974197422439078e-01
         - -1.0650319470305064e-01
         - 3.1049239687168517e-01
         - 5.8592737570919695e-01
         - 9.4715890551428900e-02
         - -2.3356578262409958e-01
         - -4.8986902903476424e-02
         - -8.8872346097050386e-02
         - -7.2466546130892082e-02
         - -7.1703117322034174e-02
         - 5.9935731846198353e-02
         - 2.3067693685478508e-03
         - -6.3480416876194809e-02
         - -4.0422804585305150e-01
         - 1.8878955530484559e-01
         - -3.6061071193661881e-01
         - -9.7025911413294683e-02
         - -5.2669665994279902e-01
         - -3.0691868463468230e-01
         - -2.7362834776856679e-02
         - 6.3436852861983764e-02
         - 2.7344111544587879e-01
         - -4.7146096928246270e-02
         - -2.2068544470685514e-01
         - -7.1991651141009716e-01
         - -2.8888378503683393e-01
         - -1.3230408830634843e-01
         - 3.7250409438361948e-01
         - -3.1244525565907477e-01
         - -1.5805402071598773e-01
         - 1.0690367220311453e-01
         - -1.4362662390601838e-01
         - -1.8944842834508892e-02
         - -1.0272558201074595e+00
         - -1.1394701198987114e+00
         - -7.3619746862271274e-01
         - -1.1496349533523323e-01
         - 2.6178205421419104e-01
         - -1.3687036122614407e+00
         - -1.6683156062689461e-01
         - 1.4654035239491953e-01
         - -1.4505522450883348e-02
         - -1.3914069827096831e-01
         - -2.6035008590771114e-01
         - -4.2112924905819604e-01
         - 4.1022748180844729e-03
         - -6.1655822850213360e-01
         - 2.5792455785312094e+00
         - -9.5943376376375766e-01
         - 5.7171395469831776e-01
         - 7.1975264063648947e-01
         - -5.5712585433439647e-02
         - 1.1024849425457500e-01
         - 5.4579640515642798e-02
         - -1.0655290330529323e+00
         - 2.8331812814033341e-01
         - -2.1413284788217651e-01
         - 4.9310720171310163e-01
         - -4.4550420192477092e-01
         - 3.5517808540553875e-01
         - 1.0520377209043665e-01
         - -1.2494078833326145e+00
         - 1.6417037098721032e-01
         - 1.4609992051979019e-02
         - 3.9106185533547652e-02
         - 1.1077095337232496e-02
         - 3.8834360249231724e-02
         - 2.4583014473762838e-01
         - 1.5584582608275716e-01
         - 2.1952833862996979e-01
         - -1.1707156528390095e-01
         - -5.9194080866495991e-01
         - 3.3259129514973712e-01
         - 3.2856034649420734e-01
         - 8.0803337875139714e-01
         - -5.4795062838948520e-02
         - 5.2721249176420328e-02
         - 8.1905523779058506e-02
         - 1.1466292310012254e-01
         - 2.4069199792979118e-01
         - -3.1314188709553027e-02
         - -2.1037027863332683e-01
         - 2.6538484400690965e-01
         - 1.8722368204260978e-01
         - 2.8299532728624205e-01
         - -7.0654042090779967e-02
         - -1.4358670345077404e-01
         - 1.0727952494835556e-01
         - 8.6603025593057570e-01
         - 1.6042126064640484e-02
         - 1.5451519861568674e-02
         - -8.7473777341233613e-02
         - 4.0952751216318012e-01
         - 5.8980317192307319e-01
         - 2.0136694465939892e-01
         - 3.3240199127521186e-02
         - 1.5247435808861409e-01
         - 2.2513469310660494e-01
         - 1.3271471207508528e-01
         - -1.3009600534741322e-01
         - -1.5949214513339388e-01
         - 1.0550608316146155e-01
         - 5.9441435109329221e-01
         - 1.7257940676283026e-01
         - 2.4672502023170405e-02
         - -8.2521968236987397e-01
         - -5.3435291867624461e-02
         - 3.7846799425101212e-02
         - 2.1403619237289545e-01
         - -3.3662801537840664e-01
         - -1.3854098480305882e-01
         - -8.9117428181679958e-01
         - 1.4709761320500847e-01
         - 4.5708195279386554e-01
         - 2.0571197649307510e-02
         - 8.3608454485260039e-02
         - 5.7538092591247891e-01
         - -1.5469644412158809e-01
         - 7.2213771818052852e-01
         - 2.6849153098680650e-01
         - -1.0320998507791931e-01
         - 1.7416897669459491e-01
         - -4.3015173982769966e-01
         - -1.2600054148370834e-01
         - -5.0547986448950401e-02
         - 3.5576005303010388e-02
         - -1.2053489961958885e-02
         - -7.3431118968215514e-01
         - -1.3925636414820194e-01
         - 1.2422990229165644e-01
         - 9.0204899742981917e-02
         - -1.3609434425317689e-02
         - 5.9793579068294356e-02
         - -7.4473769386796829e-01
         - 7.0853771955346478e-02
         - -6.4701161327190615e-01
         - -7.1461682007301663e-01
         - 6.9379525756538205e-02
         - -6.4348374811164744e-01
         - -1.2004312790629351e-01
         - 1.7349469500099948e-01
         - 1.1660722215018778e-01
         - -2.7284167323247360e-01
         - -6.1578135438119541e-01
         - -1.5096573601951410e-01
         - -3.4200112868108823e-01
         - -1.1297151185740602e-01
         - 8.0204624266799099e-02
         - -4.3472031740084877e-01
         - -8.8269330995602663e-02
         - 6.7395015534737798e-02
         - -5.4063844770628963e-02
         - -6.2653194095969655e-01
         - -6.5995864143637206e-01
         - -9.4790413928546147e-01
         - -2.2122749014825430e-01
         - -4.9903772212682856e-02
         - -2.4163597974292657e-04
         - -2.5386855904591183e-02
         - -1.4338296499523365e-01
         - 8.8330350815633715e-02
         - -1.3849408850086373e-01
         - -1.2965725676185152e-01
         - -3.0735733804065363e-01
         - -1.3123349103463491e-01
         - -1.1706623940768193e-01
         - -1.0718245302480232e-01
         - 1.1807647977234291e-01
         - -2.0742348601914221e-01
         - -2.9217497941440745e-01
         - 4.8570552974390536e-02
         - -5.9078678460439626e-01
         - 2.9627700916289551e-01
         - 8.2074880179395890e-02
         - -3.6175526044429673e-01
         - 1.5731748905823961e-01
         - 5.0212709782947718e-01
         - 1.6271351762343678e-01
         - 8.2804892245305683e-02
         - -1.0031728224110943e-01
         - -3.1992822892001782e-01
         - -5.7160537898664476e-01
         - 2.9573624941053339e-01
         - 9.8172038569531006e-01
         - 1.0376317019106629e-02
         - 2.9244252215203337e-01
         - 1.2660705556031135e-01
         - 5.5580930568748160e-02
         - 1.2802366152388830e-01
         - -4.1281860934836483e-02
         - -3.4887406615863613e-02
         - -4.9315846435870003e-01
         - 4.0302045748420268e-01
         - 5.8923352729131839e-01
         - 3.1681463502966606e-01
         - -1.8772162582481716e-01
         - -1.0514137803444369e-01
         - 6.9557886880421069e-03
         - 9.6493758424127801e-02
         - 4.4405526153117597e-01
         - 1.7475069423840278e-01
         - -4.8389197309236037e-01
         - 5.0157579282273490e-01
         - 2.0130039284964665e-01
         - 1.6742976754589511e-01
         - -8.2928642867790753e-02
         - -6.6301797897863057e-02
         - 1.2054713270220957e-01
         - 1.3730400452669814e-01
         - 1.5168135219120554e-02
         - 6.2288204385402370e-02
         - -8.4563961625677961e-02
         - 1.2920700139021371e-01
         - 1.1244721368122011e-01
         - 1.5897432059036301e-01
         - -3.6908615447492375e-02
         - -7.3461359907375425e-03
         - 6.6360311086272117e-01
         - 1.7286550292296146e-01
         - -6.5292276186428022e-02
         - -1.7838291774077120e-01
         - 2.7888989273250736e-01
         - 2.9730866775237519e-01
         - 3.4842921773551166e-01
         - -3.7086578302847383e-04
         - 5.4815498640833582e-01
         - 3.5178418413661101e-02
         - 2.6825356215974960e-01
         - 3.7071375004367739e-02
         - -1.1738284856868231e-01
         - -1.0651078022873146e-01
         - 1.4419341659078053e-01
         - -1.7114069712349808e-01
         - 2.5488065050541614e-01
         - -2.3519443327098120e-02
         - 1.0806484245588369e-01
         - 1.0067499142462136e-01
         - -1.7876766608048081e-01
         - 2.0746830689248363e-01
         - 9.1787907933665613e-01
         - -9.0613682864889911e-02
         - 2.3627617761160011e-01
         - -7.9975465533158663e-01
         - -2.6166843870303646e-03
         - -1.3765966235917504e-01
         - 1.4757638753574798e-01
         - 2.6472747725768320e-01
         - -2.0305883777198436e-01
         - 3.0048844532492007e-02
         - 4.5086343397461737e-01
         - -2.1985047267583234e-02
         - -1.6918115219073319e-02
         - -6.9042561881385756e-01
         - -1.8936992261443977e-01
         - 6.6875792777193410e-02
         - 3.7403418640124919e-02
         - -3.5916477210877118e-01
         - 6.8054790483429897e-02
         - 1.9251991384839492e-01
         - -7.5266738016589035e-02
         - 2.5119946630814882e-01
         - -2.8664917102884890e-02
         - -2.9623461267159190e-01
         - -1.0593555788206330e+00
         - 5.7211601614181045e-04
         - -7.6438797326546160e-01
         - -5.4319173899225415e-01
         - -2.2883114773047356e-03
         - -1.6586637396883310e+00
         - -5.1024564728391364e-01
         - 5.9936056088772793e-01
         - -1.4830005021041487e-01
         - -1.0612168812411432e-01
         - -5.4976825704477705e-01
         - -6.5223641855757686e-02
         - -5.0201915329421198e-01
         - -3.4353492791700813e-01
         - 2.0781332260264521e-01
         - -4.0332742712620812e-01
         - -9.3403759908241435e-01
         - 2.7905648715518587e-02
         - -7.5869680824763819e-01
         - 8.4130487418116007e-01
         - -5.1751470086466933e-01
         - 2.2202868819995770e-02
         - -4.5610967553034804e-01
         - 2.8386639793020180e-01
         - 6.5993416321994652e-02
         - 6.8201293213958319e-02
         - -8.0041022626428193e-01
         - -6.0239791444191358e-02
         - -7.6350811165395183e-01
         - 4.2859061877927374e-01
         - 4.3691128511521765e-02
         - 1.8663889972961639e-01
         - -5.3515161968230252e-01
         - -1.6297199795047213e-01
         - -1.7529098446227942e-01
         - -1.7766323691680225e-01
         - -3.4539490375663817e-01
         - 7.9787517097255387e-02
         - -5.7324095843095868e-01
         - 7.7750657787582034e-01
         - 2.9043987514926106e-01
         - 2.8291308125327636e-01
         - -7.2014551588397452e-02
         - -1.6084509346492870e-01
         - 6.4066805602202440e-03
         - 9.1536915628398691e-02
         - -1.4610645893302182e-01
         - 5.0365231687596580e-02
         - -8.1843739939892535e-01
         - 1.0637701738811483e+00
         - 2.4915364314809454e-01
         - 4.3019175911065771e-01
         - 8.0617190215058032e-02
         - -1.7630576702673065e-01
         - 1.1568210833863048e-01
         - 6.5277202241157323e-02
         - 5.5750993708377228e-01
         - 1.7294610259911763e-01
         - -2.7048507239476410e-01
         - 1.5586393140842075e-01
         - 1.1567318328765665e-01
         - 5.9034829896676494e-02
         - -1.0447399619256746e-02
         - -8.0028900165472677e-02
         - 1.1866480790487337e-01
         - 2.1441150522255936e-01
         - -4.1369510771772089e-02
         - 7.1161541761824529e-02
         - -6.8490335755955534e-01
         - 1.4577193317934986e-01
         - 6.6271941519748412e-02
         - 2.2043972594370725e-01
         - -3.8762187203002112e-02
         - -6.8331553750151153e-02
         - 2.0920416863074212e-01
         - -6.8136958699392347e-02
         - -5.8082534265389736e-02
         - 5.7018551450910886e-02
         - 2.4534467951682845e-01
         - 2.2099522965374963e-01
         - 1.1325085010839973e-01
         - 1.1144833172244965e-01
         - -8.9368209334154264e-02
         - -2.6758447263283486e-02
         - 4.4979903718271090e-02
         - -1.8557028244905984e-02
         - -1.6770173446370099e-01
         - 4.4627714114628833e-02
         - 2.0816669756877415e-01
         - -2.3012602121840334e-01
         - 2.2192549925803686e-02
         - 2.4910013680170657e-03
         - 1.1951251921144614e-01
         - 1.7241394590167772e-01
         - -1.3310957432364023e-01
         - 1.3687984346948734e-01
         - 3.9669342578164762e-01
         - -1.7909479430861663e-01
         - 2.1763420200623232e-01
         - -2.2410922261514210e-01
         - 1.6963623605710657e-01
         - -1.2779434102405682e-02
         - 6.9529616437648167e-01
         - 1.0345732709881660e-01
         - -1.4948964329360548e-01
         - 3.2724170298624865e-02
         - 3.4000148602831487e-01
         - -1.2417021012283336e-01
         - 2.3952557240902392e-01
         - -3.5356616721525935e-01
         - -4.7523001716370174e-02
         - -1.3271116236983754e-01
         - 2.7478027928827164e-01
         - 2.3475605909579304e-02
         - -1.3115445356223937e-01
         - -2.8647042474288847e-01
         - 2.3868603243122630e-01
         - -1.4025717072265151e-01
         - 2.1110633740823520e-01
         - -3.9922533978302294e-01
         - 2.9158873870586316e-01
         - -2.4515524056324598e-02
         - 3.5284239341428592e-01
         - 4.3073247751948011e-03
         - -6.5968058880118571e-02
         - -1.7874547168247115e-02
         - -2.3240091764486789e-01
         - -1.0014359253901366e-01
         - 5.0561881800734887e-01
         - 3.8289164517168746e-02
         - -4.8336122432031792e-01
         - -4.8958989930415857e-02
         - -9.5965958101564951e-04
         - -1.2299566158926700e-01
         - 6.3932657523426506e-01
         - 3.1255401805432223e-02
         - -1.2646121312060912e+00
         - -1.8397589807805287e-02
         - 1.0384247161534876e-01
         - 8.5028461334546779e-02
         - 3.3711833146637088e-01
         - 3.6356369387554742e-03
         - -6.0069259205007060e-02
         - 2.4077045338778327e-02
         - 1.7545515784837731e-01
         - 1.7369974585822148e-01
         - -1.8042291907896052e-02
         - 5.4867553580547658e-02
         - -2.7070652173301168e-01
         - 1.9595092229023670e-01
         - 9.6228651708102297e-02
         - -8.4215693310561779e-02
         - 2.4128085450784157e-02
         - 1.1676799686217443e-01
         - 1.4308612223959355e-01
         - 3.1167098073518414e-02
         - 6.1713357065831176e-01
         - -3.8396877900622170e-02
         - -2.8621952948807572e-01
         - 2.1895312171696782e-01
         - 1.2891680642666323e-01
         - 1.8055862654440580e-01
         - 1.1009864870918153e-01
         - 2.3129651312834270e-02
         - 1.8770593421751616e-01
         - 1.0048365327405896e-01
         - 5.7349607832407878e-01
         - -6.2627242772120825e-02
         - -2.3499255440420141e-01
         - 1.4790330723271289e-01
         - 2.9683625285989412e-01
         - 1.4449239982000605e-02
         - 6.1990103435524513e-01
         - -9.6620913651513513e-02
         - 2.2227877862176237e-01
         - 2.2838344699385763e-01
         - 4.9681555590366572e-01
         - -1.3464117311282056e-01
         - -2.3708623692101224e-01
         - -8.6239138518354311e-02
         - 2.9934105012606482e-01
         - 5.3120353357646510e-03
         - -3.1768293620455440e-02
         - 1.4842016480152143e-01
         - -1.2438389310750622e-01
         - 2.6615050305957580e-02
         - 6.3419501870254302e-01
         - -2.0029149048609712e-01
         - 4.0715927613004188e-02
         - -5.5247837830180932e-02
         - 5.8950119540231227e-01
         - 5.9816558215472992e-01
         - 7.3717049436013049e-01
         - 5.5484642061024914e-01
         - -1.2893914544721238e-01
         - 4.1601569271255912e-01
         - 5.2190823081975146e-01
         - -4.2716955627570113e-01
         - -2.5902844125315033e-01
         - 1.4591969052374396e-01
         - -8.0211871841164240e-01
         - 5.3471251784474212e-02
         - -2.8591832195069544e-01
         - 3.5986645253107047e-01
         - -9.4521224138304077e-03
         - -3.8436006154852953e-01
         - -1.1703400705292990e-02
         - 5.9972491282532410e-03
         - 5.1589800511648715e-02
         - -1.2118804289589097e-01
         - -7.7887443675646959e-03
         - -1.1342287865590933e-01
         - 7.4390441325118267e-02
         - 7.4267619372953203e-02
         - -2.7989359496446581e-01
         - -9.1149501634410823e-02
         - 1.4973425036538004e-01
         - -1.9505366726270401e-01
         - 1.7443220310976748e-01
         - -1.5064871802425023e-01
         - 1.8546894450375495e-01
         - -1.4874219382275697e-01
         - 2.0566375923303598e-01
         - -1.1953700755856558e-01
         - -8.5266754192388092e-02
         - 5.8542983615511190e-01
         - 2.9313920973342761e-01
         - -1.2611726612393898e-01
         - -3.1690544776113211e-01
         - -2.1803988542455383e-02
         - 7.9132056595013478e-01
         - 2.0095803543056456e-01
         - 2.4895732675761997e-01
         - 6.7563299469090066e-02
         - -9.2527513431182803e-02
         - 8.2231638560923498e-02
         - 1.8883140095739626e-01
         - -1.9159010374314173e-01
         - 6.2463706577243872e-01
         - -2.2299451703457196e-01
         - 8.7525482450186065e-01
         - -1.4412612194043506e-01
         - 4.0673813746125453e-01
         - -2.1300499602605823e-02
         - 3.8054737674000860e-01
         - 5.6733519155212082e-02
         - -7.4966726751028639e-02
         - -3.7497510168407681e-02
         - 8.1284374160529127e-01
         - 2.9772926764158691e-01
         - 5.1113317578724525e-03
         - -2.8084048712367227e-01
         - 1.3666028431053073e-01
         - -3.0368254502722125e-01
         - 2.3759512621207513e-01
         - 4.1055861511636949e-01
         - -2.4360585497408320e+00
         - -3.2727911674179155e-01
         - 1.1154912687336225e+00
         - -5.8032901430866168e-01
         - 3.0564500604010825e-01
         - -9.4011730104846286e-02
         - -6.3544940739294828e-02
         - -6.9934013504457007e-02
         - 3.2953705589919580e-01
         - 2.4291755198707077e-01
         - 1.1915350974547523e-01
         - -2.4218945480359644e-01
         - -8.5161696717536289e-02
         - -2.1368009596806506e-01
         - 3.9338377510534978e-01
         - -6.3483277859541976e-01
         - -1.2339451396054746e-02
         - 2.7698170914856668e-01
         - 5.6366727170426945e-01
         - 2.1052664658348311e-01
         - 1.0121452127850818e+00
         - -3.2174311623634150e-01
         - 6.9818528367533855e-02
         - -1.4504617851316789e-01
         - 1.2559959764560333e-01
         - -9.4090171730598221e-02
         - 3.7823027899870376e-01
         - 1.0768158944959728e-01
         - -1.5321719894078717e-01
         - 3.4796695554775831e-01
         - 6.6571456632344672e-01
         - 1.7930710781506098e-02
         - 8.4458932703385614e-02
         - -1.3189739741845488e-01
         - 1.6947554746835802e+00
         - -1.1565766972772736e-01
         - 5.8798967020936266e-01
         - 1.0757013039114457e-01
         - -5.9388354462547921e-02
         - 1.0828670437800343e+00
         - 1.8567192627537326e+00
         - -2.6235053698147587e-01
         - -2.3476436873033696e-01
         - 1.0722233949003315e-01
         - 2.0871060114610036e+00
         - 1.8912340251092388e-01
         - 3.1294471314273997e-01
         - 1.6111363823053515e-01
         - -1.2215068685768873e-01
         - 5.4082519200569379e-01
         - 4.9090117932479166e-01
         - 5.7336065347698151e-01
         - -2.5218820892145094e-01
         - -3.1697577544299166e-02
         - 5.8545075031721772e-01
         - 2.9691625452327652e-01
         - 2.7755137289130954e-01
         - 2.3439206619752503e-01
         - -1.5571659643161120e-01
         - 7.9541989449722766e-02
         - 4.1284771608768867e-01
         - -1.5823214188773560e-01
         - -2.5259420543522176e-01
         - 1.5979435691839024e-02
         - -2.0512411853820989e-01
         - 1.4135034842089373e+00
         - -6.7333651549363882e-01
         - 3.2820174377792011e-01
         - -1.5504371931473149e-01
         - -1.8692402505022568e-01
         - -2.4388632906004953e-01
         - -6.7881389185974791e-02
         - 9.1132688002155804e-01
         - -1.2689276763619792e-01
         - -3.7537998320106250e-02
         - 5.1466999503930078e-01
         - 7.4547790288381044e-02
         - 3.5768776521711615e-01
         - 7.7828629081246201e-02
         - 2.0939339652602379e-01
         - 3.0834924318421539e-02
         - -4.2885435287883311e-01
      -
         - 1.0872118573492644e-01
         - -3.8591104888744238e-01
         - -3.5267391016662153e-01
         - 3.1900331245312091e-01
         - 2.5880198852078534e-01
         - 2.8064348319343557e-01
         - 3.9725418353177722e-01
         - 2.8133762836920712e-01
         - 1.3128971423425170e-01
         - -3.8507878290116447e-02
         - -5.0792093164921871e-02
         - 1.9142542084923589e-01
         - 2.6070321995642060e-01
         - -1.2101530361084591e-01
         - -3.7426878220415205e-01
         - -2.6597512025342557e-01
         - -1.6931655972680790e-01
         - -7.4769221970968955e-02
         - -3.9291351606201708e-01
         - 8.2410609542863791e-02
         - -2.1927768571099678e-02
         - 5.3389066355606023e-02
         - -1.2610215276723524e-01
         - 2.9800103630927582e-01
         - 2.5761722010751315e-01
         - 2.5007525401277902e-01
         - 7.8472296748602760e-02
         - -3.8709406020084930e-01
         - 2.5475688239450189e-01
         - -9.8592083839195238e-02
         - -1.2067321020985296e-01
         - 2.6044752895836581e-01
         - 2.0578030557377897e-01
         - -8.4360702292714224e-02
         - -3.5832480995908682e-02
         - -1.1518363366686270e-01
         - -2.3345449542403803e-02
         - -2.5298610085627560e-01
         - -3.5577598466874517e-03
         - 1.5531704619556011e-01
         - 1.1282648745069888e-01
         - 2.1262899197111641e-02
         - 5.1668395159883480e-02
         - 2.0510053072737292e-01
         - 1.7573309750121530e-01
         - 1.6369484031400741e-01
         - 2.7916267886054430e-01
         - -6.4108845965422545e-01
         - 2.2229104786081932e-01
         - 8.5111812805668721e-02
         - 1.1130568680768620e-01
         - -2.1135554664263473e-01
         - 9.6400427990840615e-02
         - 1.4398102738334273e-01
         - -1.4697151551093942e-02
         - 2.5337564749911213e-02
         - 2.3100497599344155e-01
         - -5.9255084726431491e-02
         - 1.4507536403441615e-01
         - -1.8746762890807406e-01
         - 1.8493585495092363e-01
         - -1.1368152542249117e-01
         - 9.8952692421527211e-02
         - -1.0869793023202870e-01
         - 5.5597725681377788e-02
         - 1.5397425097851039e-01
         - 1.2747212254810950e-01
         - -1.5785033634988374e-01
         - 7.5596890085572105e-02
         - -6.6662954461699453e-02
         - 4.9242902099150433e-03
         - -3.3785376519396539e-02
         - -1.5489287918783921e-02
         - 1.1674004954823340e-01
         - 1.8534391437723877e-01
         - -1.1978213430560244e-01
         - 1.4570933182464049e-01
         - -7.3287598494683104e-01
         - 1.6717887863275252e-01
         - -4.7604137148628829e-02
         - 1.2359706078118372e-01
         - 4.4611699925124156e-02
         - -1.8928074315606364e-02
         - 3.1445104777033467e-02
         - 4.8092906138877001e-03
         - 2.2747039788353737e-01
         - 1.2405241437188058e-01
         - -4.5904999061249746e-01
         - 1.4056566209491417e-01
         - 1.2511106169401043e-01
         - 2.5232284449622339e-03
         - 1.1081785716867977e-01
         - -3.4839170952299436e-02
         - -4.8353521817072427e-02
         - -1.8649803496485867e-01
         - -4.6634416485805012e-02
         - -4.5330716837682659e-02
         - 4.1607423486947231e-01
         - -2.2213670722356330e-01
         - 1.8372218862100775e-01
         - 4.6598863135691909e-01
         - -4.0679196832773629e-01
         - -5.2414766007824942e-01
         - 6.8436567099483425e-01
         - 3.9075483837774461e-01
         - 4.3429871950643190e-01
         - 4.0398825983302600e-01
         - 1.8290175824389193e-01
         - 6.7134378467925027e-01
         - -4.5678605123001037e-01
      -
         - 8.7928731426133233e-01
         - 1.6739381377581927e-01
         - -4.1244674540195714e-01
         - 8.4157932659494084e-01
         - -5.1236121010756486e-01
         - -2.6475790535898441e-01
         - 1.2096333664730279e-02
         - -1.6439486596328326e-01
         - 3.8122837548320798e-01
         - -2.0331919746640589e-01
         - -1.1478865581239708e-01
         - -8.1864093690149142e-01
         - 5.1490929467318225e-01
         - -5.0148972043720896e-01
         - -3.5989250461682581e-01
         - 2.7216031212304864e-01
         - 6.0012596857925726e-01
         - -5.4970692153009593e-01
         - -2.0360749014816931e-01
         - 2.1013763172673816e-01
         - 5.9801783585502077e-01
         - -7.4859939597266545e-01
