%YAML:1.0
opencv_ml_svm:
   format: 3
   svmType: C_SVC
   kernel:
      type: CHI2
      gamma: 1.
   C: 1.
   term_criteria: { epsilon:1.1920928955078125e-07, iterations:1000 }
   var_count: 32
   class_count: 3
   class_labels: !!opencv-matrix
      rows: 3
      cols: 1
      dt: i
      data: [ 0, 1, 2 ]
   sv_total: 1091
   support_vectors:
      - [ 0., 0., 0., 0., 0., 0., 0., 0., 0., 0., 0., 3.99999991e-02,
          3.99999991e-02, 0., 1.59999996e-01, 1.19999997e-01,
          1.19999997e-01, 2.39999995e-01, 5.19999981e-01, 1.,
          4.39999998e-01, 4.00000006e-01, 4.00000006e-01, 4.39999998e-01,
          6.39999986e-01, 1.59999996e-01, 3.60000014e-01, 2.80000001e-01,
          7.99999982e-02, 7.99999982e-02, 1.59999996e-01, 7.99999982e-02 ]
      - [ 0., 0., 0., 0., 0., 0., 0., 9.67741907e-02, 4.51612890e-01,
          3.22580636e-01, 1.93548381e-01, 1.61290318e-01, 6.45161271e-02,
          3.22580636e-02, 3.22580636e-02, 3.22580636e-02, 1.,
          6.12903237e-01, 1.61290318e-01, 9.67741907e-02, 1.93548381e-01,
          9.67741907e-02, 9.67741907e-02, 9.67741907e-02, 1.93548381e-01,
          2.90322572e-01, 9.67741907e-02, 6.45161271e-02, 0.,
          9.67741907e-02, 1.29032254e-01, 3.22580636e-02 ]
      - [ 0., 0., 0., 0., 0., 0., 0., 0., 0., 2.35294119e-01,
          2.35294119e-01, 2.94117659e-01, 1.76470593e-01, 1.76470593e-01,
          1.76470593e-01, 3.52941185e-01, 1., 2.94117659e-01,
          5.29411793e-01, 6.47058845e-01, 7.64705896e-01, 3.52941185e-01,
          5.29411793e-01, 4.70588237e-01, 3.52941185e-01, 4.70588237e-01,
          2.94117659e-01, 2.94117659e-01, 2.94117659e-01, 1.76470593e-01,
          2.35294119e-01, 1.17647059e-01 ]
      - [ 0., 0., 0., 0., 0., 0., 0., 0., 0., 6.25000000e-02,
          2.50000000e-01, 6.25000000e-02, 2.50000000e-01, 2.50000000e-01,
          2.50000000e-01, 5.62500000e-01, 5.62500000e-01, 4.37500000e-01,
          3.12500000e-01, 2.50000000e-01, 5.00000000e-01, 5.00000000e-01,
          7.50000000e-01, 1., 8.75000000e-01, 5.00000000e-01,
          3.75000000e-01, 2.50000000e-01, 1.87500000e-01, 4.37500000e-01,
          3.12500000e-01, 6.25000000e-02 ]
      - [ 0., 0., 0., 0., 0., 0., 0., 0., 0., 0., 4.28571433e-01,
          7.14285746e-02, 3.57142866e-01, 2.14285716e-01, 2.85714298e-01,
          5.00000000e-01, 5.00000000e-01, 7.14285731e-01, 2.14285716e-01,
          8.57142866e-01, 1., 6.42857134e-01, 7.14285731e-01,
          3.57142866e-01, 3.57142866e-01, 2.14285716e-01, 2.14285716e-01,
          5.71428597e-01, 4.28571433e-01, 4.28571433e-01, 6.42857134e-01,
          5.71428597e-01 ]
      - [ 0., 0., 0., 0., 0., 0., 0., 0., 0., 0., 0., 1.17647059e-01,
          1.17647059e-01, 1.17647059e-01, 2.94117659e-01, 4.70588237e-01,
          2.35294119e-01, 5.29411793e-01, 3.52941185e-01, 2.94117659e-01,
          5.88235319e-01, 5.29411793e-01, 5.88235319e-01, 1.,
          1.17647059e-01, 6.47058845e-01, 5.88235319e-01, 5.88235319e-01,
          4.11764711e-01, 2.35294119e-01, 3.52941185e-01, 2.94117659e-01 ]
      - [ 0., 0., 0., 0., 0., 6.66666701e-02, 6.66666701e-02,
          6.66666701e-02, 0., 2.00000003e-01, 2.00000003e-01,
          4.00000006e-01, 1.33333340e-01, 2.66666681e-01, 1.33333340e-01,
          6.00000024e-01, 6.66666687e-01, 1., 5.33333361e-01,
          6.00000024e-01, 3.33333343e-01, 6.00000024e-01, 5.33333361e-01,
          7.33333349e-01, 4.00000006e-01, 4.00000006e-01, 2.66666681e-01,
          3.33333343e-01, 2.00000003e-01, 1.33333340e-01, 1.33333340e-01,
          6.00000024e-01 ]
      - [ 0., 0., 0., 0., 0., 0., 0., 0., 0., 0., 0., 0., 0., 0.,
          7.99999982e-02, 7.99999982e-02, 7.99999982e-02, 2.39999995e-01,
          3.99999991e-02, 4.00000006e-01, 1., 8.00000012e-01,
          6.39999986e-01, 6.39999986e-01, 4.00000006e-01, 2.80000001e-01,
          2.80000001e-01, 7.99999982e-02, 2.80000001e-01, 0.,
          2.80000001e-01, 1.59999996e-01 ]
      - [ 0., 0., 0., 0., 0., 0., 0., 0., 0., 0., 0., 0., 8.10810775e-02,
          1.08108111e-01, 8.10810775e-02, 1.35135129e-01, 1.62162155e-01,
          3.24324310e-01, 1., 3.51351351e-01, 1.08108111e-01,
          3.24324310e-01, 1.35135129e-01, 2.16216221e-01, 2.16216221e-01,
          2.16216221e-01, 8.10810775e-02, 5.40540554e-02, 1.35135129e-01,
          2.70270277e-02, 8.10810775e-02, 5.40540554e-02 ]
      - [ 0., 0., 0., 0., 0., 0., 0., 0., 1.90476194e-01, 1.42857149e-01,
          9.52380970e-02, 2.38095239e-01, 2.38095239e-01, 3.33333343e-01,
          1.42857149e-01, 9.52380970e-02, 5.23809552e-01, 8.09523821e-01,
          1., 8.57142866e-01, 8.09523821e-01, 1.90476194e-01,
          1.42857149e-01, 1.42857149e-01, 4.76190485e-02, 9.52380970e-02,
          1.90476194e-01, 9.52380970e-02, 9.52380970e-02, 9.52380970e-02,
          4.76190485e-02, 2.38095239e-01 ]
      - [ 0., 0., 0., 0., 0., 0., 0., 0., 0., 4.54545468e-02,
          4.54545468e-02, 4.54545468e-02, 2.72727281e-01, 0.,
          2.72727281e-01, 1.81818187e-01, 2.72727281e-01, 4.09090906e-01,
          4.54545468e-01, 1., 6.81818187e-01, 2.72727281e-01,
          4.09090906e-01, 3.63636374e-01, 3.18181813e-01, 4.54545468e-02,
          3.63636374e-01, 3.18181813e-01, 2.72727281e-01, 9.09090936e-02,
          9.09090936e-02, 3.18181813e-01 ]
      - [ 0., 0., 0., 0., 0., 0., 0., 0., 0., 4.54545468e-02,
          4.54545468e-02, 1.36363640e-01, 1.36363640e-01, 0., 0.,
          2.27272734e-01, 3.18181813e-01, 2.27272734e-01, 5.45454562e-01,
          1., 5.00000000e-01, 9.09090936e-02, 4.54545468e-02,
          2.72727281e-01, 1.81818187e-01, 2.27272734e-01, 4.09090906e-01,
          3.18181813e-01, 3.63636374e-01, 6.36363626e-01, 7.27272749e-01,
          9.09090936e-02 ]
      - [ 0., 0., 0., 0., 0., 0., 0., 0., 0., 0., 6.66666701e-02,
          6.00000024e-01, 2.66666681e-01, 3.33333343e-01, 3.33333343e-01,
          4.66666669e-01, 1., 6.00000024e-01, 8.66666675e-01,
          3.33333343e-01, 5.33333361e-01, 7.33333349e-01, 6.66666687e-01,
          2.66666681e-01, 5.33333361e-01, 1.33333340e-01, 5.33333361e-01,
          2.00000003e-01, 2.66666681e-01, 2.66666681e-01, 4.00000006e-01,
          2.00000003e-01 ]
      - [ 0., 0., 0., 0., 0., 0., 0., 0., 0., 0., 2.63157904e-01,
          2.10526317e-01, 1.05263159e-01, 1.57894731e-01, 3.15789461e-01,
          5.26315793e-02, 1.57894731e-01, 3.68421048e-01, 1.,
          8.42105269e-01, 7.89473712e-01, 5.26315808e-01, 7.36842096e-01,
          1.57894731e-01, 4.21052635e-01, 3.15789461e-01, 2.10526317e-01,
          3.68421048e-01, 1.05263159e-01, 1.05263159e-01, 2.10526317e-01,
          1.57894731e-01 ]
      - [ 0., 0., 0., 0., 0., 0., 0., 5.88235296e-02, 1.17647059e-01,
          5.88235296e-02, 1.76470593e-01, 5.88235296e-02, 1.17647059e-01,
          1.17647059e-01, 2.35294119e-01, 5.29411793e-01, 4.11764711e-01,
          9.41176474e-01, 1., 9.41176474e-01, 5.88235319e-01,
          7.05882370e-01, 4.11764711e-01, 5.29411793e-01, 2.35294119e-01,
          2.94117659e-01, 2.94117659e-01, 4.11764711e-01, 0.,
          5.88235296e-02, 5.88235296e-02, 1.17647059e-01 ]
      - [ 0., 0., 0., 0., 0., 0., 0., 0., 9.16666687e-01, 4.16666657e-01,
          4.16666657e-01, 3.33333343e-01, 2.50000000e-01, 1.66666672e-01,
          5.83333313e-01, 6.66666687e-01, 3.33333343e-01, 9.16666687e-01,
          4.16666657e-01, 7.50000000e-01, 5.00000000e-01, 1.,
          5.83333313e-01, 5.00000000e-01, 6.66666687e-01, 3.33333343e-01,
          5.00000000e-01, 8.33333358e-02, 5.00000000e-01, 4.16666657e-01,
          2.50000000e-01, 5.00000000e-01 ]
      - [ 0., 0., 0., 0., 0., 0., 0., 0., 0., 0., 0., 0., 0.,
          1.42857149e-01, 7.14285746e-02, 2.38095243e-02, 1.19047619e-01,
          8.09523821e-01, 1., 7.14285746e-02, 1.19047619e-01,
          2.38095243e-02, 1.19047619e-01, 9.52380970e-02, 9.52380970e-02,
          9.52380970e-02, 1.90476194e-01, 1.19047619e-01, 2.38095243e-02,
          1.66666672e-01, 2.38095243e-02, 1.19047619e-01 ]
      - [ 0., 0., 0., 0., 0., 0., 0., 0., 0., 7.14285746e-02,
          1.42857149e-01, 7.14285746e-02, 3.57142866e-01, 7.14285746e-02,
          4.28571433e-01, 5.71428597e-01, 6.42857134e-01, 6.42857134e-01,
          6.42857134e-01, 5.00000000e-01, 4.28571433e-01, 7.85714269e-01,
          4.28571433e-01, 1., 7.85714269e-01, 2.14285716e-01,
          9.28571403e-01, 4.28571433e-01, 4.28571433e-01, 4.28571433e-01,
          2.14285716e-01, 7.14285746e-02 ]
      - [ 0., 0., 0., 0., 0., 0., 0., 0., 0., 0., 0., 0., 0., 0., 0., 0.,
          1.66666672e-01, 2.77777791e-01, 6.11111104e-01, 1.,
          8.88888896e-01, 4.44444448e-01, 7.22222209e-01, 5.55555582e-01,
          6.66666687e-01, 6.11111104e-01, 3.33333343e-01, 2.77777791e-01,
          5.00000000e-01, 4.44444448e-01, 2.22222224e-01, 2.77777791e-01 ]
      - [ 0., 0., 0., 0., 0., 0., 0., 0., 0., 0., 0., 0., 1.30434781e-01,
          4.34782617e-02, 1.30434781e-01, 1.73913047e-01, 2.17391297e-01,
          8.69565234e-02, 0., 7.82608688e-01, 1., 9.13043499e-01,
          6.08695626e-01, 6.08695626e-01, 5.21739125e-01, 1.73913047e-01,
          1.73913047e-01, 1.73913047e-01, 0., 2.60869563e-01,
          1.30434781e-01, 1.30434781e-01 ]
      - [ 0., 0., 0., 0., 0., 0., 0., 0., 0., 0., 0., 0., 1.17647059e-01,
          0., 0., 0., 5.88235296e-02, 2.94117659e-01, 3.52941185e-01,
          6.47058845e-01, 9.41176474e-01, 1., 8.82352948e-01,
          3.52941185e-01, 4.11764711e-01, 5.29411793e-01, 5.29411793e-01,
          8.23529422e-01, 5.88235319e-01, 4.70588237e-01, 2.94117659e-01,
          1.76470593e-01 ]
      - [ 0., 0., 0., 0., 0., 0., 0., 0., 0., 8.33333358e-02,
          8.33333313e-01, 3.33333343e-01, 6.66666687e-01, 6.66666687e-01,
          5.00000000e-01, 1.66666672e-01, 2.50000000e-01, 0.,
          4.16666657e-01, 3.33333343e-01, 7.50000000e-01, 5.83333313e-01,
          1., 5.00000000e-01, 8.33333358e-02, 2.50000000e-01,
          4.16666657e-01, 5.83333313e-01, 8.33333313e-01, 9.16666687e-01,
          8.33333313e-01, 1. ]
      - [ 0., 0., 0., 0., 0., 0., 0., 0., 3.57142873e-02, 3.57142873e-02,
          3.57142873e-02, 3.57142873e-02, 7.14285746e-02, 1.78571433e-01,
          3.21428567e-01, 1.78571433e-01, 1.78571433e-01, 3.57142866e-01,
          1., 8.92857134e-01, 2.85714298e-01, 2.14285716e-01,
          1.07142858e-01, 3.57142873e-02, 2.14285716e-01, 1.07142858e-01,
          7.14285746e-02, 1.42857149e-01, 1.78571433e-01, 1.42857149e-01,
          1.07142858e-01, 2.14285716e-01 ]
      - [ 0., 0., 0., 0., 0., 0., 0., 0., 0., 0., 0., 0., 0., 0., 0., 0.,
          0., 9.52380970e-02, 5.47619045e-01, 1., 2.61904776e-01,
          2.38095243e-02, 1.90476194e-01, 2.61904776e-01, 2.14285716e-01,
          2.38095243e-02, 1.19047619e-01, 2.38095243e-02, 4.76190485e-02,
          9.52380970e-02, 3.09523821e-01, 2.14285716e-01 ]
      - [ 0., 0., 0., 0., 0., 0., 0., 0., 0., 0., 0., 0., 0., 0., 0., 0.,
          1.42857149e-01, 2.38095239e-01, 5.23809552e-01, 1.,
          9.52380955e-01, 7.14285731e-01, 5.71428597e-01, 1.42857149e-01,
          5.23809552e-01, 3.33333343e-01, 2.85714298e-01, 2.85714298e-01,
          4.76190485e-02, 2.85714298e-01, 2.38095239e-01, 5.71428597e-01 ]
      - [ 0., 0., 0., 0., 0., 0., 0., 6.45161271e-02, 6.45161271e-02,
          3.22580636e-02, 3.22580636e-02, 9.67741907e-02, 3.22580636e-02,
          9.67741907e-02, 2.58064508e-01, 9.67741907e-01, 1.,
          3.54838699e-01, 3.87096763e-01, 2.58064508e-01, 3.22580636e-02,
          2.25806445e-01, 1.29032254e-01, 3.22580636e-02, 1.61290318e-01,
          1.61290318e-01, 9.67741907e-02, 3.22580636e-02, 0.,
          6.45161271e-02, 0., 6.45161271e-02 ]
      - [ 0., 0., 0., 0., 0., 0., 0., 9.52380970e-02, 9.52380970e-02,
          1.90476194e-01, 4.76190485e-02, 9.52380970e-02, 0.,
          4.76190485e-02, 9.52380970e-02, 9.52380970e-02, 9.52380970e-02,
          3.33333343e-01, 3.33333343e-01, 3.80952388e-01, 4.28571433e-01,
          5.23809552e-01, 1., 5.23809552e-01, 4.28571433e-01,
          4.76190478e-01, 2.38095239e-01, 3.80952388e-01, 3.33333343e-01,
          2.38095239e-01, 2.38095239e-01, 1.42857149e-01 ]
      - [ 0., 0., 0., 0., 0., 0., 0., 0., 1.03448279e-01, 8.27586234e-01,
          3.44827585e-02, 6.89655170e-02, 6.89655170e-02, 3.44827585e-02,
          6.89655170e-02, 6.89655170e-02, 6.89655170e-02, 1.37931034e-01,
          7.24137902e-01, 1., 7.58620679e-01, 2.41379306e-01,
          6.89655170e-02, 6.89655170e-02, 1.03448279e-01, 6.89655170e-02,
          6.89655170e-02, 6.89655170e-02, 6.89655170e-02, 6.89655170e-02,
          1.37931034e-01, 3.44827585e-02 ]
      - [ 0., 0., 0., 0., 0., 0., 0., 0., 1.85185179e-01, 3.70370373e-02,
          1.85185179e-01, 1.85185179e-01, 1.85185179e-01, 1.48148149e-01,
          3.70370373e-02, 2.22222224e-01, 1.11111112e-01, 7.40740746e-02,
          3.33333343e-01, 2.96296299e-01, 3.70370358e-01, 1.,
          5.55555582e-01, 7.40740746e-02, 1.85185179e-01, 7.40740746e-02,
          1.48148149e-01, 2.22222224e-01, 1.48148149e-01, 7.40740746e-02,
          2.22222224e-01, 2.59259254e-01 ]
      - [ 0., 0., 0., 0., 0., 0., 0., 0., 0., 0., 1.06382981e-01,
          1.27659574e-01, 4.25531901e-02, 6.38297871e-02, 2.12765951e-02,
          2.12765951e-02, 4.25531901e-02, 6.38297871e-02, 2.12765951e-02,
          3.40425521e-01, 1., 1.91489369e-01, 1.06382981e-01,
          8.51063803e-02, 6.38297871e-02, 3.82978737e-01, 8.51063803e-02,
          2.12765951e-02, 6.38297871e-02, 1.06382981e-01, 2.12765951e-02,
          8.51063803e-02 ]
      - [ 0., 0., 0., 0., 0., 0., 0., 0., 0., 0., 0., 0., 0.,
          9.52380970e-02, 4.76190485e-02, 0., 4.76190485e-02,
          9.52380970e-02, 2.85714298e-01, 3.80952388e-01, 1.,
          4.76190478e-01, 5.71428597e-01, 5.71428597e-01, 8.09523821e-01,
          3.33333343e-01, 4.76190478e-01, 4.28571433e-01, 4.28571433e-01,
          2.38095239e-01, 4.28571433e-01, 1.42857149e-01 ]
      - [ 0., 0., 0., 0., 0., 0., 0., 0., 0., 7.84313753e-02,
          3.92156877e-02, 5.88235296e-02, 1.96078438e-02, 5.88235296e-02,
          2.94117659e-01, 1., 2.54901975e-01, 1.17647059e-01,
          1.37254909e-01, 7.84313753e-02, 3.92156877e-02, 3.92156877e-02,
          1.96078435e-01, 1.56862751e-01, 5.88235296e-02, 3.92156877e-02,
          3.92156877e-02, 1.96078438e-02, 1.96078438e-02, 1.96078438e-02,
          1.96078438e-02, 3.92156877e-02 ]
      - [ 0., 0., 0., 0., 0., 0., 0., 0., 0., 0., 0., 0., 0., 0., 0.,
          1.19999997e-01, 1.59999996e-01, 1.19999997e-01, 5.60000002e-01,
          1., 8.39999974e-01, 5.19999981e-01, 2.80000001e-01,
          2.00000003e-01, 5.60000002e-01, 1.59999996e-01, 2.00000003e-01,
          1.59999996e-01, 1.19999997e-01, 2.80000001e-01, 3.19999993e-01,
          1.59999996e-01 ]
      - [ 0., 0., 0., 0., 0., 1.25000000e-01, 1.87500000e-01,
          3.75000000e-01, 6.25000000e-02, 0., 1.25000000e-01,
          6.25000000e-02, 6.25000000e-02, 6.25000000e-01, 3.12500000e-01,
          1., 7.50000000e-01, 4.37500000e-01, 1.87500000e-01,
          5.62500000e-01, 3.12500000e-01, 6.87500000e-01, 5.00000000e-01,
          3.75000000e-01, 4.37500000e-01, 5.62500000e-01, 1.87500000e-01,
          2.50000000e-01, 2.50000000e-01, 3.75000000e-01, 6.25000000e-02,
          1.25000000e-01 ]
      - [ 0., 0., 0., 0., 0., 0., 0., 0., 0., 0., 0., 0., 0., 0., 0., 0.,
          0., 0., 0., 7.35294104e-01, 1., 3.52941185e-01, 1.47058830e-01,
          8.82352963e-02, 1.17647059e-01, 1.47058830e-01, 1.76470593e-01,
          1.47058830e-01, 1.17647059e-01, 8.82352963e-02, 2.64705896e-01,
          8.52941155e-01 ]
      - [ 0., 0., 0., 0., 0., 0., 0., 0., 0., 0., 0., 0., 4.54545468e-02,
          2.27272734e-01, 2.72727281e-01, 1.36363640e-01, 5.00000000e-01,
          7.27272749e-01, 1., 3.18181813e-01, 1.81818187e-01,
          1.81818187e-01, 4.54545468e-02, 9.09090936e-02, 1.36363640e-01,
          2.27272734e-01, 2.72727281e-01, 2.72727281e-01, 2.72727281e-01,
          4.54545468e-01, 8.18181813e-01, 3.63636374e-01 ]
      - [ 0., 0., 0., 0., 0., 0., 0., 0., 2.80000001e-01, 1.59999996e-01,
          7.99999982e-02, 3.99999991e-02, 7.99999982e-02, 7.99999982e-02,
          1.19999997e-01, 1.59999996e-01, 2.39999995e-01, 1.59999996e-01,
          9.20000017e-01, 1., 3.60000014e-01, 7.99999982e-02,
          1.59999996e-01, 2.39999995e-01, 2.00000003e-01, 4.39999998e-01,
          1.59999996e-01, 1.59999996e-01, 1.59999996e-01, 7.99999982e-02,
          2.80000001e-01, 1.19999997e-01 ]
      - [ 0., 0., 0., 0., 0., 0., 0., 0., 0., 5.55555560e-02,
          5.55555560e-02, 2.22222224e-01, 3.33333343e-01, 5.55555582e-01,
          4.44444448e-01, 7.77777791e-01, 8.33333313e-01, 1.,
          5.55555582e-01, 6.11111104e-01, 4.44444448e-01, 5.55555560e-02,
          5.55555560e-02, 1.66666672e-01, 3.88888896e-01, 2.22222224e-01,
          5.55555560e-02, 4.44444448e-01, 1.66666672e-01, 3.33333343e-01,
          5.55555560e-02, 1.66666672e-01 ]
      - [ 0., 0., 0., 0., 0., 0., 2.22222224e-01, 1., 2.77777791e-01,
          3.88888896e-01, 1.66666672e-01, 1.66666672e-01, 1.66666672e-01,
          2.77777791e-01, 5.55555582e-01, 6.66666687e-01, 6.66666687e-01,
          3.88888896e-01, 3.33333343e-01, 1.11111112e-01, 5.55555560e-02,
          1.11111112e-01, 1.11111112e-01, 5.55555560e-02, 2.77777791e-01,
          1.11111112e-01, 2.77777791e-01, 3.33333343e-01, 2.77777791e-01,
          3.88888896e-01, 4.44444448e-01, 1.66666672e-01 ]
      - [ 0., 0., 0., 0., 0., 0., 0., 0., 0., 1.87500000e-01, 0.,
          1.25000000e-01, 6.25000000e-02, 0., 6.25000000e-02,
          4.37500000e-01, 6.25000000e-02, 1.25000000e-01, 6.25000000e-01,
          5.00000000e-01, 9.37500000e-01, 6.87500000e-01, 3.75000000e-01,
          5.00000000e-01, 3.12500000e-01, 4.37500000e-01, 5.00000000e-01,
          5.62500000e-01, 3.75000000e-01, 5.62500000e-01, 1.,
          5.62500000e-01 ]
      - [ 0., 0., 0., 0., 0., 0., 0., 2.27272734e-02, 2.27272734e-02,
          2.27272734e-02, 4.54545468e-02, 4.54545468e-02, 0.,
          2.27272734e-02, 6.81818202e-02, 2.27272734e-02, 2.72727281e-01,
          1., 1.59090906e-01, 4.54545468e-02, 1.13636367e-01,
          6.81818202e-02, 1.13636367e-01, 1.36363640e-01, 4.54545468e-02,
          1.13636367e-01, 2.50000000e-01, 6.81818202e-02, 1.81818187e-01,
          6.81818202e-02, 1.36363640e-01, 2.27272734e-01 ]
      - [ 0., 0., 0., 0., 0., 0., 0., 0., 1., 6.99999988e-01,
          2.50000000e-01, 1.00000001e-01, 2.00000003e-01, 3.00000012e-01,
          4.49999988e-01, 3.00000012e-01, 3.00000012e-01, 1.50000006e-01,
          6.00000024e-01, 8.00000012e-01, 2.50000000e-01, 0.,
          5.00000007e-02, 5.00000007e-02, 1.50000006e-01, 2.50000000e-01,
          2.00000003e-01, 3.49999994e-01, 1.00000001e-01, 0.,
          3.00000012e-01, 3.49999994e-01 ]
      - [ 0., 0., 0., 0., 0., 0., 0., 0., 0., 0., 0., 0., 5.00000007e-02,
          5.00000007e-02, 1.00000001e-01, 5.00000007e-02, 2.50000000e-01,
          3.00000012e-01, 8.99999976e-01, 3.49999994e-01, 6.49999976e-01,
          5.50000012e-01, 1., 4.49999988e-01, 2.00000003e-01,
          2.50000000e-01, 1.00000001e-01, 4.00000006e-01, 5.00000000e-01,
          3.00000012e-01, 5.00000000e-01, 2.50000000e-01 ]
      - [ 0., 0., 0., 0., 0., 0., 0., 0., 0., 0., 0., 8.69565234e-02,
          3.04347813e-01, 5.21739125e-01, 5.21739125e-01, 3.04347813e-01,
          4.34782594e-01, 1., 6.08695626e-01, 3.04347813e-01,
          3.04347813e-01, 2.60869563e-01, 1.73913047e-01, 2.17391297e-01,
          1.73913047e-01, 2.60869563e-01, 1.73913047e-01, 1.73913047e-01,
          1.30434781e-01, 1.30434781e-01, 1.30434781e-01, 4.34782617e-02 ]
      - [ 0., 0., 0., 0., 0., 0., 0., 0., 0., 0., 0., 0., 6.66666701e-02,
          3.33333351e-02, 6.66666701e-02, 1.00000001e-01, 0.,
          2.00000003e-01, 2.00000003e-01, 1.33333340e-01, 6.66666687e-01,
          4.66666669e-01, 3.33333343e-01, 1., 2.33333334e-01,
          2.00000003e-01, 1.00000001e-01, 2.66666681e-01, 1.66666672e-01,
          2.00000003e-01, 2.33333334e-01, 1.33333340e-01 ]
      - [ 0., 0., 0., 0., 0., 0., 0., 0., 0., 0., 0., 0., 0.,
          1.05263159e-01, 1.57894731e-01, 1.57894731e-01, 5.26315793e-02,
          5.26315793e-02, 4.73684222e-01, 4.73684222e-01, 4.73684222e-01,
          4.21052635e-01, 8.94736826e-01, 8.42105269e-01, 5.78947365e-01,
          1.57894731e-01, 3.15789461e-01, 3.15789461e-01, 2.63157904e-01,
          2.63157904e-01, 5.78947365e-01, 1. ]
      - [ 0., 0., 0., 0., 0., 0., 0., 0., 0., 1.30434781e-01,
          4.34782617e-02, 4.34782617e-02, 4.34782617e-02, 0.,
          8.69565234e-02, 4.34782617e-02, 8.69565234e-02, 2.17391297e-01,
          3.04347813e-01, 2.17391297e-01, 4.34782594e-01, 6.95652187e-01,
          1., 6.08695626e-01, 6.95652187e-01, 2.17391297e-01,
          1.73913047e-01, 3.47826093e-01, 3.47826093e-01, 2.60869563e-01,
          1.30434781e-01, 1.30434781e-01 ]
      - [ 0., 0., 0., 0., 0., 0., 0., 0., 0., 0., 0., 0., 0., 0.,
          6.25000000e-02, 1.25000000e-01, 1.25000000e-01, 1.25000000e-01,
          6.25000000e-01, 6.87500000e-01, 8.12500000e-01, 5.00000000e-01,
          5.62500000e-01, 1., 6.25000000e-01, 3.12500000e-01,
          3.75000000e-01, 5.00000000e-01, 8.75000000e-01, 6.87500000e-01,
          4.37500000e-01, 5.62500000e-01 ]
      - [ 0., 0., 0., 0., 0., 0., 0., 0., 0., 0., 0., 0., 0., 0., 0.,
          5.71428597e-01, 8.57142866e-01, 2.14285716e-01, 5.00000000e-01,
          1., 9.28571403e-01, 7.14285731e-01, 9.28571403e-01,
          7.85714269e-01, 7.85714269e-01, 3.57142866e-01, 3.57142866e-01,
          7.85714269e-01, 4.28571433e-01, 4.28571433e-01, 2.85714298e-01,
          3.57142866e-01 ]
      - [ 0., 0., 0., 0., 0., 0., 0., 0., 0., 0., 0., 0., 0., 1.,
          9.44444418e-01, 8.33333358e-02, 5.55555560e-02, 8.33333358e-02,
          2.77777780e-02, 2.77777780e-02, 8.33333358e-02, 5.55555560e-02,
          1.66666672e-01, 2.22222224e-01, 2.77777791e-01, 5.55555560e-02,
          8.33333358e-02, 1.38888896e-01, 8.33333358e-02, 1.38888896e-01,
          3.33333343e-01, 1.38888896e-01 ]
      - [ 0., 0., 0., 0., 0., 0., 0., 0., 2.27272734e-02, 2.27272734e-02,
          2.27272734e-02, 0., 6.81818202e-02, 6.81818202e-02,
          2.27272734e-02, 1.13636367e-01, 3.18181813e-01, 1.,
          2.04545453e-01, 2.72727281e-01, 2.27272734e-02, 6.81818202e-02,
          9.09090936e-02, 2.27272734e-02, 6.81818202e-02, 6.81818202e-02,
          1.13636367e-01, 2.27272734e-02, 1.13636367e-01, 1.36363640e-01,
          2.04545453e-01, 2.04545453e-01 ]
      - [ 0., 0., 0., 0., 0., 0., 0., 0., 0., 4.54545468e-02,
          1.36363640e-01, 6.36363626e-01, 1., 4.54545468e-01,
          5.00000000e-01, 4.09090906e-01, 5.00000000e-01, 1.36363640e-01,
          1.36363640e-01, 2.72727281e-01, 9.09090936e-02, 1.36363640e-01,
          3.63636374e-01, 1.81818187e-01, 2.27272734e-01, 9.09090936e-02,
          2.27272734e-01, 2.72727281e-01, 2.27272734e-01, 2.27272734e-01,
          1.36363640e-01, 1.36363640e-01 ]
      - [ 0., 0., 0., 0., 0., 0., 0., 0., 0., 0., 0., 0., 0., 0., 0., 0.,
          2.35294119e-01, 3.52941185e-01, 2.94117659e-01, 5.29411793e-01,
          5.29411793e-01, 5.29411793e-01, 5.88235319e-01, 1.,
          8.23529422e-01, 8.82352948e-01, 4.11764711e-01, 5.29411793e-01,
          6.47058845e-01, 5.29411793e-01, 3.52941185e-01, 2.35294119e-01 ]
      - [ 0., 0., 0., 0., 0., 0., 0., 0., 0., 0., 0., 0., 0., 0., 0., 0.,
          0., 0., 0., 0., 0., 0., 0., 0., 2.59740259e-02, 6.49350658e-02,
          1.03896104e-01, 1., 2.72727281e-01, 1.03896104e-01,
          6.49350658e-02, 2.33766228e-01 ]
      - [ 0., 0., 0., 0., 0., 0., 0., 0., 0., 1.48148149e-01,
          1.48148149e-01, 7.40740746e-02, 3.70370373e-02, 0.,
          3.70370373e-02, 1.11111112e-01, 7.40740746e-02, 2.96296299e-01,
          6.29629612e-01, 1., 4.81481493e-01, 5.92592597e-01,
          2.22222224e-01, 1.85185179e-01, 1.11111112e-01, 2.96296299e-01,
          2.59259254e-01, 1.48148149e-01, 2.96296299e-01, 1.11111112e-01,
          3.70370373e-02, 3.70370373e-02 ]
      - [ 0., 0., 0., 0., 0., 0., 0., 0., 0., 0., 0., 0., 0., 0., 0.,
          5.26315793e-02, 2.63157904e-01, 2.10526317e-01, 5.26315793e-02,
          4.21052635e-01, 7.36842096e-01, 4.73684222e-01, 4.21052635e-01,
          3.68421048e-01, 8.94736826e-01, 1., 5.78947365e-01,
          6.84210539e-01, 4.21052635e-01, 4.73684222e-01, 3.68421048e-01,
          1.57894731e-01 ]
      - [ 0., 0., 0., 0., 0., 0., 0., 8.69565234e-02, 4.34782617e-02,
          4.34782617e-02, 1.30434781e-01, 4.34782617e-02, 0., 0., 0., 0.,
          0., 1.73913047e-01, 1., 6.52173936e-01, 6.95652187e-01,
          5.21739125e-01, 5.21739125e-01, 2.17391297e-01, 3.04347813e-01,
          2.17391297e-01, 3.91304344e-01, 3.47826093e-01, 2.17391297e-01,
          2.60869563e-01, 2.17391297e-01, 1.73913047e-01 ]
      - [ 0., 0., 0., 0., 0., 0., 0., 0., 0., 0., 0., 3.22580636e-02, 0.,
          6.45161271e-02, 3.22580636e-02, 1.93548381e-01, 6.45161271e-02,
          4.83870953e-01, 1., 4.19354826e-01, 2.90322572e-01,
          2.25806445e-01, 3.54838699e-01, 2.58064508e-01, 2.58064508e-01,
          2.58064508e-01, 2.90322572e-01, 1.93548381e-01, 9.67741907e-02,
          6.45161271e-02, 3.22580636e-02, 3.22580636e-02 ]
      - [ 0., 0., 0., 0., 0., 0., 0., 0., 0., 0., 0., 0., 0., 0., 0., 0.,
          1.42857149e-01, 9.52380970e-02, 2.38095239e-01, 5.23809552e-01,
          1., 7.61904776e-01, 7.61904776e-01, 4.76190478e-01,
          6.19047642e-01, 4.28571433e-01, 3.33333343e-01, 2.85714298e-01,
          2.85714298e-01, 4.76190478e-01, 2.85714298e-01, 1.42857149e-01 ]
      - [ 0., 0., 0., 0., 0., 0., 9.09090936e-02, 1.36363640e-01,
          4.54545468e-02, 9.09090936e-02, 4.54545468e-02, 0., 0., 0.,
          4.54545468e-02, 9.09090936e-02, 4.54545468e-02, 3.63636374e-01,
          1., 1., 7.27272749e-01, 4.09090906e-01, 3.18181813e-01,
          2.27272734e-01, 1.36363640e-01, 1.36363640e-01, 3.18181813e-01,
          3.63636374e-01, 2.27272734e-01, 4.54545468e-01, 1.81818187e-01,
          9.09090936e-02 ]
      - [ 0., 0., 0., 0., 0., 0., 0., 0., 0., 0., 0., 0., 0., 0., 0., 0.,
          0., 4.34782617e-02, 1., 8.04347813e-01, 2.60869563e-01,
          1.08695649e-01, 1.30434781e-01, 1.52173907e-01, 1.08695649e-01,
          4.34782617e-02, 6.52173907e-02, 6.52173907e-02, 1.08695649e-01,
          8.69565234e-02, 6.52173907e-02, 8.69565234e-02 ]
      - [ 0., 0., 0., 0., 0., 0., 0., 0., 0., 4.00000006e-01,
          3.33333343e-01, 1.33333340e-01, 4.66666669e-01, 4.00000006e-01,
          1., 4.00000006e-01, 6.66666701e-02, 5.33333361e-01, 1.,
          1.33333340e-01, 2.66666681e-01, 0., 1.33333340e-01,
          4.66666669e-01, 3.33333343e-01, 6.66666701e-02, 5.33333361e-01,
          6.66666687e-01, 4.66666669e-01, 8.66666675e-01, 5.33333361e-01,
          4.00000006e-01 ]
      - [ 0., 0., 0., 0., 0., 0., 0., 0., 0., 0., 1.33333340e-01, 0., 0.,
          2.66666681e-01, 4.00000006e-01, 3.33333343e-01, 3.33333343e-01,
          4.66666669e-01, 4.66666669e-01, 7.33333349e-01, 6.66666687e-01,
          7.33333349e-01, 9.33333337e-01, 1., 4.00000006e-01,
          6.66666687e-01, 2.00000003e-01, 3.33333343e-01, 4.66666669e-01,
          6.66666687e-01, 2.00000003e-01, 2.00000003e-01 ]
      - [ 0., 0., 0., 0., 0., 0., 0., 0., 0., 0., 0., 0., 0., 0., 0.,
          4.16666679e-02, 1.25000000e-01, 8.33333358e-02, 4.16666657e-01,
          4.16666657e-01, 1., 6.66666687e-01, 2.08333328e-01,
          3.33333343e-01, 4.16666657e-01, 5.83333313e-01, 3.33333343e-01,
          3.75000000e-01, 3.33333343e-01, 1.25000000e-01, 2.08333328e-01,
          3.33333343e-01 ]
      - [ 0., 0., 0., 0., 0., 0., 0., 0., 0., 0., 0., 0., 0.,
          5.26315793e-02, 1.05263159e-01, 5.26315793e-02, 1.05263159e-01,
          1.57894731e-01, 4.73684222e-01, 1., 5.78947365e-01,
          3.68421048e-01, 6.31578922e-01, 4.73684222e-01, 4.73684222e-01,
          5.26315808e-01, 3.15789461e-01, 7.36842096e-01, 5.26315808e-01,
          4.21052635e-01, 4.73684222e-01, 1.05263159e-01 ]
      - [ 0., 0., 0., 0., 0., 0., 0., 0., 0., 0., 0., 6.66666701e-02, 0.,
          6.66666701e-02, 6.66666701e-02, 2.66666681e-01, 2.00000003e-01,
          6.00000024e-01, 5.33333361e-01, 5.33333361e-01, 1.,
          8.66666675e-01, 3.33333343e-01, 7.33333349e-01, 6.00000024e-01,
          5.33333361e-01, 7.33333349e-01, 6.00000024e-01, 7.33333349e-01,
          6.00000024e-01, 3.33333343e-01, 2.00000003e-01 ]
      - [ 0., 0., 0., 0., 0., 0., 0., 0., 0., 0., 0., 0., 0.,
          6.45161271e-02, 6.45161271e-02, 3.22580636e-01, 1.61290318e-01,
          3.87096763e-01, 9.67741907e-02, 2.25806445e-01, 1.,
          1.93548381e-01, 3.54838699e-01, 2.25806445e-01, 6.45161271e-02,
          1.29032254e-01, 3.22580636e-02, 1.93548381e-01, 2.90322572e-01,
          2.58064508e-01, 2.58064508e-01, 3.22580636e-01 ]
      - [ 0., 0., 0., 0., 0., 0., 0., 0., 0., 1.53846160e-01,
          3.07692319e-01, 3.07692319e-01, 3.84615391e-01, 4.61538464e-01,
          1., 9.23076928e-01, 5.38461566e-01, 3.84615391e-01,
          3.84615391e-01, 6.15384638e-01, 4.61538464e-01, 6.92307711e-01,
          6.92307711e-01, 3.07692319e-01, 1., 5.38461566e-01,
          2.30769232e-01, 1.53846160e-01, 1.53846160e-01, 4.61538464e-01,
          4.61538464e-01, 4.61538464e-01 ]
      - [ 0., 0., 0., 0., 0., 0., 0., 0., 0., 0., 0., 0., 3.33333351e-02,
          4.00000006e-01, 8.33333313e-01, 1., 3.00000012e-01,
          6.66666701e-02, 6.66666701e-02, 1.33333340e-01, 3.33333351e-02,
          1.66666672e-01, 1.33333340e-01, 1.33333340e-01, 1.00000001e-01,
          2.00000003e-01, 2.33333334e-01, 1.66666672e-01, 2.66666681e-01,
          1.33333340e-01, 3.00000012e-01, 1.00000001e-01 ]
      - [ 0., 0., 0., 0., 0., 0., 0., 0., 0., 0., 0., 0., 0., 0.,
          1.16279073e-01, 4.41860467e-01, 2.09302321e-01, 1.,
          3.02325577e-01, 4.65116277e-02, 1.16279073e-01, 6.97674453e-02,
          1.16279073e-01, 9.30232555e-02, 1.16279073e-01, 9.30232555e-02,
          6.97674453e-02, 1.39534891e-01, 1.62790701e-01, 9.30232555e-02,
          6.97674453e-02, 9.30232555e-02 ]
      - [ 0., 0., 0., 0., 0., 0., 0., 1.57894731e-01, 2.10526317e-01,
          1.31578952e-01, 7.89473653e-02, 2.36842111e-01, 2.63157897e-02,
          5.26315793e-02, 5.26315793e-02, 7.89473653e-02, 1.84210524e-01,
          1.05263159e-01, 1., 3.94736856e-01, 1.05263159e-01,
          7.89473653e-02, 2.63157897e-02, 1.31578952e-01, 7.89473653e-02,
          2.63157897e-02, 7.89473653e-02, 5.26315793e-02, 7.89473653e-02,
          1.05263159e-01, 7.89473653e-02, 2.36842111e-01 ]
      - [ 0., 0., 0., 0., 0., 0., 0., 0., 0., 0., 0., 0., 1.53846160e-01,
          3.07692319e-01, 1., 8.07692289e-01, 9.23076928e-01,
          3.46153855e-01, 1.53846160e-01, 2.30769232e-01, 3.46153855e-01,
          1.15384616e-01, 1.53846160e-01, 1.15384616e-01, 1.53846160e-01,
          1.92307696e-01, 3.84615399e-02, 2.30769232e-01, 1.15384616e-01,
          0., 3.84615399e-02, 1.15384616e-01 ]
      - [ 0., 0., 0., 0., 0., 0., 0., 0., 0., 0., 0., 0., 0., 0., 0., 0.,
          0., 8.82352963e-02, 1.47058830e-01, 1., 8.82352948e-01,
          1.47058830e-01, 2.94117659e-01, 2.05882356e-01, 3.52941185e-01,
          2.35294119e-01, 1.47058830e-01, 1.47058830e-01, 1.47058830e-01,
          2.05882356e-01, 5.88235296e-02, 1.76470593e-01 ]
      - [ 0., 0., 0., 0., 0., 0., 4.73684222e-01, 2.10526317e-01,
          4.21052635e-01, 5.26315793e-02, 2.63157904e-01, 2.10526317e-01,
          1.57894731e-01, 2.63157904e-01, 5.26315793e-02, 1.57894731e-01,
          3.68421048e-01, 1., 2.10526317e-01, 3.68421048e-01,
          3.15789461e-01, 2.10526317e-01, 1.57894731e-01, 5.26315793e-02,
          1.05263159e-01, 1.57894731e-01, 3.15789461e-01, 3.68421048e-01,
          3.68421048e-01, 3.68421048e-01, 6.84210539e-01, 2.63157904e-01 ]
      - [ 0., 0., 0., 0., 0., 0., 0., 0., 0., 0., 0., 8.33333358e-02,
          1.66666672e-01, 1.66666672e-01, 1.25000000e-01, 6.25000000e-01,
          2.91666657e-01, 2.50000000e-01, 1., 6.66666687e-01,
          5.00000000e-01, 1.25000000e-01, 2.50000000e-01, 5.83333313e-01,
          2.91666657e-01, 2.08333328e-01, 0., 1.25000000e-01,
          1.25000000e-01, 1.66666672e-01, 8.33333358e-02, 1.66666672e-01 ]
      - [ 0., 0., 0., 0., 0., 0., 0., 0., 0., 5.33333361e-01,
          4.66666669e-01, 5.33333361e-01, 2.00000003e-01, 2.00000003e-01,
          6.66666687e-01, 9.33333337e-01, 1., 5.33333361e-01,
          4.66666669e-01, 1.33333340e-01, 2.66666681e-01, 3.33333343e-01,
          2.66666681e-01, 2.66666681e-01, 2.00000003e-01, 4.00000006e-01,
          6.66666701e-02, 3.33333343e-01, 2.66666681e-01, 4.00000006e-01,
          6.00000024e-01, 5.33333361e-01 ]
      - [ 0., 0., 0., 0., 0., 0., 0., 2.69230783e-01, 5.76923072e-01,
          1.15384616e-01, 2.30769232e-01, 1.15384616e-01, 7.69230798e-02,
          0., 3.84615399e-02, 3.84615399e-02, 1.53846160e-01,
          1.15384616e-01, 4.23076928e-01, 3.07692319e-01, 1.,
          3.07692319e-01, 2.30769232e-01, 7.69230798e-02, 3.84615399e-02,
          3.46153855e-01, 1.92307696e-01, 1.15384616e-01, 1.15384616e-01,
          1.15384616e-01, 2.30769232e-01, 3.07692319e-01 ]
      - [ 0., 0., 0., 0., 0., 0., 1.21951222e-01, 3.65853667e-01,
          2.43902445e-01, 4.87804860e-02, 9.75609720e-02, 7.31707290e-02,
          7.31707290e-02, 7.31707290e-02, 4.87804860e-02, 2.43902430e-02,
          1.21951222e-01, 9.75609720e-02, 1., 1.95121944e-01,
          1.46341458e-01, 7.31707290e-02, 0., 9.75609720e-02,
          9.75609720e-02, 1.70731708e-01, 1.70731708e-01, 2.43902430e-02,
          2.43902430e-02, 2.43902430e-02, 2.43902430e-02, 7.31707290e-02 ]
      - [ 0., 0., 0., 0., 0., 0., 0., 0., 0., 0., 0., 0., 0., 0.,
          9.09090936e-02, 1.36363640e-01, 1.36363640e-01, 1.36363640e-01,
          1.36363640e-01, 8.63636374e-01, 1., 5.00000000e-01,
          1.81818187e-01, 3.18181813e-01, 9.09090936e-02, 3.18181813e-01,
          4.09090906e-01, 1.81818187e-01, 9.09090936e-02, 6.81818187e-01,
          5.90909064e-01, 6.81818187e-01 ]
      - [ 0., 0., 0., 0., 0., 0., 0., 0., 0., 0., 0., 0., 0., 0., 0., 0.,
          5.26315793e-02, 1.05263159e-01, 1., 6.84210539e-01,
          2.63157904e-01, 3.15789461e-01, 1.84210524e-01, 1.57894731e-01,
          2.36842111e-01, 7.89473653e-02, 1.31578952e-01, 1.57894731e-01,
          7.89473653e-02, 7.89473653e-02, 1.31578952e-01, 1.31578952e-01 ]
      - [ 0., 0., 0., 0., 0., 0., 0., 0., 0., 0., 0., 0., 6.45161271e-02,
          1.93548381e-01, 6.45161271e-02, 6.45161271e-02, 2.58064508e-01,
          1.29032254e-01, 4.83870953e-01, 1., 5.80645144e-01,
          2.58064508e-01, 2.58064508e-01, 1.29032254e-01, 6.45161271e-02,
          3.22580636e-02, 1.29032254e-01, 2.90322572e-01, 3.54838699e-01,
          6.45161271e-02, 1.29032254e-01, 9.67741907e-02 ]
      - [ 0., 0., 0., 0., 0., 0., 0., 0., 0., 0., 0., 0., 0., 0., 0., 0.,
          0., 4.34782617e-02, 8.69565234e-02, 6.52173936e-01, 1.,
          5.21739125e-01, 5.65217376e-01, 5.65217376e-01, 3.91304344e-01,
          8.26086938e-01, 8.26086938e-01, 3.47826093e-01, 8.69565234e-02,
          4.34782617e-02, 1.30434781e-01, 1.73913047e-01 ]
      - [ 0., 0., 0., 0., 0., 0., 0., 0., 1.36363640e-01, 1.81818187e-01,
          0., 1.81818187e-01, 4.54545468e-02, 9.09090936e-02, 0., 0.,
          9.09090936e-02, 0., 3.63636374e-01, 8.63636374e-01,
          5.45454562e-01, 1., 5.00000000e-01, 3.18181813e-01,
          1.36363640e-01, 2.27272734e-01, 1.36363640e-01, 2.27272734e-01,
          3.63636374e-01, 5.45454562e-01, 4.09090906e-01, 1.81818187e-01 ]
      - [ 0., 0., 0., 0., 0., 0., 0., 0., 0., 0., 0., 0., 0., 0.,
          1.76470593e-01, 1.76470593e-01, 4.70588237e-01, 2.94117659e-01,
          2.94117659e-01, 8.23529422e-01, 7.64705896e-01, 8.23529422e-01,
          6.47058845e-01, 1., 9.41176474e-01, 5.88235319e-01,
          3.52941185e-01, 2.35294119e-01, 2.35294119e-01, 1.76470593e-01,
          1.17647059e-01, 3.52941185e-01 ]
      - [ 0., 0., 0., 0., 0., 0., 0., 0., 0., 0., 0., 3.44827585e-02,
          1.37931034e-01, 3.44827585e-02, 1.72413796e-01, 2.06896558e-01,
          7.58620679e-01, 1., 6.89655185e-01, 3.10344815e-01,
          2.41379306e-01, 1.03448279e-01, 6.89655170e-02, 3.44827585e-02,
          2.75862068e-01, 2.41379306e-01, 3.44827585e-02, 1.03448279e-01,
          1.37931034e-01, 2.41379306e-01, 3.44827585e-02, 1.03448279e-01 ]
      - [ 0., 0., 0., 0., 0., 0., 0., 0., 0., 0., 0., 0., 0., 0., 0., 0.,
          7.14285746e-02, 1.07142858e-01, 4.28571433e-01, 1.,
          5.35714269e-01, 4.28571433e-01, 4.28571433e-01, 4.28571433e-01,
          3.57142866e-01, 2.14285716e-01, 4.28571433e-01, 1.42857149e-01,
          1.07142858e-01, 1.42857149e-01, 1.78571433e-01, 1.42857149e-01 ]
      - [ 0., 0., 0., 0., 0., 0., 4.76190485e-02, 1.42857149e-01,
          1.90476194e-01, 4.76190485e-02, 4.76190485e-02, 0., 0., 0., 0.,
          1.90476194e-01, 1.42857149e-01, 9.52380955e-01, 1.,
          2.38095239e-01, 5.71428597e-01, 6.19047642e-01, 2.38095239e-01,
          3.80952388e-01, 1.90476194e-01, 1.90476194e-01, 3.80952388e-01,
          6.19047642e-01, 2.38095239e-01, 1.42857149e-01, 1.90476194e-01,
          9.52380970e-02 ]
      - [ 0., 0., 0., 0., 0., 0., 0., 0., 0., 1.81818187e-01, 0.,
          4.54545468e-02, 0., 0., 9.09090936e-02, 1.36363640e-01,
          2.27272734e-01, 9.09090936e-02, 3.18181813e-01, 1.,
          7.72727251e-01, 1., 6.36363626e-01, 3.18181813e-01,
          2.27272734e-01, 1.36363640e-01, 2.27272734e-01, 6.36363626e-01,
          2.72727281e-01, 9.09090936e-02, 9.09090936e-02, 4.54545468e-02 ]
      - [ 0., 0., 0., 0., 0., 0., 0., 1.05263159e-01, 1.05263159e-01,
          5.26315793e-02, 0., 1.57894731e-01, 5.26315793e-02, 0.,
          1.05263159e-01, 2.63157904e-01, 1.05263159e-01, 1.05263159e-01,
          2.63157904e-01, 4.21052635e-01, 6.31578922e-01, 6.84210539e-01,
          4.73684222e-01, 5.78947365e-01, 1., 8.94736826e-01,
          1.57894731e-01, 6.84210539e-01, 2.63157904e-01, 2.10526317e-01,
          1.05263159e-01, 1.57894731e-01 ]
      - [ 0., 0., 0., 0., 0., 0., 0., 0., 0., 0., 0., 0., 0.,
          6.25000000e-02, 0., 6.25000000e-02, 0., 6.25000000e-02, 1., 1.,
          3.75000000e-01, 1.25000000e-01, 9.37500000e-02, 9.37500000e-02,
          1.25000000e-01, 2.81250000e-01, 3.12500000e-02, 1.87500000e-01,
          5.00000000e-01, 3.12500000e-01, 1.25000000e-01, 6.25000000e-02 ]
      - [ 0., 0., 0., 0., 0., 0., 0., 0., 0., 0., 0., 0., 7.14285746e-02,
          1.07142858e-01, 7.14285746e-02, 1.42857149e-01, 1.78571433e-01,
          2.85714298e-01, 5.00000000e-01, 1., 1., 4.28571433e-01,
          2.50000000e-01, 1.42857149e-01, 2.50000000e-01, 1.78571433e-01,
          1.42857149e-01, 1.07142858e-01, 3.57142873e-02, 1.07142858e-01,
          3.57142873e-02, 1.07142858e-01 ]
      - [ 0., 0., 0., 0., 0., 0., 0., 1.25000000e-01, 1., 3.12500000e-02,
          2.18750000e-01, 1.25000000e-01, 9.37500000e-02, 3.12500000e-02,
          1.25000000e-01, 9.37500000e-02, 4.06250000e-01, 2.18750000e-01,
          7.50000000e-01, 2.18750000e-01, 2.18750000e-01, 3.12500000e-02,
          1.25000000e-01, 9.37500000e-02, 3.12500000e-02, 9.37500000e-02,
          3.12500000e-02, 9.37500000e-02, 6.25000000e-02, 6.25000000e-02,
          9.37500000e-02, 1.25000000e-01 ]
      - [ 0., 0., 0., 0., 0., 0., 0., 0., 0., 0., 0., 0., 0., 0.,
          9.37500000e-02, 6.25000000e-02, 3.12500000e-02, 0., 1.,
          7.81250000e-01, 1.87500000e-01, 9.37500000e-02, 1.25000000e-01,
          1.87500000e-01, 9.37500000e-02, 3.75000000e-01, 4.06250000e-01,
          1.87500000e-01, 5.31250000e-01, 1.25000000e-01, 6.25000000e-02,
          1.56250000e-01 ]
      - [ 0., 0., 0., 0., 0., 0., 0., 0., 0., 0., 0., 0., 0., 0.,
          5.00000007e-02, 5.00000007e-02, 5.00000007e-02, 2.50000000e-01,
          8.50000024e-01, 5.50000012e-01, 6.00000024e-01, 1.,
          5.50000012e-01, 6.99999988e-01, 4.00000006e-01, 3.00000012e-01,
          2.50000000e-01, 2.00000003e-01, 2.50000000e-01, 3.49999994e-01,
          5.50000012e-01, 2.50000000e-01 ]
      - [ 0., 0., 0., 0., 0., 0., 0., 0., 0., 2.05882356e-01,
          2.35294119e-01, 1.47058830e-01, 1.76470593e-01, 1.76470593e-01,
          1.17647059e-01, 0., 0., 2.35294119e-01, 6.47058845e-01,
          2.94117659e-01, 1., 1.47058830e-01, 5.88235296e-02,
          8.82352963e-02, 5.88235296e-02, 5.88235296e-02, 8.82352963e-02,
          5.88235296e-02, 8.82352963e-02, 2.94117648e-02, 1.17647059e-01,
          2.05882356e-01 ]
      - [ 0., 0., 0., 0., 0., 0., 0., 3.84615399e-02, 0., 3.84615399e-02,
          3.84615399e-02, 0., 3.84615399e-02, 3.84615399e-02,
          7.69230798e-02, 2.69230783e-01, 7.69230783e-01, 1.,
          7.69230783e-01, 3.46153855e-01, 3.07692319e-01, 1.53846160e-01,
          3.84615391e-01, 1.53846160e-01, 1.53846160e-01, 2.30769232e-01,
          3.84615399e-02, 7.69230798e-02, 1.53846160e-01, 2.30769232e-01,
          7.69230798e-02, 1.53846160e-01 ]
      - [ 0., 0., 0., 0., 0., 0., 0., 0., 0., 5.55555582e-01,
          1.11111112e-01, 0., 5.55555560e-02, 0., 5.55555560e-02,
          1.11111112e-01, 1.11111112e-01, 1.11111112e-01, 2.77777791e-01,
          1.66666672e-01, 8.33333313e-01, 2.77777791e-01, 3.33333343e-01,
          5.55555582e-01, 3.33333343e-01, 5.55555582e-01, 1.,
          8.33333313e-01, 5.55555582e-01, 2.77777791e-01, 4.44444448e-01,
          4.44444448e-01 ]
      - [ 0., 0., 0., 0., 0., 0., 0., 0., 0., 0., 0., 0., 0., 0., 0.,
          4.34782617e-02, 1.30434781e-01, 8.69565234e-02, 3.47826093e-01,
          3.47826093e-01, 5.65217376e-01, 6.95652187e-01, 3.47826093e-01,
          5.21739125e-01, 4.34782594e-01, 1., 6.08695626e-01,
          2.17391297e-01, 2.17391297e-01, 2.60869563e-01, 8.69565234e-02,
          3.47826093e-01 ]
      - [ 0., 0., 0., 0., 0., 0., 0., 0., 0., 0., 0., 0., 0., 0., 0.,
          1.87500000e-01, 1.25000000e-01, 7.50000000e-01, 1.,
          9.37500000e-01, 5.00000000e-01, 6.87500000e-01, 5.62500000e-01,
          4.37500000e-01, 5.62500000e-01, 6.87500000e-01, 6.25000000e-01,
          5.00000000e-01, 3.75000000e-01, 4.37500000e-01, 2.50000000e-01,
          3.75000000e-01 ]
      - [ 0., 0., 0., 0., 0., 0., 0., 0., 0., 0., 0., 0., 0., 0., 0.,
          4.76190485e-02, 3.33333343e-01, 1.42857149e-01, 2.85714298e-01,
          4.28571433e-01, 4.28571433e-01, 6.66666687e-01, 5.23809552e-01,
          2.85714298e-01, 4.28571433e-01, 4.28571433e-01, 6.19047642e-01,
          3.80952388e-01, 3.33333343e-01, 2.85714298e-01, 2.38095239e-01,
          1. ]
      - [ 0., 0., 0., 0., 0., 0., 0., 0., 0., 4.76190485e-02, 0., 0.,
          4.76190485e-02, 9.52380970e-02, 1.42857149e-01, 1.90476194e-01,
          5.71428597e-01, 1., 6.19047642e-01, 2.85714298e-01,
          4.28571433e-01, 3.33333343e-01, 2.85714298e-01, 2.85714298e-01,
          4.28571433e-01, 3.80952388e-01, 3.33333343e-01, 3.33333343e-01,
          3.80952388e-01, 2.85714298e-01, 1.90476194e-01, 1.90476194e-01 ]
      - [ 0., 0., 0., 0., 0., 0., 0., 0., 0., 0., 0., 0., 0., 0., 0.,
          2.56410260e-02, 2.56410260e-02, 1.53846160e-01, 1.,
          6.92307711e-01, 3.33333343e-01, 2.05128208e-01, 2.56410271e-01,
          3.07692319e-01, 2.56410260e-02, 2.56410260e-02, 1.02564104e-01,
          2.56410260e-02, 7.69230798e-02, 1.53846160e-01, 1.53846160e-01,
          1.28205135e-01 ]
      - [ 0., 0., 0., 0., 0., 0., 0., 0., 0., 0., 0., 0., 1.25000000e-01,
          4.16666679e-02, 8.33333358e-02, 1.25000000e-01, 4.16666679e-02,
          1.25000000e-01, 8.33333313e-01, 1., 9.16666687e-01,
          4.16666657e-01, 3.33333343e-01, 2.50000000e-01, 2.50000000e-01,
          3.33333343e-01, 4.16666679e-02, 1.25000000e-01, 3.33333343e-01,
          1.25000000e-01, 8.33333358e-02, 4.16666657e-01 ]
      - [ 0., 0., 0., 0., 0., 0., 0., 0., 0., 0., 7.99999982e-02, 0.,
          1.19999997e-01, 1.19999997e-01, 7.99999982e-02, 4.79999989e-01,
          6.39999986e-01, 1., 2.39999995e-01, 2.00000003e-01,
          3.19999993e-01, 2.00000003e-01, 2.39999995e-01, 2.80000001e-01,
          1.59999996e-01, 3.19999993e-01, 1.59999996e-01, 1.59999996e-01,
          2.80000001e-01, 1.59999996e-01, 1.19999997e-01, 4.00000006e-01 ]
      - [ 0., 0., 0., 0., 0., 0., 0., 0., 0., 0., 0., 0., 0., 0., 0., 0.,
          0., 2.17391297e-01, 3.91304344e-01, 1., 2.39130437e-01,
          2.17391297e-01, 2.17391308e-02, 1.30434781e-01, 1.08695649e-01,
          1.08695649e-01, 8.69565234e-02, 4.34782617e-02, 1.73913047e-01,
          6.52173907e-02, 1.30434781e-01, 1.95652172e-01 ]
      - [ 0., 0., 0., 0., 0., 0., 0., 0., 0., 0., 0., 1.00000001e-01,
          1.25000000e-01, 3.24999988e-01, 1., 6.99999988e-01,
          1.00000001e-01, 7.50000030e-02, 1.00000001e-01, 7.50000030e-02,
          1.50000006e-01, 1.00000001e-01, 7.50000030e-02, 5.00000007e-02,
          7.50000030e-02, 2.50000004e-02, 5.00000007e-02, 5.00000007e-02,
          1.00000001e-01, 7.50000030e-02, 1.00000001e-01, 1.50000006e-01 ]
      - [ 0., 0., 0., 0., 0., 0., 0., 0., 0., 0., 0., 0., 0.,
          1.25000000e-01, 1.87500000e-01, 1.87500000e-01, 1.25000000e-01,
          3.12500000e-01, 6.87500000e-01, 1., 5.62500000e-01,
          3.75000000e-01, 9.37500000e-01, 8.75000000e-01, 6.25000000e-01,
          3.75000000e-01, 6.87500000e-01, 6.25000000e-01, 3.12500000e-01,
          3.75000000e-01, 3.75000000e-01, 2.50000000e-01 ]
      - [ 0., 0., 0., 0., 0., 0., 0., 0., 0., 0., 0., 0., 0.,
          4.34782617e-02, 8.69565234e-02, 8.69565234e-02, 1.30434781e-01,
          2.17391297e-01, 2.60869563e-01, 4.78260875e-01, 1.,
          6.08695626e-01, 6.95652187e-01, 4.34782594e-01, 3.04347813e-01,
          6.52173936e-01, 3.91304344e-01, 1.30434781e-01, 2.60869563e-01,
          1.73913047e-01, 1.73913047e-01, 1.30434781e-01 ]
      - [ 0., 0., 0., 0., 0., 0., 0., 0., 0., 0., 0., 0., 9.09090936e-02,
          0., 0., 0., 9.09090936e-02, 1.81818187e-01, 0., 2.72727281e-01,
          5.90909064e-01, 1., 5.90909064e-01, 4.54545468e-01,
          5.45454562e-01, 2.27272734e-01, 3.18181813e-01, 2.72727281e-01,
          5.00000000e-01, 3.63636374e-01, 5.45454562e-01, 5.00000000e-01 ]
      - [ 0., 0., 0., 0., 0., 0., 0., 0., 0., 0., 0., 0., 0., 0., 0.,
          4.76190485e-02, 4.76190485e-02, 1.90476194e-01, 3.80952388e-01,
          6.19047642e-01, 1., 3.80952388e-01, 9.52380955e-01,
          3.33333343e-01, 5.71428597e-01, 3.80952388e-01, 5.23809552e-01,
          3.33333343e-01, 3.80952388e-01, 9.52380970e-02, 3.80952388e-01,
          2.38095239e-01 ]
      - [ 0., 0., 0., 0., 0., 0., 0., 0., 0., 0., 0., 0., 0.,
          4.16666679e-02, 1.25000000e-01, 1.66666672e-01, 4.16666657e-01,
          6.25000000e-01, 1., 1., 5.41666687e-01, 1.25000000e-01,
          2.08333328e-01, 2.50000000e-01, 3.33333343e-01, 2.08333328e-01,
          1.66666672e-01, 1.25000000e-01, 3.33333343e-01, 4.16666679e-02,
          1.66666672e-01, 1.25000000e-01 ]
      - [ 0., 0., 0., 0., 0., 0., 0., 7.14285746e-02, 2.14285716e-01,
          1.42857149e-01, 7.14285746e-02, 7.14285746e-02, 0.,
          2.85714298e-01, 7.14285731e-01, 8.57142866e-01, 3.57142866e-01,
          3.57142866e-01, 1.42857149e-01, 2.85714298e-01, 3.57142866e-01,
          3.57142866e-01, 4.28571433e-01, 3.57142866e-01, 7.85714269e-01,
          1., 1., 7.85714269e-01, 5.00000000e-01, 5.00000000e-01,
          4.28571433e-01, 2.14285716e-01 ]
      - [ 0., 0., 0., 0., 0., 0., 0., 0., 0., 0., 2.17391297e-01,
          8.69565234e-02, 8.69565234e-02, 0., 1.73913047e-01,
          5.21739125e-01, 2.60869563e-01, 5.21739125e-01, 1.,
          8.26086938e-01, 8.26086938e-01, 1.30434781e-01, 3.04347813e-01,
          4.34782617e-02, 4.34782617e-02, 8.69565234e-02, 1.30434781e-01,
          8.69565234e-02, 2.17391297e-01, 1.30434781e-01, 2.17391297e-01,
          3.47826093e-01 ]
      - [ 0., 0., 0., 0., 0., 0., 0., 1.78571437e-02, 1.78571437e-02,
          5.35714291e-02, 1.78571437e-02, 1.78571437e-02, 5.35714291e-02,
          3.57142873e-02, 1.07142858e-01, 1.96428567e-01, 1.,
          1.07142858e-01, 7.14285746e-02, 5.35714291e-02, 7.14285746e-02,
          5.35714291e-02, 7.14285746e-02, 1.25000000e-01, 1.42857149e-01,
          7.14285746e-02, 3.57142873e-02, 5.35714291e-02, 5.35714291e-02,
          1.07142858e-01, 1.78571437e-02, 1.78571437e-02 ]
      - [ 0., 0., 0., 0., 0., 0., 4.76190485e-02, 4.76190485e-02,
          4.76190485e-02, 4.76190485e-02, 9.52380970e-02, 1.42857149e-01,
          2.85714298e-01, 2.85714298e-01, 1.90476194e-01, 2.38095239e-01,
          1., 2.85714298e-01, 2.38095239e-01, 3.33333343e-01,
          1.90476194e-01, 5.23809552e-01, 2.85714298e-01, 7.14285731e-01,
          3.33333343e-01, 2.85714298e-01, 2.85714298e-01, 1.90476194e-01,
          1.90476194e-01, 4.76190485e-02, 9.52380970e-02, 4.28571433e-01 ]
      - [ 0., 0., 0., 0., 0., 0., 0., 0., 0., 0., 0., 5.00000007e-02,
          1.00000001e-01, 1.00000001e-01, 2.00000003e-01, 1.50000006e-01,
          1.00000001e-01, 2.50000000e-01, 3.00000012e-01, 5.00000000e-01,
          8.00000012e-01, 1., 8.00000012e-01, 6.49999976e-01,
          3.49999994e-01, 3.49999994e-01, 4.00000006e-01, 4.49999988e-01,
          2.50000000e-01, 5.00000007e-02, 1.50000006e-01, 2.00000003e-01 ]
      - [ 0., 0., 0., 0., 0., 0., 5.88235296e-02, 5.88235296e-02,
          1.76470593e-01, 5.88235296e-02, 1.17647059e-01, 2.94117659e-01,
          3.52941185e-01, 4.70588237e-01, 2.94117659e-01, 2.35294119e-01,
          5.88235296e-02, 5.29411793e-01, 1., 1.17647059e-01,
          1.17647059e-01, 4.70588237e-01, 1.76470593e-01, 3.52941185e-01,
          4.70588237e-01, 5.29411793e-01, 6.47058845e-01, 6.47058845e-01,
          5.29411793e-01, 2.94117659e-01, 1.76470593e-01, 2.35294119e-01 ]
      - [ 0., 0., 0., 0., 0., 0., 0., 4.54545468e-02, 9.09090936e-02,
          5.45454562e-01, 4.09090906e-01, 6.81818187e-01, 2.72727281e-01,
          5.90909064e-01, 4.09090906e-01, 3.18181813e-01, 4.09090906e-01,
          1., 2.72727281e-01, 1.36363640e-01, 1.36363640e-01,
          4.54545468e-02, 0., 1.36363640e-01, 9.09090936e-02, 0.,
          1.81818187e-01, 1.36363640e-01, 9.09090936e-02, 1.36363640e-01,
          2.72727281e-01, 1.36363640e-01 ]
      - [ 0., 0., 0., 0., 0., 0., 0., 0., 2.32558139e-02, 9.30232555e-02,
          2.32558139e-02, 1.39534891e-01, 2.32558139e-02, 4.65116277e-02,
          0., 4.65116277e-02, 0., 2.32558139e-02, 2.32558139e-02,
          2.55813956e-01, 1., 1.86046511e-01, 2.79069781e-01,
          1.86046511e-01, 3.72093022e-01, 1.62790701e-01, 1.39534891e-01,
          1.62790701e-01, 2.32558139e-02, 4.65116277e-02, 4.65116277e-02,
          4.65116277e-02 ]
      - [ 0., 0., 0., 0., 0., 0., 0., 0., 0., 0., 0., 0., 0., 0., 0., 0.,
          1.85185179e-01, 3.14814806e-01, 1., 2.03703701e-01,
          5.55555560e-02, 7.40740746e-02, 3.70370373e-02, 7.40740746e-02,
          1.29629627e-01, 3.70370373e-02, 1.11111112e-01, 1.11111112e-01,
          3.70370373e-02, 7.40740746e-02, 1.11111112e-01, 1.11111112e-01 ]
      - [ 0., 0., 0., 0., 0., 0., 0., 0., 0., 0., 0., 4.16666679e-02, 0.,
          8.33333358e-02, 8.33333358e-02, 1.25000000e-01, 2.08333328e-01,
          1.66666672e-01, 6.66666687e-01, 1., 3.33333343e-01,
          2.08333328e-01, 4.16666657e-01, 3.33333343e-01, 2.08333328e-01,
          7.08333313e-01, 1.25000000e-01, 4.16666657e-01, 2.91666657e-01,
          1.25000000e-01, 2.08333328e-01, 2.50000000e-01 ]
      - [ 0., 0., 0., 0., 0., 0., 0., 1.42857149e-01, 5.00000000e-01,
          4.28571433e-01, 5.00000000e-01, 7.85714269e-01, 6.42857134e-01,
          4.28571433e-01, 5.00000000e-01, 3.57142866e-01, 1.,
          8.57142866e-01, 6.42857134e-01, 3.57142866e-01, 1.42857149e-01,
          2.85714298e-01, 1.42857149e-01, 0., 4.28571433e-01,
          6.42857134e-01, 4.28571433e-01, 2.85714298e-01, 0.,
          4.28571433e-01, 7.14285746e-02, 2.85714298e-01 ]
      - [ 0., 0., 0., 0., 0., 0., 0., 0., 1.61290318e-01, 9.67741907e-02,
          9.67741907e-02, 3.22580636e-02, 1.93548381e-01, 3.22580636e-02,
          1.29032254e-01, 1.61290318e-01, 1.61290318e-01, 3.87096763e-01,
          3.22580636e-01, 1., 8.38709652e-01, 1.61290318e-01,
          9.67741907e-02, 0., 0., 0., 3.22580636e-02, 6.45161271e-02,
          9.67741907e-02, 1.29032254e-01, 2.90322572e-01, 1.61290318e-01 ]
      - [ 0., 0., 0., 0., 0., 0., 0., 0., 5.88235296e-02, 5.29411793e-01,
          3.52941185e-01, 3.52941185e-01, 2.94117659e-01, 6.47058845e-01,
          4.11764711e-01, 5.88235319e-01, 1., 2.94117659e-01,
          5.88235296e-02, 2.35294119e-01, 1.17647059e-01, 1.76470593e-01,
          1.17647059e-01, 2.35294119e-01, 7.05882370e-01, 3.52941185e-01,
          3.52941185e-01, 4.70588237e-01, 4.70588237e-01, 2.35294119e-01,
          2.94117659e-01, 1.17647059e-01 ]
      - [ 0., 0., 0., 0., 0., 0., 0., 0., 0., 0., 1.66666672e-01,
          1.66666672e-01, 3.33333343e-01, 5.00000000e-01, 8.33333313e-01,
          5.00000000e-01, 3.33333343e-01, 5.83333313e-01, 4.16666657e-01,
          9.16666687e-01, 3.33333343e-01, 8.33333313e-01, 7.50000000e-01,
          9.16666687e-01, 1., 7.50000000e-01, 5.00000000e-01,
          5.00000000e-01, 5.00000000e-01, 1.66666672e-01, 3.33333343e-01,
          6.66666687e-01 ]
      - [ 0., 0., 0., 0., 0., 0., 0., 0., 0., 2.08333340e-02, 0.,
          6.25000000e-02, 6.25000000e-02, 8.33333358e-02, 6.25000000e-02,
          2.08333340e-02, 1.25000000e-01, 2.50000000e-01, 2.70833343e-01,
          1., 3.75000000e-01, 1.25000000e-01, 1.25000000e-01,
          2.08333340e-02, 1.45833328e-01, 4.16666679e-02, 2.08333340e-02,
          6.25000000e-02, 2.08333340e-02, 2.08333340e-02, 2.08333340e-02,
          6.25000000e-02 ]
      - [ 0., 0., 0., 0., 0., 0., 2.50000000e-01, 3.00000012e-01, 0.,
          2.00000003e-01, 1.00000001e-01, 5.00000007e-02, 4.00000006e-01,
          5.00000000e-01, 7.50000000e-01, 6.99999988e-01, 1.,
          3.49999994e-01, 3.49999994e-01, 2.50000000e-01, 0.,
          5.00000007e-02, 2.00000003e-01, 5.00000007e-02, 5.00000007e-02,
          2.00000003e-01, 1.50000006e-01, 1.00000001e-01, 1.00000001e-01,
          2.50000000e-01, 3.49999994e-01, 5.00000000e-01 ]
      - [ 0., 0., 0., 0., 0., 0., 1.25000000e-01, 3.33333343e-01,
          1.66666672e-01, 8.33333358e-02, 4.16666679e-02, 4.16666679e-02,
          8.33333358e-02, 2.08333328e-01, 4.16666657e-01, 3.75000000e-01,
          1., 6.66666687e-01, 2.91666657e-01, 1.66666672e-01,
          1.25000000e-01, 8.33333358e-02, 0., 2.50000000e-01,
          4.16666679e-02, 8.33333358e-02, 8.33333358e-02, 2.50000000e-01,
          8.33333358e-02, 2.91666657e-01, 4.16666657e-01, 2.91666657e-01 ]
      - [ 0., 0., 0., 0., 0., 0., 0., 0., 0., 1.50000006e-01,
          1.00000001e-01, 1.00000001e-01, 3.00000012e-01, 1.50000006e-01,
          2.00000003e-01, 1.50000006e-01, 5.50000012e-01, 4.00000006e-01,
          5.00000000e-01, 1., 5.50000012e-01, 4.49999988e-01,
          3.49999994e-01, 5.50000012e-01, 1.50000006e-01, 5.00000007e-02,
          3.00000012e-01, 4.00000006e-01, 1.00000001e-01, 2.00000003e-01,
          3.49999994e-01, 1.50000006e-01 ]
      - [ 0., 0., 0., 0., 0., 0., 0., 0., 2.17391308e-02, 6.52173907e-02,
          0., 0., 4.34782617e-02, 4.34782617e-02, 6.52173907e-02,
          6.52173907e-02, 0., 4.34782617e-02, 1.08695649e-01,
          7.39130437e-01, 1., 1.52173907e-01, 1.52173907e-01,
          1.73913047e-01, 2.17391297e-01, 8.69565234e-02, 2.17391308e-02,
          0., 2.17391308e-02, 2.17391308e-02, 4.34782617e-02,
          4.34782617e-02 ]
      - [ 0., 0., 0., 0., 0., 0., 0., 0., 0., 0., 0., 0., 0., 0., 0., 0.,
          0., 0., 6.25000000e-02, 1., 7.18750000e-01, 1.87500000e-01,
          3.12500000e-02, 1.87500000e-01, 7.18750000e-01, 2.50000000e-01,
          9.37500000e-02, 1.25000000e-01, 1.56250000e-01, 1.87500000e-01,
          4.37500000e-01, 3.43750000e-01 ]
      - [ 0., 0., 0., 0., 0., 0., 0., 0., 5.55555560e-02, 5.55555560e-02,
          8.33333358e-02, 2.77777780e-02, 8.33333358e-02, 2.77777780e-02,
          0., 0., 8.33333358e-02, 1.94444448e-01, 6.66666687e-01,
          1.66666672e-01, 8.33333358e-02, 5.55555560e-02, 2.77777780e-02,
          1.11111112e-01, 0., 1.38888896e-01, 3.61111104e-01,
          4.44444448e-01, 1., 2.50000000e-01, 5.55555560e-02,
          2.77777780e-02 ]
      - [ 0., 0., 0., 0., 0., 0., 6.66666701e-02, 1.55555561e-01,
          6.66666701e-02, 1.77777782e-01, 8.88888910e-02, 6.66666701e-02,
          6.66666701e-02, 4.44444455e-02, 6.66666701e-02, 8.88888910e-02,
          2.66666681e-01, 1., 1.77777782e-01, 8.88888910e-02,
          4.44444455e-02, 6.66666701e-02, 6.66666701e-02, 4.44444455e-02,
          4.44444455e-02, 2.22222228e-02, 8.88888910e-02, 2.22222228e-02,
          8.88888910e-02, 8.88888910e-02, 1.11111112e-01, 8.88888910e-02 ]
      - [ 0., 0., 0., 0., 0., 0., 0., 0., 0., 6.00000024e-01,
          4.00000006e-01, 5.00000007e-02, 5.00000007e-02, 1.00000001e-01,
          5.00000007e-02, 1.50000006e-01, 5.00000007e-02, 2.50000000e-01,
          5.00000000e-01, 6.99999988e-01, 5.00000000e-01, 1.,
          2.50000000e-01, 4.49999988e-01, 3.00000012e-01, 2.50000000e-01,
          2.50000000e-01, 1.00000001e-01, 1.50000006e-01, 3.49999994e-01,
          3.00000012e-01, 4.00000006e-01 ]
      - [ 0., 0., 0., 0., 0., 0., 0., 0., 0., 0., 0., 8.69565234e-02, 0.,
          0., 4.34782617e-02, 0., 4.34782617e-02, 3.04347813e-01,
          4.34782617e-02, 4.78260875e-01, 1., 5.21739125e-01,
          3.47826093e-01, 6.52173936e-01, 4.34782594e-01, 3.47826093e-01,
          5.65217376e-01, 5.21739125e-01, 1.30434781e-01, 2.60869563e-01,
          2.60869563e-01, 2.17391297e-01 ]
      - [ 0., 0., 0., 0., 0., 0., 0., 0., 4.23076928e-01, 6.15384638e-01,
          1.15384616e-01, 0., 1.15384616e-01, 3.84615399e-02, 0.,
          1.15384616e-01, 1.15384616e-01, 3.46153855e-01, 1.,
          6.15384638e-01, 1.92307696e-01, 1.15384616e-01, 7.69230798e-02,
          1.53846160e-01, 1.15384616e-01, 1.15384616e-01, 1.15384616e-01,
          1.15384616e-01, 1.92307696e-01, 4.23076928e-01, 1.92307696e-01,
          2.30769232e-01 ]
      - [ 0., 0., 0., 0., 0., 0., 0., 0., 3.68421048e-01, 3.68421048e-01,
          2.63157904e-01, 1.57894731e-01, 2.10526317e-01, 2.10526317e-01,
          3.68421048e-01, 3.68421048e-01, 4.21052635e-01, 4.73684222e-01,
          4.21052635e-01, 2.63157904e-01, 1., 7.89473712e-01,
          5.26315808e-01, 3.15789461e-01, 1.57894731e-01, 2.10526317e-01,
          1.57894731e-01, 1.57894731e-01, 1.05263159e-01, 1.05263159e-01,
          1.05263159e-01, 5.26315793e-02 ]
      - [ 0., 0., 0., 0., 0., 0., 0., 0., 0., 0., 0., 5.40540554e-02,
          2.70270258e-01, 4.32432443e-01, 2.16216221e-01, 1.,
          2.16216221e-01, 2.16216221e-01, 5.40540554e-02, 5.40540554e-02,
          8.10810775e-02, 8.10810775e-02, 1.62162155e-01, 8.10810775e-02,
          1.35135129e-01, 1.08108111e-01, 1.08108111e-01, 1.62162155e-01,
          5.40540554e-02, 1.89189196e-01, 1.35135129e-01, 8.10810775e-02 ]
      - [ 0., 0., 0., 0., 0., 0., 2.85714287e-02, 2.00000003e-01,
          2.85714287e-02, 8.57142881e-02, 8.57142881e-02, 5.71428575e-02,
          2.85714287e-02, 2.57142872e-01, 2.85714298e-01, 2.85714298e-01,
          4.28571433e-01, 1., 5.14285743e-01, 2.00000003e-01, 0.,
          5.71428575e-02, 2.85714287e-02, 2.85714287e-02, 0.,
          8.57142881e-02, 2.85714287e-02, 5.71428575e-02, 0., 0., 0.,
          3.42857152e-01 ]
      - [ 0., 0., 0., 0., 0., 0., 0., 0., 0., 0., 0., 0., 5.00000007e-02,
          5.00000007e-02, 0., 1.00000001e-01, 2.00000003e-01,
          7.50000000e-01, 1., 6.49999976e-01, 4.49999988e-01,
          6.49999976e-01, 5.00000000e-01, 3.49999994e-01, 5.50000012e-01,
          5.00000000e-01, 3.49999994e-01, 2.00000003e-01, 3.00000012e-01,
          2.00000003e-01, 2.00000003e-01, 1.50000006e-01 ]
      - [ 0., 0., 0., 0., 0., 0., 0., 0., 0., 0., 0., 3.84615399e-02,
          3.84615399e-02, 0., 0., 7.69230798e-02, 1.92307696e-01,
          1.53846160e-01, 4.61538464e-01, 2.69230783e-01, 3.84615391e-01,
          5.00000000e-01, 1., 1.15384616e-01, 1.92307696e-01,
          3.07692319e-01, 2.30769232e-01, 1.53846160e-01, 2.30769232e-01,
          3.07692319e-01, 4.61538464e-01, 4.23076928e-01 ]
      - [ 0., 0., 0., 0., 0., 0., 0., 0., 0., 0., 0., 3.07692319e-01,
          9.23076928e-01, 6.15384638e-01, 6.15384638e-01, 3.84615391e-01,
          3.07692319e-01, 4.61538464e-01, 7.69230783e-01, 7.69230783e-01,
          3.84615391e-01, 1., 2.30769232e-01, 6.15384638e-01,
          5.38461566e-01, 2.30769232e-01, 6.15384638e-01, 6.92307711e-01,
          7.69230783e-01, 2.30769232e-01, 2.30769232e-01, 3.84615391e-01 ]
      - [ 0., 0., 0., 0., 0., 0., 0., 0., 0., 0., 0., 0., 0., 0., 0., 0.,
          4.54545468e-02, 3.18181813e-01, 2.72727281e-01, 6.36363626e-01,
          1., 5.00000000e-01, 7.72727251e-01, 5.45454562e-01,
          3.63636374e-01, 2.72727281e-01, 3.18181813e-01, 2.72727281e-01,
          3.18181813e-01, 4.54545468e-02, 2.27272734e-01, 6.36363626e-01 ]
      - [ 0., 0., 0., 0., 0., 0., 0., 0., 0., 0., 0., 0., 6.25000000e-02,
          3.12500000e-01, 3.12500000e-01, 2.50000000e-01, 4.37500000e-01,
          7.50000000e-01, 3.12500000e-01, 5.00000000e-01, 5.62500000e-01,
          7.50000000e-01, 1., 5.00000000e-01, 8.12500000e-01,
          3.75000000e-01, 3.12500000e-01, 2.50000000e-01, 1.87500000e-01,
          4.37500000e-01, 3.75000000e-01, 5.00000000e-01 ]
      - [ 0., 0., 0., 0., 0., 0., 0., 0., 0., 0., 0., 0., 0., 0., 0.,
          4.76190485e-02, 1.66666672e-01, 1.19047619e-01, 1.42857149e-01,
          1., 4.76190478e-01, 9.52380970e-02, 9.52380970e-02,
          4.76190485e-02, 9.52380970e-02, 1.90476194e-01, 2.61904776e-01,
          9.52380970e-02, 3.09523821e-01, 1.42857149e-01, 7.14285746e-02,
          7.14285746e-02 ]
      - [ 0., 0., 0., 0., 0., 0., 2.50000000e-01, 3.49999994e-01,
          2.00000003e-01, 5.00000007e-02, 1.00000001e-01, 1.00000001e-01,
          1.50000006e-01, 5.00000007e-02, 5.50000012e-01, 5.50000012e-01,
          1., 6.00000024e-01, 6.49999976e-01, 1.00000001e-01,
          1.00000001e-01, 2.50000000e-01, 1.50000006e-01, 0.,
          2.50000000e-01, 5.00000007e-02, 2.00000003e-01, 0.,
          2.50000000e-01, 2.00000003e-01, 4.49999988e-01, 6.00000024e-01 ]
      - [ 0., 0., 0., 0., 0., 0., 0., 0., 0., 0., 0., 1.53846160e-01,
          1.15384616e-01, 7.69230798e-02, 2.69230783e-01, 1.15384616e-01,
          4.61538464e-01, 1., 7.69230783e-01, 5.38461566e-01,
          1.53846160e-01, 1.92307696e-01, 3.07692319e-01, 3.84615391e-01,
          1.53846160e-01, 7.69230798e-02, 7.69230798e-02, 1.92307696e-01,
          1.15384616e-01, 3.84615399e-02, 1.15384616e-01, 2.30769232e-01 ]
      - [ 0., 0., 0., 0., 0., 0., 0., 0., 0., 0., 0., 0., 0., 0., 0., 0.,
          0., 1.00000001e-01, 1., 5.60000002e-01, 2.19999999e-01,
          5.99999987e-02, 1.40000001e-01, 5.99999987e-02, 5.99999987e-02,
          1.00000001e-01, 3.99999991e-02, 1.00000001e-01, 5.99999987e-02,
          7.99999982e-02, 1.80000007e-01, 1.19999997e-01 ]
      - [ 0., 0., 0., 0., 0., 0., 0., 0., 0., 0., 0., 0., 0., 0., 0., 0.,
          5.35714291e-02, 3.92857134e-01, 1., 3.03571433e-01,
          8.92857164e-02, 1.25000000e-01, 3.57142873e-02, 3.57142873e-02,
          5.35714291e-02, 7.14285746e-02, 3.57142873e-02, 5.35714291e-02,
          8.92857164e-02, 7.14285746e-02, 7.14285746e-02, 8.92857164e-02 ]
      - [ 0., 0., 0., 0., 0., 0., 0., 0., 0., 0., 7.14285746e-02, 0., 0.,
          1.07142858e-01, 2.14285716e-01, 1.78571433e-01, 3.21428567e-01,
          5.00000000e-01, 1., 5.00000000e-01, 1.78571433e-01,
          1.42857149e-01, 2.50000000e-01, 3.21428567e-01, 2.85714298e-01,
          3.21428567e-01, 2.14285716e-01, 1.42857149e-01, 1.07142858e-01,
          3.57142873e-02, 1.42857149e-01, 1.07142858e-01 ]
      - [ 0., 0., 0., 0., 0., 0., 2.66666681e-01, 4.00000006e-01,
          2.00000003e-01, 3.33333343e-01, 2.00000003e-01, 4.66666669e-01,
          4.00000006e-01, 1.33333340e-01, 3.33333343e-01, 4.66666669e-01,
          0., 1.33333340e-01, 2.00000003e-01, 1.33333340e-01,
          3.33333343e-01, 5.33333361e-01, 3.33333343e-01, 4.00000006e-01,
          3.33333343e-01, 4.00000006e-01, 4.66666669e-01, 4.00000006e-01,
          4.00000006e-01, 8.66666675e-01, 1., 4.66666669e-01 ]
      - [ 0., 0., 0., 0., 0., 0., 0., 0., 5.26315808e-01, 1.57894731e-01,
          1.57894731e-01, 5.26315793e-02, 5.26315793e-02, 5.26315793e-02,
          3.15789461e-01, 1.05263159e-01, 3.68421048e-01, 4.73684222e-01,
          7.36842096e-01, 1., 8.42105269e-01, 2.63157904e-01,
          2.63157904e-01, 2.63157904e-01, 3.15789461e-01, 2.10526317e-01,
          2.63157904e-01, 3.68421048e-01, 3.15789461e-01, 1.05263159e-01,
          1.05263159e-01, 2.63157904e-01 ]
      - [ 0., 0., 0., 0., 0., 0., 0., 0., 0., 0., 0., 0., 0.,
          5.00000007e-02, 3.00000012e-01, 1.00000001e-01, 3.00000012e-01,
          4.49999988e-01, 5.50000012e-01, 1., 6.00000024e-01,
          5.00000000e-01, 6.00000024e-01, 8.99999976e-01, 6.00000024e-01,
          2.50000000e-01, 2.50000000e-01, 1.50000006e-01, 5.00000007e-02,
          2.00000003e-01, 3.00000012e-01, 5.00000007e-02 ]
      - [ 0., 0., 0., 0., 0., 0., 0., 0., 0., 4.00000006e-01, 0.,
          1.59999996e-01, 1.19999997e-01, 7.99999982e-02, 3.99999991e-02,
          0., 1.59999996e-01, 1.59999996e-01, 8.39999974e-01, 1.,
          8.79999995e-01, 5.19999981e-01, 2.39999995e-01, 2.80000001e-01,
          1.19999997e-01, 1.19999997e-01, 1.19999997e-01, 0.,
          3.99999991e-02, 7.99999982e-02, 2.00000003e-01, 2.00000003e-01 ]
      - [ 0., 0., 0., 0., 0., 0., 0., 0., 4.54545468e-02, 1.36363640e-01,
          0., 4.54545468e-02, 0., 4.54545468e-02, 4.54545468e-02,
          9.09090936e-02, 2.27272734e-01, 1.81818187e-01, 1.36363640e-01,
          3.18181813e-01, 1., 8.18181813e-01, 4.54545468e-01,
          3.63636374e-01, 2.72727281e-01, 4.54545468e-01, 5.00000000e-01,
          3.63636374e-01, 1.81818187e-01, 2.72727281e-01, 1.81818187e-01,
          4.09090906e-01 ]
      - [ 0., 0., 0., 0., 0., 0., 0., 0., 0., 0., 0., 4.16666679e-02,
          4.16666679e-02, 0., 0., 4.16666679e-02, 1.66666672e-01,
          2.50000000e-01, 3.33333343e-01, 6.66666687e-01, 1.,
          5.00000000e-01, 2.91666657e-01, 2.08333328e-01, 4.16666657e-01,
          3.33333343e-01, 2.91666657e-01, 4.58333343e-01, 4.58333343e-01,
          2.50000000e-01, 1.25000000e-01, 1.25000000e-01 ]
      - [ 0., 0., 0., 0., 0., 0., 0., 0., 0., 1.66666672e-01,
          3.33333343e-01, 5.55555560e-02, 1.66666672e-01, 2.22222224e-01,
          2.22222224e-01, 2.22222224e-01, 7.22222209e-01, 9.44444418e-01,
          4.44444448e-01, 3.88888896e-01, 2.22222224e-01, 2.77777791e-01,
          4.44444448e-01, 1.11111112e-01, 1.11111112e-01, 2.22222224e-01,
          2.77777791e-01, 5.55555560e-02, 2.77777791e-01, 4.44444448e-01,
          1., 6.66666687e-01 ]
      - [ 0., 0., 0., 0., 0., 0., 0., 0., 0., 1.66666672e-01,
          5.55555560e-02, 5.55555560e-02, 5.55555560e-02, 1.66666672e-01,
          1.66666672e-01, 5.00000000e-01, 2.77777791e-01, 2.77777791e-01,
          1., 7.77777791e-01, 3.33333343e-01, 5.00000000e-01,
          3.33333343e-01, 7.77777791e-01, 6.11111104e-01, 3.33333343e-01,
          2.22222224e-01, 4.44444448e-01, 1.66666672e-01, 4.44444448e-01,
          2.77777791e-01, 5.55555560e-02 ]
      - [ 0., 0., 0., 0., 0., 0., 0., 0., 1.07142858e-01, 1.07142858e-01,
          3.57142873e-02, 7.14285746e-02, 1.42857149e-01, 7.14285746e-02,
          3.57142873e-02, 3.57142873e-02, 7.14285746e-02, 0.,
          1.42857149e-01, 4.28571433e-01, 1., 6.07142866e-01,
          4.28571433e-01, 5.35714269e-01, 2.85714298e-01, 2.85714298e-01,
          1.78571433e-01, 2.14285716e-01, 7.14285746e-02, 7.14285746e-02,
          1.42857149e-01, 7.14285746e-02 ]
      - [ 0., 0., 0., 0., 0., 0., 0., 0., 0., 0., 5.26315793e-02,
          2.63157904e-01, 1.05263159e-01, 1.05263159e-01, 1.57894731e-01,
          5.26315793e-02, 1.05263159e-01, 1.57894731e-01, 3.68421048e-01,
          4.21052635e-01, 4.21052635e-01, 4.73684222e-01, 6.31578922e-01,
          5.78947365e-01, 1., 7.36842096e-01, 5.26315808e-01,
          4.21052635e-01, 2.63157904e-01, 3.68421048e-01, 2.10526317e-01,
          1.57894731e-01 ]
      - [ 0., 0., 0., 0., 0., 0., 1.00000001e-01, 6.99999988e-01,
          6.66666701e-02, 2.00000003e-01, 1.33333340e-01, 2.66666681e-01,
          3.33333351e-02, 1.00000001e-01, 1.00000001e-01, 6.66666701e-02,
          2.00000003e-01, 2.00000003e-01, 1., 3.00000012e-01,
          2.00000003e-01, 1.33333340e-01, 1.00000001e-01, 1.33333340e-01,
          2.00000003e-01, 2.33333334e-01, 6.66666701e-02, 3.33333351e-02,
          1.00000001e-01, 6.66666701e-02, 3.33333351e-02, 3.33333351e-02 ]
      - [ 0., 0., 0., 0., 0., 0., 0., 0., 0., 0., 2.35294119e-01,
          2.35294119e-01, 0., 0., 1.17647059e-01, 1.76470593e-01,
          1.17647059e-01, 1.17647059e-01, 1.76470593e-01, 4.70588237e-01,
          7.05882370e-01, 4.11764711e-01, 6.47058845e-01, 1.,
          8.82352948e-01, 8.23529422e-01, 4.70588237e-01, 3.52941185e-01,
          5.29411793e-01, 4.70588237e-01, 4.11764711e-01, 1.17647059e-01 ]
      - [ 0., 0., 0., 0., 0., 0., 0., 0., 0., 0., 4.54545468e-02,
          9.09090936e-02, 1.36363640e-01, 1.36363640e-01, 1.81818187e-01,
          1.36363640e-01, 2.72727281e-01, 5.00000000e-01, 9.54545438e-01,
          1., 5.45454562e-01, 1.36363640e-01, 5.00000000e-01,
          5.45454562e-01, 7.27272749e-01, 4.54545468e-02, 4.54545468e-02,
          9.09090936e-02, 9.09090936e-02, 1.81818187e-01, 4.54545468e-02,
          1.36363640e-01 ]
      - [ 0., 0., 0., 0., 0., 0., 0., 0., 0., 6.00000024e-01,
          3.33333343e-01, 1.33333340e-01, 5.33333361e-01, 4.66666669e-01,
          8.00000012e-01, 3.33333343e-01, 6.66666701e-02, 1.,
          5.33333361e-01, 3.33333343e-01, 1.33333340e-01, 1.33333340e-01,
          3.33333343e-01, 3.33333343e-01, 6.66666701e-02, 1.,
          4.66666669e-01, 2.66666681e-01, 4.00000006e-01, 4.00000006e-01,
          4.00000006e-01, 5.33333361e-01 ]
      - [ 0., 0., 0., 0., 0., 0., 0., 7.69230798e-02, 3.07692319e-01,
          3.84615391e-01, 1.53846160e-01, 3.84615391e-01, 3.07692319e-01,
          1.53846160e-01, 1.53846160e-01, 3.07692319e-01, 4.61538464e-01,
          2.30769232e-01, 2.30769232e-01, 0., 1., 6.15384638e-01,
          1.53846160e-01, 3.07692319e-01, 8.46153855e-01, 9.23076928e-01,
          7.69230783e-01, 2.30769232e-01, 6.15384638e-01, 4.61538464e-01,
          1., 1. ]
      - [ 0., 0., 0., 0., 0., 0., 0., 0., 0., 0., 0., 7.99999982e-02, 0.,
          7.99999982e-02, 1.19999997e-01, 3.99999991e-02, 7.99999982e-02,
          1.19999997e-01, 1.59999996e-01, 4.39999998e-01, 1.,
          6.80000007e-01, 5.60000002e-01, 5.19999981e-01, 1.19999997e-01,
          1.59999996e-01, 1.19999997e-01, 3.19999993e-01, 7.99999982e-02,
          4.39999998e-01, 4.79999989e-01, 1.59999996e-01 ]
      - [ 0., 0., 0., 0., 0., 0., 0., 0., 0., 1.48148149e-01,
          1.85185179e-01, 1.11111112e-01, 2.22222224e-01, 3.70370373e-02,
          7.40740746e-02, 3.70370373e-02, 3.70370358e-01, 6.66666687e-01,
          8.14814806e-01, 1., 2.22222224e-01, 1.85185179e-01,
          1.48148149e-01, 1.11111112e-01, 2.22222224e-01, 1.48148149e-01,
          1.11111112e-01, 1.48148149e-01, 1.11111112e-01, 1.11111112e-01,
          1.11111112e-01, 3.70370373e-02 ]
      - [ 0., 0., 0., 0., 0., 0., 0., 0., 0., 0., 0., 0., 0., 0.,
          3.24324310e-01, 1., 2.70270258e-01, 8.10810775e-02,
          1.89189196e-01, 1.89189196e-01, 1.35135129e-01, 1.08108111e-01,
          2.43243247e-01, 2.43243247e-01, 3.24324310e-01, 1.62162155e-01,
          1.35135129e-01, 1.08108111e-01, 1.08108111e-01, 5.40540554e-02,
          5.40540554e-02, 1.62162155e-01 ]
      - [ 0., 0., 0., 0., 0., 0., 0., 0., 0., 0., 2.22222224e-01,
          1.11111112e-01, 2.22222224e-01, 5.55555560e-02, 0.,
          2.77777791e-01, 2.77777791e-01, 5.55555582e-01, 9.44444418e-01,
          7.77777791e-01, 1., 7.77777791e-01, 6.11111104e-01,
          2.77777791e-01, 1.11111112e-01, 6.11111104e-01, 2.22222224e-01,
          2.22222224e-01, 0., 3.33333343e-01, 1.11111112e-01,
          2.77777791e-01 ]
      - [ 0., 0., 0., 0., 0., 0., 0., 2.89855078e-02, 5.79710156e-02, 0.,
          2.89855078e-02, 1.44927539e-02, 2.89855078e-02, 0.,
          1.44927539e-02, 0., 1.44927539e-02, 4.34782617e-02,
          2.17391297e-01, 1., 1.15942031e-01, 8.69565234e-02,
          7.24637657e-02, 7.24637657e-02, 4.34782617e-02, 8.69565234e-02,
          2.89855078e-02, 1.44927539e-02, 5.79710156e-02, 1.44927539e-02,
          0., 4.34782617e-02 ]
      - [ 0., 0., 0., 0., 0., 0., 0., 0., 0., 0., 0., 4.54545468e-02,
          9.09090936e-02, 4.54545468e-02, 4.54545468e-02, 4.54545468e-02,
          9.09090936e-02, 5.90909064e-01, 6.81818187e-01, 1.,
          4.54545468e-01, 3.18181813e-01, 6.36363626e-01, 2.72727281e-01,
          2.27272734e-01, 5.45454562e-01, 6.81818187e-01, 5.00000000e-01,
          1.36363640e-01, 9.09090936e-02, 0., 4.54545468e-02 ]
      - [ 0., 0., 0., 0., 0., 0., 2.22222224e-01, 1.11111112e-01,
          5.55555560e-02, 0., 0., 0., 5.55555560e-02, 5.55555560e-02,
          1.11111112e-01, 5.55555560e-02, 3.88888896e-01, 7.77777791e-01,
          1., 7.22222209e-01, 2.77777791e-01, 2.22222224e-01,
          3.33333343e-01, 5.55555582e-01, 2.22222224e-01, 9.44444418e-01,
          6.66666687e-01, 2.77777791e-01, 4.44444448e-01, 5.55555560e-02,
          1.66666672e-01, 2.77777791e-01 ]
      - [ 0., 0., 0., 0., 0., 0., 0., 0., 0., 5.55555560e-02,
          2.22222224e-01, 5.55555560e-02, 2.22222224e-01, 1.66666672e-01,
          5.00000000e-01, 5.55555582e-01, 2.77777791e-01, 1.66666672e-01,
          3.33333343e-01, 3.33333343e-01, 3.33333343e-01, 6.11111104e-01,
          5.55555582e-01, 5.55555582e-01, 1., 3.33333343e-01,
          2.77777791e-01, 5.55555560e-02, 2.77777791e-01, 0.,
          5.55555582e-01, 5.55555582e-01 ]
      - [ 0., 0., 0., 0., 0., 0., 0., 0., 0., 7.69230798e-02,
          4.61538464e-01, 2.30769232e-01, 7.69230798e-02, 3.84615391e-01,
          3.84615391e-01, 5.38461566e-01, 2.30769232e-01, 1.53846160e-01,
          7.69230783e-01, 9.23076928e-01, 1., 6.15384638e-01,
          4.61538464e-01, 4.61538464e-01, 8.46153855e-01, 5.38461566e-01,
          6.92307711e-01, 3.84615391e-01, 7.69230783e-01, 4.61538464e-01,
          3.84615391e-01, 2.30769232e-01 ]
      - [ 0., 0., 0., 0., 0., 0., 0., 0., 7.69230798e-02, 0., 0.,
          3.84615399e-02, 0., 2.30769232e-01, 2.69230783e-01, 1.,
          3.07692319e-01, 1.15384616e-01, 1.53846160e-01, 1.92307696e-01,
          2.30769232e-01, 2.30769232e-01, 3.07692319e-01, 4.23076928e-01,
          7.69230798e-02, 4.23076928e-01, 4.23076928e-01, 3.46153855e-01,
          2.30769232e-01, 1.15384616e-01, 2.69230783e-01, 7.69230798e-02 ]
      - [ 0., 0., 0., 0., 0., 0., 0., 0., 0., 0., 0., 0., 0.,
          4.44444455e-02, 2.22222228e-02, 6.66666701e-02, 2.22222228e-02,
          1.55555561e-01, 1., 2.00000003e-01, 3.11111122e-01,
          8.88888910e-02, 1.11111112e-01, 1.55555561e-01, 1.33333340e-01,
          3.11111122e-01, 2.00000003e-01, 0., 8.88888910e-02,
          4.44444455e-02, 8.88888910e-02, 1.55555561e-01 ]
      - [ 0., 0., 0., 0., 0., 0., 0., 0., 0., 0., 8.69565234e-02,
          1.73913047e-01, 3.04347813e-01, 3.04347813e-01, 7.39130437e-01,
          1., 5.65217376e-01, 4.34782594e-01, 3.04347813e-01,
          2.17391297e-01, 1.30434781e-01, 4.34782617e-02, 8.69565234e-02,
          1.30434781e-01, 1.73913047e-01, 4.34782617e-02, 2.60869563e-01,
          2.17391297e-01, 3.04347813e-01, 2.60869563e-01, 1.73913047e-01,
          3.04347813e-01 ]
      - [ 0., 0., 0., 0., 0., 0., 0., 0., 0., 0., 1.87500000e-01,
          1.87500000e-01, 3.12500000e-01, 1.25000000e-01, 1.25000000e-01,
          2.50000000e-01, 1.87500000e-01, 6.25000000e-02, 8.12500000e-01,
          1., 4.37500000e-01, 5.62500000e-01, 2.50000000e-01,
          1.87500000e-01, 6.25000000e-01, 3.12500000e-01, 4.37500000e-01,
          5.00000000e-01, 6.25000000e-01, 1., 5.62500000e-01,
          2.50000000e-01 ]
      - [ 0., 0., 0., 0., 0., 0., 0., 0., 2.94117648e-02, 8.82352963e-02,
          8.82352963e-02, 2.94117648e-02, 1.17647059e-01, 2.94117648e-02,
          5.88235296e-02, 0., 2.94117648e-02, 8.82352963e-02,
          1.47058830e-01, 5.58823526e-01, 8.82352963e-02, 8.82352963e-02,
          8.82352963e-02, 1.47058830e-01, 2.94117648e-02, 1.17647059e-01,
          1.76470593e-01, 1.76470593e-01, 2.94117659e-01, 4.11764711e-01,
          1., 3.52941185e-01 ]
      - [ 0., 0., 0., 0., 0., 0., 2.85714298e-01, 5.00000000e-01,
          1.42857149e-01, 7.14285746e-02, 1.42857149e-01, 2.14285716e-01,
          4.28571433e-01, 7.85714269e-01, 2.85714298e-01, 9.28571403e-01,
          1., 7.14285731e-01, 7.14285731e-01, 2.14285716e-01,
          2.14285716e-01, 1.42857149e-01, 1.42857149e-01, 2.85714298e-01,
          2.85714298e-01, 2.85714298e-01, 2.85714298e-01, 1.42857149e-01,
          5.00000000e-01, 6.42857134e-01, 7.14285731e-01, 2.14285716e-01 ]
      - [ 0., 0., 0., 0., 0., 0., 0., 0., 0., 0., 1.17647059e-01, 0.,
          5.88235296e-02, 1.17647059e-01, 1.17647059e-01, 5.29411793e-01,
          6.47058845e-01, 7.64705896e-01, 1., 7.64705896e-01,
          8.23529422e-01, 5.29411793e-01, 4.70588237e-01, 2.35294119e-01,
          3.52941185e-01, 3.52941185e-01, 4.70588237e-01, 1.17647059e-01,
          1.17647059e-01, 2.35294119e-01, 2.35294119e-01, 4.11764711e-01 ]
      - [ 0., 0., 0., 0., 0., 0., 0., 4.28571433e-01, 1.42857149e-01,
          3.57142866e-01, 6.42857134e-01, 5.71428597e-01, 2.85714298e-01,
          4.28571433e-01, 3.57142866e-01, 4.28571433e-01, 1.,
          5.71428597e-01, 2.85714298e-01, 3.57142866e-01, 2.85714298e-01,
          5.00000000e-01, 3.57142866e-01, 3.57142866e-01, 5.00000000e-01,
          5.71428597e-01, 7.85714269e-01, 4.28571433e-01, 7.14285746e-02,
          1.42857149e-01, 1.42857149e-01, 2.85714298e-01 ]
      - [ 0., 0., 0., 0., 0., 0., 0., 0., 0., 0., 0., 0., 0., 0., 0., 0.,
          1.03448279e-01, 4.48275864e-01, 9.31034505e-01, 1.,
          3.79310340e-01, 1.72413796e-01, 3.44827585e-02, 1.37931034e-01,
          1.03448279e-01, 1.37931034e-01, 1.37931034e-01, 2.06896558e-01,
          1.72413796e-01, 1.37931034e-01, 4.48275864e-01, 4.13793117e-01 ]
      - [ 0., 0., 0., 0., 0., 0., 0., 0., 0., 0., 0., 0., 0., 0., 0.,
          5.26315793e-02, 0., 2.10526317e-01, 1.57894731e-01,
          6.31578922e-01, 1., 4.73684222e-01, 7.89473712e-01,
          8.42105269e-01, 5.26315808e-01, 3.68421048e-01, 6.31578922e-01,
          1., 4.21052635e-01, 2.10526317e-01, 5.26315793e-02,
          2.10526317e-01 ]
      - [ 0., 0., 0., 0., 0., 0., 1.66666672e-01, 2.22222224e-01,
          5.55555560e-02, 3.33333343e-01, 0., 1.66666672e-01,
          1.11111112e-01, 2.22222224e-01, 3.88888896e-01, 1.,
          3.33333343e-01, 2.77777791e-01, 6.66666687e-01, 2.77777791e-01,
          1.11111112e-01, 3.33333343e-01, 1.66666672e-01, 2.77777791e-01,
          2.77777791e-01, 3.33333343e-01, 5.55555582e-01, 5.55555582e-01,
          5.55555582e-01, 5.55555560e-02, 4.44444448e-01, 1.11111112e-01 ]
      - [ 0., 0., 0., 0., 0., 0., 0., 5.26315808e-01, 4.21052635e-01,
          2.63157904e-01, 1.57894731e-01, 1.57894731e-01, 1.57894731e-01,
          1.05263159e-01, 1.05263159e-01, 5.78947365e-01, 7.36842096e-01,
          5.78947365e-01, 2.63157904e-01, 1., 6.31578922e-01,
          1.05263159e-01, 2.63157904e-01, 2.10526317e-01, 0.,
          1.57894731e-01, 5.26315793e-02, 1.57894731e-01, 1.05263159e-01,
          1.57894731e-01, 3.15789461e-01, 3.68421048e-01 ]
      - [ 0., 0., 0., 0., 0., 0., 0., 0., 0., 7.14285746e-02,
          3.57142866e-01, 0., 0., 0., 3.21428567e-01, 1.07142858e-01, 1.,
          5.71428597e-01, 2.50000000e-01, 2.50000000e-01, 1.07142858e-01,
          1.42857149e-01, 3.21428567e-01, 2.85714298e-01, 3.21428567e-01,
          1.78571433e-01, 1.07142858e-01, 1.07142858e-01, 1.07142858e-01,
          1.78571433e-01, 1.07142858e-01, 2.50000000e-01 ]
      - [ 0., 0., 0., 0., 0., 0., 4.64285702e-01, 2.14285716e-01,
          3.92857134e-01, 1.42857149e-01, 1.07142858e-01, 1.42857149e-01,
          1.42857149e-01, 2.14285716e-01, 2.14285716e-01, 1.78571433e-01,
          2.85714298e-01, 1., 5.00000000e-01, 7.14285746e-02,
          3.57142873e-02, 3.57142873e-02, 3.57142873e-02, 3.57142873e-02,
          1.07142858e-01, 7.14285746e-02, 1.07142858e-01, 7.14285746e-02,
          1.78571433e-01, 7.14285746e-02, 1.42857149e-01, 1.78571433e-01 ]
      - [ 0., 0., 0., 0., 0., 0., 8.82352963e-02, 4.41176474e-01,
          2.05882356e-01, 5.88235296e-02, 1.17647059e-01, 2.94117648e-02,
          5.88235296e-02, 8.82352963e-02, 5.88235296e-02, 1.76470593e-01,
          5.88235296e-02, 8.82352963e-02, 5.58823526e-01, 1.,
          1.17647059e-01, 2.94117648e-02, 1.76470593e-01, 5.88235296e-02,
          1.76470593e-01, 1.17647059e-01, 2.05882356e-01, 1.47058830e-01,
          0., 1.17647059e-01, 2.94117648e-02, 2.94117648e-02 ]
      - [ 0., 0., 0., 0., 0., 0., 0., 0., 0., 2.85714298e-01,
          7.14285746e-02, 7.14285746e-02, 7.14285746e-02, 0.,
          1.42857149e-01, 2.85714298e-01, 8.57142866e-01, 7.85714269e-01,
          5.00000000e-01, 9.28571403e-01, 7.14285731e-01, 3.57142866e-01,
          4.28571433e-01, 5.71428597e-01, 2.14285716e-01, 6.42857134e-01,
          5.71428597e-01, 3.57142866e-01, 1., 7.85714269e-01,
          5.00000000e-01, 1.42857149e-01 ]
      - [ 0., 0., 0., 0., 0., 0., 0., 0., 0., 0., 7.69230798e-02,
          7.69230798e-02, 3.07692319e-01, 6.15384638e-01, 5.38461566e-01,
          4.61538464e-01, 3.07692319e-01, 3.84615391e-01, 5.38461566e-01,
          3.84615391e-01, 8.46153855e-01, 4.61538464e-01, 9.23076928e-01,
          3.07692319e-01, 8.46153855e-01, 1., 3.07692319e-01,
          7.69230783e-01, 6.92307711e-01, 4.61538464e-01, 5.38461566e-01,
          2.30769232e-01 ]
      - [ 0., 0., 0., 0., 0., 0., 0., 0., 0., 0., 0., 0., 0., 0., 0., 0.,
          2.63157897e-02, 7.89473653e-02, 3.68421048e-01, 1.,
          6.84210539e-01, 2.63157904e-01, 1.31578952e-01, 1.05263159e-01,
          1.31578952e-01, 1.84210524e-01, 1.05263159e-01, 2.10526317e-01,
          1.31578952e-01, 1.84210524e-01, 1.05263159e-01, 7.89473653e-02 ]
      - [ 0., 0., 0., 0., 0., 0., 0., 0., 7.14285746e-02, 1.42857149e-01,
          1.07142858e-01, 1.42857149e-01, 3.57142873e-02, 7.14285746e-02,
          3.57142873e-02, 3.57142873e-02, 2.14285716e-01, 1.,
          5.00000000e-01, 4.28571433e-01, 2.14285716e-01, 2.50000000e-01,
          1.78571433e-01, 1.07142858e-01, 3.92857134e-01, 1.07142858e-01,
          7.14285746e-02, 2.50000000e-01, 4.28571433e-01, 1.42857149e-01,
          1.07142858e-01, 1.07142858e-01 ]
      - [ 0., 0., 0., 0., 0., 0., 0., 0., 0., 0., 3.12500000e-02,
          3.12500000e-02, 0., 3.12500000e-02, 9.37500000e-02,
          6.25000000e-02, 5.31250000e-01, 1., 5.31250000e-01,
          1.56250000e-01, 2.50000000e-01, 9.37500000e-02, 1.87500000e-01,
          1.25000000e-01, 2.81250000e-01, 4.06250000e-01, 2.18750000e-01,
          3.12500000e-02, 6.25000000e-02, 1.25000000e-01, 1.25000000e-01,
          1.25000000e-01 ]
      - [ 0., 0., 0., 0., 0., 0., 0., 0., 0., 0., 0., 4.34782617e-02,
          4.34782617e-02, 1.30434781e-01, 4.34782617e-02, 8.69565234e-02,
          5.21739125e-01, 7.82608688e-01, 1., 4.78260875e-01,
          5.65217376e-01, 2.60869563e-01, 3.04347813e-01, 5.21739125e-01,
          3.91304344e-01, 1.73913047e-01, 2.60869563e-01, 1.30434781e-01,
          2.17391297e-01, 4.34782617e-02, 1.73913047e-01, 8.69565234e-02 ]
      - [ 0., 0., 0., 0., 0., 0., 0., 0., 0., 0., 0., 7.69230798e-02,
          3.84615391e-01, 2.30769232e-01, 3.07692319e-01, 5.38461566e-01,
          6.15384638e-01, 9.23076928e-01, 3.84615391e-01, 7.69230783e-01,
          3.84615391e-01, 3.07692319e-01, 3.84615391e-01, 9.23076928e-01,
          6.15384638e-01, 2.30769232e-01, 3.07692319e-01, 6.15384638e-01,
          7.69230783e-01, 7.69230783e-01, 5.38461566e-01, 1. ]
      - [ 0., 0., 0., 0., 0., 0., 0., 0., 0., 0., 0., 0., 0.,
          7.99999982e-02, 0., 1.19999997e-01, 1.19999997e-01,
          5.60000002e-01, 1., 7.20000029e-01, 6.00000024e-01,
          3.60000014e-01, 2.39999995e-01, 2.80000001e-01, 2.00000003e-01,
          3.19999993e-01, 4.00000006e-01, 3.19999993e-01, 1.59999996e-01,
          3.99999991e-02, 1.19999997e-01, 1.19999997e-01 ]
      - [ 0., 0., 0., 0., 0., 0., 0., 0., 0., 0., 0., 0., 0., 0.,
          2.94117648e-02, 0., 1.76470593e-01, 1.17647059e-01,
          2.64705896e-01, 1., 9.11764681e-01, 2.05882356e-01,
          1.76470593e-01, 2.35294119e-01, 1.47058830e-01, 2.94117648e-02,
          8.82352963e-02, 2.05882356e-01, 2.94117659e-01, 8.82352963e-02,
          2.05882356e-01, 5.88235296e-02 ]
      - [ 0., 0., 0., 0., 0., 0., 0., 0., 0., 0., 0., 0., 0., 0., 0.,
          2.30769232e-01, 1.53846160e-01, 1.15384616e-01, 7.69230798e-02,
          2.30769232e-01, 4.61538464e-01, 1.53846160e-01, 5.00000000e-01,
          5.00000000e-01, 1., 1.92307696e-01, 1.53846160e-01,
          2.30769232e-01, 1.92307696e-01, 3.84615391e-01, 7.30769217e-01,
          2.30769232e-01 ]
      - [ 0., 0., 0., 0., 0., 0., 0., 0., 0., 0., 0., 4.16666679e-02, 0.,
          0., 4.16666679e-02, 4.16666679e-02, 1.66666672e-01,
          1.66666672e-01, 8.33333358e-02, 5.00000000e-01, 1.,
          6.66666687e-01, 4.16666657e-01, 4.16666657e-01, 5.83333313e-01,
          5.83333313e-01, 2.08333328e-01, 4.58333343e-01, 2.91666657e-01,
          4.16666679e-02, 2.08333328e-01, 8.33333358e-02 ]
      - [ 0., 0., 0., 0., 0., 0., 0., 0., 0., 0., 0., 0., 0., 0., 0.,
          6.25000000e-02, 1.87500000e-01, 1.87500000e-01, 4.37500000e-01,
          1.87500000e-01, 8.75000000e-01, 1., 6.25000000e-01,
          4.37500000e-01, 6.87500000e-01, 1., 4.37500000e-01, 1.,
          8.12500000e-01, 5.62500000e-01, 3.75000000e-01, 1.25000000e-01 ]
      - [ 0., 0., 0., 0., 0., 0., 0., 0., 0., 0., 2.14285716e-01,
          7.14285746e-02, 1.42857149e-01, 7.14285746e-02, 7.14285746e-02,
          7.14285746e-02, 4.28571433e-01, 6.42857134e-01, 1.,
          7.14285731e-01, 7.85714269e-01, 5.71428597e-01, 5.00000000e-01,
          7.85714269e-01, 6.42857134e-01, 5.00000000e-01, 8.57142866e-01,
          1.42857149e-01, 1., 4.28571433e-01, 4.28571433e-01,
          2.14285716e-01 ]
      - [ 0., 0., 0., 0., 0., 0., 0., 0., 2.94117659e-01, 1.,
          7.64705896e-01, 4.11764711e-01, 2.94117659e-01, 4.70588237e-01,
          2.94117659e-01, 4.70588237e-01, 1.76470593e-01, 5.88235296e-02,
          4.11764711e-01, 2.94117659e-01, 0., 2.35294119e-01,
          3.52941185e-01, 1.17647059e-01, 1.17647059e-01, 3.52941185e-01,
          2.35294119e-01, 5.88235296e-02, 5.88235319e-01, 5.88235319e-01,
          4.70588237e-01, 4.11764711e-01 ]
      - [ 0., 0., 0., 0., 0., 0., 1.21212125e-01, 4.54545468e-01,
          1.51515156e-01, 0., 3.03030312e-02, 1.21212125e-01,
          1.51515156e-01, 6.06060624e-02, 6.06060624e-02, 2.12121218e-01,
          4.54545468e-01, 1., 1.81818187e-01, 9.09090936e-02,
          3.03030312e-02, 9.09090936e-02, 9.09090936e-02, 3.03030312e-02,
          6.06060624e-02, 1.21212125e-01, 0., 2.12121218e-01,
          2.72727281e-01, 1.81818187e-01, 9.09090936e-02, 9.09090936e-02 ]
      - [ 0., 0., 0., 0., 0., 0., 0., 0., 0., 0., 0., 3.33333343e-01,
          4.28571433e-01, 9.52380970e-02, 1.42857149e-01, 2.38095239e-01,
          1., 9.52380955e-01, 8.09523821e-01, 1.90476194e-01,
          4.28571433e-01, 4.76190485e-02, 3.33333343e-01, 2.85714298e-01,
          2.38095239e-01, 2.85714298e-01, 3.33333343e-01, 1.90476194e-01,
          1.90476194e-01, 1.90476194e-01, 4.76190485e-02, 9.52380970e-02 ]
      - [ 0., 0., 0., 0., 0., 0., 0., 0., 0., 0., 8.33333358e-02, 0.,
          8.33333358e-02, 3.75000000e-01, 2.50000000e-01, 2.50000000e-01,
          7.91666687e-01, 1., 8.33333313e-01, 5.83333313e-01,
          3.75000000e-01, 1.66666672e-01, 8.33333358e-02, 0.,
          1.25000000e-01, 3.33333343e-01, 1.25000000e-01, 8.33333358e-02,
          8.33333358e-02, 8.33333358e-02, 1.25000000e-01, 1.66666672e-01 ]
      - [ 0., 0., 0., 0., 0., 0., 0., 0., 0., 0., 1.50000006e-01,
          2.50000000e-01, 5.00000007e-02, 3.49999994e-01, 3.49999994e-01,
          2.50000000e-01, 4.00000006e-01, 4.00000006e-01, 3.49999994e-01,
          8.50000024e-01, 1.50000006e-01, 2.50000000e-01, 2.00000003e-01,
          4.00000006e-01, 1., 6.49999976e-01, 2.50000000e-01,
          3.00000012e-01, 3.49999994e-01, 1.50000006e-01, 5.00000007e-02,
          5.00000007e-02 ]
      - [ 0., 0., 0., 0., 0., 0., 0., 0., 0., 3.84615399e-02,
          1.15384616e-01, 2.30769232e-01, 2.69230783e-01, 1.,
          5.76923072e-01, 3.84615391e-01, 6.53846145e-01, 2.69230783e-01,
          1.53846160e-01, 4.23076928e-01, 3.84615399e-02, 1.15384616e-01,
          7.69230798e-02, 3.84615399e-02, 3.84615399e-02, 7.69230798e-02,
          1.15384616e-01, 1.15384616e-01, 7.69230798e-02, 3.46153855e-01,
          1.15384616e-01, 2.69230783e-01 ]
      - [ 0., 0., 0., 0., 0., 0., 0., 0., 0., 4.76190485e-02,
          1.42857149e-01, 3.33333343e-01, 5.23809552e-01, 2.38095239e-01,
          9.04761910e-01, 1., 7.14285731e-01, 4.76190478e-01,
          1.90476194e-01, 2.38095239e-01, 2.85714298e-01, 4.76190485e-02,
          1.42857149e-01, 1.42857149e-01, 0., 1.90476194e-01,
          9.52380970e-02, 1.90476194e-01, 2.38095239e-01, 2.38095239e-01,
          3.80952388e-01, 9.52380970e-02 ]
      - [ 0., 0., 0., 0., 0., 0., 0., 0., 0., 0., 0., 0., 0., 0., 0.,
          3.92156877e-02, 7.84313753e-02, 1.37254909e-01, 6.07843161e-01,
          1., 7.84313753e-02, 7.84313753e-02, 1.56862751e-01,
          5.88235296e-02, 1.37254909e-01, 1.37254909e-01, 1.37254909e-01,
          0., 3.92156877e-02, 3.92156877e-02, 3.92156877e-02,
          5.88235296e-02 ]
      - [ 0., 0., 0., 0., 0., 0., 0., 3.57142873e-02, 1.07142858e-01,
          7.14285746e-02, 3.57142873e-02, 1.78571433e-01, 6.42857134e-01,
          3.21428567e-01, 1., 9.64285731e-01, 4.28571433e-01,
          5.00000000e-01, 2.14285716e-01, 2.50000000e-01, 7.14285746e-02,
          1.07142858e-01, 0., 0., 3.57142873e-02, 0., 0., 0., 0.,
          7.14285746e-02, 7.14285746e-02, 3.57142873e-02 ]
      - [ 0., 0., 0., 0., 0., 0., 0., 0., 0., 0., 4.54545468e-02,
          9.09090936e-02, 9.09090936e-02, 4.54545468e-02, 1.36363640e-01,
          6.81818187e-01, 5.45454562e-01, 2.72727281e-01, 1.,
          6.81818187e-01, 2.72727281e-01, 4.09090906e-01, 3.18181813e-01,
          1.36363640e-01, 3.18181813e-01, 9.09090936e-02, 2.27272734e-01,
          2.27272734e-01, 1.36363640e-01, 3.18181813e-01, 1.81818187e-01,
          3.18181813e-01 ]
      - [ 0., 0., 0., 0., 0., 0., 0., 0., 0., 0., 6.97674453e-02,
          1.16279073e-01, 4.65116277e-02, 2.32558139e-02, 4.65116277e-02,
          4.65116277e-02, 2.32558139e-02, 6.27906978e-01, 1.,
          2.09302321e-01, 9.30232555e-02, 6.97674453e-02, 2.09302321e-01,
          1.16279073e-01, 4.65116277e-02, 2.32558139e-02, 2.32558139e-02,
          2.09302321e-01, 1.86046511e-01, 2.32558139e-02, 6.97674453e-02,
          6.97674453e-02 ]
      - [ 0., 0., 0., 0., 0., 0., 0., 0., 0., 0., 0., 0., 0., 0., 0., 0.,
          6.06060624e-02, 6.06060624e-02, 5.45454562e-01, 1.,
          4.24242437e-01, 2.12121218e-01, 2.12121218e-01, 1.81818187e-01,
          1.81818187e-01, 1.21212125e-01, 2.12121218e-01, 1.21212125e-01,
          1.51515156e-01, 2.12121218e-01, 3.63636374e-01, 3.03030312e-01 ]
      - [ 0., 0., 0., 0., 0., 0., 0., 0., 0., 0., 0., 0., 0.,
          1.30434781e-01, 3.47826093e-01, 3.04347813e-01, 1.73913047e-01,
          0., 8.69565234e-02, 6.08695626e-01, 1., 6.08695626e-01,
          4.78260875e-01, 3.04347813e-01, 6.52173936e-01, 3.04347813e-01,
          2.17391297e-01, 1.73913047e-01, 3.47826093e-01, 8.69565234e-02,
          3.04347813e-01, 1.30434781e-01 ]
      - [ 0., 0., 0., 0., 0., 0., 0., 0., 0., 0., 0., 0., 0.,
          8.33333358e-02, 1.25000000e-01, 4.16666679e-02, 0.,
          1.66666672e-01, 1.25000000e-01, 1., 6.66666687e-01,
          2.50000000e-01, 2.08333328e-01, 1.25000000e-01, 1.66666672e-01,
          4.58333343e-01, 2.50000000e-01, 2.08333328e-01, 4.16666657e-01,
          5.83333313e-01, 7.08333313e-01, 4.16666657e-01 ]
      - [ 0., 0., 0., 0., 0., 0., 5.26315793e-02, 1.57894731e-01,
          4.21052635e-01, 3.68421048e-01, 5.78947365e-01, 4.21052635e-01,
          6.84210539e-01, 1.05263159e-01, 1., 9.47368443e-01,
          2.63157904e-01, 3.15789461e-01, 2.10526317e-01, 1.05263159e-01,
          1.57894731e-01, 1.57894731e-01, 1.57894731e-01, 1.57894731e-01,
          2.63157904e-01, 1.05263159e-01, 5.26315793e-02, 1.57894731e-01,
          1.57894731e-01, 1.57894731e-01, 3.15789461e-01, 1.05263159e-01 ]
      - [ 0., 0., 0., 0., 0., 0., 0., 5.26315793e-02, 1.57894731e-01,
          2.10526317e-01, 3.15789461e-01, 1.57894731e-01, 1.57894731e-01,
          2.63157904e-01, 2.10526317e-01, 1., 6.84210539e-01,
          3.15789461e-01, 2.63157904e-01, 3.68421048e-01, 3.15789461e-01,
          2.10526317e-01, 5.78947365e-01, 3.68421048e-01, 1.05263159e-01,
          7.36842096e-01, 4.21052635e-01, 5.26315793e-02, 5.26315793e-02,
          1.57894731e-01, 1.05263159e-01, 3.15789461e-01 ]
      - [ 0., 0., 0., 0., 0., 0., 0., 0., 0., 0., 2.38095239e-01,
          2.85714298e-01, 4.76190478e-01, 3.33333343e-01, 5.23809552e-01,
          7.14285731e-01, 1., 5.71428597e-01, 3.80952388e-01,
          9.52380970e-02, 2.85714298e-01, 2.38095239e-01, 1.42857149e-01,
          0., 1.42857149e-01, 1.42857149e-01, 1.42857149e-01,
          9.52380970e-02, 2.38095239e-01, 1.90476194e-01, 3.33333343e-01,
          2.85714298e-01 ]
      - [ 0., 0., 0., 0., 0., 0., 0., 0., 0., 0., 0., 0., 0., 0., 0., 0.,
          0., 4.65116277e-02, 1., 7.90697694e-01, 1.62790701e-01,
          1.39534891e-01, 4.65116277e-02, 6.97674453e-02, 1.16279073e-01,
          4.65116277e-02, 4.65116277e-02, 1.39534891e-01, 6.97674453e-02,
          2.55813956e-01, 3.72093022e-01, 4.65116277e-02 ]
      - [ 0., 0., 0., 0., 0., 0., 0., 1.22448981e-01, 1.22448981e-01,
          1.83673471e-01, 6.12244904e-02, 1.22448981e-01, 4.08163257e-02,
          8.16326514e-02, 0., 6.12244904e-02, 2.04081628e-02, 0.,
          1.02040820e-01, 1., 1.22448981e-01, 4.08163257e-02,
          2.04081628e-02, 1.02040820e-01, 6.12244904e-02, 4.08163257e-02,
          6.12244904e-02, 1.02040820e-01, 1.22448981e-01, 2.44897962e-01,
          8.16326514e-02, 2.04081628e-02 ]
      - [ 0., 0., 0., 0., 0., 1.87500000e-01, 5.00000000e-01,
          3.12500000e-01, 7.50000000e-01, 1.25000000e-01, 1.25000000e-01,
          1.25000000e-01, 6.25000000e-01, 6.25000000e-02, 1.25000000e-01,
          1.25000000e-01, 6.25000000e-02, 9.37500000e-01, 1.,
          7.50000000e-01, 2.50000000e-01, 2.50000000e-01, 1.25000000e-01,
          6.25000000e-02, 1.87500000e-01, 1.25000000e-01, 3.75000000e-01,
          3.12500000e-01, 4.37500000e-01, 3.75000000e-01, 3.75000000e-01,
          3.12500000e-01 ]
      - [ 0., 0., 0., 0., 0., 0., 0., 0., 3.15789461e-01, 2.10526317e-01,
          6.31578922e-01, 4.73684222e-01, 8.42105269e-01, 1.,
          5.26315808e-01, 7.36842096e-01, 3.68421048e-01, 5.26315808e-01,
          2.10526317e-01, 1.57894731e-01, 2.63157904e-01, 3.15789461e-01,
          1.05263159e-01, 5.26315793e-02, 1.05263159e-01, 5.26315793e-02,
          1.05263159e-01, 5.26315793e-02, 2.10526317e-01, 0.,
          1.05263159e-01, 2.10526317e-01 ]
      - [ 0., 0., 0., 0., 0., 0., 0., 0., 0., 0., 0., 4.54545468e-02,
          9.09090936e-02, 4.54545468e-02, 9.09090936e-02, 0.,
          1.81818187e-01, 0., 2.72727281e-01, 6.36363626e-01,
          8.18181813e-01, 6.81818187e-01, 6.81818187e-01, 1.,
          4.09090906e-01, 4.09090906e-01, 3.63636374e-01, 2.72727281e-01,
          2.72727281e-01, 1.81818187e-01, 4.54545468e-02, 4.54545468e-02 ]
      - [ 0., 0., 0., 0., 0., 0., 0., 0., 0., 0., 0., 0., 0., 0., 0., 0.,
          1.62790701e-01, 3.02325577e-01, 3.72093022e-01, 1.,
          1.86046511e-01, 4.65116277e-02, 1.39534891e-01, 1.39534891e-01,
          1.16279073e-01, 2.79069781e-01, 1.39534891e-01, 6.97674453e-02,
          9.30232555e-02, 2.32558139e-02, 9.30232555e-02, 1.86046511e-01 ]
      - [ 0., 0., 0., 0., 0., 0., 0., 1.17647059e-01, 5.88235296e-02,
          2.35294119e-01, 5.88235296e-02, 0., 1.76470593e-01,
          1.17647059e-01, 5.88235296e-02, 1.17647059e-01, 5.88235296e-02,
          2.35294119e-01, 8.23529422e-01, 1., 7.64705896e-01,
          1.76470593e-01, 5.29411793e-01, 5.29411793e-01, 7.64705896e-01,
          7.05882370e-01, 7.64705896e-01, 4.11764711e-01, 3.52941185e-01,
          2.35294119e-01, 1.17647059e-01, 5.88235296e-02 ]
      - [ 0., 0., 0., 0., 0., 0., 0., 6.25000000e-02, 1.87500000e-01, 0.,
          3.12500000e-01, 2.50000000e-01, 4.37500000e-01, 4.37500000e-01,
          1.87500000e-01, 3.12500000e-01, 3.12500000e-01, 6.25000000e-01,
          1., 8.75000000e-01, 8.12500000e-01, 3.75000000e-01,
          2.50000000e-01, 5.00000000e-01, 2.50000000e-01, 5.00000000e-01,
          3.75000000e-01, 1.87500000e-01, 1.87500000e-01, 3.75000000e-01,
          1.25000000e-01, 6.25000000e-02 ]
      - [ 0., 0., 0., 0., 0., 0., 0., 6.66666687e-01, 1., 6.66666687e-01,
          3.33333343e-01, 4.16666657e-01, 3.33333343e-01, 5.00000000e-01,
          1.66666672e-01, 5.00000000e-01, 5.83333313e-01, 5.00000000e-01,
          8.33333358e-02, 8.33333313e-01, 6.66666687e-01, 7.50000000e-01,
          4.16666657e-01, 4.16666657e-01, 5.00000000e-01, 3.33333343e-01,
          2.50000000e-01, 1.66666672e-01, 5.83333313e-01, 4.16666657e-01,
          4.16666657e-01, 5.00000000e-01 ]
      - [ 0., 0., 0., 0., 0., 0., 0., 0., 0., 0., 0., 0., 5.83333313e-01,
          9.16666687e-01, 6.66666687e-01, 1., 9.16666687e-01,
          9.16666687e-01, 8.33333313e-01, 2.50000000e-01, 1.,
          9.16666687e-01, 7.50000000e-01, 2.50000000e-01, 3.33333343e-01,
          6.66666687e-01, 1.66666672e-01, 4.16666657e-01, 4.16666657e-01,
          3.33333343e-01, 3.33333343e-01, 3.33333343e-01 ]
      - [ 0., 0., 0., 0., 0., 0., 0., 0., 4.16666679e-02, 1.66666672e-01,
          4.16666679e-02, 1.25000000e-01, 4.16666679e-02, 2.91666657e-01,
          3.33333343e-01, 2.08333328e-01, 4.58333343e-01, 1.,
          1.66666672e-01, 1.25000000e-01, 1.25000000e-01, 1.66666672e-01,
          2.50000000e-01, 1.66666672e-01, 1.25000000e-01, 2.08333328e-01,
          3.33333343e-01, 2.50000000e-01, 1.66666672e-01, 2.08333328e-01,
          3.75000000e-01, 6.25000000e-01 ]
      - [ 0., 0., 0., 0., 0., 0., 0., 0., 0., 1.36363640e-01, 0., 0., 0.,
          4.54545468e-02, 4.54545468e-02, 9.09090936e-02, 9.09090936e-02,
          4.54545468e-02, 0., 1.81818187e-01, 2.72727281e-01,
          6.81818187e-01, 5.45454562e-01, 3.18181813e-01, 7.27272749e-01,
          5.90909064e-01, 1., 4.09090906e-01, 5.45454562e-01,
          3.18181813e-01, 2.72727281e-01, 2.27272734e-01 ]
      - [ 0., 0., 0., 0., 0., 0., 0., 8.33333358e-02, 6.66666687e-01,
          6.66666687e-01, 2.50000000e-01, 1.66666672e-01, 5.83333313e-01,
          6.66666687e-01, 5.00000000e-01, 9.16666687e-01, 5.83333313e-01,
          9.16666687e-01, 4.16666657e-01, 2.50000000e-01, 2.50000000e-01,
          5.00000000e-01, 2.50000000e-01, 3.33333343e-01, 5.83333313e-01,
          1., 8.33333313e-01, 5.00000000e-01, 4.16666657e-01,
          3.33333343e-01, 2.50000000e-01, 8.33333358e-02 ]
