%YAML:1.0
opencv_ml_svm:
   format: 3
   svmType: C_SVC
   kernel:
      type: RBF
      gamma: 1.
   C: 1.
   term_criteria: { epsilon:1.1920928955078125e-07, iterations:1000 }
   var_count: 32
   class_count: 2
   class_labels: !!opencv-matrix
      rows: 2
      cols: 1
      dt: i
      data: [ 0, 1 ]
   sv_total: 44
   support_vectors:
      - [ 0., 0., 0., 0., 0., 0., 0., 0., 2.00000003e-01, 4.66666669e-01,
          2.66666681e-01, 2.66666681e-01, 1.33333340e-01, 6.00000024e-01,
          5.33333361e-01, 6.66666687e-01, 4.00000006e-01, 4.00000006e-01,
          6.66666687e-01, 8.00000012e-01, 6.00000024e-01, 2.66666681e-01,
          1.33333340e-01, 6.66666701e-02, 0., 6.66666701e-02,
          3.33333343e-01, 7.33333349e-01, 1., 4.66666669e-01,
          2.00000003e-01, 2.66666681e-01 ]
      - [ 0., 0., 0., 0., 0., 0., 0., 0., 0., 0., 1.53846160e-01,
          4.61538464e-01, 0., 7.69230798e-02, 0., 2.30769232e-01,
          2.30769232e-01, 3.84615391e-01, 4.61538464e-01, 6.92307711e-01,
          6.15384638e-01, 8.46153855e-01, 1., 9.23076928e-01,
          4.61538464e-01, 9.23076928e-01, 1., 6.92307711e-01,
          3.07692319e-01, 5.38461566e-01, 6.15384638e-01, 3.84615391e-01 ]
      - [ 0., 0., 0., 0., 0., 0., 0., 0., 1.00000001e-01, 5.00000000e-01,
          1.50000006e-01, 1.00000001e-01, 1.00000001e-01, 1.00000001e-01,
          3.00000012e-01, 6.00000024e-01, 1., 7.50000000e-01,
          1.50000006e-01, 2.50000000e-01, 5.00000007e-02, 1.00000001e-01,
          2.50000000e-01, 2.00000003e-01, 2.00000003e-01, 3.00000012e-01,
          2.50000000e-01, 5.00000000e-01, 3.49999994e-01, 1.50000006e-01,
          3.00000012e-01, 3.00000012e-01 ]
      - [ 0., 0., 0., 0., 0., 0., 0., 0., 0., 1., 6.00000024e-01,
          5.50000012e-01, 5.00000000e-01, 5.00000000e-01, 3.00000012e-01,
          5.00000000e-01, 6.49999976e-01, 2.00000003e-01, 2.50000000e-01,
          4.00000006e-01, 2.50000000e-01, 2.50000000e-01, 2.00000003e-01,
          1.00000001e-01, 1.00000001e-01, 2.50000000e-01, 5.00000007e-02,
          1.50000006e-01, 1.50000006e-01, 5.00000007e-02, 5.00000007e-02,
          1.00000001e-01 ]
      - [ 0., 0., 0., 0., 0., 0., 0., 0., 0., 2.80000001e-01,
          4.39999998e-01, 4.00000006e-01, 2.39999995e-01, 2.80000001e-01,
          1.19999997e-01, 1.19999997e-01, 1.19999997e-01, 1.59999996e-01,
          1.19999997e-01, 1.59999996e-01, 1.19999997e-01, 1.19999997e-01,
          2.39999995e-01, 2.80000001e-01, 3.99999991e-02, 3.99999991e-02,
          3.99999991e-02, 7.99999982e-02, 4.39999998e-01, 1.,
          7.59999990e-01, 1.19999997e-01 ]
      - [ 0., 0., 0., 0., 0., 0., 0., 0., 1.42857149e-01, 5.00000000e-01,
          2.85714298e-01, 2.85714298e-01, 7.14285746e-02, 2.14285716e-01,
          2.85714298e-01, 7.85714269e-01, 1., 5.00000000e-01,
          3.57142866e-01, 3.57142866e-01, 4.28571433e-01, 4.28571433e-01,
          2.14285716e-01, 2.85714298e-01, 4.28571433e-01, 7.14285731e-01,
          5.00000000e-01, 5.00000000e-01, 4.28571433e-01, 5.71428597e-01,
          5.00000000e-01, 2.14285716e-01 ]
      - [ 0., 0., 0., 0., 0., 0., 0., 0., 0., 0., 0., 0., 0., 0., 0.,
          7.40740746e-02, 3.70370373e-02, 3.33333343e-01, 2.22222224e-01,
          2.96296299e-01, 1.85185179e-01, 7.40740746e-02, 1.11111112e-01,
          1.48148149e-01, 1.85185179e-01, 1.11111112e-01, 1.48148149e-01,
          3.70370358e-01, 1.11111112e-01, 6.29629612e-01, 7.40740716e-01,
          1. ]
      - [ 0., 0., 0., 0., 0., 0., 0., 0., 4.16666679e-02, 3.75000000e-01,
          1.66666672e-01, 1.25000000e-01, 1.25000000e-01, 8.33333358e-02,
          2.08333328e-01, 4.58333343e-01, 1., 5.00000000e-01,
          1.66666672e-01, 8.33333358e-02, 1.25000000e-01, 8.33333358e-02,
          2.50000000e-01, 1.25000000e-01, 1.66666672e-01, 2.50000000e-01,
          2.50000000e-01, 2.50000000e-01, 4.16666657e-01, 1.66666672e-01,
          2.08333328e-01, 2.91666657e-01 ]
      - [ 0., 0., 0., 0., 0., 0., 0., 0., 0., 0., 0., 0., 0., 0., 0.,
          3.52941185e-01, 1., 3.52941185e-01, 5.29411793e-01,
          5.29411793e-01, 2.35294119e-01, 5.29411793e-01, 4.70588237e-01,
          4.70588237e-01, 2.94117659e-01, 3.52941185e-01, 8.23529422e-01,
          6.47058845e-01, 9.41176474e-01, 4.70588237e-01, 1.76470593e-01,
          2.35294119e-01 ]
      - [ 0., 0., 0., 0., 0., 0., 0., 0., 0., 0., 0., 7.69230798e-02,
          5.38461566e-01, 5.00000000e-01, 8.84615362e-01, 9.23076928e-01,
          1., 4.23076928e-01, 2.30769232e-01, 1.15384616e-01,
          3.84615399e-02, 1.15384616e-01, 1.53846160e-01, 7.69230798e-02,
          0., 7.69230798e-02, 3.84615399e-02, 3.84615399e-02,
          1.15384616e-01, 3.84615399e-02, 7.69230798e-02, 3.84615399e-02 ]
      - [ 0., 0., 0., 0., 0., 0., 0., 0., 0., 0., 0., 0., 0., 0.,
          3.69565219e-01, 1., 3.04347813e-01, 6.52173907e-02,
          4.34782617e-02, 4.34782617e-02, 0., 0., 2.17391308e-02,
          4.34782617e-02, 0., 0., 6.52173907e-02, 2.17391308e-02, 0.,
          4.34782617e-02, 2.82608688e-01, 7.82608688e-01 ]
      - [ 0., 0., 0., 0., 0., 0., 0., 0., 7.99999982e-02, 3.60000014e-01,
          7.99999982e-02, 1.59999996e-01, 7.99999982e-02, 7.99999982e-02,
          2.39999995e-01, 5.60000002e-01, 1., 2.80000001e-01,
          1.19999997e-01, 1.59999996e-01, 1.59999996e-01, 0.,
          2.00000003e-01, 2.00000003e-01, 2.00000003e-01, 1.59999996e-01,
          2.80000001e-01, 3.60000014e-01, 2.39999995e-01, 7.99999982e-02,
          3.60000014e-01, 2.39999995e-01 ]
      - [ 0., 0., 0., 0., 0., 0., 0., 0., 1., 1., 5.00000000e-01,
          2.72727281e-01, 4.09090906e-01, 2.27272734e-01, 5.00000000e-01,
          1.81818187e-01, 3.18181813e-01, 1.81818187e-01, 1.36363640e-01,
          9.09090936e-02, 3.18181813e-01, 9.09090936e-02, 0.,
          1.36363640e-01, 1.36363640e-01, 1.81818187e-01, 3.18181813e-01,
          1.81818187e-01, 1.36363640e-01, 4.54545468e-02, 9.09090936e-02,
          4.54545468e-02 ]
      - [ 0., 0., 0., 0., 0., 0., 0., 0., 0., 0., 0., 0., 0.,
          2.69230783e-01, 4.61538464e-01, 5.76923072e-01, 1.,
          8.84615362e-01, 4.61538464e-01, 1.92307696e-01, 7.69230798e-02,
          3.84615399e-02, 7.69230798e-02, 0., 7.69230798e-02,
          1.15384616e-01, 1.53846160e-01, 1.15384616e-01, 1.53846160e-01,
          1.53846160e-01, 3.07692319e-01, 3.46153855e-01 ]
      - [ 0., 0., 0., 0., 0., 0., 0., 0., 0., 0., 0., 0., 0., 0., 0.,
          3.63636374e-01, 7.27272749e-01, 2.72727281e-01, 4.54545468e-01,
          1.36363640e-01, 3.18181813e-01, 4.54545468e-01, 4.09090906e-01,
          2.72727281e-01, 1.81818187e-01, 2.72727281e-01, 6.36363626e-01,
          4.09090906e-01, 1., 1.81818187e-01, 2.27272734e-01,
          1.81818187e-01 ]
      - [ 0., 0., 0., 0., 0., 0., 0., 5.00000007e-02, 1.00000001e-01,
          3.00000012e-01, 1.50000006e-01, 1.50000006e-01, 1.50000006e-01,
          1.00000001e-01, 2.00000003e-01, 7.50000000e-01, 1.,
          3.00000012e-01, 3.00000012e-01, 1.00000001e-01, 2.00000003e-01,
          4.00000006e-01, 5.00000007e-02, 3.00000012e-01, 1.50000006e-01,
          4.49999988e-01, 4.00000006e-01, 4.00000006e-01, 2.00000003e-01,
          2.50000000e-01, 2.50000000e-01, 2.50000000e-01 ]
      - [ 0., 0., 0., 0., 0., 0., 0., 0., 1.00000001e-01, 3.49999994e-01,
          2.50000000e-01, 2.00000003e-01, 1.00000001e-01, 1.00000001e-01,
          3.49999994e-01, 6.49999976e-01, 1., 3.49999994e-01,
          2.50000000e-01, 1.00000001e-01, 2.00000003e-01, 3.00000012e-01,
          2.00000003e-01, 3.00000012e-01, 3.00000012e-01, 4.00000006e-01,
          1.50000006e-01, 4.49999988e-01, 2.50000000e-01, 1.50000006e-01,
          4.00000006e-01, 1.00000001e-01 ]
      - [ 0., 0., 0., 0., 0., 0., 0., 0., 2.00000003e-01, 6.66666687e-01,
          1.33333340e-01, 2.00000003e-01, 3.33333343e-01, 4.66666669e-01,
          6.66666687e-01, 3.33333343e-01, 4.66666669e-01, 4.00000006e-01,
          8.00000012e-01, 7.33333349e-01, 4.00000006e-01, 3.33333343e-01,
          2.66666681e-01, 6.66666701e-02, 0., 3.33333343e-01,
          6.66666701e-02, 1., 6.66666687e-01, 3.33333343e-01,
          4.66666669e-01, 2.00000003e-01 ]
      - [ 0., 0., 0., 0., 0., 0., 0., 0., 0., 0., 0., 0., 3.66666675e-01,
          1., 6.00000024e-01, 6.33333325e-01, 6.33333325e-01,
          3.00000012e-01, 6.66666701e-02, 0., 0., 6.66666701e-02,
          1.00000001e-01, 6.66666701e-02, 1.00000001e-01, 1.66666672e-01,
          1.00000001e-01, 1.66666672e-01, 1.66666672e-01, 3.33333351e-02,
          6.66666701e-02, 1.33333340e-01 ]
      - [ 0., 0., 0., 0., 0., 0., 0., 0., 0., 0., 0., 0., 8.69565234e-02,
          2.17391297e-01, 9.56521749e-01, 1., 7.82608688e-01,
          9.13043499e-01, 3.04347813e-01, 1.30434781e-01, 8.69565234e-02,
          4.34782617e-02, 4.34782617e-02, 8.69565234e-02, 1.30434781e-01,
          4.34782617e-02, 1.73913047e-01, 3.04347813e-01, 2.17391297e-01,
          4.78260875e-01, 1.73913047e-01, 4.34782617e-02 ]
      - [ 0., 0., 0., 0., 0., 0., 0., 0., 3.84615399e-02, 3.46153855e-01,
          1.15384616e-01, 1.92307696e-01, 1.15384616e-01, 1.92307696e-01,
          1.53846160e-01, 3.46153855e-01, 1., 3.84615391e-01,
          2.30769232e-01, 3.84615399e-02, 7.69230798e-02, 2.30769232e-01,
          1.15384616e-01, 7.69230798e-02, 1.15384616e-01, 2.30769232e-01,
          2.69230783e-01, 2.69230783e-01, 2.30769232e-01, 1.53846160e-01,
          3.07692319e-01, 1.92307696e-01 ]
      - [ 0., 0., 0., 0., 0., 0., 0., 0., 8.69565234e-02, 3.91304344e-01,
          1.30434781e-01, 1.30434781e-01, 4.34782617e-02, 2.60869563e-01,
          4.34782617e-02, 6.52173936e-01, 1., 3.91304344e-01,
          2.60869563e-01, 1.30434781e-01, 8.69565234e-02, 8.69565234e-02,
          2.17391297e-01, 1.30434781e-01, 3.04347813e-01, 1.30434781e-01,
          3.04347813e-01, 3.91304344e-01, 2.60869563e-01, 1.30434781e-01,
          3.04347813e-01, 3.04347813e-01 ]
      - [ 0., 0., 0., 0., 0., 0., 0., 0., 3.70370373e-02, 3.70370358e-01,
          7.40740746e-02, 1.48148149e-01, 0., 1.11111112e-01,
          1.85185179e-01, 4.07407403e-01, 1., 3.70370358e-01,
          1.11111112e-01, 1.11111112e-01, 1.11111112e-01, 1.11111112e-01,
          1.48148149e-01, 1.85185179e-01, 1.85185179e-01, 2.22222224e-01,
          2.22222224e-01, 2.96296299e-01, 2.59259254e-01, 1.11111112e-01,
          2.22222224e-01, 2.59259254e-01 ]
      - [ 0., 0., 0., 0., 0., 0., 0., 0., 3.84615399e-02, 1.,
          1.92307696e-01, 2.30769232e-01, 2.69230783e-01, 2.69230783e-01,
          2.69230783e-01, 3.07692319e-01, 3.07692319e-01, 3.07692319e-01,
          4.23076928e-01, 3.46153855e-01, 1.53846160e-01, 7.69230798e-02,
          2.69230783e-01, 1.53846160e-01, 1.15384616e-01, 7.69230798e-02,
          7.69230798e-02, 3.07692319e-01, 1.53846160e-01, 3.84615399e-02,
          3.84615399e-02, 7.69230798e-02 ]
      - [ 0., 0., 0., 0., 0., 0., 0., 0., 0., 0., 0., 0., 0., 0., 0.,
          5.88235296e-02, 6.76470578e-01, 1., 2.94117659e-01,
          1.17647059e-01, 1.17647059e-01, 2.94117648e-02, 2.05882356e-01,
          0., 0., 5.88235296e-02, 5.88235296e-02, 1.47058830e-01,
          1.17647059e-01, 2.94117648e-02, 1.47058830e-01, 1. ]
      - [ 0., 0., 0., 0., 0., 0., 0., 0., 5.62500000e-01, 7.50000000e-01,
          5.00000000e-01, 3.12500000e-01, 3.75000000e-01, 4.37500000e-01,
          3.75000000e-01, 7.50000000e-01, 5.00000000e-01, 2.50000000e-01,
          1.87500000e-01, 3.75000000e-01, 3.12500000e-01, 3.12500000e-01,
          1.87500000e-01, 0., 0., 1.25000000e-01, 1.87500000e-01, 1.,
          3.75000000e-01, 4.37500000e-01, 4.37500000e-01, 1.87500000e-01 ]
      - [ 0., 0., 0., 0., 0., 0., 0., 0., 0., 0., 0., 0., 4.54545468e-02,
          4.54545468e-02, 1.81818187e-01, 5.00000000e-01, 1.,
          7.27272749e-01, 4.54545468e-01, 6.36363626e-01, 1.36363640e-01,
          3.18181813e-01, 2.27272734e-01, 2.27272734e-01, 3.18181813e-01,
          2.27272734e-01, 1.36363640e-01, 2.72727281e-01, 3.63636374e-01,
          3.18181813e-01, 3.18181813e-01, 4.54545468e-02 ]
      - [ 0., 0., 0., 0., 0., 0., 0., 0., 0., 0., 0., 6.25000000e-02,
          2.50000000e-01, 3.12500000e-01, 1.87500000e-01, 5.00000000e-01,
          6.87500000e-01, 4.37500000e-01, 6.25000000e-01, 5.62500000e-01,
          6.25000000e-01, 1., 4.37500000e-01, 3.75000000e-01,
          2.50000000e-01, 2.50000000e-01, 8.12500000e-01, 5.00000000e-01,
          3.75000000e-01, 3.75000000e-01, 1.87500000e-01, 1.25000000e-01 ]
      - [ 0., 0., 0., 0., 0., 0., 0., 0., 0., 1., 3.80952388e-01,
          2.38095239e-01, 3.33333343e-01, 5.23809552e-01, 1.90476194e-01,
          3.80952388e-01, 5.23809552e-01, 4.28571433e-01, 4.76190485e-02,
          6.19047642e-01, 3.80952388e-01, 3.33333343e-01, 1.90476194e-01,
          2.38095239e-01, 9.52380970e-02, 9.52380970e-02, 9.52380970e-02,
          9.52380970e-02, 4.28571433e-01, 4.76190485e-02, 9.52380970e-02,
          4.76190485e-02 ]
      - [ 0., 0., 0., 0., 0., 0., 0., 0., 0., 0., 0., 0., 0., 0.,
          4.25531901e-02, 6.80851042e-01, 1., 4.25531924e-01,
          1.48936167e-01, 4.25531901e-02, 2.12765951e-02, 6.38297871e-02,
          4.25531901e-02, 6.38297871e-02, 8.51063803e-02, 8.51063803e-02,
          4.25531901e-02, 1.06382981e-01, 2.12765951e-02, 4.25531901e-02,
          6.38297871e-02, 4.25531901e-02 ]
      - [ 0., 0., 0., 0., 0., 0., 0., 0., 3.07692319e-01, 4.61538464e-01,
          7.69230798e-02, 2.30769232e-01, 4.61538464e-01, 7.69230798e-02,
          6.15384638e-01, 7.69230783e-01, 1., 6.15384638e-01,
          4.61538464e-01, 3.07692319e-01, 1.53846160e-01, 3.07692319e-01,
          3.07692319e-01, 4.61538464e-01, 3.07692319e-01, 8.46153855e-01,
          8.46153855e-01, 3.84615391e-01, 6.15384638e-01, 3.84615391e-01,
          3.07692319e-01, 4.61538464e-01 ]
      - [ 0., 0., 0., 0., 0., 0., 0., 0., 0., 0., 0., 0., 0., 0., 0.,
          2.60869563e-01, 7.39130437e-01, 2.60869563e-01, 2.60869563e-01,
          3.04347813e-01, 2.17391297e-01, 2.17391297e-01, 1.73913047e-01,
          1.73913047e-01, 2.17391297e-01, 4.34782594e-01, 5.21739125e-01,
          1., 9.56521749e-01, 1.30434781e-01, 2.17391297e-01,
          1.30434781e-01 ]
      - [ 0., 0., 0., 0., 0., 0., 0., 0., 7.69230798e-02, 3.46153855e-01,
          1.15384616e-01, 1.53846160e-01, 3.84615399e-02, 1.15384616e-01,
          1.92307696e-01, 4.23076928e-01, 1., 3.46153855e-01,
          1.53846160e-01, 1.15384616e-01, 1.15384616e-01, 3.84615399e-02,
          1.53846160e-01, 2.69230783e-01, 1.15384616e-01, 2.30769232e-01,
          3.07692319e-01, 2.69230783e-01, 1.92307696e-01, 1.92307696e-01,
          2.30769232e-01, 2.69230783e-01 ]
      - [ 0., 0., 0., 0., 0., 0., 0., 0., 0., 0., 0., 1.85185179e-01,
          2.22222224e-01, 1., 7.40740716e-01, 7.40740716e-01, 1.,
          2.96296299e-01, 2.22222224e-01, 1.48148149e-01, 0.,
          7.40740746e-02, 7.40740746e-02, 7.40740746e-02, 1.11111112e-01,
          7.40740746e-02, 3.70370373e-02, 7.40740746e-02, 7.40740746e-02,
          0., 1.48148149e-01, 0. ]
      - [ 0., 0., 0., 0., 0., 0., 0., 0., 0., 0., 0., 4.34782617e-02,
          1.73913047e-01, 8.69565234e-02, 4.34782617e-02, 1.30434781e-01,
          1.73913047e-01, 4.34782617e-02, 3.47826093e-01, 2.17391297e-01,
          5.21739125e-01, 2.60869563e-01, 5.21739125e-01, 1.,
          5.21739125e-01, 3.47826093e-01, 6.08695626e-01, 3.04347813e-01,
          1.73913047e-01, 8.69565234e-02, 2.17391297e-01, 3.91304344e-01 ]
      - [ 0., 0., 0., 0., 0., 0., 0., 0., 0., 0., 0., 0., 0., 0., 0.,
          5.00000000e-01, 8.12500000e-01, 1., 7.50000000e-01,
          5.62500000e-01, 8.75000000e-01, 2.50000000e-01, 3.75000000e-01,
          1.87500000e-01, 3.75000000e-01, 5.00000000e-01, 5.62500000e-01,
          6.25000000e-01, 4.37500000e-01, 5.62500000e-01, 4.37500000e-01,
          6.25000000e-02 ]
      - [ 0., 0., 0., 0., 0., 0., 0., 0., 0., 0., 0., 0., 0., 0., 0.,
          2.43243247e-01, 1., 2.16216221e-01, 1.35135129e-01,
          2.70270258e-01, 1.08108111e-01, 2.43243247e-01, 1.08108111e-01,
          1.62162155e-01, 1.35135129e-01, 2.70270258e-01, 1.35135129e-01,
          2.97297299e-01, 2.16216221e-01, 8.10810775e-02, 2.70270277e-02,
          2.16216221e-01 ]
      - [ 0., 0., 0., 0., 0., 0., 0., 0., 0., 0., 0., 0., 0., 0., 0.,
          7.50000000e-01, 1., 1.66666672e-01, 8.33333358e-02, 0., 0.,
          2.08333340e-02, 6.25000000e-02, 2.08333340e-02, 0.,
          2.08333340e-02, 2.08333340e-02, 2.08333340e-02, 4.16666679e-02,
          2.08333340e-02, 2.08333340e-02, 1.87500000e-01 ]
      - [ 0., 0., 0., 0., 0., 0., 0., 0., 9.52380970e-02, 4.28571433e-01,
          1.90476194e-01, 9.52380970e-02, 9.52380970e-02, 1.42857149e-01,
          1.42857149e-01, 6.66666687e-01, 1., 6.19047642e-01,
          1.90476194e-01, 1.90476194e-01, 1.42857149e-01, 0.,
          3.80952388e-01, 4.76190485e-02, 2.38095239e-01, 3.33333343e-01,
          2.38095239e-01, 3.80952388e-01, 3.80952388e-01, 9.52380970e-02,
          3.33333343e-01, 3.33333343e-01 ]
      - [ 0., 0., 0., 0., 0., 0., 0., 0., 0., 0., 0., 0., 0., 0., 0.,
          3.33333343e-01, 7.08333313e-01, 2.50000000e-01, 1.25000000e-01,
          3.75000000e-01, 1.25000000e-01, 3.33333343e-01, 4.16666679e-02,
          2.08333328e-01, 2.08333328e-01, 2.91666657e-01, 6.25000000e-01,
          8.75000000e-01, 1., 1.25000000e-01, 1.66666672e-01,
          1.66666672e-01 ]
      - [ 0., 0., 0., 0., 0., 0., 0., 0., 0., 0., 0., 0., 0.,
          7.69230798e-02, 1.53846160e-01, 2.69230783e-01, 1.,
          6.53846145e-01, 3.84615391e-01, 2.69230783e-01, 4.61538464e-01,
          1.53846160e-01, 1.92307696e-01, 1.53846160e-01, 2.30769232e-01,
          1.53846160e-01, 1.92307696e-01, 1.92307696e-01, 3.07692319e-01,
          2.69230783e-01, 3.46153855e-01, 3.84615399e-02 ]
      - [ 0., 0., 0., 0., 0., 0., 0., 0., 0., 0., 0., 0., 0., 0.,
          5.55555560e-02, 3.88888896e-01, 6.66666687e-01, 1.,
          4.44444448e-01, 5.55555582e-01, 8.33333313e-01, 2.77777791e-01,
          3.33333343e-01, 2.22222224e-01, 2.77777791e-01, 6.66666687e-01,
          2.77777791e-01, 5.55555582e-01, 3.33333343e-01, 5.00000000e-01,
          4.44444448e-01, 5.55555560e-02 ]
      - [ 0., 0., 0., 0., 0., 0., 0., 0., 0., 0., 0., 4.76190485e-02, 0.,
          4.76190485e-02, 1.42857149e-01, 1.90476194e-01, 2.38095239e-01,
          1.90476194e-01, 3.33333343e-01, 8.09523821e-01, 2.85714298e-01,
          1.90476194e-01, 3.33333343e-01, 3.80952388e-01, 6.19047642e-01,
          1., 9.04761910e-01, 4.76190478e-01, 3.33333343e-01,
          2.38095239e-01, 0., 4.76190485e-02 ]
      - [ 0., 0., 0., 0., 0., 0., 0., 0., 9.09090936e-02, 2.72727281e-01,
          1.36363640e-01, 2.72727281e-01, 1.81818187e-01, 2.27272734e-01,
          3.18181813e-01, 3.18181813e-01, 4.09090906e-01, 1.81818187e-01,
          1.36363640e-01, 2.72727281e-01, 9.09090936e-02, 4.54545468e-02,
          4.54545468e-02, 4.54545468e-02, 1.81818187e-01, 4.09090906e-01,
          6.81818187e-01, 1., 2.27272734e-01, 3.63636374e-01,
          5.90909064e-01, 0. ]
   decision_functions:
      -
         sv_count: 44
         rho: -1.0238439084528552e+00
         alpha: [ 1.1472139595115857e-01, 1.5387916939433330e-01,
             8.0086245216675767e-01, 3.8924724784042956e-02,
             4.4431530121917320e-03, 3.9186786569960268e-02,
             4.0380499165463468e-01, 3.2024579350603333e-01,
             5.1870957837763269e-03, 3.0614071243111296e-01,
             1.0938570575852352e-02, 8.0603749666502467e-01,
             1.8361443867100490e-02, 2.3062869380212733e-03,
             6.3904571444749925e-01, 1., 2.3427118038476351e-02,
             4.7273023103467454e-02, 1.5462410772828650e-01,
             7.4604246675574418e-03, 3.0229159659700056e-01,
             7.1195772506461780e-02, 1.1386762674849686e-01,
             6.9803234323797564e-02, 3.3477544241880142e-03,
             2.4809240877676469e-02, 7.3084616388876854e-03,
             1.5636582147716302e-01, 2.1443292184562899e-04,
             7.0117597811609000e-01, 3.3179418170784569e-02,
             3.5078338954580834e-01, -4.4659322440474264e-01,
             -3.1191912346864065e-01, -1., -3.3378023680085833e-01,
             -2.4581116406875508e-01, -1., -9.9932620135776407e-01, -1.,
             -6.7737487748245923e-02, -1.2207288023000101e-01,
             -2.0397287055448060e-01, -1. ]
